~o
<STREAMINFO> 1 39
<VECSIZE> 39<NULLD><MFCC_D_A_0><DIAGC>
~h "@"
<BEGINHMM>
<NUMSTATES> 5
<STATE> 2
<MEAN> 39
 -5.417340e+00 -3.382649e+00 -1.126250e+00 -4.202267e+00 -8.591345e+00 -3.063367e+00 -8.714252e+00 -3.062589e+00 -4.104328e+00 -2.501720e+00 -1.685343e+00 -5.680674e+00 5.607494e+01 1.233848e-02 -2.808927e-03 9.481769e-04 -5.464064e-03 -5.909864e-03 3.956694e-03 -6.403964e-03 -6.702472e-03 1.498831e-04 2.131261e-03 -6.203693e-04 -9.350619e-03 2.542556e-02 -9.520744e-05 -5.078288e-05 -1.030185e-04 1.284432e-04 7.575596e-05 -1.079687e-04 2.804765e-04 2.598865e-04 -1.005915e-04 -1.697721e-04 -8.714079e-06 1.926456e-04 -1.837551e-05
<VARIANCE> 39
 6.710612e+01 6.520439e+01 6.806797e+01 5.492977e+01 7.626746e+01 6.741801e+01 6.216182e+01 6.985979e+01 6.027821e+01 4.287533e+01 4.737450e+01 4.534357e+01 2.434958e+02 2.716410e+00 2.865979e+00 2.595503e+00 2.702237e+00 3.442110e+00 3.197953e+00 3.148507e+00 3.773639e+00 3.314065e+00 2.717823e+00 2.988260e+00 2.501036e+00 5.452229e+00 4.216148e-01 4.454347e-01 4.136041e-01 4.661845e-01 6.115404e-01 5.586916e-01 5.721116e-01 6.677626e-01 5.880407e-01 5.074167e-01 5.478362e-01 4.601750e-01 7.265161e-01
<GCONST> 1.327514e+02
<STATE> 3
<MEAN> 39
 -5.373261e+00 -3.393521e+00 -1.123011e+00 -4.220642e+00 -8.613219e+00 -3.051456e+00 -8.737957e+00 -3.084756e+00 -4.105145e+00 -2.496591e+00 -1.687770e+00 -5.713393e+00 5.616801e+01 1.203153e-02 -3.135650e-03 5.810357e-04 -5.055141e-03 -5.598268e-03 3.597688e-03 -5.501323e-03 -5.962237e-03 -2.480749e-04 1.417503e-03 -8.350851e-04 -8.642419e-03 2.524845e-02 -1.111005e-04 -6.914576e-05 -1.126876e-04 1.415029e-04 9.401139e-05 -1.304131e-04 2.689233e-04 2.247816e-04 -1.051664e-04 -1.893016e-04 -9.083982e-05 2.021713e-04 -5.956956e-05
<VARIANCE> 39
 6.702234e+01 6.530027e+01 6.818801e+01 5.504185e+01 7.624643e+01 6.771370e+01 6.224926e+01 7.002450e+01 6.054743e+01 4.299274e+01 4.745407e+01 4.536174e+01 2.424935e+02 2.722198e+00 2.872465e+00 2.602114e+00 2.710408e+00 3.445485e+00 3.209242e+00 3.155696e+00 3.782144e+00 3.325906e+00 2.722261e+00 2.996578e+00 2.509492e+00 5.473511e+00 4.224775e-01 4.462792e-01 4.148244e-01 4.673905e-01 6.122607e-01 5.602603e-01 5.729811e-01 6.691316e-01 5.897743e-01 5.077971e-01 5.493852e-01 4.616345e-01 7.292082e-01
<GCONST> 1.328330e+02
<STATE> 4
<MEAN> 39
 -5.398822e+00 -3.371857e+00 -1.018254e+00 -4.258410e+00 -8.589930e+00 -2.954264e+00 -8.820055e+00 -2.975836e+00 -4.213417e+00 -2.427436e+00 -1.736357e+00 -5.716599e+00 5.605278e+01 1.145722e-02 -3.631340e-03 3.614749e-04 -4.643226e-03 -5.208856e-03 2.986535e-03 -4.918229e-03 -5.262008e-03 -7.142541e-04 3.822162e-04 -1.370517e-03 -8.034934e-03 2.512768e-02 -1.756534e-04 -2.537602e-05 -7.881645e-05 1.316517e-04 1.392960e-04 -7.966052e-05 2.649226e-04 1.594795e-04 -5.356031e-05 -1.307776e-04 -1.237226e-04 1.858788e-04 -2.271009e-04
<VARIANCE> 39
 6.641181e+01 6.547710e+01 6.806844e+01 5.471713e+01 7.661727e+01 6.796922e+01 6.294674e+01 6.926678e+01 5.978632e+01 4.289905e+01 4.743827e+01 4.563038e+01 2.450269e+02 2.660204e+00 2.821196e+00 2.572742e+00 2.676558e+00 3.392888e+00 3.198270e+00 3.143250e+00 3.739548e+00 3.281870e+00 2.695724e+00 2.976864e+00 2.498366e+00 5.389287e+00 4.116445e-01 4.364843e-01 4.096534e-01 4.606069e-01 6.014122e-01 5.558165e-01 5.688567e-01 6.603979e-01 5.815937e-01 5.022117e-01 5.450667e-01 4.583734e-01 7.121002e-01
<GCONST> 1.324949e+02
<TRANSP> 5
 0.000000e+00 1.000000e+00 0.000000e+00 0.000000e+00 0.000000e+00
 0.000000e+00 7.180450e-01 2.819550e-01 0.000000e+00 0.000000e+00
 0.000000e+00 0.000000e+00 7.180408e-01 2.819592e-01 0.000000e+00
 0.000000e+00 0.000000e+00 0.000000e+00 8.437468e-01 1.562532e-01
 0.000000e+00 0.000000e+00 0.000000e+00 0.000000e+00 0.000000e+00
<ENDHMM>
~h "a"
<BEGINHMM>
<NUMSTATES> 5
<STATE> 2
<MEAN> 39
 -5.463181e+00 -3.871940e+00 -1.388147e+00 -4.257820e+00 -8.014300e+00 -2.578550e+00 -8.349918e+00 -2.613877e+00 -3.859303e+00 -2.678644e+00 -1.885735e+00 -5.750951e+00 5.607903e+01 9.548908e-04 -4.782216e-04 5.686719e-04 -1.316875e-03 4.052940e-03 1.963525e-03 4.591740e-04 -4.936217e-05 4.254757e-04 6.686831e-04 -4.640700e-03 -1.683766e-03 -4.189289e-04 -2.454442e-04 3.804013e-04 1.768764e-04 -6.042996e-05 -2.101042e-04 -3.431824e-05 -9.344883e-05 -1.838907e-04 -1.012217e-04 -2.934702e-06 1.930698e-04 2.147342e-04 -6.459686e-04
<VARIANCE> 39
 6.465526e+01 6.940318e+01 6.907748e+01 5.619068e+01 7.427717e+01 6.778732e+01 5.981395e+01 6.835535e+01 5.982814e+01 4.368532e+01 4.752219e+01 4.713205e+01 2.486869e+02 2.585917e+00 2.907209e+00 2.587671e+00 2.666621e+00 3.358368e+00 3.166102e+00 3.009129e+00 3.750564e+00 3.243131e+00 2.709889e+00 2.934272e+00 2.513799e+00 5.285387e+00 4.043753e-01 4.388315e-01 4.041719e-01 4.581412e-01 5.932376e-01 5.519423e-01 5.494222e-01 6.618000e-01 5.728734e-01 5.030330e-01 5.369852e-01 4.577681e-01 6.953819e-01
<GCONST> 1.323078e+02
<STATE> 3
<MEAN> 39
 -5.459791e+00 -3.873741e+00 -1.385902e+00 -4.262938e+00 -7.999755e+00 -2.570547e+00 -8.349380e+00 -2.614225e+00 -3.857447e+00 -2.675796e+00 -1.902621e+00 -5.756834e+00 5.607758e+01 1.193157e-04 8.574904e-04 1.167400e-03 -1.375697e-03 3.215497e-03 1.740284e-03 1.001887e-04 -5.351502e-04 -6.020682e-05 6.763589e-04 -3.990158e-03 -8.730181e-04 -2.628245e-03 -1.846310e-04 2.650183e-04 9.537791e-05 -3.857198e-05 -2.155168e-04 -1.021126e-05 -1.108119e-04 -4.891742e-05 -9.311795e-05 -2.160138e-05 2.262780e-04 1.519600e-04 -3.587597e-04
<VARIANCE> 39
 6.457430e+01 6.950130e+01 6.919624e+01 5.611400e+01 7.424044e+01 6.772566e+01 5.980494e+01 6.819730e+01 5.979296e+01 4.369966e+01 4.755727e+01 4.706799e+01 2.484924e+02 2.584633e+00 2.906444e+00 2.585976e+00 2.662273e+00 3.354093e+00 3.163633e+00 3.008350e+00 3.746041e+00 3.239681e+00 2.707793e+00 2.931951e+00 2.510161e+00 5.284985e+00 4.039446e-01 4.385041e-01 4.036886e-01 4.573260e-01 5.923275e-01 5.513177e-01 5.492517e-01 6.610393e-01 5.721765e-01 5.025950e-01 5.364724e-01 4.570765e-01 6.948408e-01
<GCONST> 1.322778e+02
<STATE> 4
<MEAN> 39
 -5.501927e+00 -3.853670e+00 -1.251831e+00 -4.291127e+00 -7.969100e+00 -2.421673e+00 -8.443101e+00 -2.459905e+00 -3.978759e+00 -2.601468e+00 -1.967156e+00 -5.729377e+00 5.598287e+01 -3.489527e-04 1.553058e-03 1.510054e-03 -1.251993e-03 2.246045e-03 1.485871e-03 -3.028437e-04 -2.994256e-04 -6.500715e-04 6.466822e-04 -3.272177e-03 -2.423965e-04 -3.333269e-03 -1.265268e-04 1.528189e-04 2.022317e-05 -1.014094e-06 -1.981833e-04 -3.384527e-05 -4.640717e-05 4.467851e-05 -9.559307e-05 -2.656045e-05 2.450895e-04 9.670929e-05 -1.264337e-04
<VARIANCE> 39
 6.437513e+01 7.020554e+01 6.956335e+01 5.565234e+01 7.479121e+01 6.795768e+01 6.069970e+01 6.764991e+01 5.910016e+01 4.363547e+01 4.784203e+01 4.735156e+01 2.510318e+02 2.532572e+00 2.868374e+00 2.561097e+00 2.624309e+00 3.309585e+00 3.147311e+00 3.005375e+00 3.713234e+00 3.196464e+00 2.681693e+00 2.912353e+00 2.489385e+00 5.208385e+00 3.942915e-01 4.305595e-01 3.983935e-01 4.504045e-01 5.817436e-01 5.461053e-01 5.466430e-01 6.533752e-01 5.640668e-01 4.978195e-01 5.311627e-01 4.521473e-01 6.789433e-01
<GCONST> 1.319872e+02
<TRANSP> 5
 0.000000e+00 1.000000e+00 0.000000e+00 0.000000e+00 0.000000e+00
 0.000000e+00 7.188087e-01 2.811913e-01 0.000000e+00 0.000000e+00
 0.000000e+00 0.000000e+00 7.188105e-01 2.811894e-01 0.000000e+00
 0.000000e+00 0.000000e+00 0.000000e+00 8.453888e-01 1.546112e-01
 0.000000e+00 0.000000e+00 0.000000e+00 0.000000e+00 0.000000e+00
<ENDHMM>
~h "b"
<BEGINHMM>
<NUMSTATES> 5
<STATE> 2
<MEAN> 39
 -4.906446e+00 -3.077579e+00 -7.061141e-01 -4.252985e+00 -8.545273e+00 -2.686640e+00 -8.711576e+00 -3.124301e+00 -4.512567e+00 -2.625902e+00 -1.352349e+00 -5.587170e+00 5.615268e+01 1.034015e-02 6.344367e-03 7.030264e-03 -5.065551e-03 -3.611972e-03 9.085083e-03 -5.444428e-03 -1.297418e-02 6.799545e-04 4.958153e-03 2.016744e-03 -7.587299e-03 1.618212e-02 -4.841501e-04 1.512655e-04 -4.738004e-04 -4.076308e-04 5.359766e-04 5.566024e-04 2.300255e-04 -2.158329e-04 3.966541e-04 6.518228e-04 -4.579748e-04 -4.513461e-04 -6.383794e-04
<VARIANCE> 39
 6.655204e+01 6.783938e+01 7.086881e+01 6.011874e+01 7.457405e+01 6.941383e+01 6.239613e+01 7.085176e+01 6.224555e+01 4.360471e+01 4.897518e+01 4.641591e+01 2.411913e+02 2.545892e+00 2.958140e+00 2.630064e+00 2.815585e+00 3.446144e+00 3.227982e+00 3.149676e+00 3.782831e+00 3.449190e+00 2.794672e+00 3.050089e+00 2.555402e+00 5.385543e+00 3.927399e-01 4.530652e-01 4.091748e-01 4.801063e-01 6.099192e-01 5.615608e-01 5.737439e-01 6.643629e-01 6.034721e-01 5.213710e-01 5.568977e-01 4.696633e-01 7.166420e-01
<GCONST> 1.332070e+02
<STATE> 3
<MEAN> 39
 -4.870749e+00 -3.053739e+00 -6.844647e-01 -4.272675e+00 -8.556639e+00 -2.650052e+00 -8.730044e+00 -3.170168e+00 -4.510014e+00 -2.605811e+00 -1.348900e+00 -5.617125e+00 5.620868e+01 8.633199e-03 6.254016e-03 4.974778e-03 -5.133004e-03 -2.076858e-03 9.971451e-03 -4.362162e-03 -1.197832e-02 1.100613e-03 5.714818e-03 5.852256e-04 -8.064070e-03 1.412656e-02 -4.838616e-04 -3.260631e-05 -5.943495e-04 1.440552e-05 4.258970e-04 1.488262e-04 3.049384e-04 3.540179e-04 1.021440e-04 1.464369e-04 -3.831208e-04 -1.699891e-04 -6.033243e-04
<VARIANCE> 39
 6.654442e+01 6.799921e+01 7.099053e+01 5.992769e+01 7.461598e+01 6.963593e+01 6.249336e+01 7.078687e+01 6.254326e+01 4.364651e+01 4.906963e+01 4.618510e+01 2.404021e+02 2.546264e+00 2.963696e+00 2.636062e+00 2.814894e+00 3.448130e+00 3.234289e+00 3.157276e+00 3.775584e+00 3.456051e+00 2.796401e+00 3.056103e+00 2.551213e+00 5.385236e+00 3.924366e-01 4.539149e-01 4.099274e-01 4.796982e-01 6.101938e-01 5.627600e-01 5.749049e-01 6.627569e-01 6.041445e-01 5.216662e-01 5.577269e-01 4.687978e-01 7.170095e-01
<GCONST> 1.332277e+02
<STATE> 4
<MEAN> 39
 -4.864585e+00 -3.029331e+00 -5.621726e-01 -4.324529e+00 -8.582924e+00 -2.467459e+00 -8.831800e+00 -3.093379e+00 -4.588075e+00 -2.513207e+00 -1.388149e+00 -5.651897e+00 5.619664e+01 6.793864e-03 5.000680e-03 2.302843e-03 -3.600890e-03 -1.016149e-03 9.258809e-03 -3.472114e-03 -8.816807e-03 6.884221e-04 4.351174e-03 -7.631169e-04 -6.575719e-03 1.218502e-02 -4.667564e-04 -2.321269e-04 -5.381880e-04 2.861371e-04 2.745630e-04 -2.813463e-04 2.124926e-04 6.026233e-04 1.527186e-05 -1.954339e-04 -2.206618e-04 2.196305e-04 -5.365934e-04
<VARIANCE> 39
 6.650530e+01 6.880241e+01 7.138980e+01 5.934367e+01 7.577095e+01 6.999480e+01 6.339992e+01 7.015830e+01 6.218984e+01 4.368660e+01 4.934005e+01 4.622961e+01 2.425109e+02 2.500752e+00 2.935521e+00 2.619244e+00 2.788178e+00 3.417581e+00 3.222593e+00 3.158618e+00 3.736531e+00 3.409732e+00 2.774721e+00 3.045247e+00 2.532496e+00 5.323593e+00 3.839943e-01 4.472833e-01 4.059371e-01 4.744185e-01 6.025609e-01 5.595306e-01 5.735818e-01 6.542112e-01 5.958132e-01 5.171668e-01 5.541039e-01 4.640254e-01 7.036875e-01
<GCONST> 1.330123e+02
<TRANSP> 5
 0.000000e+00 1.000000e+00 0.000000e+00 0.000000e+00 0.000000e+00
 0.000000e+00 7.183489e-01 2.816511e-01 0.000000e+00 0.000000e+00
 0.000000e+00 0.000000e+00 7.183478e-01 2.816522e-01 0.000000e+00
 0.000000e+00 0.000000e+00 0.000000e+00 8.442138e-01 1.557862e-01
 0.000000e+00 0.000000e+00 0.000000e+00 0.000000e+00 0.000000e+00
<ENDHMM>
~h "c"
<BEGINHMM>
<NUMSTATES> 5
<STATE> 2
<MEAN> 39
 -5.925520e+00 -3.381989e+00 -9.627689e-01 -4.306693e+00 -8.524954e+00 -3.551203e+00 -8.423856e+00 -2.865605e+00 -4.124723e+00 -2.842240e+00 -1.692607e+00 -5.361119e+00 5.570753e+01 -1.019303e-03 -9.082087e-04 -2.716754e-03 -7.581093e-03 6.554998e-05 4.334836e-05 -2.995601e-03 -1.452439e-03 5.756358e-03 1.332428e-03 -4.860364e-04 -3.235548e-03 1.781829e-02 5.719815e-04 -4.377306e-04 -6.170827e-04 -2.209724e-04 -1.940681e-04 6.155957e-04 2.529020e-05 -2.879677e-05 -4.033449e-04 1.610918e-05 5.844136e-04 -1.129237e-04 1.042117e-03
<VARIANCE> 39
 6.567194e+01 6.753159e+01 6.831854e+01 5.416314e+01 7.053905e+01 6.720165e+01 5.993657e+01 6.931754e+01 5.698224e+01 4.314471e+01 4.542679e+01 4.355931e+01 2.473386e+02 3.231858e+00 3.081536e+00 2.694015e+00 2.769240e+00 3.484420e+00 3.276285e+00 3.158922e+00 3.856730e+00 3.274306e+00 2.717037e+00 2.942390e+00 2.491366e+00 6.004092e+00 5.469283e-01 4.826780e-01 4.365867e-01 4.867967e-01 6.278102e-01 5.844809e-01 5.826617e-01 6.902323e-01 5.810707e-01 5.078272e-01 5.477837e-01 4.597334e-01 8.064837e-01
<GCONST> 1.335996e+02
<STATE> 3
<MEAN> 39
 -5.926691e+00 -3.388281e+00 -9.764075e-01 -4.335382e+00 -8.523471e+00 -3.548786e+00 -8.436832e+00 -2.867082e+00 -4.107197e+00 -2.836252e+00 -1.693291e+00 -5.372828e+00 5.577678e+01 7.118414e-04 -2.140831e-03 -4.715258e-03 -7.929564e-03 -5.986135e-04 1.703915e-03 -2.808619e-03 -5.148297e-04 4.807054e-03 8.819216e-04 1.124629e-03 -3.881268e-03 2.061194e-02 6.736657e-04 -2.870750e-04 -4.455181e-04 -2.605015e-04 -2.145173e-04 7.286138e-04 3.141780e-05 2.019374e-04 -3.135254e-04 -1.590368e-04 5.004967e-04 -3.199135e-04 8.664580e-04
<VARIANCE> 39
 6.589121e+01 6.778540e+01 6.828204e+01 5.408536e+01 7.043240e+01 6.727756e+01 5.986325e+01 6.928033e+01 5.697509e+01 4.320841e+01 4.561240e+01 4.351667e+01 2.471162e+02 3.261319e+00 3.095800e+00 2.707734e+00 2.772598e+00 3.494669e+00 3.291115e+00 3.169206e+00 3.865280e+00 3.277024e+00 2.721127e+00 2.945761e+00 2.493919e+00 6.069061e+00 5.526928e-01 4.852859e-01 4.392383e-01 4.871306e-01 6.301006e-01 5.868319e-01 5.849389e-01 6.917679e-01 5.822948e-01 5.080761e-01 5.487303e-01 4.602089e-01 8.150076e-01
<GCONST> 1.337066e+02
<STATE> 4
<MEAN> 39
 -5.907172e+00 -3.351182e+00 -8.558146e-01 -4.396554e+00 -8.550295e+00 -3.370164e+00 -8.572464e+00 -2.723681e+00 -4.209420e+00 -2.746318e+00 -1.704359e+00 -5.388271e+00 5.582310e+01 3.085590e-03 -3.219254e-03 -6.565625e-03 -8.539877e-03 -6.587635e-04 3.347065e-03 -3.194445e-03 1.611438e-03 4.205551e-03 -1.504636e-04 1.875589e-03 -5.281539e-03 2.305190e-02 6.181309e-04 -1.069600e-04 -2.114378e-04 -1.774414e-04 -9.837985e-05 6.161785e-04 4.026836e-05 2.075108e-04 -1.168604e-04 -2.635565e-04 2.793597e-04 -3.974438e-04 4.841632e-04
<VARIANCE> 39
 6.600340e+01 6.869961e+01 6.847278e+01 5.408026e+01 7.105628e+01 6.816081e+01 6.091467e+01 6.901134e+01 5.664241e+01 4.361503e+01 4.648072e+01 4.368534e+01 2.492390e+02 3.232387e+00 3.076113e+00 2.711804e+00 2.760955e+00 3.475599e+00 3.297763e+00 3.172693e+00 3.856809e+00 3.257273e+00 2.719723e+00 2.939749e+00 2.484130e+00 6.054911e+00 5.471080e-01 4.810789e-01 4.390773e-01 4.844627e-01 6.246834e-01 5.847995e-01 5.840200e-01 6.880040e-01 5.793398e-01 5.068195e-01 5.466122e-01 4.575775e-01 8.063710e-01
<GCONST> 1.336854e+02
<TRANSP> 5
 0.000000e+00 1.000000e+00 0.000000e+00 0.000000e+00 0.000000e+00
 0.000000e+00 7.187812e-01 2.812188e-01 0.000000e+00 0.000000e+00
 0.000000e+00 0.000000e+00 7.187838e-01 2.812162e-01 0.000000e+00
 0.000000e+00 0.000000e+00 0.000000e+00 8.447238e-01 1.552762e-01
 0.000000e+00 0.000000e+00 0.000000e+00 0.000000e+00 0.000000e+00
<ENDHMM>
~h "d"
<BEGINHMM>
<NUMSTATES> 5
<STATE> 2
<MEAN> 39
 -5.233730e+00 -3.441897e+00 -2.411948e-01 -3.884574e+00 -9.120790e+00 -3.206048e+00 -8.936272e+00 -2.853637e+00 -4.292182e+00 -2.790396e+00 -1.556055e+00 -5.675117e+00 5.646468e+01 9.593854e-03 2.371557e-04 1.210201e-02 2.115747e-03 -1.118225e-02 -5.474483e-03 -6.422373e-03 -1.106971e-03 9.179577e-05 -1.506801e-03 -8.947817e-04 -5.002994e-03 1.994048e-02 -2.099297e-04 8.901789e-05 -1.534099e-04 -1.718169e-04 2.215095e-04 1.817364e-04 1.225725e-04 -2.008329e-04 9.730828e-05 1.283716e-04 6.783592e-05 8.569781e-05 -5.703418e-04
<VARIANCE> 39
 6.644661e+01 6.720456e+01 7.619233e+01 5.753406e+01 8.117501e+01 6.916036e+01 6.166457e+01 7.440312e+01 6.120854e+01 4.302152e+01 4.984146e+01 4.583475e+01 2.431337e+02 2.601453e+00 2.914129e+00 2.683318e+00 2.790969e+00 3.694330e+00 3.202832e+00 3.168327e+00 3.972245e+00 3.338089e+00 2.705597e+00 3.096451e+00 2.500932e+00 5.557117e+00 4.081747e-01 4.477726e-01 4.103615e-01 4.713319e-01 6.511271e-01 5.599057e-01 5.746474e-01 6.950703e-01 5.922422e-01 5.021576e-01 5.617046e-01 4.596719e-01 7.421059e-01
<GCONST> 1.335057e+02
<STATE> 3
<MEAN> 39
 -5.200096e+00 -3.440709e+00 -1.964376e-01 -3.876838e+00 -9.159322e+00 -3.224708e+00 -8.958249e+00 -2.856674e+00 -4.291260e+00 -2.795921e+00 -1.558584e+00 -5.691953e+00 5.653085e+01 8.860088e-03 2.528942e-04 1.152678e-02 1.771798e-03 -1.027168e-02 -4.852599e-03 -5.667889e-03 -1.553760e-03 1.717774e-04 -1.242087e-03 -5.862863e-04 -4.338499e-03 1.787380e-02 -1.662983e-04 1.763253e-05 -1.267648e-04 -1.119540e-04 2.328998e-04 1.541766e-04 1.828789e-04 -1.886620e-04 -9.556547e-06 8.804126e-05 5.279140e-05 1.584180e-04 -5.578109e-04
<VARIANCE> 39
 6.628636e+01 6.725155e+01 7.654572e+01 5.756741e+01 8.142034e+01 6.936419e+01 6.160435e+01 7.445342e+01 6.141729e+01 4.307024e+01 4.999877e+01 4.575797e+01 2.418559e+02 2.605420e+00 2.917770e+00 2.689104e+00 2.795795e+00 3.709720e+00 3.204225e+00 3.172472e+00 3.979176e+00 3.341976e+00 2.706125e+00 3.103668e+00 2.501607e+00 5.561172e+00 4.090040e-01 4.483295e-01 4.106556e-01 4.719050e-01 6.541077e-01 5.600981e-01 5.752947e-01 6.963533e-01 5.927536e-01 5.020179e-01 5.629967e-01 4.597326e-01 7.427801e-01
<GCONST> 1.335516e+02
<STATE> 4
<MEAN> 39
 -5.206121e+00 -3.417691e+00 -2.195604e-02 -3.907140e+00 -9.208051e+00 -3.118334e+00 -9.082256e+00 -2.732366e+00 -4.415062e+00 -2.734612e+00 -1.603180e+00 -5.690724e+00 5.654293e+01 7.985323e-03 -8.502463e-05 1.067425e-02 1.586721e-03 -8.672802e-03 -3.954706e-03 -4.203740e-03 -1.093019e-03 -2.806360e-04 -1.234714e-03 -3.654007e-04 -3.468578e-03 1.514185e-02 -1.304085e-04 -3.528926e-05 -2.048815e-04 -7.966517e-05 2.392524e-04 1.275398e-04 2.424370e-04 -7.379432e-05 -7.293471e-05 4.845827e-05 -1.323128e-05 1.169048e-04 -4.071482e-04
<VARIANCE> 39
 6.610130e+01 6.772443e+01 7.715420e+01 5.716675e+01 8.240759e+01 6.955796e+01 6.238630e+01 7.431037e+01 6.059208e+01 4.298952e+01 5.047556e+01 4.589580e+01 2.427176e+02 2.568467e+00 2.884035e+00 2.671956e+00 2.767110e+00 3.683228e+00 3.193183e+00 3.174850e+00 3.953045e+00 3.297590e+00 2.682544e+00 3.095964e+00 2.484903e+00 5.482934e+00 4.018367e-01 4.410802e-01 4.059436e-01 4.662139e-01 6.479442e-01 5.564708e-01 5.736911e-01 6.897203e-01 5.849961e-01 4.973446e-01 5.598410e-01 4.554017e-01 7.265204e-01
<GCONST> 1.333326e+02
<TRANSP> 5
 0.000000e+00 1.000000e+00 0.000000e+00 0.000000e+00 0.000000e+00
 0.000000e+00 7.185234e-01 2.814766e-01 0.000000e+00 0.000000e+00
 0.000000e+00 0.000000e+00 7.185171e-01 2.814830e-01 0.000000e+00
 0.000000e+00 0.000000e+00 0.000000e+00 8.444115e-01 1.555885e-01
 0.000000e+00 0.000000e+00 0.000000e+00 0.000000e+00 0.000000e+00
<ENDHMM>
~h "e"
<BEGINHMM>
<NUMSTATES> 5
<STATE> 2
<MEAN> 39
 -5.556923e+00 -3.777936e+00 -1.981779e-01 -4.046743e+00 -9.582788e+00 -3.673627e+00 -8.195565e+00 -2.416918e+00 -4.277910e+00 -2.712588e+00 -1.241977e+00 -5.625607e+00 5.637779e+01 -4.176022e-03 2.724427e-03 1.194841e-03 2.204192e-03 2.110246e-03 5.620462e-04 4.651144e-03 1.525670e-03 2.070193e-03 9.316765e-04 9.813556e-05 4.922050e-04 -1.670718e-03 -2.958715e-04 1.960117e-04 -4.246588e-04 2.117598e-04 4.878237e-04 2.531142e-05 9.743559e-05 8.887865e-05 -1.167944e-04 1.608863e-05 4.284230e-05 3.889372e-04 -1.097912e-03
<VARIANCE> 39
 6.457449e+01 6.890807e+01 7.401657e+01 5.602504e+01 8.642267e+01 6.727741e+01 6.057270e+01 7.300938e+01 5.946382e+01 4.290577e+01 4.985798e+01 4.288755e+01 2.386158e+02 2.519029e+00 2.855175e+00 2.466046e+00 2.584695e+00 3.506082e+00 3.026392e+00 3.027209e+00 3.741692e+00 3.179331e+00 2.666704e+00 2.865290e+00 2.337342e+00 5.370448e+00 3.918578e-01 4.369860e-01 3.837865e-01 4.367725e-01 6.072465e-01 5.279763e-01 5.491022e-01 6.528815e-01 5.645631e-01 4.936753e-01 5.167301e-01 4.296452e-01 6.960156e-01
<GCONST> 1.319327e+02
<STATE> 3
<MEAN> 39
 -5.573698e+00 -3.768656e+00 -1.939985e-01 -4.035654e+00 -9.574299e+00 -3.673517e+00 -8.177285e+00 -2.408806e+00 -4.271316e+00 -2.710069e+00 -1.239691e+00 -5.621451e+00 5.636704e+01 -5.124765e-03 3.342454e-03 -3.798524e-04 2.762703e-03 3.836012e-03 5.171004e-04 4.936588e-03 1.721365e-03 1.837650e-03 8.768169e-04 1.983438e-04 1.791167e-03 -5.238720e-03 -1.907951e-04 2.308110e-04 -3.266154e-04 2.071688e-04 3.966469e-04 -1.257674e-04 1.062518e-05 3.739576e-05 -1.098632e-04 9.755167e-06 5.735651e-05 3.311685e-04 -9.790687e-04
<VARIANCE> 39
 6.468280e+01 6.889693e+01 7.398167e+01 5.584734e+01 8.640756e+01 6.718106e+01 6.054399e+01 7.287161e+01 5.945210e+01 4.281472e+01 4.977510e+01 4.286449e+01 2.382181e+02 2.521442e+00 2.849624e+00 2.465323e+00 2.580400e+00 3.511516e+00 3.022638e+00 3.026413e+00 3.740168e+00 3.176574e+00 2.663703e+00 2.863569e+00 2.336817e+00 5.361193e+00 3.920563e-01 4.359044e-01 3.835068e-01 4.361965e-01 6.083300e-01 5.272187e-01 5.487065e-01 6.522879e-01 5.641382e-01 4.932017e-01 5.163947e-01 4.294570e-01 6.949033e-01
<GCONST> 1.319028e+02
<STATE> 4
<MEAN> 39
 -5.667461e+00 -3.713405e+00 -2.622865e-02 -4.034566e+00 -9.583601e+00 -3.597168e+00 -8.234050e+00 -2.252449e+00 -4.413452e+00 -2.638362e+00 -1.246200e+00 -5.582701e+00 5.616806e+01 -5.814895e-03 3.700040e-03 -1.524639e-03 3.564905e-03 5.516494e-03 1.005206e-04 5.230465e-03 1.615468e-03 1.427266e-03 8.428593e-04 4.402809e-04 2.703455e-03 -9.185037e-03 -6.483605e-05 2.362196e-04 -2.076419e-04 1.369604e-04 3.145714e-04 -1.268292e-04 -5.127428e-05 -1.186437e-04 -9.994346e-05 7.861428e-05 2.792242e-05 1.769830e-04 -8.715132e-04
<VARIANCE> 39
 6.425741e+01 6.900405e+01 7.423266e+01 5.499886e+01 8.747781e+01 6.686063e+01 6.109369e+01 7.172932e+01 5.847094e+01 4.250011e+01 4.976914e+01 4.282907e+01 2.413732e+02 2.455846e+00 2.786213e+00 2.428212e+00 2.534913e+00 3.467458e+00 2.983978e+00 3.005262e+00 3.683269e+00 3.110916e+00 2.624355e+00 2.826182e+00 2.306067e+00 5.265500e+00 3.809489e-01 4.240784e-01 3.765629e-01 4.283577e-01 5.993319e-01 5.195698e-01 5.437567e-01 6.413531e-01 5.528939e-01 4.858099e-01 5.085167e-01 4.230899e-01 6.771999e-01
<GCONST> 1.314256e+02
<TRANSP> 5
 0.000000e+00 1.000000e+00 0.000000e+00 0.000000e+00 0.000000e+00
 0.000000e+00 7.210315e-01 2.789684e-01 0.000000e+00 0.000000e+00
 0.000000e+00 0.000000e+00 7.210287e-01 2.789712e-01 0.000000e+00
 0.000000e+00 0.000000e+00 0.000000e+00 8.479701e-01 1.520299e-01
 0.000000e+00 0.000000e+00 0.000000e+00 0.000000e+00 0.000000e+00
<ENDHMM>
~h "f"
<BEGINHMM>
<NUMSTATES> 5
<STATE> 2
<MEAN> 39
 -6.563484e+00 -3.713554e+00 -1.196374e+00 -4.133332e+00 -8.381549e+00 -3.193625e+00 -8.420036e+00 -3.048588e+00 -4.309986e+00 -2.569405e+00 -1.332518e+00 -5.121607e+00 5.619073e+01 -3.650775e-03 2.527719e-03 5.334509e-03 3.146309e-03 -4.423336e-03 -1.601064e-03 8.361206e-03 -4.429447e-03 -4.665492e-03 6.610627e-04 -3.324905e-04 3.061857e-03 1.473359e-02 -5.278920e-04 5.113920e-04 3.390577e-04 -3.937452e-04 2.298640e-04 -3.228849e-04 6.243836e-06 -1.644950e-04 7.946682e-05 -2.027478e-04 -7.173357e-05 3.631265e-04 -1.191465e-03
<VARIANCE> 39
 7.331919e+01 6.157235e+01 7.472325e+01 5.662457e+01 7.599058e+01 6.834622e+01 5.807266e+01 6.510598e+01 5.477157e+01 4.015873e+01 4.565252e+01 4.229921e+01 2.316774e+02 3.256910e+00 2.661853e+00 2.671736e+00 2.685850e+00 3.458352e+00 3.151036e+00 2.970256e+00 3.624303e+00 3.182389e+00 2.680598e+00 2.855756e+00 2.423460e+00 4.542376e+00 4.868405e-01 4.146602e-01 4.119151e-01 4.548175e-01 5.938652e-01 5.447329e-01 5.429034e-01 6.442565e-01 5.707512e-01 5.051469e-01 5.178761e-01 4.400777e-01 5.901506e-01
<GCONST> 1.317257e+02
<STATE> 3
<MEAN> 39
 -6.581355e+00 -3.704543e+00 -1.178630e+00 -4.125532e+00 -8.395556e+00 -3.201173e+00 -8.390420e+00 -3.063735e+00 -4.325994e+00 -2.568001e+00 -1.335618e+00 -5.109708e+00 5.623395e+01 -5.509403e-03 4.849152e-03 6.657879e-03 2.219540e-03 -3.709430e-03 -2.794318e-03 8.333744e-03 -5.338531e-03 -4.759223e-03 7.191475e-05 -6.823533e-04 4.238117e-03 9.894977e-03 -7.632220e-04 5.550185e-04 3.514720e-04 -2.121656e-04 4.083093e-04 -3.346745e-04 -1.217716e-04 -2.148892e-04 3.603824e-05 -1.706260e-04 -1.142720e-04 3.353188e-04 -1.427969e-03
<VARIANCE> 39
 7.347406e+01 6.179486e+01 7.505209e+01 5.649993e+01 7.629830e+01 6.829961e+01 5.798487e+01 6.527254e+01 5.463557e+01 4.015033e+01 4.571441e+01 4.221489e+01 2.310160e+02 3.272134e+00 2.659127e+00 2.672715e+00 2.683343e+00 3.460758e+00 3.142305e+00 2.965399e+00 3.621363e+00 3.174958e+00 2.682937e+00 2.851775e+00 2.420444e+00 4.512464e+00 4.883819e-01 4.140964e-01 4.117477e-01 4.538554e-01 5.927393e-01 5.425528e-01 5.417436e-01 6.428126e-01 5.695484e-01 5.054442e-01 5.169902e-01 4.395073e-01 5.849997e-01
<GCONST> 1.316954e+02
<STATE> 4
<MEAN> 39
 -6.630425e+00 -3.699530e+00 -1.079882e+00 -4.174652e+00 -8.398420e+00 -3.044885e+00 -8.477743e+00 -2.931500e+00 -4.355862e+00 -2.489576e+00 -1.404646e+00 -5.054397e+00 5.614327e+01 -7.262118e-03 7.478643e-03 7.538348e-03 2.058325e-03 -3.301481e-03 -3.796344e-03 7.318234e-03 -5.836904e-03 -4.435205e-03 -1.023323e-03 -1.856275e-03 3.873715e-03 3.162883e-03 -5.933450e-04 5.663277e-04 2.158304e-04 1.113593e-05 3.900823e-04 -2.280898e-04 -1.205361e-04 -7.562479e-05 4.620707e-05 -9.875219e-05 -1.725957e-04 9.918037e-05 -1.499586e-03
<VARIANCE> 39
 7.295094e+01 6.242342e+01 7.523521e+01 5.572590e+01 7.715714e+01 6.869120e+01 5.892281e+01 6.385835e+01 5.443114e+01 3.999611e+01 4.581401e+01 4.242205e+01 2.318447e+02 3.198345e+00 2.615293e+00 2.645903e+00 2.630468e+00 3.404892e+00 3.094955e+00 2.957327e+00 3.546163e+00 3.109406e+00 2.663016e+00 2.812127e+00 2.398054e+00 4.400854e+00 4.750621e-01 4.057490e-01 4.059778e-01 4.432279e-01 5.792381e-01 5.324011e-01 5.383090e-01 6.288080e-01 5.573747e-01 5.008511e-01 5.090100e-01 4.342821e-01 5.659825e-01
<GCONST> 1.312524e+02
<TRANSP> 5
 0.000000e+00 1.000000e+00 0.000000e+00 0.000000e+00 0.000000e+00
 0.000000e+00 7.216915e-01 2.783084e-01 0.000000e+00 0.000000e+00
 0.000000e+00 0.000000e+00 7.216896e-01 2.783104e-01 0.000000e+00
 0.000000e+00 0.000000e+00 0.000000e+00 8.499636e-01 1.500363e-01
 0.000000e+00 0.000000e+00 0.000000e+00 0.000000e+00 0.000000e+00
<ENDHMM>
~h "g"
<BEGINHMM>
<NUMSTATES> 5
<STATE> 2
<MEAN> 39
 -5.115895e+00 -2.878006e+00 -7.361038e-01 -4.218519e+00 -8.806536e+00 -3.098287e+00 -8.638561e+00 -3.196877e+00 -4.410101e+00 -2.492117e+00 -1.419345e+00 -5.686395e+00 5.628740e+01 5.168281e-03 -1.984743e-03 6.843132e-03 -2.643307e-03 -5.674540e-03 9.588319e-04 1.105541e-03 3.682560e-03 2.277690e-05 1.643408e-03 -1.243408e-03 -2.208061e-03 1.062212e-02 -4.548978e-04 -2.057589e-04 -5.898929e-04 3.106871e-04 3.722823e-04 2.748980e-05 6.274424e-05 4.910724e-04 2.313417e-04 -4.805733e-05 1.922902e-04 4.667552e-04 -1.208422e-03
<VARIANCE> 39
 6.364405e+01 6.625680e+01 7.463496e+01 5.876430e+01 7.759000e+01 6.834181e+01 6.049134e+01 7.302364e+01 5.968914e+01 4.353334e+01 4.789203e+01 4.466141e+01 2.374348e+02 2.516972e+00 2.824407e+00 2.693397e+00 2.775613e+00 3.599385e+00 3.289334e+00 3.106817e+00 3.749432e+00 3.308895e+00 2.766254e+00 3.037231e+00 2.512931e+00 5.172671e+00 3.980440e-01 4.324154e-01 4.205466e-01 4.663311e-01 6.478034e-01 5.711387e-01 5.651585e-01 6.596252e-01 5.869666e-01 5.174872e-01 5.563837e-01 4.651801e-01 6.853629e-01
<GCONST> 1.328790e+02
<STATE> 3
<MEAN> 39
 -5.100876e+00 -2.886043e+00 -7.129846e-01 -4.226508e+00 -8.826745e+00 -3.097844e+00 -8.634632e+00 -3.178773e+00 -4.410898e+00 -2.485592e+00 -1.419570e+00 -5.689851e+00 5.632351e+01 3.261416e-03 -2.591611e-03 4.904538e-03 -1.561787e-03 -4.151614e-03 7.352767e-04 1.445915e-03 5.172706e-03 5.656654e-04 1.668515e-03 -2.748377e-04 -5.144376e-04 6.675122e-03 -5.154050e-04 -1.252112e-04 -5.278743e-04 3.093125e-04 3.291078e-04 -1.333000e-04 5.615407e-05 3.360424e-04 6.622028e-05 4.271032e-05 2.930157e-04 4.016708e-04 -1.128474e-03
<VARIANCE> 39
 6.342673e+01 6.635136e+01 7.459004e+01 5.863315e+01 7.776219e+01 6.844082e+01 6.056503e+01 7.307931e+01 5.987344e+01 4.354551e+01 4.804350e+01 4.466883e+01 2.369104e+02 2.508630e+00 2.822854e+00 2.697316e+00 2.776836e+00 3.608618e+00 3.294234e+00 3.107328e+00 3.750873e+00 3.316696e+00 2.763120e+00 3.044651e+00 2.513144e+00 5.172930e+00 3.966708e-01 4.320489e-01 4.212622e-01 4.667067e-01 6.492996e-01 5.712211e-01 5.652190e-01 6.597017e-01 5.880113e-01 5.168054e-01 5.575068e-01 4.651487e-01 6.849421e-01
<GCONST> 1.328934e+02
<STATE> 4
<MEAN> 39
 -5.138389e+00 -2.882962e+00 -5.830894e-01 -4.271583e+00 -8.834727e+00 -2.984838e+00 -8.693007e+00 -3.016436e+00 -4.511984e+00 -2.423796e+00 -1.469218e+00 -5.664279e+00 5.623592e+01 1.438743e-03 -3.607349e-03 3.061098e-03 -6.510498e-04 -3.032662e-03 -3.884173e-04 1.197617e-03 6.445886e-03 5.187079e-04 1.373274e-03 1.333127e-03 6.940904e-04 3.601766e-03 -3.837833e-04 -1.137940e-04 -5.055476e-04 1.810131e-04 2.196003e-04 -1.569308e-04 -5.894432e-05 1.433462e-04 -1.283523e-05 -1.053908e-04 2.192665e-04 1.157234e-04 -9.022548e-04
<VARIANCE> 39
 6.341509e+01 6.667138e+01 7.429997e+01 5.796651e+01 7.858233e+01 6.842228e+01 6.140863e+01 7.236398e+01 5.902378e+01 4.338168e+01 4.817171e+01 4.483612e+01 2.379021e+02 2.452034e+00 2.777974e+00 2.671891e+00 2.733968e+00 3.573145e+00 3.263177e+00 3.094031e+00 3.709617e+00 3.279448e+00 2.734758e+00 3.028876e+00 2.495809e+00 5.070885e+00 3.858981e-01 4.234059e-01 4.166889e-01 4.591534e-01 6.419958e-01 5.637226e-01 5.619655e-01 6.514413e-01 5.819374e-01 5.112919e-01 5.534546e-01 4.612510e-01 6.661724e-01
<GCONST> 1.325547e+02
<TRANSP> 5
 0.000000e+00 1.000000e+00 0.000000e+00 0.000000e+00 0.000000e+00
 0.000000e+00 7.177711e-01 2.822289e-01 0.000000e+00 0.000000e+00
 0.000000e+00 0.000000e+00 7.177727e-01 2.822273e-01 0.000000e+00
 0.000000e+00 0.000000e+00 0.000000e+00 8.432704e-01 1.567295e-01
 0.000000e+00 0.000000e+00 0.000000e+00 0.000000e+00 0.000000e+00
<ENDHMM>
~h "h"
<BEGINHMM>
<NUMSTATES> 5
<STATE> 2
<MEAN> 39
 -5.904393e+00 -3.504946e+00 -1.208856e+00 -4.289037e+00 -7.746223e+00 -2.246904e+00 -8.147600e+00 -2.843671e+00 -4.166554e+00 -2.581626e+00 -1.642448e+00 -5.245099e+00 5.553918e+01 -7.895045e-04 3.457360e-03 3.701997e-04 -2.268310e-03 5.430075e-03 5.210635e-03 -1.519227e-03 -5.753814e-03 6.311414e-04 3.680379e-03 -3.544880e-03 -3.684066e-03 -7.910712e-03 1.677897e-04 1.932333e-04 2.128517e-04 4.055596e-04 -3.562736e-05 -3.973182e-04 -1.947577e-04 4.160530e-05 3.954191e-05 -3.386210e-04 8.896251e-05 -1.567364e-04 -1.374067e-04
<VARIANCE> 39
 6.416700e+01 6.586131e+01 6.868858e+01 5.587389e+01 7.720731e+01 6.786916e+01 6.161060e+01 6.770331e+01 5.763724e+01 4.255010e+01 4.718534e+01 4.564630e+01 2.420976e+02 2.502542e+00 2.705712e+00 2.512444e+00 2.654257e+00 3.390728e+00 3.094123e+00 3.041625e+00 3.654588e+00 3.183868e+00 2.665484e+00 2.913835e+00 2.454648e+00 4.789878e+00 3.840056e-01 4.172190e-01 3.905105e-01 4.547312e-01 5.815042e-01 5.367210e-01 5.491292e-01 6.437132e-01 5.638450e-01 4.951007e-01 5.304534e-01 4.470227e-01 6.244757e-01
<GCONST> 1.314397e+02
<STATE> 3
<MEAN> 39
 -5.904367e+00 -3.495029e+00 -1.209052e+00 -4.294518e+00 -7.728451e+00 -2.229852e+00 -8.152470e+00 -2.862981e+00 -4.161429e+00 -2.574142e+00 -1.654221e+00 -5.257424e+00 5.551521e+01 -7.465029e-04 4.239592e-03 1.132563e-03 -6.209963e-04 5.205272e-03 4.140259e-03 -1.798361e-03 -4.951713e-03 9.364475e-04 2.091443e-03 -3.198091e-03 -3.807422e-03 -8.254517e-03 -2.911718e-05 1.276234e-04 1.880424e-04 4.757936e-04 6.610459e-05 -1.556036e-04 4.856117e-05 2.674968e-04 9.318056e-05 -4.790789e-04 7.790794e-05 6.690172e-06 5.798222e-05
<VARIANCE> 39
 6.404216e+01 6.576204e+01 6.880229e+01 5.574207e+01 7.709358e+01 6.786714e+01 6.146197e+01 6.748215e+01 5.761090e+01 4.250908e+01 4.720570e+01 4.545161e+01 2.419150e+02 2.501288e+00 2.700589e+00 2.510684e+00 2.652157e+00 3.390142e+00 3.092293e+00 3.037453e+00 3.647861e+00 3.180523e+00 2.659492e+00 2.912078e+00 2.450706e+00 4.781246e+00 3.839860e-01 4.164290e-01 3.899274e-01 4.542328e-01 5.808430e-01 5.364102e-01 5.485346e-01 6.429412e-01 5.627971e-01 4.939246e-01 5.299489e-01 4.464524e-01 6.233854e-01
<GCONST> 1.313904e+02
<STATE> 4
<MEAN> 39
 -5.958183e+00 -3.469372e+00 -1.104353e+00 -4.303822e+00 -7.682776e+00 -2.043560e+00 -8.203882e+00 -2.727093e+00 -4.230815e+00 -2.479355e+00 -1.701774e+00 -5.188620e+00 5.532495e+01 -5.790765e-04 4.243202e-03 1.956119e-03 1.296456e-03 4.521176e-03 3.249749e-03 -8.384578e-04 -3.179527e-03 1.297018e-03 -4.621350e-04 -2.483516e-03 -3.118012e-03 -6.120195e-03 -1.541397e-04 4.957728e-05 2.160378e-04 3.069029e-04 -4.137853e-05 -6.472077e-05 2.353470e-04 2.597957e-04 8.173169e-05 -3.579717e-04 5.217721e-05 1.554641e-04 2.049325e-04
<VARIANCE> 39
 6.363504e+01 6.625002e+01 6.918116e+01 5.513860e+01 7.762866e+01 6.826173e+01 6.226804e+01 6.684925e+01 5.715962e+01 4.238253e+01 4.755070e+01 4.569957e+01 2.446524e+02 2.448614e+00 2.657384e+00 2.482886e+00 2.611765e+00 3.343579e+00 3.068173e+00 3.027128e+00 3.600492e+00 3.131309e+00 2.621441e+00 2.889418e+00 2.423145e+00 4.703572e+00 3.743146e-01 4.076734e-01 3.837124e-01 4.464953e-01 5.696166e-01 5.306695e-01 5.438867e-01 6.333218e-01 5.525631e-01 4.864691e-01 5.241834e-01 4.399148e-01 6.066558e-01
<GCONST> 1.310276e+02
<TRANSP> 5
 0.000000e+00 1.000000e+00 0.000000e+00 0.000000e+00 0.000000e+00
 0.000000e+00 7.207669e-01 2.792331e-01 0.000000e+00 0.000000e+00
 0.000000e+00 0.000000e+00 7.207708e-01 2.792292e-01 0.000000e+00
 0.000000e+00 0.000000e+00 0.000000e+00 8.489622e-01 1.510378e-01
 0.000000e+00 0.000000e+00 0.000000e+00 0.000000e+00 0.000000e+00
<ENDHMM>
~h "i"
<BEGINHMM>
<NUMSTATES> 5
<STATE> 2
<MEAN> 39
 -6.104372e+00 -2.704461e+00 4.911868e-01 -3.678729e+00 -9.228626e+00 -3.466366e+00 -8.455375e+00 -3.223953e+00 -4.859999e+00 -2.772218e+00 -1.214199e+00 -5.233916e+00 5.556223e+01 8.359618e-04 1.435175e-03 3.335695e-03 4.224730e-03 -7.381585e-04 -3.736605e-03 2.689342e-03 -1.557294e-03 -4.391260e-03 -1.015301e-03 -2.156712e-03 3.806297e-04 -7.279620e-03 1.828385e-05 -3.405246e-04 -8.803108e-04 -1.342755e-04 3.633371e-04 1.779801e-04 -2.767403e-05 9.398012e-05 1.547154e-04 2.005730e-05 -2.018947e-04 4.376337e-05 -3.378211e-04
<VARIANCE> 39
 6.568764e+01 6.494466e+01 8.212051e+01 5.425397e+01 8.274567e+01 6.784284e+01 6.200713e+01 6.993906e+01 6.026500e+01 4.169110e+01 4.734849e+01 4.343106e+01 2.401963e+02 2.638930e+00 2.712933e+00 2.821659e+00 2.610363e+00 3.620119e+00 3.185851e+00 3.143166e+00 3.716613e+00 3.253797e+00 2.644515e+00 2.938673e+00 2.388840e+00 4.993007e+00 4.055428e-01 4.206736e-01 4.230330e-01 4.458527e-01 6.263801e-01 5.541615e-01 5.674897e-01 6.556390e-01 5.753129e-01 4.937859e-01 5.325721e-01 4.378458e-01 6.576599e-01
<GCONST> 1.323454e+02
<STATE> 3
<MEAN> 39
 -6.101415e+00 -2.701309e+00 5.008525e-01 -3.664124e+00 -9.230558e+00 -3.479308e+00 -8.444808e+00 -3.227707e+00 -4.874622e+00 -2.776095e+00 -1.221876e+00 -5.232309e+00 5.553548e+01 8.505543e-04 3.220377e-04 2.121687e-04 3.747383e-03 6.647104e-04 -3.019239e-03 2.697246e-03 -1.142949e-03 -3.636882e-03 -8.480281e-04 -2.854407e-03 4.131307e-04 -8.379181e-03 -5.326535e-05 -2.287145e-04 -6.557598e-04 -1.254876e-04 2.726712e-04 1.924495e-04 -2.814862e-05 9.467856e-05 1.895749e-04 2.256009e-05 -1.281084e-04 -2.858568e-05 -1.457696e-04
<VARIANCE> 39
 6.550385e+01 6.489110e+01 8.169305e+01 5.409196e+01 8.289559e+01 6.776951e+01 6.200118e+01 6.986629e+01 6.024039e+01 4.169827e+01 4.733369e+01 4.337441e+01 2.402486e+02 2.634501e+00 2.710467e+00 2.816278e+00 2.604145e+00 3.619611e+00 3.182152e+00 3.139534e+00 3.714966e+00 3.251100e+00 2.644443e+00 2.937223e+00 2.386842e+00 4.991588e+00 4.050653e-01 4.202836e-01 4.222678e-01 4.448076e-01 6.262380e-01 5.536580e-01 5.669363e-01 6.555398e-01 5.749939e-01 4.938100e-01 5.322788e-01 4.374683e-01 6.572360e-01
<GCONST> 1.323082e+02
<STATE> 4
<MEAN> 39
 -6.146911e+00 -2.670325e+00 6.118867e-01 -3.682214e+00 -9.203208e+00 -3.335904e+00 -8.503096e+00 -3.114462e+00 -4.968099e+00 -2.716572e+00 -1.262693e+00 -5.210673e+00 5.537623e+01 5.451387e-04 -7.137689e-04 -2.241819e-03 3.273292e-03 1.959726e-03 -1.937271e-03 2.976050e-03 -3.053501e-04 -2.345006e-03 -9.255512e-04 -3.240443e-03 1.750258e-04 -8.903074e-03 -1.264101e-04 -1.067038e-04 -3.946952e-04 -1.199912e-04 2.019029e-04 1.949997e-04 -3.636786e-05 1.081611e-04 2.671154e-04 -1.382421e-05 -6.430314e-05 -8.965775e-05 4.692723e-06
<VARIANCE> 39
 6.498195e+01 6.522162e+01 8.150548e+01 5.353742e+01 8.366034e+01 6.786592e+01 6.293557e+01 6.911253e+01 5.944993e+01 4.156911e+01 4.736620e+01 4.349939e+01 2.427671e+02 2.570131e+00 2.666919e+00 2.782471e+00 2.560880e+00 3.567608e+00 3.154379e+00 3.126064e+00 3.667812e+00 3.201252e+00 2.619516e+00 2.913211e+00 2.365057e+00 4.917464e+00 3.941729e-01 4.119127e-01 4.160357e-01 4.370211e-01 6.151372e-01 5.476898e-01 5.632554e-01 6.463018e-01 5.665889e-01 4.891789e-01 5.269020e-01 4.326028e-01 6.427093e-01
<GCONST> 1.319405e+02
<TRANSP> 5
 0.000000e+00 1.000000e+00 0.000000e+00 0.000000e+00 0.000000e+00
 0.000000e+00 7.199259e-01 2.800741e-01 0.000000e+00 0.000000e+00
 0.000000e+00 0.000000e+00 7.199308e-01 2.800693e-01 0.000000e+00
 0.000000e+00 0.000000e+00 0.000000e+00 8.463535e-01 1.536465e-01
 0.000000e+00 0.000000e+00 0.000000e+00 0.000000e+00 0.000000e+00
<ENDHMM>
~h "j"
<BEGINHMM>
<NUMSTATES> 5
<STATE> 2
<MEAN> 39
 -5.713319e+00 -2.787128e+00 -3.308165e-01 -3.867682e+00 -8.698911e+00 -3.637654e+00 -8.589426e+00 -2.767608e+00 -4.110054e+00 -3.009835e+00 -1.515890e+00 -5.250227e+00 5.605119e+01 3.506635e-03 2.965074e-03 8.499173e-03 1.998975e-03 -1.960997e-03 -1.220961e-04 -4.654228e-03 3.889691e-03 4.035002e-03 -1.024650e-03 7.488141e-03 -5.133031e-03 1.295858e-02 -4.293607e-05 -5.005265e-04 -4.416907e-04 -6.512936e-04 3.300081e-04 6.052225e-04 3.037291e-04 -7.573122e-04 3.454977e-04 7.223912e-04 -4.089623e-04 -4.577045e-04 -8.028935e-04
<VARIANCE> 39
 6.366134e+01 6.721941e+01 7.178364e+01 5.469912e+01 7.393843e+01 6.612363e+01 6.028651e+01 6.736340e+01 5.746518e+01 4.181269e+01 4.621410e+01 4.350986e+01 2.412832e+02 3.071151e+00 3.068309e+00 2.709146e+00 2.660192e+00 3.689887e+00 3.268675e+00 3.179177e+00 3.786548e+00 3.237628e+00 2.692196e+00 2.997106e+00 2.515144e+00 5.291942e+00 5.247206e-01 4.596753e-01 4.257530e-01 4.553529e-01 6.694264e-01 5.840834e-01 5.820240e-01 6.755471e-01 5.813491e-01 5.055739e-01 5.527350e-01 4.615963e-01 7.048221e-01
<GCONST> 1.331670e+02
<STATE> 3
<MEAN> 39
 -5.697092e+00 -2.778195e+00 -2.992560e-01 -3.864409e+00 -8.709052e+00 -3.633571e+00 -8.609797e+00 -2.759475e+00 -4.093591e+00 -3.011301e+00 -1.493557e+00 -5.274291e+00 5.610315e+01 3.287102e-03 1.303089e-03 6.470443e-03 7.092846e-04 -9.727984e-04 1.686420e-03 -3.720792e-03 2.078369e-03 4.139956e-03 4.043131e-04 6.122401e-03 -6.006550e-03 1.001780e-02 -1.143560e-04 -4.548641e-04 -5.356560e-04 -3.508948e-04 1.672564e-04 4.343212e-04 2.792312e-04 -5.476678e-04 -1.546164e-05 2.882332e-04 -4.291331e-04 -1.866401e-04 -8.963839e-04
<VARIANCE> 39
 6.350533e+01 6.731071e+01 7.203993e+01 5.447301e+01 7.408674e+01 6.627385e+01 6.043606e+01 6.726511e+01 5.767933e+01 4.188350e+01 4.611206e+01 4.345115e+01 2.407203e+02 3.070899e+00 3.066563e+00 2.716267e+00 2.650406e+00 3.700946e+00 3.271143e+00 3.184148e+00 3.780260e+00 3.238886e+00 2.685796e+00 2.995177e+00 2.516512e+00 5.283796e+00 5.254728e-01 4.588163e-01 4.264525e-01 4.536317e-01 6.719321e-01 5.848497e-01 5.832447e-01 6.742803e-01 5.812294e-01 5.041505e-01 5.526177e-01 4.616982e-01 7.028498e-01
<GCONST> 1.331653e+02
<STATE> 4
<MEAN> 39
 -5.686777e+00 -2.775181e+00 -1.622888e-01 -3.900606e+00 -8.731534e+00 -3.488950e+00 -8.718553e+00 -2.617445e+00 -4.182443e+00 -2.956577e+00 -1.508744e+00 -5.297017e+00 5.609735e+01 4.268359e-03 -1.894622e-04 5.199818e-03 4.779343e-04 -1.814108e-03 3.281839e-03 -4.272479e-03 1.317436e-03 2.721648e-03 2.027728e-04 4.500164e-03 -6.051127e-03 9.365172e-03 -1.124804e-04 -3.173779e-04 -5.216086e-04 -1.765345e-04 3.064885e-05 2.008527e-04 1.906817e-04 -2.745180e-04 -2.362248e-04 2.844201e-05 -3.189015e-04 1.140260e-04 -8.631667e-04
<VARIANCE> 39
 6.306242e+01 6.807449e+01 7.259733e+01 5.401789e+01 7.524642e+01 6.654634e+01 6.173950e+01 6.677744e+01 5.688763e+01 4.197898e+01 4.633572e+01 4.352285e+01 2.424810e+02 3.001299e+00 3.015884e+00 2.697087e+00 2.608347e+00 3.676193e+00 3.251622e+00 3.188959e+00 3.743528e+00 3.189778e+00 2.663107e+00 2.974012e+00 2.503949e+00 5.160708e+00 5.130363e-01 4.482089e-01 4.217085e-01 4.460802e-01 6.660231e-01 5.800692e-01 5.832862e-01 6.667628e-01 5.731157e-01 4.993939e-01 5.473995e-01 4.587312e-01 6.804106e-01
<GCONST> 1.328864e+02
<TRANSP> 5
 0.000000e+00 1.000000e+00 0.000000e+00 0.000000e+00 0.000000e+00
 0.000000e+00 7.174984e-01 2.825016e-01 0.000000e+00 0.000000e+00
 0.000000e+00 0.000000e+00 7.175021e-01 2.824980e-01 0.000000e+00
 0.000000e+00 0.000000e+00 0.000000e+00 8.425894e-01 1.574107e-01
 0.000000e+00 0.000000e+00 0.000000e+00 0.000000e+00 0.000000e+00
<ENDHMM>
~h "k"
<BEGINHMM>
<NUMSTATES> 5
<STATE> 2
<MEAN> 39
 -5.822612e+00 -3.437722e+00 -1.362154e+00 -4.413059e+00 -8.349864e+00 -3.023067e+00 -8.419304e+00 -2.894646e+00 -4.366033e+00 -2.600916e+00 -1.644673e+00 -5.564128e+00 5.509768e+01 4.900000e-03 -2.696014e-03 -1.661625e-03 -2.807675e-03 9.668358e-04 -2.299314e-03 -1.956176e-03 6.407391e-04 -2.723679e-03 2.285551e-03 -2.344133e-03 -3.533760e-03 8.996258e-03 1.583979e-04 1.195918e-04 1.976752e-04 -5.296737e-05 -6.986915e-05 2.203197e-04 2.480912e-06 -4.371836e-04 -1.160194e-04 -8.934234e-05 -2.449163e-05 4.770506e-05 -1.752124e-04
<VARIANCE> 39
 6.525217e+01 6.672214e+01 7.024947e+01 5.719127e+01 7.524532e+01 6.761735e+01 6.014555e+01 6.778031e+01 5.852610e+01 4.313619e+01 4.763947e+01 4.671753e+01 2.561343e+02 2.612339e+00 2.908611e+00 2.745503e+00 2.726882e+00 3.577786e+00 3.273850e+00 3.126366e+00 3.753845e+00 3.288244e+00 2.806753e+00 3.002179e+00 2.557938e+00 5.903544e+00 4.147992e-01 4.525732e-01 4.425555e-01 4.697344e-01 6.416885e-01 5.762281e-01 5.757145e-01 6.665376e-01 5.907784e-01 5.270274e-01 5.518199e-01 4.691597e-01 7.823759e-01
<GCONST> 1.333306e+02
<STATE> 3
<MEAN> 39
 -5.804434e+00 -3.446803e+00 -1.365560e+00 -4.424371e+00 -8.347435e+00 -3.029389e+00 -8.426183e+00 -2.893938e+00 -4.378107e+00 -2.594683e+00 -1.653687e+00 -5.576473e+00 5.512957e+01 4.972351e-03 -2.559986e-03 -6.274897e-04 -2.727255e-03 8.876630e-04 -1.817263e-03 -1.963177e-03 -2.402312e-04 -3.349198e-03 1.516936e-03 -2.149170e-03 -3.106242e-03 8.819782e-03 1.837723e-05 1.308622e-05 3.138984e-04 5.315076e-05 -4.656998e-05 1.361623e-04 1.941954e-05 -2.031491e-04 -1.281758e-04 -1.921457e-04 6.674899e-05 1.609769e-04 -3.563221e-05
<VARIANCE> 39
 6.516428e+01 6.692297e+01 7.034784e+01 5.720348e+01 7.519939e+01 6.780616e+01 6.006251e+01 6.774767e+01 5.855079e+01 4.320182e+01 4.777967e+01 4.672835e+01 2.552391e+02 2.616008e+00 2.916031e+00 2.752832e+00 2.730463e+00 3.586647e+00 3.278368e+00 3.128006e+00 3.753932e+00 3.290818e+00 2.809807e+00 3.005883e+00 2.561730e+00 5.929382e+00 4.155391e-01 4.533959e-01 4.441060e-01 4.702028e-01 6.433299e-01 5.769534e-01 5.759813e-01 6.665661e-01 5.912724e-01 5.276139e-01 5.523738e-01 4.698831e-01 7.853231e-01
<GCONST> 1.333776e+02
<STATE> 4
<MEAN> 39
 -5.829784e+00 -3.430500e+00 -1.229332e+00 -4.457161e+00 -8.344852e+00 -2.900223e+00 -8.516036e+00 -2.757206e+00 -4.467710e+00 -2.515797e+00 -1.708376e+00 -5.562096e+00 5.505549e+01 4.755108e-03 -2.293037e-03 1.012984e-03 -1.885304e-03 8.724165e-04 -1.040756e-03 -1.850168e-03 -5.474588e-04 -3.474907e-03 5.131376e-04 -2.113309e-03 -2.270407e-03 8.793621e-03 -4.686751e-05 3.235338e-05 2.263444e-04 2.123217e-04 -1.871256e-05 1.296206e-04 2.730475e-06 -7.604011e-05 9.245311e-05 -1.431267e-04 3.779340e-05 1.516065e-04 -5.291584e-05
<VARIANCE> 39
 6.475206e+01 6.771118e+01 7.062543e+01 5.693493e+01 7.599227e+01 6.848308e+01 6.087532e+01 6.730838e+01 5.813483e+01 4.333522e+01 4.801665e+01 4.703437e+01 2.575922e+02 2.567561e+00 2.884064e+00 2.736302e+00 2.701602e+00 3.549072e+00 3.268211e+00 3.123427e+00 3.721464e+00 3.256325e+00 2.786189e+00 2.988750e+00 2.544202e+00 5.886393e+00 4.065072e-01 4.460134e-01 4.407682e-01 4.646446e-01 6.337843e-01 5.727584e-01 5.733519e-01 6.589761e-01 5.847320e-01 5.228610e-01 5.477511e-01 4.652800e-01 7.723961e-01
<GCONST> 1.331661e+02
<TRANSP> 5
 0.000000e+00 1.000000e+00 0.000000e+00 0.000000e+00 0.000000e+00
 0.000000e+00 7.188696e-01 2.811304e-01 0.000000e+00 0.000000e+00
 0.000000e+00 0.000000e+00 7.188630e-01 2.811371e-01 0.000000e+00
 0.000000e+00 0.000000e+00 0.000000e+00 8.454123e-01 1.545878e-01
 0.000000e+00 0.000000e+00 0.000000e+00 0.000000e+00 0.000000e+00
<ENDHMM>
~h "l"
<BEGINHMM>
<NUMSTATES> 5
<STATE> 2
<MEAN> 39
 -5.187988e+00 -3.591634e+00 -1.155134e+00 -4.611198e+00 -8.571730e+00 -2.379425e+00 -8.836766e+00 -3.498946e+00 -3.870559e+00 -2.563127e+00 -1.431118e+00 -5.610388e+00 5.640783e+01 1.830633e-04 5.357054e-04 3.224191e-03 -3.165349e-03 -1.762805e-03 5.161304e-03 -1.375126e-03 -4.629355e-03 1.329643e-03 -6.527806e-04 -5.271740e-03 -3.053657e-03 6.534651e-03 -5.462042e-04 2.832121e-04 -9.654603e-05 1.033039e-04 3.268254e-04 1.310111e-05 1.804957e-04 1.588484e-04 -1.544991e-04 1.513755e-04 -1.766149e-04 9.696661e-05 -6.037424e-04
<VARIANCE> 39
 6.689389e+01 6.645912e+01 7.087810e+01 6.088845e+01 7.756155e+01 7.298209e+01 6.401321e+01 7.302097e+01 6.120561e+01 4.465446e+01 4.796889e+01 4.564067e+01 2.374732e+02 2.569442e+00 2.733386e+00 2.618399e+00 2.784423e+00 3.504004e+00 3.323450e+00 3.171504e+00 3.787472e+00 3.274603e+00 2.802864e+00 2.974898e+00 2.464246e+00 4.832349e+00 3.953175e-01 4.182798e-01 4.076763e-01 4.720109e-01 6.181045e-01 5.722817e-01 5.747576e-01 6.665415e-01 5.753683e-01 5.168874e-01 5.428964e-01 4.492962e-01 6.294198e-01
<GCONST> 1.327407e+02
<STATE> 3
<MEAN> 39
 -5.190578e+00 -3.589865e+00 -1.144292e+00 -4.621743e+00 -8.576067e+00 -2.360749e+00 -8.842383e+00 -3.515021e+00 -3.866986e+00 -2.564341e+00 -1.449265e+00 -5.620973e+00 5.643303e+01 -1.650412e-03 1.261021e-03 3.007200e-03 -2.267712e-03 -6.969041e-04 4.701588e-03 -5.582997e-04 -3.521660e-03 4.871463e-04 -5.568822e-04 -5.225001e-03 -2.178552e-03 4.376228e-03 -5.002668e-04 1.770824e-04 -8.553956e-05 1.990795e-04 3.462143e-04 -4.190795e-05 2.227326e-04 2.959076e-04 -2.011214e-04 1.410873e-04 1.297276e-04 2.856838e-04 -5.516168e-04
<VARIANCE> 39
 6.682642e+01 6.661668e+01 7.115249e+01 6.084932e+01 7.776598e+01 7.312082e+01 6.409249e+01 7.300318e+01 6.127848e+01 4.469033e+01 4.806380e+01 4.552343e+01 2.371301e+02 2.564770e+00 2.730304e+00 2.618126e+00 2.779304e+00 3.507357e+00 3.324017e+00 3.173021e+00 3.786020e+00 3.271460e+00 2.803695e+00 2.974720e+00 2.463622e+00 4.819258e+00 3.940893e-01 4.176106e-01 4.070421e-01 4.707454e-01 6.184003e-01 5.720592e-01 5.748889e-01 6.659934e-01 5.748013e-01 5.169012e-01 5.427351e-01 4.489916e-01 6.265197e-01
<GCONST> 1.327273e+02
<STATE> 4
<MEAN> 39
 -5.251697e+00 -3.555444e+00 -1.015556e+00 -4.679049e+00 -8.563953e+00 -2.215849e+00 -8.945683e+00 -3.391812e+00 -3.993766e+00 -2.490434e+00 -1.507534e+00 -5.608016e+00 5.636881e+01 -3.216595e-03 1.723308e-03 2.795603e-03 -1.147951e-03 5.337822e-04 4.403266e-03 1.227114e-04 -2.208020e-03 -2.930163e-04 -5.270823e-05 -4.089455e-03 -1.234872e-03 3.197443e-03 -3.155674e-04 1.463549e-04 -5.818556e-05 2.444913e-04 2.746371e-04 -4.136470e-05 2.788580e-04 2.909878e-04 -1.123623e-04 2.104373e-04 2.442024e-04 2.544443e-04 -5.300956e-04
<VARIANCE> 39
 6.662658e+01 6.698664e+01 7.168436e+01 6.058572e+01 7.866582e+01 7.369321e+01 6.500172e+01 7.196484e+01 6.063638e+01 4.469064e+01 4.822893e+01 4.575626e+01 2.393862e+02 2.518775e+00 2.690473e+00 2.598544e+00 2.738610e+00 3.463619e+00 3.309000e+00 3.167582e+00 3.736407e+00 3.225772e+00 2.780193e+00 2.957757e+00 2.450499e+00 4.755603e+00 3.852119e-01 4.100600e-01 4.021650e-01 4.627543e-01 6.082500e-01 5.675772e-01 5.725098e-01 6.562281e-01 5.666810e-01 5.121638e-01 5.386881e-01 4.451499e-01 6.126836e-01
<GCONST> 1.324502e+02
<TRANSP> 5
 0.000000e+00 1.000000e+00 0.000000e+00 0.000000e+00 0.000000e+00
 0.000000e+00 7.180987e-01 2.819013e-01 0.000000e+00 0.000000e+00
 0.000000e+00 0.000000e+00 7.180932e-01 2.819069e-01 0.000000e+00
 0.000000e+00 0.000000e+00 0.000000e+00 8.440046e-01 1.559954e-01
 0.000000e+00 0.000000e+00 0.000000e+00 0.000000e+00 0.000000e+00
<ENDHMM>
~h "m"
<BEGINHMM>
<NUMSTATES> 5
<STATE> 2
<MEAN> 39
 -5.102854e+00 -3.483245e+00 -8.933166e-01 -4.211609e+00 -8.287846e+00 -2.293257e+00 -8.399497e+00 -3.330014e+00 -4.537776e+00 -2.716710e+00 -1.601503e+00 -5.602301e+00 5.584735e+01 1.223122e-02 -3.127018e-03 2.520702e-03 -6.524742e-03 -2.761288e-03 8.666107e-03 -7.226455e-03 -1.153454e-02 -3.060376e-03 5.272430e-05 -3.674400e-03 -1.119088e-02 1.935941e-02 -2.776354e-04 3.337964e-04 -2.463813e-04 1.825394e-05 1.102100e-04 1.898688e-05 7.588448e-05 5.654253e-06 5.672707e-04 3.584863e-04 -4.370210e-04 -1.518767e-04 -6.043294e-04
<VARIANCE> 39
 6.601177e+01 6.563049e+01 6.741244e+01 5.856828e+01 7.858777e+01 6.867797e+01 6.142639e+01 7.297848e+01 6.323121e+01 4.402353e+01 4.841505e+01 4.555672e+01 2.383584e+02 2.427073e+00 2.728220e+00 2.589504e+00 2.790687e+00 3.360111e+00 3.160846e+00 3.049407e+00 3.819952e+00 3.446404e+00 2.718023e+00 3.001552e+00 2.432368e+00 4.772372e+00 3.731233e-01 4.190679e-01 4.057172e-01 4.772298e-01 5.893417e-01 5.495880e-01 5.545466e-01 6.695955e-01 6.022044e-01 5.050378e-01 5.444893e-01 4.445512e-01 6.265868e-01
<GCONST> 1.322202e+02
<STATE> 3
<MEAN> 39
 -5.060455e+00 -3.493834e+00 -8.831964e-01 -4.233323e+00 -8.299073e+00 -2.262061e+00 -8.425042e+00 -3.369375e+00 -4.548225e+00 -2.715981e+00 -1.615466e+00 -5.642298e+00 5.591725e+01 1.092957e-02 -2.261135e-03 1.842492e-03 -5.824717e-03 -2.826140e-03 8.143594e-03 -6.464244e-03 -1.029080e-02 -1.731887e-03 3.815408e-04 -4.627057e-03 -1.088425e-02 1.755062e-02 -3.637784e-04 2.505761e-04 -1.542190e-04 2.534424e-04 -3.332395e-05 -1.363739e-04 2.931988e-04 3.596540e-04 2.871736e-04 6.237964e-05 -2.878432e-04 1.376012e-04 -4.941517e-04
<VARIANCE> 39
 6.581838e+01 6.571333e+01 6.756106e+01 5.849888e+01 7.875442e+01 6.878629e+01 6.146530e+01 7.295567e+01 6.351842e+01 4.410241e+01 4.849780e+01 4.543229e+01 2.375318e+02 2.422521e+00 2.729232e+00 2.594682e+00 2.793144e+00 3.357598e+00 3.159686e+00 3.055458e+00 3.821981e+00 3.459805e+00 2.717842e+00 3.008142e+00 2.431074e+00 4.774837e+00 3.721338e-01 4.191930e-01 4.062063e-01 4.776383e-01 5.887683e-01 5.491117e-01 5.551884e-01 6.700262e-01 6.037448e-01 5.048305e-01 5.454717e-01 4.442916e-01 6.268097e-01
<GCONST> 1.322374e+02
<STATE> 4
<MEAN> 39
 -5.070632e+00 -3.475137e+00 -7.383406e-01 -4.276176e+00 -8.285902e+00 -2.118933e+00 -8.545374e+00 -3.250634e+00 -4.699810e+00 -2.647360e+00 -1.687758e+00 -5.665941e+00 5.588996e+01 9.223293e-03 -1.731408e-03 1.842425e-03 -3.766646e-03 -3.871332e-03 6.261159e-03 -5.240242e-03 -7.989815e-03 -1.599246e-03 -8.296298e-04 -4.578548e-03 -9.166951e-03 1.657828e-02 -3.461070e-04 1.641477e-04 -1.221974e-04 3.398379e-04 -1.022137e-04 -3.126213e-04 3.119899e-04 4.144055e-04 1.172532e-04 -1.165385e-04 -4.945235e-05 3.488613e-04 -3.700816e-04
<VARIANCE> 39
 6.540223e+01 6.626785e+01 6.814267e+01 5.822462e+01 7.934648e+01 6.917244e+01 6.236538e+01 7.248727e+01 6.329942e+01 4.404936e+01 4.869170e+01 4.560884e+01 2.395475e+02 2.371256e+00 2.694741e+00 2.578927e+00 2.764444e+00 3.312420e+00 3.145900e+00 3.057324e+00 3.800789e+00 3.430936e+00 2.691762e+00 2.995329e+00 2.411702e+00 4.724601e+00 3.624453e-01 4.122377e-01 4.018166e-01 4.718108e-01 5.785254e-01 5.446735e-01 5.531689e-01 6.643224e-01 5.975682e-01 4.996904e-01 5.414976e-01 4.392576e-01 6.144239e-01
<GCONST> 1.319987e+02
<TRANSP> 5
 0.000000e+00 1.000000e+00 0.000000e+00 0.000000e+00 0.000000e+00
 0.000000e+00 7.176077e-01 2.823923e-01 0.000000e+00 0.000000e+00
 0.000000e+00 0.000000e+00 7.176095e-01 2.823905e-01 0.000000e+00
 0.000000e+00 0.000000e+00 0.000000e+00 8.442915e-01 1.557085e-01
 0.000000e+00 0.000000e+00 0.000000e+00 0.000000e+00 0.000000e+00
<ENDHMM>
~h "n"
<BEGINHMM>
<NUMSTATES> 5
<STATE> 2
<MEAN> 39
 -4.847970e+00 -3.543571e+00 -5.697183e-01 -3.977925e+00 -8.836981e+00 -2.841839e+00 -8.666774e+00 -3.249991e+00 -4.365473e+00 -2.597905e+00 -2.095190e+00 -5.818875e+00 5.644381e+01 -1.472768e-03 2.683915e-03 7.531854e-04 1.618253e-03 3.026018e-03 -2.178330e-03 1.315223e-03 -1.010849e-03 8.339239e-04 -9.534455e-04 -2.326193e-03 2.777688e-03 -4.717900e-03 -4.539478e-04 -8.552682e-05 -6.057600e-04 -3.070974e-04 -2.557072e-05 7.021156e-05 -6.886678e-05 2.614411e-04 1.630154e-04 -8.990284e-05 5.076692e-04 -1.660268e-04 -3.196654e-05
<VARIANCE> 39
 6.329583e+01 6.776633e+01 7.169090e+01 5.667542e+01 7.800414e+01 6.884665e+01 6.085373e+01 7.317901e+01 6.080160e+01 4.423086e+01 4.959645e+01 4.583068e+01 2.359340e+02 2.525743e+00 2.889499e+00 2.692780e+00 2.743071e+00 3.451909e+00 3.241791e+00 3.110586e+00 3.991633e+00 3.312077e+00 2.815253e+00 3.026138e+00 2.488757e+00 5.160725e+00 3.946664e-01 4.417089e-01 4.211634e-01 4.675610e-01 6.074687e-01 5.650209e-01 5.675187e-01 7.012081e-01 5.875588e-01 5.198792e-01 5.482438e-01 4.550475e-01 6.816574e-01
<GCONST> 1.329243e+02
<STATE> 3
<MEAN> 39
 -4.854203e+00 -3.534122e+00 -5.688944e-01 -3.972704e+00 -8.825284e+00 -2.848601e+00 -8.661466e+00 -3.253550e+00 -4.362385e+00 -2.601479e+00 -2.102851e+00 -5.809362e+00 5.642570e+01 -2.967210e-03 2.443960e-03 -1.383232e-03 4.721943e-04 2.858703e-03 -1.800034e-03 1.118822e-03 -2.523069e-04 1.269976e-03 -1.272397e-03 -6.443115e-04 2.087800e-03 -4.867001e-03 -3.102126e-04 -2.300092e-05 -5.209897e-04 -3.159707e-04 -1.099977e-04 1.717125e-04 -3.289301e-05 1.096565e-04 1.149957e-04 -2.655387e-05 3.682249e-04 -3.032563e-04 7.110579e-05
<VARIANCE> 39
 6.328274e+01 6.771388e+01 7.149952e+01 5.664167e+01 7.816632e+01 6.880805e+01 6.085273e+01 7.315206e+01 6.072546e+01 4.423284e+01 4.961912e+01 4.581020e+01 2.361360e+02 2.525946e+00 2.887061e+00 2.689286e+00 2.745239e+00 3.451197e+00 3.240016e+00 3.108463e+00 3.991825e+00 3.311441e+00 2.815141e+00 3.024369e+00 2.487956e+00 5.156196e+00 3.945743e-01 4.414638e-01 4.206433e-01 4.679146e-01 6.074006e-01 5.648288e-01 5.671237e-01 7.011576e-01 5.876591e-01 5.198194e-01 5.479802e-01 4.549449e-01 6.810309e-01
<GCONST> 1.329121e+02
<STATE> 4
<MEAN> 39
 -4.909404e+00 -3.497395e+00 -4.258641e-01 -3.994398e+00 -8.803456e+00 -2.729596e+00 -8.753708e+00 -3.125009e+00 -4.492147e+00 -2.557601e+00 -2.155295e+00 -5.776757e+00 5.631173e+01 -3.847805e-03 2.403866e-03 -3.575095e-03 -8.857043e-04 2.638413e-03 -1.111795e-03 1.162302e-03 -3.306347e-04 1.788134e-03 -9.328476e-04 4.415087e-04 9.793212e-04 -4.824173e-03 -1.108193e-04 6.704062e-06 -3.612550e-04 -2.924890e-04 -1.417957e-04 1.854043e-04 -6.127326e-05 -3.204303e-05 9.520873e-05 1.093351e-04 2.064572e-04 -2.989217e-04 2.197953e-04
<VARIANCE> 39
 6.300401e+01 6.790774e+01 7.183833e+01 5.630951e+01 7.910529e+01 6.899796e+01 6.173683e+01 7.268140e+01 5.990019e+01 4.415984e+01 4.981350e+01 4.598351e+01 2.391055e+02 2.470522e+00 2.834839e+00 2.662235e+00 2.713114e+00 3.405091e+00 3.216901e+00 3.097126e+00 3.952122e+00 3.266850e+00 2.786691e+00 2.999570e+00 2.468309e+00 5.087394e+00 3.846991e-01 4.315876e-01 4.147248e-01 4.615037e-01 5.971642e-01 5.590118e-01 5.634010e-01 6.921499e-01 5.798391e-01 5.140991e-01 5.424489e-01 4.502159e-01 6.665400e-01
<GCONST> 1.325976e+02
<TRANSP> 5
 0.000000e+00 1.000000e+00 0.000000e+00 0.000000e+00 0.000000e+00
 0.000000e+00 7.166740e-01 2.833260e-01 0.000000e+00 0.000000e+00
 0.000000e+00 0.000000e+00 7.166696e-01 2.833305e-01 0.000000e+00
 0.000000e+00 0.000000e+00 0.000000e+00 8.425673e-01 1.574327e-01
 0.000000e+00 0.000000e+00 0.000000e+00 0.000000e+00 0.000000e+00
<ENDHMM>
~h "o"
<BEGINHMM>
<NUMSTATES> 5
<STATE> 2
<MEAN> 39
 -4.821345e+00 -3.134363e+00 -1.888654e+00 -5.587782e+00 -8.663679e+00 -1.829684e+00 -8.710569e+00 -3.619267e+00 -4.199511e+00 -2.404623e+00 -1.117679e+00 -5.568791e+00 5.632688e+01 -1.658035e-03 4.738961e-03 -9.972684e-04 -3.876815e-03 2.165823e-03 7.827519e-03 4.922507e-03 -1.046168e-03 -1.445102e-03 2.922045e-03 3.558794e-03 5.331404e-05 -7.558069e-03 -5.451761e-04 1.273964e-04 7.666918e-04 8.908099e-04 -1.645601e-04 -7.014990e-04 1.844959e-04 2.539815e-04 -6.167695e-05 -2.785696e-04 -2.140702e-04 3.187776e-04 -9.389911e-04
<VARIANCE> 39
 6.952420e+01 6.046769e+01 7.316462e+01 7.187263e+01 7.651464e+01 7.377894e+01 6.132134e+01 6.959738e+01 5.844296e+01 4.453918e+01 5.008020e+01 4.350223e+01 2.331012e+02 2.645303e+00 2.639425e+00 2.751500e+00 3.095633e+00 3.553253e+00 3.415151e+00 3.089821e+00 3.685106e+00 3.265622e+00 2.802319e+00 2.995409e+00 2.466981e+00 5.129590e+00 4.046822e-01 4.093418e-01 4.288848e-01 5.038373e-01 6.245103e-01 5.847715e-01 5.622193e-01 6.504622e-01 5.863618e-01 5.201396e-01 5.386665e-01 4.545022e-01 6.686022e-01
<GCONST> 1.331109e+02
<STATE> 3
<MEAN> 39
 -4.826495e+00 -3.117341e+00 -1.889563e+00 -5.601885e+00 -8.657634e+00 -1.800765e+00 -8.694794e+00 -3.623572e+00 -4.203806e+00 -2.395277e+00 -1.103897e+00 -5.566895e+00 5.630018e+01 -3.458320e-03 4.831927e-03 1.449325e-03 -9.560407e-04 1.797748e-03 5.563700e-03 5.453392e-03 -5.218407e-04 -1.507339e-03 2.194856e-03 2.632513e-03 9.144273e-04 -1.041391e-02 -4.739157e-04 -2.315082e-05 6.321773e-04 6.490346e-04 -1.137644e-04 -5.619308e-04 1.708893e-04 1.471376e-04 6.189890e-07 -2.224158e-04 -2.836038e-04 2.927674e-04 -6.034640e-04
<VARIANCE> 39
 6.955572e+01 6.034993e+01 7.331528e+01 7.217644e+01 7.660471e+01 7.387259e+01 6.124281e+01 6.937670e+01 5.832148e+01 4.448578e+01 5.007028e+01 4.343205e+01 2.330823e+02 2.638947e+00 2.629663e+00 2.747896e+00 3.097010e+00 3.547217e+00 3.411080e+00 3.084180e+00 3.672649e+00 3.262847e+00 2.795385e+00 2.992270e+00 2.462484e+00 5.108581e+00 4.034253e-01 4.077984e-01 4.281522e-01 5.035993e-01 6.232036e-01 5.839439e-01 5.611045e-01 6.481538e-01 5.860911e-01 5.187516e-01 5.378934e-01 4.535842e-01 6.647667e-01
<GCONST> 1.330526e+02
<STATE> 4
<MEAN> 39
 -4.845314e+00 -3.083379e+00 -1.757001e+00 -5.662035e+00 -8.682307e+00 -1.657178e+00 -8.796218e+00 -3.529800e+00 -4.314581e+00 -2.336930e+00 -1.122209e+00 -5.537591e+00 5.622114e+01 -4.298149e-03 4.218537e-03 3.450208e-03 3.508755e-04 1.094578e-03 4.675969e-03 5.074333e-03 -1.097647e-03 -1.630356e-03 1.725851e-03 1.815690e-03 1.603179e-03 -1.050350e-02 -3.571021e-04 -1.009668e-04 4.198769e-04 3.538163e-04 -2.996929e-05 -3.053331e-04 1.793533e-04 6.577458e-05 -2.073972e-05 -1.318523e-04 -3.151597e-04 2.227542e-04 -2.876174e-04
<VARIANCE> 39
 6.972663e+01 6.057148e+01 7.355027e+01 7.235832e+01 7.746322e+01 7.462747e+01 6.210986e+01 6.836096e+01 5.751693e+01 4.444624e+01 5.011943e+01 4.347443e+01 2.349112e+02 2.586906e+00 2.583246e+00 2.718315e+00 3.053846e+00 3.496178e+00 3.384068e+00 3.066995e+00 3.607510e+00 3.213218e+00 2.764471e+00 2.970156e+00 2.435985e+00 5.006750e+00 3.933745e-01 3.986256e-01 4.216065e-01 4.949095e-01 6.120366e-01 5.768684e-01 5.563831e-01 6.350031e-01 5.774192e-01 5.124331e-01 5.324322e-01 4.475612e-01 6.457647e-01
<GCONST> 1.326870e+02
<TRANSP> 5
 0.000000e+00 1.000000e+00 0.000000e+00 0.000000e+00 0.000000e+00
 0.000000e+00 7.206184e-01 2.793816e-01 0.000000e+00 0.000000e+00
 0.000000e+00 0.000000e+00 7.206156e-01 2.793843e-01 0.000000e+00
 0.000000e+00 0.000000e+00 0.000000e+00 8.466619e-01 1.533381e-01
 0.000000e+00 0.000000e+00 0.000000e+00 0.000000e+00 0.000000e+00
<ENDHMM>
~h "p"
<BEGINHMM>
<NUMSTATES> 5
<STATE> 2
<MEAN> 39
 -5.454801e+00 -3.357657e+00 -1.445748e+00 -4.409424e+00 -8.434011e+00 -2.632959e+00 -8.297085e+00 -3.043789e+00 -4.176474e+00 -2.559368e+00 -1.564536e+00 -5.561381e+00 5.465329e+01 6.931691e-03 3.222977e-04 -3.846020e-03 -5.265946e-03 2.869404e-04 8.086760e-03 1.908310e-03 -6.085692e-03 7.436516e-04 2.047297e-03 -3.702756e-03 -6.775174e-03 6.679064e-03 -2.247535e-04 2.003329e-04 3.955860e-05 1.563604e-04 1.787137e-04 -2.554687e-04 6.383339e-06 -1.135061e-04 -8.759100e-05 4.480670e-05 -1.509818e-04 7.171577e-06 -4.533850e-04
<VARIANCE> 39
 6.322177e+01 6.591840e+01 6.854844e+01 5.660208e+01 7.416989e+01 6.553116e+01 5.808244e+01 6.714430e+01 5.826438e+01 4.183711e+01 4.626539e+01 4.512347e+01 2.551597e+02 2.540965e+00 2.899086e+00 2.603296e+00 2.812449e+00 3.440128e+00 3.243832e+00 3.008711e+00 3.702625e+00 3.254661e+00 2.683316e+00 2.959064e+00 2.511378e+00 6.138501e+00 4.059934e-01 4.455527e-01 4.143417e-01 4.868388e-01 6.109143e-01 5.718499e-01 5.528643e-01 6.629127e-01 5.820253e-01 5.031635e-01 5.473917e-01 4.619181e-01 8.111892e-01
<GCONST> 1.326375e+02
<STATE> 3
<MEAN> 39
 -5.430860e+00 -3.355414e+00 -1.458309e+00 -4.427320e+00 -8.432464e+00 -2.606532e+00 -8.291469e+00 -3.063921e+00 -4.174460e+00 -2.551173e+00 -1.576910e+00 -5.584635e+00 5.467690e+01 5.897507e-03 8.990779e-04 -3.436786e-03 -4.103429e-03 8.048435e-04 6.820382e-03 2.152962e-03 -5.539950e-03 7.777680e-04 2.154083e-03 -3.802588e-03 -6.228049e-03 5.447675e-03 -3.146089e-04 2.087793e-04 1.481182e-04 3.058478e-04 8.653585e-05 -4.179310e-04 6.414208e-05 1.848015e-04 -1.714262e-05 8.194478e-05 4.174781e-05 2.324938e-04 -3.968638e-04
<VARIANCE> 39
 6.319721e+01 6.599997e+01 6.869767e+01 5.667651e+01 7.416814e+01 6.562769e+01 5.799130e+01 6.714183e+01 5.833580e+01 4.185807e+01 4.638038e+01 4.504383e+01 2.548563e+02 2.543326e+00 2.903954e+00 2.607144e+00 2.822773e+00 3.442991e+00 3.249647e+00 3.011458e+00 3.701474e+00 3.255237e+00 2.687445e+00 2.962911e+00 2.513545e+00 6.179427e+00 4.065819e-01 4.461751e-01 4.149039e-01 4.887803e-01 6.113455e-01 5.729173e-01 5.532017e-01 6.625577e-01 5.821961e-01 5.042212e-01 5.480362e-01 4.621917e-01 8.162028e-01
<GCONST> 1.326855e+02
<STATE> 4
<MEAN> 39
 -5.506871e+00 -3.311064e+00 -1.359578e+00 -4.451236e+00 -8.423270e+00 -2.508929e+00 -8.350757e+00 -2.953377e+00 -4.293014e+00 -2.487334e+00 -1.626365e+00 -5.577988e+00 5.448878e+01 4.605500e-03 1.057040e-03 -2.037215e-03 -2.282178e-03 8.972157e-04 5.198285e-03 1.580757e-03 -3.634767e-03 8.333716e-04 2.211906e-03 -3.088511e-03 -5.020378e-03 5.173858e-03 -3.387730e-04 1.139111e-04 2.204995e-04 3.172175e-04 8.341890e-06 -3.264246e-04 -2.064015e-07 2.527607e-04 1.324862e-05 4.944903e-05 9.955465e-05 2.728514e-04 -2.739317e-04
<VARIANCE> 39
 6.279559e+01 6.601595e+01 6.854884e+01 5.608362e+01 7.467564e+01 6.564265e+01 5.841416e+01 6.627900e+01 5.748235e+01 4.153625e+01 4.652840e+01 4.515591e+01 2.580549e+02 2.485974e+00 2.845407e+00 2.576794e+00 2.781438e+00 3.394440e+00 3.227522e+00 2.995630e+00 3.645679e+00 3.195073e+00 2.658599e+00 2.939225e+00 2.498141e+00 6.112295e+00 3.960182e-01 4.357080e-01 4.097604e-01 4.817129e-01 6.011846e-01 5.673029e-01 5.488979e-01 6.508512e-01 5.718513e-01 4.992724e-01 5.423923e-01 4.584280e-01 8.020525e-01
<GCONST> 1.323049e+02
<TRANSP> 5
 0.000000e+00 1.000000e+00 0.000000e+00 0.000000e+00 0.000000e+00
 0.000000e+00 7.194683e-01 2.805317e-01 0.000000e+00 0.000000e+00
 0.000000e+00 0.000000e+00 7.194649e-01 2.805351e-01 0.000000e+00
 0.000000e+00 0.000000e+00 0.000000e+00 8.456554e-01 1.543446e-01
 0.000000e+00 0.000000e+00 0.000000e+00 0.000000e+00 0.000000e+00
<ENDHMM>
~h "q"
<BEGINHMM>
<NUMSTATES> 5
<STATE> 2
<MEAN> 39
 -6.779819e+00 -1.347676e+00 6.390778e-01 -3.032466e+00 -1.117425e+01 -4.954051e+00 -1.012270e+01 -1.399133e+00 -4.871951e+00 -3.295812e+00 -2.067114e+00 -5.044182e+00 5.977018e+01 4.626326e-02 2.026117e-02 6.331301e-02 1.381497e-02 -6.992691e-02 -6.125182e-02 -5.451820e-02 -5.541142e-02 -2.766664e-02 -1.884176e-03 3.517873e-03 -5.056773e-02 1.094052e-01 -2.907569e-03 -2.295872e-03 1.038020e-03 -1.173573e-04 -8.077970e-05 -2.241658e-03 9.350767e-04 1.242309e-03 6.633452e-04 4.613147e-04 -1.078391e-04 1.154822e-03 -5.972165e-03
<VARIANCE> 39
 4.917354e+01 6.554536e+01 7.886896e+01 6.566022e+01 8.229104e+01 6.861095e+01 4.822826e+01 5.350397e+01 3.973115e+01 3.019955e+01 4.982251e+01 3.818198e+01 2.001139e+02 2.456567e+00 2.928139e+00 2.652135e+00 2.162501e+00 4.402795e+00 3.658257e+00 3.256127e+00 3.899152e+00 3.290020e+00 2.547716e+00 3.347400e+00 2.567239e+00 4.412845e+00 4.204932e-01 5.538900e-01 3.955959e-01 3.867797e-01 8.454835e-01 6.470147e-01 6.269427e-01 7.731663e-01 5.875519e-01 5.001209e-01 6.407213e-01 5.028564e-01 5.641069e-01
<GCONST> 1.319520e+02
<STATE> 3
<MEAN> 39
 -6.652765e+00 -1.267379e+00 8.447005e-01 -2.985745e+00 -1.138366e+01 -5.152108e+00 -1.027942e+01 -1.562618e+00 -4.957963e+00 -3.298349e+00 -2.056416e+00 -5.213504e+00 6.006089e+01 3.462078e-02 1.264615e-02 6.482696e-02 1.312189e-02 -6.797119e-02 -6.491325e-02 -5.018227e-02 -5.023594e-02 -2.604141e-02 -1.198682e-03 1.913444e-03 -4.585095e-02 9.233935e-02 -3.941407e-03 -2.545322e-03 -1.214382e-04 -5.059317e-04 1.150082e-03 -8.243354e-04 1.757457e-03 1.851864e-03 8.421096e-04 2.960592e-04 -5.941839e-04 1.882964e-03 -5.525220e-03
<VARIANCE> 39
 4.969883e+01 6.474387e+01 7.795192e+01 6.549424e+01 8.219413e+01 7.024288e+01 4.898671e+01 5.473294e+01 4.105671e+01 3.003403e+01 4.950032e+01 3.823497e+01 2.004253e+02 2.488676e+00 2.969083e+00 2.713307e+00 2.172864e+00 4.407845e+00 3.725728e+00 3.361453e+00 4.000400e+00 3.369970e+00 2.527952e+00 3.389639e+00 2.575763e+00 4.422702e+00 4.154515e-01 5.622582e-01 4.067692e-01 3.872946e-01 8.440645e-01 6.602137e-01 6.519709e-01 7.945804e-01 5.955393e-01 4.933616e-01 6.507819e-01 5.040249e-01 5.764469e-01
<GCONST> 1.323427e+02
<STATE> 4
<MEAN> 39
 -7.015869e+00 -1.279027e+00 9.674233e-01 -2.882593e+00 -1.132492e+01 -5.622379e+00 -1.019902e+01 -1.865240e+00 -5.011073e+00 -3.252406e+00 -1.960704e+00 -5.127051e+00 5.902983e+01 1.386802e-02 7.936661e-03 6.077597e-02 1.283566e-02 -5.636303e-02 -5.626472e-02 -3.784451e-02 -3.713605e-02 -2.595112e-02 -2.593425e-03 -3.778833e-03 -4.175477e-02 7.461669e-02 -4.723799e-03 -2.573933e-03 -1.230222e-03 -6.210834e-04 2.160419e-03 1.054051e-03 2.404728e-03 2.265757e-03 7.424934e-04 -5.901768e-05 -1.258386e-03 2.391462e-03 -2.931901e-03
<VARIANCE> 39
 5.025669e+01 6.015079e+01 7.246903e+01 6.124794e+01 7.936781e+01 6.910097e+01 4.972700e+01 5.374189e+01 4.085310e+01 2.877282e+01 4.632564e+01 3.864307e+01 2.182008e+02 2.407876e+00 2.862993e+00 2.648436e+00 2.108975e+00 4.193910e+00 3.645130e+00 3.416953e+00 3.928692e+00 3.316168e+00 2.426718e+00 3.298983e+00 2.536371e+00 4.264662e+00 3.880039e-01 5.391416e-01 4.018149e-01 3.757896e-01 7.946642e-01 6.514750e-01 6.676158e-01 7.776098e-01 5.805420e-01 4.675510e-01 6.389067e-01 4.907898e-01 5.654305e-01
<GCONST> 1.313666e+02
<TRANSP> 5
 0.000000e+00 1.000000e+00 0.000000e+00 0.000000e+00 0.000000e+00
 0.000000e+00 6.905546e-01 3.094453e-01 0.000000e+00 0.000000e+00
 0.000000e+00 0.000000e+00 6.905552e-01 3.094448e-01 0.000000e+00
 0.000000e+00 0.000000e+00 0.000000e+00 8.107718e-01 1.892282e-01
 0.000000e+00 0.000000e+00 0.000000e+00 0.000000e+00 0.000000e+00
<ENDHMM>
~h "r"
<BEGINHMM>
<NUMSTATES> 5
<STATE> 2
<MEAN> 39
 -5.242948e+00 -3.865750e+00 -1.416546e+00 -4.219060e+00 -8.713249e+00 -2.942807e+00 -8.730933e+00 -2.856529e+00 -3.965682e+00 -2.559797e+00 -1.558833e+00 -5.865591e+00 5.680009e+01 1.275744e-03 1.703601e-03 -1.585247e-03 1.712081e-03 1.554991e-03 4.911908e-04 1.584335e-03 -1.128598e-03 -1.313981e-03 1.389129e-03 -1.780911e-04 -1.543478e-03 1.435057e-03 -4.759826e-04 3.404467e-04 1.559116e-04 -2.064043e-04 3.046112e-04 -1.087987e-04 2.252078e-04 -1.230085e-04 -1.463396e-04 -4.295255e-05 6.900710e-05 2.546000e-04 -9.125669e-04
<VARIANCE> 39
 6.626150e+01 6.773446e+01 7.408698e+01 5.651867e+01 7.749492e+01 6.859824e+01 5.997818e+01 7.091300e+01 6.112620e+01 4.247776e+01 4.843873e+01 4.587498e+01 2.401545e+02 2.661723e+00 2.826264e+00 2.655650e+00 2.776397e+00 3.546262e+00 3.229674e+00 3.086459e+00 3.745344e+00 3.313080e+00 2.718378e+00 2.964681e+00 2.510894e+00 5.320646e+00 4.156585e-01 4.309454e-01 4.143786e-01 4.723491e-01 6.230749e-01 5.608500e-01 5.621530e-01 6.562260e-01 5.855638e-01 5.073307e-01 5.400043e-01 4.592549e-01 7.012973e-01
<GCONST> 1.328258e+02
<STATE> 3
<MEAN> 39
 -5.238833e+00 -3.859764e+00 -1.420860e+00 -4.213490e+00 -8.707201e+00 -2.941479e+00 -8.726380e+00 -2.860857e+00 -3.972939e+00 -2.554700e+00 -1.558837e+00 -5.870706e+00 5.680497e+01 -4.605716e-04 2.864247e-03 -1.076233e-03 9.340646e-04 2.626456e-03 9.426460e-05 2.443944e-03 -1.639644e-03 -1.951438e-03 1.045125e-03 -5.267698e-05 -7.123970e-04 -1.707047e-03 -4.458043e-04 2.569141e-04 1.768708e-04 -1.746706e-04 1.964653e-04 -1.342797e-04 2.140846e-04 -1.155607e-04 -1.529460e-04 -9.021856e-05 6.021508e-05 2.128894e-04 -7.663345e-04
<VARIANCE> 39
 6.635415e+01 6.778252e+01 7.426502e+01 5.642049e+01 7.758671e+01 6.854537e+01 5.997265e+01 7.089774e+01 6.112704e+01 4.248590e+01 4.843327e+01 4.579675e+01 2.400151e+02 2.659912e+00 2.823860e+00 2.653476e+00 2.774555e+00 3.546088e+00 3.227064e+00 3.086241e+00 3.741517e+00 3.309593e+00 2.715719e+00 2.962256e+00 2.505779e+00 5.316029e+00 4.150613e-01 4.301595e-01 4.137228e-01 4.718990e-01 6.225519e-01 5.604581e-01 5.618707e-01 6.554596e-01 5.847821e-01 5.067672e-01 5.396043e-01 4.581434e-01 7.001113e-01
<GCONST> 1.327995e+02
<STATE> 4
<MEAN> 39
 -5.264059e+00 -3.849891e+00 -1.280043e+00 -4.256979e+00 -8.716341e+00 -2.826403e+00 -8.839078e+00 -2.750263e+00 -4.114711e+00 -2.500469e+00 -1.594217e+00 -5.879280e+00 5.674144e+01 -1.997956e-03 3.414293e-03 -3.772114e-04 3.443469e-04 3.240078e-03 -5.327538e-04 2.909331e-03 -1.852766e-03 -2.838762e-03 7.575072e-04 -1.030909e-04 -1.175988e-04 -4.237001e-03 -3.607383e-04 1.505784e-04 1.632661e-04 -7.962556e-05 8.898608e-05 -1.476679e-04 1.719415e-04 -9.897100e-05 -5.551963e-05 -5.030299e-05 1.282088e-05 1.262509e-04 -6.340063e-04
<VARIANCE> 39
 6.643062e+01 6.831187e+01 7.472386e+01 5.604206e+01 7.837118e+01 6.897354e+01 6.069158e+01 7.039802e+01 6.044202e+01 4.245412e+01 4.867042e+01 4.591653e+01 2.420009e+02 2.604936e+00 2.781148e+00 2.621752e+00 2.736749e+00 3.498856e+00 3.206825e+00 3.079684e+00 3.700458e+00 3.261718e+00 2.690532e+00 2.945901e+00 2.482228e+00 5.230393e+00 4.049563e-01 4.211330e-01 4.069397e-01 4.641912e-01 6.113062e-01 5.545924e-01 5.585030e-01 6.467994e-01 5.757911e-01 5.014750e-01 5.353818e-01 4.525159e-01 6.828998e-01
<GCONST> 1.324848e+02
<TRANSP> 5
 0.000000e+00 1.000000e+00 0.000000e+00 0.000000e+00 0.000000e+00
 0.000000e+00 7.182943e-01 2.817057e-01 0.000000e+00 0.000000e+00
 0.000000e+00 0.000000e+00 7.182927e-01 2.817073e-01 0.000000e+00
 0.000000e+00 0.000000e+00 0.000000e+00 8.442175e-01 1.557825e-01
 0.000000e+00 0.000000e+00 0.000000e+00 0.000000e+00 0.000000e+00
<ENDHMM>
~h "s"
<BEGINHMM>
<NUMSTATES> 5
<STATE> 2
<MEAN> 39
 -6.857483e+00 -2.809474e+00 -1.312640e+00 -3.977578e+00 -7.870348e+00 -3.121874e+00 -8.118766e+00 -2.691975e+00 -4.006012e+00 -2.550312e+00 -1.622537e+00 -5.112520e+00 5.610902e+01 -1.118595e-03 2.846733e-03 2.496791e-03 -4.154242e-05 2.615506e-04 -1.419022e-06 -4.454955e-04 -6.669144e-04 1.083301e-03 -7.235992e-05 -1.621107e-03 -1.972626e-03 7.254430e-03 5.915060e-04 -8.780529e-05 1.407163e-04 9.651281e-05 -1.874640e-04 2.967562e-04 -3.761743e-05 -1.684216e-04 8.385663e-05 2.301863e-04 -1.168228e-04 -2.207455e-04 -8.207943e-04
<VARIANCE> 39
 8.291529e+01 6.573126e+01 7.032649e+01 5.240026e+01 7.522463e+01 6.477547e+01 6.221156e+01 6.552869e+01 5.612650e+01 4.049510e+01 4.514508e+01 4.404648e+01 2.333169e+02 3.474602e+00 2.910836e+00 2.637254e+00 2.597544e+00 3.418883e+00 3.103121e+00 3.114674e+00 3.691361e+00 3.125224e+00 2.612637e+00 2.855916e+00 2.474968e+00 4.711946e+00 4.953258e-01 4.474119e-01 4.076211e-01 4.486913e-01 5.920609e-01 5.395390e-01 5.600578e-01 6.493181e-01 5.580198e-01 4.911913e-01 5.224922e-01 4.499164e-01 6.236179e-01
<GCONST> 1.321484e+02
<STATE> 3
<MEAN> 39
 -6.860703e+00 -2.799811e+00 -1.304250e+00 -3.976588e+00 -7.869393e+00 -3.121039e+00 -8.120605e+00 -2.693587e+00 -4.000782e+00 -2.548808e+00 -1.628690e+00 -5.119463e+00 5.613163e+01 9.945324e-04 2.366359e-03 3.020017e-03 5.024612e-04 -3.423813e-04 7.843678e-04 -3.735448e-04 -7.398089e-04 1.176739e-03 1.794815e-04 -1.692690e-03 -2.372871e-03 4.320987e-03 4.009843e-04 -4.898833e-05 1.070257e-04 1.693181e-04 -9.725797e-05 2.570991e-04 6.763980e-05 -4.264447e-06 3.783134e-05 5.450705e-05 -3.988098e-05 -4.968134e-05 -8.170808e-04
<VARIANCE> 39
 8.294434e+01 6.574763e+01 7.034296e+01 5.234898e+01 7.520944e+01 6.488797e+01 6.220750e+01 6.547723e+01 5.609357e+01 4.052423e+01 4.520069e+01 4.391727e+01 2.330896e+02 3.492178e+00 2.915270e+00 2.637163e+00 2.596836e+00 3.420276e+00 3.104116e+00 3.118262e+00 3.692942e+00 3.125054e+00 2.608195e+00 2.857814e+00 2.475454e+00 4.703667e+00 4.973196e-01 4.481986e-01 4.071536e-01 4.485351e-01 5.920821e-01 5.394776e-01 5.604985e-01 6.494238e-01 5.580721e-01 4.900359e-01 5.227757e-01 4.497443e-01 6.222042e-01
<GCONST> 1.321530e+02
<STATE> 4
<MEAN> 39
 -6.895148e+00 -2.737145e+00 -1.193753e+00 -3.976570e+00 -7.806723e+00 -2.981803e+00 -8.150277e+00 -2.558120e+00 -4.101503e+00 -2.474488e+00 -1.680687e+00 -5.073784e+00 5.591401e+01 2.126634e-03 1.781737e-03 3.186277e-03 1.357729e-03 -4.341003e-04 1.273409e-03 1.480790e-04 2.326025e-05 1.216274e-03 -2.294101e-04 -1.692080e-03 -1.840791e-03 1.387197e-03 1.691547e-04 -5.141948e-05 3.192857e-05 1.260198e-04 3.106434e-05 1.800063e-04 1.359818e-04 7.469542e-05 3.377569e-05 -6.548402e-05 8.378554e-06 9.438127e-05 -6.730089e-04
<VARIANCE> 39
 8.217844e+01 6.594018e+01 6.993514e+01 5.176951e+01 7.533729e+01 6.481373e+01 6.296423e+01 6.453667e+01 5.505896e+01 4.027326e+01 4.517141e+01 4.376009e+01 2.356595e+02 3.400912e+00 2.860465e+00 2.591802e+00 2.549135e+00 3.355814e+00 3.074965e+00 3.103650e+00 3.636476e+00 3.075364e+00 2.575310e+00 2.832081e+00 2.445546e+00 4.587091e+00 4.820613e-01 4.374318e-01 3.989793e-01 4.398779e-01 5.791330e-01 5.326681e-01 5.569076e-01 6.388510e-01 5.496840e-01 4.836854e-01 5.174593e-01 4.435031e-01 6.022379e-01
<GCONST> 1.316670e+02
<TRANSP> 5
 0.000000e+00 1.000000e+00 0.000000e+00 0.000000e+00 0.000000e+00
 0.000000e+00 7.205345e-01 2.794655e-01 0.000000e+00 0.000000e+00
 0.000000e+00 0.000000e+00 7.205374e-01 2.794626e-01 0.000000e+00
 0.000000e+00 0.000000e+00 0.000000e+00 8.471339e-01 1.528660e-01
 0.000000e+00 0.000000e+00 0.000000e+00 0.000000e+00 0.000000e+00
<ENDHMM>
~h "t"
<BEGINHMM>
<NUMSTATES> 5
<STATE> 2
<MEAN> 39
 -5.534124e+00 -3.232356e+00 -1.281539e+00 -4.429079e+00 -8.417811e+00 -2.844457e+00 -8.600060e+00 -3.148133e+00 -4.118049e+00 -2.494989e+00 -1.737443e+00 -5.664442e+00 5.563931e+01 -6.863513e-04 4.947023e-03 7.210227e-04 -2.078405e-03 4.391117e-03 2.767932e-03 3.155321e-04 -2.161665e-03 -7.233961e-04 3.471532e-03 -8.105697e-04 -5.017104e-04 -3.919479e-03 -1.108936e-04 -1.325805e-04 1.491813e-04 1.894085e-04 1.307405e-04 -3.685188e-05 1.015757e-04 2.169229e-04 -1.389461e-04 1.292345e-05 -1.791667e-04 8.328032e-05 -4.179566e-04
<VARIANCE> 39
 6.387921e+01 6.628725e+01 7.029465e+01 5.659842e+01 7.475930e+01 6.761480e+01 6.033711e+01 6.833269e+01 5.841357e+01 4.181701e+01 4.766012e+01 4.525337e+01 2.415339e+02 2.733648e+00 2.949039e+00 2.656638e+00 2.730341e+00 3.494930e+00 3.278392e+00 3.115180e+00 3.728881e+00 3.234674e+00 2.717654e+00 2.965395e+00 2.542588e+00 6.332322e+00 4.360942e-01 4.589554e-01 4.223235e-01 4.699287e-01 6.211349e-01 5.746376e-01 5.704499e-01 6.655002e-01 5.782587e-01 5.104123e-01 5.418484e-01 4.672389e-01 8.467996e-01
<GCONST> 1.331479e+02
<STATE> 3
<MEAN> 39
 -5.536171e+00 -3.216368e+00 -1.278232e+00 -4.436454e+00 -8.401992e+00 -2.834896e+00 -8.599118e+00 -3.154392e+00 -4.120380e+00 -2.483413e+00 -1.740360e+00 -5.666181e+00 5.562682e+01 -1.205697e-03 4.342256e-03 1.153172e-03 -1.375267e-03 4.792657e-03 2.573563e-03 7.067130e-04 -1.456237e-03 -1.162012e-03 3.496070e-03 -1.364219e-03 -8.199666e-05 -5.388170e-03 -1.271216e-04 -1.789576e-04 1.857248e-04 1.785139e-04 5.331091e-05 -1.602327e-04 7.325395e-05 2.146639e-04 -1.321902e-04 -2.581879e-06 -1.288048e-04 1.066743e-04 -4.631843e-04
<VARIANCE> 39
 6.378491e+01 6.628790e+01 7.043956e+01 5.661462e+01 7.479436e+01 6.748960e+01 6.038768e+01 6.824915e+01 5.839340e+01 4.182866e+01 4.762429e+01 4.523424e+01 2.412356e+02 2.728437e+00 2.949380e+00 2.656672e+00 2.730319e+00 3.495834e+00 3.276321e+00 3.115968e+00 3.727148e+00 3.230706e+00 2.715707e+00 2.959782e+00 2.541294e+00 6.346509e+00 4.354030e-01 4.587970e-01 4.223679e-01 4.696715e-01 6.209751e-01 5.742822e-01 5.707150e-01 6.650581e-01 5.773163e-01 5.100700e-01 5.406454e-01 4.669220e-01 8.484166e-01
<GCONST> 1.331333e+02
<STATE> 4
<MEAN> 39
 -5.587043e+00 -3.192630e+00 -1.158024e+00 -4.477126e+00 -8.369953e+00 -2.716365e+00 -8.694654e+00 -3.025865e+00 -4.238111e+00 -2.419328e+00 -1.784871e+00 -5.670247e+00 5.551434e+01 -1.466782e-03 3.467363e-03 1.613594e-03 -8.229112e-04 4.862211e-03 2.134400e-03 8.800401e-04 -7.130119e-04 -1.187464e-03 3.046333e-03 -1.722510e-03 2.853141e-04 -6.439608e-03 -9.563617e-05 -1.562936e-04 1.518758e-04 1.322877e-04 -9.639536e-06 -2.456471e-04 6.091298e-05 1.968032e-04 -7.915053e-05 -7.236682e-05 -7.629598e-05 5.690984e-05 -4.490487e-04
<VARIANCE> 39
 6.334051e+01 6.653547e+01 7.071567e+01 5.621551e+01 7.537199e+01 6.765594e+01 6.132930e+01 6.751383e+01 5.763802e+01 4.182084e+01 4.767270e+01 4.542243e+01 2.430158e+02 2.660022e+00 2.901112e+00 2.627432e+00 2.692869e+00 3.450541e+00 3.255342e+00 3.108665e+00 3.684978e+00 3.183306e+00 2.690369e+00 2.932018e+00 2.522423e+00 6.252154e+00 4.232720e-01 4.488438e-01 4.166404e-01 4.625952e-01 6.104561e-01 5.680903e-01 5.676246e-01 6.559016e-01 5.681672e-01 5.049677e-01 5.344277e-01 4.619120e-01 8.295428e-01
<GCONST> 1.327879e+02
<TRANSP> 5
 0.000000e+00 1.000000e+00 0.000000e+00 0.000000e+00 0.000000e+00
 0.000000e+00 7.194227e-01 2.805773e-01 0.000000e+00 0.000000e+00
 0.000000e+00 0.000000e+00 7.194210e-01 2.805790e-01 0.000000e+00
 0.000000e+00 0.000000e+00 0.000000e+00 8.455657e-01 1.544343e-01
 0.000000e+00 0.000000e+00 0.000000e+00 0.000000e+00 0.000000e+00
<ENDHMM>
~h "u"
<BEGINHMM>
<NUMSTATES> 5
<STATE> 2
<MEAN> 39
 -4.986867e+00 -2.500715e+00 -1.093937e+00 -4.725861e+00 -8.636831e+00 -2.339926e+00 -9.193941e+00 -3.813195e+00 -4.589757e+00 -2.639519e+00 -1.397425e+00 -5.416790e+00 5.596832e+01 2.913094e-03 5.898705e-03 2.071013e-03 -8.475001e-04 -2.284066e-03 4.429935e-03 -2.785088e-03 -6.776994e-03 -8.973301e-04 -2.921515e-04 -6.833562e-04 -2.206691e-03 5.724954e-03 -3.941354e-04 -3.311417e-04 3.898891e-05 3.983357e-04 -5.758212e-06 -3.482559e-04 1.644151e-04 3.217121e-04 3.080650e-04 -1.620737e-04 -1.045857e-04 -9.376522e-05 -4.745958e-04
<VARIANCE> 39
 6.965246e+01 6.460838e+01 6.886320e+01 6.201591e+01 7.773428e+01 6.994597e+01 6.405865e+01 7.403483e+01 5.895204e+01 4.358218e+01 4.886338e+01 4.501975e+01 2.296460e+02 2.796543e+00 2.814787e+00 2.684114e+00 2.962875e+00 3.605798e+00 3.378268e+00 3.269441e+00 3.910369e+00 3.292980e+00 2.822381e+00 3.129645e+00 2.583949e+00 5.271295e+00 4.349845e-01 4.404594e-01 4.261756e-01 5.039203e-01 6.363006e-01 5.908139e-01 5.929334e-01 6.904757e-01 5.876980e-01 5.267077e-01 5.708900e-01 4.740883e-01 7.037953e-01
<GCONST> 1.337719e+02
<STATE> 3
<MEAN> 39
 -4.977185e+00 -2.480426e+00 -1.085369e+00 -4.727452e+00 -8.646443e+00 -2.325691e+00 -9.204694e+00 -3.836067e+00 -4.593154e+00 -2.641516e+00 -1.399854e+00 -5.423860e+00 5.598912e+01 1.621318e-03 4.758751e-03 2.174888e-03 5.045058e-04 -2.332775e-03 3.204240e-03 -2.304770e-03 -5.888181e-03 -3.741829e-05 -7.899084e-04 -9.504062e-04 -2.529080e-03 3.884595e-03 -2.719539e-04 -2.798098e-04 2.583211e-05 3.428016e-04 -2.322734e-05 -2.966077e-04 1.067820e-04 2.332929e-04 2.053873e-04 -1.156666e-04 -1.498756e-05 -1.028150e-04 -3.903521e-04
<VARIANCE> 39
 6.965049e+01 6.454163e+01 6.896158e+01 6.210796e+01 7.788506e+01 7.008102e+01 6.423938e+01 7.422372e+01 5.898807e+01 4.361892e+01 4.893258e+01 4.500734e+01 2.293213e+02 2.797426e+00 2.812219e+00 2.687962e+00 2.966282e+00 3.609356e+00 3.381797e+00 3.273369e+00 3.911314e+00 3.296476e+00 2.827821e+00 3.133372e+00 2.587217e+00 5.268323e+00 4.348579e-01 4.400966e-01 4.264846e-01 5.045455e-01 6.368709e-01 5.913387e-01 5.937179e-01 6.903670e-01 5.883324e-01 5.278006e-01 5.713746e-01 4.746191e-01 7.026810e-01
<GCONST> 1.338019e+02
<STATE> 4
<MEAN> 39
 -5.012385e+00 -2.443665e+00 -9.604048e-01 -4.768019e+00 -8.653980e+00 -2.196874e+00 -9.315159e+00 -3.727467e+00 -4.703926e+00 -2.590594e+00 -1.444569e+00 -5.433434e+00 5.592367e+01 6.766800e-04 3.777302e-03 2.244033e-03 1.693946e-03 -2.554341e-03 2.141714e-03 -2.226036e-03 -4.959224e-03 1.988425e-04 -1.106674e-03 -6.940684e-04 -2.613197e-03 1.988903e-03 -1.368482e-04 -1.808400e-04 -2.259939e-05 2.475160e-04 1.904062e-05 -1.901002e-04 1.070677e-04 2.272016e-04 1.122746e-04 -4.947954e-05 8.218903e-05 -8.282423e-05 -3.501957e-04
<VARIANCE> 39
 6.940262e+01 6.476037e+01 6.933459e+01 6.192474e+01 7.850279e+01 7.059010e+01 6.528393e+01 7.372117e+01 5.846299e+01 4.354659e+01 4.914175e+01 4.522909e+01 2.315643e+02 2.746557e+00 2.768364e+00 2.666596e+00 2.931978e+00 3.563807e+00 3.366836e+00 3.275666e+00 3.858634e+00 3.264829e+00 2.805938e+00 3.116182e+00 2.570677e+00 5.202878e+00 4.250011e-01 4.312575e-01 4.215303e-01 4.978488e-01 6.264372e-01 5.863827e-01 5.923064e-01 6.792856e-01 5.820175e-01 5.237541e-01 5.668970e-01 4.699896e-01 6.876978e-01
<GCONST> 1.335419e+02
<TRANSP> 5
 0.000000e+00 1.000000e+00 0.000000e+00 0.000000e+00 0.000000e+00
 0.000000e+00 7.188507e-01 2.811493e-01 0.000000e+00 0.000000e+00
 0.000000e+00 0.000000e+00 7.188424e-01 2.811576e-01 0.000000e+00
 0.000000e+00 0.000000e+00 0.000000e+00 8.449357e-01 1.550643e-01
 0.000000e+00 0.000000e+00 0.000000e+00 0.000000e+00 0.000000e+00
<ENDHMM>
~h "w"
<BEGINHMM>
<NUMSTATES> 5
<STATE> 2
<MEAN> 39
 -4.959210e+00 -3.583065e+00 -1.592789e+00 -5.338055e+00 -8.861300e+00 -2.022744e+00 -8.890545e+00 -2.836645e+00 -4.027587e+00 -2.395905e+00 -1.261907e+00 -5.870458e+00 5.669266e+01 1.381586e-03 3.024794e-03 1.291936e-03 -5.458607e-03 4.333987e-03 5.839235e-03 4.924043e-03 4.461576e-03 3.834537e-03 2.114429e-03 -4.570262e-03 -8.613725e-03 1.262498e-03 -6.197664e-04 5.723290e-04 6.705921e-04 1.050473e-03 2.518117e-04 -2.043966e-04 3.603191e-04 -3.664604e-04 -3.498913e-04 -6.102353e-05 -6.026126e-04 6.814438e-04 -1.922750e-03
<VARIANCE> 39
 6.800352e+01 6.538209e+01 7.166763e+01 7.084426e+01 7.710477e+01 7.784544e+01 5.963437e+01 6.759483e+01 6.061065e+01 4.268313e+01 5.076174e+01 4.509102e+01 2.415323e+02 2.473988e+00 2.729115e+00 2.517520e+00 2.804670e+00 3.435767e+00 3.287215e+00 3.010038e+00 3.613971e+00 3.048551e+00 2.646764e+00 2.929294e+00 2.451650e+00 4.836319e+00 3.780525e-01 4.142966e-01 3.879285e-01 4.541065e-01 6.007724e-01 5.560443e-01 5.479410e-01 6.379576e-01 5.406946e-01 4.957309e-01 5.303164e-01 4.488494e-01 6.284927e-01
<GCONST> 1.320492e+02
<STATE> 3
<MEAN> 39
 -4.952269e+00 -3.572783e+00 -1.584118e+00 -5.354957e+00 -8.847082e+00 -1.996514e+00 -8.871831e+00 -2.823493e+00 -4.018966e+00 -2.393844e+00 -1.276557e+00 -5.898698e+00 5.670206e+01 -9.632006e-04 4.843418e-03 3.210417e-03 -1.438373e-03 5.575878e-03 4.226285e-03 6.253125e-03 3.690160e-03 2.563482e-03 1.523252e-03 -6.597839e-03 -5.419339e-03 -5.263424e-03 -5.639187e-04 4.905697e-04 4.411431e-04 1.021129e-03 3.397751e-04 -3.390783e-04 3.564022e-04 -2.249625e-04 -4.458638e-04 -2.797881e-04 -4.298686e-04 9.993145e-04 -1.796933e-03
<VARIANCE> 39
 6.761967e+01 6.546397e+01 7.201519e+01 7.082370e+01 7.715687e+01 7.802139e+01 5.964844e+01 6.751942e+01 6.048899e+01 4.263389e+01 5.077708e+01 4.495741e+01 2.413757e+02 2.464992e+00 2.713513e+00 2.505850e+00 2.794344e+00 3.423496e+00 3.280739e+00 3.002500e+00 3.602645e+00 3.032456e+00 2.642572e+00 2.926360e+00 2.447488e+00 4.824523e+00 3.769532e-01 4.109873e-01 3.858194e-01 4.515202e-01 5.975837e-01 5.543647e-01 5.464807e-01 6.358512e-01 5.376173e-01 4.950835e-01 5.291842e-01 4.478242e-01 6.247897e-01
<GCONST> 1.319502e+02
<STATE> 4
<MEAN> 39
 -5.061820e+00 -3.522810e+00 -1.438711e+00 -5.365554e+00 -8.794538e+00 -1.870796e+00 -8.888105e+00 -2.672978e+00 -4.091672e+00 -2.324097e+00 -1.270005e+00 -5.862447e+00 5.645121e+01 -1.166232e-03 5.907810e-03 3.609103e-03 1.108678e-03 7.033488e-03 4.712741e-03 6.779834e-03 2.648108e-03 4.510503e-04 -7.037899e-04 -6.937396e-03 -1.675376e-03 -8.784888e-03 -3.497979e-04 4.276202e-04 2.823311e-05 5.913907e-04 4.025023e-04 -1.412974e-04 2.222691e-04 -1.119403e-04 -3.156945e-04 -2.859576e-04 -1.854134e-04 9.512284e-04 -1.698146e-03
<VARIANCE> 39
 6.768520e+01 6.614347e+01 7.184090e+01 7.016335e+01 7.781275e+01 7.806253e+01 6.073526e+01 6.669972e+01 5.956810e+01 4.250763e+01 5.058590e+01 4.550099e+01 2.469951e+02 2.418201e+00 2.648256e+00 2.455637e+00 2.741275e+00 3.357996e+00 3.222777e+00 2.985821e+00 3.542098e+00 2.969678e+00 2.600523e+00 2.886356e+00 2.420166e+00 4.716207e+00 3.689118e-01 3.980278e-01 3.773780e-01 4.425742e-01 5.830421e-01 5.426843e-01 5.423556e-01 6.242010e-01 5.259982e-01 4.873725e-01 5.201760e-01 4.411459e-01 6.046293e-01
<GCONST> 1.314801e+02
<TRANSP> 5
 0.000000e+00 1.000000e+00 0.000000e+00 0.000000e+00 0.000000e+00
 0.000000e+00 7.228605e-01 2.771394e-01 0.000000e+00 0.000000e+00
 0.000000e+00 0.000000e+00 7.228594e-01 2.771406e-01 0.000000e+00
 0.000000e+00 0.000000e+00 0.000000e+00 8.506443e-01 1.493557e-01
 0.000000e+00 0.000000e+00 0.000000e+00 0.000000e+00 0.000000e+00
<ENDHMM>
~h "y"
<BEGINHMM>
<NUMSTATES> 5
<STATE> 2
<MEAN> 39
 -5.814888e+00 -3.509555e+00 -4.646348e-01 -4.339266e+00 -8.745578e+00 -2.786385e+00 -8.447511e+00 -2.106475e+00 -4.198635e+00 -2.698351e+00 -1.525550e+00 -5.382953e+00 5.589328e+01 1.894568e-03 -7.398894e-04 1.079287e-02 -1.978120e-03 -6.104331e-03 -3.939228e-03 -2.745174e-03 6.008762e-03 -8.710983e-03 -4.883829e-03 7.469193e-04 2.797237e-04 1.728539e-02 -2.207779e-04 1.693150e-05 -3.475773e-06 8.328673e-05 -4.837186e-06 -5.287271e-04 -2.409240e-04 -3.237534e-04 -2.104717e-05 7.219949e-05 -1.058636e-05 1.583606e-04 -5.141081e-04
<VARIANCE> 39
 6.209771e+01 6.861105e+01 7.638039e+01 5.556153e+01 7.948066e+01 6.766463e+01 6.254387e+01 7.064798e+01 5.744330e+01 4.590306e+01 4.800717e+01 4.428098e+01 2.594553e+02 2.370453e+00 2.678678e+00 2.693980e+00 2.580981e+00 3.318204e+00 3.080519e+00 3.024555e+00 3.675047e+00 3.064502e+00 2.643672e+00 2.849812e+00 2.364909e+00 4.577186e+00 3.698226e-01 3.995982e-01 3.991075e-01 4.400555e-01 5.749803e-01 5.353587e-01 5.473939e-01 6.417052e-01 5.450253e-01 4.909239e-01 5.135527e-01 4.309552e-01 5.863016e-01
<GCONST> 1.312743e+02
<STATE> 3
<MEAN> 39
 -5.806967e+00 -3.515088e+00 -4.258122e-01 -4.347238e+00 -8.768209e+00 -2.804045e+00 -8.461229e+00 -2.085342e+00 -4.228735e+00 -2.713909e+00 -1.525386e+00 -5.381534e+00 5.596443e+01 1.140314e-03 -7.235187e-04 1.009522e-02 -1.638163e-03 -5.772889e-03 -5.903457e-03 -3.131224e-03 5.144177e-03 -8.660220e-03 -4.615890e-03 6.968498e-04 8.934722e-04 1.523080e-02 -1.855173e-04 -6.194821e-05 -1.897390e-04 7.633640e-05 2.376913e-05 -4.905669e-04 -7.217316e-05 -1.797697e-04 4.501719e-05 1.264198e-04 2.418899e-05 1.789375e-04 -4.402059e-04
<VARIANCE> 39
 6.214551e+01 6.884956e+01 7.652342e+01 5.541668e+01 7.949243e+01 6.779556e+01 6.277643e+01 7.081047e+01 5.738010e+01 4.606963e+01 4.818905e+01 4.423325e+01 2.584614e+02 2.368672e+00 2.686670e+00 2.703841e+00 2.578263e+00 3.319010e+00 3.088423e+00 3.035908e+00 3.681677e+00 3.060309e+00 2.650203e+00 2.854169e+00 2.365183e+00 4.564573e+00 3.687582e-01 4.001455e-01 3.996467e-01 4.398999e-01 5.745033e-01 5.364214e-01 5.491314e-01 6.425430e-01 5.441673e-01 4.919970e-01 5.139995e-01 4.309776e-01 5.835864e-01
<GCONST> 1.313024e+02
<STATE> 4
<MEAN> 39
 -5.904425e+00 -3.429948e+00 -2.240342e-01 -4.336510e+00 -8.754187e+00 -2.653143e+00 -8.539422e+00 -1.917843e+00 -4.359103e+00 -2.601224e+00 -1.547059e+00 -5.267708e+00 5.571958e+01 5.051862e-04 -2.199747e-03 9.192628e-03 -1.880464e-03 -6.033295e-03 -8.045276e-03 -3.631437e-03 4.670291e-03 -7.230412e-03 -3.630999e-03 4.062322e-04 1.784484e-03 1.569607e-02 -2.244535e-04 -1.327751e-04 -2.377899e-04 3.086006e-05 -6.303254e-05 -3.751870e-04 4.084060e-05 -1.336072e-04 1.975597e-04 1.868332e-04 3.688834e-05 1.594196e-04 -4.667174e-04
<VARIANCE> 39
 6.198913e+01 6.944571e+01 7.692991e+01 5.454559e+01 8.023034e+01 6.771311e+01 6.414248e+01 7.016022e+01 5.670509e+01 4.584870e+01 4.854047e+01 4.435978e+01 2.627524e+02 2.307235e+00 2.648451e+00 2.691441e+00 2.535442e+00 3.280081e+00 3.063447e+00 3.037166e+00 3.651524e+00 3.011136e+00 2.624368e+00 2.835962e+00 2.339749e+00 4.481413e+00 3.571089e-01 3.920718e-01 3.948239e-01 4.331658e-01 5.644450e-01 5.301023e-01 5.468580e-01 6.362700e-01 5.347309e-01 4.873483e-01 5.091003e-01 4.257882e-01 5.667260e-01
<GCONST> 1.309755e+02
<TRANSP> 5
 0.000000e+00 1.000000e+00 0.000000e+00 0.000000e+00 0.000000e+00
 0.000000e+00 7.236167e-01 2.763833e-01 0.000000e+00 0.000000e+00
 0.000000e+00 0.000000e+00 7.236152e-01 2.763847e-01 0.000000e+00
 0.000000e+00 0.000000e+00 0.000000e+00 8.509799e-01 1.490202e-01
 0.000000e+00 0.000000e+00 0.000000e+00 0.000000e+00 0.000000e+00
<ENDHMM>
~h "z"
<BEGINHMM>
<NUMSTATES> 5
<STATE> 2
<MEAN> 39
 -6.573884e+00 -1.945407e+00 -5.473808e-01 -3.342071e+00 -7.986605e+00 -3.281621e+00 -8.578033e+00 -3.636109e+00 -3.977627e+00 -2.309813e+00 -1.585769e+00 -5.072876e+00 5.566828e+01 2.724513e-04 -8.124764e-03 4.882494e-03 3.951943e-03 -3.179159e-03 1.444972e-03 8.172159e-03 -2.665631e-03 -1.809642e-03 1.619857e-03 4.906252e-04 -8.531285e-03 -1.585038e-02 -3.054173e-05 -4.010283e-04 -1.503673e-03 5.131634e-04 1.463183e-03 -4.377601e-04 5.732091e-04 7.787219e-04 2.917621e-04 1.047913e-04 -9.083973e-04 3.593865e-04 -2.418698e-03
<VARIANCE> 39
 6.877671e+01 6.511958e+01 6.639119e+01 5.379208e+01 7.546965e+01 6.532195e+01 6.253650e+01 6.308881e+01 5.380246e+01 3.769736e+01 4.603563e+01 4.167589e+01 2.301098e+02 2.539959e+00 2.647762e+00 2.251900e+00 2.401641e+00 3.066441e+00 3.030573e+00 2.749297e+00 3.351824e+00 2.776191e+00 2.450373e+00 2.714669e+00 2.366113e+00 3.800098e+00 3.696696e-01 3.966364e-01 3.525537e-01 3.987802e-01 5.130906e-01 5.150526e-01 4.903213e-01 5.891031e-01 5.004087e-01 4.553385e-01 4.891718e-01 4.326260e-01 4.822434e-01
<GCONST> 1.286016e+02
<STATE> 3
<MEAN> 39
 -6.573928e+00 -1.975803e+00 -5.301960e-01 -3.319300e+00 -7.992582e+00 -3.282803e+00 -8.547767e+00 -3.641191e+00 -3.985731e+00 -2.304299e+00 -1.586857e+00 -5.099857e+00 5.561495e+01 4.006319e-04 -9.713931e-03 3.392962e-04 5.240848e-03 1.660041e-03 3.777271e-04 9.396431e-03 3.324454e-05 -7.559780e-04 1.077094e-03 -2.588297e-03 -6.876030e-03 -2.428118e-02 -2.591375e-04 -1.630630e-05 -1.074775e-03 6.032354e-04 1.390833e-03 -5.244234e-04 2.868708e-04 8.609084e-04 3.098472e-04 -2.392427e-04 -8.958786e-04 7.455474e-04 -1.934531e-03
<VARIANCE> 39
 6.807585e+01 6.500062e+01 6.624786e+01 5.333810e+01 7.529982e+01 6.559692e+01 6.218813e+01 6.317369e+01 5.386855e+01 3.772544e+01 4.633016e+01 4.176491e+01 2.306090e+02 2.507180e+00 2.635568e+00 2.243082e+00 2.387326e+00 3.045610e+00 3.036129e+00 2.741591e+00 3.346342e+00 2.763585e+00 2.444078e+00 2.718385e+00 2.353412e+00 3.774972e+00 3.660031e-01 3.949756e-01 3.498141e-01 3.960361e-01 5.080419e-01 5.150231e-01 4.887709e-01 5.881597e-01 4.975411e-01 4.533654e-01 4.888874e-01 4.291274e-01 4.775856e-01
<GCONST> 1.284625e+02
<STATE> 4
<MEAN> 39
 -6.647040e+00 -1.998740e+00 -4.176488e-01 -3.314383e+00 -7.978111e+00 -3.245625e+00 -8.656407e+00 -3.542230e+00 -4.155774e+00 -2.227968e+00 -1.634641e+00 -5.148457e+00 5.554720e+01 -7.454464e-04 -1.081568e-02 -1.737971e-03 7.924666e-03 4.947252e-03 -2.167010e-03 7.943556e-03 4.539860e-03 5.727720e-04 -2.721700e-04 -4.913216e-03 -3.841449e-03 -2.745138e-02 -4.632599e-04 7.028980e-05 -5.021436e-04 4.098139e-04 8.699452e-04 -5.686058e-04 8.472057e-05 1.042926e-03 4.563345e-04 -3.918803e-04 -4.767849e-04 8.343163e-04 -1.315120e-03
<VARIANCE> 39
 6.677764e+01 6.558064e+01 6.621613e+01 5.264368e+01 7.511943e+01 6.675302e+01 6.254586e+01 6.234519e+01 5.300002e+01 3.766776e+01 4.676047e+01 4.268507e+01 2.347005e+02 2.410976e+00 2.592465e+00 2.191220e+00 2.343093e+00 2.987574e+00 3.043030e+00 2.720283e+00 3.278428e+00 2.708393e+00 2.394531e+00 2.697649e+00 2.338689e+00 3.686760e+00 3.520248e-01 3.847903e-01 3.384813e-01 3.873546e-01 4.958124e-01 5.120159e-01 4.825690e-01 5.747754e-01 4.860605e-01 4.418471e-01 4.829884e-01 4.236799e-01 4.633600e-01
<GCONST> 1.279654e+02
<TRANSP> 5
 0.000000e+00 1.000000e+00 0.000000e+00 0.000000e+00 0.000000e+00
 0.000000e+00 7.274701e-01 2.725300e-01 0.000000e+00 0.000000e+00
 0.000000e+00 0.000000e+00 7.274711e-01 2.725289e-01 0.000000e+00
 0.000000e+00 0.000000e+00 0.000000e+00 8.543450e-01 1.456550e-01
 0.000000e+00 0.000000e+00 0.000000e+00 0.000000e+00 0.000000e+00
<ENDHMM>
~h "ai"
<BEGINHMM>
<NUMSTATES> 5
<STATE> 2
<MEAN> 39
 -5.295285e+00 -3.848927e+00 -6.400874e-01 -4.801622e+00 -9.274714e+00 -3.611414e+00 -8.961160e+00 -1.956369e+00 -4.658980e+00 -2.572957e+00 -1.437863e+00 -5.818210e+00 5.758950e+01 9.153111e-03 -1.636079e-02 1.609642e-02 2.872767e-03 -1.184223e-02 -1.134591e-02 -5.466611e-03 1.331143e-02 -1.041190e-02 -5.641763e-03 6.309547e-03 -2.022845e-03 2.895184e-02 -1.485122e-04 5.113479e-04 -4.352703e-04 4.905189e-04 6.298628e-05 1.353865e-04 9.030165e-05 -7.771508e-04 3.957913e-04 2.078823e-05 -1.834475e-04 3.072154e-05 -8.899090e-04
<VARIANCE> 39
 6.789912e+01 6.963584e+01 7.213841e+01 5.572886e+01 7.725713e+01 7.131010e+01 5.864246e+01 7.360432e+01 5.895290e+01 4.334160e+01 4.868299e+01 4.352052e+01 2.336989e+02 2.747977e+00 2.941398e+00 2.556841e+00 2.668938e+00 3.424990e+00 3.283261e+00 3.110209e+00 3.921031e+00 3.289294e+00 2.726165e+00 2.958075e+00 2.540222e+00 5.141615e+00 4.066567e-01 4.320821e-01 3.853231e-01 4.507244e-01 5.919572e-01 5.556014e-01 5.625874e-01 6.713718e-01 5.718067e-01 5.093021e-01 5.385847e-01 4.646003e-01 6.717749e-01
<GCONST> 1.325672e+02
<STATE> 3
<MEAN> 39
 -5.267130e+00 -3.907262e+00 -5.795907e-01 -4.789499e+00 -9.317546e+00 -3.650966e+00 -8.980572e+00 -1.910960e+00 -4.692243e+00 -2.593280e+00 -1.414930e+00 -5.826664e+00 5.769402e+01 8.536565e-03 -1.436049e-02 1.459058e-02 4.592695e-03 -1.142368e-02 -1.071841e-02 -5.274843e-03 1.033479e-02 -8.771166e-03 -5.438643e-03 5.409499e-03 -1.988688e-03 2.595978e-02 -1.521738e-04 7.798380e-04 -3.745989e-04 4.698927e-04 3.399469e-05 2.122754e-04 1.128958e-04 -8.687309e-04 5.579357e-04 2.113237e-04 -2.201344e-04 1.339766e-04 -9.158461e-04
<VARIANCE> 39
 6.768318e+01 6.993295e+01 7.176910e+01 5.546311e+01 7.770390e+01 7.146022e+01 5.864511e+01 7.377571e+01 5.899076e+01 4.361800e+01 4.892746e+01 4.343336e+01 2.331844e+02 2.743822e+00 2.953130e+00 2.562011e+00 2.674743e+00 3.435897e+00 3.286567e+00 3.115479e+00 3.932672e+00 3.299988e+00 2.727049e+00 2.963065e+00 2.536413e+00 5.152398e+00 4.068463e-01 4.341105e-01 3.857377e-01 4.515159e-01 5.925980e-01 5.566837e-01 5.637155e-01 6.726742e-01 5.731039e-01 5.093116e-01 5.385013e-01 4.638994e-01 6.725545e-01
<GCONST> 1.326145e+02
<STATE> 4
<MEAN> 39
 -5.317535e+00 -3.979255e+00 -4.556074e-01 -4.842167e+00 -9.402066e+00 -3.578342e+00 -9.110124e+00 -1.745104e+00 -4.797999e+00 -2.560369e+00 -1.477772e+00 -5.849473e+00 5.778794e+01 6.488264e-03 -1.105232e-02 1.348126e-02 6.134311e-03 -1.022659e-02 -8.715335e-03 -5.262756e-03 6.569814e-03 -5.878197e-03 -4.841005e-03 4.365952e-03 -2.099086e-03 2.334566e-02 -1.932546e-04 8.648918e-04 -3.315996e-04 3.476933e-04 1.460611e-04 4.226191e-04 -7.527523e-06 -8.429100e-04 4.082507e-04 2.365014e-04 -2.964372e-04 8.679774e-05 -7.732603e-04
<VARIANCE> 39
 6.799105e+01 7.102219e+01 7.129999e+01 5.492035e+01 7.930835e+01 7.177567e+01 5.896646e+01 7.293515e+01 5.771278e+01 4.368998e+01 4.904567e+01 4.349063e+01 2.343363e+02 2.703493e+00 2.933950e+00 2.543226e+00 2.652286e+00 3.432635e+00 3.269053e+00 3.108978e+00 3.894458e+00 3.256679e+00 2.696009e+00 2.953244e+00 2.513869e+00 5.081910e+00 3.986326e-01 4.283651e-01 3.810203e-01 4.471967e-01 5.885488e-01 5.536723e-01 5.619793e-01 6.643648e-01 5.657952e-01 5.036900e-01 5.342159e-01 4.588472e-01 6.562331e-01
<GCONST> 1.323686e+02
<TRANSP> 5
 0.000000e+00 1.000000e+00 0.000000e+00 0.000000e+00 0.000000e+00
 0.000000e+00 7.242365e-01 2.757636e-01 0.000000e+00 0.000000e+00
 0.000000e+00 0.000000e+00 7.242344e-01 2.757656e-01 0.000000e+00
 0.000000e+00 0.000000e+00 0.000000e+00 8.500915e-01 1.499085e-01
 0.000000e+00 0.000000e+00 0.000000e+00 0.000000e+00 0.000000e+00
<ENDHMM>
~h "au"
<BEGINHMM>
<NUMSTATES> 5
<STATE> 2
<MEAN> 39
 -6.824402e+00 -4.346133e+00 -3.073734e+00 -6.248943e+00 -7.496938e+00 -2.530451e+00 -8.786690e+00 -3.266074e+00 -3.980999e+00 -2.698251e+00 -1.640438e+00 -5.129034e+00 5.294336e+01 3.793224e-02 -2.083424e-02 -2.709679e-02 -2.402762e-02 8.204552e-03 2.508673e-02 -2.175063e-02 -7.808958e-03 8.948196e-03 8.909690e-03 2.420802e-03 -2.510077e-02 8.025000e-02 3.115444e-04 -1.072583e-05 2.140124e-04 -3.117038e-04 -1.720948e-03 1.084931e-03 6.189086e-04 -4.751793e-04 3.534288e-04 1.106266e-03 5.599572e-04 -1.366983e-03 3.006938e-03
<VARIANCE> 39
 7.100020e+01 6.239015e+01 6.847974e+01 6.494964e+01 6.295940e+01 6.878130e+01 5.148756e+01 5.517849e+01 4.880872e+01 4.289703e+01 4.111305e+01 4.555020e+01 2.840334e+02 2.161953e+00 2.473903e+00 2.192290e+00 2.641467e+00 3.058621e+00 2.954277e+00 2.718742e+00 3.289658e+00 2.847710e+00 2.546723e+00 2.723188e+00 2.490816e+00 4.777811e+00 3.364731e-01 3.761711e-01 3.578902e-01 4.368374e-01 5.564902e-01 5.089590e-01 5.158728e-01 5.947702e-01 5.194127e-01 4.795775e-01 5.094167e-01 4.621281e-01 6.283852e-01
<GCONST> 1.292482e+02
<STATE> 3
<MEAN> 39
 -6.697890e+00 -4.420180e+00 -3.169963e+00 -6.329280e+00 -7.471466e+00 -2.445358e+00 -8.861816e+00 -3.293354e+00 -3.953279e+00 -2.664900e+00 -1.631469e+00 -5.217504e+00 5.323176e+01 3.829881e-02 -2.138427e-02 -2.662483e-02 -2.402201e-02 2.888313e-03 2.699641e-02 -2.012285e-02 -8.924028e-03 9.920026e-03 1.151415e-02 3.556419e-03 -2.908975e-02 9.085020e-02 -6.050692e-05 -5.185820e-05 2.670690e-04 4.570319e-04 -1.562415e-03 4.496119e-04 8.137628e-04 -3.187721e-04 4.255635e-04 8.658835e-04 1.093762e-04 -1.323754e-03 2.852715e-03
<VARIANCE> 39
 7.074322e+01 6.297087e+01 6.895322e+01 6.572758e+01 6.290404e+01 6.911238e+01 5.121773e+01 5.602781e+01 4.921639e+01 4.316065e+01 4.150315e+01 4.608873e+01 2.852074e+02 2.166054e+00 2.498419e+00 2.194316e+00 2.669633e+00 3.077197e+00 2.978684e+00 2.725626e+00 3.318840e+00 2.855026e+00 2.572803e+00 2.753219e+00 2.511581e+00 4.898877e+00 3.374959e-01 3.802073e-01 3.567648e-01 4.398209e-01 5.607315e-01 5.117291e-01 5.170652e-01 5.991570e-01 5.202597e-01 4.845020e-01 5.165101e-01 4.654838e-01 6.403958e-01
<GCONST> 1.295242e+02
<STATE> 4
<MEAN> 39
 -6.424385e+00 -4.439956e+00 -3.083512e+00 -6.408420e+00 -7.542455e+00 -2.144441e+00 -9.039671e+00 -3.239950e+00 -4.016512e+00 -2.530220e+00 -1.636767e+00 -5.396765e+00 5.385004e+01 3.346109e-02 -2.031431e-02 -2.565925e-02 -1.993913e-02 -7.070772e-04 2.342982e-02 -1.756320e-02 -7.475629e-03 8.911707e-03 1.192616e-02 2.716505e-03 -2.906533e-02 9.415282e-02 -2.753571e-04 1.590001e-04 2.849422e-04 8.285957e-04 -1.016111e-03 -2.453894e-04 5.135027e-04 -1.047290e-04 1.936746e-04 4.131515e-04 -6.405059e-05 -5.941581e-04 2.033917e-03
<VARIANCE> 39
 7.058786e+01 6.442718e+01 7.060238e+01 6.687469e+01 6.447063e+01 7.011920e+01 5.231853e+01 5.762592e+01 4.985251e+01 4.337449e+01 4.251648e+01 4.744594e+01 2.872342e+02 2.147505e+00 2.526058e+00 2.199227e+00 2.686035e+00 3.098802e+00 3.009461e+00 2.727154e+00 3.347387e+00 2.864588e+00 2.578267e+00 2.798841e+00 2.536277e+00 4.948925e+00 3.338379e-01 3.829086e-01 3.538527e-01 4.394839e-01 5.627763e-01 5.138271e-01 5.149883e-01 6.010602e-01 5.202916e-01 4.850645e-01 5.254041e-01 4.667665e-01 6.410215e-01
<GCONST> 1.298473e+02
<TRANSP> 5
 0.000000e+00 1.000000e+00 0.000000e+00 0.000000e+00 0.000000e+00
 0.000000e+00 7.208046e-01 2.791954e-01 0.000000e+00 0.000000e+00
 0.000000e+00 0.000000e+00 7.208037e-01 2.791964e-01 0.000000e+00
 0.000000e+00 0.000000e+00 0.000000e+00 8.459361e-01 1.540639e-01
 0.000000e+00 0.000000e+00 0.000000e+00 0.000000e+00 0.000000e+00
<ENDHMM>
~h "kh"
<BEGINHMM>
<NUMSTATES> 5
<STATE> 2
<MEAN> 39
 -7.116654e+00 -3.429652e+00 -1.721763e+00 -4.463916e+00 -7.577680e+00 -2.896683e+00 -8.389627e+00 -2.857169e+00 -4.011149e+00 -2.312849e+00 -1.431656e+00 -5.093394e+00 5.498497e+01 8.261703e-03 -1.187689e-03 1.074188e-02 -3.245788e-03 -3.085707e-03 9.264212e-03 -4.995209e-03 -6.360221e-03 2.209834e-03 3.325543e-03 8.809161e-04 -1.310006e-02 5.523589e-02 7.699107e-06 5.542591e-04 -3.332267e-04 7.499887e-04 2.877408e-04 5.363323e-05 -3.666746e-04 8.412309e-04 -1.735784e-04 -2.046495e-04 -6.709227e-04 -1.798539e-04 -2.228930e-04
<VARIANCE> 39
