~o
<STREAMINFO> 1 39
<VECSIZE> 39<NULLD><MFCC_D_A_0><DIAGC>
~h "@"
<BEGINHMM>
<NUMSTATES> 5
<STATE> 2
<MEAN> 39
 -2.110276e+00 -5.268034e+00 -2.407686e+00 -6.422652e+00 -1.046917e+01 -4.404617e+00 -1.266631e+01 -3.647068e+00 -3.029513e+00 -9.091794e-01 -3.876390e-01 -8.090650e+00 6.605480e+01 1.707533e+00 -1.376668e+00 -2.069396e-01 -1.188964e+00 -1.263546e+00 5.795437e-01 -1.549204e+00 9.155822e-01 8.928896e-01 2.005657e-01 8.332089e-01 -1.553069e+00 2.282980e+00 -3.427218e-01 1.915883e-01 1.354972e-01 3.227264e-01 1.681007e-01 1.230230e-01 3.087422e-01 -2.911799e-02 -1.857238e-01 -2.861921e-02 -1.582166e-01 1.972092e-01 -7.177141e-01
<VARIANCE> 39
 4.444793e+01 4.234732e+01 5.626182e+01 6.448043e+01 6.338017e+01 9.169107e+01 5.640133e+01 6.985409e+01 6.758889e+01 4.706416e+01 5.710257e+01 4.271641e+01 1.242166e+02 6.675572e+00 3.828002e+00 4.956044e+00 4.574323e+00 5.962349e+00 6.097538e+00 5.969991e+00 7.342481e+00 7.298019e+00 4.672004e+00 5.120604e+00 4.515179e+00 6.043451e+00 9.381117e-01 6.833305e-01 7.970997e-01 9.030429e-01 9.202385e-01 9.628198e-01 8.674975e-01 9.914020e-01 9.499860e-01 6.929525e-01 1.002634e+00 7.480827e-01 1.695591e+00
<GCONST> 1.460283e+02
<STATE> 3
<MEAN> 39
 2.613007e-01 -9.532555e+00 -3.718994e+00 -9.526307e+00 -1.301960e+01 -2.068207e+00 -1.602285e+01 -1.181768e+00 -2.497711e-01 -9.686474e-01 1.435243e+00 -1.177659e+01 7.227664e+01 4.772286e-01 -3.293730e-01 3.043996e-01 1.668332e-01 -3.761855e-01 3.528723e-01 -2.423799e-01 4.215616e-01 1.385649e-01 4.541893e-02 5.358138e-02 -3.837413e-01 2.335243e-02 -4.559334e-01 8.102726e-01 3.622731e-01 7.348496e-01 5.071161e-01 -2.889630e-01 7.321417e-01 -6.103817e-01 -6.256407e-01 -6.189413e-02 -5.071812e-01 7.203784e-01 -1.194907e+00
<VARIANCE> 39
 1.885611e+01 3.336811e+01 5.164202e+01 5.643713e+01 5.507601e+01 9.993189e+01 5.519541e+01 8.595451e+01 7.276903e+01 5.939600e+01 5.344646e+01 4.350790e+01 3.607931e+01 1.858528e+00 2.598163e+00 2.468209e+00 3.328991e+00 3.694496e+00 5.077514e+00 3.508736e+00 5.438413e+00 5.059141e+00 3.385200e+00 4.090463e+00 2.939687e+00 2.958405e+00 5.907284e-01 4.579147e-01 7.282627e-01 6.975348e-01 8.963411e-01 1.007050e+00 8.917472e-01 1.172242e+00 1.126166e+00 8.365744e-01 8.920158e-01 7.175700e-01 5.498978e-01
<GCONST> 1.357126e+02
<STATE> 4
<MEAN> 39
 -7.633536e-01 -8.041099e+00 -6.460907e-01 -7.581807e+00 -1.399376e+01 -4.866667e+00 -1.368828e+01 -8.144985e-01 -2.166239e+00 -1.627336e+00 9.710891e-01 -1.016415e+01 6.904212e+01 1.245367e-01 8.515181e-01 3.818246e-01 7.511118e-01 3.411126e-01 -1.477390e-01 4.711329e-01 -5.638530e-01 -4.573658e-01 1.411808e-02 -4.802504e-01 3.511117e-01 -1.298114e+00 -9.446183e-02 2.640707e-01 7.399494e-02 2.028024e-01 1.549565e-01 -6.184997e-02 1.691287e-01 -2.381167e-01 -1.345992e-01 -2.182480e-03 -1.679249e-01 1.685812e-01 -3.693984e-01
<VARIANCE> 39
 2.319106e+01 4.496959e+01 6.237715e+01 5.958715e+01 7.204443e+01 8.880455e+01 6.348989e+01 8.679053e+01 7.806150e+01 5.910527e+01 5.852386e+01 4.157539e+01 7.746908e+01 1.203269e+00 2.443499e+00 2.054764e+00 2.725168e+00 2.835256e+00 3.172397e+00 2.951934e+00 3.712742e+00 3.615677e+00 2.639974e+00 2.911145e+00 2.268039e+00 3.818139e+00 3.094209e-01 3.752904e-01 3.701810e-01 4.301801e-01 5.207012e-01 5.375149e-01 5.821215e-01 8.220589e-01 6.754918e-01 5.219343e-01 5.742723e-01 4.434939e-01 4.630701e-01
<GCONST> 1.285037e+02
<TRANSP> 5
 0.000000e+00 1.000000e+00 0.000000e+00 0.000000e+00 0.000000e+00
 0.000000e+00 4.139017e-01 5.860983e-01 0.000000e+00 0.000000e+00
 0.000000e+00 0.000000e+00 3.736763e-01 6.263236e-01 0.000000e+00
 0.000000e+00 0.000000e+00 0.000000e+00 6.493818e-01 3.506182e-01
 0.000000e+00 0.000000e+00 0.000000e+00 0.000000e+00 0.000000e+00
<ENDHMM>
~h "a"
<BEGINHMM>
<NUMSTATES> 5
<STATE> 2
<MEAN> 39
 -1.409426e+00 -1.299038e+01 -6.435370e+00 -9.784946e+00 -9.882140e+00 4.076063e-01 -1.166156e+01 2.654418e+00 -2.103023e-01 -3.185403e+00 -3.207467e+00 -1.137856e+01 7.222910e+01 2.888712e-01 -1.852696e+00 -1.059934e+00 -4.015464e-01 8.421752e-01 1.475278e+00 -1.347921e-02 1.026026e+00 5.182145e-01 -8.737840e-01 -8.421279e-01 -1.003914e+00 1.473051e+00 -3.094864e-01 4.974517e-01 3.378702e-01 4.505045e-01 2.533163e-01 -2.247124e-01 1.479933e-01 -5.322933e-01 -3.732651e-01 2.478622e-02 1.316489e-02 4.818886e-01 -6.795487e-01
<VARIANCE> 39
 2.383301e+01 3.895495e+01 4.652552e+01 4.109348e+01 6.370592e+01 8.215797e+01 5.123888e+01 8.688198e+01 6.455883e+01 5.348672e+01 5.457438e+01 4.163493e+01 8.178336e+01 2.194439e+00 2.630473e+00 2.537282e+00 2.620209e+00 3.901393e+00 3.990937e+00 3.530798e+00 4.844889e+00 3.847308e+00 3.578799e+00 4.065213e+00 3.118867e+00 3.663271e+00 4.709530e-01 4.657972e-01 3.991711e-01 4.784911e-01 7.144420e-01 7.150625e-01 6.404465e-01 8.505793e-01 6.836984e-01 6.164357e-01 7.260705e-01 5.693631e-01 7.576196e-01
<GCONST> 1.325265e+02
<STATE> 3
<MEAN> 39
 -1.951535e+00 -1.669740e+01 -8.500686e+00 -1.039359e+01 -6.921855e+00 3.497719e+00 -1.186610e+01 2.198881e+00 -3.550587e-01 -5.991007e+00 -4.605836e+00 -1.283214e+01 7.563218e+01 4.893886e-02 1.485464e-01 5.157034e-02 1.626868e-01 1.668243e-01 -1.775534e-01 -2.455470e-02 2.285257e-02 -2.766755e-01 7.167032e-02 -1.917849e-01 5.762277e-02 -2.810014e-01 7.473657e-02 4.597999e-01 2.488256e-01 9.956059e-02 -2.123448e-01 -3.467973e-01 -2.653057e-02 -1.712187e-01 -1.024399e-01 2.543152e-01 1.274835e-01 1.766347e-01 -3.913919e-01
<VARIANCE> 39
 1.619571e+01 3.081254e+01 3.428342e+01 2.973186e+01 4.000356e+01 6.204316e+01 4.274999e+01 7.247026e+01 6.410480e+01 5.581609e+01 4.271548e+01 4.022231e+01 2.711872e+01 3.966247e-01 1.050611e+00 9.617263e-01 1.053987e+00 1.949209e+00 2.325675e+00 1.625543e+00 2.223737e+00 1.627454e+00 1.796847e+00 1.943177e+00 1.564795e+00 6.442721e-01 9.419376e-02 1.940827e-01 1.687655e-01 2.054684e-01 2.875041e-01 2.975362e-01 3.252064e-01 4.445356e-01 3.459586e-01 3.145024e-01 3.580272e-01 3.127088e-01 1.628652e-01
<GCONST> 1.053050e+02
<STATE> 4
<MEAN> 39
 -2.066933e+00 -9.535132e+00 -5.947075e+00 -6.041708e+00 -5.850892e+00 -1.227453e+00 -9.407746e+00 1.822735e+00 -2.198127e+00 -3.359113e+00 -6.196275e+00 -8.615677e+00 6.155028e+01 2.710864e-02 1.220020e+00 5.898944e-01 6.582561e-01 -1.066077e-01 -6.081749e-01 1.572271e-01 -5.883752e-01 -1.759780e-01 2.809138e-01 1.294364e-01 5.094193e-01 -1.747122e+00 -4.847234e-02 1.398616e-01 1.370311e-01 1.148371e-01 3.229892e-02 3.002056e-02 4.310118e-02 -2.145194e-01 -4.888311e-02 -2.181182e-02 3.581994e-02 7.309712e-02 -1.817508e-01
<VARIANCE> 39
 2.830101e+01 4.736098e+01 3.655845e+01 4.259513e+01 5.095445e+01 5.474258e+01 4.839852e+01 6.684756e+01 4.981971e+01 5.448629e+01 5.240788e+01 4.563661e+01 1.887976e+02 1.006412e+00 2.106975e+00 1.693446e+00 1.924123e+00 2.465830e+00 2.658018e+00 2.580857e+00 3.023143e+00 2.692951e+00 2.616765e+00 2.522082e+00 2.167216e+00 2.661576e+00 1.727457e-01 3.481990e-01 2.805112e-01 3.702887e-01 4.105892e-01 4.315236e-01 4.719108e-01 6.097566e-01 4.719542e-01 4.970081e-01 4.845985e-01 3.756937e-01 4.681002e-01
<GCONST> 1.217039e+02
<TRANSP> 5
 0.000000e+00 1.000000e+00 0.000000e+00 0.000000e+00 0.000000e+00
 0.000000e+00 5.418572e-01 4.581428e-01 0.000000e+00 0.000000e+00
 0.000000e+00 0.000000e+00 7.785826e-01 2.214174e-01 0.000000e+00
 0.000000e+00 0.000000e+00 0.000000e+00 6.914700e-01 3.085301e-01
 0.000000e+00 0.000000e+00 0.000000e+00 0.000000e+00 0.000000e+00
<ENDHMM>
~h "b"
<BEGINHMM>
<NUMSTATES> 5
<STATE> 2
<MEAN> 39
 2.872718e+00 4.481102e+00 3.279001e+00 -1.369286e+00 -6.579741e+00 9.523054e-01 -7.577014e+00 -8.140698e+00 -9.569600e+00 -2.161088e+00 -1.184641e+00 -6.880950e+00 4.979717e+01 5.330109e-01 1.233387e+00 5.350827e-01 3.515641e-01 6.005564e-01 3.223062e-01 5.630422e-01 -2.796392e-01 -3.733216e-01 -1.064574e-01 -1.257312e-01 6.982283e-02 -9.688801e-01 -3.034264e-01 -4.298171e-01 -2.372806e-01 -2.741919e-01 -1.865530e-01 -1.910431e-01 -2.272123e-01 1.108792e-01 2.404726e-01 8.716939e-03 1.487657e-01 7.620715e-02 7.261775e-01
<VARIANCE> 39
 5.652650e+01 3.993543e+01 3.122305e+01 3.705347e+01 4.464347e+01 5.361862e+01 4.208878e+01 4.292410e+01 6.349132e+01 3.874354e+01 4.417406e+01 2.990783e+01 8.770179e+01 2.678070e+00 2.657940e+00 2.286582e+00 2.390080e+00 2.769325e+00 2.791952e+00 2.778944e+00 3.385944e+00 3.811411e+00 2.808492e+00 3.000447e+00 2.117824e+00 5.329363e+00 4.573336e-01 5.309622e-01 4.404134e-01 4.815884e-01 5.419875e-01 5.275389e-01 5.478824e-01 6.419119e-01 7.525156e-01 5.517762e-01 5.806284e-01 4.410660e-01 6.981327e-01
<GCONST> 1.271780e+02
<STATE> 3
<MEAN> 39
 4.130234e+00 6.223793e+00 3.633912e+00 -1.548769e+00 -5.018986e+00 1.700537e+00 -7.238081e+00 -9.606562e+00 -1.029119e+01 -3.032723e+00 -4.850515e-01 -5.712950e+00 5.222606e+01 -1.362034e+00 -2.299237e+00 -1.591141e+00 -1.578483e+00 -4.571016e-01 -1.066154e+00 -1.412111e+00 4.561740e-01 1.788383e+00 4.753191e-01 1.106219e+00 3.805376e-01 3.927272e+00 -2.755270e-01 -1.105065e+00 -4.504583e-01 -6.270101e-01 -8.242313e-01 -5.048051e-02 -6.140924e-01 4.483843e-01 5.681531e-01 2.708605e-01 2.070662e-01 -4.066641e-01 1.320698e+00
<VARIANCE> 39
 3.375520e+01 3.168024e+01 2.293019e+01 3.262874e+01 3.753466e+01 5.402214e+01 3.156386e+01 4.020822e+01 6.193175e+01 3.548462e+01 4.277029e+01 2.765829e+01 6.047294e+01 2.984469e+00 4.208873e+00 4.314186e+00 5.460152e+00 4.699196e+00 4.999164e+00 4.388983e+00 4.786088e+00 6.529747e+00 5.016820e+00 4.520160e+00 4.000399e+00 6.225111e+00 5.696211e-01 5.688143e-01 6.281465e-01 6.776304e-01 6.905402e-01 9.561973e-01 6.404267e-01 9.968260e-01 1.186560e+00 8.833812e-01 8.518146e-01 8.041680e-01 8.060396e-01
<GCONST> 1.356158e+02
<STATE> 4
<MEAN> 39
 4.067181e-01 -4.200461e+00 -2.770463e+00 -8.151930e+00 -9.046740e+00 -1.303188e+00 -1.347614e+01 -6.711001e+00 -3.261016e+00 1.477094e+00 3.488956e+00 -7.812978e+00 6.658102e+01 -6.900020e-01 -2.864005e+00 -1.211424e+00 -1.541208e+00 -1.641545e+00 -2.353432e-01 -1.441350e+00 1.557535e+00 1.959264e+00 4.851928e-01 2.243772e-01 -1.273911e+00 3.725756e+00 2.272523e-01 4.312450e-01 5.132442e-01 5.067546e-01 -2.241994e-02 2.788233e-01 4.261845e-01 1.490646e-01 -4.675024e-01 -4.927210e-01 -5.086197e-01 -7.884770e-02 -8.277445e-01
<VARIANCE> 39
 2.541006e+01 3.625430e+01 5.136926e+01 7.764471e+01 3.862893e+01 7.448082e+01 5.078088e+01 6.009687e+01 5.976938e+01 5.358358e+01 5.260601e+01 4.656087e+01 7.511351e+01 2.652052e+00 5.064403e+00 5.692142e+00 6.526049e+00 5.634151e+00 6.534966e+00 5.354635e+00 7.592940e+00 8.787002e+00 6.729270e+00 6.949110e+00 6.270013e+00 7.496154e+00 4.356622e-01 6.250260e-01 5.171518e-01 1.135810e+00 1.101636e+00 9.730353e-01 9.482913e-01 8.944694e-01 9.807497e-01 1.012265e+00 1.145880e+00 8.732164e-01 9.557322e-01
<GCONST> 1.443886e+02
<TRANSP> 5
 0.000000e+00 1.000000e+00 0.000000e+00 0.000000e+00 0.000000e+00
 0.000000e+00 7.858165e-01 2.141835e-01 0.000000e+00 0.000000e+00
 0.000000e+00 0.000000e+00 5.099143e-01 4.900857e-01 0.000000e+00
 0.000000e+00 0.000000e+00 0.000000e+00 4.827459e-01 5.172541e-01
 0.000000e+00 0.000000e+00 0.000000e+00 0.000000e+00 0.000000e+00
<ENDHMM>
~h "c"
<BEGINHMM>
<NUMSTATES> 5
<STATE> 2
<MEAN> 39
 -6.933127e+00 2.914962e+00 1.475976e+00 -1.088856e+00 -7.514817e+00 -7.767486e+00 -7.385967e+00 -3.448173e+00 -4.101545e+00 -2.673013e+00 -3.132692e+00 -3.557081e+00 4.808480e+01 -1.233784e+00 5.770776e-02 -4.472578e-01 -2.100553e-01 6.484017e-01 1.206958e-01 3.516732e-01 -1.133613e-01 2.173959e-01 1.409198e-03 1.493652e-01 2.645693e-01 -1.072214e+00 -4.166205e-01 -3.732433e-01 -2.018774e-01 -3.065474e-01 -3.906589e-02 1.120472e-01 -2.101737e-02 -5.806802e-03 3.676686e-02 1.083650e-02 1.249868e-01 2.474390e-02 8.595662e-01
<VARIANCE> 39
 3.960515e+01 4.256918e+01 4.957206e+01 2.781376e+01 4.400934e+01 4.630920e+01 4.236432e+01 4.354930e+01 4.025761e+01 2.951495e+01 2.790865e+01 2.517493e+01 1.321544e+02 5.018652e+00 4.796775e+00 3.366355e+00 3.180695e+00 3.870872e+00 3.080417e+00 3.396124e+00 3.438973e+00 3.475058e+00 2.674922e+00 2.506047e+00 2.364742e+00 1.076661e+01 8.297212e-01 7.595830e-01 5.782603e-01 5.760130e-01 7.259078e-01 6.532930e-01 6.711491e-01 6.548002e-01 6.390414e-01 5.556479e-01 4.954831e-01 4.919887e-01 1.845268e+00
<GCONST> 1.319053e+02
<STATE> 3
<MEAN> 39
 -2.238394e+01 -1.923275e-02 -3.126418e+00 -6.607220e+00 -3.832469e+00 -5.541713e+00 -4.927251e+00 -4.469226e+00 -2.660965e+00 -2.028353e+00 -6.386317e-01 -7.352093e-01 5.982401e+01 -2.226983e+00 -4.146860e-01 -1.756193e-01 -1.146905e+00 -4.670410e-01 -2.080874e-01 8.380202e-02 1.790867e-01 2.278189e-01 -6.224725e-02 2.856876e-01 4.843245e-01 4.629210e+00 1.828333e+00 3.641934e-02 6.450889e-01 3.655990e-01 -8.445340e-01 -3.841902e-01 -5.105447e-01 2.270631e-01 -6.806711e-02 -2.136215e-01 -2.624139e-01 -4.164340e-01 -1.573724e-01
<VARIANCE> 39
 5.136444e+01 3.053503e+01 4.291671e+01 3.089179e+01 2.601262e+01 3.274122e+01 3.446606e+01 2.845677e+01 2.464587e+01 2.322390e+01 1.913568e+01 1.723594e+01 9.713782e+01 1.174976e+01 3.763472e+00 5.359650e+00 3.655249e+00 4.637755e+00 4.516263e+00 3.836037e+00 3.332886e+00 3.271285e+00 2.594146e+00 2.822282e+00 2.104837e+00 1.005889e+01 1.734167e+00 9.505651e-01 8.344926e-01 7.804345e-01 8.092790e-01 8.923373e-01 7.112196e-01 8.282514e-01 7.749102e-01 5.668664e-01 5.708751e-01 5.337604e-01 1.643350e+00
<GCONST> 1.328699e+02
<STATE> 4
<MEAN> 39
 -1.292407e+01 -1.827232e+00 1.118908e+00 -6.037102e+00 -1.119405e+01 -9.390492e+00 -9.253746e+00 -1.581159e+00 -2.148548e+00 -4.133450e+00 -2.521912e+00 -2.604478e+00 6.965227e+01 4.766216e+00 -2.163040e+00 5.233893e-01 1.803763e-01 -2.107852e+00 -5.039445e-01 -1.874500e+00 1.172526e+00 5.894681e-01 -4.839688e-01 -2.636606e-01 -1.746723e+00 2.221108e+00 4.001709e-01 -3.890342e-01 -4.751506e-01 -4.526658e-02 3.505452e-01 6.602061e-01 3.348659e-02 -6.451365e-02 -2.545655e-03 1.521750e-01 2.347600e-01 -3.964951e-01 -7.096863e-01
<VARIANCE> 39
 8.385323e+01 4.255214e+01 4.815219e+01 2.930475e+01 4.596209e+01 4.129563e+01 4.884193e+01 4.442380e+01 4.242485e+01 2.664679e+01 2.463160e+01 2.524674e+01 3.855117e+01 5.409774e+00 5.853949e+00 5.673254e+00 4.354458e+00 5.184245e+00 5.943290e+00 4.022437e+00 7.568619e+00 5.142937e+00 3.659145e+00 3.454255e+00 2.826230e+00 2.820961e+00 2.621264e+00 8.299491e-01 6.509175e-01 6.288292e-01 1.160234e+00 9.211475e-01 9.070289e-01 9.861633e-01 6.693205e-01 5.398949e-01 5.736240e-01 5.151828e-01 6.503167e-01
<GCONST> 1.363835e+02
<TRANSP> 5
 0.000000e+00 1.000000e+00 0.000000e+00 0.000000e+00 0.000000e+00
 0.000000e+00 8.587224e-01 1.412776e-01 0.000000e+00 0.000000e+00
 0.000000e+00 0.000000e+00 6.886349e-01 3.113651e-01 0.000000e+00
 0.000000e+00 0.000000e+00 0.000000e+00 6.329368e-01 3.670632e-01
 0.000000e+00 0.000000e+00 0.000000e+00 0.000000e+00 0.000000e+00
<ENDHMM>
~h "d"
<BEGINHMM>
<NUMSTATES> 5
<STATE> 2
<MEAN> 39
 -1.031710e+00 9.600477e-01 4.392264e+00 1.940787e+00 -8.414070e+00 -5.951183e+00 -9.202964e+00 -3.207180e+00 -3.823544e+00 -2.913958e+00 -4.755572e+00 -6.344832e+00 5.049066e+01 6.414381e-01 9.131621e-01 6.997759e-01 7.508628e-01 5.276676e-01 -2.670995e-01 4.969791e-02 9.035347e-03 1.315018e-01 -1.002900e-01 -4.967199e-01 -8.168451e-02 -8.067350e-01 -2.919200e-01 -3.273664e-01 -1.094779e-01 -3.485993e-01 -9.988269e-02 1.212078e-02 -4.442494e-02 3.167902e-02 -6.219538e-02 -4.012663e-02 2.412323e-01 1.232266e-01 6.190647e-01
<VARIANCE> 39
 7.088313e+01 5.211961e+01 4.857747e+01 3.439050e+01 6.200649e+01 4.432790e+01 5.350128e+01 6.352604e+01 4.826540e+01 3.871219e+01 4.256325e+01 3.795394e+01 1.290710e+02 3.728840e+00 3.419913e+00 2.848899e+00 3.040880e+00 4.151388e+00 3.083827e+00 3.523382e+00 4.753410e+00 3.537305e+00 2.878455e+00 3.439908e+00 2.541966e+00 6.528875e+00 7.413826e-01 6.791977e-01 4.565808e-01 6.292968e-01 8.279427e-01 6.263894e-01 6.754362e-01 8.732556e-01 7.242116e-01 6.108178e-01 7.246715e-01 5.480284e-01 1.030998e+00
<GCONST> 1.347550e+02
<STATE> 3
<MEAN> 39
 1.200215e+00 2.121979e+00 7.936912e+00 3.494145e+00 -7.262172e+00 -7.104541e+00 -1.006286e+01 -3.595730e+00 -3.949548e+00 -3.741375e+00 -5.790736e+00 -6.061240e+00 5.421792e+01 -2.150389e+00 -2.200138e+00 -1.362355e-01 -1.932209e+00 -6.099146e-01 -5.421070e-01 -5.169259e-01 3.641297e-01 -2.929993e-01 -3.283508e-01 1.747369e+00 1.258228e+00 4.184816e+00 -2.778128e-01 -6.981983e-01 -3.127196e-01 -5.939391e-01 -1.130047e+00 1.135789e-01 -3.456267e-01 1.360221e-01 2.452939e-03 -1.480808e-02 7.105867e-01 -1.111427e-01 1.217345e+00
<VARIANCE> 39
 4.509830e+01 3.818184e+01 3.218016e+01 3.812775e+01 5.154522e+01 3.912429e+01 4.557481e+01 4.673807e+01 4.309294e+01 3.331963e+01 3.424523e+01 3.353628e+01 7.216579e+01 3.617612e+00 3.604903e+00 4.238213e+00 3.820869e+00 6.702443e+00 4.723257e+00 5.050677e+00 7.509978e+00 6.336687e+00 4.035695e+00 4.282286e+00 3.233499e+00 6.155164e+00 8.861077e-01 6.635700e-01 6.660377e-01 8.564524e-01 9.794270e-01 8.298758e-01 9.013712e-01 1.488627e+00 1.124010e+00 6.975922e-01 7.779453e-01 7.173770e-01 1.053374e+00
<GCONST> 1.384587e+02
<STATE> 4
<MEAN> 39
 -3.450488e+00 -6.463703e+00 4.731769e+00 -3.828526e+00 -1.444577e+01 -9.421202e+00 -1.345877e+01 -5.416912e-02 -3.003237e+00 -3.656619e+00 1.139416e+00 -4.124768e+00 6.923419e+01 -4.547356e-01 -1.942998e+00 -1.050598e+00 -1.639116e+00 -2.473929e+00 3.287752e-01 -8.504170e-01 1.408398e+00 6.948483e-01 -2.152799e-01 1.541350e+00 -6.914738e-01 3.490657e+00 5.334736e-01 5.200832e-01 -9.627669e-02 4.138689e-01 2.449962e-01 5.814379e-01 2.469730e-01 -1.666920e-01 -5.605091e-02 2.041114e-02 -5.637405e-01 -5.607592e-01 -9.901225e-01
<VARIANCE> 39
 2.253632e+01 3.185031e+01 4.890070e+01 3.672251e+01 6.871526e+01 5.183582e+01 5.764679e+01 7.991984e+01 7.946737e+01 3.360746e+01 3.534544e+01 3.077835e+01 5.623589e+01 3.478930e+00 3.700705e+00 5.579249e+00 4.377087e+00 7.007613e+00 4.910184e+00 5.896131e+00 1.142765e+01 8.247013e+00 4.223894e+00 6.374237e+00 3.909905e+00 6.508779e+00 4.398207e-01 4.547777e-01 4.936534e-01 6.360062e-01 1.532062e+00 8.353685e-01 1.067635e+00 1.148062e+00 9.960092e-01 7.036532e-01 9.019184e-01 6.175123e-01 6.612107e-01
<GCONST> 1.397385e+02
<TRANSP> 5
 0.000000e+00 1.000000e+00 0.000000e+00 0.000000e+00 0.000000e+00
 0.000000e+00 7.973322e-01 2.026678e-01 0.000000e+00 0.000000e+00
 0.000000e+00 0.000000e+00 5.291911e-01 4.708089e-01 0.000000e+00
 0.000000e+00 0.000000e+00 0.000000e+00 4.802123e-01 5.197877e-01
 0.000000e+00 0.000000e+00 0.000000e+00 0.000000e+00 0.000000e+00
<ENDHMM>
~h "e"
<BEGINHMM>
<NUMSTATES> 5
<STATE> 2
<MEAN> 39
 -3.553645e+00 -8.401340e+00 2.485747e+00 -4.918701e+00 -1.606081e+01 -7.919325e+00 -1.026489e+01 2.023788e+00 -4.753702e+00 -2.795527e+00 8.655831e-01 -6.886462e+00 6.479218e+01 2.483979e-01 -1.160752e+00 5.931484e-01 -5.096098e-01 -1.432009e+00 -6.884955e-02 4.266298e-02 1.294923e+00 -1.613622e-01 -3.815452e-01 4.595784e-01 -2.693774e-01 1.659401e+00 -9.442773e-02 2.953638e-01 1.166555e-02 6.688713e-02 2.014326e-01 1.773863e-01 2.136310e-01 -2.497949e-01 -1.057085e-01 6.044987e-02 -7.830691e-02 7.318866e-02 -3.783121e-01
<VARIANCE> 39
 4.412701e+01 6.486143e+01 6.448935e+01 4.793531e+01 9.145378e+01 6.492020e+01 6.151882e+01 9.409994e+01 7.373881e+01 5.154996e+01 5.536747e+01 3.829779e+01 1.680937e+02 3.845088e+00 4.825364e+00 3.388852e+00 3.838993e+00 6.877897e+00 4.306783e+00 4.787039e+00 6.842175e+00 5.158445e+00 4.133520e+00 4.204617e+00 3.117542e+00 1.030518e+01 7.201255e-01 9.021518e-01 5.241780e-01 6.373224e-01 1.137442e+00 7.498786e-01 8.560077e-01 1.116926e+00 9.456167e-01 7.188857e-01 7.171569e-01 5.875673e-01 1.878323e+00
<GCONST> 1.440307e+02
<STATE> 3
<MEAN> 39
 -1.881392e+00 -1.263139e+01 3.775702e+00 -7.395171e+00 -2.087541e+01 -7.228855e+00 -9.837929e+00 5.705875e+00 -4.863520e+00 -3.906455e+00 1.561858e+00 -8.494877e+00 7.249555e+01 -5.676188e-02 2.836258e-01 2.200118e-01 1.596373e-01 -8.515376e-02 -7.120745e-02 3.162671e-01 -1.257436e-01 -2.227142e-01 3.388423e-02 -1.266395e-02 1.703221e-02 -3.090529e-01 -2.619540e-02 4.197285e-01 -1.435830e-01 2.416735e-01 5.055017e-01 -3.116396e-02 9.695342e-03 -4.230507e-01 1.224260e-02 9.453455e-02 -2.342230e-01 1.112952e-01 -5.750146e-01
<VARIANCE> 39
 1.724282e+01 5.050949e+01 5.863734e+01 4.647375e+01 6.821731e+01 5.942936e+01 5.291922e+01 1.028659e+02 7.520856e+01 5.216611e+01 5.420809e+01 3.010213e+01 5.211479e+01 9.253907e-01 1.841848e+00 1.810905e+00 2.266170e+00 2.970610e+00 2.532842e+00 2.876930e+00 2.956610e+00 2.940672e+00 2.298876e+00 2.446118e+00 1.715587e+00 3.085978e+00 2.342914e-01 3.630064e-01 3.299847e-01 3.827508e-01 6.160617e-01 4.952673e-01 5.932860e-01 6.777582e-01 6.211895e-01 5.074562e-01 4.845161e-01 3.637737e-01 4.485470e-01
<GCONST> 1.231447e+02
<STATE> 4
<MEAN> 39
 -4.793869e+00 -7.395921e+00 4.852216e+00 -5.832259e+00 -1.807753e+01 -7.542796e+00 -8.269839e+00 2.155903e+00 -6.115439e+00 -2.765736e+00 1.934293e+00 -6.657413e+00 6.294366e+01 3.506525e-03 4.017216e-01 -1.525629e-01 2.879930e-01 4.718310e-01 -1.999575e-02 8.578481e-02 -3.068349e-01 3.993427e-02 5.633991e-02 -2.853091e-01 4.983850e-02 -7.057835e-01 2.081785e-02 7.651148e-02 -3.730086e-02 7.476120e-02 1.357690e-01 3.142683e-03 -3.084209e-02 -8.622830e-02 1.309566e-02 2.343157e-02 -5.109290e-02 1.057832e-02 -1.085263e-01
<VARIANCE> 39
 2.334495e+01 5.642333e+01 6.846136e+01 4.246745e+01 1.025573e+02 5.524405e+01 4.804141e+01 8.567941e+01 5.269184e+01 4.646095e+01 5.511945e+01 3.335220e+01 2.272482e+02 6.069277e-01 1.231400e+00 1.106882e+00 1.326363e+00 1.729230e+00 1.515834e+00 1.873078e+00 2.016484e+00 1.808884e+00 1.576621e+00 1.647213e+00 1.245772e+00 1.627139e+00 1.181512e-01 1.982156e-01 1.818175e-01 2.185128e-01 3.057745e-01 2.927535e-01 3.426341e-01 3.903344e-01 3.363121e-01 3.065460e-01 2.897580e-01 2.295807e-01 2.145389e-01
<GCONST> 1.112585e+02
<TRANSP> 5
 0.000000e+00 1.000000e+00 0.000000e+00 0.000000e+00 0.000000e+00
 0.000000e+00 6.669096e-01 3.330904e-01 0.000000e+00 0.000000e+00
 0.000000e+00 0.000000e+00 6.204346e-01 3.795654e-01 0.000000e+00
 0.000000e+00 0.000000e+00 0.000000e+00 8.526166e-01 1.473834e-01
 0.000000e+00 0.000000e+00 0.000000e+00 0.000000e+00 0.000000e+00
<ENDHMM>
~h "f"
<BEGINHMM>
<NUMSTATES> 5
<STATE> 2
<MEAN> 39
 -6.872298e+00 -4.640382e-01 -1.838123e-01 -1.324066e+00 -4.534358e+00 -3.304762e+00 -6.344904e+00 -3.618088e+00 -4.664663e+00 -2.523658e+00 -2.769200e+00 -4.224469e+00 6.196011e+01 -3.443163e+00 4.743358e-01 -1.750632e-01 1.377477e+00 1.684889e+00 -4.120735e-01 5.786809e-01 2.401140e-01 1.408165e+00 -2.249644e-01 -1.328819e-01 7.416778e-01 -1.087118e+00 -2.977333e-01 -6.643229e-01 -1.810998e-01 -3.502536e-01 -6.335098e-01 -2.429549e-02 -3.922942e-01 -1.253658e-02 -6.396620e-02 1.005898e-01 1.746913e-01 -1.336899e-01 2.340136e-01
<VARIANCE> 39
 5.090069e+01 2.501724e+01 4.500312e+01 4.405334e+01 3.762276e+01 6.109325e+01 3.670305e+01 4.398308e+01 3.981810e+01 3.273050e+01 3.541487e+01 2.491911e+01 5.213036e+01 3.093723e+00 4.256072e+00 4.172552e+00 4.241526e+00 5.546118e+00 4.473301e+00 3.582798e+00 4.602697e+00 4.121887e+00 3.790977e+00 3.733327e+00 2.466388e+00 1.987471e+00 7.826734e-01 4.656186e-01 4.748006e-01 6.753495e-01 6.925184e-01 6.466547e-01 6.234248e-01 6.300039e-01 7.822185e-01 5.820184e-01 5.354866e-01 3.671516e-01 2.436560e-01
<GCONST> 1.288654e+02
<STATE> 3
<MEAN> 39
 -1.979479e+01 -5.268909e+00 -3.993408e+00 -7.414956e-01 -4.397490e+00 -4.996031e+00 -7.729859e+00 -3.007548e+00 -1.690333e+00 -1.907157e+00 -1.578380e+00 -2.154090e+00 5.992678e+01 -3.437442e-01 -5.858983e-01 -4.345303e-01 -3.086298e-01 -2.169617e-01 -9.310450e-02 -7.801616e-02 -4.505697e-02 -1.345758e-02 3.730551e-02 1.093990e-01 2.731222e-02 -1.178515e-01 8.651497e-01 1.305738e-01 1.368018e-01 -1.869251e-01 -1.679212e-01 1.153128e-01 7.988896e-03 -3.206025e-02 -2.038520e-01 -5.479029e-02 1.678522e-02 -1.724173e-01 1.832360e-01
<VARIANCE> 39
 2.333135e+01 1.898362e+01 2.469431e+01 1.852945e+01 2.090278e+01 2.546763e+01 2.519201e+01 2.397781e+01 2.267727e+01 1.990003e+01 2.101302e+01 1.616944e+01 2.993172e+01 3.948696e+00 1.509678e+00 2.002995e+00 1.864286e+00 1.763783e+00 2.204449e+00 2.024552e+00 1.948531e+00 1.933166e+00 1.781746e+00 1.586575e+00 1.549894e+00 1.454647e+00 5.762346e-01 3.379064e-01 3.993411e-01 4.663326e-01 4.904753e-01 4.950341e-01 4.262408e-01 4.543964e-01 5.037479e-01 4.105556e-01 3.709792e-01 3.597822e-01 2.401589e-01
<GCONST> 1.088709e+02
<STATE> 4
<MEAN> 39
 -1.287941e+01 -4.242689e+00 -4.426144e+00 -3.035175e+00 -4.753048e+00 -4.650818e+00 -5.738179e+00 -3.089900e+00 -3.258618e+00 -2.047779e+00 -1.319437e+00 -2.378554e+00 4.719230e+01 1.296444e+00 1.320960e-01 9.040066e-02 -3.525539e-01 -3.895229e-01 2.508758e-01 -1.013193e-01 -7.930177e-02 -2.587335e-01 -1.261429e-01 8.103728e-02 -3.789106e-01 3.886829e-01 1.492307e-01 -2.662148e-02 5.790251e-02 -5.524595e-02 -1.522454e-01 5.282124e-02 -1.023255e-01 -2.566237e-03 -3.804015e-02 -2.672513e-02 5.858019e-02 -8.002340e-02 1.813772e-01
<VARIANCE> 39
 4.129604e+01 3.348171e+01 3.044951e+01 2.559038e+01 2.375658e+01 3.245037e+01 2.419007e+01 2.581677e+01 2.617886e+01 2.341010e+01 2.176179e+01 1.928160e+01 1.389136e+02 7.596076e+00 2.557759e+00 2.450996e+00 3.202392e+00 2.656711e+00 3.284882e+00 2.376293e+00 2.784274e+00 2.854973e+00 2.512552e+00 2.183755e+00 2.385784e+00 3.910056e+00 5.921659e-01 3.992626e-01 3.386710e-01 4.171863e-01 4.808692e-01 4.680247e-01 4.405055e-01 4.790525e-01 5.188535e-01 4.434733e-01 4.266755e-01 3.706468e-01 4.014541e-01
<GCONST> 1.194383e+02
<TRANSP> 5
 0.000000e+00 1.000000e+00 0.000000e+00 0.000000e+00 0.000000e+00
 0.000000e+00 6.729774e-01 3.270226e-01 0.000000e+00 0.000000e+00
 0.000000e+00 0.000000e+00 8.373445e-01 1.626555e-01 0.000000e+00
 0.000000e+00 0.000000e+00 0.000000e+00 8.324681e-01 1.675319e-01
 0.000000e+00 0.000000e+00 0.000000e+00 0.000000e+00 0.000000e+00
<ENDHMM>
~h "g"
<BEGINHMM>
<NUMSTATES> 5
<STATE> 2
<MEAN> 39
 2.112345e+00 2.361817e+00 5.860938e+00 2.806100e-01 -1.083268e+01 -6.291596e+00 -1.003544e+01 -3.805212e+00 -8.081333e+00 -1.068185e+00 -1.663527e+00 -8.227262e+00 5.443249e+01 4.277194e-03 1.015769e+00 4.336703e-01 8.037458e-01 7.378594e-01 -4.110160e-01 4.556279e-01 -2.516793e-01 -2.961272e-02 -1.126400e-01 -3.927703e-01 3.670757e-01 -1.255738e+00 -4.680749e-01 -5.103768e-01 -4.058121e-01 -3.408169e-01 1.599260e-01 4.451953e-02 -7.885362e-02 1.042375e-01 1.423850e-01 -4.375580e-02 6.939308e-02 1.616138e-01 8.009245e-01
<VARIANCE> 39
 3.318116e+01 4.982579e+01 5.022084e+01 3.869008e+01 5.734135e+01 5.405759e+01 5.392769e+01 6.323083e+01 5.608092e+01 4.339466e+01 4.348892e+01 3.472381e+01 9.201031e+01 3.458493e+00 3.333626e+00 3.550632e+00 3.019794e+00 4.553663e+00 3.915786e+00 3.721534e+00 4.163828e+00 4.302870e+00 3.374938e+00 3.181413e+00 2.875399e+00 6.481140e+00 5.859330e-01 6.180758e-01 6.231851e-01 5.028468e-01 8.626027e-01 7.856960e-01 7.639186e-01 7.889403e-01 8.349733e-01 6.877702e-01 6.961770e-01 5.656152e-01 1.140325e+00
<GCONST> 1.352423e+02
<STATE> 3
<MEAN> 39
 -4.685510e+00 4.910976e-01 2.176146e+00 8.325630e-01 -4.522850e+00 -8.737482e+00 -8.965256e+00 -4.021142e+00 -7.340786e+00 -1.141708e+00 -3.201663e+00 -3.942895e+00 5.901329e+01 -1.623574e+00 -1.875685e+00 -1.130005e+00 -1.194651e+00 -1.088443e-02 -7.159590e-01 -6.681575e-01 6.979260e-01 2.811083e-01 -3.694293e-02 9.738231e-01 6.094038e-01 3.585446e+00 5.322272e-01 -1.495709e-01 2.644566e-01 -5.002454e-01 -1.180925e+00 2.977440e-01 -2.849811e-01 2.267030e-01 1.414371e-01 -8.555479e-02 5.541073e-01 -5.010723e-01 3.718866e-01
<VARIANCE> 39
 5.593364e+01 5.029671e+01 7.133978e+01 3.610669e+01 6.929428e+01 5.990677e+01 4.791919e+01 5.005539e+01 4.275056e+01 3.279429e+01 3.505053e+01 2.749556e+01 9.771368e+01 5.883673e+00 4.768728e+00 7.091737e+00 4.057993e+00 1.160944e+01 6.084564e+00 4.937127e+00 6.515878e+00 5.348416e+00 4.056575e+00 5.509978e+00 3.938055e+00 6.173956e+00 9.169257e-01 9.450406e-01 1.082610e+00 7.123889e-01 1.615662e+00 1.139731e+00 8.789994e-01 1.020056e+00 9.262235e-01 7.386988e-01 8.380848e-01 7.487394e-01 1.368898e+00
<GCONST> 1.442496e+02
<STATE> 4
<MEAN> 39
 -2.837731e+00 -4.611722e+00 2.421052e+00 -4.673296e+00 -1.339104e+01 -9.312176e+00 -1.238109e+01 7.000880e-01 -5.762734e+00 -1.351328e+00 2.851495e+00 -6.655609e+00 6.835508e+01 4.751507e-01 -1.200668e+00 -3.101522e-01 -1.674949e+00 -1.949934e+00 9.596459e-01 -5.017874e-01 1.197127e+00 9.962783e-01 -3.203903e-01 9.121203e-01 -1.180498e+00 1.810246e+00 2.509905e-01 1.746218e-01 -7.981953e-02 1.715251e-01 3.263353e-01 5.467931e-01 2.136413e-01 -2.116113e-01 1.543523e-02 -8.223507e-02 -5.624602e-01 -2.051691e-01 -5.944799e-01
<VARIANCE> 39
 2.433185e+01 3.958312e+01 6.569878e+01 4.006432e+01 8.288036e+01 7.881390e+01 6.141568e+01 9.058868e+01 6.405713e+01 4.022563e+01 5.193867e+01 3.692385e+01 7.712333e+01 2.732635e+00 3.054102e+00 4.643743e+00 4.048790e+00 8.540737e+00 5.021182e+00 4.491251e+00 7.489262e+00 6.425210e+00 3.786397e+00 5.889704e+00 3.893376e+00 3.729493e+00 5.017210e-01 3.929151e-01 7.574351e-01 4.851030e-01 1.842146e+00 9.037590e-01 8.836770e-01 1.035967e+00 8.177981e-01 6.577219e-01 1.204138e+00 5.857412e-01 5.453120e-01
<GCONST> 1.397810e+02
<TRANSP> 5
 0.000000e+00 1.000000e+00 0.000000e+00 0.000000e+00 0.000000e+00
 0.000000e+00 7.826553e-01 2.173447e-01 0.000000e+00 0.000000e+00
 0.000000e+00 0.000000e+00 6.355867e-01 3.644134e-01 0.000000e+00
 0.000000e+00 0.000000e+00 0.000000e+00 4.995830e-01 5.004171e-01
 0.000000e+00 0.000000e+00 0.000000e+00 0.000000e+00 0.000000e+00
<ENDHMM>
~h "h"
<BEGINHMM>
<NUMSTATES> 5
<STATE> 2
<MEAN> 39
 -4.825809e+00 -4.529900e+00 -1.045096e+00 -2.845690e+00 -2.578906e+00 7.907066e-02 -5.721945e+00 -9.360523e-01 -5.691278e+00 -2.339702e+00 -5.111017e+00 -5.360793e+00 6.339942e+01 -1.104977e+00 -1.340169e-01 2.033771e-01 6.792879e-01 1.375286e+00 2.460162e-01 8.788025e-01 -3.152147e-03 4.945788e-01 -1.591806e-01 8.183136e-02 6.227162e-01 -9.141486e-01 -1.527087e-02 -2.984754e-01 -1.426567e-01 -3.237598e-01 -3.708399e-01 -3.923085e-03 -2.482879e-01 -2.466343e-02 7.307014e-02 4.006552e-02 1.942489e-01 -1.181379e-01 9.139600e-02
<VARIANCE> 39
 3.559269e+01 4.759198e+01 6.284684e+01 4.184174e+01 8.213488e+01 6.385164e+01 5.640222e+01 6.756419e+01 5.634730e+01 5.032478e+01 5.502419e+01 4.012824e+01 1.001822e+02 2.194271e+00 3.512078e+00 3.352464e+00 2.933837e+00 4.141054e+00 3.611993e+00 3.404137e+00 3.880294e+00 3.367697e+00 3.159382e+00 3.262276e+00 2.666743e+00 2.312792e+00 2.548460e-01 4.516960e-01 3.861037e-01 4.684911e-01 6.231170e-01 6.039585e-01 5.877178e-01 6.411270e-01 5.898608e-01 5.348042e-01 5.374806e-01 4.484564e-01 2.371124e-01
<GCONST> 1.291937e+02
<STATE> 3
<MEAN> 39
 -9.555805e+00 -8.604818e+00 -3.935661e+00 -4.252092e+00 2.696905e-01 4.917371e-01 -4.495914e+00 -1.084827e+00 -2.750997e+00 -2.171781e+00 -3.868485e+00 -4.096332e+00 6.050153e+01 -8.378419e-02 -5.609113e-02 -2.727777e-01 -3.403475e-01 -3.805300e-01 -3.825962e-01 -2.355802e-01 -1.840952e-01 9.869643e-03 5.034111e-02 1.155733e-01 2.428427e-02 -7.409288e-01 3.276570e-01 1.910016e-01 5.174296e-03 -6.422056e-02 -3.033186e-01 -6.341121e-02 -1.866602e-01 -5.068370e-02 -1.492274e-01 -3.438633e-02 -2.522209e-02 -1.383187e-01 3.059185e-02
<VARIANCE> 39
 4.805011e+01 5.677789e+01 5.087678e+01 3.838926e+01 6.323680e+01 5.568107e+01 5.506156e+01 5.018308e+01 5.135603e+01 4.216476e+01 4.148897e+01 3.471607e+01 1.115849e+02 2.251026e+00 2.599770e+00 2.070997e+00 2.358060e+00 2.658952e+00 2.839581e+00 2.762650e+00 2.857304e+00 2.788708e+00 2.458872e+00 2.467483e+00 2.198287e+00 3.312548e+00 3.301353e-01 4.148549e-01 3.671904e-01 4.626448e-01 5.360819e-01 5.379795e-01 5.673892e-01 5.487598e-01 5.173507e-01 4.949400e-01 4.780665e-01 4.241149e-01 3.038113e-01
<GCONST> 1.248580e+02
<STATE> 4
<MEAN> 39
 -1.025407e+01 -4.393583e+00 -3.130370e+00 -2.227923e+00 -2.448710e+00 -2.984737e+00 -4.639151e+00 -1.401158e+00 -2.780019e+00 -2.814211e+00 -2.516792e+00 -2.189873e+00 4.438387e+01 6.229217e-02 1.237664e-01 -1.941305e-02 -3.431995e-03 -8.840529e-02 1.741292e-02 -2.340282e-02 -4.292615e-02 -2.248400e-02 1.763372e-02 2.164672e-02 -4.699346e-02 -1.979172e-01 4.233538e-02 -6.927876e-03 2.201883e-02 -6.084735e-03 -2.338496e-02 2.864510e-02 -1.746184e-02 5.033667e-03 -1.550843e-02 -1.198348e-02 2.972428e-04 -3.146002e-02 1.050572e-01
<VARIANCE> 39
 2.194499e+01 5.817569e+01 3.012352e+01 2.785343e+01 2.754538e+01 3.274435e+01 3.027696e+01 3.211072e+01 2.926105e+01 2.671726e+01 2.577627e+01 2.189158e+01 1.322527e+02 9.345754e-01 1.519459e+00 1.228641e+00 1.296939e+00 1.560744e+00 1.688049e+00 1.786917e+00 1.974944e+00 1.919611e+00 1.762074e+00 1.682287e+00 1.583300e+00 1.427463e+00 1.545727e-01 2.430262e-01 2.165771e-01 2.392676e-01 2.922345e-01 3.213412e-01 3.402442e-01 3.824126e-01 3.670959e-01 3.413682e-01 3.319924e-01 3.089356e-01 1.701466e-01
<GCONST> 1.059563e+02
<TRANSP> 5
 0.000000e+00 1.000000e+00 0.000000e+00 0.000000e+00 0.000000e+00
 0.000000e+00 6.472800e-01 3.527200e-01 0.000000e+00 0.000000e+00
 0.000000e+00 0.000000e+00 6.676146e-01 3.323854e-01 0.000000e+00
 0.000000e+00 0.000000e+00 0.000000e+00 8.937082e-01 1.062918e-01
 0.000000e+00 0.000000e+00 0.000000e+00 0.000000e+00 0.000000e+00
<ENDHMM>
~h "i"
<BEGINHMM>
<NUMSTATES> 5
<STATE> 2
<MEAN> 39
 -6.151973e+00 -1.328412e+00 1.103199e+01 -1.588269e+00 -1.699978e+01 -8.851028e+00 -1.165565e+01 -5.383615e+00 -1.050267e+01 -4.753148e+00 2.594479e+00 -4.844482e+00 6.429463e+01 4.957981e-01 -1.344279e-01 2.515875e+00 -3.457844e-01 -2.836007e+00 2.374358e-01 -1.524411e+00 -4.145246e-01 -1.352032e+00 -5.771187e-01 1.641120e+00 -4.303846e-01 1.694386e+00 -3.963112e-02 5.505411e-02 -3.540468e-01 -1.347464e-01 1.542609e-01 4.341892e-01 -6.980263e-04 6.011276e-02 2.865255e-01 1.840570e-01 -9.782505e-02 -1.134604e-01 -3.547087e-01
<VARIANCE> 39
 4.011090e+01 4.386560e+01 5.798301e+01 4.071113e+01 7.015340e+01 6.421439e+01 5.775536e+01 7.130865e+01 5.264990e+01 4.031834e+01 3.703186e+01 3.105358e+01 9.114960e+01 6.299990e+00 3.070817e+00 5.089673e+00 3.682941e+00 6.016739e+00 5.464969e+00 6.610502e+00 5.812671e+00 5.363613e+00 3.857691e+00 3.859478e+00 3.315822e+00 5.215804e+00 7.643127e-01 5.743361e-01 8.190373e-01 5.457869e-01 1.222092e+00 8.325091e-01 9.463106e-01 9.995509e-01 8.414813e-01 6.179916e-01 6.741576e-01 4.807068e-01 1.043082e+00
<GCONST> 1.397336e+02
<STATE> 3
<MEAN> 39
 -5.789351e+00 -2.254902e+00 1.661213e+01 -4.193116e+00 -2.468878e+01 -5.677585e+00 -1.671820e+01 -6.041138e+00 -1.327913e+01 -5.630079e+00 7.238412e+00 -7.419086e+00 6.949542e+01 1.894691e-01 2.210044e-01 -1.780021e-01 1.301265e-02 4.474610e-02 4.462724e-02 1.156409e-01 7.085031e-02 1.361209e-01 1.965688e-01 -5.687253e-02 -1.117809e-01 -3.069164e-01 7.369205e-02 1.418983e-01 -5.760003e-01 1.860139e-01 7.626005e-01 -2.154715e-01 4.678549e-01 1.035386e-01 3.456457e-01 1.262755e-01 -5.369790e-01 1.205670e-01 -5.008895e-01
<VARIANCE> 39
 1.499720e+01 2.897137e+01 4.079984e+01 4.057109e+01 3.794771e+01 7.070621e+01 5.089832e+01 7.074248e+01 4.472974e+01 4.458092e+01 2.805344e+01 3.691334e+01 2.341085e+01 1.116853e+00 1.935468e+00 2.413045e+00 2.003782e+00 3.372904e+00 3.095890e+00 3.440215e+00 3.302825e+00 2.486353e+00 2.044715e+00 2.304952e+00 1.668344e+00 2.018425e+00 2.705034e-01 3.234388e-01 3.620303e-01 3.459942e-01 6.153718e-01 5.813035e-01 6.441963e-01 6.449814e-01 5.313535e-01 4.359461e-01 4.413493e-01 3.730994e-01 3.296799e-01
<GCONST> 1.189429e+02
<STATE> 4
<MEAN> 39
 -6.359853e+00 2.014413e+00 1.240984e+01 -3.382429e+00 -1.806537e+01 -5.504616e+00 -1.201754e+01 -7.514165e+00 -1.046371e+01 -4.147442e+00 1.765379e+00 -5.992247e+00 5.820121e+01 1.152024e-01 2.199548e-01 -7.605782e-01 2.313590e-01 8.374720e-01 -1.400867e-01 5.616947e-01 1.174783e-01 3.758473e-01 1.616938e-01 -5.691504e-01 1.371218e-01 -1.142073e+00 -2.829002e-02 -6.050742e-02 -9.954669e-02 4.154807e-03 1.064430e-01 4.483477e-02 -4.285984e-03 1.559432e-02 2.310752e-02 -6.079596e-03 -3.979366e-02 1.627397e-03 1.216398e-03
<VARIANCE> 39
 2.350469e+01 3.679889e+01 7.315768e+01 4.303162e+01 7.241459e+01 8.116702e+01 5.382715e+01 6.023374e+01 4.177637e+01 3.730762e+01 4.092898e+01 3.560149e+01 1.484879e+02 1.214313e+00 1.827901e+00 1.954946e+00 1.679111e+00 2.824969e+00 2.311462e+00 2.715210e+00 2.796807e+00 2.434088e+00 1.962724e+00 2.368907e+00 1.766331e+00 2.814156e+00 1.840657e-01 2.619134e-01 2.600230e-01 2.853705e-01 4.413496e-01 4.311128e-01 4.392373e-01 4.723297e-01 3.932416e-01 3.633767e-01 3.852924e-01 3.071040e-01 2.946363e-01
<GCONST> 1.186460e+02
<TRANSP> 5
 0.000000e+00 1.000000e+00 0.000000e+00 0.000000e+00 0.000000e+00
 0.000000e+00 6.234682e-01 3.765318e-01 0.000000e+00 0.000000e+00
 0.000000e+00 0.000000e+00 7.592217e-01 2.407784e-01 0.000000e+00
 0.000000e+00 0.000000e+00 0.000000e+00 8.211920e-01 1.788080e-01
 0.000000e+00 0.000000e+00 0.000000e+00 0.000000e+00 0.000000e+00
<ENDHMM>
~h "j"
<BEGINHMM>
<NUMSTATES> 5
<STATE> 2
<MEAN> 39
 -2.025841e+00 5.189804e+00 7.546410e+00 1.340901e+00 -9.311235e+00 -6.994643e+00 -8.345212e+00 -1.820147e+00 -4.389465e+00 -5.105653e+00 -2.988696e+00 -4.306640e+00 5.297208e+01 -4.731374e-01 9.299313e-01 3.271793e-01 1.468777e-01 1.089839e+00 1.525597e-01 5.759275e-01 -1.612049e-02 2.471704e-01 -7.506186e-02 -2.657899e-01 1.970228e-01 -6.247576e-01 -5.539981e-01 -3.579154e-01 -2.332448e-01 -2.941298e-01 4.178672e-02 5.684147e-02 -1.077499e-01 -1.799524e-01 -8.809556e-02 6.741783e-02 2.165479e-01 7.056139e-02 7.409025e-01
<VARIANCE> 39
 5.350035e+01 4.574580e+01 4.545160e+01 2.963033e+01 4.738616e+01 4.147823e+01 4.583059e+01 4.254665e+01 4.160685e+01 3.432637e+01 2.976966e+01 2.277449e+01 1.043413e+02 7.272152e+00 4.074368e+00 3.016121e+00 2.948855e+00 3.798854e+00 3.216513e+00 3.705969e+00 4.343470e+00 3.476834e+00 2.786443e+00 2.733446e+00 2.326202e+00 7.860765e+00 1.249994e+00 6.415762e-01 4.879600e-01 5.109776e-01 7.162123e-01 6.611854e-01 6.817218e-01 7.634622e-01 6.791276e-01 5.330114e-01 5.452342e-01 5.105937e-01 1.288654e+00
<GCONST> 1.322624e+02
<STATE> 3
<MEAN> 39
 -1.491127e+01 6.176017e+00 6.918776e+00 -1.914652e+00 -3.899957e+00 -6.318063e+00 -6.744191e+00 -5.949304e+00 -5.373168e+00 -4.876091e+00 -1.616210e+00 -1.273479e+00 6.373835e+01 -1.680363e+00 -1.299681e+00 3.080193e-01 -6.966566e-01 -1.775228e+00 -1.341869e+00 -9.183288e-01 -5.248809e-01 -5.971010e-01 -2.328369e-01 1.295714e+00 1.046573e+00 3.805412e+00 1.672354e+00 -5.891386e-01 2.066289e-01 1.496462e-01 -1.361936e+00 -2.990568e-01 -6.448973e-01 5.861646e-01 1.753841e-01 -1.113341e-01 2.290567e-01 -3.255519e-01 -2.060295e-01
<VARIANCE> 39
 4.433789e+01 3.935493e+01 4.844281e+01 2.372276e+01 3.989847e+01 4.468690e+01 3.127963e+01 2.749356e+01 2.739288e+01 2.184797e+01 1.895615e+01 1.780559e+01 4.946783e+01 1.363894e+01 4.095440e+00 4.691230e+00 3.978023e+00 8.807137e+00 4.420097e+00 4.028243e+00 4.028731e+00 3.485748e+00 2.566249e+00 2.600755e+00 2.110805e+00 4.133200e+00 1.227193e+00 9.145989e-01 8.343496e-01 6.990098e-01 1.128234e+00 1.035216e+00 6.410081e-01 9.590738e-01 8.434827e-01 5.379046e-01 5.299715e-01 5.892354e-01 8.277726e-01
<GCONST> 1.323615e+02
<STATE> 4
<MEAN> 39
 -5.842014e+00 -3.411510e+00 8.749035e+00 -3.239963e+00 -1.846208e+01 -1.223356e+01 -1.437248e+01 -1.021435e+00 -4.586574e+00 -6.146574e+00 3.973961e+00 -1.360154e+00 7.259003e+01 2.503271e+00 -3.090945e+00 -1.422211e+00 -9.025941e-01 -2.129058e+00 3.370881e-01 -1.548661e+00 2.183901e+00 1.443029e+00 2.552267e-01 5.638056e-01 -1.694700e+00 1.448982e+00 -1.099248e-01 2.893772e-01 -7.577077e-01 -1.360944e-01 1.242929e+00 9.933097e-01 5.330533e-01 -3.991996e-02 1.956324e-01 2.370961e-01 -6.523557e-01 -6.226750e-01 -7.025672e-01
<VARIANCE> 39
 1.928262e+01 3.609869e+01 3.532543e+01 3.871508e+01 3.780951e+01 3.163809e+01 3.790657e+01 6.251823e+01 5.074036e+01 3.347504e+01 2.396565e+01 2.456417e+01 2.391971e+01 2.710938e+00 3.482064e+00 4.419192e+00 2.992376e+00 7.767045e+00 4.816813e+00 5.129858e+00 7.063057e+00 4.117812e+00 3.051919e+00 4.351439e+00 2.707256e+00 1.443809e+00 8.300725e-01 5.772610e-01 4.420053e-01 5.686376e-01 8.925809e-01 6.521622e-01 6.611457e-01 1.092232e+00 7.142307e-01 5.575945e-01 7.065099e-01 4.866116e-01 1.675125e-01
<GCONST> 1.279365e+02
<TRANSP> 5
 0.000000e+00 1.000000e+00 0.000000e+00 0.000000e+00 0.000000e+00
 0.000000e+00 8.445162e-01 1.554838e-01 0.000000e+00 0.000000e+00
 0.000000e+00 0.000000e+00 6.949077e-01 3.050924e-01 0.000000e+00
 0.000000e+00 0.000000e+00 0.000000e+00 6.528454e-01 3.471546e-01
 0.000000e+00 0.000000e+00 0.000000e+00 0.000000e+00 0.000000e+00
<ENDHMM>
~h "k"
<BEGINHMM>
<NUMSTATES> 5
<STATE> 2
<MEAN> 39
 -7.373975e+00 5.183893e-01 -1.790979e+00 -2.864226e+00 -6.261018e+00 -4.912052e+00 -6.756349e+00 -3.776251e+00 -4.538993e+00 -1.261101e+00 -2.347752e+00 -4.044479e+00 4.353605e+01 -7.992564e-01 -4.675969e-02 -3.618523e-01 1.594890e-01 5.511183e-01 -2.616980e-01 1.638073e-01 5.395768e-02 2.461652e-01 1.642782e-02 -7.579622e-02 4.795944e-01 -1.040386e+00 -8.903193e-02 -3.847895e-01 -2.212591e-01 -1.622871e-01 2.767856e-02 3.233100e-02 -8.209765e-02 1.123736e-01 -5.121616e-03 2.714968e-02 1.783220e-02 -2.023597e-02 8.202866e-01
<VARIANCE> 39
 4.607944e+01 3.707383e+01 5.157117e+01 3.897890e+01 5.075573e+01 4.835406e+01 4.355144e+01 4.657941e+01 4.518981e+01 3.471198e+01 3.526266e+01 3.385538e+01 1.147548e+02 2.468313e+00 3.258579e+00 2.965787e+00 2.813842e+00 3.772864e+00 3.297313e+00 3.321657e+00 3.346705e+00 3.333068e+00 2.899736e+00 2.788378e+00 2.437019e+00 8.121999e+00 4.205162e-01 6.248364e-01 5.844886e-01 5.700921e-01 7.191607e-01 6.520846e-01 6.913192e-01 6.603112e-01 6.704267e-01 6.127738e-01 5.789774e-01 4.711546e-01 1.498383e+00
<GCONST> 1.309868e+02
<STATE> 3
<MEAN> 39
 -1.127286e+01 -4.491017e+00 -6.270562e+00 -3.305452e+00 -2.405379e+00 -6.083048e+00 -7.834838e+00 -2.635115e+00 -3.990463e+00 -7.101777e-02 -3.091574e+00 -1.857778e+00 5.091829e+01 -6.955224e-01 -1.836802e+00 -1.850812e+00 -8.471831e-01 9.290615e-01 -4.746262e-01 -4.628430e-01 7.741596e-01 -5.399905e-03 5.716797e-01 -3.794085e-01 6.565320e-02 4.578955e+00 8.008462e-01 2.555020e-01 4.540147e-01 -2.990223e-01 -8.277786e-01 1.724546e-01 -1.468658e-01 3.275525e-02 -1.267150e-01 -1.986854e-01 1.606985e-01 -6.224991e-01 7.382638e-01
<VARIANCE> 39
 4.105774e+01 6.102762e+01 7.582796e+01 5.232005e+01 6.397330e+01 6.036669e+01 5.034302e+01 4.825994e+01 4.420405e+01 3.635683e+01 3.532162e+01 2.843685e+01 1.492874e+02 4.700484e+00 5.968011e+00 7.480738e+00 5.496103e+00 7.342595e+00 6.272311e+00 5.921030e+00 5.759605e+00 5.400156e+00 4.588928e+00 4.029414e+00 3.827540e+00 1.556532e+01 7.216926e-01 1.055471e+00 1.276710e+00 8.658391e-01 1.275986e+00 1.099007e+00 1.003311e+00 9.497784e-01 8.783820e-01 8.223073e-01 7.503257e-01 7.385873e-01 2.059615e+00
<GCONST> 1.461696e+02
<STATE> 4
<MEAN> 39
 -7.860688e+00 -6.272251e+00 -7.629342e+00 -6.798847e+00 -5.274209e+00 -6.839926e+00 -9.664386e+00 -2.817944e-01 -4.533477e+00 9.047526e-02 -3.324811e+00 -5.620636e+00 6.393560e+01 2.020851e+00 -2.164127e-01 9.596663e-01 -8.869047e-01 -2.045389e+00 5.645484e-01 -3.974359e-01 5.051344e-01 -8.148530e-02 -7.340767e-01 6.421902e-01 -1.763778e+00 3.086178e+00 3.783647e-01 1.330286e-01 5.077822e-01 1.402208e-01 -4.237432e-01 4.875647e-01 8.545761e-02 -1.945492e-01 8.694431e-02 -3.529961e-01 2.743920e-01 -2.056233e-01 -8.275534e-01
<VARIANCE> 39
 4.291533e+01 4.693805e+01 7.742412e+01 5.151544e+01 6.775835e+01 8.076498e+01 4.600447e+01 5.707993e+01 5.836084e+01 4.333825e+01 4.335035e+01 4.377615e+01 8.672153e+01 4.733489e+00 5.071816e+00 5.508283e+00 4.541442e+00 6.104571e+00 6.177006e+00 4.631721e+00 6.093287e+00 5.314969e+00 4.426850e+00 4.367196e+00 5.067733e+00 9.976285e+00 9.425700e-01 7.865309e-01 1.305041e+00 7.606722e-01 1.507485e+00 1.047320e+00 9.574620e-01 9.783964e-01 9.248272e-01 8.569928e-01 8.628757e-01 8.405771e-01 1.246585e+00
<GCONST> 1.455788e+02
<TRANSP> 5
 0.000000e+00 1.000000e+00 0.000000e+00 0.000000e+00 0.000000e+00
 0.000000e+00 8.271090e-01 1.728910e-01 0.000000e+00 0.000000e+00
 0.000000e+00 0.000000e+00 5.533671e-01 4.466329e-01 0.000000e+00
 0.000000e+00 0.000000e+00 0.000000e+00 5.666485e-01 4.333515e-01
 0.000000e+00 0.000000e+00 0.000000e+00 0.000000e+00 0.000000e+00
<ENDHMM>
~h "l"
<BEGINHMM>
<NUMSTATES> 5
<STATE> 2
<MEAN> 39
 1.089027e+00 -9.510066e+00 -2.197086e+00 -7.050915e+00 -1.401848e+01 -1.194428e+00 -1.460666e+01 -7.850104e+00 2.518049e-02 1.441199e-01 -4.364102e-02 -8.430213e+00 6.953612e+01 7.295077e-01 -3.590869e-01 6.882693e-01 -2.697967e-01 -3.807356e-02 2.663150e-01 -1.295944e+00 -1.063189e+00 3.137683e-01 1.255898e+00 -1.333850e-02 -1.968370e-01 -3.453474e-01 -1.513558e-01 1.789162e-01 8.444794e-02 -2.136509e-01 1.107906e-01 1.152154e-01 1.476731e-02 1.211096e-01 -2.219250e-01 -1.195958e-01 9.102244e-02 3.095128e-02 -5.082992e-02
<VARIANCE> 39
 2.467482e+01 3.417460e+01 6.497775e+01 6.856384e+01 5.786975e+01 1.069840e+02 7.038718e+01 1.300835e+02 8.150071e+01 6.013883e+01 5.582340e+01 4.428479e+01 5.205822e+01 1.248099e+00 2.243024e+00 3.714806e+00 4.753968e+00 5.345180e+00 6.513810e+00 4.364334e+00 5.542248e+00 4.935496e+00 4.215769e+00 4.325718e+00 3.433363e+00 1.735833e+00 2.712178e-01 3.171197e-01 4.443996e-01 6.307684e-01 8.538817e-01 9.122533e-01 7.992527e-01 1.058656e+00 7.999475e-01 7.871981e-01 6.487719e-01 5.101907e-01 1.990199e-01
<GCONST> 1.345289e+02
<STATE> 3
<MEAN> 39
 2.744677e+00 -1.017799e+01 2.995679e-01 -1.014713e+01 -1.402005e+01 2.117963e+00 -1.888524e+01 -1.112718e+01 4.599404e-02 4.321845e+00 9.012926e-01 -8.920225e+00 6.920541e+01 -7.743031e-02 1.635852e-01 1.152975e-02 -3.419933e-01 2.697420e-01 2.848808e-02 -2.233353e-01 2.036219e-01 -8.667706e-02 7.484640e-02 -6.716967e-02 -3.101953e-02 -2.886861e-02 -2.956165e-01 5.136431e-02 -4.089400e-01 1.346648e-01 1.016366e-01 -5.869333e-02 5.374381e-01 5.794782e-01 -1.548007e-03 -5.722752e-01 -1.698038e-01 -6.038421e-02 1.901265e-01
<VARIANCE> 39
 1.940216e+01 2.765353e+01 5.470840e+01 7.304967e+01 4.990303e+01 8.230036e+01 7.940871e+01 1.078862e+02 8.294531e+01 5.625957e+01 4.972826e+01 3.874279e+01 3.423671e+01 7.381701e-01 1.342180e+00 3.108094e+00 3.121364e+00 2.534732e+00 4.191243e+00 3.406631e+00 5.569674e+00 4.048082e+00 3.403852e+00 2.865394e+00 2.526568e+00 1.117644e+00 1.215861e-01 3.142586e-01 3.782570e-01 5.878965e-01 6.677107e-01 7.278081e-01 7.856971e-01 7.888263e-01 7.691382e-01 6.961176e-01 6.476339e-01 5.313511e-01 1.551522e-01
<GCONST> 1.259368e+02
<STATE> 4
<MEAN> 39
 1.488978e+00 -8.124094e+00 -1.721052e+00 -1.049246e+01 -1.179204e+01 1.594902e+00 -1.683852e+01 -6.541408e+00 -6.822491e-01 2.168378e+00 -1.328159e+00 -8.965221e+00 6.733006e+01 -4.580201e-01 2.223487e-01 -3.849607e-01 3.034958e-01 4.084301e-01 -1.556286e-01 8.389766e-01 6.734933e-01 -1.197489e-01 -7.654191e-01 -4.433446e-01 1.192712e-02 -1.568976e-01 -1.106496e-01 -1.887150e-02 -2.166400e-02 1.183725e-01 2.815189e-03 2.657197e-02 2.101005e-01 6.260819e-02 -5.412424e-02 -1.871445e-01 -2.785850e-03 4.323594e-02 1.127763e-02
<VARIANCE> 39
 2.267067e+01 4.106051e+01 6.523973e+01 7.543633e+01 5.254529e+01 8.906469e+01 7.851322e+01 9.941595e+01 7.849006e+01 6.434168e+01 5.462305e+01 4.114267e+01 7.525124e+01 7.895502e-01 2.068833e+00 2.347478e+00 2.597380e+00 2.847424e+00 3.629668e+00 3.442640e+00 4.339032e+00 3.397216e+00 3.352909e+00 3.133794e+00 2.351039e+00 1.961278e+00 1.242021e-01 2.638805e-01 2.526717e-01 3.824415e-01 5.305304e-01 4.995821e-01 5.728687e-01 5.346479e-01 5.138929e-01 5.285704e-01 5.047244e-01 3.729820e-01 1.745540e-01
<GCONST> 1.244504e+02
<TRANSP> 5
 0.000000e+00 1.000000e+00 0.000000e+00 0.000000e+00 0.000000e+00
 0.000000e+00 5.196493e-01 4.803507e-01 0.000000e+00 0.000000e+00
 0.000000e+00 0.000000e+00 6.008776e-01 3.991224e-01 0.000000e+00
 0.000000e+00 0.000000e+00 0.000000e+00 6.339954e-01 3.660046e-01
 0.000000e+00 0.000000e+00 0.000000e+00 0.000000e+00 0.000000e+00
<ENDHMM>
~h "m"
<BEGINHMM>
<NUMSTATES> 5
<STATE> 2
<MEAN> 39
 1.654554e+00 -3.894394e+00 -1.044304e+00 -5.169516e+00 -9.005151e+00 7.709353e-01 -1.040995e+01 -7.902397e+00 -9.603606e+00 -2.132350e+00 -6.249134e-01 -8.681792e+00 6.063619e+01 7.277795e-01 1.178954e+00 1.450705e+00 1.501773e+00 2.083818e-01 1.002513e-01 7.126412e-01 -2.320074e+00 -2.542639e+00 1.864684e-01 -5.706336e-01 1.491279e-01 -9.396685e-01 -2.109305e-01 -1.629646e-01 1.453483e-01 8.013602e-03 -7.353937e-02 2.316125e-02 8.930250e-02 3.724918e-03 -2.764794e-02 -1.082547e-01 -1.154812e-01 4.317392e-02 2.715797e-01
<VARIANCE> 39
 3.418828e+01 4.537454e+01 4.402361e+01 6.567691e+01 5.525842e+01 8.017023e+01 5.847219e+01 6.991422e+01 6.909826e+01 5.301087e+01 6.421323e+01 4.197876e+01 1.154917e+02 2.197773e+00 3.069726e+00 3.994550e+00 4.161967e+00 4.207617e+00 4.505757e+00 4.643870e+00 5.574657e+00 5.919781e+00 4.677630e+00 6.037061e+00 3.782443e+00 5.332787e+00 3.327330e-01 4.039986e-01 4.819443e-01 6.391821e-01 5.620673e-01 5.482184e-01 6.190248e-01 8.507723e-01 9.116008e-01 5.869344e-01 8.430765e-01 5.221109e-01 3.951202e-01
<GCONST> 1.362222e+02
<STATE> 3
<MEAN> 39
 3.571174e+00 -2.856389e+00 3.294969e+00 -1.416989e+00 -9.282401e+00 1.654993e+00 -8.876719e+00 -1.471617e+01 -1.741245e+01 -1.448712e+00 -2.193258e+00 -7.893544e+00 6.175889e+01 -1.163658e-02 2.560861e-02 2.680221e-01 7.182854e-02 7.136766e-02 1.860448e-01 3.137811e-01 -3.376800e-01 -3.934238e-01 -2.021091e-01 -2.508831e-01 1.091723e-01 1.285428e-01 -1.365803e-01 -2.853374e-01 -5.355697e-01 -6.393979e-01 -4.703433e-02 -2.585926e-02 -2.641087e-01 8.782157e-01 9.571562e-01 -1.215185e-01 2.248730e-01 -1.521864e-01 3.277353e-01
<VARIANCE> 39
 1.361562e+01 2.431897e+01 2.318285e+01 4.559842e+01 5.706797e+01 9.382187e+01 6.143115e+01 5.401740e+01 6.841010e+01 7.579485e+01 7.209619e+01 4.200172e+01 3.036104e+01 6.735142e-01 1.497533e+00 2.414992e+00 3.350185e+00 1.812713e+00 2.662314e+00 2.438529e+00 3.662716e+00 4.527523e+00 2.734509e+00 3.768979e+00 2.286427e+00 2.177596e+00 1.643189e-01 2.750478e-01 3.905272e-01 4.671690e-01 4.388200e-01 5.119951e-01 5.495417e-01 6.697754e-01 8.152790e-01 6.779113e-01 7.965847e-01 5.357100e-01 2.650842e-01
<GCONST> 1.223664e+02
<STATE> 4
<MEAN> 39
 1.430310e+00 -1.646784e+00 2.624244e+00 -3.781481e+00 -9.686908e+00 2.294633e+00 -7.183566e+00 -1.060283e+01 -1.244966e+01 -4.467339e+00 -3.698742e+00 -7.857440e+00 5.891746e+01 -1.122430e-01 -1.121442e-01 -5.730016e-01 -5.870392e-01 5.276654e-02 -6.762580e-02 -2.224955e-01 7.596027e-01 9.685770e-01 3.863704e-02 3.504713e-01 -1.312246e-02 1.846758e-01 -5.641759e-02 -9.761585e-02 -1.412342e-01 -8.391286e-02 3.323963e-02 -2.666843e-02 -1.721652e-01 1.751243e-01 2.448020e-01 4.203167e-02 1.299663e-01 -1.150782e-02 7.412084e-02
<VARIANCE> 39
 2.930622e+01 2.898372e+01 3.748380e+01 5.516869e+01 7.730453e+01 8.477064e+01 6.054759e+01 6.037931e+01 7.275493e+01 5.757877e+01 6.081558e+01 4.137199e+01 9.941382e+01 6.216934e-01 1.873702e+00 2.635351e+00 3.180887e+00 1.996928e+00 2.514202e+00 2.732543e+00 3.223768e+00 4.479994e+00 2.497128e+00 3.407044e+00 2.142077e+00 2.525203e+00 1.271947e-01 2.072191e-01 3.071409e-01 3.836985e-01 3.552085e-01 3.893777e-01 3.925079e-01 4.395238e-01 5.303087e-01 3.853535e-01 5.417899e-01 3.458920e-01 1.866244e-01
<GCONST> 1.207637e+02
<TRANSP> 5
 0.000000e+00 1.000000e+00 0.000000e+00 0.000000e+00 0.000000e+00
 0.000000e+00 5.680150e-01 4.319851e-01 0.000000e+00 0.000000e+00
 0.000000e+00 0.000000e+00 6.668857e-01 3.331142e-01 0.000000e+00
 0.000000e+00 0.000000e+00 0.000000e+00 7.547140e-01 2.452861e-01
 0.000000e+00 0.000000e+00 0.000000e+00 0.000000e+00 0.000000e+00
<ENDHMM>
~h "n"
<BEGINHMM>
<NUMSTATES> 5
<STATE> 2
<MEAN> 39
 1.560882e+00 -7.843071e+00 3.587964e-01 -3.049750e+00 -1.295891e+01 -4.941223e+00 -1.389417e+01 -2.387296e+00 -3.989984e+00 -2.348746e+00 -5.713922e+00 -9.944579e+00 6.742185e+01 9.641806e-01 2.243768e+00 1.695031e+00 1.730350e+00 -3.172428e-01 -1.218092e+00 6.223348e-01 -3.160837e+00 -9.747111e-01 1.446756e+00 -1.478624e+00 5.447611e-01 -2.373638e+00 -1.284248e-01 1.236585e-01 1.315340e-02 -1.983987e-01 6.672494e-03 2.392511e-01 3.263272e-01 -2.701543e-01 -1.526077e-01 1.530614e-02 1.440344e-02 1.429822e-01 1.729859e-02
<VARIANCE> 39
 1.410028e+01 4.446200e+01 4.692793e+01 3.920142e+01 4.655686e+01 5.792587e+01 4.961520e+01 1.131694e+02 6.317288e+01 4.980091e+01 5.177744e+01 4.170709e+01 4.229568e+01 9.260443e-01 2.160690e+00 3.579734e+00 2.541055e+00 3.840395e+00 4.842463e+00 4.063379e+00 5.646208e+00 3.997830e+00 4.148132e+00 3.870199e+00 3.707912e+00 1.312430e+00 1.435773e-01 3.915881e-01 3.799399e-01 4.503942e-01 5.270617e-01 6.415658e-01 6.580575e-01 1.230065e+00 5.607566e-01 6.202282e-01 5.324524e-01 4.265401e-01 2.768263e-01
<GCONST> 1.265838e+02
<STATE> 3
<MEAN> 39
 3.398465e+00 -2.346958e+00 4.230636e+00 2.772403e-02 -1.485945e+01 -7.030497e+00 -1.034462e+01 -1.212487e+01 -6.925162e+00 1.698706e+00 -8.575201e+00 -8.577957e+00 6.237530e+01 1.865016e-01 8.750039e-01 4.623874e-01 2.910289e-01 -6.155748e-02 -1.019207e-02 5.693982e-01 -9.207761e-01 -5.981382e-01 3.801053e-01 -4.714697e-01 4.114830e-01 -8.298813e-01 -3.121615e-01 -4.664762e-01 -3.943949e-01 -4.126322e-01 2.289374e-01 3.106365e-01 -2.382405e-01 9.286898e-01 2.653800e-01 -5.016587e-01 4.840251e-01 -5.777665e-02 4.420799e-01
<VARIANCE> 39
 1.181540e+01 2.202427e+01 2.631296e+01 3.797863e+01 4.711975e+01 8.414783e+01 5.394145e+01 5.963755e+01 6.710350e+01 4.059416e+01 5.138312e+01 5.942320e+01 2.446215e+01 6.774221e-01 1.958111e+00 2.004462e+00 1.867158e+00 2.417558e+00 2.787999e+00 2.931399e+00 4.793055e+00 3.122181e+00 2.767587e+00 2.766191e+00 2.238048e+00 1.569359e+00 1.648543e-01 3.200087e-01 4.601363e-01 4.343670e-01 5.553837e-01 6.305074e-01 5.744852e-01 7.566515e-01 6.249570e-01 6.093814e-01 5.710465e-01 5.253014e-01 2.715568e-01
<GCONST> 1.203139e+02
<STATE> 4
<MEAN> 39
 5.708071e-01 3.867487e-01 4.345733e+00 5.114319e-01 -1.101861e+01 -5.379421e+00 -8.485139e+00 -8.725262e+00 -7.444536e+00 -9.284251e-01 -7.742611e+00 -5.995253e+00 5.464392e+01 -3.833730e-01 2.808149e-01 -1.301491e-01 5.202301e-03 5.676595e-01 1.733602e-01 8.997244e-02 4.319096e-01 9.962118e-02 -3.046070e-01 3.141343e-01 1.600650e-01 -7.221479e-01 -1.466089e-01 -1.209485e-01 -8.945237e-02 -9.882354e-02 8.011962e-02 3.205970e-02 -7.247903e-02 1.925723e-01 1.068826e-01 -8.145511e-02 1.347888e-01 -4.477387e-02 9.279506e-02
<VARIANCE> 39
 3.556878e+01 2.902321e+01 3.611306e+01 3.624120e+01 6.995833e+01 6.772539e+01 5.692409e+01 5.631661e+01 5.216261e+01 4.771697e+01 5.599068e+01 4.458403e+01 1.035686e+02 1.035101e+00 1.876089e+00 1.540947e+00 1.807687e+00 2.341807e+00 2.219220e+00 2.292845e+00 3.045014e+00 2.556507e+00 2.548008e+00 2.384444e+00 1.876132e+00 2.228883e+00 2.062589e-01 2.953079e-01 2.731500e-01 3.283056e-01 4.329213e-01 4.091396e-01 4.205929e-01 5.394642e-01 4.630596e-01 4.643610e-01 4.477023e-01 3.507664e-01 2.589059e-01
<GCONST> 1.189017e+02
<TRANSP> 5
 0.000000e+00 1.000000e+00 0.000000e+00 0.000000e+00 0.000000e+00
 0.000000e+00 5.365824e-01 4.634176e-01 0.000000e+00 0.000000e+00
 0.000000e+00 0.000000e+00 6.295492e-01 3.704508e-01 0.000000e+00
 0.000000e+00 0.000000e+00 0.000000e+00 8.148484e-01 1.851516e-01
 0.000000e+00 0.000000e+00 0.000000e+00 0.000000e+00 0.000000e+00
<ENDHMM>
~h "o"
<BEGINHMM>
<NUMSTATES> 5
<STATE> 2
<MEAN> 39
 -1.114252e-01 -3.610803e+00 -6.361526e+00 -1.215475e+01 -1.104128e+01 1.941159e+00 -1.137253e+01 -5.189662e+00 -3.574484e+00 -1.191898e+00 1.257006e+00 -6.914622e+00 6.448143e+01 1.659370e+00 -6.182261e-01 -9.058768e-01 -2.351164e+00 -1.452880e+00 2.372093e+00 -5.740563e-01 -6.586248e-03 4.994395e-01 -1.757821e-01 1.376260e+00 -9.679750e-01 2.098888e+00 -2.773626e-01 1.785200e-03 1.644384e-01 1.579031e-01 1.110373e-01 1.114518e-01 1.946721e-01 -2.812129e-05 -9.826049e-02 -6.437895e-02 3.009978e-02 1.176452e-01 -3.664963e-01
<VARIANCE> 39
 3.725117e+01 4.049686e+01 5.489508e+01 1.030622e+02 6.588552e+01 9.065450e+01 6.872192e+01 7.078024e+01 7.360126e+01 5.774386e+01 5.122594e+01 4.012013e+01 1.268841e+02 4.861618e+00 2.993823e+00 5.143600e+00 6.304886e+00 7.838231e+00 6.078718e+00 4.278412e+00 5.909340e+00 5.467820e+00 5.492403e+00 4.571085e+00 3.909301e+00 6.323575e+00 7.871692e-01 5.442057e-01 6.939400e-01 1.156960e+00 9.721580e-01 1.009979e+00 8.149521e-01 8.261990e-01 9.707633e-01 7.602370e-01 6.964877e-01 6.488878e-01 1.275398e+00
<GCONST> 1.446922e+02
<STATE> 3
<MEAN> 39
 2.690035e+00 -6.291132e+00 -9.050071e+00 -1.759545e+01 -1.459018e+01 9.073882e+00 -1.255371e+01 -6.236904e+00 -1.963240e+00 -2.710628e+00 6.313399e+00 -8.832701e+00 7.138601e+01 1.294325e-01 -2.713865e-01 -2.487305e-01 -6.789946e-01 -7.011165e-02 1.117358e+00 1.049022e-01 6.463067e-02 -3.788429e-03 -1.525620e-01 5.344279e-01 -1.898143e-01 2.854191e-01 -3.190368e-01 2.474039e-01 3.055024e-01 7.292593e-01 4.790770e-01 -8.050050e-01 1.760681e-01 -6.989689e-03 -1.901471e-01 8.845608e-02 -6.056074e-01 2.883571e-01 -6.070312e-01
<VARIANCE> 39
 1.423199e+01 3.138111e+01 3.444056e+01 7.903673e+01 5.538861e+01 6.423910e+01 6.023256e+01 8.428178e+01 7.105752e+01 6.881432e+01 5.010631e+01 4.143956e+01 2.496386e+01 6.654626e-01 1.901884e+00 1.597704e+00 4.242524e+00 2.854439e+00 4.007566e+00 3.253025e+00 3.366102e+00 3.810066e+00 3.513175e+00 2.832657e+00 2.498077e+00 1.623499e+00 3.007906e-01 3.105648e-01 3.737386e-01 5.517026e-01 7.814026e-01 5.971139e-01 5.836758e-01 7.473846e-01 6.942904e-01 7.290609e-01 5.277097e-01 5.454683e-01 3.062141e-01
<GCONST> 1.251122e+02
<STATE> 4
<MEAN> 39
 2.543050e+00 -4.426114e+00 -8.260618e+00 -1.905849e+01 -1.278105e+01 9.017665e+00 -1.181970e+01 -4.936492e+00 -3.969023e+00 -2.620354e+00 3.457562e+00 -7.832570e+00 6.770992e+01 -5.456540e-02 2.484085e-01 2.648967e-01 8.454075e-01 3.799305e-01 -7.120046e-01 8.563669e-02 -1.295051e-01 -5.513940e-02 1.942683e-01 -5.726538e-01 5.890358e-02 -8.462253e-01 -4.377798e-02 7.167554e-02 1.474188e-01 3.234756e-01 6.336654e-02 -2.531660e-01 1.695892e-02 -6.699435e-02 -5.771201e-03 2.875320e-02 -1.544532e-01 5.230146e-02 -2.038597e-01
<VARIANCE> 39
 1.555380e+01 4.355481e+01 3.437203e+01 7.138686e+01 6.314460e+01 5.997041e+01 5.837885e+01 6.930486e+01 6.317455e+01 7.075351e+01 4.765680e+01 4.387905e+01 7.404697e+01 5.658213e-01 1.421584e+00 1.304554e+00 2.963158e+00 2.257089e+00 2.820373e+00 2.397231e+00 2.346546e+00 2.472659e+00 2.514271e+00 2.382281e+00 1.927956e+00 2.065829e+00 1.099223e-01 2.291691e-01 2.186573e-01 3.466671e-01 3.659303e-01 4.030238e-01 4.244165e-01 4.088039e-01 4.316443e-01 4.507600e-01 3.866940e-01 3.703003e-01 2.387412e-01
<GCONST> 1.167514e+02
<TRANSP> 5
 0.000000e+00 1.000000e+00 0.000000e+00 0.000000e+00 0.000000e+00
 0.000000e+00 5.516986e-01 4.483014e-01 0.000000e+00 0.000000e+00
 0.000000e+00 0.000000e+00 6.146780e-01 3.853220e-01 0.000000e+00
 0.000000e+00 0.000000e+00 0.000000e+00 8.389774e-01 1.610226e-01
 0.000000e+00 0.000000e+00 0.000000e+00 0.000000e+00 0.000000e+00
<ENDHMM>
~h "p"
<BEGINHMM>
<NUMSTATES> 5
<STATE> 2
<MEAN> 39
 -6.039154e+00 1.376375e+00 -1.949225e+00 -2.954037e+00 -5.412406e+00 -2.699800e+00 -5.876546e+00 -4.590089e+00 -4.322708e+00 -1.903167e+00 -2.275327e+00 -4.173924e+00 4.064996e+01 -7.485878e-01 2.859362e-01 -7.520887e-02 2.056956e-01 2.442851e-01 -3.353195e-01 2.400661e-01 1.185544e-01 2.411944e-01 4.076638e-02 -1.030106e-01 2.959409e-01 -1.235600e+00 -6.721543e-02 -2.644918e-01 -6.034309e-02 -1.059409e-01 -8.629942e-02 1.315307e-02 -6.495371e-02 3.893401e-02 2.691224e-02 -3.697836e-03 7.437376e-02 -3.262138e-03 6.172298e-01
<VARIANCE> 39
 4.859874e+01 3.066482e+01 3.537237e+01 3.527179e+01 3.082274e+01 3.601544e+01 3.185800e+01 3.528265e+01 3.777190e+01 2.812392e+01 2.829258e+01 3.273531e+01 6.915699e+01 1.733390e+00 2.047723e+00 1.785898e+00 1.994378e+00 2.137520e+00 2.262840e+00 2.126977e+00 2.471825e+00 2.697618e+00 2.236208e+00 2.430676e+00 1.985788e+00 4.660303e+00 3.418108e-01 4.122177e-01 3.801611e-01 4.310304e-01 4.345704e-01 4.481291e-01 4.389499e-01 4.957367e-01 5.230116e-01 4.500223e-01 4.831332e-01 3.892018e-01 8.599129e-01
<GCONST> 1.186706e+02
<STATE> 3
<MEAN> 39
 -8.250247e+00 1.217901e+00 -1.442657e+00 -2.204121e+00 -5.237221e+00 -4.221590e+00 -6.023959e+00 -4.646089e+00 -3.627438e+00 -2.081388e+00 -2.365276e+00 -2.957461e+00 4.357906e+01 4.735112e-03 -1.898592e+00 -8.808889e-01 -1.166021e+00 -1.792530e-01 2.942294e-01 -2.559416e-01 1.803771e-01 4.059412e-01 -1.854450e-02 7.504883e-01 -9.335597e-02 5.433478e+00 9.547181e-01 -6.860407e-01 -3.055328e-01 -7.362387e-01 -6.062040e-01 6.168101e-01 -4.209552e-01 -1.093530e-02 -1.415745e-01 -8.607326e-03 3.438023e-01 -6.335560e-01 1.843312e+00
<VARIANCE> 39
 3.201269e+01 2.858845e+01 3.158125e+01 3.122132e+01 2.960154e+01 3.398676e+01 3.073651e+01 3.141872e+01 3.322478e+01 2.668173e+01 2.695345e+01 2.356768e+01 1.107804e+02 5.502267e+00 4.014791e+00 4.370094e+00 5.797566e+00 4.129363e+00 6.200925e+00 3.900743e+00 4.533288e+00 4.667324e+00 3.626403e+00 3.862070e+00 3.760636e+00 1.332390e+01 5.443968e-01 7.025193e-01 7.307555e-01 8.158001e-01 8.425270e-01 1.034688e+00 7.171428e-01 9.421974e-01 8.912515e-01 7.108102e-01 6.950026e-01 6.300535e-01 1.675921e+00
<GCONST> 1.348888e+02
<STATE> 4
<MEAN> 39
 -4.610681e+00 -5.641932e+00 -6.034895e+00 -7.857218e+00 -6.360194e+00 -1.164936e+00 -7.213156e+00 -4.808254e+00 -3.043079e+00 -1.647356e+00 1.897898e-01 -5.882565e+00 6.204562e+01 2.105628e+00 -2.080492e+00 -9.342740e-01 -1.873348e+00 -1.436531e+00 1.532333e+00 -1.091894e+00 1.315663e-01 -3.145434e-03 -1.367031e-02 9.519386e-01 -1.523321e+00 5.475056e+00 1.672782e-01 2.516681e-01 3.093691e-01 2.441048e-01 -2.574074e-01 1.243109e-01 -1.704898e-01 1.352205e-01 -3.370198e-02 -3.980422e-02 -1.660017e-01 -1.919627e-01 -9.828653e-01
<VARIANCE> 39
 5.313266e+01 3.563678e+01 4.147506e+01 6.405725e+01 3.580252e+01 7.321951e+01 3.590904e+01 3.917183e+01 3.997767e+01 3.024033e+01 3.535641e+01 4.191617e+01 1.023249e+02 5.489585e+00 6.637675e+00 5.986692e+00 7.309213e+00 5.793754e+00 9.060324e+00 4.738068e+00 6.383145e+00 6.017019e+00 4.444190e+00 4.624374e+00 5.319898e+00 1.692053e+01 1.054069e+00 7.479158e-01 6.684582e-01 1.225421e+00 1.041443e+00 1.115267e+00 7.214916e-01 7.684071e-01 8.226455e-01 6.489490e-01 8.535029e-01 7.119694e-01 1.852025e+00
<GCONST> 1.439303e+02
<TRANSP> 5
 0.000000e+00 1.000000e+00 0.000000e+00 0.000000e+00 0.000000e+00
 0.000000e+00 8.694341e-01 1.305660e-01 0.000000e+00 0.000000e+00
 0.000000e+00 0.000000e+00 5.524303e-01 4.475697e-01 0.000000e+00
 0.000000e+00 0.000000e+00 0.000000e+00 4.647587e-01 5.352413e-01
 0.000000e+00 0.000000e+00 0.000000e+00 0.000000e+00 0.000000e+00
<ENDHMM>
~h "q"
<BEGINHMM>
<NUMSTATES> 5
<STATE> 2
<MEAN> 39
 -8.517550e+00 -2.929643e+00 -5.195552e+00 -3.432343e+00 -1.020871e+01 -7.993695e+00 -1.160833e+01 -4.995458e+00 -1.031478e+01 -3.809408e-01 -4.986140e-02 -7.255624e-01 5.444138e+01 -1.316898e+00 -7.918993e-01 -2.832610e+00 -6.061375e-01 1.039324e+00 6.602917e-01 6.036359e-01 8.457273e-01 5.877323e-02 -4.091911e-01 -1.181493e+00 6.552605e-01 2.463143e+00 -2.076572e-01 5.985532e-01 5.469726e-01 2.114171e-01 -3.043105e-01 6.489921e-02 5.498179e-01 1.898966e-01 1.567060e-02 -3.131612e-01 8.998242e-02 -4.239007e-01 2.819763e-01
<VARIANCE> 39
 2.780020e+01 6.139953e+01 1.806632e+02 5.454908e+01 8.648423e+01 6.538497e+01 4.228248e+01 7.418816e+01 2.856522e+01 4.112312e+01 4.058313e+01 3.370931e+01 8.871667e+01 6.856013e+00 1.015603e+01 8.842090e+00 2.946535e+00 3.966344e+00 8.499195e+00 7.876297e+00 5.752823e+00 3.351182e+00 2.864406e+00 3.262204e+00 2.936239e+00 9.282965e+00 8.065377e-01 2.032251e+00 2.800919e+00 4.453993e-01 1.272090e+00 1.405621e+00 1.239774e+00 1.089635e+00 3.772763e-01 3.380372e-01 9.806069e-01 8.429680e-01 4.001267e+00
<GCONST> 1.461001e+02
<STATE> 3
<MEAN> 39
 -5.229202e+00 -6.572881e+00 6.138055e-01 -6.152441e+00 -1.323842e+01 -4.981187e+00 -7.328823e+00 6.372660e+00 -1.188705e+01 -3.453314e+00 -5.134431e+00 -4.758832e+00 6.582918e+01 -1.134312e+00 1.096791e+00 4.928878e-02 1.295440e-01 8.790839e-01 1.988526e-01 1.740048e+00 -3.727621e-01 7.102429e-01 -5.410771e-01 -2.732364e-02 1.072569e-01 4.855089e-01 -1.639855e-01 2.172194e-01 3.670061e-01 -1.285601e-01 7.356316e-03 3.737379e-02 -1.659077e-01 -1.345553e-01 3.025082e-01 -4.413386e-02 8.446170e-02 -9.488390e-02 -3.245438e-01
<VARIANCE> 39
 4.382043e+01 1.358366e+02 5.793197e+01 3.171212e+01 6.669601e+01 6.369722e+01 4.531729e+01 6.712312e+01 2.025230e+01 5.108270e+01 6.341064e+01 1.992334e+01 8.594644e+01 6.512891e+00 2.030692e+01 6.480370e+00 1.428833e+00 7.645509e+00 4.480493e+00 5.084231e+00 6.722711e+00 3.380074e+00 6.229298e+00 4.881640e+00 2.128231e+00 3.687138e+00 6.797925e-01 3.195466e+00 6.559839e-01 1.583298e-01 1.051553e+00 8.617783e-01 9.437199e-01 7.557708e-01 5.493438e-01 1.223394e+00 8.851155e-01 2.119046e-01 9.744843e-01
<GCONST> 1.396426e+02
<STATE> 4
<MEAN> 39
 -1.168699e+01 4.675070e-01 6.920128e+00 -2.062579e-01 -9.301033e+00 -5.423169e+00 -5.419808e+00 -2.121992e+00 -4.057576e+00 -1.180191e+00 -1.487090e+00 -3.281249e+00 5.629200e+01 1.921605e-02 -5.197559e-02 -2.601938e-02 3.348731e-02 1.424697e-01 1.854161e-01 -1.280352e-01 5.039911e-02 1.064071e-01 2.545219e-02 -3.107911e-02 -7.617345e-02 -2.635140e-01 9.715968e-02 -6.149259e-02 -2.858050e-02 -4.400365e-03 -7.537622e-03 8.025769e-03 -7.136128e-02 3.936856e-02 -6.909708e-02 5.700224e-02 -8.747801e-03 2.794443e-02 5.124851e-02
<VARIANCE> 39
 4.184525e+01 6.485247e+01 5.238367e+01 2.026402e+01 5.801840e+01 3.008983e+01 4.340771e+01 2.410458e+01 2.280964e+01 2.069894e+01 1.916327e+01 1.292307e+01 9.807839e+01 2.126780e+00 4.531006e+00 1.943668e+00 1.661412e+00 4.066595e+00 2.814567e+00 2.467279e+00 2.100180e+00 1.887787e+00 1.989591e+00 1.359791e+00 1.483693e+00 3.065763e+00 3.636777e-01 9.457564e-01 3.217086e-01 4.021091e-01 6.934722e-01 4.546493e-01 4.978333e-01 4.535480e-01 3.342023e-01 4.079204e-01 2.000854e-01 2.569521e-01 5.104519e-01
<GCONST> 1.165020e+02
<TRANSP> 5
 0.000000e+00 1.000000e+00 0.000000e+00 0.000000e+00 0.000000e+00
 0.000000e+00 5.798745e-01 4.201255e-01 0.000000e+00 0.000000e+00
 0.000000e+00 0.000000e+00 7.034603e-01 2.965397e-01 0.000000e+00
 0.000000e+00 0.000000e+00 0.000000e+00 9.461617e-01 5.383835e-02
 0.000000e+00 0.000000e+00 0.000000e+00 0.000000e+00 0.000000e+00
<ENDHMM>
~h "r"
<BEGINHMM>
<NUMSTATES> 5
<STATE> 2
<MEAN> 39
 -1.287638e+00 -8.001368e+00 -5.633227e+00 -2.969903e+00 -1.061767e+01 -5.334164e+00 -1.040163e+01 -3.275720e+00 8.498164e-01 -5.668514e-01 -1.773115e+00 -8.400658e+00 6.654895e+01 4.589874e-01 8.999221e-03 -2.737066e-03 1.337433e+00 -1.994485e-01 -4.646888e-01 -3.701759e-01 -5.271325e-01 4.217264e-01 1.516922e-01 -1.661157e-01 3.872607e-01 -5.579500e-01 6.625090e-03 -5.306224e-02 8.258449e-02 -1.725996e-01 -1.091239e-01 2.950164e-01 -1.444492e-01 1.483863e-01 -2.980865e-01 -7.803749e-02 1.294422e-01 -6.870180e-02 4.273693e-02
<VARIANCE> 39
 3.243826e+01 3.618651e+01 5.798505e+01 4.196165e+01 6.361951e+01 6.201263e+01 5.307017e+01 8.468141e+01 5.884067e+01 4.156926e+01 4.457428e+01 4.436123e+01 9.362038e+01 2.928669e+00 2.742991e+00 3.329209e+00 4.616665e+00 5.276125e+00 4.754247e+00 3.799959e+00 5.489822e+00 4.764612e+00 3.877489e+00 3.781151e+00 3.620130e+00 5.212068e+00 5.605618e-01 4.687634e-01 5.557045e-01 7.019549e-01 8.699343e-01 7.682968e-01 7.071793e-01 9.890990e-01 8.496346e-01 6.895196e-01 6.231683e-01 6.334400e-01 7.624599e-01
<GCONST> 1.366503e+02
<STATE> 3
<MEAN> 39
 1.043830e+00 -8.639545e+00 -5.530976e+00 4.475242e-01 -1.280595e+01 -5.364731e+00 -1.289658e+01 -4.840568e+00 1.335418e+00 -4.681486e-01 -1.163957e+00 -7.854913e+00 6.683561e+01 2.552384e-01 -8.842561e-02 3.498420e-01 3.662311e-01 -2.432882e-01 1.591913e-01 -5.349079e-01 2.907331e-01 -6.250348e-01 -9.026187e-02 1.848464e-01 1.672314e-01 -4.332542e-01 -2.098495e-01 2.053116e-03 1.714112e-01 -5.990482e-01 4.023550e-02 2.399917e-01 1.606170e-01 3.064505e-01 -4.116024e-01 -1.545309e-01 1.405450e-01 -1.418630e-01 2.004219e-01
<VARIANCE> 39
 2.155947e+01 2.960418e+01 6.818159e+01 3.757190e+01 6.695054e+01 5.868851e+01 5.620358e+01 7.783615e+01 6.597268e+01 4.259233e+01 4.419576e+01 3.866895e+01 5.432988e+01 2.007272e+00 2.662505e+00 3.457004e+00 3.016405e+00 5.313173e+00 4.590142e+00 3.911436e+00 6.027802e+00 5.004347e+00 3.951193e+00 3.805570e+00 3.244758e+00 3.563801e+00 4.093230e-01 5.160904e-01 5.356677e-01 6.405506e-01 1.160677e+00 8.673005e-01 7.838300e-01 1.039468e+00 9.921840e-01 7.738445e-01 8.076850e-01 6.236311e-01 7.040765e-01
<GCONST> 1.350439e+02
<STATE> 4
<MEAN> 39
 -2.892335e-01 -7.847234e+00 -4.087456e+00 -1.290975e+00 -1.161048e+01 -5.778746e+00 -1.223479e+01 -2.319777e+00 -1.929847e+00 -7.887949e-01 -1.452419e+00 -8.016590e+00 6.376417e+01 -1.958259e-01 2.306847e-01 4.779735e-01 -2.387368e-01 1.024208e-01 1.343018e-01 1.683261e-01 2.069370e-01 -6.795968e-01 -2.356998e-01 1.255390e-01 1.097391e-01 -4.450540e-01 -1.175996e-01 5.822015e-02 7.479764e-02 -1.568866e-01 2.749406e-02 9.816653e-02 1.143401e-01 4.989054e-03 -6.194741e-02 -6.848512e-02 1.211796e-02 -4.851875e-02 6.025604e-02
<VARIANCE> 39
 3.065462e+01 4.225997e+01 7.656303e+01 3.730031e+01 6.860358e+01 5.886473e+01 5.807759e+01 8.093271e+01 6.016743e+01 4.565543e+01 5.498810e+01 4.365772e+01 1.193406e+02 1.649162e+00 2.733798e+00 2.689245e+00 2.228741e+00 3.910964e+00 3.263717e+00 3.088572e+00 4.258360e+00 3.727583e+00 2.955546e+00 3.164767e+00 2.581528e+00 3.311526e+00 2.906475e-01 3.713146e-01 3.638610e-01 4.205792e-01 7.112846e-01 5.749271e-01 5.905554e-01 6.953828e-01 6.163858e-01 5.663758e-01 5.875065e-01 4.739687e-01 4.770747e-01
<GCONST> 1.292023e+02
<TRANSP> 5
 0.000000e+00 1.000000e+00 0.000000e+00 0.000000e+00 0.000000e+00
 0.000000e+00 4.907585e-01 5.092415e-01 0.000000e+00 0.000000e+00
 0.000000e+00 0.000000e+00 4.240023e-01 5.759977e-01 0.000000e+00
 0.000000e+00 0.000000e+00 0.000000e+00 6.438651e-01 3.561349e-01
 0.000000e+00 0.000000e+00 0.000000e+00 0.000000e+00 0.000000e+00
<ENDHMM>
~h "s"
<BEGINHMM>
<NUMSTATES> 5
<STATE> 2
<MEAN> 39
 -1.080865e+01 3.265000e+00 -2.040171e-01 -2.095844e+00 -4.378815e+00 -7.457570e+00 -6.618050e+00 -2.567153e+00 -3.573009e+00 -2.586474e+00 -4.716636e+00 -3.484816e+00 6.388521e+01 -4.047226e+00 2.012426e+00 -4.127505e-01 7.728428e-01 1.880455e+00 -3.717420e-01 1.489548e+00 4.312763e-01 5.188009e-01 -5.264090e-01 3.950018e-01 1.173210e+00 -5.603590e-01 -3.898318e-01 -5.434156e-01 -3.162318e-01 -2.424133e-01 -3.547596e-01 3.316571e-01 -2.177806e-01 5.488796e-02 -8.834708e-02 3.252129e-02 3.752438e-01 -1.144422e-01 4.551144e-02
<VARIANCE> 39
 6.831490e+01 4.929240e+01 5.063223e+01 3.437119e+01 5.280970e+01 4.701971e+01 6.028989e+01 5.554908e+01 4.372632e+01 3.699783e+01 4.379017e+01 3.291499e+01 8.358582e+01 4.032330e+00 5.881211e+00 3.775372e+00 3.347873e+00 4.475585e+00 4.903481e+00 4.273419e+00 5.645815e+00 3.747372e+00 3.322850e+00 3.673495e+00 2.945328e+00 3.019038e+00 9.102964e-01 9.250528e-01 4.285678e-01 5.082860e-01 7.284415e-01 6.297559e-01 7.578855e-01 7.061125e-01 6.420958e-01 5.932087e-01 5.691727e-01 4.955585e-01 3.016600e-01
<GCONST> 1.337359e+02
<STATE> 3
<MEAN> 39
 -2.741695e+01 3.917381e+00 -6.046741e+00 -1.840789e+00 -2.411248e+00 -6.308208e+00 -3.352845e+00 -7.827150e-01 -2.411023e+00 -2.501255e+00 -6.442103e-01 -1.028687e-01 6.257147e+01 -7.118145e-01 -5.187658e-01 -4.917633e-01 -2.257461e-01 -2.677432e-01 5.030500e-02 5.576665e-02 4.479671e-02 1.213280e-01 1.179746e-01 1.896832e-01 1.695493e-01 -2.184544e-01 9.376754e-01 -1.600737e-01 2.642323e-01 -7.686041e-02 -2.238163e-01 -8.203593e-02 -2.402519e-01 -1.352568e-01 -1.053179e-02 1.544767e-02 -2.046512e-01 -2.218528e-01 1.071782e-01
<VARIANCE> 39
 3.275438e+01 2.336861e+01 3.626832e+01 2.589749e+01 3.082398e+01 2.823508e+01 3.918621e+01 2.907622e+01 2.753319e+01 2.278476e+01 2.435340e+01 1.979008e+01 2.739972e+01 3.780778e+00 1.677635e+00 2.115473e+00 1.555344e+00 1.800471e+00 2.014060e+00 1.977849e+00 2.008377e+00 2.035989e+00 1.773145e+00 1.942642e+00 1.577513e+00 1.136267e+00 5.244638e-01 3.786595e-01 3.773285e-01 3.434761e-01 4.161867e-01 4.435233e-01 4.792246e-01 4.677673e-01 4.214075e-01 3.843261e-01 3.821199e-01 3.781913e-01 1.938197e-01
<GCONST> 1.108965e+02
<STATE> 4
<MEAN> 39
 -1.686530e+01 1.200328e-01 -4.009348e+00 -2.490806e+00 -3.879308e+00 -6.025489e+00 -4.827200e+00 -1.377921e+00 -1.654603e+00 -2.146721e+00 -2.129077e+00 -1.292871e+00 5.219536e+01 2.216441e+00 -3.269306e-01 4.538471e-01 -1.909654e-01 -5.507642e-01 8.083813e-03 -8.017561e-01 -4.187859e-01 -4.675455e-02 5.561182e-02 -3.506140e-01 -7.575756e-01 3.669369e-01 3.049406e-01 -7.704700e-02 6.205115e-02 -1.999459e-02 -1.084899e-01 1.461683e-01 -1.783034e-01 -4.758070e-02 -8.980455e-02 1.369582e-03 1.019258e-01 -1.518333e-01 1.916993e-01
<VARIANCE> 39
 7.725225e+01 3.351410e+01 3.514368e+01 2.804537e+01 2.955220e+01 3.510956e+01 3.888621e+01 3.158435e+01 2.801527e+01 2.392909e+01 2.647891e+01 2.433006e+01 1.678677e+02 1.015864e+01 3.015172e+00 3.215739e+00 2.565863e+00 2.907872e+00 3.414880e+00 3.997297e+00 3.606479e+00 2.953478e+00 2.476450e+00 2.586883e+00 3.038584e+00 4.621160e+00 9.139801e-01 4.731178e-01 3.967929e-01 3.904285e-01 4.690774e-01 5.766913e-01 6.252410e-01 6.115862e-01 5.074918e-01 4.539660e-01 4.800406e-01 4.560773e-01 4.510539e-01
<GCONST> 1.259100e+02
<TRANSP> 5
 0.000000e+00 1.000000e+00 0.000000e+00 0.000000e+00 0.000000e+00
 0.000000e+00 7.017090e-01 2.982910e-01 0.000000e+00 0.000000e+00
 0.000000e+00 0.000000e+00 8.430576e-01 1.569425e-01 0.000000e+00
 0.000000e+00 0.000000e+00 0.000000e+00 8.112734e-01 1.887266e-01
 0.000000e+00 0.000000e+00 0.000000e+00 0.000000e+00 0.000000e+00
<ENDHMM>
~h "t"
<BEGINHMM>
<NUMSTATES> 5
<STATE> 2
<MEAN> 39
 -5.870245e+00 1.474853e+00 -1.482624e+00 -2.339374e+00 -6.542574e+00 -5.866059e+00 -8.180587e+00 -4.717517e+00 -2.910682e+00 -1.445716e+00 -3.446592e+00 -5.020722e+00 4.442613e+01 -7.343566e-01 2.543269e-01 -1.025120e-01 3.715362e-02 3.059280e-01 -6.774741e-02 4.290184e-01 6.177390e-02 -4.867032e-03 -1.078303e-01 5.181447e-02 4.699017e-01 -1.708631e+00 -1.843740e-01 -3.912929e-01 -1.138636e-01 -2.000051e-01 -8.064324e-02 6.805899e-02 -1.360477e-02 8.656335e-02 4.920447e-03 -1.699563e-02 1.024487e-01 2.411719e-02 7.623663e-01
<VARIANCE> 39
 4.043482e+01 3.278304e+01 4.661761e+01 3.755052e+01 3.786692e+01 3.979226e+01 4.336576e+01 4.522672e+01 4.157423e+01 3.171883e+01 3.340699e+01 3.640067e+01 1.059798e+02 2.394657e+00 2.721552e+00 2.105644e+00 2.473979e+00 2.855889e+00 2.563698e+00 2.760618e+00 2.957009e+00 2.743524e+00 2.560328e+00 2.656480e+00 2.187910e+00 7.219975e+00 4.390258e-01 5.325087e-01 4.340488e-01 5.330048e-01 5.722917e-01 5.205030e-01 5.416410e-01 5.956948e-01 5.616716e-01 5.142403e-01 5.270067e-01 4.224454e-01 1.323236e+00
<GCONST> 1.257627e+02
<STATE> 3
<MEAN> 39
 -1.075868e+01 1.131037e-01 -1.792382e+00 -2.545475e+00 -5.351386e+00 -5.816656e+00 -6.377279e+00 -4.154640e+00 -3.196205e+00 -2.061991e+00 -2.521567e+00 -2.470842e+00 4.534365e+01 -1.400905e+00 -2.056531e+00 -9.421063e-01 -1.171794e+00 2.046195e-01 -1.688449e-01 8.715858e-02 4.683926e-01 3.361777e-01 -2.200246e-01 2.199588e-01 3.103473e-01 4.901412e+00 8.263925e-01 -2.525576e-01 5.740941e-03 -2.816676e-01 -5.306998e-01 5.318962e-02 -5.741798e-01 -5.082675e-02 8.112820e-02 3.921610e-02 -5.516579e-02 -6.131351e-01 1.641481e+00
<VARIANCE> 39
 4.197813e+01 3.948956e+01 3.771219e+01 3.274021e+01 3.360423e+01 3.602617e+01 3.464375e+01 3.413343e+01 3.382760e+01 2.703036e+01 2.601148e+01 2.351280e+01 1.317590e+02 4.512343e+00 4.151820e+00 4.800261e+00 3.911126e+00 4.399375e+00 4.480616e+00 4.119522e+00 4.325707e+00 4.764376e+00 3.547921e+00 3.680012e+00 3.436363e+00 1.423577e+01 7.590918e-01 7.649940e-01 8.157657e-01 6.858904e-01 8.042282e-01 9.504248e-01 7.567928e-01 9.304837e-01 8.540261e-01 7.050202e-01 6.633910e-01 6.471004e-01 1.934258e+00
<GCONST> 1.358067e+02
<STATE> 4
<MEAN> 39
 -1.023657e+01 -5.630662e+00 -4.828701e+00 -6.929975e+00 -6.806366e+00 -7.114865e+00 -8.786519e+00 -2.977150e+00 -1.694653e+00 -2.231635e+00 -3.094607e+00 -4.339546e+00 6.422703e+01 1.970582e+00 -1.160857e+00 -1.179373e-01 -1.033121e+00 -1.322819e+00 4.451370e-01 -1.691735e+00 7.957932e-02 3.580062e-01 8.772753e-02 2.432519e-01 -1.765735e+00 5.358001e+00 8.457713e-01 4.242655e-01 4.258367e-01 2.729395e-01 -3.979360e-01 5.385697e-01 -3.111638e-01 -1.365205e-01 -2.297517e-01 3.770620e-02 2.150384e-01 -3.723186e-01 -1.144568e+00
<VARIANCE> 39
 4.224051e+01 2.877693e+01 4.047119e+01 3.087247e+01 3.438855e+01 4.425224e+01 4.379634e+01 3.677992e+01 4.172290e+01 3.030841e+01 3.228937e+01 3.895213e+01 8.266262e+01 5.033045e+00 5.015799e+00 6.588691e+00 4.858541e+00 5.344897e+00 6.844571e+00 5.209469e+00 7.228843e+00 6.829894e+00 4.460297e+00 4.985539e+00 4.661336e+00 1.423576e+01 9.863157e-01 7.324958e-01 9.001808e-01 6.166022e-01 9.518839e-01 9.795661e-01 1.020342e+00 1.066580e+00 8.394378e-01 7.327612e-01 7.695711e-01 7.975380e-01 1.428350e+00
<GCONST> 1.409413e+02
<TRANSP> 5
 0.000000e+00 1.000000e+00 0.000000e+00 0.000000e+00 0.000000e+00
 0.000000e+00 8.430975e-01 1.569025e-01 0.000000e+00 0.000000e+00
 0.000000e+00 0.000000e+00 5.235118e-01 4.764883e-01 0.000000e+00
 0.000000e+00 0.000000e+00 0.000000e+00 4.789630e-01 5.210370e-01
 0.000000e+00 0.000000e+00 0.000000e+00 0.000000e+00 0.000000e+00
<ENDHMM>
~h "u"
<BEGINHMM>
<NUMSTATES> 5
<STATE> 2
<MEAN> 39
 -1.310778e+00 8.800574e-02 -2.051562e+00 -6.476919e+00 -1.071764e+01 -2.533555e+00 -1.374468e+01 -7.509418e+00 -6.525387e+00 -2.524584e+00 6.008977e-01 -5.713748e+00 6.138455e+01 1.819244e+00 4.485499e-01 -3.689516e-01 -1.488101e+00 -1.655829e+00 1.703435e+00 -1.285522e+00 -9.987214e-01 -7.182494e-01 -1.005601e-01 1.516484e+00 -6.068268e-01 1.335137e+00 -1.842716e-01 5.207381e-02 9.180285e-02 -1.219116e-01 -6.860422e-02 3.376210e-01 2.331927e-01 1.278021e-01 -6.004711e-02 -5.845955e-02 4.649574e-02 4.229547e-02 -3.194537e-01
<VARIANCE> 39
 4.364526e+01 4.049961e+01 6.587095e+01 8.154810e+01 6.232417e+01 7.296800e+01 7.883618e+01 7.521647e+01 5.466250e+01 4.886171e+01 4.524964e+01 4.069585e+01 1.319604e+02 5.970128e+00 3.519196e+00 4.954898e+00 6.044878e+00 6.886498e+00 6.304167e+00 6.029259e+00 7.577807e+00 5.444453e+00 4.830392e+00 4.985084e+00 4.253549e+00 6.343486e+00 8.575271e-01 6.086023e-01 6.617518e-01 9.951453e-01 9.461444e-01 9.234310e-01 1.157103e+00 1.029358e+00 9.124676e-01 7.830362e-01 7.443498e-01 7.364401e-01 1.306566e+00
<GCONST> 1.456548e+02
<STATE> 3
<MEAN> 39
 3.181942e+00 4.743661e-01 -4.401442e+00 -1.176810e+01 -1.664676e+01 5.842370e+00 -1.656638e+01 -1.207965e+01 -8.324162e+00 -4.495886e+00 6.361557e+00 -6.373604e+00 6.712204e+01 3.355130e-01 1.837411e-01 -2.421486e-02 -6.998318e-01 -4.660287e-01 1.135786e+00 -2.172116e-01 -1.953813e-01 -4.272819e-01 -1.499894e-01 6.534700e-01 -5.843126e-02 3.803471e-02 -4.323736e-01 -5.105019e-02 2.388595e-01 6.276174e-01 6.809884e-01 -8.215423e-01 4.357589e-01 4.446338e-01 2.649334e-01 1.286837e-01 -7.812994e-01 6.880446e-02 -5.009638e-01
<VARIANCE> 39
 1.455828e+01 3.509762e+01 3.986818e+01 8.125401e+01 5.370457e+01 6.948960e+01 7.353899e+01 1.028593e+02 6.933930e+01 6.464520e+01 4.683786e+01 4.405209e+01 2.726732e+01 1.103719e+00 3.013666e+00 2.074603e+00 5.923342e+00 4.713916e+00 5.488236e+00 4.759878e+00 5.766582e+00 4.746803e+00 4.671044e+00 4.264712e+00 3.247502e+00 2.346974e+00 3.753923e-01 4.511593e-01 4.562906e-01 7.753367e-01 8.376991e-01 7.919497e-01 9.545074e-01 1.168306e+00 8.997516e-01 9.291328e-01 7.887146e-01 7.528144e-01 3.686878e-01
<GCONST> 1.345400e+02
<STATE> 4
<MEAN> 39
 3.087235e+00 2.437259e+00 -3.483908e+00 -1.336001e+01 -1.506619e+01 4.991697e+00 -1.583767e+01 -8.458048e+00 -9.470479e+00 -3.978946e+00 3.283504e+00 -6.876860e+00 6.382415e+01 -1.806160e-01 -4.906413e-02 3.320768e-01 8.001931e-01 6.518886e-01 -7.690508e-01 4.674596e-01 1.278359e-01 3.903239e-01 3.477035e-01 -7.701361e-01 -2.424037e-02 -7.710204e-01 -1.504828e-01 -5.811094e-02 1.061073e-01 2.905391e-01 1.751637e-01 -2.312811e-01 1.529192e-01 1.665417e-03 1.270994e-01 4.506915e-02 -1.962775e-01 4.179594e-02 -1.528810e-01
<VARIANCE> 39
 1.593863e+01 4.565571e+01 4.686208e+01 8.177102e+01 5.274795e+01 7.305626e+01 6.202073e+01 7.742431e+01 6.118618e+01 6.395174e+01 5.063280e+01 4.195005e+01 5.853413e+01 9.097085e-01 2.335704e+00 1.986784e+00 3.470284e+00 3.240607e+00 3.387135e+00 3.223792e+00 3.838574e+00 3.188276e+00 3.403875e+00 3.646831e+00 2.802942e+00 2.996505e+00 1.707124e-01 3.526681e-01 2.980659e-01 4.758811e-01 5.029557e-01 5.102594e-01 5.903986e-01 6.713834e-01 5.482215e-01 6.315894e-01 6.129691e-01 5.069849e-01 3.192574e-01
<GCONST> 1.262371e+02
<TRANSP> 5
 0.000000e+00 1.000000e+00 0.000000e+00 0.000000e+00 0.000000e+00
 0.000000e+00 5.514404e-01 4.485596e-01 0.000000e+00 0.000000e+00
 0.000000e+00 0.000000e+00 6.035875e-01 3.964125e-01 0.000000e+00
 0.000000e+00 0.000000e+00 0.000000e+00 7.918466e-01 2.081534e-01
 0.000000e+00 0.000000e+00 0.000000e+00 0.000000e+00 0.000000e+00
<ENDHMM>
~h "w"
<BEGINHMM>
<NUMSTATES> 5
<STATE> 2
<MEAN> 39
 6.798040e-01 -1.501685e+00 -4.523160e+00 -1.021855e+01 -1.101880e+01 2.669120e+00 -1.098961e+01 -4.589945e+00 -6.833426e+00 -1.625177e+00 1.549192e+00 -7.019989e+00 5.819669e+01 1.275535e+00 5.675523e-01 -2.990912e-01 -1.590565e+00 -9.168970e-01 1.357574e+00 -2.135324e-01 -3.698213e-01 -6.672132e-01 -2.068228e-01 8.830256e-01 1.157712e-01 6.755500e-01 -1.723302e-01 -1.065438e-01 1.439508e-01 -8.061577e-02 -1.508362e-01 -4.909755e-02 1.443297e-01 2.231002e-01 7.131207e-02 -1.423298e-01 -7.196586e-02 8.358390e-02 9.459075e-02
<VARIANCE> 39
 4.563577e+01 6.103140e+01 5.346785e+01 8.067295e+01 6.800163e+01 7.069431e+01 7.494168e+01 6.070651e+01 6.104681e+01 5.281523e+01 5.518005e+01 4.166868e+01 1.779265e+02 2.952074e+00 3.087448e+00 3.741379e+00 4.286073e+00 5.250676e+00 4.533352e+00 4.196332e+00 4.626714e+00 4.008433e+00 3.858849e+00 3.827415e+00 3.321378e+00 5.726928e+00 6.031289e-01 5.114332e-01 5.734280e-01 7.867348e-01 8.525386e-01 7.665616e-01 7.813799e-01 7.868599e-01 7.611299e-01 7.444392e-01 7.194027e-01 5.437930e-01 5.181942e-01
<GCONST> 1.389787e+02
<STATE> 3
<MEAN> 39
 5.805264e+00 -1.448205e+00 -5.430187e+00 -2.043435e+01 -1.733189e+01 9.889158e+00 -1.192779e+01 -3.761185e+00 -5.900853e+00 -4.180295e+00 4.521792e+00 -5.655484e+00 6.655857e+01 -1.172594e-01 -5.461199e-01 -2.688245e-01 -5.395878e-01 1.543610e-01 5.226964e-01 9.657064e-02 2.135114e-02 2.486048e-01 1.705314e-01 1.718093e-01 -1.033706e-01 5.396839e-01 -2.597061e-01 -4.216819e-01 -7.789417e-02 4.438897e-01 4.439951e-01 -2.006754e-01 -8.992624e-02 7.255152e-03 2.387066e-01 2.647345e-01 -2.081510e-01 -3.844414e-01 2.015550e-01
<VARIANCE> 39
 1.261870e+01 3.865486e+01 3.415514e+01 5.857396e+01 4.913649e+01 5.015292e+01 4.136208e+01 6.240043e+01 6.160932e+01 5.464967e+01 4.170621e+01 3.343739e+01 2.875470e+01 6.338553e-01 3.544160e+00 1.552985e+00 2.159654e+00 3.314703e+00 2.436358e+00 2.086991e+00 2.081353e+00 2.456279e+00 3.214566e+00 2.574886e+00 2.770532e+00 1.974428e+00 7.371709e-02 2.078416e-01 2.413025e-01 3.168741e-01 3.721758e-01 5.307330e-01 3.629988e-01 4.453025e-01 4.429598e-01 4.572260e-01 5.356939e-01 4.173565e-01 1.667237e-01
<GCONST> 1.150634e+02
<STATE> 4
<MEAN> 39
 2.245552e+00 -8.084790e+00 -8.249513e+00 -1.944535e+01 -1.168529e+01 1.210256e+01 -1.235720e+01 -3.420079e+00 -3.815976e+00 -1.944854e+00 2.890851e+00 -1.135097e+01 7.169743e+01 -5.212369e-01 -9.817717e-01 -1.162031e-01 9.897786e-01 1.006173e+00 -5.668207e-01 -2.468485e-01 3.010889e-01 5.293156e-01 2.357965e-01 -8.364000e-01 -9.484679e-01 4.883137e-01 1.535676e-02 1.715838e-01 1.837788e-01 1.813401e-01 -1.947319e-01 -3.357896e-01 -1.641363e-02 1.775295e-01 -1.465576e-02 -1.798104e-01 -1.747523e-01 1.822751e-01 -1.525655e-01
<VARIANCE> 39
 1.622563e+01 6.702115e+01 3.538096e+01 5.860906e+01 7.027137e+01 5.471576e+01 4.315486e+01 5.444578e+01 6.255935e+01 6.501910e+01 5.285910e+01 4.965222e+01 3.391983e+01 4.230958e-01 1.752057e+00 8.924814e-01 1.916573e+00 2.378193e+00 2.194991e+00 1.624444e+00 2.030959e+00 1.910336e+00 1.892600e+00 2.461119e+00 2.275256e+00 7.748789e-01 5.458443e-02 1.751904e-01 1.618076e-01 2.214601e-01 3.379946e-01 3.441223e-01 2.639035e-01 3.466079e-01 2.511855e-01 3.811472e-01 3.837291e-01 3.247399e-01 8.719439e-02
<GCONST> 1.084761e+02
<TRANSP> 5
 0.000000e+00 1.000000e+00 0.000000e+00 0.000000e+00 0.000000e+00
 0.000000e+00 6.904891e-01 3.095109e-01 0.000000e+00 0.000000e+00
 0.000000e+00 0.000000e+00 7.894890e-01 2.105110e-01 0.000000e+00
 0.000000e+00 0.000000e+00 0.000000e+00 7.589548e-01 2.410452e-01
 0.000000e+00 0.000000e+00 0.000000e+00 0.000000e+00 0.000000e+00
<ENDHMM>
~h "y"
<BEGINHMM>
<NUMSTATES> 5
<STATE> 2
<MEAN> 39
 -6.112554e+00 -3.664728e+00 5.950879e+00 -5.574312e+00 -1.394096e+01 -5.394109e+00 -1.008211e+01 1.824784e+00 -7.282442e+00 -4.155217e+00 -1.471574e-01 -5.678260e+00 5.920006e+01 -9.194501e-02 5.505549e-01 2.061209e+00 -2.579303e-01 -1.494622e+00 -6.129956e-01 -9.167048e-01 -9.620432e-03 -8.315043e-01 -2.095745e-01 1.398205e+00 3.671553e-01 7.992836e-01 3.210461e-02 -3.541867e-02 -8.952998e-02 -4.362661e-02 1.139614e-01 2.120633e-01 -1.593509e-01 -2.445207e-01 2.411169e-02 1.841974e-02 4.690746e-02 -5.445236e-03 9.572121e-02
<VARIANCE> 39
 3.307717e+01 8.777709e+01 8.675701e+01 4.397843e+01 7.205365e+01 6.295963e+01 6.808807e+01 8.188051e+01 6.125241e+01 5.023767e+01 5.229558e+01 3.633819e+01 2.330755e+02 2.147048e+00 3.258214e+00 4.447960e+00 2.376100e+00 4.254268e+00 4.399652e+00 5.129569e+00 4.468869e+00 3.866479e+00 4.061986e+00 3.591095e+00 3.085192e+00 5.519871e+00 3.327242e-01 4.786828e-01 7.025737e-01 4.193796e-01 7.984065e-01 7.117271e-01 8.357242e-01 7.939525e-01 6.668909e-01 6.164029e-01 6.477317e-01 4.850887e-01 5.028698e-01
<GCONST> 1.364401e+02
<STATE> 3
<MEAN> 39
 -5.339272e+00 -3.578802e+00 1.481231e+01 -7.396760e+00 -2.196457e+01 -7.000731e+00 -1.706297e+01 3.323082e-01 -9.897082e+00 -5.745251e+00 6.864956e+00 -4.958266e+00 6.993880e+01 1.055227e-01 -7.433617e-01 -5.913122e-01 -2.636809e-01 -3.950102e-01 -2.550751e-01 2.998111e-01 6.402794e-01 5.697574e-01 2.801756e-01 3.133658e-02 -3.679116e-02 7.252473e-01 9.372514e-02 -2.895153e-01 -6.547041e-01 9.802707e-03 3.564343e-01 1.219068e-01 3.585168e-01 3.364037e-01 3.179529e-01 1.759701e-03 -5.036343e-01 -2.116972e-01 -1.329037e-02
<VARIANCE> 39
 1.413961e+01 4.454621e+01 5.874815e+01 3.813271e+01 4.054094e+01 5.915553e+01 5.638627e+01 6.502184e+01 5.092818e+01 6.550433e+01 3.326192e+01 3.145361e+01 4.435275e+01 5.086735e-01 2.686258e+00 4.210069e+00 1.202942e+00 1.979539e+00 1.862617e+00 3.488150e+00 4.242232e+00 3.228083e+00 2.124464e+00 2.449880e+00 1.654931e+00 1.600168e+00 8.134409e-02 2.040567e-01 2.532524e-01 2.084456e-01 4.935327e-01 4.215431e-01 5.019299e-01 4.862524e-01 4.179752e-01 4.728782e-01 4.208221e-01 2.924889e-01 1.622176e-01
<GCONST> 1.148580e+02
<STATE> 4
<MEAN> 39
 -7.226203e+00 -5.587906e+00 1.844426e+00 -4.130810e+00 -1.177637e+01 -5.240295e+00 -6.800752e+00 2.415562e+00 -3.850372e+00 -2.708717e+00 -2.667779e-01 -3.167758e+00 5.502743e+01 8.409649e-02 -4.162591e-01 -8.446181e-01 1.105845e-02 6.251540e-01 3.008281e-01 3.334326e-01 4.491665e-01 3.881618e-01 -1.567515e-01 -7.466788e-01 -3.002401e-01 3.383056e-02 6.606785e-03 4.876997e-02 -1.970622e-02 3.330486e-02 1.855589e-01 1.327187e-01 -1.164228e-01 -1.587713e-01 -6.720323e-02 -4.037576e-02 -8.043092e-02 -3.772876e-02 -5.108846e-02
<VARIANCE> 39
 2.826390e+01 5.885023e+01 4.515768e+01 4.086427e+01 1.074136e+02 3.895490e+01 4.819079e+01 6.894449e+01 4.031356e+01 3.413695e+01 3.545146e+01 3.127732e+01 3.151765e+02 3.857741e-01 1.443928e+00 2.462560e+00 9.285399e-01 1.968470e+00 1.525574e+00 2.032420e+00 2.531542e+00 2.001168e+00 1.816824e+00 2.935787e+00 1.464707e+00 6.655829e-01 5.920104e-02 1.486155e-01 1.698959e-01 1.806827e-01 3.358015e-01 3.211547e-01 3.293208e-01 4.625545e-01 3.434620e-01 3.356306e-01 3.294047e-01 2.473446e-01 8.584320e-02
<GCONST> 1.089263e+02
<TRANSP> 5
 0.000000e+00 1.000000e+00 0.000000e+00 0.000000e+00 0.000000e+00
 0.000000e+00 7.195452e-01 2.804548e-01 0.000000e+00 0.000000e+00
 0.000000e+00 0.000000e+00 7.996266e-01 2.003734e-01 0.000000e+00
 0.000000e+00 0.000000e+00 0.000000e+00 8.021453e-01 1.978548e-01
 0.000000e+00 0.000000e+00 0.000000e+00 0.000000e+00 0.000000e+00
<ENDHMM>
~h "z"
<BEGINHMM>
<NUMSTATES> 5
<STATE> 2
<MEAN> 39
 -9.435549e+00 6.675545e+00 2.375726e+00 1.122478e+00 -6.014784e+00 -1.071460e+01 -1.075764e+01 -5.245048e+00 -3.508236e+00 -2.445399e+00 -3.629420e+00 -2.474804e+00 6.486707e+01 -2.120516e+00 2.194528e+00 -3.281984e-01 9.163189e-01 1.494462e+00 -3.211944e-01 9.656404e-01 6.749214e-02 1.837204e-01 -1.857649e-01 -1.213085e-01 8.388643e-01 -5.484309e-01 -7.910794e-02 -3.261672e-01 -5.930236e-02 -1.596460e-01 -2.157623e-01 3.883055e-01 -6.797267e-02 1.948524e-01 -6.469353e-02 -2.332428e-02 1.960982e-01 -1.980090e-01 2.027274e-02
<VARIANCE> 39
 4.116664e+01 4.622364e+01 4.557164e+01 3.943961e+01 5.268965e+01 4.044921e+01 6.723788e+01 4.271069e+01 4.788855e+01 2.768858e+01 3.588803e+01 2.543140e+01 7.256238e+01 2.751348e+00 3.221370e+00 2.740280e+00 2.524935e+00 3.366466e+00 3.755740e+00 3.644222e+00 4.351555e+00 2.866648e+00 2.494744e+00 2.797607e+00 2.201785e+00 2.434928e+00 4.089901e-01 5.378873e-01 4.226663e-01 3.343462e-01 5.289176e-01 5.453683e-01 6.762949e-01 5.779955e-01 4.960013e-01 4.479727e-01 4.796656e-01 3.844309e-01 2.859704e-01
<GCONST> 1.246324e+02
<STATE> 3
<MEAN> 39
 -1.910542e+01 1.110504e+01 6.544725e-01 3.979678e+00 -2.715287e+00 -8.543355e+00 -7.531547e+00 -3.812066e+00 -3.806655e+00 -2.905470e+00 -2.091657e+00 -5.639254e-01 6.467836e+01 1.023608e-01 -6.571807e-01 -2.205805e-02 -2.347808e-01 -4.448164e-01 -1.385178e-01 -1.736800e-01 -9.017976e-02 3.401591e-02 4.087540e-02 1.569041e-01 9.871382e-02 3.804508e-01 6.998718e-01 -4.978555e-01 9.373368e-02 -2.642923e-01 -4.650097e-01 -1.303719e-01 -2.771728e-01 -8.855209e-02 7.391323e-02 1.072211e-02 -8.985057e-03 -1.502768e-01 2.457351e-01
<VARIANCE> 39
 4.650008e+01 3.413807e+01 3.520639e+01 3.593347e+01 3.395763e+01 3.646547e+01 4.298448e+01 3.418716e+01 2.616476e+01 1.941837e+01 2.492053e+01 1.867337e+01 3.713993e+01 4.927471e+00 2.441710e+00 1.767333e+00 1.855270e+00 2.734099e+00 2.390980e+00 2.397512e+00 2.060462e+00 2.169368e+00 1.604473e+00 1.527723e+00 1.370269e+00 1.530018e+00 4.496739e-01 3.940579e-01 2.937673e-01 3.308834e-01 4.131340e-01 4.550620e-01 4.360175e-01 4.642068e-01 4.114235e-01 3.331264e-01 2.996639e-01 3.282865e-01 1.874181e-01
<GCONST> 1.128425e+02
<STATE> 4
<MEAN> 39
 -1.169604e+01 -1.590871e+00 -1.695110e+00 -5.842869e-01 -4.648891e+00 -7.242855e+00 -6.200818e+00 -2.537184e+00 -3.690720e+00 -2.646073e+00 -1.076652e+00 -1.249762e+00 4.849126e+01 4.744467e-01 -3.769044e-01 7.417388e-02 -1.718273e-01 -3.877487e-01 -2.314334e-02 -2.669293e-01 -5.747984e-02 1.103465e-01 3.084582e-02 6.054456e-02 -1.418279e-01 2.698700e-01 3.243588e-02 -4.815372e-02 1.890559e-03 -1.949031e-02 -3.301105e-02 9.799374e-02 -3.425462e-02 3.182662e-02 4.694907e-03 -6.339456e-03 1.669466e-02 -9.169611e-02 2.867102e-02
<VARIANCE> 39
 3.302149e+01 6.342295e+01 3.277614e+01 2.614691e+01 2.929720e+01 3.875776e+01 3.876939e+01 3.505152e+01 2.545337e+01 2.338038e+01 2.662069e+01 1.877118e+01 1.553858e+02 3.025745e+00 3.008289e+00 1.403178e+00 1.819685e+00 2.632302e+00 2.157210e+00 2.366843e+00 2.532597e+00 2.297510e+00 1.822663e+00 1.852549e+00 1.737031e+00 2.189225e+00 2.493662e-01 2.720455e-01 2.196245e-01 2.519867e-01 2.945896e-01 4.459935e-01 3.792153e-01 4.656049e-01 3.757943e-01 3.574069e-01 3.673477e-01 3.470369e-01 2.167421e-01
<GCONST> 1.130884e+02
<TRANSP> 5
 0.000000e+00 1.000000e+00 0.000000e+00 0.000000e+00 0.000000e+00
 0.000000e+00 7.459830e-01 2.540171e-01 0.000000e+00 0.000000e+00
 0.000000e+00 0.000000e+00 8.290928e-01 1.709072e-01 0.000000e+00
 0.000000e+00 0.000000e+00 0.000000e+00 8.579981e-01 1.420019e-01
 0.000000e+00 0.000000e+00 0.000000e+00 0.000000e+00 0.000000e+00
<ENDHMM>
~h "ai"
<BEGINHMM>
<NUMSTATES> 5
<STATE> 2
<MEAN> 39
 -5.806658e-01 -1.468065e+01 -5.555271e+00 -9.288198e+00 -1.164751e+01 -9.163834e-01 -1.284590e+01 4.505038e+00 -1.281219e+00 -2.828581e+00 -2.405469e+00 -1.276981e+01 7.543703e+01 -3.022651e-01 -1.483006e+00 3.955682e-01 2.103072e-02 -6.212790e-01 -3.064930e-01 4.835988e-01 2.209288e+00 1.816978e-01 -1.231710e+00 -6.113198e-01 2.565042e-02 1.058254e+00 -2.886153e-01 5.750299e-01 4.556242e-01 3.021484e-01 -4.204670e-02 -2.913375e-01 3.563060e-01 -4.122190e-01 -4.760036e-01 2.053187e-02 1.041434e-01 6.403010e-01 -6.479104e-01
<VARIANCE> 39
 1.524209e+01 3.115821e+01 5.241687e+01 2.884180e+01 5.929652e+01 1.045015e+02 5.508361e+01 7.757956e+01 7.024952e+01 5.717616e+01 6.386157e+01 3.874552e+01 1.810693e+01 1.388524e+00 1.875960e+00 2.772117e+00 2.510023e+00 3.733189e+00 5.590505e+00 3.470830e+00 3.823026e+00 3.632895e+00 2.878057e+00 3.491294e+00 3.282487e+00 1.187372e+00 3.846866e-01 2.982685e-01 3.874816e-01 4.566543e-01 7.606439e-01 7.168299e-01 6.007472e-01 7.803049e-01 6.605903e-01 6.216046e-01 8.315769e-01 4.892667e-01 3.650369e-01
<GCONST> 1.266820e+02
<STATE> 3
<MEAN> 39
 -3.308187e+00 -1.599121e+01 1.614460e-01 -9.981660e+00 -1.731092e+01 -6.909374e+00 -8.399996e+00 8.145755e+00 -3.633322e+00 -7.135769e+00 -4.788542e-01 -9.358728e+00 7.608994e+01 -2.479747e-01 6.689214e-01 1.418827e+00 -1.102160e-01 -1.463558e+00 -8.536931e-01 1.927879e-01 -4.263084e-02 -9.240662e-01 4.016516e-01 1.044703e+00 3.853001e-01 -2.891479e-01 2.149854e-02 2.964376e-01 7.346673e-02 2.564862e-02 8.596022e-02 4.901771e-02 -2.668492e-01 -4.678231e-01 -7.766963e-02 2.514398e-01 1.042280e-01 -6.249110e-02 -1.901109e-01
<VARIANCE> 39
 1.367649e+01 3.223919e+01 4.697596e+01 2.792129e+01 6.260223e+01 7.711837e+01 3.475533e+01 6.632074e+01 5.726991e+01 5.289951e+01 5.768869e+01 2.474616e+01 1.145078e+01 1.824714e-01 9.444682e-01 1.441883e+00 7.725663e-01 1.917646e+00 1.856121e+00 1.836022e+00 2.642705e+00 1.673282e+00 1.982167e+00 2.148871e+00 1.661680e+00 2.079907e-01 4.340946e-02 1.120921e-01 1.602519e-01 1.613966e-01 3.502924e-01 3.290190e-01 2.735095e-01 4.393833e-01 2.759366e-01 3.189220e-01 3.899536e-01 2.645211e-01 5.112031e-02
<GCONST> 1.000528e+02
<STATE> 4
<MEAN> 39
 -3.862498e+00 -5.520152e+00 1.061773e+01 -7.652933e+00 -2.259714e+01 -8.411274e+00 -1.291122e+01 2.311874e+00 -1.097104e+01 -2.251527e+00 4.097406e+00 -7.750751e+00 6.796102e+01 5.892355e-02 9.309323e-01 2.368951e-01 6.246777e-01 6.255799e-01 -1.956326e-02 -8.552289e-02 -8.958192e-01 -2.329290e-01 -2.969821e-02 -2.504513e-01 7.655942e-02 -1.257286e+00 5.821373e-02 -1.010880e-03 -3.017022e-01 1.206315e-01 3.686887e-01 8.607001e-02 1.606313e-01 6.171480e-02 1.920062e-01 -8.839320e-02 -2.541285e-01 -1.818772e-02 -1.819264e-01
<VARIANCE> 39
 1.645319e+01 4.497626e+01 4.722341e+01 3.733804e+01 3.631848e+01 6.248161e+01 5.037475e+01 7.536366e+01 4.654642e+01 5.098672e+01 4.750163e+01 3.416437e+01 7.413241e+01 6.501648e-01 1.458702e+00 2.139993e+00 1.451723e+00 2.191075e+00 1.930267e+00 3.041543e+00 2.741952e+00 2.609067e+00 2.035391e+00 2.159498e+00 1.447115e+00 1.369370e+00 1.162171e-01 2.302648e-01 2.282911e-01 2.409854e-01 3.853902e-01 3.756527e-01 4.772376e-01 4.616766e-01 4.104947e-01 3.825619e-01 3.805207e-01 2.908066e-01 2.297904e-01
<GCONST> 1.134754e+02
<TRANSP> 5
 0.000000e+00 1.000000e+00 0.000000e+00 0.000000e+00 0.000000e+00
 0.000000e+00 6.490452e-01 3.509548e-01 0.000000e+00 0.000000e+00
 0.000000e+00 0.000000e+00 8.173681e-01 1.826319e-01 0.000000e+00
 0.000000e+00 0.000000e+00 0.000000e+00 8.637126e-01 1.362874e-01
 0.000000e+00 0.000000e+00 0.000000e+00 0.000000e+00 0.000000e+00
<ENDHMM>
~h "au"
<BEGINHMM>
<NUMSTATES> 5
<STATE> 2
<MEAN> 39
 -5.323975e+00 -4.425313e+00 -7.090694e+00 -7.112363e+00 -5.613309e+00 9.140739e-01 -8.618105e+00 -4.106042e+00 -1.597085e+00 -5.327073e-01 -1.534100e+00 -6.134062e+00 5.392678e+01 -1.878196e-01 -1.222952e-02 -1.833168e-01 -2.886762e-01 5.007821e-01 3.919524e-01 4.558485e-02 1.005908e-01 -1.076943e-01 -1.214617e-01 2.241225e-01 -2.199728e-01 -1.901236e-01 9.642891e-03 1.883689e-01 1.966575e-01 -3.842777e-03 -5.347268e-02 -1.137445e-01 2.021893e-02 -1.684905e-01 -1.789930e-01 3.200880e-02 1.673533e-01 2.156760e-01 -1.794367e-01
<VARIANCE> 39
 3.474134e+01 6.166089e+01 4.497014e+01 7.648714e+01 4.055650e+01 7.318089e+01 3.853751e+01 4.765808e+01 4.438712e+01 3.481659e+01 2.951992e+01 5.116300e+01 3.760713e+02 4.422348e-01 1.276842e+00 1.151611e+00 1.610500e+00 1.998626e+00 2.584676e+00 2.000082e+00 2.117874e+00 2.069261e+00 2.165737e+00 1.908895e+00 1.917551e+00 8.119993e-01 1.574132e-01 2.319085e-01 2.514100e-01 2.565823e-01 3.191662e-01 3.795857e-01 4.029169e-01 4.338009e-01 4.465850e-01 4.318047e-01 4.247878e-01 4.330488e-01 1.876659e-01
<GCONST> 1.143970e+02
<STATE> 3
<MEAN> 39
 -1.702377e+00 -1.144040e+01 -1.288320e+01 -1.667598e+01 -8.016481e+00 9.515073e+00 -1.147846e+01 -5.987128e+00 2.813169e-01 -1.652056e+00 5.209758e-01 -1.362546e+01 7.490811e+01 3.562609e-01 6.975310e-01 -4.423129e-02 -1.038387e+00 -1.179956e-01 5.822108e-01 8.017273e-02 -3.498316e-01 -7.243368e-01 1.290473e-01 1.068105e+00 4.328646e-01 -4.452713e-01 1.141440e-01 2.557004e-01 1.733407e-01 -2.248777e-02 -3.103527e-01 -1.899646e-01 -1.408372e-02 -2.276874e-02 -1.786233e-01 1.008461e-02 5.312746e-03 3.701496e-01 -1.971704e-01
<VARIANCE> 39
 1.844569e+01 2.939994e+01 3.824921e+01 5.303053e+01 3.852238e+01 5.087613e+01 3.533807e+01 5.924543e+01 5.274354e+01 4.956204e+01 4.934634e+01 3.896961e+01 3.895643e+01 2.561336e-01 7.778153e-01 5.325127e-01 1.003837e+00 1.363965e+00 1.546207e+00 1.270695e+00 1.633165e+00 1.397172e+00 1.684758e+00 1.597503e+00 1.755951e+00 3.264464e-01 5.087755e-02 1.257037e-01 1.209405e-01 1.974059e-01 2.094653e-01 2.278766e-01 2.312374e-01 3.325956e-01 2.596653e-01 3.000174e-01 3.127993e-01 3.081290e-01 6.393217e-02
<GCONST> 9.787672e+01
<STATE> 4
<MEAN> 39
 2.698220e+00 -1.278003e+00 -8.920281e+00 -2.144852e+01 -1.376107e+01 8.325534e+00 -1.256253e+01 -5.092844e+00 -6.433629e+00 -1.848092e+00 2.290322e+00 -6.513220e+00 6.552852e+01 1.947674e-01 8.254412e-01 5.811403e-01 5.996065e-01 -1.663494e-01 -8.546487e-01 -6.361847e-02 4.561120e-02 -5.687874e-01 -1.256944e-01 -3.046964e-01 3.721225e-01 -1.252150e+00 -8.386190e-02 -1.003729e-01 9.791204e-02 3.924655e-01 1.950018e-01 -2.052429e-01 4.905665e-02 -2.491791e-02 1.205635e-01 -4.474321e-03 -1.885322e-01 -1.354087e-01 -9.144857e-02
<VARIANCE> 39
 1.956267e+01 4.828175e+01 4.761324e+01 6.854432e+01 4.719714e+01 7.099345e+01 4.771487e+01 4.850045e+01 6.147403e+01 6.628083e+01 4.696643e+01 3.451073e+01 8.398769e+01 6.673155e-01 1.517257e+00 1.208498e+00 3.177279e+00 2.587999e+00 2.752209e+00 2.182364e+00 2.282019e+00 2.820710e+00 2.683593e+00 2.497212e+00 2.424271e+00 1.136850e+00 1.036052e-01 2.067211e-01 2.109070e-01 3.596063e-01 3.763901e-01 4.791911e-01 4.019565e-01 4.035627e-01 4.387990e-01 5.087681e-01 4.632502e-01 3.927102e-01 1.821702e-01
<GCONST> 1.166351e+02
<TRANSP> 5
 0.000000e+00 1.000000e+00 0.000000e+00 0.000000e+00 0.000000e+00
 0.000000e+00 6.363772e-01 3.636228e-01 0.000000e+00 0.000000e+00
 0.000000e+00 0.000000e+00 7.646648e-01 2.353352e-01 0.000000e+00
 0.000000e+00 0.000000e+00 0.000000e+00 8.768314e-01 1.231686e-01
 0.000000e+00 0.000000e+00 0.000000e+00 0.000000e+00 0.000000e+00
<ENDHMM>
~h "kh"
<BEGINHMM>
<NUMSTATES> 5
<STATE> 2
<MEAN> 39
 -8.497288e+00 -9.199938e-01 -1.063716e+00 -1.331554e+00 -1.845917e+00 -1.734912e+00 -4.523731e+00 -2.944115e+00 -3.813251e+00 -2.727640e+00 -3.205844e+00 -3.805820e+00 5.218758e+01 -1.240672e+00 -2.534215e-01 -5.744639e-01 1.167863e-01 6.673785e-01 -1.174906e-01 -4.059087e-02 3.061844e-01 4.617473e-01 8.530197e-02 3.876517e-01 3.859248e-01 -7.988452e-01 7.191039e-02 -2.295193e-01 -1.391155e-01 -2.600814e-01 -3.043454e-01 -6.659850e-03 -2.066533e-01 -1.005950e-02 -3.476218e-02 7.102300e-02 7.678521e-02 -8.693511e-02 1.708515e-01
<VARIANCE> 39
