~o
<STREAMINFO> 1 39
<VECSIZE> 39<NULLD><MFCC_D_A_0><DIAGC>
~s "silst"
<MEAN> 39
 -1.040403e+01 9.106961e-02 -1.084708e+00 1.168706e+00 -2.358624e+00 -2.303023e+00 -2.215544e+00 -3.306006e-01 -2.606544e+00 -2.355307e+00 -1.236378e+00 -6.921009e-01 3.816680e+01 -3.256444e-03 2.045821e-01 1.347597e-02 7.749030e-02 4.168915e-02 -1.849411e-02 1.010413e-01 3.336229e-02 2.964606e-03 -3.030656e-02 8.719331e-02 8.056504e-02 -2.665358e-01 -1.490398e-03 -3.237467e-02 -5.247341e-03 -7.452439e-02 -1.142629e-03 1.959689e-03 -4.278150e-02 -5.537327e-02 9.183984e-03 2.472592e-02 -1.797472e-02 -4.342880e-02 5.609441e-02
<VARIANCE> 39
 9.552725e+00 1.790943e+01 1.768852e+01 2.572644e+01 1.787730e+01 2.370118e+01 2.090096e+01 3.580265e+01 2.496055e+01 2.697372e+01 2.300120e+01 2.332721e+01 3.049999e+01 4.399287e-01 1.002336e+00 1.023753e+00 1.499607e+00 1.410826e+00 1.794487e+00 1.665120e+00 2.463891e+00 2.005195e+00 2.083739e+00 1.700023e+00 1.816898e+00 4.011190e-01 7.639436e-02 1.637703e-01 1.843626e-01 2.775589e-01 2.715655e-01 3.376199e-01 3.213777e-01 4.696196e-01 3.971178e-01 4.082608e-01 3.342673e-01 3.554829e-01 6.276435e-02
<GCONST> 9.706439e+01
~h "@"
<BEGINHMM>
<NUMSTATES> 5
<STATE> 2
<MEAN> 39
 -5.160669e-01 -5.795196e+00 -3.240084e+00 -7.736008e+00 -1.152339e+01 -4.499156e+00 -1.370675e+01 -4.380743e+00 -2.711362e+00 -8.177679e-01 1.312766e-01 -8.571456e+00 6.925060e+01 2.191135e+00 -1.584564e+00 -3.769921e-01 -1.534806e+00 -1.638488e+00 7.130578e-01 -1.964036e+00 1.101743e+00 1.381537e+00 3.070159e-01 1.209483e+00 -2.025414e+00 2.636959e+00 -4.814554e-01 2.284016e-01 1.680084e-01 4.348188e-01 2.778223e-01 1.934045e-01 3.977979e-01 -1.902986e-02 -1.738404e-01 -2.404390e-02 -2.365894e-01 2.223578e-01 -1.065306e+00
<VARIANCE> 39
 2.533225e+01 2.816308e+01 4.714782e+01 5.637460e+01 4.783977e+01 1.006268e+02 4.468853e+01 6.678871e+01 6.338732e+01 4.536291e+01 5.485511e+01 3.385202e+01 5.031887e+01 6.051430e+00 3.111908e+00 5.609508e+00 4.549947e+00 5.961951e+00 6.374542e+00 5.828350e+00 7.907673e+00 7.944342e+00 5.122963e+00 5.217208e+00 4.417626e+00 4.180039e+00 7.483832e-01 5.267838e-01 6.825882e-01 7.306023e-01 7.373726e-01 9.421479e-01 7.056118e-01 9.033428e-01 8.254604e-01 6.235053e-01 9.367833e-01 6.226314e-01 1.226084e+00
<GCONST> 1.404990e+02
<STATE> 3
<MEAN> 39
 6.114677e-01 -9.512631e+00 -4.175882e+00 -9.735904e+00 -1.273452e+01 -1.719450e+00 -1.658618e+01 -1.605730e+00 -1.031559e-01 -7.138916e-01 1.324881e+00 -1.190547e+01 7.274611e+01 5.881304e-01 -5.648172e-01 2.010323e-01 4.745764e-02 -5.161018e-01 4.027653e-01 -5.049824e-01 6.488220e-01 4.168440e-01 6.737126e-02 1.309712e-01 -6.110508e-01 2.855199e-01 -5.135319e-01 8.432717e-01 4.392322e-01 8.032002e-01 5.033849e-01 -2.870153e-01 8.174934e-01 -6.446618e-01 -7.215483e-01 -8.442518e-02 -5.287781e-01 7.690914e-01 -1.304852e+00
<VARIANCE> 39
 1.735378e+01 2.952443e+01 4.851258e+01 5.739242e+01 5.167081e+01 1.020405e+02 5.013392e+01 8.241303e+01 7.309206e+01 5.970535e+01 5.356824e+01 4.202874e+01 2.057775e+01 2.119193e+00 2.397438e+00 2.625043e+00 3.427166e+00 3.535250e+00 5.359722e+00 3.656888e+00 5.728903e+00 5.458136e+00 3.573912e+00 4.247149e+00 3.214453e+00 2.467193e+00 6.086199e-01 4.560121e-01 7.800340e-01 7.493566e-01 9.477893e-01 1.062839e+00 9.017192e-01 1.235205e+00 1.155355e+00 8.945907e-01 9.531796e-01 7.518280e-01 5.732999e-01
<GCONST> 1.356030e+02
<STATE> 4
<MEAN> 39
 -3.072881e-01 -9.147696e+00 -1.873069e+00 -8.965510e+00 -1.399180e+01 -3.946463e+00 -1.505563e+01 -1.203681e+00 -8.417556e-01 -1.732123e+00 1.164200e+00 -1.091098e+01 7.178991e+01 2.164205e-01 8.444369e-01 5.194750e-01 8.270096e-01 3.262685e-01 -1.261584e-01 4.661109e-01 -6.558648e-01 -5.728585e-01 4.066891e-02 -5.212733e-01 3.155193e-01 -1.280087e+00 -9.461556e-02 3.743190e-01 1.409099e-01 2.974741e-01 1.878389e-01 -6.721423e-02 2.462884e-01 -3.501717e-01 -2.154972e-01 2.683261e-03 -2.395300e-01 2.127622e-01 -5.286426e-01
<VARIANCE> 39
 1.829288e+01 3.585301e+01 5.805982e+01 5.917857e+01 6.646703e+01 9.306358e+01 5.655862e+01 8.800416e+01 7.816025e+01 6.056841e+01 5.677114e+01 4.127958e+01 2.738033e+01 9.744699e-01 2.335719e+00 2.035789e+00 2.770737e+00 2.666101e+00 3.210282e+00 2.865233e+00 3.641765e+00 3.693969e+00 2.490893e+00 2.847513e+00 2.212615e+00 3.242345e+00 3.101082e-01 2.962766e-01 3.692853e-01 4.015747e-01 5.195210e-01 5.255660e-01 5.721543e-01 8.144240e-01 6.590263e-01 5.008537e-01 5.753863e-01 4.353491e-01 2.920848e-01
<GCONST> 1.252793e+02
<TRANSP> 5
 0.000000e+00 1.000000e+00 0.000000e+00 0.000000e+00 0.000000e+00
 0.000000e+00 2.532521e-01 7.467479e-01 0.000000e+00 0.000000e+00
 0.000000e+00 0.000000e+00 3.692363e-01 6.307637e-01 0.000000e+00
 0.000000e+00 0.000000e+00 0.000000e+00 6.399780e-01 3.600220e-01
 0.000000e+00 0.000000e+00 0.000000e+00 0.000000e+00 0.000000e+00
<ENDHMM>
~h "a"
<BEGINHMM>
<NUMSTATES> 5
<STATE> 2
<MEAN> 39
 -8.606743e-01 -1.288305e+01 -6.404908e+00 -9.823837e+00 -1.039640e+01 4.322115e-02 -1.193373e+01 2.367631e+00 -8.847734e-02 -2.772793e+00 -2.760836e+00 -1.167441e+01 7.290972e+01 4.995032e-01 -2.079062e+00 -1.122549e+00 -6.112083e-01 4.836745e-01 1.592979e+00 -6.773716e-02 1.335055e+00 7.407948e-01 -8.629786e-01 -7.865448e-01 -1.331418e+00 1.873764e+00 -3.552988e-01 4.747488e-01 2.992888e-01 4.833428e-01 3.726081e-01 -1.374888e-01 2.200357e-01 -4.945168e-01 -3.746756e-01 -4.343017e-02 -1.042114e-01 4.683324e-01 -7.946877e-01
<VARIANCE> 39
 1.950809e+01 3.361495e+01 4.597845e+01 4.069201e+01 6.494363e+01 8.833121e+01 5.158286e+01 8.584989e+01 6.352280e+01 5.311109e+01 5.535613e+01 3.893975e+01 5.245023e+01 2.699225e+00 2.384127e+00 2.796499e+00 2.929964e+00 4.483056e+00 4.093964e+00 3.808067e+00 5.150057e+00 4.319113e+00 3.782489e+00 4.246709e+00 3.532000e+00 3.690978e+00 4.615285e-01 4.781265e-01 4.390864e-01 5.119436e-01 7.818624e-01 7.821217e-01 6.291276e-01 8.693623e-01 6.925179e-01 6.470816e-01 7.822831e-01 5.701980e-01 8.252208e-01
<GCONST> 1.332645e+02
<STATE> 3
<MEAN> 39
 -1.956508e+00 -1.665945e+01 -8.399458e+00 -1.020445e+01 -7.027360e+00 3.213232e+00 -1.166435e+01 2.638079e+00 -5.216474e-01 -5.871797e+00 -4.973855e+00 -1.256886e+01 7.602847e+01 2.585221e-02 6.829419e-02 9.212318e-03 1.552937e-01 1.956605e-01 -1.020515e-01 -6.300115e-03 5.114570e-02 -2.373532e-01 1.527510e-02 -2.491710e-01 1.855132e-02 -2.144118e-01 7.681240e-02 4.428049e-01 2.518765e-01 8.583509e-02 -2.209692e-01 -3.338175e-01 -5.655683e-02 -1.830746e-01 -9.986959e-02 2.608632e-01 1.550266e-01 1.618253e-01 -3.714870e-01
<VARIANCE> 39
 1.516067e+01 2.775656e+01 3.413422e+01 2.815974e+01 4.133897e+01 6.303174e+01 4.278764e+01 7.176534e+01 6.258795e+01 5.597945e+01 4.245713e+01 4.073395e+01 1.339358e+01 3.455009e-01 8.728210e-01 1.011606e+00 9.953796e-01 2.026293e+00 2.255441e+00 1.589501e+00 2.127346e+00 1.542390e+00 1.719843e+00 1.881268e+00 1.508247e+00 4.290787e-01 8.654054e-02 1.853858e-01 1.630623e-01 1.922917e-01 2.729613e-01 2.868965e-01 3.104899e-01 4.434890e-01 3.357610e-01 2.978652e-01 3.450608e-01 3.044254e-01 1.387879e-01
<GCONST> 1.027577e+02
<STATE> 4
<MEAN> 39
 -4.797552e-02 -1.189495e+01 -5.701244e+00 -8.125891e+00 -8.327283e+00 -7.063131e-01 -1.167566e+01 2.837281e+00 -1.834554e+00 -3.167333e+00 -5.405673e+00 -1.097121e+01 6.909256e+01 3.463817e-01 1.977053e+00 1.026427e+00 1.130765e+00 8.547292e-03 -9.054762e-01 1.319378e-01 -1.156205e+00 -4.808181e-01 4.799503e-01 4.641797e-02 6.830860e-01 -2.540393e+00 -1.058009e-01 2.718571e-01 1.620298e-01 2.437597e-01 1.412401e-01 4.741422e-02 1.731574e-01 -3.947040e-01 -1.014483e-01 -8.022673e-02 -4.038668e-02 1.531692e-01 -4.496232e-01
<VARIANCE> 39
 1.686661e+01 3.524853e+01 4.526788e+01 3.797623e+01 5.457922e+01 6.763067e+01 5.111041e+01 8.123249e+01 6.184899e+01 6.343782e+01 6.224911e+01 4.266546e+01 6.300101e+01 1.303538e+00 2.071934e+00 2.105262e+00 2.424874e+00 3.259123e+00 3.355952e+00 3.231545e+00 4.039091e+00 3.673703e+00 3.358326e+00 3.457325e+00 2.622525e+00 3.032367e+00 2.356201e-01 4.365631e-01 3.606760e-01 4.344334e-01 5.239032e-01 5.791187e-01 5.942733e-01 7.940155e-01 5.935541e-01 6.074705e-01 6.561269e-01 4.609618e-01 5.039441e-01
<GCONST> 1.268007e+02
<TRANSP> 5
 0.000000e+00 1.000000e+00 0.000000e+00 0.000000e+00 0.000000e+00
 0.000000e+00 5.941864e-01 4.058135e-01 0.000000e+00 0.000000e+00
 0.000000e+00 0.000000e+00 7.906090e-01 2.093910e-01 0.000000e+00
 0.000000e+00 0.000000e+00 0.000000e+00 6.523752e-01 3.476249e-01
 0.000000e+00 0.000000e+00 0.000000e+00 0.000000e+00 0.000000e+00
<ENDHMM>
~h "b"
<BEGINHMM>
<NUMSTATES> 5
<STATE> 2
<MEAN> 39
 -4.288346e-01 3.064096e+00 1.138660e+00 -1.098204e+00 -5.688817e+00 -5.967631e-01 -6.925292e+00 -5.901581e+00 -7.114192e+00 -2.445106e+00 -2.123416e+00 -5.897388e+00 4.594890e+01 3.635369e-01 1.009707e+00 4.398622e-01 3.277658e-01 3.870837e-01 2.342822e-01 5.430726e-01 -1.147699e-01 -1.856797e-01 -1.388025e-02 -1.267207e-01 -2.295727e-02 -8.855414e-01 -1.393205e-01 -2.481683e-01 -1.205043e-01 -2.010542e-01 -1.136672e-01 -1.183035e-01 -1.788972e-01 1.924905e-02 1.040559e-01 7.608658e-03 1.291649e-01 5.732666e-02 5.438926e-01
<VARIANCE> 39
 7.118085e+01 4.028745e+01 3.759732e+01 2.902708e+01 3.997450e+01 4.541077e+01 3.667493e+01 4.265464e+01 5.560988e+01 3.270254e+01 3.549648e+01 3.241453e+01 9.218037e+01 1.810899e+00 2.194989e+00 1.799901e+00 1.818923e+00 2.153224e+00 2.188019e+00 2.349358e+00 2.567880e+00 2.864703e+00 2.326314e+00 2.383837e+00 1.905552e+00 3.421657e+00 3.445843e-01 3.791082e-01 3.328156e-01 3.826081e-01 4.196847e-01 4.196431e-01 4.391812e-01 4.997330e-01 5.776929e-01 4.406618e-01 4.368384e-01 3.801456e-01 4.438739e-01
<GCONST> 1.197988e+02
<STATE> 3
<MEAN> 39
 6.102999e+00 7.670913e+00 4.484030e+00 -1.052648e+00 -5.419477e+00 2.630878e+00 -6.735681e+00 -9.719895e+00 -1.130420e+01 -2.917663e+00 -4.269533e-01 -7.028711e+00 5.032205e+01 -9.301652e-01 -1.326724e+00 -1.004838e+00 -1.057560e+00 -1.039905e-02 -8.197569e-01 -9.599547e-01 7.198314e-02 1.046074e+00 8.854324e-02 8.718767e-01 6.066684e-01 2.869795e+00 -5.484885e-01 -1.237468e+00 -5.510240e-01 -6.577554e-01 -7.505611e-01 -2.338067e-01 -7.159529e-01 4.031654e-01 6.060839e-01 2.415823e-01 3.269698e-01 -1.469285e-01 1.531387e+00
<VARIANCE> 39
 1.942186e+01 2.633888e+01 1.852179e+01 3.246027e+01 3.846842e+01 5.006732e+01 3.379869e+01 4.117812e+01 6.289811e+01 3.619382e+01 4.414205e+01 2.682829e+01 3.783776e+01 4.091196e+00 4.416039e+00 3.776549e+00 4.638834e+00 4.018486e+00 4.779610e+00 3.931858e+00 4.150451e+00 6.160755e+00 3.966588e+00 3.841813e+00 3.169625e+00 6.691144e+00 4.746011e-01 4.379306e-01 6.207558e-01 6.397530e-01 6.983334e-01 8.895452e-01 6.266494e-01 9.590271e-01 1.201431e+00 8.728951e-01 7.707650e-01 7.635632e-01 5.703156e-01
<GCONST> 1.321332e+02
<STATE> 4
<MEAN> 39
 5.375328e-01 -1.854199e+00 -2.017053e+00 -7.008013e+00 -7.643974e+00 -1.338408e+00 -1.214435e+01 -8.428036e+00 -4.562882e+00 1.555741e-01 3.385732e+00 -5.605317e+00 6.520779e+01 -1.054743e+00 -3.635965e+00 -1.841622e+00 -2.495999e+00 -2.147083e+00 -3.915117e-01 -2.334223e+00 1.329318e+00 2.402204e+00 1.002823e+00 1.164653e+00 -1.117603e+00 5.172592e+00 3.052824e-01 1.514903e-01 4.192150e-01 2.770269e-01 -3.224671e-01 4.230483e-01 2.298700e-01 3.603441e-01 -2.263235e-01 -2.823156e-01 -4.909785e-01 -4.700229e-01 -5.758306e-01
<VARIANCE> 39
 1.952831e+01 2.741330e+01 3.417163e+01 6.856786e+01 3.192711e+01 5.490363e+01 3.855077e+01 4.116651e+01 3.885714e+01 4.759117e+01 4.424845e+01 3.354710e+01 4.955904e+01 2.546686e+00 3.941426e+00 6.069643e+00 5.732221e+00 4.843072e+00 6.636004e+00 4.764190e+00 8.179296e+00 9.787426e+00 7.162935e+00 6.071689e+00 6.403537e+00 4.213814e+00 4.317963e-01 6.080302e-01 4.214315e-01 1.047298e+00 9.826437e-01 8.648205e-01 8.597163e-01 8.222079e-01 8.237386e-01 8.628253e-01 1.067387e+00 7.226322e-01 8.154395e-01
<GCONST> 1.381539e+02
<TRANSP> 5
 0.000000e+00 1.000000e+00 0.000000e+00 0.000000e+00 0.000000e+00
 0.000000e+00 8.148336e-01 1.851664e-01 0.000000e+00 0.000000e+00
 0.000000e+00 0.000000e+00 5.852657e-01 4.147343e-01 0.000000e+00
 0.000000e+00 0.000000e+00 0.000000e+00 3.799024e-01 6.200976e-01
 0.000000e+00 0.000000e+00 0.000000e+00 0.000000e+00 0.000000e+00
<ENDHMM>
~h "c"
<BEGINHMM>
<NUMSTATES> 5
<STATE> 2
<MEAN> 39
 -7.974660e+00 2.995896e+00 9.161516e-01 -1.352185e+00 -7.017611e+00 -7.435289e+00 -7.233756e+00 -3.596746e+00 -3.940649e+00 -2.861949e+00 -3.017483e+00 -3.271855e+00 4.593287e+01 -1.553095e+00 -2.193062e-01 -5.995842e-01 -4.487410e-01 5.889904e-01 2.231535e-01 3.265665e-01 -1.599250e-01 2.527652e-01 -1.643802e-03 1.960517e-01 2.632875e-01 -4.982501e-01 -3.910271e-01 -3.256218e-01 -1.602490e-01 -3.116744e-01 -8.506557e-02 5.748453e-02 -1.732730e-02 2.303274e-02 1.975949e-02 3.229890e-02 1.052350e-01 3.336025e-02 1.016601e+00
<VARIANCE> 39
 3.799047e+01 3.497137e+01 4.589915e+01 2.754195e+01 4.270400e+01 4.614064e+01 4.297566e+01 3.969358e+01 3.639454e+01 2.919718e+01 2.627755e+01 2.341055e+01 1.169340e+02 5.724361e+00 4.323262e+00 3.333227e+00 3.439049e+00 3.791630e+00 3.130230e+00 3.437863e+00 3.110574e+00 3.268560e+00 2.551941e+00 2.605654e+00 2.225773e+00 1.370353e+01 8.238743e-01 7.421662e-01 5.681423e-01 5.775644e-01 7.253406e-01 6.641456e-01 6.643927e-01 6.010799e-01 6.098806e-01 5.183453e-01 4.937731e-01 4.580136e-01 1.729694e+00
<GCONST> 1.308344e+02
<STATE> 3
<MEAN> 39
 -2.452831e+01 -4.571571e-01 -2.971755e+00 -8.020718e+00 -4.775959e+00 -5.683836e+00 -4.961868e+00 -4.467965e+00 -2.568078e+00 -2.135191e+00 -4.630350e-01 -2.898745e-01 6.394379e+01 -7.560441e-01 -1.334644e-01 4.594446e-01 -6.270253e-01 -1.013456e+00 -5.747418e-01 -2.053605e-01 2.830702e-01 1.873861e-01 -2.050180e-01 2.633632e-02 1.621633e-01 4.260940e+00 2.362802e+00 -5.684567e-02 6.607751e-01 5.527179e-01 -8.059899e-01 -3.717516e-01 -6.402744e-01 2.398400e-01 -7.493452e-02 -2.165003e-01 -2.356044e-01 -5.476836e-01 -6.612278e-01
<VARIANCE> 39
 2.667213e+01 2.783306e+01 4.176315e+01 2.520754e+01 2.742547e+01 3.089765e+01 3.158715e+01 2.835399e+01 2.488317e+01 2.112329e+01 1.952425e+01 1.660203e+01 3.217733e+01 1.599208e+01 3.385806e+00 5.296822e+00 4.263612e+00 4.789632e+00 4.721254e+00 4.168028e+00 3.504845e+00 3.413540e+00 2.625816e+00 2.694179e+00 2.485283e+00 8.833234e+00 1.037484e+00 1.101966e+00 8.638042e-01 7.701932e-01 8.939562e-01 9.571610e-01 6.730335e-01 9.727852e-01 8.175871e-01 6.038658e-01 6.453504e-01 5.448270e-01 8.718723e-01
<GCONST> 1.307439e+02
<STATE> 4
<MEAN> 39
 -1.099528e+01 -1.133060e+00 2.325167e+00 -5.179175e+00 -1.191366e+01 -1.104778e+01 -9.951191e+00 -2.182068e+00 -2.375668e+00 -4.673647e+00 -3.248761e+00 -2.893155e+00 7.050219e+01 5.691025e+00 -2.612446e+00 6.661102e-01 2.174866e-01 -2.422717e+00 -5.772331e-01 -2.287265e+00 1.398736e+00 5.916302e-01 -4.803275e-01 -4.886731e-02 -1.946826e+00 2.298183e+00 -1.383691e-02 -5.481866e-01 -7.089223e-01 -2.655946e-01 4.929216e-01 8.887116e-01 1.475447e-01 4.573813e-02 3.586987e-02 2.047043e-01 3.332843e-01 -3.783228e-01 -6.722734e-01
<VARIANCE> 39
 5.177486e+01 4.094207e+01 4.463747e+01 2.323501e+01 3.890044e+01 3.225138e+01 4.301806e+01 4.368934e+01 3.926915e+01 2.358429e+01 1.993896e+01 1.990027e+01 2.998119e+01 2.407080e+00 5.049994e+00 5.703303e+00 4.553667e+00 5.049631e+00 5.304006e+00 3.565085e+00 8.470256e+00 5.704423e+00 3.854153e+00 3.998025e+00 2.606422e+00 1.735638e+00 1.697254e+00 6.259910e-01 4.904486e-01 4.860054e-01 9.410508e-01 6.845839e-01 7.372155e-01 8.393529e-01 6.354460e-01 4.760186e-01 5.073782e-01 4.161374e-01 5.774739e-01
<GCONST> 1.300115e+02
<TRANSP> 5
 0.000000e+00 1.000000e+00 0.000000e+00 0.000000e+00 0.000000e+00
 0.000000e+00 8.655846e-01 1.344154e-01 0.000000e+00 0.000000e+00
 0.000000e+00 0.000000e+00 6.929407e-01 3.070593e-01 0.000000e+00
 0.000000e+00 0.000000e+00 0.000000e+00 4.811256e-01 5.188744e-01
 0.000000e+00 0.000000e+00 0.000000e+00 0.000000e+00 0.000000e+00
<ENDHMM>
~h "d"
<BEGINHMM>
<NUMSTATES> 5
<STATE> 2
<MEAN> 39
 -6.172963e+00 -1.174486e-01 2.722156e-01 -1.528334e-01 -5.808725e+00 -4.825242e+00 -6.414665e+00 -2.709466e+00 -3.973335e+00 -3.247141e+00 -3.593795e+00 -3.756563e+00 4.355156e+01 2.396618e-01 5.603583e-01 2.988455e-01 4.337246e-01 3.061682e-01 -4.176561e-02 1.427728e-01 6.315327e-02 1.280449e-01 -8.850465e-03 -2.278872e-01 -8.369468e-02 -6.565828e-01 6.688415e-03 -7.081828e-02 3.437004e-02 -1.117840e-01 -7.070886e-02 -2.787396e-02 -7.025108e-02 3.871318e-02 -4.322637e-03 -1.200167e-02 4.736303e-02 -9.890780e-03 3.145443e-01
<VARIANCE> 39
 5.322160e+01 4.082393e+01 4.336312e+01 2.756221e+01 4.147960e+01 3.566827e+01 4.065300e+01 4.243283e+01 3.511753e+01 3.076860e+01 3.330501e+01 3.052822e+01 1.023571e+02 2.011086e+00 2.399444e+00 1.912018e+00 1.939749e+00 2.576445e+00 2.286572e+00 2.394760e+00 3.012946e+00 2.610421e+00 2.228067e+00 2.543439e+00 1.922867e+00 3.081768e+00 3.369746e-01 3.655254e-01 3.124767e-01 3.839990e-01 4.333919e-01 4.310724e-01 4.464359e-01 5.355799e-01 4.908574e-01 4.445216e-01 4.366669e-01 3.655691e-01 4.240982e-01
<GCONST> 1.193073e+02
<STATE> 3
<MEAN> 39
 4.858366e+00 4.230959e+00 8.179582e+00 5.270195e+00 -9.168986e+00 -7.398025e+00 -1.073617e+01 -3.411352e+00 -3.229476e+00 -3.239232e+00 -7.232101e+00 -8.448173e+00 5.128642e+01 -7.788671e-01 -6.630097e-01 4.760025e-01 -7.116314e-01 2.714866e-01 -4.918692e-01 -1.751526e-01 2.718746e-01 -7.173798e-02 -2.323615e-01 5.398891e-01 6.869991e-01 1.884135e+00 -8.683976e-01 -9.345151e-01 -2.745948e-01 -7.998259e-01 -6.671924e-01 4.425311e-02 -2.046137e-01 -4.051314e-03 -2.017411e-01 -5.792875e-02 8.142452e-01 3.437273e-01 1.455006e+00
<VARIANCE> 39
 2.016296e+01 3.348481e+01 2.725500e+01 2.666485e+01 5.535775e+01 3.679685e+01 4.335516e+01 5.611356e+01 4.358576e+01 3.733371e+01 3.353323e+01 3.086260e+01 4.460012e+01 5.880924e+00 4.594944e+00 3.312317e+00 4.063631e+00 5.174145e+00 3.853349e+00 4.235802e+00 5.409992e+00 4.595855e+00 3.430346e+00 4.329376e+00 3.435751e+00 8.841734e+00 4.973926e-01 5.041541e-01 5.369188e-01 6.301955e-01 1.128223e+00 7.315984e-01 7.848065e-01 1.335038e+00 9.643985e-01 6.666257e-01 6.645722e-01 5.841424e-01 8.497397e-01
<GCONST> 1.338260e+02
<STATE> 4
<MEAN> 39
 -4.496841e+00 -4.482012e+00 7.400099e+00 -2.366047e+00 -9.891973e+00 -9.149019e+00 -1.117317e+01 -2.763166e+00 -4.701855e+00 -4.221095e+00 -1.128490e+00 -2.363347e+00 6.636159e+01 -1.557704e+00 -2.665442e+00 -6.031888e-01 -2.157744e+00 -2.979593e+00 -4.005339e-01 -1.378325e+00 9.332942e-01 1.997545e-01 -3.263553e-01 2.523895e+00 3.598955e-01 5.101023e+00 7.105306e-01 3.157054e-01 -2.665416e-01 3.106332e-01 -6.296470e-01 4.948784e-01 -1.301902e-01 1.917892e-01 1.953313e-01 2.390578e-02 -1.381367e-01 -7.770354e-01 -5.697404e-01
<VARIANCE> 39
 2.048221e+01 2.662848e+01 3.714794e+01 3.349467e+01 6.155719e+01 4.950513e+01 5.695861e+01 4.883894e+01 5.141682e+01 2.683373e+01 2.707057e+01 2.063157e+01 4.698665e+01 3.485287e+00 3.343091e+00 5.640468e+00 4.150999e+00 5.438387e+00 4.688933e+00 4.963568e+00 1.265737e+01 8.989537e+00 4.030920e+00 4.274698e+00 3.796059e+00 3.877558e+00 3.840041e-01 5.528912e-01 5.679500e-01 7.601703e-01 1.418138e+00 9.729224e-01 1.155209e+00 1.126746e+00 9.508860e-01 7.560871e-01 9.493428e-01 5.791891e-01 8.658557e-01
<GCONST> 1.363062e+02
<TRANSP> 5
 0.000000e+00 1.000000e+00 0.000000e+00 0.000000e+00 0.000000e+00
 0.000000e+00 8.346331e-01 1.653669e-01 0.000000e+00 0.000000e+00
 0.000000e+00 0.000000e+00 6.736979e-01 3.263021e-01 0.000000e+00
 0.000000e+00 0.000000e+00 0.000000e+00 4.594271e-01 5.405729e-01
 0.000000e+00 0.000000e+00 0.000000e+00 0.000000e+00 0.000000e+00
<ENDHMM>
~h "e"
<BEGINHMM>
<NUMSTATES> 5
<STATE> 2
<MEAN> 39
 -3.503843e+00 -8.143730e+00 5.519495e-01 -4.961266e+00 -1.501707e+01 -7.912204e+00 -1.031102e+01 9.300908e-01 -3.526145e+00 -1.722377e+00 2.603856e-01 -6.941335e+00 6.284113e+01 5.992994e-01 -1.755003e+00 6.021442e-01 -6.971317e-01 -1.944728e+00 -2.553731e-01 -2.680997e-01 1.917066e+00 7.985278e-02 -4.821708e-01 5.162899e-01 -5.256512e-01 2.530108e+00 -1.221509e-01 2.233710e-01 1.153578e-01 7.937714e-03 7.925140e-02 2.615961e-01 2.945139e-01 -6.495765e-02 -1.756858e-01 -4.241388e-02 -3.548748e-02 7.097445e-02 -3.284837e-01
<VARIANCE> 39
 4.069688e+01 5.554625e+01 5.891357e+01 4.806322e+01 7.940694e+01 6.401481e+01 6.691394e+01 8.990451e+01 7.383391e+01 5.305196e+01 5.471296e+01 3.833031e+01 1.974965e+02 4.515917e+00 4.940911e+00 3.682507e+00 4.085641e+00 7.299920e+00 4.954532e+00 5.215561e+00 7.584524e+00 6.100029e+00 5.019783e+00 4.724848e+00 3.628188e+00 1.096314e+01 7.281017e-01 9.183084e-01 5.541429e-01 6.884125e-01 1.071210e+00 7.880222e-01 8.968327e-01 1.065032e+00 9.880536e-01 7.851745e-01 7.414180e-01 6.118631e-01 2.197879e+00
<GCONST> 1.456937e+02
<STATE> 3
<MEAN> 39
 -1.311939e+00 -1.396699e+01 3.092908e+00 -7.343424e+00 -2.091324e+01 -7.113616e+00 -1.103664e+01 6.671589e+00 -4.058372e+00 -3.622679e+00 1.756921e+00 -8.555650e+00 7.419791e+01 -1.764310e-01 -1.902744e-01 5.514955e-01 -2.645899e-01 -7.677643e-01 7.888058e-02 5.446873e-01 5.920965e-01 -3.646568e-01 -1.134302e-01 3.495314e-01 -6.998349e-02 4.131995e-01 -1.686575e-01 7.236343e-01 -1.442425e-01 3.226441e-01 7.438197e-01 2.519352e-02 1.925067e-01 -7.709813e-01 -7.246218e-02 1.797224e-01 -2.996411e-01 1.828118e-01 -8.835469e-01
<VARIANCE> 39
 1.382394e+01 3.876437e+01 5.398215e+01 4.372167e+01 6.218050e+01 6.358784e+01 5.530971e+01 9.284370e+01 7.481575e+01 5.292330e+01 5.415998e+01 3.168190e+01 1.881281e+01 9.739887e-01 2.015337e+00 2.090821e+00 2.485982e+00 3.488455e+00 3.234634e+00 3.359925e+00 3.850814e+00 3.398190e+00 2.849371e+00 2.819299e+00 1.996346e+00 1.924750e+00 3.161307e-01 3.282751e-01 3.710903e-01 4.212416e-01 5.974609e-01 6.142013e-01 7.204798e-01 7.594426e-01 7.637012e-01 6.571535e-01 5.944799e-01 4.632007e-01 4.505500e-01
<GCONST> 1.246760e+02
<STATE> 4
<MEAN> 39
 -3.208132e+00 -1.087874e+01 6.176413e+00 -7.883483e+00 -2.248204e+01 -8.487208e+00 -9.520677e+00 4.850687e+00 -6.252965e+00 -3.091242e+00 3.494292e+00 -8.264383e+00 7.196633e+01 9.459989e-02 5.123963e-01 -1.224229e-01 3.875180e-01 5.241094e-01 -9.812461e-02 8.194660e-02 -4.123016e-01 -4.736405e-02 7.328239e-02 -3.657650e-01 -2.834307e-03 -7.777191e-01 4.100481e-02 1.589430e-01 -5.666893e-02 1.579183e-01 2.260841e-01 9.715988e-04 -4.579818e-02 -1.778978e-01 2.315080e-02 3.091913e-02 -1.181868e-01 3.503466e-02 -2.712609e-01
<VARIANCE> 39
 1.438951e+01 3.809202e+01 6.243611e+01 3.785576e+01 6.026997e+01 6.199629e+01 4.974519e+01 8.731306e+01 5.951239e+01 5.451809e+01 5.889863e+01 2.849057e+01 4.988424e+01 6.017293e-01 1.240857e+00 1.153936e+00 1.485813e+00 1.757375e+00 1.492947e+00 2.032735e+00 2.076562e+00 1.878556e+00 1.575293e+00 1.653812e+00 1.157801e+00 1.898720e+00 1.147875e-01 1.968378e-01 1.878121e-01 2.126503e-01 2.971858e-01 2.949067e-01 3.709175e-01 4.008086e-01 3.484727e-01 3.088340e-01 2.839477e-01 2.097671e-01 2.164703e-01
<GCONST> 1.088700e+02
<TRANSP> 5
 0.000000e+00 1.000000e+00 0.000000e+00 0.000000e+00 0.000000e+00
 0.000000e+00 5.795493e-01 4.204508e-01 0.000000e+00 0.000000e+00
 0.000000e+00 0.000000e+00 5.715908e-01 4.284091e-01 0.000000e+00
 0.000000e+00 0.000000e+00 0.000000e+00 8.417230e-01 1.582771e-01
 0.000000e+00 0.000000e+00 0.000000e+00 0.000000e+00 0.000000e+00
<ENDHMM>
~h "f"
<BEGINHMM>
<NUMSTATES> 5
<STATE> 2
<MEAN> 39
 -7.941290e+00 -9.415483e-01 -2.899729e-01 -8.837845e-01 -3.979300e+00 -3.183187e+00 -6.266144e+00 -3.337878e+00 -3.929307e+00 -2.569316e+00 -2.464099e+00 -3.737504e+00 6.267195e+01 -3.719136e+00 1.768865e-01 -2.611286e-01 1.363200e+00 1.521902e+00 -4.153523e-01 3.862171e-01 7.743280e-02 1.465352e+00 -1.878124e-01 -1.385724e-01 6.369568e-01 -1.037170e+00 -1.746754e-01 -6.720544e-01 -2.061935e-01 -4.238783e-01 -7.307267e-01 -6.642150e-02 -4.379060e-01 -6.196778e-02 -1.760731e-01 1.042843e-01 1.561215e-01 -1.837471e-01 2.169067e-01
<VARIANCE> 39
 4.985527e+01 2.281352e+01 4.191294e+01 4.373873e+01 3.598499e+01 5.585778e+01 3.292890e+01 4.034659e+01 3.703669e+01 3.021744e+01 3.432830e+01 2.350523e+01 3.260344e+01 2.270468e+00 4.082829e+00 4.027508e+00 4.169211e+00 5.599623e+00 4.476761e+00 3.507519e+00 4.869945e+00 3.915745e+00 3.803059e+00 3.558543e+00 2.470191e+00 1.660299e+00 7.873669e-01 4.146502e-01 4.489774e-01 6.476011e-01 6.436251e-01 6.128669e-01 5.875531e-01 6.446180e-01 7.961255e-01 5.643699e-01 5.113819e-01 3.648245e-01 1.891245e-01
<GCONST> 1.263118e+02
<STATE> 3
<MEAN> 39
 -1.946780e+01 -5.991437e+00 -3.800812e+00 -6.859408e-01 -4.403172e+00 -5.375742e+00 -8.121934e+00 -3.260284e+00 -1.861312e+00 -1.848700e+00 -1.719698e+00 -2.274948e+00 5.951342e+01 -6.239428e-01 -5.795580e-01 -4.623131e-01 -1.981764e-01 -1.481465e-01 -9.073380e-02 -5.763667e-02 -2.519252e-02 4.318631e-02 8.330349e-02 1.023043e-01 7.635888e-02 -2.798075e-01 6.752479e-01 1.467508e-01 1.456828e-01 -8.467601e-02 -3.954365e-02 8.466294e-02 7.958431e-02 3.179454e-02 -1.298731e-01 -2.804492e-02 9.562947e-03 -9.049962e-02 9.593952e-02
<VARIANCE> 39
 2.210221e+01 2.017792e+01 2.539882e+01 1.815056e+01 2.082015e+01 2.694406e+01 2.359118e+01 2.334756e+01 2.163977e+01 2.041002e+01 2.173236e+01 1.649267e+01 3.109384e+01 1.682904e+00 1.155214e+00 1.505672e+00 1.464028e+00 1.581513e+00 1.826705e+00 1.872203e+00 1.778082e+00 1.760140e+00 1.683868e+00 1.565901e+00 1.415186e+00 1.048551e+00 4.350826e-01 2.530891e-01 3.183078e-01 3.356407e-01 3.670638e-01 3.935282e-01 3.697570e-01 4.098350e-01 4.333470e-01 3.844983e-01 3.500466e-01 3.248254e-01 1.722024e-01
<GCONST> 1.036199e+02
<STATE> 4
<MEAN> 39
 -1.437086e+01 -4.977831e+00 -4.774362e+00 -2.753760e+00 -4.644372e+00 -4.460763e+00 -6.465967e+00 -3.507458e+00 -2.770150e+00 -2.136096e+00 -1.352594e+00 -2.786463e+00 5.229028e+01 2.390285e+00 3.018066e-01 1.961377e-01 -6.812682e-01 -6.691808e-01 3.130972e-01 -1.148751e-01 -9.722550e-02 -5.064437e-01 -2.601274e-01 1.482620e-01 -5.618694e-01 6.255072e-01 5.328445e-01 2.997351e-03 8.419807e-02 -2.118613e-01 -3.594269e-01 1.387144e-01 -1.973465e-01 -3.196691e-02 -1.469527e-01 -6.217286e-02 1.333049e-01 -1.865489e-01 3.372411e-01
<VARIANCE> 39
 4.715105e+01 2.951929e+01 3.214181e+01 2.767213e+01 2.492603e+01 3.416787e+01 2.440913e+01 2.755694e+01 2.680184e+01 2.375712e+01 2.228922e+01 1.832125e+01 1.404222e+02 8.796977e+00 3.162735e+00 3.714949e+00 4.134647e+00 3.360885e+00 4.202370e+00 2.677592e+00 3.314439e+00 3.345722e+00 2.849224e+00 2.480466e+00 2.687977e+00 4.617328e+00 1.083642e+00 5.525387e-01 4.808055e-01 6.006809e-01 6.161415e-01 6.464862e-01 5.211491e-01 5.851533e-01 6.656474e-01 5.103771e-01 4.939192e-01 4.464523e-01 4.937647e-01
<GCONST> 1.257881e+02
<TRANSP> 5
 0.000000e+00 1.000000e+00 0.000000e+00 0.000000e+00 0.000000e+00
 0.000000e+00 6.769624e-01 3.230376e-01 0.000000e+00 0.000000e+00
 0.000000e+00 0.000000e+00 8.355001e-01 1.645000e-01 0.000000e+00
 0.000000e+00 0.000000e+00 0.000000e+00 7.814859e-01 2.185141e-01
 0.000000e+00 0.000000e+00 0.000000e+00 0.000000e+00 0.000000e+00
<ENDHMM>
~h "g"
<BEGINHMM>
<NUMSTATES> 5
<STATE> 2
<MEAN> 39
 2.993863e+00 4.702361e+00 6.847128e+00 8.760681e-01 -1.128610e+01 -6.015203e+00 -9.164772e+00 -4.276689e+00 -8.110491e+00 -9.575742e-01 -2.044052e+00 -8.631349e+00 5.186541e+01 -4.694819e-01 4.909689e-01 -7.467168e-02 4.688425e-01 1.062398e+00 -4.077051e-01 4.697933e-01 -6.330987e-02 2.542528e-01 -7.253678e-02 -4.463004e-01 5.233290e-01 -5.083222e-01 -6.404089e-01 -7.082454e-01 -4.760563e-01 -4.415388e-01 1.284185e-01 -2.804485e-02 -2.260751e-01 1.059584e-01 4.598581e-02 -1.162635e-02 2.094616e-01 2.656846e-01 1.182305e+00
<VARIANCE> 39
 2.858290e+01 3.676856e+01 4.966580e+01 3.558357e+01 5.585547e+01 5.363739e+01 4.601554e+01 5.680000e+01 5.349621e+01 3.901709e+01 3.817359e+01 3.284752e+01 6.019538e+01 4.454892e+00 4.238154e+00 4.717379e+00 2.907938e+00 5.579116e+00 4.267360e+00 3.876467e+00 4.037238e+00 3.816947e+00 3.189424e+00 3.287627e+00 3.141069e+00 7.499618e+00 5.128455e-01 5.272415e-01 6.309978e-01 4.822687e-01 8.674641e-01 6.877607e-01 6.505704e-01 7.633377e-01 7.977113e-01 6.139159e-01 6.166111e-01 5.307333e-01 8.004410e-01
<GCONST> 1.334193e+02
<STATE> 3
<MEAN> 39
 -5.180330e+00 -6.183819e-01 2.707534e-01 -4.210754e-02 -2.310643e+00 -6.875240e+00 -8.462796e+00 -4.197062e+00 -8.085051e+00 -8.622402e-01 -4.388121e+00 -3.388103e+00 6.049401e+01 -2.082557e+00 -2.030344e+00 -1.528309e+00 -1.436965e+00 2.400066e-01 -8.175877e-01 -7.855765e-01 5.054373e-01 -1.431791e-01 -4.846641e-02 1.114826e+00 9.983020e-01 4.226592e+00 7.836791e-01 7.529890e-02 6.616194e-01 -4.139861e-01 -1.695002e+00 1.208939e-01 -4.677480e-01 2.075563e-01 1.230692e-01 -1.464732e-01 8.635378e-01 -6.438246e-01 2.297063e-01
<VARIANCE> 39
 3.477633e+01 4.505767e+01 8.410362e+01 5.062893e+01 6.070107e+01 6.563918e+01 4.339196e+01 5.204094e+01 4.791142e+01 3.283359e+01 3.226834e+01 2.357431e+01 6.957867e+01 3.516640e+00 4.363484e+00 6.625025e+00 4.072971e+00 7.695136e+00 6.155919e+00 4.487482e+00 6.365655e+00 5.543378e+00 4.136428e+00 4.713064e+00 3.172689e+00 4.652955e+00 5.526831e-01 9.342168e-01 1.024440e+00 8.792060e-01 1.213157e+00 1.144980e+00 8.767902e-01 1.160221e+00 9.456480e-01 7.115706e-01 7.514917e-01 6.495533e-01 1.007328e+00
<GCONST> 1.407258e+02
<STATE> 4
<MEAN> 39
 -4.085069e+00 -3.409239e+00 2.694805e+00 -3.375613e+00 -1.257499e+01 -1.125287e+01 -1.257354e+01 -1.408844e+00 -7.207676e+00 -1.506415e+00 3.474620e+00 -4.973988e+00 6.908922e+01 7.495654e-01 -1.283018e+00 4.073303e-01 -1.856484e+00 -3.512491e+00 2.522954e-01 -1.201353e+00 1.408891e+00 1.154511e+00 -5.062064e-01 2.216037e+00 -1.246994e+00 2.470385e+00 5.827493e-01 1.546796e-01 4.912870e-02 5.251380e-02 -4.550556e-02 7.947565e-01 2.277507e-01 5.016290e-02 3.171074e-01 -5.419595e-02 -5.533875e-01 -5.477313e-01 -8.051248e-01
<VARIANCE> 39
 2.027466e+01 3.125150e+01 6.832152e+01 3.726202e+01 8.530114e+01 7.733819e+01 4.958304e+01 7.440775e+01 5.553183e+01 3.830057e+01 4.325289e+01 2.903610e+01 3.743590e+01 2.236401e+00 3.231041e+00 4.341682e+00 3.610786e+00 6.598763e+00 5.390807e+00 4.716760e+00 8.435805e+00 6.526390e+00 3.535580e+00 4.464997e+00 3.399165e+00 2.653928e+00 5.040073e-01 4.149599e-01 9.307278e-01 5.092647e-01 1.993649e+00 9.739995e-01 8.435289e-01 9.854068e-01 8.300520e-01 7.260258e-01 1.086755e+00 5.765492e-01 3.907299e-01
<GCONST> 1.364725e+02
<TRANSP> 5
 0.000000e+00 1.000000e+00 0.000000e+00 0.000000e+00 0.000000e+00
 0.000000e+00 7.619585e-01 2.380416e-01 0.000000e+00 0.000000e+00
 0.000000e+00 0.000000e+00 4.666589e-01 5.333411e-01 0.000000e+00
 0.000000e+00 0.000000e+00 0.000000e+00 4.575669e-01 5.424331e-01
 0.000000e+00 0.000000e+00 0.000000e+00 0.000000e+00 0.000000e+00
<ENDHMM>
~h "h"
<BEGINHMM>
<NUMSTATES> 5
<STATE> 2
<MEAN> 39
 -4.665332e+00 -5.319543e+00 -1.630105e+00 -2.921504e+00 -7.975429e-01 1.031816e+00 -5.106548e+00 -4.686346e-01 -5.392442e+00 -2.722472e+00 -5.933734e+00 -5.500548e+00 6.564182e+01 -1.200098e+00 -1.477665e-01 3.904532e-01 8.617477e-01 1.574741e+00 2.717822e-01 1.030117e+00 -4.475550e-02 5.670501e-01 -2.085918e-01 1.116678e-01 7.457699e-01 -1.054787e+00 -7.565684e-03 -3.703667e-01 -1.903013e-01 -3.951261e-01 -4.779948e-01 -4.090855e-02 -3.123130e-01 -7.751065e-03 9.486248e-02 5.704235e-02 2.597358e-01 -1.526087e-01 1.036885e-01
<VARIANCE> 39
 2.588381e+01 4.239671e+01 5.566273e+01 3.711818e+01 7.149748e+01 5.791162e+01 5.548129e+01 6.261253e+01 5.103048e+01 4.887653e+01 5.156892e+01 3.716882e+01 5.394666e+01 1.518073e+00 3.050193e+00 2.940211e+00 2.597105e+00 3.615785e+00 3.303041e+00 3.004104e+00 3.471308e+00 2.972373e+00 2.954384e+00 2.948127e+00 2.507444e+00 1.482511e+00 1.872495e-01 3.538547e-01 3.196622e-01 3.936062e-01 5.352142e-01 5.498042e-01 5.285169e-01 5.590863e-01 5.190611e-01 4.943623e-01 4.520401e-01 4.178366e-01 1.428096e-01
<GCONST> 1.229154e+02
<STATE> 3
<MEAN> 39
 -9.806576e+00 -9.201879e+00 -4.130409e+00 -4.234746e+00 7.205599e-02 4.418734e-01 -4.451571e+00 -1.057004e+00 -2.458097e+00 -1.830469e+00 -4.122190e+00 -3.730709e+00 5.946379e+01 8.992069e-03 -1.087888e-01 -3.136323e-01 -3.320558e-01 -3.198567e-01 -2.850533e-01 -2.201427e-01 -1.472998e-01 -1.133361e-02 1.859300e-02 3.984784e-02 -6.521907e-02 -4.056903e-01 3.194049e-01 1.939362e-01 3.121755e-02 -4.171799e-02 -2.690442e-01 -4.292056e-02 -1.638293e-01 -5.372678e-02 -1.543599e-01 -4.481643e-02 -3.044892e-02 -1.437344e-01 8.420297e-02
<VARIANCE> 39
 4.269444e+01 6.213898e+01 5.700640e+01 3.733742e+01 6.065759e+01 4.778648e+01 5.334222e+01 5.195796e+01 4.785933e+01 4.021619e+01 4.221166e+01 3.194825e+01 1.244031e+02 2.495254e+00 3.191292e+00 2.352504e+00 2.422099e+00 2.824516e+00 2.936645e+00 2.940782e+00 3.008680e+00 2.847334e+00 2.517045e+00 2.665495e+00 2.314283e+00 4.401227e+00 3.557588e-01 5.002666e-01 4.085228e-01 4.629734e-01 5.590866e-01 5.348337e-01 5.797471e-01 5.591902e-01 5.293064e-01 5.009832e-01 5.035700e-01 4.388138e-01 3.827850e-01
<GCONST> 1.265750e+02
<STATE> 4
<MEAN> 39
 -9.166490e+00 -5.163774e+00 -3.464284e+00 -3.218235e+00 -2.831074e+00 -2.732441e+00 -5.332585e+00 -1.976455e+00 -3.358508e+00 -3.086258e+00 -3.001768e+00 -3.002952e+00 4.779166e+01 1.400213e-01 2.215240e-01 -2.994107e-02 -9.168309e-03 -2.082290e-01 -1.554639e-02 -6.302757e-02 -7.562521e-02 -6.289938e-02 -4.939605e-03 5.007261e-02 -8.437859e-02 -3.080220e-01 3.260678e-02 -1.118416e-02 2.885772e-02 -6.091517e-03 -4.050854e-02 4.289630e-02 -1.841018e-02 1.340168e-02 -1.152164e-02 -3.288838e-03 1.602641e-02 -3.262804e-02 1.167912e-01
<VARIANCE> 39
 2.707479e+01 5.849381e+01 3.801500e+01 2.988399e+01 3.532565e+01 3.543654e+01 3.357727e+01 3.470256e+01 3.144750e+01 2.866996e+01 2.973779e+01 2.437237e+01 1.522456e+02 1.192864e+00 1.690320e+00 1.376576e+00 1.430466e+00 1.766926e+00 1.738941e+00 1.903197e+00 2.001117e+00 1.956591e+00 1.791124e+00 1.723883e+00 1.678360e+00 2.023929e+00 1.544378e-01 2.450318e-01 2.212295e-01 2.464304e-01 2.984274e-01 3.223413e-01 3.452094e-01 3.697112e-01 3.614831e-01 3.369353e-01 3.341440e-01 3.050270e-01 1.418674e-01
<GCONST> 1.086233e+02
<TRANSP> 5
 0.000000e+00 1.000000e+00 0.000000e+00 0.000000e+00 0.000000e+00
 0.000000e+00 6.272991e-01 3.727009e-01 0.000000e+00 0.000000e+00
 0.000000e+00 0.000000e+00 7.498269e-01 2.501731e-01 0.000000e+00
 0.000000e+00 0.000000e+00 0.000000e+00 8.366894e-01 1.633106e-01
 0.000000e+00 0.000000e+00 0.000000e+00 0.000000e+00 0.000000e+00
<ENDHMM>
~h "i"
<BEGINHMM>
<NUMSTATES> 5
<STATE> 2
<MEAN> 39
 -5.914649e+00 -1.661046e+00 1.303959e+01 -1.748916e+00 -1.939788e+01 -8.842469e+00 -1.293092e+01 -5.756584e+00 -1.177564e+01 -5.340135e+00 3.901910e+00 -5.178935e+00 6.607671e+01 4.642187e-01 -1.108727e-01 2.554871e+00 -3.960688e-01 -3.081846e+00 5.142008e-01 -1.659815e+00 -3.654492e-01 -1.338401e+00 -5.860723e-01 1.749324e+00 -5.411322e-01 1.691316e+00 -7.300961e-02 1.297737e-01 -5.499153e-01 -1.101458e-01 4.282080e-01 4.190582e-01 1.468468e-01 6.350325e-02 4.336498e-01 2.466374e-01 -2.704159e-01 -8.526403e-02 -5.472050e-01
<VARIANCE> 39
 2.661084e+01 4.021708e+01 5.091873e+01 3.948306e+01 5.717847e+01 6.737731e+01 5.493433e+01 6.809481e+01 4.846643e+01 3.988038e+01 3.484431e+01 3.114854e+01 6.548876e+01 5.149330e+00 2.771072e+00 4.353256e+00 3.605687e+00 4.747549e+00 5.338750e+00 6.203241e+00 5.432190e+00 5.081834e+00 3.678603e+00 3.407342e+00 3.044136e+00 3.846075e+00 6.934788e-01 5.247215e-01 7.399873e-01 5.149232e-01 1.117180e+00 8.108964e-01 9.509906e-01 9.500718e-01 7.857001e-01 5.829113e-01 6.452883e-01 4.620318e-01 8.536761e-01
<GCONST> 1.359314e+02
<STATE> 3
<MEAN> 39
 -6.990619e+00 3.649417e-02 1.776525e+01 -5.161925e+00 -2.432535e+01 -4.239547e+00 -1.688942e+01 -8.116382e+00 -1.302962e+01 -5.841309e+00 5.756149e+00 -7.633695e+00 6.871171e+01 8.399779e-02 1.431390e-01 -1.086730e-01 -7.345321e-02 -7.175601e-02 5.238227e-02 1.047398e-01 2.232924e-02 3.430624e-02 1.911567e-01 -5.264312e-02 -8.930945e-02 -1.877193e-01 9.413858e-02 1.968016e-02 -4.268415e-01 1.851525e-01 5.118303e-01 -2.676259e-01 3.765605e-01 1.412564e-01 1.843899e-01 1.029075e-01 -3.201984e-01 9.933859e-02 -3.133626e-01
<VARIANCE> 39
 1.349927e+01 2.987181e+01 3.919900e+01 4.225008e+01 3.248447e+01 8.150386e+01 4.766589e+01 6.090863e+01 3.955733e+01 4.207672e+01 3.606194e+01 3.809351e+01 1.950913e+01 5.211860e-01 1.266638e+00 1.335867e+00 1.349104e+00 1.516605e+00 1.995493e+00 2.084625e+00 2.154343e+00 1.627299e+00 1.566110e+00 1.555439e+00 1.253636e+00 8.132165e-01 1.653724e-01 2.064002e-01 2.810013e-01 2.575505e-01 5.261296e-01 3.854495e-01 4.841897e-01 4.342697e-01 4.058698e-01 3.360538e-01 3.894955e-01 2.898676e-01 2.068408e-01
<GCONST> 1.078296e+02
<STATE> 4
<MEAN> 39
 -4.756647e+00 1.447589e+00 1.222411e+01 -1.542464e+00 -1.841540e+01 -7.753240e+00 -1.127134e+01 -6.515066e+00 -1.103337e+01 -4.168119e+00 2.498230e+00 -5.601036e+00 5.859372e+01 3.390212e-01 4.456284e-01 -1.373640e+00 5.113562e-01 1.643650e+00 -3.371234e-01 9.486353e-01 2.269637e-01 7.480645e-01 2.623312e-01 -1.031232e+00 2.369951e-01 -2.022372e+00 -1.005339e-01 -1.121151e-02 -1.355754e-01 -8.216067e-02 1.839958e-01 2.083346e-01 -5.386266e-02 -8.843345e-02 9.586048e-02 3.528137e-03 -1.244396e-01 -9.061783e-03 -8.208473e-02
<VARIANCE> 39
 2.288042e+01 4.448227e+01 4.805275e+01 4.098529e+01 6.011739e+01 7.593977e+01 4.714308e+01 6.443815e+01 4.508752e+01 3.819314e+01 4.386234e+01 3.259266e+01 1.260667e+02 2.494408e+00 2.924875e+00 2.533356e+00 2.455750e+00 3.823726e+00 3.605717e+00 4.132876e+00 4.315292e+00 3.579031e+00 2.765891e+00 3.122198e+00 2.531693e+00 4.283941e+00 3.382679e-01 4.708357e-01 4.141676e-01 4.109127e-01 7.691665e-01 6.415891e-01 6.628204e-01 7.309197e-01 5.927814e-01 5.034014e-01 5.957560e-01 4.239570e-01 6.338760e-01
<GCONST> 1.292411e+02
<TRANSP> 5
 0.000000e+00 1.000000e+00 0.000000e+00 0.000000e+00 0.000000e+00
 0.000000e+00 6.299552e-01 3.700448e-01 0.000000e+00 0.000000e+00
 0.000000e+00 0.000000e+00 8.023444e-01 1.976556e-01 0.000000e+00
 0.000000e+00 0.000000e+00 0.000000e+00 7.565371e-01 2.434629e-01
 0.000000e+00 0.000000e+00 0.000000e+00 0.000000e+00 0.000000e+00
<ENDHMM>
~h "j"
<BEGINHMM>
<NUMSTATES> 5
<STATE> 2
<MEAN> 39
 -2.539150e+00 5.709407e+00 7.313659e+00 1.237487e+00 -8.483407e+00 -6.531754e+00 -7.956098e+00 -1.840148e+00 -4.121904e+00 -5.382945e+00 -3.141572e+00 -4.139307e+00 5.107845e+01 -7.639777e-01 6.891178e-01 2.433874e-01 -4.843477e-02 1.022197e+00 1.913708e-01 5.380458e-01 9.250324e-03 2.893015e-01 -1.288039e-02 -1.960152e-01 2.142173e-01 -2.626096e-01 -5.557895e-01 -3.709804e-01 -1.924691e-01 -2.853522e-01 -4.772143e-02 -1.160538e-02 -1.417494e-01 -2.042383e-01 -1.354607e-01 6.544321e-02 2.486739e-01 1.131886e-01 8.139679e-01
<VARIANCE> 39
 5.223042e+01 4.306311e+01 5.052478e+01 2.882542e+01 4.593093e+01 4.118523e+01 4.407839e+01 3.946905e+01 3.596295e+01 3.130503e+01 2.778222e+01 2.120591e+01 9.800287e+01 7.995353e+00 3.861105e+00 3.088483e+00 2.916796e+00 3.934121e+00 3.233039e+00 3.673313e+00 4.064763e+00 3.244808e+00 2.609685e+00 2.690578e+00 2.242078e+00 8.535669e+00 1.161391e+00 6.168512e-01 4.823779e-01 5.032685e-01 7.488814e-01 6.429935e-01 6.412413e-01 7.235322e-01 6.260923e-01 5.047382e-01 4.845875e-01 4.729557e-01 1.142232e+00
<GCONST> 1.308880e+02
<STATE> 3
<MEAN> 39
 -1.577561e+01 6.142462e+00 7.490231e+00 -2.252921e+00 -4.334783e+00 -6.596089e+00 -6.989863e+00 -6.194720e+00 -5.586826e+00 -5.116446e+00 -1.309140e+00 -7.784961e-01 6.533189e+01 -1.148708e+00 -1.395913e+00 5.394614e-01 -5.070284e-01 -2.331559e+00 -1.575058e+00 -1.178102e+00 -4.574372e-01 -6.844214e-01 -3.511791e-01 1.401373e+00 1.095294e+00 3.732157e+00 1.902404e+00 -6.125358e-01 1.429051e-01 2.022166e-01 -1.344846e+00 -2.652903e-01 -6.697572e-01 6.926770e-01 2.363339e-01 -1.080617e-01 2.136344e-01 -4.012486e-01 -4.128836e-01
<VARIANCE> 39
 3.083104e+01 3.257969e+01 4.937220e+01 2.176447e+01 4.240979e+01 4.518293e+01 3.005089e+01 2.519562e+01 2.680073e+01 2.103746e+01 1.777170e+01 1.754255e+01 2.541591e+01 1.327907e+01 3.988368e+00 4.226725e+00 3.944766e+00 7.859540e+00 4.040441e+00 3.871306e+00 4.073556e+00 3.396170e+00 2.507781e+00 2.489674e+00 2.054466e+00 3.594896e+00 8.498915e-01 8.800823e-01 8.893220e-01 6.873015e-01 1.219010e+00 1.086082e+00 6.524196e-01 9.663716e-01 8.452171e-01 5.496055e-01 5.496535e-01 6.013795e-01 5.627269e-01
<GCONST> 1.297104e+02
<STATE> 4
<MEAN> 39
 -5.966296e+00 -3.073862e+00 9.618648e+00 -2.902941e+00 -1.856773e+01 -1.263329e+01 -1.471943e+01 -1.411020e+00 -4.969589e+00 -6.614243e+00 4.162403e+00 -5.585808e-01 7.261749e+01 2.754509e+00 -3.301562e+00 -1.421465e+00 -8.566398e-01 -2.422731e+00 1.646748e-01 -1.742478e+00 2.370555e+00 1.445114e+00 3.058586e-01 7.891828e-01 -1.706580e+00 1.506273e+00 -1.294959e-01 2.745040e-01 -8.580010e-01 -1.996499e-01 1.332483e+00 1.063880e+00 5.952123e-01 5.144238e-02 2.827668e-01 3.041415e-01 -6.920170e-01 -7.407675e-01 -7.316027e-01
<VARIANCE> 39
 1.658707e+01 3.177398e+01 3.156787e+01 3.735505e+01 3.139595e+01 2.888887e+01 3.393332e+01 5.538145e+01 4.710521e+01 3.130557e+01 2.157717e+01 2.170143e+01 1.877407e+01 2.238578e+00 3.066926e+00 4.127852e+00 3.030133e+00 6.875315e+00 4.516039e+00 4.873689e+00 7.113427e+00 4.238760e+00 3.050092e+00 3.684479e+00 2.717377e+00 1.088979e+00 7.536989e-01 5.284972e-01 3.847540e-01 5.505579e-01 7.703190e-01 6.181836e-01 6.150807e-01 9.507306e-01 6.253702e-01 5.652813e-01 6.958025e-01 4.328018e-01 1.460743e-01
<GCONST> 1.242117e+02
<TRANSP> 5
 0.000000e+00 1.000000e+00 0.000000e+00 0.000000e+00 0.000000e+00
 0.000000e+00 8.525335e-01 1.474665e-01 0.000000e+00 0.000000e+00
 0.000000e+00 0.000000e+00 6.778667e-01 3.221332e-01 0.000000e+00
 0.000000e+00 0.000000e+00 0.000000e+00 6.001327e-01 3.998673e-01
 0.000000e+00 0.000000e+00 0.000000e+00 0.000000e+00 0.000000e+00
<ENDHMM>
~h "k"
<BEGINHMM>
<NUMSTATES> 5
<STATE> 2
<MEAN> 39
 -7.315210e+00 -3.190671e-01 -2.924702e+00 -2.962097e+00 -5.626100e+00 -4.532502e+00 -6.483597e+00 -2.886847e+00 -4.102040e+00 -1.662050e+00 -2.559631e+00 -3.927673e+00 4.235326e+01 -5.012738e-01 2.478878e-01 -1.067564e-01 1.780766e-01 1.701784e-01 -1.568971e-01 1.797960e-01 -9.690835e-02 1.817643e-01 -5.139915e-02 -4.662121e-02 3.328190e-01 -1.391247e+00 -7.544579e-02 -2.400136e-01 -9.746300e-02 -1.050253e-01 1.928422e-02 5.739786e-03 -6.397124e-02 6.011021e-02 -1.822823e-02 2.275537e-02 1.962345e-02 -9.721590e-03 5.302824e-01
<VARIANCE> 39
 3.949553e+01 3.621593e+01 3.845884e+01 3.593310e+01 4.479485e+01 4.314534e+01 3.837974e+01 4.132054e+01 3.911817e+01 3.308429e+01 3.267525e+01 3.333438e+01 9.859727e+01 1.264805e+00 1.611291e+00 1.664841e+00 1.936041e+00 2.493781e+00 2.394734e+00 2.414287e+00 2.489001e+00 2.547434e+00 2.358889e+00 2.243785e+00 1.985237e+00 4.299511e+00 2.595136e-01 4.222704e-01 3.897239e-01 4.276144e-01 5.296730e-01 4.734785e-01 5.085475e-01 4.929327e-01 5.347946e-01 4.878300e-01 4.598372e-01 3.979659e-01 7.360548e-01
<GCONST> 1.199500e+02
<STATE> 3
<MEAN> 39
 -7.923092e+00 3.526452e-01 -2.151133e+00 -2.845598e+00 -6.445787e+00 -5.264697e+00 -7.437231e+00 -4.182983e+00 -4.917063e+00 -1.236238e+00 -2.311319e+00 -3.411131e+00 4.376841e+01 -1.305785e+00 -1.584182e+00 -1.653215e+00 -3.785876e-01 1.270677e+00 -4.642546e-01 -1.282968e-01 5.176347e-01 1.725621e-01 4.068671e-01 -2.800379e-01 5.871517e-01 2.079710e+00 1.472729e-01 -4.295661e-01 -2.654375e-01 -3.364035e-01 -8.248229e-02 1.240265e-02 -1.558336e-01 2.017823e-01 -8.236952e-02 1.109849e-01 -1.388914e-03 -2.204370e-01 1.673368e+00
<VARIANCE> 39
 4.433733e+01 4.479974e+01 6.047305e+01 5.004330e+01 6.620214e+01 5.749343e+01 4.695968e+01 5.144932e+01 4.791010e+01 3.698098e+01 3.807359e+01 3.153609e+01 9.438436e+01 3.934465e+00 5.698360e+00 6.684185e+00 5.262851e+00 6.635955e+00 5.711438e+00 5.579426e+00 5.219958e+00 5.000513e+00 4.350508e+00 3.976055e+00 3.422472e+00 1.645891e+01 6.578001e-01 8.699598e-01 9.065894e-01 7.826551e-01 1.120180e+00 9.434379e-01 9.049916e-01 8.781218e-01 8.406895e-01 7.487504e-01 7.162445e-01 6.229984e-01 1.727790e+00
<GCONST> 1.428078e+02
<STATE> 4
<MEAN> 39
 -1.099247e+01 -7.177535e+00 -1.006489e+01 -6.129519e+00 -1.919656e+00 -7.267090e+00 -9.414001e+00 -1.167496e+00 -4.511587e+00 1.074338e+00 -4.274424e+00 -2.945220e+00 6.167066e+01 1.162986e+00 -5.089291e-01 1.602709e-01 -8.723066e-01 -1.106663e+00 -4.123674e-02 -4.834598e-01 6.167684e-01 -1.267884e-01 -1.510936e-01 2.620836e-01 -1.170359e+00 4.327798e+00 9.052180e-01 4.408359e-01 9.723751e-01 5.105422e-02 -1.016446e+00 4.591413e-01 1.699395e-02 -1.117987e-01 2.563655e-02 -4.671044e-01 4.206374e-01 -5.935770e-01 -6.412979e-01
<VARIANCE> 39
 3.433134e+01 4.362369e+01 6.856673e+01 5.695021e+01 6.182462e+01 7.332918e+01 4.641037e+01 4.855502e+01 5.374904e+01 3.947458e+01 3.730274e+01 3.337012e+01 6.435791e+01 5.784891e+00 5.423512e+00 7.908934e+00 4.702065e+00 7.823493e+00 6.074673e+00 4.802803e+00 5.754778e+00 5.108525e+00 4.464733e+00 4.294557e+00 4.613389e+00 1.175446e+01 7.468904e-01 9.296731e-01 1.227250e+00 9.235826e-01 1.314131e+00 1.135153e+00 1.103913e+00 1.019775e+00 9.865436e-01 8.867976e-01 8.318459e-01 8.148080e-01 1.206133e+00
<GCONST> 1.451134e+02
<TRANSP> 5
 0.000000e+00 1.000000e+00 0.000000e+00 0.000000e+00 0.000000e+00
 0.000000e+00 8.123128e-01 1.876871e-01 0.000000e+00 0.000000e+00
 0.000000e+00 0.000000e+00 6.409346e-01 3.590654e-01 0.000000e+00
 0.000000e+00 0.000000e+00 0.000000e+00 6.308759e-01 3.691241e-01
 0.000000e+00 0.000000e+00 0.000000e+00 0.000000e+00 0.000000e+00
<ENDHMM>
~h "l"
<BEGINHMM>
<NUMSTATES> 5
<STATE> 2
<MEAN> 39
 1.872432e+00 -9.232072e+00 -2.066734e+00 -6.947446e+00 -1.499922e+01 -5.133642e-01 -1.504274e+01 -1.020513e+01 4.001066e-02 6.464106e-01 3.793317e-01 -7.824842e+00 6.991377e+01 6.928002e-01 -4.140968e-01 8.417060e-01 2.337836e-03 3.009537e-01 -1.296151e-01 -1.306939e+00 -1.108706e+00 5.643256e-02 1.253241e+00 -2.430837e-02 -2.118352e-01 -4.570792e-01 -1.688169e-01 1.977302e-01 3.603841e-02 -2.622340e-01 1.715633e-01 8.872940e-02 2.910084e-02 3.321191e-01 -2.504050e-01 -2.222232e-01 8.586999e-02 -1.759523e-02 -3.478771e-02
<VARIANCE> 39
 2.088742e+01 3.071145e+01 6.418813e+01 7.129214e+01 5.956487e+01 1.041457e+02 7.689286e+01 1.343298e+02 7.919629e+01 6.324617e+01 5.432466e+01 4.489524e+01 2.608483e+01 1.096920e+00 2.629494e+00 3.565741e+00 5.903049e+00 5.697670e+00 7.839849e+00 4.687739e+00 6.024885e+00 5.346678e+00 4.616595e+00 4.691258e+00 3.732395e+00 1.116174e+00 2.368770e-01 3.215356e-01 4.288552e-01 6.716498e-01 8.808972e-01 9.694059e-01 8.805012e-01 1.081065e+00 8.565679e-01 8.243486e-01 6.937249e-01 5.696625e-01 1.423670e-01
<GCONST> 1.342974e+02
<STATE> 3
<MEAN> 39
 2.979456e+00 -9.956317e+00 -3.908754e-02 -1.116898e+01 -1.313379e+01 2.485209e+00 -1.909369e+01 -9.844838e+00 2.588084e-01 3.836861e+00 5.440277e-01 -9.277299e+00 6.931894e+01 -4.067147e-03 2.183681e-01 3.631635e-02 -2.729151e-01 3.096513e-01 2.710608e-02 -1.535726e-01 3.735945e-02 -1.894002e-01 1.114643e-01 -1.222584e-02 -2.867350e-02 -1.687883e-01 -2.434011e-01 -1.020477e-02 -3.182117e-01 1.604161e-01 2.500967e-02 -2.127910e-02 4.517359e-01 4.148040e-01 5.235163e-02 -4.248044e-01 -1.664489e-01 -3.686604e-02 1.646445e-01
<VARIANCE> 39
 1.739457e+01 2.994586e+01 5.904612e+01 7.510356e+01 5.133955e+01 8.629527e+01 7.321520e+01 9.863856e+01 7.788124e+01 6.252795e+01 5.163506e+01 4.000053e+01 1.977779e+01 5.029337e-01 9.493111e-01 1.828683e+00 2.031517e+00 1.763044e+00 2.597021e+00 2.527535e+00 3.333642e+00 2.555206e+00 2.380735e+00 2.106747e+00 1.761651e+00 7.362757e-01 1.085747e-01 2.720937e-01 3.065884e-01 4.357788e-01 5.354301e-01 6.024911e-01 6.145390e-01 6.459743e-01 5.700806e-01 5.889853e-01 5.287374e-01 4.238238e-01 1.174018e-01
<GCONST> 1.174369e+02
<STATE> 4
<MEAN> 39
 3.172404e-01 -6.389707e+00 -1.025522e+00 -7.887910e+00 -1.003248e+01 -8.259947e-01 -1.560010e+01 -8.065666e+00 -1.578795e+00 1.322468e+00 -1.393117e+00 -7.874004e+00 6.345427e+01 -7.169269e-01 3.076876e-01 -4.550479e-01 4.773888e-01 2.789422e-01 -2.716169e-01 1.105819e+00 1.008027e+00 1.817212e-02 -8.572019e-01 -4.854826e-01 1.750057e-01 -2.166816e-01 -1.250777e-01 -7.014716e-02 -1.097069e-01 4.596461e-03 -1.742892e-01 1.270132e-01 2.874350e-01 1.994194e-01 -2.393363e-02 -1.950637e-01 3.681506e-02 5.329085e-03 1.058246e-01
<VARIANCE> 39
 2.980534e+01 3.993342e+01 6.981739e+01 7.254077e+01 5.759667e+01 8.760762e+01 8.819743e+01 9.917567e+01 6.132701e+01 6.186635e+01 5.296161e+01 4.231611e+01 1.122711e+02 1.366210e+00 3.420820e+00 3.210197e+00 3.837881e+00 4.762223e+00 5.364356e+00 4.704922e+00 5.779697e+00 5.118608e+00 4.249555e+00 4.093225e+00 3.240350e+00 4.093653e+00 2.356878e-01 4.094239e-01 3.805571e-01 6.412538e-01 8.510957e-01 7.846962e-01 9.428363e-01 7.825463e-01 7.053004e-01 7.435251e-01 6.910791e-01 5.177909e-01 3.636745e-01
<GCONST> 1.360984e+02
<TRANSP> 5
 0.000000e+00 1.000000e+00 0.000000e+00 0.000000e+00 0.000000e+00
 0.000000e+00 5.141221e-01 4.858778e-01 0.000000e+00 0.000000e+00
 0.000000e+00 0.000000e+00 6.826659e-01 3.173341e-01 0.000000e+00
 0.000000e+00 0.000000e+00 0.000000e+00 5.418178e-01 4.581821e-01
 0.000000e+00 0.000000e+00 0.000000e+00 0.000000e+00 0.000000e+00
<ENDHMM>
~h "m"
<BEGINHMM>
<NUMSTATES> 5
<STATE> 2
<MEAN> 39
 2.527024e+00 -2.577260e+00 8.723077e-01 -3.342506e+00 -9.329711e+00 6.671054e-01 -9.415129e+00 -1.055556e+01 -1.314905e+01 -1.985866e+00 -1.038737e+00 -8.658131e+00 5.983249e+01 5.963922e-01 8.355993e-01 1.515506e+00 1.540827e+00 2.282620e-01 3.275404e-01 8.225652e-01 -2.331301e+00 -2.627774e+00 1.555030e-01 -6.279944e-01 -6.929534e-03 -6.019771e-01 -2.652814e-01 -3.172742e-01 -8.602971e-02 -2.693983e-01 -1.045782e-01 4.280424e-02 -2.216441e-02 3.313503e-01 3.714730e-01 -1.239940e-01 5.795019e-03 1.354363e-02 3.965097e-01
<VARIANCE> 39
 2.687630e+01 3.628349e+01 3.396812e+01 5.142019e+01 5.710143e+01 8.013078e+01 5.958050e+01 6.327539e+01 7.335071e+01 5.766354e+01 6.408424e+01 3.963078e+01 7.851585e+01 2.192881e+00 3.098104e+00 3.479622e+00 4.036530e+00 3.871179e+00 4.377742e+00 4.663081e+00 5.182045e+00 5.611670e+00 4.838253e+00 6.135080e+00 3.804581e+00 5.252066e+00 3.170448e-01 3.552093e-01 4.895138e-01 4.986196e-01 5.790792e-01 5.508098e-01 6.125558e-01 8.348114e-01 1.018553e+00 6.231990e-01 7.992191e-01 5.099420e-01 3.526215e-01
<GCONST> 1.341233e+02
<STATE> 3
<MEAN> 39
 3.469156e+00 -2.792128e+00 4.238654e+00 -2.233920e+00 -1.049391e+01 2.619193e+00 -8.181693e+00 -1.360092e+01 -1.643047e+01 -3.110845e+00 -3.034181e+00 -9.248397e+00 6.225254e+01 -2.584762e-02 1.933263e-01 1.369698e-01 1.049164e-01 5.061839e-02 3.580660e-02 2.471383e-01 -7.222914e-02 -8.643166e-02 -2.618499e-02 -1.916215e-01 1.536023e-01 -1.171281e-01 -4.321295e-02 -9.360395e-02 -3.884946e-01 -4.118289e-01 -2.337203e-02 -8.279409e-02 -1.859959e-01 5.019448e-01 5.983202e-01 -3.328039e-02 2.228934e-01 6.631701e-03 1.588998e-01
<VARIANCE> 39
 1.265585e+01 2.160553e+01 2.397775e+01 5.061007e+01 7.095977e+01 9.597844e+01 6.731360e+01 5.260413e+01 6.651988e+01 7.819530e+01 7.237228e+01 4.124162e+01 2.476670e+01 2.670431e-01 8.108813e-01 9.863216e-01 1.421963e+00 1.238002e+00 1.783641e+00 1.509491e+00 1.894169e+00 2.217606e+00 1.872294e+00 2.390051e+00 1.489169e+00 9.234047e-01 9.374143e-02 1.881592e-01 3.066617e-01 4.053533e-01 3.128758e-01 3.794938e-01 4.121213e-01 5.640357e-01 6.993763e-01 4.876708e-01 6.007544e-01 3.954256e-01 1.761172e-01
<GCONST> 1.104576e+02
<STATE> 4
<MEAN> 39
 -1.849147e+00 -3.153670e-01 1.001133e+00 -1.191865e+00 -5.869817e+00 3.881203e-01 -6.361325e+00 -8.706887e+00 -1.043805e+01 -2.498949e+00 -3.468346e+00 -5.163350e+00 5.144926e+01 -1.031066e-01 -2.343098e-01 -6.674556e-01 -7.933429e-01 3.771377e-02 -6.046332e-02 -3.108834e-01 8.082287e-01 1.057616e+00 -4.984912e-02 4.284652e-01 -4.026185e-02 4.164580e-01 -5.821168e-02 -2.124913e-01 -1.559846e-01 -2.074644e-01 -3.223296e-02 4.154098e-02 -2.177703e-01 2.721431e-01 2.936000e-01 -5.588600e-02 1.020214e-01 -1.348935e-01 2.266244e-01
<VARIANCE> 39
 5.034380e+01 3.387571e+01 3.725692e+01 4.186105e+01 5.817690e+01 6.219650e+01 4.629088e+01 6.516833e+01 8.359036e+01 4.955677e+01 5.156715e+01 3.639802e+01 1.404088e+02 1.991055e+00 2.652986e+00 3.558546e+00 4.256173e+00 2.901367e+00 3.378536e+00 3.344285e+00 4.358738e+00 6.177820e+00 3.439692e+00 4.064442e+00 2.718980e+00 4.994515e+00 3.089303e-01 3.537750e-01 4.392822e-01 5.242271e-01 4.971537e-01 5.069997e-01 4.986948e-01 7.387476e-01 8.745196e-01 5.402972e-01 6.263254e-01 4.287604e-01 3.552962e-01
<GCONST> 1.307410e+02
<TRANSP> 5
 0.000000e+00 1.000000e+00 0.000000e+00 0.000000e+00 0.000000e+00
 0.000000e+00 5.531897e-01 4.468103e-01 0.000000e+00 0.000000e+00
 0.000000e+00 0.000000e+00 7.626286e-01 2.373714e-01 0.000000e+00
 0.000000e+00 0.000000e+00 0.000000e+00 7.248467e-01 2.751534e-01
 0.000000e+00 0.000000e+00 0.000000e+00 0.000000e+00 0.000000e+00
<ENDHMM>
~h "n"
<BEGINHMM>
<NUMSTATES> 5
<STATE> 2
<MEAN> 39
 2.862034e+00 -5.032274e+00 2.398687e+00 -8.179521e-01 -1.342753e+01 -6.027649e+00 -1.241176e+01 -7.200972e+00 -5.636505e+00 -2.858472e-01 -6.966428e+00 -9.017431e+00 6.499487e+01 8.337620e-01 2.236260e+00 1.558185e+00 1.487818e+00 -3.489719e-01 -7.621706e-01 9.297323e-01 -3.373078e+00 -1.180045e+00 1.372704e+00 -1.395134e+00 6.530021e-01 -2.186452e+00 -2.560309e-01 -2.133307e-01 -2.188114e-01 -4.456725e-01 4.922306e-05 3.759703e-01 1.446375e-01 3.692288e-01 2.605975e-02 -2.379841e-01 2.689483e-01 4.067485e-02 3.474292e-01
<VARIANCE> 39
 1.110172e+01 3.301432e+01 3.745130e+01 3.785765e+01 4.500850e+01 6.067118e+01 5.048904e+01 9.199347e+01 6.346535e+01 4.423774e+01 5.024443e+01 4.529404e+01 2.561821e+01 7.787786e-01 1.924214e+00 3.555116e+00 2.776263e+00 3.688842e+00 5.075124e+00 4.070516e+00 5.761286e+00 3.936767e+00 3.987941e+00 4.059349e+00 3.630976e+00 1.043254e+00 1.303802e-01 3.890729e-01 3.729627e-01 3.687679e-01 4.940422e-01 5.403625e-01 6.033017e-01 1.089573e+00 5.660539e-01 6.026344e-01 5.244699e-01 4.399081e-01 2.230638e-01
<GCONST> 1.236247e+02
<STATE> 3
<MEAN> 39
 3.727833e+00 -1.397317e+00 5.582725e+00 2.604416e-01 -1.502266e+01 -6.306030e+00 -9.917055e+00 -1.171144e+01 -7.979318e+00 1.177245e+00 -8.789352e+00 -8.089282e+00 6.157277e+01 6.126574e-02 6.023800e-01 1.841600e-01 2.416203e-01 2.284217e-01 7.806067e-02 3.157966e-01 -2.227190e-01 -3.171515e-01 1.012238e-01 -9.713123e-02 2.488282e-01 -7.205426e-01 -2.020402e-01 -1.891081e-01 -1.972017e-01 -1.681836e-01 2.517285e-01 1.010197e-01 -1.544898e-01 5.378042e-01 1.697270e-01 -2.656711e-01 2.472803e-01 -4.301847e-02 1.289864e-01
<VARIANCE> 39
 1.038095e+01 2.049454e+01 2.695922e+01 4.133603e+01 5.498038e+01 8.903906e+01 5.738807e+01 5.419628e+01 5.951427e+01 4.744438e+01 5.523909e+01 5.183820e+01 2.211802e+01 3.310097e-01 9.328264e-01 8.590459e-01 1.059320e+00 1.561780e+00 1.527472e+00 1.738492e+00 2.157793e+00 1.863739e+00 1.830347e+00 1.833268e+00 1.439558e+00 7.595030e-01 1.243425e-01 2.539280e-01 3.113428e-01 3.268540e-01 3.796870e-01 4.292180e-01 4.185504e-01 6.389377e-01 4.296354e-01 4.692382e-01 4.529625e-01 3.538784e-01 2.136342e-01
<GCONST> 1.085891e+02
<STATE> 4
<MEAN> 39
 -2.353392e+00 8.119311e-01 2.650242e+00 6.527830e-01 -7.524920e+00 -4.794321e+00 -7.519327e+00 -6.979651e+00 -6.741439e+00 -1.507985e+00 -6.389316e+00 -4.870913e+00 4.957016e+01 -7.458223e-01 -5.422662e-03 -3.394943e-01 -2.468255e-01 6.697449e-01 1.445757e-01 -1.743646e-02 7.393914e-01 3.451952e-01 -4.726996e-01 4.490091e-01 1.448344e-01 -6.444637e-01 -1.322054e-01 -2.139422e-01 -1.113922e-01 -1.754763e-01 -6.740442e-02 5.308044e-02 -7.595605e-02 1.722064e-01 1.081932e-01 -1.036040e-01 1.211071e-01 -4.980333e-02 2.188978e-01
<VARIANCE> 39
 4.601398e+01 3.826003e+01 4.156141e+01 3.470350e+01 5.905775e+01 4.943667e+01 5.288069e+01 5.956838e+01 5.461740e+01 4.579345e+01 4.859298e+01 4.095365e+01 1.142109e+02 1.779104e+00 3.077849e+00 2.403061e+00 2.583638e+00 3.323449e+00 3.221860e+00 3.110466e+00 4.165719e+00 3.530786e+00 3.309675e+00 3.099309e+00 2.456758e+00 4.318945e+00 3.659853e-01 4.959272e-01 4.264731e-01 4.668199e-01 5.896202e-01 5.789225e-01 5.660065e-01 8.200362e-01 6.699523e-01 6.366251e-01 5.856935e-01 4.549956e-01 4.673375e-01
<GCONST> 1.289296e+02
<TRANSP> 5
 0.000000e+00 1.000000e+00 0.000000e+00 0.000000e+00 0.000000e+00
 0.000000e+00 5.424235e-01 4.575764e-01 0.000000e+00 0.000000e+00
 0.000000e+00 0.000000e+00 7.687792e-01 2.312208e-01 0.000000e+00
 0.000000e+00 0.000000e+00 0.000000e+00 7.580532e-01 2.419468e-01
 0.000000e+00 0.000000e+00 0.000000e+00 0.000000e+00 0.000000e+00
<ENDHMM>
~h "o"
<BEGINHMM>
<NUMSTATES> 5
<STATE> 2
<MEAN> 39
 7.735972e-01 -3.699322e+00 -7.187779e+00 -1.407731e+01 -1.183104e+01 3.210098e+00 -1.155076e+01 -5.360768e+00 -3.392594e+00 -1.247581e+00 1.871971e+00 -7.002681e+00 6.562481e+01 1.806578e+00 -7.641574e-01 -8.684904e-01 -2.371492e+00 -1.661674e+00 2.513993e+00 -6.195700e-01 1.550860e-02 5.805465e-01 -1.518423e-01 1.544075e+00 -1.067742e+00 2.216985e+00 -3.876414e-01 -4.295800e-03 1.433843e-01 2.674704e-01 2.336835e-01 6.805065e-02 2.230554e-01 1.737214e-02 -1.144571e-01 -4.767025e-02 -1.802670e-02 1.360269e-01 -4.816036e-01
<VARIANCE> 39
 3.142831e+01 3.760162e+01 4.219319e+01 9.724850e+01 5.862385e+01 8.539565e+01 6.813702e+01 6.820804e+01 7.092545e+01 5.879744e+01 5.059248e+01 3.793125e+01 1.080557e+02 4.429224e+00 2.802428e+00 4.931692e+00 6.137227e+00 7.291174e+00 5.543836e+00 4.162113e+00 5.816756e+00 5.134023e+00 5.609589e+00 4.139637e+00 3.817126e+00 5.558406e+00 7.447202e-01 5.128732e-01 5.587578e-01 1.191593e+00 8.776591e-01 1.025300e+00 8.045096e-01 7.854275e-01 9.204416e-01 7.234392e-01 6.782779e-01 5.876039e-01 1.232562e+00
<GCONST> 1.422114e+02
<STATE> 3
<MEAN> 39
 2.820034e+00 -6.938078e+00 -9.375115e+00 -1.713724e+01 -1.452867e+01 9.354539e+00 -1.371813e+01 -5.794631e+00 -2.170099e+00 -1.738271e+00 6.383168e+00 -9.719831e+00 7.227865e+01 3.339288e-02 -2.803112e-01 -2.408673e-01 -4.442123e-01 6.823446e-02 8.578302e-01 2.747620e-02 6.811740e-02 -3.647150e-03 -3.098850e-03 3.462876e-01 -2.613730e-01 2.156902e-01 -2.366787e-01 2.696545e-01 3.438987e-01 6.519160e-01 3.735667e-01 -7.965408e-01 1.738706e-01 -3.907967e-02 -1.907516e-01 1.921921e-02 -5.816106e-01 3.173387e-01 -5.308533e-01
<VARIANCE> 39
 1.212498e+01 2.830526e+01 3.138158e+01 6.981924e+01 5.373980e+01 5.966905e+01 5.919011e+01 7.797021e+01 6.654475e+01 6.840246e+01 4.780196e+01 3.863824e+01 1.276065e+01 5.410623e-01 1.454785e+00 1.595939e+00 4.497571e+00 2.484982e+00 4.682771e+00 3.324069e+00 3.187295e+00 3.545854e+00 3.540318e+00 2.962344e+00 2.354851e+00 8.694084e-01 2.447515e-01 2.743776e-01 3.238750e-01 4.918809e-01 7.168276e-01 5.352834e-01 5.800852e-01 6.844867e-01 6.572169e-01 7.157703e-01 5.204337e-01 5.263320e-01 2.409932e-01
<GCONST> 1.211961e+02
<STATE> 4
<MEAN> 39
 2.716860e+00 -4.385901e+00 -8.233194e+00 -2.005346e+01 -1.286052e+01 9.285892e+00 -1.186925e+01 -4.935513e+00 -4.005321e+00 -2.942894e+00 3.768013e+00 -7.749082e+00 6.840174e+01 1.381777e-02 3.930395e-01 3.300804e-01 9.020743e-01 4.044464e-01 -7.244450e-01 1.604587e-01 -1.629307e-01 -1.339248e-01 1.209648e-01 -6.575623e-01 1.200997e-01 -1.000645e+00 -4.492504e-02 7.782127e-02 1.403720e-01 3.427810e-01 6.725091e-02 -2.174470e-01 3.244890e-02 -9.563397e-02 -6.524559e-03 4.691489e-02 -1.457807e-01 2.970573e-02 -2.530322e-01
<VARIANCE> 39
 1.408289e+01 4.267332e+01 3.216168e+01 6.583311e+01 6.152472e+01 5.553601e+01 5.873575e+01 7.107751e+01 6.728765e+01 7.498985e+01 4.755740e+01 4.294200e+01 4.864220e+01 5.441518e-01 1.470650e+00 1.353539e+00 3.012383e+00 2.305476e+00 2.632961e+00 2.333798e+00 2.290070e+00 2.500037e+00 2.489573e+00 2.374359e+00 1.864432e+00 2.354241e+00 1.114431e-01 2.300244e-01 2.159856e-01 3.458283e-01 3.702441e-01 3.917975e-01 4.257565e-01 3.997793e-01 4.429216e-01 4.421532e-01 3.697079e-01 3.481587e-01 2.458279e-01
<GCONST> 1.160307e+02
<TRANSP> 5
 0.000000e+00 1.000000e+00 0.000000e+00 0.000000e+00 0.000000e+00
 0.000000e+00 5.458115e-01 4.541885e-01 0.000000e+00 0.000000e+00
 0.000000e+00 0.000000e+00 6.790417e-01 3.209583e-01 0.000000e+00
 0.000000e+00 0.000000e+00 0.000000e+00 8.174914e-01 1.825086e-01
 0.000000e+00 0.000000e+00 0.000000e+00 0.000000e+00 0.000000e+00
<ENDHMM>
~h "p"
<BEGINHMM>
<NUMSTATES> 5
<STATE> 2
<MEAN> 39
 -5.600030e+00 4.094624e-01 -2.976704e+00 -3.427041e+00 -5.767221e+00 -3.291593e+00 -6.700900e+00 -4.181285e+00 -3.817272e+00 -2.008119e+00 -2.455473e+00 -4.745317e+00 4.124150e+01 -6.933498e-01 2.803296e-01 -1.267548e-01 1.681265e-01 1.460483e-01 -3.450455e-01 2.085654e-01 2.542593e-02 1.861885e-01 5.038966e-02 -1.009450e-01 2.898909e-01 -1.223880e+00 -5.751660e-02 -1.867303e-01 -7.726784e-03 -8.330533e-02 -3.689002e-02 2.855273e-02 -3.266806e-02 3.361122e-02 5.462395e-03 4.616411e-03 8.058774e-02 1.969469e-02 5.714908e-01
<VARIANCE> 39
 4.387035e+01 3.293570e+01 3.235955e+01 3.290385e+01 3.067182e+01 3.665266e+01 3.250990e+01 3.436118e+01 3.280724e+01 2.845057e+01 2.816289e+01 3.359052e+01 6.631236e+01 1.170429e+00 1.412794e+00 1.411250e+00 1.589808e+00 1.763197e+00 2.009953e+00 1.918996e+00 2.091126e+00 2.228024e+00 2.009438e+00 2.078462e+00 1.773296e+00 3.025887e+00 2.216944e-01 3.082185e-01 3.093443e-01 3.559172e-01 3.752988e-01 3.860525e-01 3.957675e-01 4.181874e-01 4.502612e-01 4.052248e-01 4.093503e-01 3.502366e-01 6.075034e-01
<GCONST> 1.129664e+02
<STATE> 3
<MEAN> 39
 -7.043913e+00 2.417702e+00 -1.343101e+00 -2.056563e+00 -5.495864e+00 -3.761858e+00 -6.184328e+00 -4.895765e+00 -3.941565e+00 -1.884992e+00 -2.567719e+00 -3.590963e+00 4.011156e+01 -7.870270e-01 -1.285835e+00 -4.847594e-01 -4.750434e-01 1.076768e-01 -2.213632e-01 1.869662e-02 2.260986e-01 5.373755e-01 -1.664557e-02 4.666806e-01 3.970127e-01 3.616066e+00 7.805080e-01 -7.458891e-01 -2.650033e-01 -6.982073e-01 -5.173164e-01 4.842969e-01 -3.527839e-01 1.431854e-03 -1.486260e-01 -1.040847e-02 4.001395e-01 -4.610330e-01 2.231322e+00
<VARIANCE> 39
 3.528684e+01 2.865824e+01 3.265911e+01 3.213900e+01 3.156019e+01 3.687949e+01 3.225879e+01 3.252436e+01 3.528931e+01 2.784471e+01 2.769891e+01 2.600996e+01 6.367174e+01 4.331022e+00 3.584594e+00 3.728562e+00 4.477920e+00 3.600644e+00 4.642354e+00 3.617605e+00 3.879578e+00 4.198445e+00 3.274765e+00 3.298189e+00 3.006336e+00 1.496122e+01 6.067604e-01 6.435496e-01 7.119825e-01 7.882202e-01 7.655966e-01 9.690330e-01 6.710868e-01 8.947935e-01 8.248968e-01 6.970599e-01 6.477116e-01 6.110440e-01 1.037480e+00
<GCONST> 1.320574e+02
<STATE> 4
<MEAN> 39
 -6.112649e+00 -4.253929e+00 -5.108073e+00 -6.381871e+00 -6.423722e+00 -3.357258e+00 -7.238614e+00 -5.374070e+00 -2.993997e+00 -2.025100e+00 -1.621252e-01 -3.967731e+00 6.104059e+01 2.525922e+00 -2.481174e+00 -1.266338e+00 -2.582255e+00 -1.705024e+00 1.944416e+00 -1.187335e+00 5.405601e-02 -7.732381e-02 -1.668268e-02 1.460976e+00 -1.629026e+00 7.326980e+00 5.383283e-01 4.163572e-02 1.521685e-01 -7.723469e-02 -4.589336e-01 4.744965e-01 -3.058521e-01 1.649268e-01 -8.685784e-02 1.385616e-03 -3.502961e-02 -5.028014e-01 -7.365432e-01
<VARIANCE> 39
 3.745228e+01 2.113798e+01 3.031785e+01 5.151625e+01 2.598266e+01 4.982408e+01 2.936003e+01 3.005450e+01 3.080095e+01 2.545113e+01 2.797681e+01 2.586488e+01 5.818657e+01 4.244723e+00 5.802645e+00 6.478647e+00 7.226020e+00 5.663826e+00 9.052380e+00 4.818474e+00 6.762177e+00 6.403529e+00 4.904912e+00 4.480824e+00 4.610961e+00 1.055332e+01 9.574398e-01 7.889757e-01 6.998371e-01 1.182079e+00 1.079862e+00 1.102350e+00 7.670312e-01 8.333408e-01 8.865758e-01 6.919827e-01 8.281706e-01 6.737072e-01 1.464687e+00
<GCONST> 1.388348e+02
<TRANSP> 5
 0.000000e+00 1.000000e+00 0.000000e+00 0.000000e+00 0.000000e+00
 0.000000e+00 8.475567e-01 1.524433e-01 0.000000e+00 0.000000e+00
 0.000000e+00 0.000000e+00 5.965351e-01 4.034649e-01 0.000000e+00
 0.000000e+00 0.000000e+00 0.000000e+00 4.320464e-01 5.679536e-01
 0.000000e+00 0.000000e+00 0.000000e+00 0.000000e+00 0.000000e+00
<ENDHMM>
~h "q"
<BEGINHMM>
<NUMSTATES> 5
<STATE> 2
<MEAN> 39
 -5.959510e+00 3.402912e+00 1.837148e+00 -1.784050e-01 -1.341326e+01 -1.075938e+01 -9.722334e+00 -8.432762e+00 -9.434352e+00 4.524866e-01 -3.674350e-02 -6.624605e+00 5.089990e+01 -1.486963e+00 -8.107283e-01 -1.998296e+00 -3.086928e-01 1.844264e+00 4.187214e-01 7.873762e-01 1.588976e-01 1.145266e+00 2.913638e-01 -4.880981e-01 5.712275e-01 1.938263e-02 -2.481725e-01 -5.662351e-01 -4.287739e-02 -1.505102e-01 1.898310e-01 4.949357e-01 2.776763e-01 7.318785e-01 -1.660038e-03 -7.159644e-02 -6.142736e-02 9.654100e-02 8.495784e-01
<VARIANCE> 39
 2.697894e+01 7.088637e+01 6.544243e+01 5.780581e+01 3.306476e+01 2.182320e+01 3.231364e+01 4.511490e+01 1.834991e+01 3.895452e+01 3.285490e+01 3.451780e+01 5.336832e+01 2.529346e+00 1.190665e+01 6.322162e+00 2.821119e+00 3.668661e+00 3.318599e+00 4.706624e+00 6.088977e+00 1.335542e+00 3.418344e+00 3.009758e+00 2.458094e+00 1.104500e+01 6.646457e-01 1.450397e+00 9.756342e-01 5.744302e-01 4.604453e-01 5.310069e-01 5.622547e-01 5.541936e-01 3.417059e-01 7.465041e-01 5.437441e-01 4.874701e-01 1.648920e+00
<GCONST> 1.315992e+02
<STATE> 3
<MEAN> 39
 -1.294540e+01 -2.123879e+00 -3.348990e+00 -1.060936e+00 -8.154340e+00 -6.413130e+00 -2.923302e+00 -2.305953e+00 -7.624743e+00 -1.279682e-01 -8.581999e-01 -2.788453e+00 6.190638e+01 -6.968573e-01 5.946468e-01 6.651441e-03 -2.073947e-01 7.718607e-01 1.512621e+00 1.566411e+00 1.065954e+00 5.472824e-01 -4.204279e-01 -4.591730e-01 -1.765846e-01 6.733004e-02 6.654586e-01 6.430306e-01 8.124624e-01 2.470257e-01 -7.572421e-01 -2.176371e-01 -5.074945e-01 -3.292332e-01 -2.745976e-02 -1.293540e-01 2.350000e-01 -2.881724e-01 -1.010382e+00
<VARIANCE> 39
 7.136513e+01 4.324283e+01 1.300928e+02 4.268015e+01 6.995689e+01 3.902315e+01 5.949501e+01 1.510112e+01 3.345942e+01 3.786822e+01 3.840032e+01 1.803803e+01 6.075043e+01 5.798423e+00 8.215413e+00 4.857602e+00 2.331774e+00 3.136542e+00 3.508590e+00 2.710410e+00 2.699202e+00 2.167194e+00 3.893434e+00 1.569357e+00 2.806697e+00 6.803888e+00 3.869991e-01 2.267310e+00 1.351815e+00 5.333449e-01 7.477407e-01 6.494436e-01 8.209664e-01 6.168281e-01 2.389559e-01 5.883965e-01 2.391687e-01 5.961356e-01 6.068603e-01
<GCONST> 1.307805e+02
<STATE> 4
<MEAN> 39
 -9.459049e+00 -3.285261e+00 1.455592e+00 1.487385e+00 -4.310099e+00 -5.570442e+00 -3.391157e+00 1.134154e+00 -3.743979e+00 1.872306e-01 1.469517e-01 -2.895144e+00 4.922949e+01 -1.191969e-02 -1.914470e-02 -1.073377e-01 4.752136e-02 6.996905e-02 -3.190172e-02 8.224201e-04 7.927520e-02 6.886457e-02 -1.809474e-01 3.438757e-02 1.478984e-01 -3.725799e-01 -3.364224e-02 -2.939576e-02 -2.445573e-02 -4.141768e-02 -2.643812e-02 -4.165602e-02 -8.429322e-02 -1.153984e-02 -4.817433e-02 1.079799e-02 -5.236495e-02 1.643491e-02 8.623984e-02
<VARIANCE> 39
 8.564607e+00 3.194544e+01 1.938266e+01 1.968434e+01 2.203133e+01 2.411296e+01 2.077926e+01 2.869527e+01 2.236894e+01 1.569767e+01 2.725758e+01 1.544960e+01 4.310290e+01 4.466115e-01 2.109069e+00 1.003603e+00 2.065391e+00 1.820781e+00 1.928576e+00 2.532722e+00 1.667072e+00 2.121089e+00 1.249801e+00 2.290812e+00 1.544034e+00 1.678672e+00 9.581350e-02 3.608919e-01 1.964314e-01 4.537242e-01 3.956824e-01 4.571061e-01 5.083044e-01 3.416634e-01 4.691037e-01 2.538829e-01 4.323462e-01 3.180726e-01 3.108516e-01
<GCONST> 1.031653e+02
<TRANSP> 5
 0.000000e+00 1.000000e+00 0.000000e+00 0.000000e+00 0.000000e+00
 0.000000e+00 6.718495e-01 3.281505e-01 0.000000e+00 0.000000e+00
 0.000000e+00 0.000000e+00 5.503918e-01 4.496082e-01 0.000000e+00
 0.000000e+00 0.000000e+00 0.000000e+00 9.363006e-01 6.369936e-02
 0.000000e+00 0.000000e+00 0.000000e+00 0.000000e+00 0.000000e+00
<ENDHMM>
~h "r"
<BEGINHMM>
<NUMSTATES> 5
<STATE> 2
<MEAN> 39
 7.354299e-01 -9.725100e+00 -6.404911e+00 -3.453984e+00 -1.300342e+01 -6.148140e+00 -1.204474e+01 -3.244502e+00 8.746497e-01 3.856917e-01 -1.268372e+00 -9.637095e+00 7.009573e+01 3.488610e-01 3.900371e-01 2.704924e-01 1.768379e+00 2.996531e-01 -7.159826e-01 -1.219248e-01 -9.360024e-01 3.577669e-01 1.816003e-01 -4.125670e-01 7.889370e-01 -1.428758e+00 -1.979896e-01 7.719836e-02 1.755662e-01 -2.054365e-01 9.544427e-02 2.939806e-01 -3.444101e-02 2.231541e-01 -3.523152e-01 -2.194427e-01 7.285112e-02 4.220716e-02 -1.141949e-01
<VARIANCE> 39
 1.605636e+01 2.965335e+01 5.420865e+01 4.106481e+01 5.371889e+01 6.422514e+01 5.717783e+01 9.627679e+01 6.251798e+01 4.733609e+01 5.225991e+01 4.250153e+01 3.390550e+01 2.161093e+00 2.265898e+00 3.000344e+00 4.444955e+00 5.031841e+00 4.917296e+00 3.870128e+00 5.416703e+00 5.019564e+00 4.094045e+00 4.062722e+00 3.433527e+00 2.579465e+00 3.084797e-01 3.237430e-01 3.911466e-01 5.374339e-01 6.253827e-01 6.282907e-01 6.859416e-01 8.666446e-01 7.822666e-01 6.467050e-01 5.929468e-01 5.379039e-01 5.114742e-01
<GCONST> 1.307564e+02
<STATE> 3
<MEAN> 39
 1.117558e+00 -8.181852e+00 -6.613359e+00 9.797388e-01 -1.270813e+01 -6.020889e+00 -1.267787e+01 -6.247932e+00 1.460176e+00 -8.906471e-01 -1.106734e+00 -7.764818e+00 6.666189e+01 -6.324495e-02 3.315564e-01 5.419531e-01 2.966045e-01 2.604902e-01 -4.095118e-02 -1.397982e-01 1.256653e-01 -6.000457e-01 -2.345402e-01 4.474143e-05 3.918601e-01 -8.072576e-01 -1.569106e-01 5.375324e-03 1.457349e-01 -5.318917e-01 -2.987546e-02 2.188777e-01 1.120229e-01 2.806711e-01 -3.253408e-01 -8.035711e-02 1.154222e-01 -1.531903e-01 1.635913e-01
<VARIANCE> 39
 1.865687e+01 2.274942e+01 7.305712e+01 3.511535e+01 6.652779e+01 5.687328e+01 5.322716e+01 7.574911e+01 4.866681e+01 3.999825e+01 4.690949e+01 3.671152e+01 3.807731e+01 1.906866e+00 2.199451e+00 3.113198e+00 2.714086e+00 4.831795e+00 3.872467e+00 3.641782e+00 4.431394e+00 4.284840e+00 3.286903e+00 3.452533e+00 2.687097e+00 2.807837e+00 3.759529e-01 4.542834e-01 5.086366e-01 6.123841e-01 1.100402e+00 7.889594e-01 7.307689e-01 8.910388e-01 8.497934e-01 6.861088e-01 7.473068e-01 5.667204e-01 6.407542e-01
<GCONST> 1.306182e+02
<STATE> 4
<MEAN> 39
 -4.496225e+00 -4.545340e+00 -2.890835e+00 -1.027444e+00 -6.700669e+00 -5.118197e+00 -8.871294e+00 -2.205609e+00 -1.353271e+00 -1.264670e+00 -2.354903e+00 -5.046544e+00 5.504750e+01 -1.687951e-01 1.289925e-01 2.683831e-01 -1.585477e-01 -2.281933e-02 1.520626e-01 4.937976e-02 1.825151e-01 -4.653141e-01 -1.029344e-01 1.356779e-01 2.801359e-02 -3.700421e-01 1.001130e-01 -1.244154e-01 -5.619631e-02 -1.237361e-01 -2.368932e-01 1.340262e-01 -4.844433e-02 5.095864e-02 -5.740210e-02 2.487733e-03 9.357953e-02 -1.799973e-01 2.310641e-01
<VARIANCE> 39
 4.366058e+01 4.009394e+01 5.265406e+01 3.414091e+01 5.425173e+01 5.596325e+01 4.859734e+01 5.166962e+01 4.110306e+01 3.680153e+01 3.870394e+01 3.672512e+01 1.699746e+02 2.614160e+00 3.159451e+00 3.037909e+00 2.264834e+00 3.874175e+00 3.357017e+00 3.187924e+00 3.628209e+00 3.596265e+00 2.831822e+00 2.855159e+00 2.611409e+00 4.785990e+00 4.970797e-01 4.821920e-01 4.871247e-01 5.192892e-01 7.448770e-01 6.768290e-01 6.068720e-01 7.039515e-01 6.578883e-01 5.694355e-01 5.708948e-01 5.295466e-01 5.831355e-01
<GCONST> 1.300959e+02
<TRANSP> 5
 0.000000e+00 1.000000e+00 0.000000e+00 0.000000e+00 0.000000e+00
 0.000000e+00 3.916864e-01 6.083136e-01 0.000000e+00 0.000000e+00
 0.000000e+00 0.000000e+00 5.423555e-01 4.576446e-01 0.000000e+00
 0.000000e+00 0.000000e+00 0.000000e+00 6.779821e-01 3.220179e-01
 0.000000e+00 0.000000e+00 0.000000e+00 0.000000e+00 0.000000e+00
<ENDHMM>
~h "s"
<BEGINHMM>
<NUMSTATES> 5
<STATE> 2
<MEAN> 39
 -1.267830e+01 3.373855e+00 -3.871779e-01 -2.076074e+00 -3.415165e+00 -7.410102e+00 -6.093693e+00 -2.193786e+00 -3.184858e+00 -2.635396e+00 -4.248510e+00 -2.847045e+00 6.291264e+01 -4.108842e+00 1.659882e+00 -4.653403e-01 5.454997e-01 1.563973e+00 -2.717880e-01 1.247543e+00 4.134493e-01 4.452658e-01 -4.653771e-01 4.541365e-01 1.000197e+00 -3.679425e-01 -2.004043e-01 -5.471950e-01 -2.998531e-01 -2.439862e-01 -4.079059e-01 2.725383e-01 -2.537392e-01 2.363789e-02 -1.212183e-01 6.304130e-02 2.858813e-01 -1.439444e-01 3.169157e-02
<VARIANCE> 39
 7.072181e+01 4.490301e+01 4.753888e+01 3.262878e+01 4.852219e+01 4.418312e+01 6.270906e+01 4.941511e+01 3.957310e+01 3.456164e+01 4.124486e+01 3.145858e+01 8.603566e+01 3.749514e+00 5.600721e+00 3.603823e+00 3.349114e+00 4.538820e+00 4.522753e+00 4.263441e+00 5.136768e+00 3.623711e+00 3.264000e+00 3.546527e+00 2.948681e+00 3.084252e+00 9.892629e-01 8.929766e-01 4.167643e-01 5.049143e-01 6.792883e-01 6.322624e-01 7.371292e-01 6.867313e-01 6.262847e-01 5.772082e-01 5.784631e-01 5.026355e-01 2.854347e-01
<GCONST> 1.325128e+02
<STATE> 3
<MEAN> 39
 -2.803467e+01 3.728111e+00 -6.018198e+00 -2.068382e+00 -2.490914e+00 -6.365257e+00 -3.426514e+00 -8.446293e-01 -2.329398e+00 -2.358888e+00 -5.481904e-01 -1.127083e-01 6.243436e+01 -6.902330e-01 -5.173389e-01 -4.935424e-01 -1.912785e-01 -2.553253e-01 8.790992e-02 8.124910e-02 5.121554e-02 1.195880e-01 1.136783e-01 1.812903e-01 1.736369e-01 -2.495315e-01 8.706329e-01 -1.315197e-01 2.693803e-01 -3.839354e-02 -1.636147e-01 -9.539097e-02 -1.681554e-01 -9.865788e-02 4.242606e-03 3.142036e-03 -1.916634e-01 -1.626679e-01 7.647569e-02
<VARIANCE> 39
 2.276061e+01 2.228179e+01 3.872178e+01 2.586112e+01 2.994941e+01 2.863280e+01 3.985711e+01 2.919990e+01 2.716375e+01 2.230733e+01 2.331179e+01 1.944655e+01 2.340035e+01 2.336734e+00 1.474069e+00 1.791827e+00 1.443994e+00 1.658414e+00 1.822016e+00 1.826997e+00 1.830497e+00 1.860097e+00 1.668410e+00 1.726486e+00 1.491371e+00 8.525695e-01 4.563380e-01 3.019667e-01 3.211132e-01 3.080470e-01 3.697941e-01 3.981957e-01 4.215337e-01 4.198601e-01 3.887954e-01 3.580529e-01 3.607052e-01 3.508205e-01 1.547410e-01
<GCONST> 1.068764e+02
<STATE> 4
<MEAN> 39
 -1.969834e+01 7.893682e-01 -4.258053e+00 -2.883645e+00 -4.164742e+00 -6.962749e+00 -4.809529e+00 -1.664325e+00 -1.515553e+00 -2.415220e+00 -2.406527e+00 -1.190735e+00 5.734552e+01 3.553759e+00 -5.201209e-01 7.678649e-01 -2.366739e-01 -8.820285e-01 -1.207609e-01 -1.242381e+00 -6.526697e-01 -8.141658e-02 6.419180e-02 -5.511568e-01 -1.068804e+00 4.554426e-01 6.375747e-01 -1.158929e-01 1.175076e-01 -4.570255e-02 -2.068585e-01 2.095248e-01 -3.490111e-01 -9.770905e-02 -1.260278e-01 2.529497e-02 1.281292e-01 -2.856214e-01 2.747654e-01
<VARIANCE> 39
 7.360387e+01 2.989067e+01 4.122718e+01 2.751394e+01 3.130585e+01 3.664431e+01 4.457129e+01 3.465414e+01 2.991570e+01 2.499582e+01 2.860758e+01 2.469705e+01 1.301582e+02 9.178380e+00 3.427487e+00 4.246860e+00 3.067341e+00 3.393445e+00 4.109686e+00 4.511707e+00 4.392814e+00 3.594762e+00 2.888494e+00 2.966658e+00 3.218103e+00 5.204664e+00 1.237981e+00 5.749862e-01 5.281283e-01 4.702797e-01 5.633289e-01 6.859010e-01 7.577091e-01 7.588250e-01 6.069221e-01 5.216852e-01 5.818735e-01 5.249038e-01 4.895469e-01
<GCONST> 1.304370e+02
<TRANSP> 5
 0.000000e+00 1.000000e+00 0.000000e+00 0.000000e+00 0.000000e+00
 0.000000e+00 7.463338e-01 2.536662e-01 0.000000e+00 0.000000e+00
 0.000000e+00 0.000000e+00 8.371063e-01 1.628937e-01 0.000000e+00
 0.000000e+00 0.000000e+00 0.000000e+00 7.497972e-01 2.502027e-01
 0.000000e+00 0.000000e+00 0.000000e+00 0.000000e+00 0.000000e+00
<ENDHMM>
~h "t"
<BEGINHMM>
<NUMSTATES> 5
<STATE> 2
<MEAN> 39
 -6.358440e+00 4.791436e-01 -2.587436e+00 -2.534538e+00 -5.942400e+00 -5.258555e+00 -7.471188e+00 -3.632829e+00 -2.424130e+00 -1.851619e+00 -3.689148e+00 -4.735226e+00 4.332781e+01 -4.440285e-01 2.706338e-01 -6.844827e-02 7.495296e-02 1.108078e-01 -3.619388e-02 2.808856e-01 1.174247e-02 -1.184242e-02 -4.994253e-02 2.862597e-02 3.115292e-01 -1.618059e+00 -1.384385e-01 -2.393800e-01 -3.906323e-02 -1.274962e-01 -3.915101e-02 1.933419e-02 -1.413184e-02 4.901878e-02 -1.523613e-02 2.928335e-03 8.452542e-02 2.732843e-02 5.407390e-01
<VARIANCE> 39
 3.765831e+01 3.143526e+01 3.528298e+01 3.109781e+01 3.448114e+01 3.721992e+01 4.187081e+01 4.085796e+01 3.496578e+01 3.005786e+01 3.300623e+01 3.519434e+01 8.800283e+01 1.329608e+00 1.613008e+00 1.424689e+00 1.717228e+00 2.070970e+00 2.026886e+00 2.229983e+00 2.301586e+00 2.194524e+00 2.172673e+00 2.115415e+00 1.809494e+00 4.515278e+00 2.902229e-01 3.924072e-01 3.207303e-01 4.084195e-01 4.447801e-01 4.214342e-01 4.525404e-01 4.749985e-01 4.564782e-01 4.367847e-01 4.344670e-01 3.616586e-01 6.866522e-01
<GCONST> 1.167321e+02
<STATE> 3
<MEAN> 39
 -6.983514e+00 2.946195e+00 -5.967998e-01 -1.766832e+00 -7.036603e+00 -6.470153e+00 -8.242316e+00 -5.394300e+00 -3.482459e+00 -1.642743e+00 -3.121247e+00 -4.025913e+00 4.172252e+01 -1.896608e+00 -1.589499e+00 -6.817096e-01 -8.735342e-01 4.734873e-01 -8.649623e-02 5.151288e-01 4.148315e-01 1.759790e-01 -2.608995e-01 3.689608e-01 7.704270e-01 2.400761e+00 1.704735e-01 -6.116520e-01 -1.378788e-01 -3.693826e-01 -2.663231e-01 2.745240e-02 -2.584614e-01 6.592081e-02 9.120120e-02 1.287484e-03 4.552170e-02 -2.622029e-01 2.179415e+00
<VARIANCE> 39
 3.727216e+01 3.037694e+01 4.498018e+01 3.966867e+01 4.091902e+01 4.129921e+01 3.989518e+01 4.185527e+01 4.018533e+01 3.073307e+01 3.310234e+01 2.879371e+01 7.055622e+01 3.624619e+00 4.268190e+00 4.178286e+00 3.666579e+00 4.309988e+00 4.159764e+00 3.887250e+00 4.158105e+00 4.119332e+00 3.404325e+00 3.391634e+00 2.966444e+00 1.706524e+01 7.949559e-01 6.508327e-01 6.992978e-01 6.816506e-01 8.280712e-01 8.019235e-01 7.505658e-01 8.359535e-01 8.146309e-01 6.619068e-01 6.704381e-01 5.985611e-01 1.389366e+00
<GCONST> 1.347303e+02
<STATE> 4
<MEAN> 39
 -1.310381e+01 -5.710151e+00 -4.127674e+00 -6.146131e+00 -6.010484e+00 -7.280761e+00 -6.976850e+00 -3.308854e+00 -2.367725e+00 -2.874869e+00 -2.530442e+00 -2.096852e+00 6.111216e+01 1.058510e+00 -1.385477e+00 -2.944472e-01 -1.142100e+00 -1.017101e+00 -2.117196e-02 -1.282037e+00 3.849031e-02 3.552568e-01 -7.005578e-03 2.719042e-01 -1.258018e+00 6.441378e+00 1.297034e+00 4.567079e-01 3.795409e-01 1.758064e-01 -6.036047e-01 4.679345e-01 -6.307753e-01 -1.218249e-01 -1.057783e-01 1.266991e-01 1.312146e-01 -7.283629e-01 -6.396354e-01
<VARIANCE> 39
 2.495197e+01 2.378607e+01 3.241560e+01 2.649198e+01 3.109036e+01 3.502073e+01 3.587823e+01 2.908463e+01 3.237740e+01 2.614310e+01 2.610126e+01 2.390264e+01 7.918225e+01 5.706872e+00 4.792904e+00 6.798589e+00 4.771846e+00 5.610685e+00 5.963235e+00 5.198617e+00 6.005394e+00 6.590437e+00 4.088450e+00 4.668618e+00 4.580940e+00 1.215823e+01 6.829416e-01 7.921713e-01 1.014592e+00 7.237282e-01 9.212301e-01 1.082504e+00 9.270899e-01 1.150160e+00 8.914720e-01 7.849390e-01 8.247617e-01 7.069054e-01 1.542266e+00
<GCONST> 1.375798e+02
<TRANSP> 5
 0.000000e+00 1.000000e+00 0.000000e+00 0.000000e+00 0.000000e+00
 0.000000e+00 8.361998e-01 1.638002e-01 0.000000e+00 0.000000e+00
 0.000000e+00 0.000000e+00 6.067091e-01 3.932909e-01 0.000000e+00
 0.000000e+00 0.000000e+00 0.000000e+00 5.151888e-01 4.848112e-01
 0.000000e+00 0.000000e+00 0.000000e+00 0.000000e+00 0.000000e+00
<ENDHMM>
~h "u"
<BEGINHMM>
<NUMSTATES> 5
<STATE> 2
<MEAN> 39
 -2.683958e-01 5.325534e-01 -3.112325e+00 -7.451228e+00 -1.119048e+01 -2.450275e+00 -1.478763e+01 -8.031013e+00 -6.515523e+00 -2.552930e+00 6.526365e-01 -5.889471e+00 6.239027e+01 2.125184e+00 5.879982e-01 -4.367776e-01 -1.678588e+00 -1.932978e+00 1.992837e+00 -1.599445e+00 -1.239309e+00 -7.765960e-01 -2.867543e-02 1.824710e+00 -8.254881e-01 1.440639e+00 -2.567721e-01 5.666840e-02 1.270262e-01 -9.982663e-02 -3.302360e-02 4.194663e-01 3.074295e-01 1.181815e-01 -8.850791e-02 -4.196015e-02 6.337394e-02 7.058724e-02 -4.624924e-01
<VARIANCE> 39
 3.366836e+01 3.890138e+01 4.446615e+01 8.235834e+01 5.816624e+01 7.059710e+01 7.616223e+01 7.173098e+01 5.486470e+01 4.673704e+01 4.408421e+01 3.838315e+01 1.159257e+02 5.392089e+00 3.314487e+00 4.896761e+00 5.829966e+00 6.833414e+00 5.719621e+00 5.935008e+00 7.688849e+00 5.469909e+00 5.135564e+00 4.916934e+00 4.290930e+00 5.406425e+00 7.840118e-01 5.883649e-01 5.550894e-01 9.991331e-01 8.586726e-01 8.857494e-01 1.110205e+00 9.503394e-01 8.802359e-01 7.573590e-01 6.972648e-01 7.089317e-01 1.231616e+00
<GCONST> 1.433311e+02
<STATE> 3
<MEAN> 39
 2.897420e+00 -1.098817e-01 -4.038233e+00 -1.084914e+01 -1.584696e+01 5.309940e+00 -1.850155e+01 -1.212770e+01 -8.624687e+00 -3.206456e+00 7.324515e+00 -7.331011e+00 6.784335e+01 3.424569e-01 3.360814e-01 -1.236166e-02 -8.388253e-01 -4.827025e-01 1.227587e+00 -1.692533e-01 -8.034077e-02 -4.872821e-01 -2.126558e-01 6.008508e-01 -7.084421e-02 -7.310345e-02 -4.411455e-01 3.134289e-02 2.788634e-01 5.894246e-01 6.317075e-01 -8.188697e-01 5.825723e-01 4.780447e-01 2.672988e-01 -9.681705e-04 -9.134001e-01 1.872480e-01 -5.634826e-01
<VARIANCE> 39
 1.322648e+01 3.130801e+01 3.873664e+01 7.378613e+01 5.205319e+01 6.818140e+01 7.018793e+01 9.251027e+01 7.038552e+01 6.165953e+01 4.482460e+01 4.188875e+01 1.996218e+01 1.074203e+00 2.548844e+00 2.188698e+00 5.531455e+00 4.261233e+00 5.636577e+00 4.824986e+00 5.095189e+00 4.976397e+00 4.324012e+00 4.479403e+00 3.137228e+00 1.964297e+00 3.913587e-01 4.471673e-01 4.434800e-01 7.372730e-01 8.324106e-01 7.577671e-01 9.175846e-01 1.096221e+00 9.454670e-01 9.044080e-01 6.919887e-01 7.302555e-01 3.539397e-01
<GCONST> 1.325967e+02
<STATE> 4
<MEAN> 39
 3.633077e+00 3.274945e+00 -4.042688e+00 -1.436152e+01 -1.582920e+01 5.885231e+00 -1.572542e+01 -8.594459e+00 -9.710839e+00 -4.804666e+00 3.219527e+00 -6.735492e+00 6.410261e+01 -1.313361e-01 -5.750534e-02 3.089366e-01 7.311171e-01 6.198943e-01 -6.269102e-01 4.825013e-01 3.757633e-02 3.722070e-01 3.841523e-01 -7.112621e-01 -9.718519e-03 -7.507676e-01 -1.560307e-01 -1.086322e-01 1.183858e-01 3.659488e-01 2.168698e-01 -2.751716e-01 1.247122e-01 -4.161748e-02 1.457788e-01 1.261332e-01 -1.879454e-01 1.519330e-02 -1.700593e-01
<VARIANCE> 39
 1.275111e+01 4.042796e+01 3.803887e+01 7.170303e+01 5.203630e+01 6.425687e+01 5.774794e+01 7.726321e+01 6.066958e+01 6.336844e+01 5.203564e+01 4.118509e+01 4.418494e+01 7.676567e-01 2.347782e+00 1.805600e+00 3.419038e+00 3.147694e+00 3.144367e+00 3.159874e+00 3.945899e+00 3.055493e+00 3.407927e+00 3.727106e+00 2.744396e+00 3.068328e+00 1.556900e-01 3.269642e-01 2.819356e-01 4.500256e-01 4.960703e-01 4.988336e-01 5.554205e-01 6.667393e-01 5.417919e-01 6.174977e-01 6.013629e-01 5.122591e-01 2.625061e-01
<GCONST> 1.240365e+02
<TRANSP> 5
 0.000000e+00 1.000000e+00 0.000000e+00 0.000000e+00 0.000000e+00
 0.000000e+00 4.920940e-01 5.079060e-01 0.000000e+00 0.000000e+00
 0.000000e+00 0.000000e+00 5.978429e-01 4.021570e-01 0.000000e+00
 0.000000e+00 0.000000e+00 0.000000e+00 7.829613e-01 2.170387e-01
 0.000000e+00 0.000000e+00 0.000000e+00 0.000000e+00 0.000000e+00
<ENDHMM>
~h "w"
<BEGINHMM>
<NUMSTATES> 5
<STATE> 2
<MEAN> 39
 -9.172127e-01 -1.475581e+00 -4.097334e+00 -9.301115e+00 -1.051927e+01 3.177047e+00 -1.066981e+01 -4.204688e+00 -5.418795e+00 -2.301440e+00 8.426564e-01 -6.694192e+00 5.699232e+01 8.999328e-01 5.175917e-01 -1.115189e-01 -1.095749e+00 -6.911607e-01 8.983229e-01 -1.533462e-01 -2.113631e-01 -5.435523e-01 -2.204120e-01 6.150180e-01 1.427865e-01 3.419209e-01 -1.199758e-01 -1.051532e-01 1.030017e-01 -5.526378e-02 -9.559856e-02 -5.443270e-02 8.484107e-02 1.633841e-01 5.739612e-02 -8.539848e-02 -4.495080e-02 2.915453e-02 1.045921e-01
<VARIANCE> 39
 5.907657e+01 6.123611e+01 5.106659e+01 7.980889e+01 7.641927e+01 7.111092e+01 7.129688e+01 5.963950e+01 7.085508e+01 4.773065e+01 5.588691e+01 4.440411e+01 1.896182e+02 2.866023e+00 2.733877e+00 3.164496e+00 4.402680e+00 4.626522e+00 4.273849e+00 3.996592e+00 3.992993e+00 3.810015e+00 3.435190e+00 3.620001e+00 2.973769e+00 5.146143e+00 4.909167e-01 4.359655e-01 4.791337e-01 6.572599e-01 7.181705e-01 6.280763e-01 7.226012e-01 6.591766e-01 6.809025e-01 6.371962e-01 6.511110e-01 4.759308e-01 4.545855e-01
<GCONST> 1.363306e+02
<STATE> 3
<MEAN> 39
 6.183793e+00 -7.340712e-02 -4.558562e+00 -2.020473e+01 -1.779630e+01 9.314831e+00 -1.222435e+01 -3.368352e+00 -6.383795e+00 -4.824398e+00 3.908274e+00 -5.804814e+00 6.584557e+01 -6.300708e-03 -2.699701e-01 -1.476271e-01 -5.609403e-01 -9.580438e-02 4.377480e-01 8.191805e-02 2.820387e-02 1.123348e-01 -2.491870e-02 2.258498e-01 9.643389e-02 3.451487e-01 -2.458593e-01 -4.577038e-01 -1.435766e-01 3.305499e-01 4.327333e-01 -5.618254e-02 -6.648400e-02 -6.776073e-02 1.927537e-01 3.254595e-01 -4.078951e-02 -3.253893e-01 2.577491e-01
<VARIANCE> 39
 1.040024e+01 3.658210e+01 3.129965e+01 5.440605e+01 4.997266e+01 4.593785e+01 3.964029e+01 5.816805e+01 6.174283e+01 5.037098e+01 4.118955e+01 3.293834e+01 2.366677e+01 4.593112e-01 2.540950e+00 1.276721e+00 1.766243e+00 2.373403e+00 2.195843e+00 1.794647e+00 1.799058e+00 2.015714e+00 2.449830e+00 2.276110e+00 1.931740e+00 1.616214e+00 7.411207e-02 1.669560e-01 1.832636e-01 2.682205e-01 3.378306e-01 4.195766e-01 3.375778e-01 3.629221e-01 4.028063e-01 3.696455e-01 4.167722e-01 3.802814e-01 1.213436e-01
<GCONST> 1.089946e+02
<STATE> 4
<MEAN> 39
 3.197474e+00 -8.299669e+00 -8.588416e+00 -1.956673e+01 -1.149128e+01 1.197874e+01 -1.218683e+01 -4.406749e+00 -5.200191e+00 1.509737e-01 5.645243e+00 -1.034708e+01 7.144905e+01 -9.681277e-01 -2.128453e+00 -3.680586e-01 1.532502e+00 1.802412e+00 -6.194159e-01 -5.099368e-01 1.860099e-01 1.195756e+00 8.988638e-01 -9.957808e-01 -1.926696e+00 1.277958e+00 -6.055907e-02 1.824282e-01 3.700961e-01 4.695943e-01 -2.309791e-01 -6.921164e-01 -1.397775e-02 3.870697e-01 1.533231e-01 -4.227166e-01 -5.774555e-01 9.279177e-02 -2.231068e-01
<VARIANCE> 39
 1.286306e+01 3.804022e+01 3.263324e+01 6.102570e+01 4.338883e+01 6.148689e+01 4.956943e+01 5.841145e+01 7.019386e+01 6.016281e+01 4.999201e+01 4.052764e+01 2.207813e+01 2.867247e-01 1.309458e+00 1.508442e+00 1.973323e+00 2.315485e+00 3.719335e+00 2.505411e+00 2.989241e+00 2.566901e+00 2.695134e+00 3.424314e+00 1.980254e+00 6.116914e-01 8.102448e-02 2.011222e-01 1.879351e-01 3.145782e-01 4.957104e-01 3.965842e-01 3.923963e-01 4.513925e-01 4.079464e-01 4.791631e-01 4.485912e-01 5.629964e-01 9.834167e-02
<GCONST> 1.123877e+02
<TRANSP> 5
 0.000000e+00 1.000000e+00 0.000000e+00 0.000000e+00 0.000000e+00
 0.000000e+00 7.803835e-01 2.196165e-01 0.000000e+00 0.000000e+00
 0.000000e+00 0.000000e+00 8.001996e-01 1.998004e-01 0.000000e+00
 0.000000e+00 0.000000e+00 0.000000e+00 6.546847e-01 3.453152e-01
 0.000000e+00 0.000000e+00 0.000000e+00 0.000000e+00 0.000000e+00
<ENDHMM>
~h "y"
<BEGINHMM>
<NUMSTATES> 5
<STATE> 2
<MEAN> 39
 -8.906628e+00 -2.971328e-01 4.543245e+00 -2.993935e+00 -8.969638e+00 -3.950624e+00 -7.292429e+00 -8.896739e-01 -6.198347e+00 -3.388751e+00 -3.319856e-01 -3.494196e+00 4.829038e+01 6.566334e-03 2.097420e-01 1.023651e+00 -1.197057e-01 -6.605648e-01 -8.069092e-02 -6.392794e-01 6.803884e-02 -4.019633e-01 -2.612156e-01 6.100764e-01 8.540633e-02 6.329394e-01 6.313869e-02 -1.016879e-01 -6.176930e-02 -3.912940e-02 -3.383277e-02 3.696693e-02 -6.442119e-02 -1.052826e-02 2.075562e-02 -9.469487e-03 9.897065e-03 -1.799448e-02 1.784092e-01
<VARIANCE> 39
 2.891740e+01 5.226191e+01 8.084865e+01 3.377625e+01 7.378860e+01 5.044318e+01 6.095969e+01 4.825965e+01 4.923922e+01 3.964467e+01 3.339921e+01 3.190024e+01 1.951683e+02 2.135310e+00 2.600254e+00 4.234947e+00 2.115240e+00 3.889498e+00 3.132583e+00 4.083103e+00 3.167425e+00 3.356083e+00 3.151362e+00 2.963145e+00 2.286618e+00 5.317045e+00 3.344440e-01 4.186134e-01 5.789082e-01 3.887035e-01 6.410233e-01 5.946849e-01 6.361972e-01 5.474368e-01 5.772064e-01 5.146127e-01 4.763437e-01 3.981624e-01 4.532152e-01
<GCONST> 1.287057e+02
<STATE> 3
<MEAN> 39
 -5.318620e+00 -2.853832e+00 1.574570e+01 -6.435735e+00 -2.181001e+01 -6.708842e+00 -1.714373e+01 -2.614428e-01 -1.006694e+01 -6.631591e+00 6.819161e+00 -4.355330e+00 6.997917e+01 7.523817e-02 -6.301892e-01 -2.850516e-01 -2.343892e-01 -6.255261e-01 -3.603516e-01 6.765284e-02 3.862643e-01 3.077647e-01 3.177116e-01 3.413723e-01 7.506811e-02 7.696936e-01 9.407578e-02 -3.358476e-01 -7.159836e-01 -1.293971e-02 2.945526e-01 4.096915e-02 4.155490e-01 4.151019e-01 3.792113e-01 1.236973e-01 -4.572429e-01 -2.368899e-01 -1.244103e-02
<VARIANCE> 39
 1.385754e+01 4.428852e+01 5.301289e+01 3.817154e+01 3.247141e+01 5.720104e+01 5.576336e+01 6.553979e+01 4.935548e+01 6.538544e+01 3.145088e+01 3.176893e+01 2.378164e+01 5.425686e-01 2.583928e+00 3.556306e+00 1.247821e+00 1.912383e+00 1.874441e+00 3.010061e+00 3.476359e+00 2.887897e+00 2.161624e+00 1.836557e+00 1.517880e+00 1.651362e+00 9.065887e-02 1.785924e-01 2.418470e-01 2.061463e-01 4.677716e-01 3.923705e-01 5.019168e-01 4.109082e-01 3.815344e-01 4.359166e-01 3.873892e-01 2.838545e-01 1.911216e-01
<GCONST> 1.123538e+02
<STATE> 4
<MEAN> 39
 -3.609620e+00 -1.068505e+01 5.691971e+00 -9.067767e+00 -2.199010e+01 -8.600924e+00 -1.088037e+01 8.444263e+00 -4.114916e+00 -4.344966e+00 2.327843e+00 -6.614721e+00 7.476369e+01 5.045989e-01 -1.734189e+00 -2.780130e+00 -1.326056e-01 1.732583e+00 8.331851e-01 1.160400e+00 1.719680e+00 1.194684e+00 -4.021448e-01 -2.393420e+00 -1.012209e+00 6.544982e-01 -4.258549e-03 2.196286e-01 -5.453231e-03 1.377292e-01 6.803761e-01 4.923959e-01 -3.648339e-01 -6.271929e-01 -2.880881e-01 -1.733334e-01 -2.839653e-01 -7.965047e-02 -2.950657e-01
<VARIANCE> 39
 1.312517e+01 2.922236e+01 4.195462e+01 3.567488e+01 3.422212e+01 4.389603e+01 4.815897e+01 6.283499e+01 4.833975e+01 5.133593e+01 4.979600e+01 2.792131e+01 1.626365e+01 3.453390e-01 1.310892e+00 1.733634e+00 1.059433e+00 2.275957e+00 2.082170e+00 3.124758e+00 3.522714e+00 2.552673e+00 2.753867e+00 2.531578e+00 1.663883e+00 4.678440e-01 7.258679e-02 1.809109e-01 2.773424e-01 2.226991e-01 3.831744e-01 3.664156e-01 4.803752e-01 6.125578e-01 4.198094e-01 4.838042e-01 5.956442e-01 2.854527e-01 1.026644e-01
<GCONST> 1.085629e+02
<TRANSP> 5
 0.000000e+00 1.000000e+00 0.000000e+00 0.000000e+00 0.000000e+00
 0.000000e+00 8.455461e-01 1.544539e-01 0.000000e+00 0.000000e+00
 0.000000e+00 0.000000e+00 7.936877e-01 2.063123e-01 0.000000e+00
 0.000000e+00 0.000000e+00 0.000000e+00 6.739097e-01 3.260903e-01
 0.000000e+00 0.000000e+00 0.000000e+00 0.000000e+00 0.000000e+00
<ENDHMM>
~h "z"
<BEGINHMM>
<NUMSTATES> 5
<STATE> 2
<MEAN> 39
 -8.367849e+00 3.572667e+00 2.059343e+00 3.706717e-01 -5.837893e+00 -9.642024e+00 -1.047121e+01 -3.912896e+00 -3.617070e+00 -2.992471e+00 -2.909987e+00 -2.558574e+00 5.894248e+01 -1.673657e+00 1.929315e+00 -2.782351e-02 7.714791e-01 1.146998e+00 -5.625901e-01 7.966242e-01 -9.783304e-02 1.433274e-01 -1.809635e-01 -2.303271e-01 7.308818e-01 -5.197609e-02 -1.615073e-01 -1.144472e-01 -1.321504e-01 -1.314295e-01 -7.944531e-02 3.123981e-01 8.456923e-02 1.318929e-01 -2.795304e-02 2.739275e-02 1.248286e-01 -1.187646e-01 9.632333e-03
<VARIANCE> 39
 3.347239e+01 5.586349e+01 5.007421e+01 3.496427e+01 4.739096e+01 4.333253e+01 7.661472e+01 4.755711e+01 4.585182e+01 2.826720e+01 3.596447e+01 2.930162e+01 1.598887e+02 3.733748e+00 3.912818e+00 2.801346e+00 2.656710e+00 3.658592e+00 3.757477e+00 4.025680e+00 4.343118e+00 3.047486e+00 2.834629e+00 2.847554e+00 2.499376e+00 4.219018e+00 4.437890e-01 6.195701e-01 4.159354e-01 3.839180e-01 5.307732e-01 6.076470e-01 7.207975e-01 6.565103e-01 5.272093e-01 4.924015e-01 5.099062e-01 4.696071e-01 4.151440e-01
<GCONST> 1.287752e+02
<STATE> 3
<MEAN> 39
 -1.859958e+01 1.190080e+01 1.292001e+00 3.748589e+00 -2.887247e+00 -9.430737e+00 -7.327311e+00 -4.055457e+00 -3.632740e+00 -2.938136e+00 -2.512488e+00 -6.526809e-01 6.502597e+01 -9.287603e-01 -1.698377e-02 -7.825752e-02 1.520822e-01 2.043299e-01 3.260058e-01 2.856951e-01 9.441291e-02 -3.821527e-02 3.894007e-02 2.388783e-01 1.578378e-01 -3.021615e-02 4.999920e-01 -4.753763e-01 1.179723e-01 -1.782818e-01 -3.596483e-01 -9.918828e-02 -2.350161e-01 -1.092601e-01 -1.550213e-02 -2.442086e-03 1.051365e-02 -5.794341e-02 1.842617e-01
<VARIANCE> 39
 4.013321e+01 2.801763e+01 4.139563e+01 3.722246e+01 3.677568e+01 3.643377e+01 4.921548e+01 3.539532e+01 2.563949e+01 2.029514e+01 2.613086e+01 1.931142e+01 2.347883e+01 1.498013e+00 1.572080e+00 1.442437e+00 1.206627e+00 1.636762e+00 1.676427e+00 1.731958e+00 1.752056e+00 1.667404e+00 1.496220e+00 1.441657e+00 1.315265e+00 7.360584e-01 2.639391e-01 3.005044e-01 2.463829e-01 2.633742e-01 3.610479e-01 3.729222e-01 3.671758e-01 3.603772e-01 3.492971e-01 3.300350e-01 2.977378e-01 2.883078e-01 1.315632e-01
<GCONST> 1.051766e+02
<STATE> 4
<MEAN> 39
 -1.539927e+01 6.233297e+00 2.170090e+00 1.490400e+00 -5.928113e+00 -1.026520e+01 -8.909210e+00 -4.850787e+00 -2.999104e+00 -2.625188e+00 -1.723342e+00 9.615693e-02 6.648289e+01 2.976642e+00 -2.200714e+00 2.557082e-01 -9.821730e-01 -2.285536e+00 -5.966336e-01 -1.606145e+00 -4.034359e-01 3.957277e-01 -8.721250e-02 1.905217e-01 -5.431074e-01 1.323023e+00 5.108416e-01 -3.298778e-01 -3.757298e-02 -2.101398e-01 -3.365527e-01 3.513003e-01 -2.490203e-01 1.501579e-01 9.023492e-02 -4.758001e-02 1.342443e-01 -4.468238e-01 6.424632e-02
<VARIANCE> 39
 6.278841e+01 3.198244e+01 5.107760e+01 2.910951e+01 3.875028e+01 4.097173e+01 5.344159e+01 3.726918e+01 3.540051e+01 2.121249e+01 2.443228e+01 1.921341e+01 4.791638e+01 4.362245e+00 4.448844e+00 2.618209e+00 3.209454e+00 3.158503e+00 4.001461e+00 3.370648e+00 4.749115e+00 4.010417e+00 2.456270e+00 2.222159e+00 2.519588e+00 2.135493e+00 9.532388e-01 5.217213e-01 2.983942e-01 3.772845e-01 5.468194e-01 7.985379e-01 6.561701e-01 7.522344e-01 5.389255e-01 3.875341e-01 4.416206e-01 4.059115e-01 2.462221e-01
<GCONST> 1.242647e+02
<TRANSP> 5
 0.000000e+00 1.000000e+00 0.000000e+00 0.000000e+00 0.000000e+00
 0.000000e+00 7.941968e-01 2.058031e-01 0.000000e+00 0.000000e+00
 0.000000e+00 0.000000e+00 8.365259e-01 1.634741e-01 0.000000e+00
 0.000000e+00 0.000000e+00 0.000000e+00 7.246091e-01 2.753909e-01
 0.000000e+00 0.000000e+00 0.000000e+00 0.000000e+00 0.000000e+00
<ENDHMM>
~h "ai"
<BEGINHMM>
<NUMSTATES> 5
<STATE> 2
<MEAN> 39
 -4.896675e-01 -1.514715e+01 -5.573866e+00 -9.508454e+00 -1.175094e+01 1.461099e-01 -1.284809e+01 4.427478e+00 -4.663696e-01 -2.947068e+00 -2.921006e+00 -1.267295e+01 7.575087e+01 -2.222383e-01 -1.413026e+00 4.081965e-01 2.419237e-01 -6.588970e-01 -4.114046e-01 5.643309e-01 2.186811e+00 5.050403e-02 -1.319739e+00 -5.915847e-01 6.148646e-02 9.475797e-01 -2.636564e-01 5.646109e-01 4.601677e-01 2.111543e-01 -7.826806e-02 -3.342296e-01 3.036452e-01 -3.557392e-01 -4.573103e-01 3.878197e-02 1.955556e-01 6.007558e-01 -6.106108e-01
<VARIANCE> 39
 1.495441e+01 2.688930e+01 5.299935e+01 3.143196e+01 5.734254e+01 1.041350e+02 5.186854e+01 7.393651e+01 7.182639e+01 5.582868e+01 5.764164e+01 3.438687e+01 1.506291e+01 1.371603e+00 1.885773e+00 2.740032e+00 2.350611e+00 3.542880e+00 5.403360e+00 3.228172e+00 3.707663e+00 3.274031e+00 2.742975e+00 3.315082e+00 3.388913e+00 1.099685e+00 3.383427e-01 2.563237e-01 3.460628e-01 4.253158e-01 6.951725e-01 6.431109e-01 5.125498e-01 7.577942e-01 5.817641e-01 5.851888e-01 7.661186e-01 4.542500e-01 3.736163e-01
<GCONST> 1.243663e+02
<STATE> 3
<MEAN> 39
 -3.377033e+00 -1.465897e+01 2.117882e+00 -9.949709e+00 -1.890592e+01 -7.590500e+00 -9.031925e+00 8.173627e+00 -4.742574e+00 -6.041556e+00 6.609703e-01 -8.895991e+00 7.564652e+01 -2.181184e-01 8.284188e-01 1.495779e+00 -4.310756e-02 -1.311774e+00 -8.128448e-01 -8.136775e-02 -3.753216e-01 -1.013781e+00 4.368214e-01 1.122570e+00 3.876233e-01 -3.922839e-01 3.805587e-02 2.080585e-01 -1.203571e-02 4.762436e-02 1.788868e-01 9.802912e-02 -2.563378e-01 -3.883540e-01 -2.030013e-02 1.420263e-01 2.224051e-03 -8.566475e-02 -1.555933e-01
<VARIANCE> 39
 1.444805e+01 3.254239e+01 5.714449e+01 2.875416e+01 5.844441e+01 6.776066e+01 3.479832e+01 6.620449e+01 5.916048e+01 5.516338e+01 5.706807e+01 2.532886e+01 1.102623e+01 1.779809e-01 8.332247e-01 1.303261e+00 7.179167e-01 1.837527e+00 1.752175e+00 1.911754e+00 2.942495e+00 1.562206e+00 1.805253e+00 2.068655e+00 1.534016e+00 1.823036e-01 3.693432e-02 1.207928e-01 1.696441e-01 1.499520e-01 3.308800e-01 3.053499e-01 2.766345e-01 4.507437e-01 2.628678e-01 3.522521e-01 3.960367e-01 2.448059e-01 3.673614e-02
<GCONST> 9.896403e+01
<STATE> 4
<MEAN> 39
 -3.636499e+00 -3.990129e+00 1.030032e+01 -5.680319e+00 -2.064900e+01 -8.577843e+00 -1.214848e+01 1.217960e+00 -1.055147e+01 -2.452991e+00 3.811040e+00 -6.635917e+00 6.406001e+01 1.513319e-01 8.663305e-01 -1.377599e-01 7.204049e-01 9.366250e-01 1.698978e-02 1.227614e-01 -7.731266e-01 -5.765613e-02 -7.777218e-02 -4.652474e-01 6.862575e-03 -1.537248e+00 3.829690e-02 4.272225e-03 -2.862373e-01 7.032052e-02 3.006377e-01 9.954981e-02 1.797120e-01 2.879683e-02 1.644515e-01 -1.498647e-02 -2.163113e-01 -3.295688e-02 -1.640398e-01
<VARIANCE> 39
 1.828133e+01 4.853623e+01 5.247091e+01 3.898609e+01 4.980837e+01 5.783787e+01 5.698626e+01 7.536502e+01 4.762569e+01 4.634173e+01 4.412644e+01 3.274252e+01 1.170029e+02 9.851533e-01 1.795216e+00 2.190278e+00 1.610259e+00 2.584587e+00 2.330881e+00 3.194049e+00 2.964497e+00 2.785856e+00 2.111030e+00 2.226203e+00 1.618156e+00 1.971941e+00 1.599911e-01 2.840289e-01 2.881557e-01 2.867372e-01 4.655379e-01 4.327721e-01 5.422511e-01 5.778538e-01 4.972992e-01 4.077860e-01 4.154676e-01 3.165721e-01 2.938142e-01
<GCONST> 1.185676e+02
<TRANSP> 5
 0.000000e+00 1.000000e+00 0.000000e+00 0.000000e+00 0.000000e+00
 0.000000e+00 7.112789e-01 2.887211e-01 0.000000e+00 0.000000e+00
 0.000000e+00 0.000000e+00 8.459136e-01 1.540864e-01 0.000000e+00
 0.000000e+00 0.000000e+00 0.000000e+00 8.626700e-01 1.373300e-01
 0.000000e+00 0.000000e+00 0.000000e+00 0.000000e+00 0.000000e+00
<ENDHMM>
~h "au"
<BEGINHMM>
<NUMSTATES> 5
<STATE> 2
<MEAN> 39
 -7.073613e-01 -1.128947e+01 -1.117194e+01 -1.382154e+01 -1.020333e+01 4.855233e+00 -1.257023e+01 -3.647232e+00 1.603924e+00 -1.592474e-01 -1.435189e+00 -1.330352e+01 7.483347e+01 5.393907e-01 -7.586977e-01 -1.045486e+00 -1.119787e+00 3.859403e-01 2.265496e+00 -2.263162e-01 1.500561e-01 2.299602e-01 -4.113206e-02 4.415930e-01 -1.400938e+00 1.021544e+00 -2.843552e-01 5.451243e-01 4.508041e-01 1.199316e-01 1.631442e-01 -2.742832e-01 1.781032e-01 -3.648197e-01 -4.600293e-01 -5.406253e-02 2.501297e-01 6.695643e-01 -8.887018e-01
<VARIANCE> 39
 1.464165e+01 2.320399e+01 4.047224e+01 4.532307e+01 4.882569e+01 7.995061e+01 4.469030e+01 8.506812e+01 5.216324e+01 5.847162e+01 4.767786e+01 3.460019e+01 1.885048e+01 2.596568e+00 2.501151e+00 2.136300e+00 2.923461e+00 3.833257e+00 4.009067e+00 3.148523e+00 4.089950e+00 3.324229e+00 3.414144e+00 4.531833e+00 3.798588e+00 2.338710e+00 3.956839e-01 2.635491e-01 3.335716e-01 7.318431e-01 5.745810e-01 6.562095e-01 7.056432e-01 7.183325e-01 5.187168e-01 6.270274e-01 6.551369e-01 4.642623e-01 5.937943e-01
<GCONST> 1.268553e+02
<STATE> 3
<MEAN> 39
 1.368604e-01 -9.150470e+00 -1.198251e+01 -2.052529e+01 -9.562915e+00 1.056407e+01 -1.192427e+01 -5.636414e+00 -2.047159e+00 -1.174566e+00 2.606885e+00 -1.149784e+01 7.388881e+01 4.321604e-01 1.034460e+00 2.194982e-01 -9.244986e-01 -5.248801e-01 2.298720e-01 -3.755370e-02 -1.243578e-01 -8.509209e-01 -7.523909e-02 6.427569e-01 8.690488e-01 -6.599178e-01 4.506896e-02 1.487477e-01 1.423586e-01 1.623220e-01 -1.306331e-01 -2.838753e-01 -5.542360e-02 6.052414e-02 -8.435268e-02 -3.057460e-02 -1.683353e-01 1.185588e-01 -1.669519e-01
<VARIANCE> 39
 1.797943e+01 3.351583e+01 3.547184e+01 5.445970e+01 4.166128e+01 4.703991e+01 3.560847e+01 5.143444e+01 5.732637e+01 6.053273e+01 5.547329e+01 4.754361e+01 1.351279e+01 2.240502e-01 7.845078e-01 5.894544e-01 1.106264e+00 1.324849e+00 1.471958e+00 1.271175e+00 1.649078e+00 1.594497e+00 1.830679e+00 2.015020e+00 1.831255e+00 2.487841e-01 4.566188e-02 1.113359e-01 1.062655e-01 2.252977e-01 2.222738e-01 2.458195e-01 2.189668e-01 2.784768e-01 2.686270e-01 3.192735e-01 3.465758e-01 3.299160e-01 4.213487e-02
<GCONST> 9.708916e+01
<STATE> 4
<MEAN> 39
 3.523477e+00 8.097561e-01 -7.535192e+00 -1.949792e+01 -1.343102e+01 6.240377e+00 -1.306848e+01 -5.088136e+00 -7.434480e+00 -1.538036e+00 1.809114e+00 -6.148689e+00 6.259899e+01 -7.085222e-02 6.249364e-01 7.158095e-01 1.594576e+00 4.552827e-01 -1.201536e+00 6.726645e-02 -1.059649e-01 -2.424483e-01 -6.212346e-02 -6.613913e-01 5.618649e-02 -1.694725e+00 -1.854710e-01 -1.521723e-01 8.648929e-02 3.353828e-01 2.568285e-01 -1.163443e-01 1.382959e-01 -2.597687e-02 1.717175e-01 1.260982e-02 -1.145093e-01 -9.298485e-02 -6.791823e-02
<VARIANCE> 39
 1.591286e+01 4.491342e+01 4.559746e+01 7.915803e+01 4.933826e+01 6.757619e+01 6.144173e+01 5.616028e+01 6.302367e+01 6.339428e+01 5.287604e+01 4.112237e+01 7.518382e+01 1.117449e+00 2.028282e+00 1.866464e+00 3.345294e+00 3.327113e+00 3.518869e+00 3.083144e+00 2.786261e+00 3.323069e+00 3.429329e+00 2.980123e+00 2.458999e+00 2.251659e+00 1.762909e-01 3.205948e-01 3.181029e-01 5.298385e-01 5.334045e-01 6.130593e-01 5.419198e-01 5.248927e-01 6.017968e-01 6.368458e-01 5.664435e-01 5.198964e-01 3.666643e-01
<GCONST> 1.252797e+02
<TRANSP> 5
 0.000000e+00 1.000000e+00 0.000000e+00 0.000000e+00 0.000000e+00
 0.000000e+00 6.722933e-01 3.277067e-01 0.000000e+00 0.000000e+00
