~o
<STREAMINFO> 1 39
<VECSIZE> 39<NULLD><MFCC_D_A_0><DIAGC>
~h "proto"
<BEGINHMM>
<NUMSTATES> 5
<STATE> 2
<MEAN> 39
 -5.720381e+00 -3.208407e+00 -9.572652e-01 -4.133775e+00 -8.284307e+00 -2.737782e+00 -8.364778e+00 -2.901788e+00 -4.223628e+00 -2.589111e+00 -1.642176e+00 -5.413564e+00 5.514673e+01 4.024490e-04 8.138060e-04 2.935123e-04 -8.017545e-04 1.804999e-04 5.791048e-04 -1.688974e-06 -1.547189e-03 -3.825388e-04 2.367599e-04 -1.172267e-03 -1.209553e-03 6.938983e-05 5.130598e-05 1.482563e-04 1.051259e-04 6.245472e-05 2.952978e-05 9.405211e-05 -3.379177e-05 -1.377843e-05 1.130657e-04 1.382564e-04 6.516175e-05 -2.407241e-05 -8.295691e-05
<VARIANCE> 39
 6.552411e+01 6.557511e+01 6.970993e+01 5.594098e+01 7.622991e+01 6.664269e+01 6.093357e+01 6.796207e+01 5.794711e+01 4.215483e+01 4.687112e+01 4.500694e+01 2.513635e+02 2.533214e+00 2.732950e+00 2.555064e+00 2.639769e+00 3.358884e+00 3.126457e+00 3.024248e+00 3.670240e+00 3.178356e+00 2.663916e+00 2.899467e+00 2.436851e+00 5.030293e+00 3.928163e-01 4.190866e-01 3.990213e-01 4.513958e-01 5.907111e-01 5.448549e-01 5.501831e-01 6.470776e-01 5.645735e-01 4.965584e-01 5.287877e-01 4.459042e-01 6.615060e-01
<GCONST> 1.316497e+02
<STATE> 3
<MEAN> 39
 -5.720381e+00 -3.208407e+00 -9.572652e-01 -4.133775e+00 -8.284307e+00 -2.737782e+00 -8.364778e+00 -2.901788e+00 -4.223628e+00 -2.589111e+00 -1.642176e+00 -5.413564e+00 5.514673e+01 4.024490e-04 8.138060e-04 2.935123e-04 -8.017545e-04 1.804999e-04 5.791048e-04 -1.688974e-06 -1.547189e-03 -3.825388e-04 2.367599e-04 -1.172267e-03 -1.209553e-03 6.938983e-05 5.130598e-05 1.482563e-04 1.051259e-04 6.245472e-05 2.952978e-05 9.405211e-05 -3.379177e-05 -1.377843e-05 1.130657e-04 1.382564e-04 6.516175e-05 -2.407241e-05 -8.295691e-05
<VARIANCE> 39
 6.552411e+01 6.557511e+01 6.970993e+01 5.594098e+01 7.622991e+01 6.664269e+01 6.093357e+01 6.796207e+01 5.794711e+01 4.215483e+01 4.687112e+01 4.500694e+01 2.513635e+02 2.533214e+00 2.732950e+00 2.555064e+00 2.639769e+00 3.358884e+00 3.126457e+00 3.024248e+00 3.670240e+00 3.178356e+00 2.663916e+00 2.899467e+00 2.436851e+00 5.030293e+00 3.928163e-01 4.190866e-01 3.990213e-01 4.513958e-01 5.907111e-01 5.448549e-01 5.501831e-01 6.470776e-01 5.645735e-01 4.965584e-01 5.287877e-01 4.459042e-01 6.615060e-01
<GCONST> 1.316497e+02
<STATE> 4
<MEAN> 39
 -5.720381e+00 -3.208407e+00 -9.572652e-01 -4.133775e+00 -8.284307e+00 -2.737782e+00 -8.364778e+00 -2.901788e+00 -4.223628e+00 -2.589111e+00 -1.642176e+00 -5.413564e+00 5.514673e+01 4.024490e-04 8.138060e-04 2.935123e-04 -8.017545e-04 1.804999e-04 5.791048e-04 -1.688974e-06 -1.547189e-03 -3.825388e-04 2.367599e-04 -1.172267e-03 -1.209553e-03 6.938983e-05 5.130598e-05 1.482563e-04 1.051259e-04 6.245472e-05 2.952978e-05 9.405211e-05 -3.379177e-05 -1.377843e-05 1.130657e-04 1.382564e-04 6.516175e-05 -2.407241e-05 -8.295691e-05
<VARIANCE> 39
 6.552411e+01 6.557511e+01 6.970993e+01 5.594098e+01 7.622991e+01 6.664269e+01 6.093357e+01 6.796207e+01 5.794711e+01 4.215483e+01 4.687112e+01 4.500694e+01 2.513635e+02 2.533214e+00 2.732950e+00 2.555064e+00 2.639769e+00 3.358884e+00 3.126457e+00 3.024248e+00 3.670240e+00 3.178356e+00 2.663916e+00 2.899467e+00 2.436851e+00 5.030293e+00 3.928163e-01 4.190866e-01 3.990213e-01 4.513958e-01 5.907111e-01 5.448549e-01 5.501831e-01 6.470776e-01 5.645735e-01 4.965584e-01 5.287877e-01 4.459042e-01 6.615060e-01
<GCONST> 1.316497e+02
<TRANSP> 5
 0.000000e+00 1.000000e+00 0.000000e+00 0.000000e+00 0.000000e+00
 0.000000e+00 6.000000e-01 4.000000e-01 0.000000e+00 0.000000e+00
 0.000000e+00 0.000000e+00 6.000000e-01 4.000000e-01 0.000000e+00
 0.000000e+00 0.000000e+00 0.000000e+00 7.000000e-01 3.000000e-01
 0.000000e+00 0.000000e+00 0.000000e+00 0.000000e+00 0.000000e+00
<ENDHMM>
