~o
<STREAMINFO> 1 39
<VECSIZE> 39<NULLD><MFCC_D_A_0><DIAGC>
~h "proto"
<BEGINHMM>
<NUMSTATES> 5
<STATE> 2
<MEAN> 39
 -5.720466e+00 -3.212225e+00 -9.603605e-01 -4.140170e+00 -8.281955e+00 -2.741349e+00 -8.362198e+00 -2.900930e+00 -4.227073e+00 -2.588613e+00 -1.643656e+00 -5.418067e+00 5.511895e+01 4.041665e-04 8.053962e-04 2.982335e-04 -7.923516e-04 1.777900e-04 5.770453e-04 1.941675e-06 -1.539177e-03 -3.851368e-04 2.390561e-04 -1.168952e-03 -1.209490e-03 7.456179e-05 5.293312e-05 1.484240e-04 1.038095e-04 6.098518e-05 2.683371e-05 9.536938e-05 -3.360479e-05 -1.457660e-05 1.142821e-04 1.394273e-04 6.521690e-05 -2.367122e-05 -8.404514e-05
<VARIANCE> 39
 6.547313e+01 6.560023e+01 6.972158e+01 5.596215e+01 7.614862e+01 6.662771e+01 6.090825e+01 6.795716e+01 5.791979e+01 4.217346e+01 4.686618e+01 4.498603e+01 2.508362e+02 2.532117e+00 2.732893e+00 2.554592e+00 2.640267e+00 3.357445e+00 3.125869e+00 3.023934e+00 3.669551e+00 3.178142e+00 2.664252e+00 2.899031e+00 2.436469e+00 5.031751e+00 3.926345e-01 4.190309e-01 3.989932e-01 4.514428e-01 5.904558e-01 5.446911e-01 5.501082e-01 6.469195e-01 5.645456e-01 4.966250e-01 5.287459e-01 4.459025e-01 6.614805e-01
<GCONST> 1.316424e+02
<STATE> 3
<MEAN> 39
 -5.720466e+00 -3.212225e+00 -9.603605e-01 -4.140170e+00 -8.281955e+00 -2.741349e+00 -8.362198e+00 -2.900930e+00 -4.227073e+00 -2.588613e+00 -1.643656e+00 -5.418067e+00 5.511895e+01 4.041665e-04 8.053962e-04 2.982335e-04 -7.923516e-04 1.777900e-04 5.770453e-04 1.941675e-06 -1.539177e-03 -3.851368e-04 2.390561e-04 -1.168952e-03 -1.209490e-03 7.456179e-05 5.293312e-05 1.484240e-04 1.038095e-04 6.098518e-05 2.683371e-05 9.536938e-05 -3.360479e-05 -1.457660e-05 1.142821e-04 1.394273e-04 6.521690e-05 -2.367122e-05 -8.404514e-05
<VARIANCE> 39
 6.547313e+01 6.560023e+01 6.972158e+01 5.596215e+01 7.614862e+01 6.662771e+01 6.090825e+01 6.795716e+01 5.791979e+01 4.217346e+01 4.686618e+01 4.498603e+01 2.508362e+02 2.532117e+00 2.732893e+00 2.554592e+00 2.640267e+00 3.357445e+00 3.125869e+00 3.023934e+00 3.669551e+00 3.178142e+00 2.664252e+00 2.899031e+00 2.436469e+00 5.031751e+00 3.926345e-01 4.190309e-01 3.989932e-01 4.514428e-01 5.904558e-01 5.446911e-01 5.501082e-01 6.469195e-01 5.645456e-01 4.966250e-01 5.287459e-01 4.459025e-01 6.614805e-01
<GCONST> 1.316424e+02
<STATE> 4
<MEAN> 39
 -5.720466e+00 -3.212225e+00 -9.603605e-01 -4.140170e+00 -8.281955e+00 -2.741349e+00 -8.362198e+00 -2.900930e+00 -4.227073e+00 -2.588613e+00 -1.643656e+00 -5.418067e+00 5.511895e+01 4.041665e-04 8.053962e-04 2.982335e-04 -7.923516e-04 1.777900e-04 5.770453e-04 1.941675e-06 -1.539177e-03 -3.851368e-04 2.390561e-04 -1.168952e-03 -1.209490e-03 7.456179e-05 5.293312e-05 1.484240e-04 1.038095e-04 6.098518e-05 2.683371e-05 9.536938e-05 -3.360479e-05 -1.457660e-05 1.142821e-04 1.394273e-04 6.521690e-05 -2.367122e-05 -8.404514e-05
<VARIANCE> 39
 6.547313e+01 6.560023e+01 6.972158e+01 5.596215e+01 7.614862e+01 6.662771e+01 6.090825e+01 6.795716e+01 5.791979e+01 4.217346e+01 4.686618e+01 4.498603e+01 2.508362e+02 2.532117e+00 2.732893e+00 2.554592e+00 2.640267e+00 3.357445e+00 3.125869e+00 3.023934e+00 3.669551e+00 3.178142e+00 2.664252e+00 2.899031e+00 2.436469e+00 5.031751e+00 3.926345e-01 4.190309e-01 3.989932e-01 4.514428e-01 5.904558e-01 5.446911e-01 5.501082e-01 6.469195e-01 5.645456e-01 4.966250e-01 5.287459e-01 4.459025e-01 6.614805e-01
<GCONST> 1.316424e+02
<TRANSP> 5
 0.000000e+00 1.000000e+00 0.000000e+00 0.000000e+00 0.000000e+00
 0.000000e+00 6.000000e-01 4.000000e-01 0.000000e+00 0.000000e+00
 0.000000e+00 0.000000e+00 6.000000e-01 4.000000e-01 0.000000e+00
 0.000000e+00 0.000000e+00 0.000000e+00 7.000000e-01 3.000000e-01
 0.000000e+00 0.000000e+00 0.000000e+00 0.000000e+00 0.000000e+00
<ENDHMM>
