~o
<STREAMINFO> 1 39
<VECSIZE> 39<NULLD><MFCC_D_A_0><DIAGC>
~h "proto"
<BEGINHMM>
<NUMSTATES> 5
<STATE> 2
<MEAN> 39
 -5.717264e+00 -3.214435e+00 -9.631231e-01 -4.142656e+00 -8.281675e+00 -2.745002e+00 -8.363449e+00 -2.903206e+00 -4.227864e+00 -2.589987e+00 -1.644767e+00 -5.421402e+00 5.514008e+01 4.031106e-04 8.135745e-04 2.980658e-04 -7.953190e-04 1.815087e-04 5.733637e-04 -1.715753e-06 -1.541311e-03 -3.847375e-04 2.432367e-04 -1.168894e-03 -1.198824e-03 6.913400e-05 5.285171e-05 1.486501e-04 1.025144e-04 6.111855e-05 2.591765e-05 9.272806e-05 -3.576978e-05 -1.494770e-05 1.156248e-04 1.404420e-04 6.255115e-05 -2.207235e-05 -8.495711e-05
<VARIANCE> 39
 6.548438e+01 6.557539e+01 6.971037e+01 5.594562e+01 7.613051e+01 6.661101e+01 6.093329e+01 6.792218e+01 5.791368e+01 4.214059e+01 4.686082e+01 4.495300e+01 2.501815e+02 2.533277e+00 2.733301e+00 2.556006e+00 2.640737e+00 3.358103e+00 3.125860e+00 3.024109e+00 3.669409e+00 3.178272e+00 2.664458e+00 2.899244e+00 2.436842e+00 5.034116e+00 3.928682e-01 4.190398e-01 3.991522e-01 4.514604e-01 5.907331e-01 5.447940e-01 5.501990e-01 6.470340e-01 5.645781e-01 4.966474e-01 5.288013e-01 4.459625e-01 6.620585e-01
<GCONST> 1.316424e+02
<STATE> 3
<MEAN> 39
 -5.717264e+00 -3.214435e+00 -9.631231e-01 -4.142656e+00 -8.281675e+00 -2.745002e+00 -8.363449e+00 -2.903206e+00 -4.227864e+00 -2.589987e+00 -1.644767e+00 -5.421402e+00 5.514008e+01 4.031106e-04 8.135745e-04 2.980658e-04 -7.953190e-04 1.815087e-04 5.733637e-04 -1.715753e-06 -1.541311e-03 -3.847375e-04 2.432367e-04 -1.168894e-03 -1.198824e-03 6.913400e-05 5.285171e-05 1.486501e-04 1.025144e-04 6.111855e-05 2.591765e-05 9.272806e-05 -3.576978e-05 -1.494770e-05 1.156248e-04 1.404420e-04 6.255115e-05 -2.207235e-05 -8.495711e-05
<VARIANCE> 39
 6.548438e+01 6.557539e+01 6.971037e+01 5.594562e+01 7.613051e+01 6.661101e+01 6.093329e+01 6.792218e+01 5.791368e+01 4.214059e+01 4.686082e+01 4.495300e+01 2.501815e+02 2.533277e+00 2.733301e+00 2.556006e+00 2.640737e+00 3.358103e+00 3.125860e+00 3.024109e+00 3.669409e+00 3.178272e+00 2.664458e+00 2.899244e+00 2.436842e+00 5.034116e+00 3.928682e-01 4.190398e-01 3.991522e-01 4.514604e-01 5.907331e-01 5.447940e-01 5.501990e-01 6.470340e-01 5.645781e-01 4.966474e-01 5.288013e-01 4.459625e-01 6.620585e-01
<GCONST> 1.316424e+02
<STATE> 4
<MEAN> 39
 -5.717264e+00 -3.214435e+00 -9.631231e-01 -4.142656e+00 -8.281675e+00 -2.745002e+00 -8.363449e+00 -2.903206e+00 -4.227864e+00 -2.589987e+00 -1.644767e+00 -5.421402e+00 5.514008e+01 4.031106e-04 8.135745e-04 2.980658e-04 -7.953190e-04 1.815087e-04 5.733637e-04 -1.715753e-06 -1.541311e-03 -3.847375e-04 2.432367e-04 -1.168894e-03 -1.198824e-03 6.913400e-05 5.285171e-05 1.486501e-04 1.025144e-04 6.111855e-05 2.591765e-05 9.272806e-05 -3.576978e-05 -1.494770e-05 1.156248e-04 1.404420e-04 6.255115e-05 -2.207235e-05 -8.495711e-05
<VARIANCE> 39
 6.548438e+01 6.557539e+01 6.971037e+01 5.594562e+01 7.613051e+01 6.661101e+01 6.093329e+01 6.792218e+01 5.791368e+01 4.214059e+01 4.686082e+01 4.495300e+01 2.501815e+02 2.533277e+00 2.733301e+00 2.556006e+00 2.640737e+00 3.358103e+00 3.125860e+00 3.024109e+00 3.669409e+00 3.178272e+00 2.664458e+00 2.899244e+00 2.436842e+00 5.034116e+00 3.928682e-01 4.190398e-01 3.991522e-01 4.514604e-01 5.907331e-01 5.447940e-01 5.501990e-01 6.470340e-01 5.645781e-01 4.966474e-01 5.288013e-01 4.459625e-01 6.620585e-01
<GCONST> 1.316424e+02
<TRANSP> 5
 0.000000e+00 1.000000e+00 0.000000e+00 0.000000e+00 0.000000e+00
 0.000000e+00 6.000000e-01 4.000000e-01 0.000000e+00 0.000000e+00
 0.000000e+00 0.000000e+00 6.000000e-01 4.000000e-01 0.000000e+00
 0.000000e+00 0.000000e+00 0.000000e+00 7.000000e-01 3.000000e-01
 0.000000e+00 0.000000e+00 0.000000e+00 0.000000e+00 0.000000e+00
<ENDHMM>
