~o
<STREAMINFO> 1 39
<VECSIZE> 39<NULLD><MFCC_D_A_0><DIAGC>
~h "@"
<BEGINHMM>
<NUMSTATES> 5
<STATE> 2
<MEAN> 39
 -1.907089e+00 -5.970723e+00 -2.653208e+00 -6.774776e+00 -1.066091e+01 -4.124092e+00 -1.310830e+01 -3.359745e+00 -2.442658e+00 -9.728595e-01 -2.186977e-01 -8.565133e+00 6.630116e+01 1.572344e+00 -1.123208e+00 -3.939144e-02 -8.832058e-01 -1.141598e+00 5.077904e-01 -1.350837e+00 7.299783e-01 6.999881e-01 2.151098e-01 7.222171e-01 -1.351868e+00 1.890791e+00 -3.673401e-01 3.267310e-01 1.690698e-01 3.798466e-01 2.143448e-01 7.115354e-02 4.018977e-01 -1.369706e-01 -2.928234e-01 -5.078696e-02 -2.059421e-01 3.134942e-01 -8.336027e-01
<VARIANCE> 39
 3.902879e+01 4.257219e+01 5.232922e+01 6.279482e+01 6.107617e+01 9.557532e+01 5.863266e+01 7.320116e+01 7.040717e+01 4.884517e+01 5.530717e+01 4.446563e+01 1.366302e+02 5.626781e+00 3.835394e+00 4.368259e+00 4.520263e+00 5.599950e+00 5.988867e+00 5.502339e+00 7.115287e+00 7.036461e+00 4.349987e+00 4.964128e+00 4.236737e+00 6.335476e+00 9.338685e-01 7.177843e-01 8.232865e-01 9.164835e-01 9.427760e-01 1.027822e+00 9.418012e-01 1.081909e+00 1.059909e+00 7.259169e-01 9.706020e-01 8.062630e-01 1.627701e+00
<GCONST> 1.459282e+02
<STATE> 3
<MEAN> 39
 8.098802e-03 -8.287810e+00 -2.621785e+00 -8.170696e+00 -1.298108e+01 -3.452481e+00 -1.515963e+01 -1.714614e+00 -1.188566e+00 -1.005842e+00 1.234178e+00 -1.057913e+01 7.066042e+01 5.264609e-01 6.483077e-02 4.037965e-01 2.848797e-01 -2.869417e-01 3.074481e-01 -6.315821e-02 7.863265e-02 -1.358407e-01 5.690400e-02 6.090641e-03 -1.911826e-01 -2.690361e-01 -4.150704e-01 6.468973e-01 2.522318e-01 5.641381e-01 4.203316e-01 -1.446685e-01 6.082290e-01 -4.836338e-01 -4.696458e-01 -6.244553e-02 -4.432552e-01 5.440924e-01 -1.017761e+00
<VARIANCE> 39
 2.144156e+01 3.935639e+01 5.609135e+01 5.954753e+01 5.742025e+01 9.946247e+01 5.744712e+01 8.636369e+01 7.829382e+01 5.798952e+01 5.350633e+01 4.354992e+01 5.326485e+01 2.198690e+00 3.465549e+00 2.895704e+00 3.795586e+00 4.251479e+00 4.993328e+00 3.924533e+00 5.781816e+00 5.390113e+00 3.460059e+00 4.182162e+00 3.145307e+00 4.937182e+00 6.435780e-01 5.956444e-01 7.534107e-01 7.827337e-01 8.938515e-01 9.826575e-01 9.323828e-01 1.262997e+00 1.155957e+00 7.876688e-01 8.740614e-01 7.439043e-01 7.192746e-01
<GCONST> 1.392359e+02
<STATE> 4
<MEAN> 39
 -9.139412e-01 -6.338203e+00 -7.811064e-01 -6.634373e+00 -1.306615e+01 -4.824739e+00 -1.355863e+01 -1.855147e+00 -2.145497e+00 -1.377404e+00 2.898882e-01 -9.422877e+00 6.625299e+01 1.072943e-01 8.088725e-01 4.163791e-01 6.946355e-01 2.688404e-01 1.098392e-02 5.028563e-01 -5.368508e-01 -4.554644e-01 -1.084793e-02 -4.830129e-01 3.196924e-01 -1.282894e+00 -1.582777e-01 2.051070e-01 6.421001e-02 1.602981e-01 1.527291e-01 -6.921321e-02 1.915488e-01 -1.885818e-01 -1.312330e-01 -2.259767e-02 -1.616439e-01 1.809198e-01 -2.923881e-01
<VARIANCE> 39
 2.949476e+01 5.055866e+01 5.740362e+01 6.002100e+01 6.879536e+01 8.705343e+01 6.263220e+01 8.165378e+01 7.403281e+01 5.623481e+01 5.509628e+01 4.359748e+01 1.222895e+02 1.557891e+00 2.836658e+00 2.321798e+00 3.058384e+00 3.259958e+00 3.522065e+00 3.332716e+00 4.088816e+00 3.909701e+00 2.762216e+00 3.117655e+00 2.458975e+00 4.632241e+00 3.787230e-01 4.829653e-01 4.430908e-01 5.318163e-01 6.025386e-01 6.158481e-01 6.539600e-01 9.123032e-01 7.477318e-01 5.583500e-01 6.279517e-01 4.991516e-01 6.244436e-01
<GCONST> 1.325831e+02
<TRANSP> 5
 0.000000e+00 1.000000e+00 0.000000e+00 0.000000e+00 0.000000e+00
 0.000000e+00 4.117530e-01 5.882471e-01 0.000000e+00 0.000000e+00
 0.000000e+00 0.000000e+00 2.964567e-01 7.035433e-01 0.000000e+00
 0.000000e+00 0.000000e+00 0.000000e+00 5.375962e-01 4.624038e-01
 0.000000e+00 0.000000e+00 0.000000e+00 0.000000e+00 0.000000e+00
<ENDHMM>
~h "a"
<BEGINHMM>
<NUMSTATES> 5
<STATE> 2
<MEAN> 39
 -1.681479e+00 -1.373304e+01 -6.845141e+00 -9.795957e+00 -9.301308e+00 6.667119e-01 -1.138708e+01 2.898257e+00 2.273844e-01 -3.872321e+00 -3.650407e+00 -1.184917e+01 7.272049e+01 1.969044e-01 -1.515946e+00 -8.604996e-01 -2.223738e-01 8.596107e-01 1.237518e+00 7.910639e-02 7.064865e-01 3.228867e-01 -7.818151e-01 -7.871550e-01 -7.973980e-01 1.109815e+00 -2.292471e-01 5.254237e-01 3.388732e-01 3.739173e-01 1.283810e-01 -2.812186e-01 8.365274e-02 -5.029319e-01 -3.573985e-01 1.079814e-01 8.991173e-02 4.621096e-01 -6.179453e-01
<VARIANCE> 39
 2.327670e+01 3.855379e+01 4.227823e+01 3.734718e+01 5.825844e+01 8.005455e+01 4.974372e+01 8.289677e+01 6.246966e+01 5.471124e+01 4.941632e+01 4.208952e+01 8.079263e+01 1.799092e+00 2.668364e+00 2.217982e+00 2.267035e+00 3.455480e+00 3.806824e+00 2.970889e+00 4.295648e+00 3.224132e+00 3.121003e+00 3.589519e+00 2.872515e+00 3.504930e+00 4.199611e-01 4.317092e-01 3.511012e-01 4.240461e-01 6.403064e-01 6.322608e-01 5.851765e-01 7.751884e-01 6.201289e-01 5.763718e-01 6.464634e-01 5.318418e-01 6.446813e-01
<GCONST> 1.291429e+02
<STATE> 3
<MEAN> 39
 -1.566899e+00 -1.638620e+01 -8.331031e+00 -1.021979e+01 -7.234833e+00 2.931855e+00 -1.157242e+01 2.167400e+00 2.177054e-01 -5.895331e+00 -4.435526e+00 -1.309759e+01 7.493667e+01 6.133303e-02 1.948659e-01 6.583026e-02 2.423587e-01 2.501451e-01 -1.214962e-01 -1.069148e-02 -6.700658e-02 -2.964270e-01 6.182700e-02 -1.918419e-01 9.008251e-02 -4.034354e-01 4.329717e-02 5.129440e-01 2.719008e-01 1.277780e-01 -1.971921e-01 -3.540830e-01 -2.268217e-02 -2.120302e-01 -1.419968e-01 2.532714e-01 1.375618e-01 2.213130e-01 -4.597043e-01
<VARIANCE> 39
 1.659431e+01 3.453031e+01 3.453631e+01 3.091997e+01 4.104216e+01 6.583253e+01 4.476674e+01 7.433139e+01 6.471260e+01 5.796460e+01 4.207006e+01 4.089419e+01 3.738402e+01 5.515657e-01 1.516514e+00 1.129311e+00 1.261753e+00 2.098796e+00 2.612475e+00 1.839152e+00 2.579968e+00 1.878000e+00 2.054451e+00 2.186255e+00 1.800740e+00 1.483693e+00 1.350114e-01 2.533022e-01 2.008581e-01 2.498385e-01 3.481975e-01 3.668393e-01 3.740602e-01 5.351015e-01 4.047164e-01 3.838896e-01 4.200209e-01 3.616386e-01 2.452789e-01
<GCONST> 1.116780e+02
<STATE> 4
<MEAN> 39
 -2.469263e+00 -1.106049e+01 -6.557833e+00 -6.850784e+00 -5.545837e+00 -8.790953e-02 -9.846294e+00 1.872593e+00 -2.123743e+00 -3.912244e+00 -6.118916e+00 -9.333730e+00 6.413488e+01 1.967987e-02 9.557467e-01 4.805097e-01 4.833188e-01 -1.445605e-01 -5.509892e-01 1.042248e-01 -3.900440e-01 -2.124338e-01 2.744034e-01 5.567804e-02 4.045000e-01 -1.319164e+00 -9.213971e-03 1.688894e-01 1.403001e-01 7.891059e-02 -4.410471e-02 -5.168019e-02 1.893646e-02 -1.706580e-01 -3.585416e-02 4.612321e-02 5.639862e-02 6.350762e-02 -1.549593e-01
<VARIANCE> 39
 2.672648e+01 5.659108e+01 3.634882e+01 4.026711e+01 4.489433e+01 5.749952e+01 4.721323e+01 6.279969e+01 4.817569e+01 5.283104e+01 4.592315e+01 4.669073e+01 2.070409e+02 8.521304e-01 1.845297e+00 1.461707e+00 1.652588e+00 2.138684e+00 2.338758e+00 2.238611e+00 2.785769e+00 2.256230e+00 2.236815e+00 2.206723e+00 1.910214e+00 2.350606e+00 1.524756e-01 2.997536e-01 2.441335e-01 3.063965e-01 3.540397e-01 3.736916e-01 4.093290e-01 5.253963e-01 4.038318e-01 4.199686e-01 4.077231e-01 3.318223e-01 3.574685e-01
<GCONST> 1.176291e+02
<TRANSP> 5
 0.000000e+00 1.000000e+00 0.000000e+00 0.000000e+00 0.000000e+00
 0.000000e+00 5.713480e-01 4.286520e-01 0.000000e+00 0.000000e+00
 0.000000e+00 0.000000e+00 6.517365e-01 3.482635e-01 0.000000e+00
 0.000000e+00 0.000000e+00 0.000000e+00 7.853545e-01 2.146455e-01
 0.000000e+00 0.000000e+00 0.000000e+00 0.000000e+00 0.000000e+00
<ENDHMM>
~h "b"
<BEGINHMM>
<NUMSTATES> 5
<STATE> 2
<MEAN> 39
 3.775381e+00 4.750319e+00 3.063679e+00 -1.483593e+00 -6.592433e+00 1.645833e+00 -7.667627e+00 -8.535428e+00 -9.988839e+00 -2.297086e+00 -8.785751e-01 -7.116449e+00 4.989526e+01 6.638235e-01 1.291444e+00 5.360279e-01 2.870575e-01 6.551207e-01 3.589405e-01 5.623872e-01 -3.251966e-01 -4.037381e-01 -1.135662e-01 -7.483140e-02 8.305096e-02 -9.068517e-01 -3.366511e-01 -4.907383e-01 -2.738958e-01 -3.218534e-01 -2.031451e-01 -2.069949e-01 -2.816013e-01 1.304634e-01 3.254598e-01 4.882643e-02 1.587168e-01 4.871293e-02 8.015949e-01
<VARIANCE> 39
 4.842324e+01 4.280413e+01 2.974167e+01 3.947184e+01 4.505589e+01 5.070368e+01 4.298557e+01 4.346378e+01 6.406874e+01 3.737246e+01 4.496008e+01 2.961450e+01 8.387283e+01 2.761831e+00 2.943403e+00 2.520079e+00 2.666314e+00 2.913413e+00 2.883728e+00 2.927162e+00 3.382536e+00 4.173565e+00 2.818833e+00 3.176253e+00 2.227907e+00 6.374055e+00 4.551814e-01 6.071821e-01 4.546395e-01 5.317126e-01 5.654748e-01 5.389501e-01 6.106474e-01 6.719033e-01 8.037665e-01 5.714050e-01 6.257282e-01 4.631648e-01 7.628990e-01
<GCONST> 1.286762e+02
<STATE> 3
<MEAN> 39
 4.491358e+00 5.584907e+00 2.863925e+00 -2.317728e+00 -5.466341e+00 1.760486e+00 -7.615620e+00 -9.530779e+00 -9.933178e+00 -2.317366e+00 3.142239e-01 -6.190900e+00 5.328309e+01 -1.124278e+00 -2.202503e+00 -1.495971e+00 -1.606445e+00 -5.062189e-01 -9.007241e-01 -1.491454e+00 4.754896e-01 1.880157e+00 6.629713e-01 1.015489e+00 7.010003e-02 3.724631e+00 -3.242783e-01 -1.016140e+00 -3.550173e-01 -4.610894e-01 -6.879621e-01 -9.404743e-02 -5.416957e-01 4.679667e-01 5.100660e-01 1.791422e-01 9.427766e-02 -3.509226e-01 1.155425e+00
<VARIANCE> 39
 3.010072e+01 3.759723e+01 2.751573e+01 3.849003e+01 3.718597e+01 5.074857e+01 3.496197e+01 4.116586e+01 6.153521e+01 3.674090e+01 4.394789e+01 3.005805e+01 6.667094e+01 3.132126e+00 5.497596e+00 4.352994e+00 5.779275e+00 4.505172e+00 4.943862e+00 4.924953e+00 5.192953e+00 7.099954e+00 5.054900e+00 4.698130e+00 4.287511e+00 7.971552e+00 5.843090e-01 6.634743e-01 6.743325e-01 7.690804e-01 7.317425e-01 9.246914e-01 7.357431e-01 9.578658e-01 1.131335e+00 9.097362e-01 9.192020e-01 8.801309e-01 1.073607e+00
<GCONST> 1.382164e+02
<STATE> 4
<MEAN> 39
 1.430906e+00 -3.870248e+00 -2.655555e+00 -8.119679e+00 -9.323040e+00 -1.552049e-01 -1.358767e+01 -6.310435e+00 -2.827294e+00 1.698669e+00 2.879846e+00 -8.878767e+00 6.620113e+01 -8.842816e-01 -2.744081e+00 -1.043529e+00 -1.214170e+00 -1.423444e+00 -4.343537e-01 -1.365036e+00 1.615873e+00 1.833564e+00 2.024509e-01 4.597854e-02 -1.036366e+00 3.474233e+00 1.283835e-01 4.036530e-01 4.998687e-01 4.877819e-01 -3.133727e-02 2.044031e-01 4.329568e-01 7.770083e-02 -5.360302e-01 -5.619401e-01 -4.309507e-01 7.423870e-02 -7.182611e-01
<VARIANCE> 39
 2.146067e+01 5.161793e+01 5.011375e+01 7.744012e+01 4.213976e+01 6.981478e+01 5.042721e+01 6.109547e+01 5.863527e+01 5.449796e+01 5.586711e+01 4.801254e+01 9.019451e+01 2.343816e+00 4.935730e+00 5.504358e+00 6.424708e+00 5.436050e+00 6.405894e+00 5.179652e+00 7.113010e+00 7.971944e+00 6.513979e+00 6.578647e+00 6.740959e+00 7.370851e+00 3.848444e-01 7.221292e-01 5.427479e-01 1.199688e+00 1.142640e+00 9.141381e-01 9.967275e-01 8.946509e-01 9.220957e-01 9.552451e-01 1.152983e+00 8.804153e-01 1.261973e+00
<GCONST> 1.446874e+02
<TRANSP> 5
 0.000000e+00 1.000000e+00 0.000000e+00 0.000000e+00 0.000000e+00
 0.000000e+00 7.430980e-01 2.569021e-01 0.000000e+00 0.000000e+00
 0.000000e+00 0.000000e+00 5.163518e-01 4.836482e-01 0.000000e+00
 0.000000e+00 0.000000e+00 0.000000e+00 4.867080e-01 5.132920e-01
 0.000000e+00 0.000000e+00 0.000000e+00 0.000000e+00 0.000000e+00
<ENDHMM>
~h "c"
<BEGINHMM>
<NUMSTATES> 5
<STATE> 2
<MEAN> 39
 -7.098453e+00 3.372688e+00 1.495331e+00 -9.253971e-01 -7.497563e+00 -7.941534e+00 -7.560266e+00 -3.721681e+00 -4.083730e+00 -2.821336e+00 -3.394985e+00 -3.547457e+00 4.790753e+01 -1.405665e+00 8.185731e-02 -5.140285e-01 -2.889678e-01 7.339865e-01 1.079296e-01 3.816990e-01 -1.556823e-01 2.088491e-01 -9.929216e-03 1.405437e-01 2.648312e-01 -1.222124e+00 -4.656616e-01 -4.345596e-01 -2.384483e-01 -3.698883e-01 -4.504604e-02 1.354077e-01 1.306375e-03 -2.906051e-04 5.981854e-02 1.704540e-02 1.384605e-01 1.302005e-02 9.573630e-01
<VARIANCE> 39
 3.851409e+01 4.103706e+01 4.928659e+01 2.863621e+01 4.439323e+01 4.568312e+01 4.201806e+01 4.267458e+01 3.974934e+01 2.952295e+01 2.645474e+01 2.444860e+01 1.293929e+02 5.151144e+00 5.169440e+00 3.542655e+00 3.510403e+00 4.043209e+00 3.168618e+00 3.531157e+00 3.489009e+00 3.413024e+00 2.699067e+00 2.631061e+00 2.443700e+00 1.200453e+01 9.090804e-01 8.125144e-01 6.328391e-01 6.106068e-01 7.906454e-01 6.823072e-01 7.140858e-01 6.633481e-01 6.584969e-01 5.684581e-01 5.246993e-01 5.184356e-01 1.960180e+00
<GCONST> 1.330054e+02
<STATE> 3
<MEAN> 39
 -2.075609e+01 2.630436e-01 -2.845516e+00 -6.296397e+00 -4.249115e+00 -6.079680e+00 -5.158647e+00 -4.579635e+00 -2.754673e+00 -2.279783e+00 -1.261688e+00 -1.064618e+00 5.821184e+01 -2.271831e+00 -6.182681e-01 -2.582433e-01 -1.199515e+00 -3.975025e-01 -6.725408e-02 1.366916e-01 1.934272e-01 3.407549e-01 4.671469e-03 3.105406e-01 4.642760e-01 4.462253e+00 1.591213e+00 -1.579685e-02 5.743064e-01 3.141200e-01 -7.764270e-01 -3.094072e-01 -4.746808e-01 2.420886e-01 -4.264408e-02 -1.803377e-01 -1.878880e-01 -3.495889e-01 6.530347e-02
<VARIANCE> 39
 6.331297e+01 3.136008e+01 4.246191e+01 3.117440e+01 3.097619e+01 3.427626e+01 3.223601e+01 3.069852e+01 2.520756e+01 2.318323e+01 2.079406e+01 1.840926e+01 1.169490e+02 1.302324e+01 4.107466e+00 5.471127e+00 3.988552e+00 5.112679e+00 4.588006e+00 3.962988e+00 3.526580e+00 3.416974e+00 2.671510e+00 2.846220e+00 2.367892e+00 1.041370e+01 2.299596e+00 9.927498e-01 8.949379e-01 8.423968e-01 9.064568e-01 9.020458e-01 7.368127e-01 8.205466e-01 7.557945e-01 5.695981e-01 6.025101e-01 5.795200e-01 2.071213e+00
<GCONST> 1.353929e+02
<STATE> 4
<MEAN> 39
 -1.307922e+01 -2.693028e+00 5.930755e-01 -6.620190e+00 -1.103471e+01 -8.709560e+00 -9.254734e+00 -1.434450e+00 -1.818381e+00 -3.886613e+00 -2.377020e+00 -2.799958e+00 6.951183e+01 4.122457e+00 -1.919845e+00 4.419676e-01 1.099899e-01 -1.799673e+00 -3.376062e-01 -1.642907e+00 1.053301e+00 4.488821e-01 -4.564483e-01 -1.390525e-01 -1.567269e+00 2.239573e+00 4.049741e-01 -2.204454e-01 -3.788326e-01 2.544485e-02 3.416898e-01 5.278393e-01 3.953332e-02 -1.138216e-01 -9.419915e-02 9.021845e-02 1.860911e-01 -3.348482e-01 -7.338856e-01
<VARIANCE> 39
 9.667576e+01 4.798180e+01 4.860859e+01 3.059338e+01 4.782383e+01 4.497015e+01 4.773416e+01 4.976915e+01 4.384864e+01 2.799748e+01 2.456429e+01 2.722868e+01 4.363156e+01 8.262719e+00 6.442543e+00 5.741687e+00 4.243667e+00 5.789081e+00 6.072724e+00 4.285881e+00 7.552794e+00 5.046552e+00 3.506598e+00 3.519851e+00 3.184360e+00 4.092834e+00 3.020054e+00 9.248215e-01 7.712829e-01 7.214364e-01 1.245205e+00 1.110951e+00 9.527296e-01 1.071756e+00 7.322338e-01 5.647795e-01 6.038038e-01 5.874785e-01 7.131912e-01
<GCONST> 1.396977e+02
<TRANSP> 5
 0.000000e+00 1.000000e+00 0.000000e+00 0.000000e+00 0.000000e+00
 0.000000e+00 8.259935e-01 1.740065e-01 0.000000e+00 0.000000e+00
 0.000000e+00 0.000000e+00 7.018804e-01 2.981196e-01 0.000000e+00
 0.000000e+00 0.000000e+00 0.000000e+00 6.989262e-01 3.010738e-01
 0.000000e+00 0.000000e+00 0.000000e+00 0.000000e+00 0.000000e+00
<ENDHMM>
~h "d"
<BEGINHMM>
<NUMSTATES> 5
<STATE> 2
<MEAN> 39
 6.839063e-01 1.101283e+00 5.168678e+00 2.622452e+00 -9.370756e+00 -5.996887e+00 -9.891223e+00 -3.052838e+00 -3.322194e+00 -3.008185e+00 -5.589639e+00 -7.117789e+00 5.145010e+01 7.625636e-01 9.718840e-01 8.996158e-01 8.417775e-01 6.094054e-01 -3.961120e-01 -1.636997e-02 6.254710e-02 1.736808e-01 -1.913946e-01 -5.425409e-01 -2.310339e-02 -6.969965e-01 -3.763647e-01 -4.293765e-01 -1.353989e-01 -4.445637e-01 -1.376725e-01 3.862410e-03 -6.537291e-02 3.702791e-02 -6.758834e-02 -6.327347e-02 3.214473e-01 1.680721e-01 7.622837e-01
<VARIANCE> 39
 6.000336e+01 5.925512e+01 4.518824e+01 3.754588e+01 6.560069e+01 4.180924e+01 5.301321e+01 6.934467e+01 4.747903e+01 3.738985e+01 4.061788e+01 3.648153e+01 1.265293e+02 3.948944e+00 4.047919e+00 2.961826e+00 3.591200e+00 4.653028e+00 3.264592e+00 3.780352e+00 5.298568e+00 3.806697e+00 2.938867e+00 3.720849e+00 2.783705e+00 8.441475e+00 7.607611e-01 7.892005e-01 4.700954e-01 6.939909e-01 9.764203e-01 6.599980e-01 7.056516e-01 9.816588e-01 7.698042e-01 6.131306e-01 7.842220e-01 5.706010e-01 1.179264e+00
<GCONST> 1.369521e+02
<STATE> 3
<MEAN> 39
 1.191394e+00 1.041823e+00 7.885301e+00 2.932949e+00 -8.186874e+00 -7.811644e+00 -1.065466e+01 -2.985765e+00 -3.598235e+00 -3.863366e+00 -5.384026e+00 -5.769032e+00 5.590982e+01 -1.777443e+00 -2.103395e+00 -1.139209e-01 -1.843358e+00 -8.367283e-01 -5.799090e-01 -6.234993e-01 5.703748e-01 -8.164161e-02 -3.255563e-01 1.661096e+00 1.039348e+00 3.923688e+00 -2.638494e-01 -5.653155e-01 -3.334689e-01 -5.015473e-01 -9.469822e-01 2.024714e-01 -2.455824e-01 1.084067e-01 -2.570838e-02 1.034195e-02 5.955021e-01 -1.495165e-01 9.624637e-01
<VARIANCE> 39
 4.163871e+01 4.428711e+01 3.235481e+01 4.265506e+01 5.490631e+01 4.177203e+01 4.651971e+01 5.011369e+01 4.365500e+01 3.336518e+01 3.621197e+01 3.492094e+01 8.249603e+01 4.182427e+00 4.683741e+00 4.318854e+00 4.542200e+00 7.492469e+00 4.623806e+00 5.154531e+00 8.425323e+00 6.644899e+00 3.985950e+00 4.779417e+00 3.583363e+00 8.341529e+00 9.567403e-01 7.880845e-01 6.334725e-01 9.403154e-01 1.178419e+00 8.977908e-01 9.552312e-01 1.485136e+00 1.180302e+00 7.275848e-01 9.254450e-01 8.175215e-01 1.492264e+00
<GCONST> 1.418387e+02
<STATE> 4
<MEAN> 39
 -2.691041e+00 -6.381473e+00 5.176988e+00 -3.657428e+00 -1.547768e+01 -8.648311e+00 -1.389566e+01 8.298553e-01 -2.630788e+00 -3.869529e+00 8.499097e-01 -4.965186e+00 6.912090e+01 -5.440899e-01 -1.633304e+00 -1.034714e+00 -1.401606e+00 -2.007065e+00 5.166183e-01 -6.071159e-01 1.161859e+00 4.799592e-01 -2.055895e-01 1.253026e+00 -6.401587e-01 2.899616e+00 4.240512e-01 5.040949e-01 -8.725372e-02 3.971234e-01 3.396475e-01 4.943967e-01 2.664761e-01 -2.937055e-01 -1.385321e-01 3.576899e-02 -5.215289e-01 -4.350038e-01 -9.031674e-01
<VARIANCE> 39
 2.186726e+01 3.898314e+01 5.260437e+01 3.988683e+01 7.074949e+01 5.421457e+01 5.690483e+01 9.452070e+01 7.766430e+01 3.453981e+01 3.931123e+01 3.175232e+01 6.754599e+01 3.259311e+00 3.584470e+00 5.213049e+00 4.031060e+00 7.478915e+00 4.844534e+00 5.737430e+00 1.090103e+01 7.673816e+00 3.896429e+00 6.597070e+00 3.998229e+00 6.711829e+00 4.389631e-01 4.998793e-01 4.544801e-01 6.395968e-01 1.666783e+00 8.112270e-01 1.035179e+00 1.240644e+00 9.702246e-01 6.491656e-01 9.706941e-01 6.322446e-01 8.585881e-01
<GCONST> 1.406533e+02
<TRANSP> 5
 0.000000e+00 1.000000e+00 0.000000e+00 0.000000e+00 0.000000e+00
 0.000000e+00 7.249382e-01 2.750618e-01 0.000000e+00 0.000000e+00
 0.000000e+00 0.000000e+00 5.607605e-01 4.392395e-01 0.000000e+00
 0.000000e+00 0.000000e+00 0.000000e+00 4.996363e-01 5.003638e-01
 0.000000e+00 0.000000e+00 0.000000e+00 0.000000e+00 0.000000e+00
<ENDHMM>
~h "e"
<BEGINHMM>
<NUMSTATES> 5
<STATE> 2
<MEAN> 39
 -3.160505e+00 -9.888516e+00 3.011022e+00 -5.411366e+00 -1.778241e+01 -8.035959e+00 -1.019431e+01 3.318183e+00 -4.468040e+00 -3.278765e+00 1.146317e+00 -7.006237e+00 6.672559e+01 1.534673e-01 -1.073938e+00 6.850463e-01 -5.369539e-01 -1.515540e+00 -5.460781e-02 2.325951e-01 1.271276e+00 -2.597649e-01 -3.296828e-01 5.453637e-01 -2.332975e-01 1.594061e+00 -1.019094e-01 4.028263e-01 -4.930795e-02 1.023627e-01 3.466435e-01 1.768199e-01 1.910578e-01 -3.768871e-01 -9.330199e-02 1.210565e-01 -1.417448e-01 6.440841e-02 -4.890404e-01
<VARIANCE> 39
 3.432164e+01 6.214112e+01 5.896164e+01 4.652744e+01 8.726624e+01 6.213671e+01 5.849276e+01 9.603667e+01 7.333941e+01 5.046343e+01 5.453103e+01 3.381565e+01 1.585804e+02 2.902232e+00 4.262489e+00 2.957527e+00 3.407158e+00 6.072359e+00 3.852830e+00 4.326461e+00 5.949606e+00 4.569924e+00 3.704926e+00 3.728689e+00 2.692782e+00 9.057584e+00 6.048167e-01 8.102060e-01 4.614448e-01 5.614880e-01 1.061070e+00 6.914519e-01 7.970242e-01 1.070707e+00 8.907705e-01 6.798366e-01 6.761983e-01 5.288178e-01 1.671425e+00
<GCONST> 1.403108e+02
<STATE> 3
<MEAN> 39
 -2.227679e+00 -1.143277e+01 3.895086e+00 -6.641560e+00 -2.040345e+01 -8.073427e+00 -9.743123e+00 4.380730e+00 -4.716724e+00 -3.942638e+00 1.930948e+00 -7.986666e+00 7.110681e+01 -5.675181e-02 2.671567e-01 1.820488e-01 1.216067e-01 -6.951688e-02 -4.501180e-02 2.741960e-01 -8.254537e-02 -2.066809e-01 6.487363e-02 -4.448138e-02 1.357758e-02 -3.113333e-01 -1.845533e-02 3.520171e-01 -1.586853e-01 1.936735e-01 4.603053e-01 1.279083e-02 -9.924364e-03 -3.707759e-01 1.489519e-02 9.092342e-02 -2.202296e-01 7.386751e-02 -5.081302e-01
<VARIANCE> 39
 2.010363e+01 5.558809e+01 5.821680e+01 4.955293e+01 7.274079e+01 6.026497e+01 5.398027e+01 1.040556e+02 7.374700e+01 5.219967e+01 5.307750e+01 2.998833e+01 7.764255e+01 1.073934e+00 2.028636e+00 1.778951e+00 2.271650e+00 3.099015e+00 2.458418e+00 2.756011e+00 2.961948e+00 2.801132e+00 2.262271e+00 2.349149e+00 1.721641e+00 4.170008e+00 2.561466e-01 3.972904e-01 3.164393e-01 4.088534e-01 6.504740e-01 4.847122e-01 5.729426e-01 6.862561e-01 5.978326e-01 4.836194e-01 4.686776e-01 3.512247e-01 5.841344e-01
<GCONST> 1.246395e+02
<STATE> 4
<MEAN> 39
 -4.337872e+00 -7.571485e+00 5.297125e+00 -5.615024e+00 -1.876468e+01 -7.898828e+00 -8.413068e+00 2.753413e+00 -6.275509e+00 -2.631388e+00 2.016876e+00 -6.766070e+00 6.362121e+01 8.868062e-03 4.380387e-01 -1.687997e-01 3.058394e-01 5.063159e-01 -7.337360e-03 8.253355e-02 -3.547046e-01 3.595719e-02 6.235861e-02 -2.921522e-01 5.206463e-02 -7.621514e-01 1.039331e-02 7.989239e-02 -4.640393e-02 6.982762e-02 1.444229e-01 1.422795e-02 -3.026664e-02 -1.022372e-01 2.054363e-02 2.055896e-02 -5.472011e-02 1.338177e-02 -1.012992e-01
<VARIANCE> 39
 2.355405e+01 5.634534e+01 6.423522e+01 4.321880e+01 9.484023e+01 5.528645e+01 4.866428e+01 8.414961e+01 5.036570e+01 4.510323e+01 5.529200e+01 3.197406e+01 2.096369e+02 7.526947e-01 1.426325e+00 1.207556e+00 1.422733e+00 2.019542e+00 1.621692e+00 2.036140e+00 2.191965e+00 1.914029e+00 1.665263e+00 1.732610e+00 1.295394e+00 2.167245e+00 1.452830e-01 2.353021e-01 1.988183e-01 2.425238e-01 3.497624e-01 3.171702e-01 3.705487e-01 4.185281e-01 3.589222e-01 3.215876e-01 3.069565e-01 2.382143e-01 2.934865e-01
<GCONST> 1.137945e+02
<TRANSP> 5
 0.000000e+00 1.000000e+00 0.000000e+00 0.000000e+00 0.000000e+00
 0.000000e+00 6.153436e-01 3.846564e-01 0.000000e+00 0.000000e+00
 0.000000e+00 0.000000e+00 5.182142e-01 4.817859e-01 0.000000e+00
 0.000000e+00 0.000000e+00 0.000000e+00 8.642572e-01 1.357428e-01
 0.000000e+00 0.000000e+00 0.000000e+00 0.000000e+00 0.000000e+00
<ENDHMM>
~h "f"
<BEGINHMM>
<NUMSTATES> 5
<STATE> 2
<MEAN> 39
 -8.836043e+00 -1.048821e+00 -3.168278e-01 -6.634768e-01 -3.999614e+00 -3.718679e+00 -6.650791e+00 -3.461452e+00 -3.739694e+00 -2.582436e+00 -2.492876e+00 -3.690724e+00 6.181406e+01 -3.352059e+00 7.922011e-02 -2.984458e-01 1.174906e+00 1.348658e+00 -3.266718e-01 3.129509e-01 9.243573e-02 1.274245e+00 -1.252771e-01 -9.831562e-02 5.954623e-01 -9.551348e-01 -9.442826e-02 -5.913418e-01 -1.745782e-01 -3.868374e-01 -6.463749e-01 -3.255318e-02 -3.537846e-01 -3.994453e-02 -1.742439e-01 9.914097e-02 1.293606e-01 -1.632592e-01 2.134067e-01
<VARIANCE> 39
 5.208693e+01 2.290468e+01 3.957129e+01 3.759757e+01 3.394455e+01 5.314709e+01 3.460054e+01 3.872609e+01 3.386546e+01 2.863173e+01 3.107310e+01 2.252961e+01 4.715718e+01 3.144825e+00 3.969052e+00 3.796865e+00 3.866134e+00 5.180625e+00 4.146755e+00 3.344057e+00 4.406828e+00 3.880299e+00 3.531137e+00 3.295944e+00 2.330146e+00 1.741555e+00 8.131645e-01 4.775835e-01 4.515719e-01 5.925030e-01 6.657031e-01 5.987723e-01 6.070747e-01 6.096637e-01 7.353722e-01 5.450282e-01 5.064200e-01 3.689249e-01 2.085079e-01
<GCONST> 1.258879e+02
<STATE> 3
<MEAN> 39
 -1.916729e+01 -5.458301e+00 -3.462178e+00 -3.712592e-01 -4.214889e+00 -5.241203e+00 -7.915407e+00 -3.556200e+00 -1.829499e+00 -1.979148e+00 -1.765926e+00 -2.480401e+00 6.023050e+01 -2.907708e-01 -6.444407e-01 -5.299994e-01 -3.920612e-01 -3.018453e-01 -1.125382e-01 -8.002233e-02 -4.996732e-02 -2.656066e-02 4.005498e-02 1.134243e-01 -2.033548e-02 -8.035878e-02 9.251670e-01 1.461552e-01 1.350971e-01 -2.193548e-01 -1.983499e-01 1.255250e-01 1.422715e-02 1.395992e-02 -2.186050e-01 -3.565316e-02 5.247907e-02 -1.608885e-01 2.091228e-01
<VARIANCE> 39
 2.287377e+01 1.960201e+01 2.511068e+01 1.936108e+01 2.112423e+01 2.735826e+01 2.501624e+01 2.436201e+01 2.312332e+01 1.976224e+01 2.144004e+01 1.646681e+01 2.876328e+01 5.268674e+00 1.718919e+00 2.193458e+00 2.170641e+00 1.970004e+00 2.531456e+00 2.156423e+00 2.226449e+00 2.153006e+00 1.956153e+00 1.754883e+00 1.681954e+00 1.592238e+00 5.841876e-01 3.849394e-01 4.392600e-01 4.830148e-01 5.321091e-01 5.373528e-01 4.659320e-01 5.054082e-01 5.435190e-01 4.474761e-01 4.144286e-01 3.853876e-01 2.567126e-01
<GCONST> 1.116681e+02
<STATE> 4
<MEAN> 39
 -1.404397e+01 -5.080289e+00 -4.825640e+00 -2.812484e+00 -4.831754e+00 -4.584444e+00 -6.367280e+00 -3.075688e+00 -2.810605e+00 -1.863204e+00 -1.129922e+00 -2.306952e+00 4.992907e+01 1.356491e+00 1.233625e-01 1.319245e-01 -3.712168e-01 -4.426146e-01 2.260549e-01 -9.554818e-02 -2.737124e-02 -2.827324e-01 -1.312782e-01 1.359142e-01 -3.565252e-01 3.748092e-01 1.841106e-01 4.461496e-03 9.337392e-02 -4.356637e-02 -1.361409e-01 5.675951e-02 -8.916411e-02 -2.193502e-03 -4.372808e-02 -4.541716e-02 5.268974e-02 -8.518363e-02 1.668882e-01
<VARIANCE> 39
 5.637942e+01 3.265380e+01 3.032916e+01 2.716599e+01 2.347033e+01 3.188173e+01 2.356957e+01 2.625710e+01 2.572330e+01 2.274754e+01 2.073759e+01 1.961296e+01 1.445531e+02 7.049630e+00 2.440427e+00 2.495451e+00 2.945113e+00 2.670601e+00 3.148907e+00 2.281408e+00 2.722579e+00 2.869834e+00 2.454852e+00 2.148248e+00 2.337303e+00 3.513980e+00 7.375578e-01 3.795901e-01 3.399999e-01 4.230447e-01 4.653192e-01 4.790534e-01 4.373685e-01 4.692715e-01 5.156134e-01 4.326067e-01 4.142133e-01 3.630266e-01 3.385621e-01
<GCONST> 1.191521e+02
<TRANSP> 5
 0.000000e+00 1.000000e+00 0.000000e+00 0.000000e+00 0.000000e+00
 0.000000e+00 6.878405e-01 3.121595e-01 0.000000e+00 0.000000e+00
 0.000000e+00 0.000000e+00 7.950994e-01 2.049006e-01 0.000000e+00
 0.000000e+00 0.000000e+00 0.000000e+00 8.539540e-01 1.460460e-01
 0.000000e+00 0.000000e+00 0.000000e+00 0.000000e+00 0.000000e+00
<ENDHMM>
~h "g"
<BEGINHMM>
<NUMSTATES> 5
<STATE> 2
<MEAN> 39
 2.073598e+00 2.062310e+00 5.638144e+00 1.294376e-01 -1.098021e+01 -6.622400e+00 -1.056152e+01 -3.345115e+00 -7.888335e+00 -7.677252e-01 -1.978433e+00 -8.388623e+00 5.515848e+01 -2.477107e-02 1.037632e+00 4.828032e-01 9.497956e-01 8.240162e-01 -6.693214e-01 4.309420e-01 -1.814078e-01 -1.701289e-01 -1.265069e-01 -3.641139e-01 4.294578e-01 -1.205877e+00 -4.435756e-01 -5.519262e-01 -4.243329e-01 -3.763933e-01 1.064870e-01 7.577524e-02 -7.246250e-02 1.298644e-01 1.933002e-01 -7.626882e-02 9.268863e-02 1.321489e-01 8.597252e-01
<VARIANCE> 39
 3.417677e+01 5.302810e+01 5.004185e+01 4.168886e+01 6.171739e+01 5.620367e+01 5.606765e+01 6.499255e+01 5.799644e+01 4.243295e+01 4.277212e+01 3.394516e+01 9.701814e+01 3.920161e+00 4.226645e+00 4.133045e+00 3.166221e+00 5.256107e+00 4.379192e+00 3.991238e+00 4.271578e+00 4.679268e+00 3.391435e+00 3.475179e+00 3.019105e+00 7.891460e+00 6.405104e-01 6.884304e-01 6.451439e-01 5.085632e-01 1.048345e+00 8.613893e-01 8.025469e-01 7.931794e-01 8.372725e-01 7.008267e-01 7.512825e-01 5.952629e-01 1.246517e+00
<GCONST> 1.377667e+02
<STATE> 3
<MEAN> 39
 -2.686123e+00 8.030953e-04 2.663815e+00 7.880527e-01 -6.538260e+00 -9.727673e+00 -9.959661e+00 -3.174773e+00 -7.395398e+00 -9.788993e-01 -2.119878e+00 -4.947575e+00 6.000624e+01 -1.293717e+00 -1.714497e+00 -9.122813e-01 -1.169483e+00 -3.669176e-01 -6.018531e-01 -5.947090e-01 8.053792e-01 5.859624e-01 -1.646065e-01 9.620146e-01 3.954017e-01 3.221163e+00 3.400893e-01 -2.027780e-01 1.083486e-01 -5.238277e-01 -9.053834e-01 4.564565e-01 -1.824139e-01 1.893873e-01 1.627353e-01 -9.575166e-02 3.795478e-01 -4.277149e-01 3.693445e-01
<VARIANCE> 39
 4.314684e+01 5.096445e+01 6.540153e+01 3.679626e+01 8.236135e+01 6.270122e+01 4.889964e+01 5.577833e+01 4.450076e+01 3.410974e+01 4.203690e+01 3.101212e+01 1.009910e+02 5.400867e+00 4.689471e+00 6.854882e+00 4.132195e+00 1.333444e+01 6.096985e+00 4.996696e+00 6.895634e+00 5.756329e+00 4.038072e+00 5.919949e+00 4.475304e+00 7.007961e+00 1.032611e+00 8.766068e-01 1.188111e+00 6.766751e-01 2.089524e+00 1.199728e+00 9.035799e-01 1.013230e+00 9.347193e-01 7.578864e-01 1.124699e+00 8.515158e-01 1.536122e+00
<GCONST> 1.461704e+02
<STATE> 4
<MEAN> 39
 -2.976329e+00 -3.765607e+00 2.143158e+00 -4.218994e+00 -1.292722e+01 -8.231520e+00 -1.184378e+01 8.416489e-01 -5.011723e+00 -1.328037e+00 1.609747e+00 -6.891068e+00 6.574620e+01 7.515170e-02 -1.142502e+00 -5.518196e-01 -1.578623e+00 -1.266370e+00 1.199217e+00 -3.224482e-01 9.832489e-01 8.386969e-01 -3.503370e-01 5.033686e-01 -9.305626e-01 1.801110e+00 1.847286e-01 1.361369e-01 -7.231405e-02 1.133272e-01 3.110521e-01 4.280092e-01 1.296278e-01 -2.681333e-01 -1.125315e-01 -6.679054e-02 -4.092485e-01 -1.175375e-01 -3.928034e-01
<VARIANCE> 39
 2.889048e+01 5.130078e+01 6.341768e+01 4.205812e+01 8.674097e+01 6.991379e+01 5.864999e+01 9.195467e+01 6.101542e+01 3.691774e+01 5.171197e+01 3.637851e+01 1.416232e+02 3.073075e+00 3.006863e+00 4.871871e+00 3.642977e+00 7.963284e+00 4.845332e+00 4.116221e+00 6.442874e+00 5.636865e+00 3.459034e+00 5.822942e+00 4.239993e+00 3.798477e+00 5.237290e-01 4.109702e-01 7.343333e-01 5.369267e-01 2.030578e+00 8.217704e-01 8.403193e-01 9.864214e-01 7.668393e-01 5.927952e-01 1.268099e+00 5.872201e-01 7.150668e-01
<GCONST> 1.403640e+02
<TRANSP> 5
 0.000000e+00 1.000000e+00 0.000000e+00 0.000000e+00 0.000000e+00
 0.000000e+00 7.086169e-01 2.913831e-01 0.000000e+00 0.000000e+00
 0.000000e+00 0.000000e+00 6.302469e-01 3.697531e-01 0.000000e+00
 0.000000e+00 0.000000e+00 0.000000e+00 4.614246e-01 5.385754e-01
 0.000000e+00 0.000000e+00 0.000000e+00 0.000000e+00 0.000000e+00
<ENDHMM>
~h "h"
<BEGINHMM>
<NUMSTATES> 5
<STATE> 2
<MEAN> 39
 -5.655246e+00 -6.175519e+00 -1.820349e+00 -3.189761e+00 -1.391188e+00 4.692509e-01 -5.233847e+00 -1.893563e-01 -4.719636e+00 -2.696295e+00 -5.122254e+00 -5.092789e+00 6.396140e+01 -9.860074e-01 -2.674546e-01 1.382822e-01 4.844151e-01 1.082342e+00 1.444606e-01 7.015647e-01 -5.057550e-02 4.513785e-01 -9.576535e-02 8.674130e-02 5.584496e-01 -8.636431e-01 7.415318e-02 -1.665618e-01 -1.189653e-01 -2.855659e-01 -4.101845e-01 -5.029244e-02 -2.605816e-01 -4.582993e-02 1.002722e-02 4.946452e-02 1.369589e-01 -1.419113e-01 4.610410e-02
<VARIANCE> 39
 3.515117e+01 4.729422e+01 5.681970e+01 4.123096e+01 8.166480e+01 5.695713e+01 5.745619e+01 6.250341e+01 5.270391e+01 4.576670e+01 5.239381e+01 3.747566e+01 9.853671e+01 1.844711e+00 2.967214e+00 2.906352e+00 2.786623e+00 3.686885e+00 3.205058e+00 3.164340e+00 3.362813e+00 2.974828e+00 2.800863e+00 2.970623e+00 2.510911e+00 1.923315e+00 2.419012e-01 4.569620e-01 3.711647e-01 4.666026e-01 5.734657e-01 5.529789e-01 5.552352e-01 6.033611e-01 5.362794e-01 5.007691e-01 4.953153e-01 4.243931e-01 2.003570e-01
<GCONST> 1.261743e+02
<STATE> 3
<MEAN> 39
 -8.131855e+00 -7.999819e+00 -3.391270e+00 -3.803860e+00 -1.387816e-01 2.205929e-01 -4.706409e+00 -9.792259e-01 -3.042169e+00 -2.676007e+00 -4.322069e+00 -4.323242e+00 6.157237e+01 -2.136666e-01 -6.131154e-02 -2.193102e-01 -2.411709e-01 -2.450811e-01 -3.018608e-01 -1.404711e-01 -2.057260e-01 6.226041e-02 5.084549e-02 1.361915e-01 7.835253e-02 -9.030978e-01 2.874931e-01 1.545636e-01 -1.571710e-02 -1.136293e-01 -3.555904e-01 -6.353554e-02 -2.120691e-01 -5.187545e-02 -1.409478e-01 -1.183697e-02 1.794656e-02 -1.529264e-01 3.174445e-02
<VARIANCE> 39
 3.945908e+01 5.271509e+01 5.174160e+01 3.759586e+01 6.677190e+01 5.316343e+01 5.603991e+01 5.118198e+01 5.099533e+01 4.174587e+01 4.332486e+01 3.358547e+01 1.060529e+02 1.713580e+00 2.348429e+00 2.064312e+00 2.218204e+00 2.755988e+00 2.754821e+00 2.695808e+00 2.715375e+00 2.575468e+00 2.397514e+00 2.390606e+00 2.170755e+00 2.553642e+00 2.622801e-01 3.642830e-01 3.570810e-01 4.336450e-01 5.128979e-01 5.033686e-01 5.348179e-01 5.132119e-01 4.911104e-01 4.760921e-01 4.676836e-01 4.060169e-01 2.428369e-01
<GCONST> 1.225825e+02
<STATE> 4
<MEAN> 39
 -9.936714e+00 -5.217172e+00 -3.755973e+00 -2.978960e+00 -2.174336e+00 -2.412708e+00 -5.035301e+00 -1.576806e+00 -2.972963e+00 -2.790221e+00 -2.885002e+00 -2.728867e+00 4.723058e+01 1.000678e-01 1.732588e-01 -1.847118e-02 -1.800756e-02 -1.639072e-01 -1.104568e-02 -5.810812e-02 -6.527565e-02 -4.564831e-02 1.266935e-02 3.802405e-02 -6.830392e-02 -2.570165e-01 7.590750e-02 1.539829e-02 3.006432e-02 -2.727824e-03 -4.124370e-02 2.245268e-02 -2.868948e-02 7.872683e-03 -2.471435e-02 -1.507523e-02 2.512193e-03 -4.022717e-02 1.177060e-01
<VARIANCE> 39
 2.671559e+01 6.250460e+01 3.472510e+01 2.926873e+01 3.219683e+01 3.497221e+01 3.232581e+01 3.400440e+01 3.155056e+01 2.846820e+01 2.848542e+01 2.409921e+01 1.686826e+02 1.141843e+00 1.669024e+00 1.351163e+00 1.423404e+00 1.648754e+00 1.765895e+00 1.890134e+00 1.976510e+00 1.980598e+00 1.818025e+00 1.725277e+00 1.615886e+00 1.741386e+00 1.903521e-01 2.624436e-01 2.340174e-01 2.619809e-01 3.075088e-01 3.290635e-01 3.569658e-01 3.782018e-01 3.765799e-01 3.476649e-01 3.352209e-01 3.071759e-01 2.025037e-01
<GCONST> 1.090720e+02
<TRANSP> 5
 0.000000e+00 1.000000e+00 0.000000e+00 0.000000e+00 0.000000e+00
 0.000000e+00 6.295604e-01 3.704397e-01 0.000000e+00 0.000000e+00
 0.000000e+00 0.000000e+00 5.164617e-01 4.835382e-01 0.000000e+00
 0.000000e+00 0.000000e+00 0.000000e+00 8.904230e-01 1.095770e-01
 0.000000e+00 0.000000e+00 0.000000e+00 0.000000e+00 0.000000e+00
<ENDHMM>
~h "i"
<BEGINHMM>
<NUMSTATES> 5
<STATE> 2
<MEAN> 39
 -5.836038e+00 -1.667404e+00 1.218697e+01 -1.758152e+00 -1.848826e+01 -8.697595e+00 -1.229313e+01 -5.455123e+00 -1.111924e+01 -5.172498e+00 3.510683e+00 -5.034245e+00 6.534695e+01 3.443598e-01 -4.911040e-02 2.395319e+00 -3.510961e-01 -2.706319e+00 3.307976e-01 -1.462399e+00 -4.253230e-01 -1.337847e+00 -5.388770e-01 1.634305e+00 -4.009830e-01 1.538915e+00 -4.095621e-02 9.678677e-02 -4.517448e-01 -9.942732e-02 3.086091e-01 3.746327e-01 7.188614e-02 6.256180e-02 3.501246e-01 2.083921e-01 -2.141311e-01 -9.950090e-02 -4.269922e-01
<VARIANCE> 39
 3.216863e+01 4.145247e+01 5.367151e+01 4.059916e+01 6.639140e+01 6.537788e+01 5.679113e+01 7.118610e+01 5.081038e+01 3.935920e+01 3.651774e+01 3.100125e+01 8.071529e+01 5.371451e+00 2.882800e+00 4.695058e+00 3.396052e+00 5.753120e+00 5.177980e+00 6.297458e+00 5.347997e+00 4.976050e+00 3.573951e+00 3.554468e+00 3.052553e+00 4.712728e+00 7.146421e-01 5.243891e-01 7.852982e-01 5.296008e-01 1.258187e+00 8.407675e-01 9.717573e-01 9.521546e-01 8.042960e-01 5.898334e-01 6.679950e-01 4.691020e-01 9.213585e-01
<GCONST> 1.376279e+02
<STATE> 3
<MEAN> 39
 -5.596302e+00 -1.881258e+00 1.607749e+01 -3.289655e+00 -2.374820e+01 -6.860067e+00 -1.558314e+01 -6.358657e+00 -1.306655e+01 -5.898853e+00 6.871561e+00 -6.718145e+00 6.852374e+01 1.809044e-01 3.288831e-01 -1.742548e-01 9.874783e-03 1.531984e-01 8.163436e-02 1.202783e-01 3.597547e-02 1.741652e-01 1.943857e-01 -1.232493e-01 -8.959992e-02 -4.993547e-01 3.624437e-02 1.207227e-01 -5.748323e-01 1.416878e-01 7.217523e-01 -1.700073e-01 4.311520e-01 9.785209e-02 3.435192e-01 1.404059e-01 -5.047477e-01 9.726373e-02 -4.838850e-01
<VARIANCE> 39
 1.628813e+01 2.973010e+01 3.999302e+01 4.193835e+01 4.164051e+01 7.116350e+01 5.170455e+01 6.892300e+01 4.685334e+01 4.310556e+01 3.020754e+01 3.599867e+01 3.226952e+01 1.413413e+00 2.157326e+00 2.621148e+00 2.171239e+00 3.892185e+00 3.226843e+00 3.662910e+00 3.444953e+00 2.781214e+00 2.172355e+00 2.557913e+00 1.802157e+00 3.108839e+00 3.286625e-01 3.586973e-01 4.162064e-01 3.932714e-01 7.434940e-01 6.492423e-01 7.251191e-01 6.723989e-01 5.792987e-01 4.619236e-01 5.005004e-01 3.980862e-01 3.988883e-01
<GCONST> 1.226691e+02
<STATE> 4
<MEAN> 39
 -6.400298e+00 1.786454e+00 1.262678e+01 -3.290076e+00 -1.836582e+01 -5.310112e+00 -1.224690e+01 -7.163382e+00 -1.068358e+01 -4.294083e+00 2.219159e+00 -6.044028e+00 5.839815e+01 1.006024e-01 1.412899e-01 -7.945983e-01 1.833518e-01 7.789597e-01 -1.327906e-01 5.416367e-01 1.560436e-01 3.886194e-01 1.841211e-01 -5.335201e-01 1.165684e-01 -9.866881e-01 -1.178875e-02 -6.497941e-02 -1.249943e-01 1.537939e-02 1.351213e-01 2.011458e-02 2.184993e-02 1.962759e-02 3.716536e-02 5.871706e-04 -6.927186e-02 7.764195e-03 1.020770e-02
<VARIANCE> 39
 2.348523e+01 3.561096e+01 7.179933e+01 4.171042e+01 7.679189e+01 7.734830e+01 6.054325e+01 5.748254e+01 4.148307e+01 3.605495e+01 4.180920e+01 3.596264e+01 1.638394e+02 1.257208e+00 1.820904e+00 1.980426e+00 1.668427e+00 2.818020e+00 2.356044e+00 2.744707e+00 2.831330e+00 2.370704e+00 1.962656e+00 2.306338e+00 1.748013e+00 2.623377e+00 1.900364e-01 2.652260e-01 2.699376e-01 2.878619e-01 4.598255e-01 4.456844e-01 4.624788e-01 4.771569e-01 3.976525e-01 3.608901e-01 3.947926e-01 3.073597e-01 3.268748e-01
<GCONST> 1.190355e+02
<TRANSP> 5
 0.000000e+00 1.000000e+00 0.000000e+00 0.000000e+00 0.000000e+00
 0.000000e+00 6.522410e-01 3.477590e-01 0.000000e+00 0.000000e+00
 0.000000e+00 0.000000e+00 6.960750e-01 3.039250e-01 0.000000e+00
 0.000000e+00 0.000000e+00 0.000000e+00 8.585629e-01 1.414371e-01
 0.000000e+00 0.000000e+00 0.000000e+00 0.000000e+00 0.000000e+00
<ENDHMM>
~h "j"
<BEGINHMM>
<NUMSTATES> 5
<STATE> 2
<MEAN> 39
 -2.033658e+00 5.533144e+00 7.744798e+00 1.269632e+00 -9.210522e+00 -7.173409e+00 -8.199389e+00 -1.676590e+00 -4.113894e+00 -5.451560e+00 -3.275747e+00 -4.106528e+00 5.332172e+01 -5.148447e-01 1.071812e+00 4.138329e-01 1.349609e-01 1.114619e+00 1.293031e-01 5.888788e-01 -4.493586e-02 2.396999e-01 -5.907068e-02 -2.753393e-01 2.152516e-01 -6.656011e-01 -5.542511e-01 -3.908885e-01 -2.228254e-01 -2.910567e-01 2.643178e-02 5.035290e-02 -1.372482e-01 -1.889667e-01 -1.000759e-01 6.937297e-02 2.280736e-01 7.166659e-02 7.638021e-01
<VARIANCE> 39
 5.218033e+01 4.393922e+01 4.334448e+01 2.856427e+01 4.774143e+01 4.187535e+01 4.281069e+01 4.178697e+01 3.858003e+01 3.185121e+01 2.722983e+01 2.132817e+01 1.005049e+02 7.533297e+00 3.987014e+00 2.914500e+00 2.988260e+00 3.826838e+00 3.195487e+00 3.524488e+00 4.356285e+00 3.361735e+00 2.685077e+00 2.668923e+00 2.320675e+00 8.183208e+00 1.321178e+00 6.478134e-01 4.979952e-01 5.146657e-01 8.039201e-01 6.724585e-01 6.665072e-01 7.864196e-01 6.695948e-01 5.244238e-01 5.430342e-01 5.179349e-01 1.282053e+00
<GCONST> 1.317973e+02
<STATE> 3
<MEAN> 39
 -1.380846e+01 6.471280e+00 7.514553e+00 -1.746695e+00 -4.217083e+00 -6.274487e+00 -6.902128e+00 -5.565981e+00 -5.217046e+00 -5.062287e+00 -1.761980e+00 -1.314177e+00 6.272769e+01 -1.784429e+00 -1.372968e+00 2.708583e-01 -6.981012e-01 -1.619243e+00 -1.247125e+00 -9.402784e-01 -5.712764e-01 -5.895708e-01 -2.385516e-01 1.259318e+00 1.076204e+00 3.838803e+00 1.529915e+00 -6.053210e-01 1.300824e-01 1.497392e-01 -1.306193e+00 -3.145796e-01 -6.113070e-01 5.479076e-01 1.656450e-01 -1.118301e-01 2.476117e-01 -2.749552e-01 -1.122844e-01
<VARIANCE> 39
 5.515760e+01 3.601824e+01 4.704530e+01 2.462343e+01 4.371517e+01 4.573371e+01 3.127118e+01 2.923987e+01 2.699744e+01 2.200998e+01 1.908313e+01 1.834865e+01 6.322542e+01 1.363096e+01 4.204144e+00 4.639034e+00 4.017654e+00 9.500939e+00 4.879492e+00 4.049723e+00 4.164783e+00 3.489110e+00 2.599076e+00 2.644261e+00 2.197208e+00 3.963565e+00 1.741502e+00 8.896001e-01 8.749747e-01 7.258781e-01 1.261156e+00 1.080889e+00 6.918232e-01 1.037672e+00 8.495899e-01 5.507685e-01 5.475132e-01 6.244808e-01 1.045915e+00
<GCONST> 1.342887e+02
<STATE> 4
<MEAN> 39
 -6.035104e+00 -3.228164e+00 8.889311e+00 -3.421566e+00 -1.800141e+01 -1.196224e+01 -1.427249e+01 -5.808946e-01 -4.454898e+00 -6.153264e+00 3.675614e+00 -1.179376e+00 7.229843e+01 2.417734e+00 -3.030110e+00 -1.445175e+00 -7.918482e-01 -2.020988e+00 2.855654e-01 -1.469724e+00 2.131577e+00 1.279783e+00 2.324910e-01 5.223987e-01 -1.612496e+00 1.432060e+00 -5.675424e-02 2.880527e-01 -7.034154e-01 -1.090500e-01 1.181967e+00 9.289182e-01 5.009817e-01 -6.913462e-02 1.686863e-01 2.249352e-01 -6.134549e-01 -6.188529e-01 -7.061791e-01
<VARIANCE> 39
 2.275326e+01 4.038073e+01 3.625311e+01 3.798943e+01 4.031216e+01 3.232996e+01 3.791969e+01 6.530528e+01 4.765207e+01 3.188223e+01 2.300660e+01 2.582360e+01 2.799141e+01 2.807205e+00 3.513011e+00 4.564110e+00 2.922684e+00 8.177986e+00 5.137618e+00 5.269590e+00 7.003837e+00 4.273376e+00 3.085404e+00 4.601168e+00 2.992626e+00 1.656175e+00 9.591572e-01 6.124865e-01 4.827747e-01 5.578907e-01 1.053223e+00 6.878560e-01 7.220688e-01 1.201541e+00 7.170128e-01 5.622900e-01 7.236755e-01 5.412148e-01 1.984048e-01
<GCONST> 1.299208e+02
<TRANSP> 5
 0.000000e+00 1.000000e+00 0.000000e+00 0.000000e+00 0.000000e+00
 0.000000e+00 8.293716e-01 1.706284e-01 0.000000e+00 0.000000e+00
 0.000000e+00 0.000000e+00 6.949808e-01 3.050193e-01 0.000000e+00
 0.000000e+00 0.000000e+00 0.000000e+00 6.771483e-01 3.228517e-01
 0.000000e+00 0.000000e+00 0.000000e+00 0.000000e+00 0.000000e+00
<ENDHMM>
~h "k"
<BEGINHMM>
<NUMSTATES> 5
<STATE> 2
<MEAN> 39
 -7.209229e+00 4.624462e-01 -1.959521e+00 -2.938797e+00 -6.396160e+00 -5.057712e+00 -7.216417e+00 -3.883123e+00 -4.688653e+00 -1.031312e+00 -2.546618e+00 -4.184820e+00 4.383951e+01 -9.118298e-01 -1.637523e-01 -5.233617e-01 1.918647e-01 7.174531e-01 -3.700667e-01 1.458856e-01 1.123248e-01 2.816738e-01 6.685969e-02 -1.425556e-01 5.554587e-01 -1.001148e+00 -8.788246e-02 -4.514849e-01 -2.733500e-01 -2.004101e-01 3.190768e-02 3.736446e-02 -7.573842e-02 1.494309e-01 8.717552e-03 3.660462e-02 1.583974e-02 -4.318053e-02 9.765567e-01
<VARIANCE> 39
 4.428643e+01 4.007445e+01 5.226968e+01 4.016673e+01 5.359468e+01 5.046006e+01 4.538622e+01 4.932789e+01 4.622789e+01 3.656925e+01 3.659344e+01 3.501616e+01 1.159865e+02 2.600960e+00 4.018403e+00 3.544060e+00 3.117312e+00 4.329340e+00 3.604794e+00 3.636506e+00 3.609106e+00 3.502531e+00 3.134548e+00 2.969912e+00 2.516073e+00 9.915831e+00 4.565853e-01 6.906076e-01 6.465787e-01 6.204262e-01 8.228561e-01 7.167935e-01 7.469727e-01 7.017626e-01 7.089807e-01 6.721000e-01 6.058261e-01 4.995429e-01 1.644258e+00
<GCONST> 1.338582e+02
<STATE> 3
<MEAN> 39
 -1.066629e+01 -4.227600e+00 -6.391580e+00 -3.370327e+00 -2.804540e+00 -6.543058e+00 -8.084580e+00 -2.708486e+00 -4.047884e+00 1.693560e-01 -3.340333e+00 -2.333622e+00 5.044625e+01 -6.219658e-01 -1.660127e+00 -1.608166e+00 -7.811610e-01 7.528234e-01 -4.144421e-01 -3.579794e-01 7.592975e-01 4.724056e-02 4.763348e-01 -2.788147e-01 9.227930e-03 4.122092e+00 7.019997e-01 1.748597e-01 4.211091e-01 -2.831313e-01 -7.410285e-01 2.197637e-01 -9.874604e-02 4.604740e-02 -1.176922e-01 -2.130764e-01 1.890078e-01 -5.453228e-01 7.651510e-01
<VARIANCE> 39
 3.997849e+01 5.790297e+01 6.941980e+01 4.935739e+01 6.425984e+01 6.088010e+01 4.942035e+01 4.776633e+01 4.587275e+01 3.703519e+01 3.579625e+01 2.995822e+01 1.522525e+02 4.855593e+00 6.094572e+00 7.751282e+00 5.262034e+00 7.648002e+00 6.099542e+00 5.782543e+00 5.660230e+00 5.347394e+00 4.692081e+00 4.044436e+00 4.030386e+00 1.645180e+01 7.974465e-01 1.084357e+00 1.354628e+00 8.728734e-01 1.402515e+00 1.112715e+00 1.025188e+00 9.505833e-01 9.104679e-01 8.895404e-01 7.951408e-01 7.712971e-01 2.281433e+00
<GCONST> 1.468505e+02
<STATE> 4
<MEAN> 39
 -8.113780e+00 -6.629016e+00 -7.759851e+00 -6.575751e+00 -5.276057e+00 -6.733412e+00 -9.310663e+00 -1.945939e-01 -4.136558e+00 -1.671087e-01 -3.278339e+00 -5.767066e+00 6.307835e+01 1.746669e+00 -3.667944e-01 7.568189e-01 -9.045396e-01 -1.787136e+00 6.034644e-01 -2.853196e-01 5.472876e-01 -6.255624e-02 -7.365332e-01 5.842886e-01 -1.615953e+00 3.154275e+00 3.805139e-01 1.576309e-01 4.727030e-01 1.151677e-01 -3.738705e-01 4.395277e-01 5.399182e-02 -1.979078e-01 2.417261e-02 -3.031564e-01 2.346938e-01 -1.945675e-01 -7.091509e-01
<VARIANCE> 39
 4.268879e+01 4.955074e+01 7.012745e+01 4.799239e+01 6.884244e+01 7.979623e+01 4.570484e+01 5.704509e+01 5.538185e+01 4.243788e+01 4.054765e+01 4.596902e+01 1.134706e+02 4.994003e+00 5.019075e+00 5.957655e+00 4.512231e+00 6.467962e+00 6.247882e+00 4.678146e+00 5.839993e+00 5.308636e+00 4.488063e+00 4.343226e+00 5.160634e+00 1.063221e+01 9.588509e-01 8.037106e-01 1.305261e+00 7.447528e-01 1.539976e+00 1.048231e+00 9.258314e-01 9.292756e-01 8.896558e-01 8.138945e-01 8.443898e-01 8.761419e-01 1.473711e+00
<GCONST> 1.459243e+02
<TRANSP> 5
 0.000000e+00 1.000000e+00 0.000000e+00 0.000000e+00 0.000000e+00
 0.000000e+00 7.647260e-01 2.352740e-01 0.000000e+00 0.000000e+00
 0.000000e+00 0.000000e+00 5.688130e-01 4.311870e-01 0.000000e+00
 0.000000e+00 0.000000e+00 0.000000e+00 5.988347e-01 4.011653e-01
 0.000000e+00 0.000000e+00 0.000000e+00 0.000000e+00 0.000000e+00
<ENDHMM>
~h "l"
<BEGINHMM>
<NUMSTATES> 5
<STATE> 2
<MEAN> 39
 1.165004e+00 -9.811258e+00 -1.833179e+00 -7.886769e+00 -1.394811e+01 -3.160815e-01 -1.564880e+01 -8.284051e+00 6.930261e-01 7.058437e-01 5.755816e-02 -8.842835e+00 7.001829e+01 5.958424e-01 -2.196655e-01 5.472475e-01 -5.306602e-01 -5.624419e-02 3.898736e-01 -1.247075e+00 -8.615978e-01 4.190257e-01 1.117101e+00 3.932213e-02 -2.154738e-01 -2.409934e-01 -1.591483e-01 1.435904e-01 -1.625247e-02 -1.248061e-01 9.959766e-02 4.655433e-02 1.114205e-01 2.021137e-01 -1.911075e-01 -1.716945e-01 4.933154e-02 3.328798e-02 -2.249195e-02
<VARIANCE> 39
 2.329208e+01 3.494261e+01 6.268212e+01 6.650446e+01 5.742103e+01 1.058095e+02 6.833239e+01 1.256856e+02 7.654217e+01 6.439451e+01 5.305495e+01 4.414138e+01 4.370640e+01 1.196222e+00 1.998420e+00 3.519263e+00 4.095079e+00 4.619959e+00 5.836687e+00 4.174966e+00 5.442651e+00 4.535678e+00 4.008762e+00 3.917701e+00 3.209058e+00 1.541852e+00 2.393274e-01 3.074842e-01 4.640588e-01 6.143574e-01 7.810165e-01 8.747861e-01 8.136457e-01 1.034621e+00 7.747052e-01 7.795261e-01 6.445037e-01 5.168545e-01 1.813804e-01
<GCONST> 1.326180e+02
<STATE> 3
<MEAN> 39
 2.221372e+00 -9.869896e+00 -6.523446e-01 -1.034429e+01 -1.349725e+01 1.546199e+00 -1.882098e+01 -9.941235e+00 8.899496e-01 3.604494e+00 4.337469e-01 -9.389850e+00 6.957338e+01 -1.027427e-01 1.071889e-01 -9.592266e-02 -3.153700e-01 2.256029e-01 7.338595e-02 -1.341072e-01 4.152665e-01 -2.319301e-02 -4.649340e-02 -1.375844e-01 -9.669446e-02 1.036638e-02 -2.468975e-01 2.708748e-02 -2.797472e-01 1.707456e-01 7.487352e-02 -6.163293e-02 5.383450e-01 4.484907e-01 -1.173033e-01 -5.121911e-01 -1.281668e-01 9.961025e-03 1.223564e-01
<VARIANCE> 39
 1.911178e+01 3.060587e+01 5.700296e+01 6.825808e+01 5.328764e+01 8.773927e+01 7.658443e+01 1.145852e+02 7.531116e+01 6.125739e+01 4.991626e+01 4.089918e+01 3.463302e+01 8.196214e-01 1.629536e+00 3.370176e+00 3.137184e+00 2.931232e+00 4.613247e+00 4.120446e+00 6.077291e+00 4.122174e+00 3.983101e+00 3.151754e+00 2.730635e+00 1.265612e+00 1.361030e-01 3.258603e-01 4.008160e-01 5.570570e-01 7.008790e-01 7.560825e-01 8.345892e-01 8.589177e-01 7.859111e-01 7.389163e-01 6.610659e-01 5.289092e-01 1.629820e-01
<GCONST> 1.281156e+02
<STATE> 4
<MEAN> 39
 1.093193e+00 -8.685159e+00 -1.951957e+00 -1.093935e+01 -1.197552e+01 2.074556e+00 -1.717797e+01 -5.985042e+00 -1.121240e-01 1.567078e+00 -1.441074e+00 -9.393669e+00 6.793855e+01 -4.217029e-01 1.480346e-01 -3.104126e-01 3.358592e-01 3.597925e-01 -1.916273e-01 8.613250e-01 6.329476e-01 -2.379317e-01 -7.423649e-01 -3.900397e-01 4.756314e-02 -1.498862e-01 -8.557727e-02 9.599077e-03 -8.537449e-03 1.319675e-01 5.289899e-03 -2.372685e-02 1.979878e-01 2.291311e-02 -8.756112e-02 -1.433283e-01 2.036492e-02 5.773998e-02 -1.389414e-02
<VARIANCE> 39
 2.296605e+01 4.431360e+01 6.509898e+01 6.917256e+01 5.759658e+01 9.179299e+01 7.709806e+01 1.015212e+02 7.421336e+01 6.697453e+01 5.477038e+01 4.261771e+01 8.301932e+01 7.556560e-01 2.008098e+00 2.321992e+00 2.468536e+00 2.839398e+00 3.553953e+00 3.677198e+00 4.188654e+00 3.237384e+00 3.443795e+00 3.130034e+00 2.344817e+00 1.723144e+00 1.237208e-01 2.654146e-01 2.832826e-01 3.767035e-01 5.121943e-01 5.174317e-01 6.114851e-01 6.085896e-01 5.288411e-01 5.561531e-01 5.297320e-01 3.983566e-01 1.725760e-01
<GCONST> 1.248904e+02
<TRANSP> 5
 0.000000e+00 1.000000e+00 0.000000e+00 0.000000e+00 0.000000e+00
 0.000000e+00 5.669946e-01 4.330053e-01 0.000000e+00 0.000000e+00
 0.000000e+00 0.000000e+00 5.696125e-01 4.303876e-01 0.000000e+00
 0.000000e+00 0.000000e+00 0.000000e+00 6.952320e-01 3.047680e-01
 0.000000e+00 0.000000e+00 0.000000e+00 0.000000e+00 0.000000e+00
<ENDHMM>
~h "m"
<BEGINHMM>
<NUMSTATES> 5
<STATE> 2
<MEAN> 39
 2.418227e+00 -4.088390e+00 -7.657735e-01 -4.944628e+00 -9.096020e+00 1.460776e+00 -1.022196e+01 -9.211774e+00 -1.075540e+01 -1.860298e+00 -4.850255e-01 -8.978128e+00 6.151654e+01 5.623655e-01 1.042883e+00 1.415388e+00 1.492380e+00 1.860135e-01 1.399648e-01 7.589276e-01 -2.247798e+00 -2.578266e+00 2.291329e-01 -4.624716e-01 2.134589e-01 -9.725906e-01 -2.187993e-01 -1.762624e-01 7.826678e-02 -6.687332e-02 -5.999960e-02 -1.583368e-02 2.859798e-02 1.604364e-01 9.146465e-02 -1.109235e-01 -1.018005e-01 3.134483e-02 2.756220e-01
<VARIANCE> 39
 2.922579e+01 4.000278e+01 4.075066e+01 6.967153e+01 5.526058e+01 7.863181e+01 5.724675e+01 6.921708e+01 7.854729e+01 5.666616e+01 6.603194e+01 4.119280e+01 9.254855e+01 1.538472e+00 2.692893e+00 3.469160e+00 3.753964e+00 3.437211e+00 3.918593e+00 3.941405e+00 5.146384e+00 5.571332e+00 4.300631e+00 5.750840e+00 3.348773e+00 3.797958e+00 2.452646e-01 3.411667e-01 4.916601e-01 6.597807e-01 5.116861e-01 4.954649e-01 5.884063e-01 8.665183e-01 9.777290e-01 5.754447e-01 8.285007e-01 4.979949e-01 3.092421e-01
<GCONST> 1.329715e+02
<STATE> 3
<MEAN> 39
 3.679073e+00 -2.880416e+00 3.030112e+00 -1.507525e+00 -9.108494e+00 1.883940e+00 -8.476796e+00 -1.447149e+01 -1.746092e+01 -1.455113e+00 -1.490369e+00 -8.377414e+00 6.149702e+01 6.765933e-03 -8.466042e-03 2.046754e-01 -5.434660e-02 8.299446e-02 2.064526e-01 2.247509e-01 -1.952522e-01 -2.893198e-01 -2.035322e-01 -1.525630e-01 3.936670e-02 1.931231e-01 -1.418326e-01 -2.522309e-01 -4.958866e-01 -5.705137e-01 -3.352468e-02 -3.114124e-02 -2.513497e-01 8.146802e-01 9.444100e-01 -1.366218e-01 1.448805e-01 -1.159921e-01 2.945600e-01
<VARIANCE> 39
 1.503650e+01 2.329347e+01 2.439584e+01 4.869415e+01 5.648427e+01 8.570538e+01 5.942502e+01 5.264939e+01 7.295445e+01 7.652803e+01 7.359463e+01 4.047816e+01 3.450278e+01 7.138638e-01 1.664422e+00 2.775864e+00 3.629462e+00 1.816636e+00 2.621351e+00 2.512694e+00 3.918315e+00 5.487871e+00 2.832575e+00 3.865953e+00 2.355314e+00 2.341957e+00 1.584493e-01 2.598911e-01 3.955978e-01 4.978136e-01 4.084918e-01 4.709717e-01 5.181130e-01 6.898996e-01 8.794103e-01 6.563299e-01 8.000160e-01 5.038060e-01 2.495469e-01
<GCONST> 1.231126e+02
<STATE> 4
<MEAN> 39
 1.523761e+00 -2.102911e+00 1.989446e+00 -4.046507e+00 -8.875969e+00 2.708648e+00 -7.777963e+00 -1.031419e+01 -1.240135e+01 -3.787929e+00 -2.888774e+00 -7.932125e+00 5.913518e+01 -1.684600e-01 -1.427916e-01 -5.717419e-01 -5.518107e-01 7.926858e-02 -6.145848e-02 -2.467542e-01 7.922642e-01 1.071782e+00 -4.001604e-02 2.348023e-01 -5.300483e-02 1.869368e-01 -6.412136e-02 -8.879402e-02 -1.075288e-01 -5.593874e-02 1.247779e-02 -4.774943e-02 -1.368338e-01 1.778319e-01 2.334525e-01 1.454581e-02 6.599000e-02 -1.668686e-02 6.695215e-02
<VARIANCE> 39
 3.015998e+01 3.331910e+01 3.996192e+01 6.116573e+01 7.184521e+01 7.895572e+01 6.060222e+01 6.380434e+01 8.009164e+01 5.765075e+01 6.395882e+01 4.116359e+01 1.075918e+02 6.293412e-01 1.928294e+00 2.653112e+00 3.029190e+00 1.980099e+00 2.454973e+00 2.760399e+00 3.399638e+00 4.911143e+00 2.545702e+00 3.409389e+00 2.117745e+00 2.427712e+00 1.224876e-01 2.110552e-01 3.658224e-01 4.668645e-01 3.514247e-01 3.875327e-01 4.167170e-01 4.814848e-01 6.229632e-01 3.894099e-01 5.930377e-01 3.508954e-01 1.869235e-01
<GCONST> 1.220884e+02
<TRANSP> 5
 0.000000e+00 1.000000e+00 0.000000e+00 0.000000e+00 0.000000e+00
 0.000000e+00 5.754578e-01 4.245422e-01 0.000000e+00 0.000000e+00
 0.000000e+00 0.000000e+00 6.337038e-01 3.662962e-01 0.000000e+00
 0.000000e+00 0.000000e+00 0.000000e+00 7.832291e-01 2.167709e-01
 0.000000e+00 0.000000e+00 0.000000e+00 0.000000e+00 0.000000e+00
<ENDHMM>
~h "n"
<BEGINHMM>
<NUMSTATES> 5
<STATE> 2
<MEAN> 39
 1.957162e+00 -6.962805e+00 1.264498e+00 -2.467820e+00 -1.318969e+01 -5.401469e+00 -1.322657e+01 -3.830421e+00 -4.800096e+00 -1.437682e+00 -6.318419e+00 -9.821343e+00 6.649931e+01 8.586532e-01 2.056403e+00 1.506737e+00 1.534540e+00 -3.394400e-01 -1.042526e+00 6.378657e-01 -2.983012e+00 -9.978097e-01 1.383187e+00 -1.289949e+00 5.132140e-01 -2.064243e+00 -1.541800e-01 7.988659e-03 -8.221794e-02 -2.427263e-01 2.470462e-02 2.653153e-01 2.196942e-01 -8.497597e-02 -6.375053e-02 -6.812877e-02 1.215889e-01 1.153116e-01 1.199419e-01
<VARIANCE> 39
 1.409639e+01 4.336966e+01 4.329848e+01 4.134788e+01 4.648161e+01 6.037976e+01 5.157777e+01 1.202246e+02 6.445873e+01 5.069654e+01 4.972690e+01 4.284158e+01 4.335263e+01 8.936266e-01 2.355795e+00 3.440217e+00 2.556573e+00 3.447154e+00 4.526416e+00 3.903702e+00 6.237092e+00 3.837107e+00 4.037292e+00 3.823067e+00 3.397000e+00 1.735777e+00 1.543879e-01 4.423825e-01 4.033694e-01 4.559118e-01 5.075193e-01 6.207384e-01 6.614055e-01 1.397963e+00 5.662695e-01 6.518447e-01 5.675151e-01 4.365456e-01 3.097916e-01
<GCONST> 1.273202e+02
<STATE> 3
<MEAN> 39
 3.557244e+00 -2.191169e+00 4.242736e+00 4.067114e-01 -1.427458e+01 -6.971156e+00 -1.016886e+01 -1.184509e+01 -7.568626e+00 2.004164e+00 -8.071331e+00 -8.384783e+00 6.210144e+01 1.301239e-01 8.065521e-01 3.948734e-01 2.275831e-01 1.955566e-02 6.039105e-02 4.434351e-01 -7.659731e-01 -5.182170e-01 2.733901e-01 -3.302290e-01 4.152063e-01 -7.477645e-01 -3.107325e-01 -4.285448e-01 -3.493358e-01 -3.994888e-01 2.176133e-01 2.771420e-01 -1.933545e-01 9.066817e-01 2.716569e-01 -4.954890e-01 4.011438e-01 -5.905550e-02 3.826559e-01
<VARIANCE> 39
 1.208412e+01 2.282849e+01 2.551690e+01 3.994568e+01 4.677210e+01 7.556273e+01 5.299410e+01 6.229757e+01 6.788629e+01 4.403474e+01 5.168145e+01 5.367480e+01 2.621406e+01 8.123524e-01 2.280944e+00 2.061834e+00 2.123398e+00 2.529205e+00 2.833049e+00 2.989385e+00 5.962550e+00 3.296169e+00 3.131024e+00 2.875835e+00 2.277485e+00 2.019828e+00 1.755877e-01 3.524395e-01 4.579455e-01 4.499305e-01 5.386592e-01 6.209970e-01 5.764458e-01 8.761991e-01 6.345779e-01 6.591762e-01 6.264387e-01 5.044035e-01 3.031382e-01
<GCONST> 1.221957e+02
<STATE> 4
<MEAN> 39
 1.257416e+00 3.271868e-01 4.675514e+00 5.212674e-01 -1.141427e+01 -5.576774e+00 -8.948099e+00 -9.369398e+00 -7.823355e+00 -4.596435e-01 -8.246042e+00 -6.334651e+00 5.590313e+01 -4.471419e-01 2.473242e-01 -1.652255e-01 -7.065199e-02 5.747135e-01 2.127712e-01 8.706644e-02 5.461393e-01 1.296858e-01 -4.179940e-01 3.537276e-01 1.590932e-01 -6.945472e-01 -1.621221e-01 -1.514579e-01 -1.144336e-01 -1.153643e-01 8.098475e-02 4.246706e-02 -7.184440e-02 2.319984e-01 1.208315e-01 -1.114733e-01 1.595202e-01 -4.759092e-02 1.099989e-01
<VARIANCE> 39
 2.951616e+01 3.049371e+01 3.266063e+01 3.813231e+01 6.780431e+01 6.783723e+01 5.786934e+01 5.641267e+01 5.326802e+01 5.026791e+01 5.418673e+01 4.501195e+01 9.282645e+01 1.110394e+00 2.123351e+00 1.738711e+00 2.028003e+00 2.474008e+00 2.441869e+00 2.403622e+00 3.536314e+00 2.732170e+00 2.833934e+00 2.563555e+00 1.948248e+00 2.505412e+00 2.159390e-01 3.198045e-01 2.988874e-01 3.559634e-01 4.709789e-01 4.446032e-01 4.501816e-01 6.130497e-01 4.981616e-01 5.017014e-01 4.729603e-01 3.663981e-01 2.714264e-01
<GCONST> 1.207767e+02
<TRANSP> 5
 0.000000e+00 1.000000e+00 0.000000e+00 0.000000e+00 0.000000e+00
 0.000000e+00 5.856997e-01 4.143002e-01 0.000000e+00 0.000000e+00
 0.000000e+00 0.000000e+00 5.896019e-01 4.103980e-01 0.000000e+00
 0.000000e+00 0.000000e+00 0.000000e+00 8.083473e-01 1.916527e-01
 0.000000e+00 0.000000e+00 0.000000e+00 0.000000e+00 0.000000e+00
<ENDHMM>
~h "o"
<BEGINHMM>
<NUMSTATES> 5
<STATE> 2
<MEAN> 39
 3.223834e-01 -4.113345e+00 -7.597262e+00 -1.331409e+01 -1.124362e+01 2.976768e+00 -1.177292e+01 -5.454315e+00 -3.481715e+00 -1.233640e+00 2.230949e+00 -7.132111e+00 6.599065e+01 1.503403e+00 -5.542991e-01 -9.192659e-01 -2.435227e+00 -1.414615e+00 2.489272e+00 -3.987944e-01 -2.768491e-02 4.098043e-01 -1.780509e-01 1.502348e+00 -8.548154e-01 1.985622e+00 -2.723842e-01 5.756437e-02 2.846963e-01 2.834416e-01 1.099618e-01 -2.415407e-03 2.201743e-01 -1.322956e-02 -9.528534e-02 -7.739713e-02 -7.406498e-02 1.392942e-01 -4.679502e-01
<VARIANCE> 39
 3.277982e+01 3.786201e+01 4.922047e+01 9.210184e+01 6.940917e+01 8.405140e+01 6.942051e+01 7.032184e+01 7.444904e+01 6.148172e+01 5.340984e+01 4.140187e+01 1.056390e+02 4.153455e+00 2.793722e+00 4.995899e+00 6.309309e+00 7.549251e+00 5.714334e+00 4.375139e+00 5.415255e+00 5.347213e+00 5.396305e+00 4.358173e+00 3.851682e+00 6.141053e+00 7.768217e-01 5.012329e-01 7.174003e-01 1.190625e+00 1.133722e+00 1.067576e+00 8.234390e-01 8.281529e-01 9.960967e-01 8.083177e-01 7.437504e-01 6.903183e-01 1.111504e+00
<GCONST> 1.439340e+02
<STATE> 3
<MEAN> 39
 2.580735e+00 -5.774846e+00 -9.273899e+00 -1.812435e+01 -1.376423e+01 8.851122e+00 -1.190685e+01 -6.276176e+00 -2.464155e+00 -2.516293e+00 6.311786e+00 -8.410101e+00 7.074267e+01 1.716386e-01 -1.942632e-01 -1.264297e-01 -4.662482e-01 -8.898891e-02 8.723983e-01 1.186752e-01 2.225279e-02 -1.568080e-02 -1.296699e-01 3.655153e-01 -1.122835e-01 1.313664e-01 -2.846209e-01 1.901320e-01 2.869058e-01 7.207358e-01 4.018287e-01 -7.568166e-01 1.020370e-01 -7.635635e-03 -1.261705e-01 7.885545e-02 -5.704741e-01 2.145214e-01 -5.616099e-01
<VARIANCE> 39
 1.428682e+01 3.202073e+01 3.210178e+01 7.232990e+01 5.654828e+01 5.866747e+01 5.925124e+01 7.966403e+01 7.424552e+01 7.130946e+01 5.080823e+01 4.116293e+01 2.943861e+01 8.598731e-01 2.055552e+00 1.734063e+00 4.634078e+00 3.145959e+00 4.164188e+00 3.343446e+00 3.233701e+00 3.764496e+00 3.598212e+00 2.932479e+00 2.539608e+00 2.444065e+00 2.944834e-01 3.171137e-01 3.784851e-01 5.785256e-01 7.865955e-01 6.435578e-01 5.808724e-01 6.840700e-01 7.041264e-01 7.278108e-01 5.518688e-01 5.353906e-01 3.436222e-01
<GCONST> 1.263868e+02
<STATE> 4
<MEAN> 39
 2.447719e+00 -4.225219e+00 -8.150491e+00 -1.822719e+01 -1.266972e+01 8.544503e+00 -1.166284e+01 -5.196111e+00 -4.048479e+00 -2.353979e+00 3.456044e+00 -7.729136e+00 6.665247e+01 -1.034621e-01 2.187225e-01 3.227886e-01 9.564796e-01 3.845645e-01 -7.765105e-01 8.605687e-02 -1.329617e-01 -2.803848e-02 1.885974e-01 -6.144208e-01 7.825476e-02 -9.007695e-01 -6.367947e-02 6.822789e-02 1.445217e-01 2.846446e-01 7.398490e-02 -2.436533e-01 1.888491e-02 -4.987292e-02 -1.169721e-02 1.478844e-02 -1.459196e-01 5.508709e-02 -1.618571e-01
<VARIANCE> 39
 1.664797e+01 4.390096e+01 3.468828e+01 7.290058e+01 6.355979e+01 6.252939e+01 5.979534e+01 6.638654e+01 6.127264e+01 6.932334e+01 4.794737e+01 4.377077e+01 9.395617e+01 6.794561e-01 1.491776e+00 1.504034e+00 3.274141e+00 2.406417e+00 3.042052e+00 2.492514e+00 2.472047e+00 2.604059e+00 2.654306e+00 2.520518e+00 2.033344e+00 2.203638e+00 1.255770e-01 2.462993e-01 2.389268e-01 3.914350e-01 3.977411e-01 4.509451e-01 4.448428e-01 4.275209e-01 4.502086e-01 4.808873e-01 4.193837e-01 3.841288e-01 2.713571e-01
<GCONST> 1.191173e+02
<TRANSP> 5
 0.000000e+00 1.000000e+00 0.000000e+00 0.000000e+00 0.000000e+00
 0.000000e+00 6.009368e-01 3.990632e-01 0.000000e+00 0.000000e+00
 0.000000e+00 0.000000e+00 5.780466e-01 4.219534e-01 0.000000e+00
 0.000000e+00 0.000000e+00 0.000000e+00 8.566285e-01 1.433716e-01
 0.000000e+00 0.000000e+00 0.000000e+00 0.000000e+00 0.000000e+00
<ENDHMM>
~h "p"
<BEGINHMM>
<NUMSTATES> 5
<STATE> 2
<MEAN> 39
 -5.174677e+00 1.575428e+00 -2.055323e+00 -3.457196e+00 -5.840370e+00 -2.589621e+00 -6.354368e+00 -5.128255e+00 -4.657025e+00 -1.857458e+00 -2.301491e+00 -4.557522e+00 4.107163e+01 -8.684058e-01 2.853873e-01 -9.913805e-02 2.298106e-01 3.249338e-01 -3.890148e-01 2.743316e-01 1.301626e-01 3.238016e-01 5.560475e-02 -1.184000e-01 3.594303e-01 -1.309218e+00 -5.179986e-02 -3.474960e-01 -1.100817e-01 -1.595998e-01 -1.138094e-01 4.871434e-02 -7.512461e-02 5.851649e-02 4.831833e-02 8.128074e-03 1.062033e-01 -3.690470e-02 8.053018e-01
<VARIANCE> 39
 5.016658e+01 3.247570e+01 3.570631e+01 3.662882e+01 3.093007e+01 3.879777e+01 3.284119e+01 3.485992e+01 3.988461e+01 2.870169e+01 3.059798e+01 3.316180e+01 7.650908e+01 1.964806e+00 2.500659e+00 2.025515e+00 2.290335e+00 2.393260e+00 2.486536e+00 2.283976e+00 2.663263e+00 3.022069e+00 2.390990e+00 2.682708e+00 2.086947e+00 6.598202e+00 4.159424e-01 4.920840e-01 4.262471e-01 5.096902e-01 4.791136e-01 5.193937e-01 4.734048e-01 5.381038e-01 5.708848e-01 4.904529e-01 5.538191e-01 4.238188e-01 1.139386e+00
<GCONST> 1.225242e+02
<STATE> 3
<MEAN> 39
 -7.488277e+00 3.904620e-01 -2.537596e+00 -3.438982e+00 -5.502496e+00 -3.765245e+00 -6.254560e+00 -4.770036e+00 -3.459980e+00 -1.859061e+00 -1.993641e+00 -3.501086e+00 4.560000e+01 2.449820e-01 -2.052030e+00 -1.057892e+00 -1.379906e+00 -2.821497e-01 5.973873e-01 -2.629181e-01 1.971706e-01 4.157896e-01 5.839524e-02 8.775917e-01 -3.659514e-01 5.435169e+00 8.232206e-01 -5.927915e-01 -1.956242e-01 -5.474029e-01 -5.075990e-01 5.415052e-01 -3.813883e-01 1.540040e-02 -1.444281e-01 -3.475950e-02 2.718463e-01 -5.814465e-01 1.507096e+00
<VARIANCE> 39
 3.310318e+01 3.124132e+01 3.406672e+01 4.022562e+01 2.983710e+01 3.798587e+01 3.142037e+01 3.118473e+01 3.264709e+01 2.689672e+01 2.822252e+01 2.610028e+01 1.380266e+02 5.683565e+00 4.886199e+00 4.566922e+00 6.460616e+00 4.074277e+00 7.168469e+00 3.967734e+00 4.854760e+00 4.901767e+00 3.749393e+00 4.077411e+00 4.528492e+00 1.598155e+01 6.850191e-01 7.350892e-01 7.651327e-01 1.007722e+00 8.845167e-01 1.074682e+00 7.193987e-01 9.162406e-01 8.813274e-01 7.131134e-01 7.658581e-01 6.864403e-01 2.343150e+00
<GCONST> 1.380390e+02
<STATE> 4
<MEAN> 39
 -4.370687e+00 -5.965035e+00 -6.352852e+00 -7.972511e+00 -6.312920e+00 -2.674250e-01 -7.214645e+00 -4.552306e+00 -2.713378e+00 -1.464050e+00 5.268819e-01 -6.719411e+00 6.034069e+01 1.753470e+00 -1.864357e+00 -7.097950e-01 -1.453723e+00 -1.229849e+00 1.267846e+00 -9.932372e-01 1.579630e-01 -2.987502e-02 -6.396578e-02 8.170473e-01 -1.356805e+00 4.914476e+00 1.327571e-01 2.785110e-01 3.248610e-01 2.364170e-01 -2.486229e-01 1.421685e-02 -1.523672e-01 1.044312e-01 -6.716223e-02 -6.585027e-02 -1.768085e-01 -9.264232e-02 -8.259987e-01
<VARIANCE> 39
 4.817184e+01 3.955071e+01 3.762563e+01 6.377962e+01 3.584333e+01 7.229467e+01 3.522598e+01 3.885815e+01 3.861726e+01 2.877341e+01 3.521334e+01 5.042101e+01 1.616820e+02 5.073872e+00 5.774546e+00 5.206337e+00 6.640621e+00 5.539538e+00 8.238438e+00 4.323248e+00 5.632356e+00 5.284437e+00 4.088490e+00 4.440011e+00 5.201585e+00 1.698483e+01 1.046272e+00 7.134382e-01 6.483391e-01 1.301356e+00 1.000907e+00 1.211671e+00 6.901333e-01 7.327998e-01 7.747016e-01 6.137429e-01 8.759189e-01 7.673122e-01 2.573319e+00
<GCONST> 1.435069e+02
<TRANSP> 5
 0.000000e+00 1.000000e+00 0.000000e+00 0.000000e+00 0.000000e+00
 0.000000e+00 8.262554e-01 1.737445e-01 0.000000e+00 0.000000e+00
 0.000000e+00 0.000000e+00 5.499167e-01 4.500833e-01 0.000000e+00
 0.000000e+00 0.000000e+00 0.000000e+00 5.228741e-01 4.771259e-01
 0.000000e+00 0.000000e+00 0.000000e+00 0.000000e+00 0.000000e+00
<ENDHMM>
~h "q"
<BEGINHMM>
<NUMSTATES> 5
<STATE> 2
<MEAN> 39
 -9.366962e+00 -4.645608e+00 -6.726286e+00 -5.719049e+00 -9.427044e+00 -4.881280e+00 -1.257872e+01 -1.373736e+00 -1.193341e+01 -1.357158e+00 -4.602128e-01 -1.680949e+00 5.984761e+01 -6.085145e-01 2.439274e-01 -1.648030e+00 -3.650298e-01 5.431904e-01 1.363851e+00 1.026661e+00 7.423009e-01 2.506302e-03 -6.560033e-01 -7.923636e-01 2.372003e-01 3.086692e+00 6.934696e-02 1.065396e+00 8.635164e-01 4.939145e-01 -5.736350e-01 -3.735044e-01 2.825552e-01 -2.232530e-01 2.638415e-01 -3.591524e-01 9.310643e-02 -4.897015e-01 -3.146284e-01
<VARIANCE> 39
 3.126202e+01 6.398198e+01 2.530062e+02 5.995835e+01 9.411095e+01 7.791502e+01 4.499438e+01 8.241119e+01 2.874912e+01 2.930545e+01 3.260962e+01 3.767210e+01 5.780525e+01 8.258555e+00 9.560607e+00 1.452271e+01 3.845417e+00 6.510494e+00 7.042245e+00 3.649970e+00 4.240838e+00 2.429157e+00 3.054542e+00 2.490412e+00 3.358811e+00 8.473248e+00 5.347095e-01 1.176938e+00 2.517344e+00 4.237787e-01 1.437222e+00 1.174438e+00 1.384472e+00 1.593557e+00 3.406658e-01 4.043342e-01 5.784415e-01 1.199339e+00 1.057919e+00
<GCONST> 1.437767e+02
<STATE> 3
<MEAN> 39
 -4.925357e+00 -5.115719e+00 3.088085e+00 -5.624849e+00 -1.592620e+01 -5.500200e+00 -1.168009e+01 5.360337e+00 -1.256814e+01 -3.102284e+00 -4.157183e+00 -6.692946e+00 6.535820e+01 -7.732476e-01 9.527471e-01 -2.271028e-01 1.983387e-01 6.769345e-01 -2.302658e-01 1.654160e+00 -2.713827e-01 7.264371e-01 -3.942429e-01 -4.872067e-02 3.185665e-01 6.922477e-01 -2.615035e-01 3.054853e-01 1.700085e-01 -4.777084e-02 1.628001e-01 2.170526e-02 9.668477e-02 -1.804359e-01 2.647495e-01 -2.147517e-01 -2.848263e-02 -1.535221e-02 -1.969408e-01
<VARIANCE> 39
 3.942153e+01 1.309311e+02 7.540902e+01 3.631179e+01 7.570504e+01 4.718907e+01 7.450912e+01 7.216010e+01 2.155521e+01 4.927116e+01 5.548576e+01 2.421906e+01 6.152528e+01 5.522607e+00 1.919014e+01 5.391560e+00 1.749879e+00 7.059641e+00 4.591723e+00 4.323053e+00 6.526956e+00 2.951986e+00 5.838232e+00 4.668652e+00 2.288970e+00 4.824963e+00 5.808778e-01 2.993627e+00 8.483533e-01 2.217906e-01 1.207102e+00 6.531821e-01 8.003861e-01 6.920865e-01 5.649669e-01 1.078043e+00 8.472972e-01 2.708821e-01 9.480301e-01
<GCONST> 1.397520e+02
<STATE> 4
<MEAN> 39
 -1.169945e+01 7.958977e-01 7.767685e+00 1.360097e-01 -9.719283e+00 -5.678258e+00 -5.281012e+00 -2.125312e+00 -4.073750e+00 -1.508497e+00 -1.527378e+00 -3.354880e+00 5.888543e+01 -1.253957e-01 7.334765e-02 -1.168575e-01 1.689824e-02 3.243942e-01 2.653202e-01 -1.438614e-02 -5.629858e-03 1.744018e-01 1.788792e-02 -1.021428e-02 2.009765e-02 -3.074857e-01 9.728155e-02 -9.082086e-02 -6.777996e-02 -4.316304e-02 -2.755250e-02 6.991683e-02 -4.516728e-02 5.838110e-02 -7.308930e-02 9.643117e-02 2.159407e-03 -9.926138e-03 -6.485784e-02
<VARIANCE> 39
 4.625692e+01 7.288117e+01 4.969666e+01 2.067725e+01 6.085545e+01 3.434990e+01 4.633456e+01 2.433296e+01 2.146398e+01 2.251414e+01 2.062683e+01 1.350598e+01 6.151402e+01 2.815831e+00 5.128945e+00 1.936426e+00 1.675248e+00 4.383779e+00 2.870268e+00 2.353585e+00 2.090494e+00 1.559711e+00 2.101239e+00 1.258074e+00 1.463453e+00 2.698309e+00 4.233216e-01 1.029486e+00 3.557813e-01 3.794068e-01 7.448334e-01 4.813409e-01 4.674472e-01 3.994661e-01 2.567460e-01 4.247202e-01 1.954006e-01 2.544669e-01 5.390814e-01
<GCONST> 1.167281e+02
<TRANSP> 5
 0.000000e+00 1.000000e+00 0.000000e+00 0.000000e+00 0.000000e+00
 0.000000e+00 3.942763e-01 6.057237e-01 0.000000e+00 0.000000e+00
 0.000000e+00 0.000000e+00 7.441179e-01 2.558821e-01 0.000000e+00
 0.000000e+00 0.000000e+00 0.000000e+00 9.421303e-01 5.786967e-02
 0.000000e+00 0.000000e+00 0.000000e+00 0.000000e+00 0.000000e+00
<ENDHMM>
~h "r"
<BEGINHMM>
<NUMSTATES> 5
<STATE> 2
<MEAN> 39
 -7.442588e-01 -8.870638e+00 -6.189345e+00 -2.759329e+00 -1.154764e+01 -5.341906e+00 -1.129543e+01 -3.084472e+00 1.580259e+00 -7.188897e-01 -1.412120e+00 -8.994701e+00 6.785202e+01 4.634096e-01 -6.809793e-02 2.333724e-02 1.117491e+00 -2.806391e-01 -3.713659e-01 -4.752680e-01 -2.897567e-01 3.361678e-01 1.736638e-01 -1.281687e-01 2.607640e-01 -5.032189e-01 -3.656163e-02 -4.412180e-03 1.268476e-01 -2.090025e-01 -4.721150e-02 2.474340e-01 -5.013520e-02 1.181805e-01 -3.434531e-01 -6.899928e-02 1.062341e-01 -2.748618e-02 9.582036e-04
<VARIANCE> 39
 2.714709e+01 3.277097e+01 5.606416e+01 4.451249e+01 6.257009e+01 6.174370e+01 5.350923e+01 8.194913e+01 5.703152e+01 4.337690e+01 4.352325e+01 4.465259e+01 8.068496e+01 2.381741e+00 2.467992e+00 3.111480e+00 3.975823e+00 4.957879e+00 4.552518e+00 3.541234e+00 5.353346e+00 4.562604e+00 3.713116e+00 3.565990e+00 3.486596e+00 4.319850e+00 5.022700e-01 4.342719e-01 5.170261e-01 7.041492e-01 8.725398e-01 7.539387e-01 6.718151e-01 9.913207e-01 8.368469e-01 6.761084e-01 6.271833e-01 6.341556e-01 6.816227e-01
<GCONST> 1.346374e+02
<STATE> 3
<MEAN> 39
 6.549139e-01 -9.008662e+00 -5.638094e+00 -6.021831e-01 -1.263787e+01 -5.552194e+00 -1.282728e+01 -3.449454e+00 1.361295e+00 -3.562894e-01 -1.223635e+00 -8.375609e+00 6.705804e+01 2.060250e-01 -4.950891e-02 3.966087e-01 2.432923e-01 -1.914522e-01 1.167683e-01 -3.655021e-01 2.515495e-01 -6.066250e-01 -8.269715e-02 1.099098e-01 1.744431e-01 -4.352787e-01 -1.648310e-01 2.502573e-02 1.515345e-01 -4.306238e-01 5.152979e-02 2.039979e-01 1.642988e-01 1.806396e-01 -3.744116e-01 -1.444770e-01 9.707171e-02 -8.781140e-02 1.421114e-01
<VARIANCE> 39
 2.329449e+01 3.240561e+01 6.451792e+01 3.893333e+01 6.480215e+01 6.193220e+01 5.654860e+01 7.809343e+01 5.881525e+01 4.400045e+01 4.419725e+01 4.225545e+01 6.013395e+01 2.106897e+00 2.777969e+00 3.388725e+00 3.149333e+00 5.026790e+00 4.457539e+00 3.721259e+00 5.645373e+00 4.645251e+00 3.810071e+00 3.581101e+00 3.404905e+00 3.837572e+00 4.250331e-01 4.786492e-01 5.113496e-01 6.204680e-01 1.046043e+00 8.007681e-01 7.287229e-01 9.623110e-01 9.087383e-01 7.310157e-01 7.432567e-01 6.079655e-01 6.303620e-01
<GCONST> 1.343813e+02
<STATE> 4
<MEAN> 39
 -2.965004e-01 -8.631415e+00 -4.660555e+00 -1.828799e+00 -1.207481e+01 -5.573197e+00 -1.269896e+01 -1.635902e+00 -1.129520e+00 -9.029821e-01 -1.598644e+00 -8.379877e+00 6.450405e+01 -1.900251e-01 2.328640e-01 5.541816e-01 -2.319236e-01 1.335821e-01 1.404227e-01 1.808341e-01 1.947818e-01 -7.600522e-01 -2.676369e-01 9.084319e-02 1.469389e-01 -4.361435e-01 -1.186942e-01 8.360059e-02 8.228286e-02 -1.405015e-01 4.700867e-02 7.381569e-02 1.244586e-01 -2.809592e-02 -8.770400e-02 -5.858116e-02 2.813550e-02 -2.868745e-02 4.708748e-02
<VARIANCE> 39
 2.992122e+01 4.547458e+01 7.164803e+01 3.966413e+01 6.828224e+01 6.387474e+01 5.871993e+01 8.485191e+01 5.409378e+01 4.603742e+01 5.143184e+01 4.526899e+01 1.278667e+02 1.641681e+00 2.623775e+00 2.626358e+00 2.292374e+00 4.013450e+00 3.399764e+00 3.051270e+00 4.139027e+00 3.668560e+00 2.938633e+00 3.137383e+00 2.589803e+00 3.084611e+00 2.889547e-01 3.723828e-01 3.507093e-01 4.245377e-01 7.177744e-01 5.893891e-01 5.911518e-01 6.788505e-01 6.181180e-01 5.675503e-01 5.719473e-01 4.829102e-01 4.456728e-01
<GCONST> 1.291180e+02
<TRANSP> 5
 0.000000e+00 1.000000e+00 0.000000e+00 0.000000e+00 0.000000e+00
 0.000000e+00 4.955779e-01 5.044221e-01 0.000000e+00 0.000000e+00
 0.000000e+00 0.000000e+00 4.413115e-01 5.586885e-01 0.000000e+00
 0.000000e+00 0.000000e+00 0.000000e+00 6.108962e-01 3.891038e-01
 0.000000e+00 0.000000e+00 0.000000e+00 0.000000e+00 0.000000e+00
<ENDHMM>
~h "s"
<BEGINHMM>
<NUMSTATES> 5
<STATE> 2
<MEAN> 39
 -1.225255e+01 3.751607e+00 -2.995538e-01 -1.787934e+00 -3.816633e+00 -7.567721e+00 -6.208549e+00 -2.388697e+00 -3.389007e+00 -2.796597e+00 -4.632516e+00 -3.081287e+00 6.413180e+01 -4.073082e+00 1.853712e+00 -4.855513e-01 6.532457e-01 1.703475e+00 -2.530836e-01 1.402714e+00 3.964797e-01 4.906954e-01 -5.158925e-01 4.893938e-01 1.115555e+00 -6.075035e-01 -2.410451e-01 -5.999147e-01 -2.981531e-01 -2.682403e-01 -4.177498e-01 2.890824e-01 -2.629990e-01 2.772115e-02 -1.066950e-01 5.408468e-02 3.272518e-01 -1.577989e-01 4.507609e-02
<VARIANCE> 39
 7.428114e+01 4.528583e+01 5.083499e+01 3.171064e+01 4.818834e+01 4.430131e+01 5.766772e+01 5.104483e+01 4.110392e+01 3.539942e+01 4.143087e+01 3.118295e+01 7.187851e+01 4.026384e+00 5.808388e+00 3.756062e+00 3.236889e+00 4.501930e+00 4.503439e+00 4.095485e+00 5.310405e+00 3.612306e+00 3.249487e+00 3.430222e+00 2.893913e+00 2.452052e+00 1.014879e+00 8.275471e-01 4.399064e-01 4.901641e-01 6.855320e-01 6.186246e-01 7.065927e-01 6.804845e-01 6.195309e-01 5.754412e-01 5.708368e-01 4.888932e-01 2.641355e-01
<GCONST> 1.320148e+02
<STATE> 3
<MEAN> 39
 -2.658524e+01 4.111549e+00 -5.172402e+00 -1.904022e+00 -2.324525e+00 -6.939175e+00 -3.527957e+00 -1.055126e+00 -2.605544e+00 -2.858912e+00 -1.060234e+00 -2.555335e-01 6.274056e+01 -7.137504e-01 -5.515882e-01 -5.719801e-01 -2.711840e-01 -2.910265e-01 3.409651e-02 9.859383e-03 5.134307e-02 1.336470e-01 1.229211e-01 1.718181e-01 1.249343e-01 -1.750835e-01 1.023476e+00 -2.008668e-01 2.527536e-01 -7.483374e-02 -2.494875e-01 -4.314566e-02 -2.709516e-01 -1.168812e-01 -1.648210e-02 5.504410e-02 -1.985283e-01 -2.458681e-01 1.396609e-01
<VARIANCE> 39
 3.463859e+01 2.313776e+01 4.027659e+01 2.574377e+01 3.084218e+01 3.020128e+01 4.256824e+01 3.056993e+01 2.864499e+01 2.311652e+01 2.561746e+01 2.059774e+01 2.826048e+01 5.857009e+00 2.035086e+00 2.386261e+00 1.820485e+00 2.054051e+00 2.301617e+00 2.344480e+00 2.343469e+00 2.278183e+00 1.975056e+00 2.207244e+00 1.851259e+00 1.527823e+00 5.663024e-01 4.477053e-01 4.229890e-01 3.877257e-01 4.626732e-01 5.020496e-01 5.341270e-01 5.364305e-01 4.762135e-01 4.238368e-01 4.232059e-01 4.118331e-01 2.326464e-01
<GCONST> 1.152651e+02
<STATE> 4
<MEAN> 39
 -1.904440e+01 4.512469e-01 -4.555335e+00 -2.652278e+00 -4.017282e+00 -6.029166e+00 -4.833644e+00 -1.243432e+00 -1.659636e+00 -2.020156e+00 -1.775604e+00 -1.210527e+00 5.449809e+01 1.935608e+00 -3.698239e-01 4.190669e-01 -1.771408e-01 -5.578160e-01 4.980244e-02 -7.225564e-01 -3.648272e-01 -4.758755e-02 7.415938e-02 -2.359335e-01 -6.373001e-01 3.139556e-01 2.897075e-01 -5.670515e-02 9.045596e-02 -1.466501e-02 -8.669981e-02 9.892865e-02 -1.471106e-01 -5.621691e-02 -7.798202e-02 -2.032452e-02 7.722592e-02 -1.187896e-01 1.461953e-01
<VARIANCE> 39
 9.214725e+01 3.238232e+01 3.811402e+01 2.757736e+01 3.008904e+01 3.339024e+01 4.038622e+01 3.102446e+01 2.704298e+01 2.285622e+01 2.594522e+01 2.357541e+01 1.478364e+02 9.250362e+00 2.689974e+00 2.850129e+00 2.276005e+00 2.702562e+00 3.086679e+00 3.743515e+00 3.371114e+00 2.711025e+00 2.301733e+00 2.377173e+00 2.827124e+00 3.829809e+00 8.970878e-01 3.988732e-01 3.661413e-01 3.532873e-01 4.200630e-01 5.298078e-01 5.761867e-01 5.430278e-01 4.668690e-01 4.137027e-01 4.574874e-01 4.217654e-01 3.694853e-01
<GCONST> 1.233172e+02
<TRANSP> 5
 0.000000e+00 1.000000e+00 0.000000e+00 0.000000e+00 0.000000e+00
 0.000000e+00 7.055459e-01 2.944541e-01 0.000000e+00 0.000000e+00
 0.000000e+00 0.000000e+00 8.112025e-01 1.887975e-01 0.000000e+00
 0.000000e+00 0.000000e+00 0.000000e+00 8.515904e-01 1.484096e-01
 0.000000e+00 0.000000e+00 0.000000e+00 0.000000e+00 0.000000e+00
<ENDHMM>
~h "t"
<BEGINHMM>
<NUMSTATES> 5
<STATE> 2
<MEAN> 39
 -5.501115e+00 1.785951e+00 -1.452943e+00 -2.255335e+00 -6.795546e+00 -6.260572e+00 -8.709764e+00 -5.120287e+00 -2.827078e+00 -1.225969e+00 -3.605086e+00 -5.193446e+00 4.480665e+01 -8.773500e-01 1.811166e-01 -1.616469e-01 7.561735e-03 3.916663e-01 -1.180660e-01 4.776229e-01 8.416053e-02 5.348371e-02 -1.538132e-01 3.600752e-02 5.270957e-01 -1.720815e+00 -1.934794e-01 -4.833910e-01 -1.524715e-01 -2.704283e-01 -1.061721e-01 9.454612e-02 -1.008790e-02 1.098886e-01 3.588148e-02 -1.694573e-02 1.073238e-01 5.726338e-03 9.410775e-01
<VARIANCE> 39
 3.868608e+01 3.348185e+01 4.556566e+01 3.851815e+01 3.813008e+01 4.111038e+01 4.346712e+01 4.651738e+01 4.066977e+01 3.167392e+01 3.416216e+01 3.630286e+01 1.100467e+02 2.662929e+00 3.470329e+00 2.374444e+00 2.871223e+00 3.245876e+00 2.799295e+00 2.933041e+00 3.241288e+00 2.914133e+00 2.648332e+00 2.786113e+00 2.240661e+00 9.455104e+00 4.886208e-01 5.879914e-01 4.639735e-01 5.856174e-01 6.294572e-01 5.741076e-01 5.792730e-01 6.383415e-01 5.977979e-01 5.337783e-01 5.523250e-01 4.474589e-01 1.617380e+00
<GCONST> 1.283692e+02
<STATE> 3
<MEAN> 39
 -1.038210e+01 -6.672622e-01 -2.616795e+00 -3.375042e+00 -5.630607e+00 -6.213682e+00 -6.936724e+00 -4.206328e+00 -2.632147e+00 -2.022703e+00 -2.943261e+00 -2.965453e+00 4.673755e+01 -1.129948e+00 -1.900218e+00 -8.363502e-01 -1.196653e+00 9.891222e-02 -4.843561e-02 4.058973e-02 4.739015e-01 4.273120e-01 -1.867525e-01 1.865876e-01 1.611615e-01 4.553726e+00 7.811847e-01 -1.858864e-01 5.663689e-02 -1.990884e-01 -4.701782e-01 1.193675e-01 -4.991993e-01 -3.062883e-02 1.464945e-02 4.442369e-02 1.013776e-02 -5.589033e-01 1.399923e+00
<VARIANCE> 39
 4.004984e+01 4.054013e+01 3.896280e+01 3.490049e+01 3.252584e+01 3.725218e+01 3.604318e+01 3.426241e+01 3.459887e+01 2.834665e+01 2.769345e+01 2.675444e+01 1.437142e+02 5.054139e+00 4.507082e+00 4.644054e+00 4.073493e+00 4.202936e+00 4.461316e+00 4.346465e+00 4.384171e+00 4.828147e+00 3.579963e+00 3.718517e+00 3.887505e+00 1.771138e+01 9.315841e-01 8.058729e-01 8.035071e-01 7.248694e-01 8.448719e-01 9.580961e-01 8.145828e-01 9.376253e-01 8.498649e-01 7.230477e-01 7.073537e-01 7.225370e-01 2.296602e+00
<GCONST> 1.376722e+02
<STATE> 4
<MEAN> 39
 -9.440725e+00 -5.535373e+00 -4.889782e+00 -7.092517e+00 -7.147060e+00 -6.443749e+00 -8.894830e+00 -2.924106e+00 -1.148729e+00 -2.187599e+00 -3.244011e+00 -5.115312e+00 6.296931e+01 1.741180e+00 -1.071657e+00 -8.126414e-04 -8.773121e-01 -1.234048e+00 5.052915e-01 -1.455764e+00 8.652837e-02 1.474617e-01 2.015476e-02 3.311667e-01 -1.576830e+00 4.844194e+00 7.016657e-01 3.954828e-01 3.915347e-01 2.933401e-01 -3.325388e-01 4.122265e-01 -2.665697e-01 -1.527464e-01 -2.841447e-01 1.996218e-02 2.246790e-01 -2.635409e-01 -1.009217e+00
<VARIANCE> 39
 4.348215e+01 3.310934e+01 4.201738e+01 3.169391e+01 3.612641e+01 4.812899e+01 4.684804e+01 3.837698e+01 4.436387e+01 3.180426e+01 3.201303e+01 4.314443e+01 1.292061e+02 5.425999e+00 4.777136e+00 6.174505e+00 4.454239e+00 5.399478e+00 6.899346e+00 5.385382e+00 6.918606e+00 6.550103e+00 4.330756e+00 4.768651e+00 5.032655e+00 1.483383e+01 1.041791e+00 6.984868e-01 8.467267e-01 6.313003e-01 9.299213e-01 9.984533e-01 1.031312e+00 9.911511e-01 8.529083e-01 6.943269e-01 7.153053e-01 8.424186e-01 2.077786e+00
<GCONST> 1.421725e+02
<TRANSP> 5
 0.000000e+00 1.000000e+00 0.000000e+00 0.000000e+00 0.000000e+00
 0.000000e+00 7.906520e-01 2.093480e-01 0.000000e+00 0.000000e+00
 0.000000e+00 0.000000e+00 5.464941e-01 4.535059e-01 0.000000e+00
 0.000000e+00 0.000000e+00 0.000000e+00 5.321848e-01 4.678152e-01
 0.000000e+00 0.000000e+00 0.000000e+00 0.000000e+00 0.000000e+00
<ENDHMM>
~h "u"
<BEGINHMM>
<NUMSTATES> 5
<STATE> 2
<MEAN> 39
 -3.700851e-01 3.630533e-01 -2.958660e+00 -7.285041e+00 -1.122346e+01 -1.140930e+00 -1.426747e+01 -8.510178e+00 -6.949025e+00 -2.699579e+00 1.451984e+00 -5.809405e+00 6.221524e+01 1.765712e+00 5.476131e-01 -4.528782e-01 -1.632822e+00 -1.719455e+00 1.907094e+00 -1.239917e+00 -1.031424e+00 -8.974068e-01 -2.182286e-01 1.672186e+00 -4.933447e-01 1.290043e+00 -2.345960e-01 5.075193e-02 1.551142e-01 -4.641837e-02 -2.231915e-02 2.359411e-01 2.667331e-01 1.807045e-01 -4.306961e-03 -6.057168e-02 -6.016330e-02 5.116324e-02 -3.901621e-01
<VARIANCE> 39
 3.756186e+01 3.702761e+01 5.822426e+01 8.487108e+01 6.271197e+01 7.221870e+01 8.110049e+01 7.794318e+01 5.624089e+01 5.150065e+01 5.083025e+01 4.057706e+01 1.153799e+02 5.066336e+00 3.267447e+00 4.761791e+00 6.038907e+00 6.670691e+00 6.121032e+00 6.124594e+00 7.077232e+00 5.362339e+00 4.915021e+00 4.940166e+00 4.336670e+00 5.845459e+00 8.456844e-01 5.815405e-01 6.666725e-01 1.066174e+00 1.048568e+00 1.029110e+00 1.218481e+00 1.104225e+00 9.166813e-01 8.349026e-01 8.557296e-01 7.765980e-01 1.148898e+00
<GCONST> 1.454719e+02
<STATE> 3
<MEAN> 39
 3.143026e+00 9.803062e-01 -4.385453e+00 -1.161795e+01 -1.590891e+01 5.063817e+00 -1.619012e+01 -1.175451e+01 -8.833430e+00 -4.505663e+00 6.038308e+00 -6.283012e+00 6.640971e+01 3.100139e-01 1.602395e-01 7.027443e-02 -4.701532e-01 -3.548045e-01 8.398962e-01 -2.271794e-01 -1.455267e-01 -3.043143e-01 -8.124071e-02 4.735542e-01 -1.017502e-01 -1.165996e-02 -4.144975e-01 -8.296826e-02 2.363381e-01 5.958298e-01 5.815447e-01 -7.251031e-01 3.797036e-01 3.817290e-01 3.188472e-01 1.332256e-01 -7.111577e-01 4.464307e-02 -4.601991e-01
<VARIANCE> 39
 1.496494e+01 3.506364e+01 4.088371e+01 8.539482e+01 5.634149e+01 7.246871e+01 7.311071e+01 1.017355e+02 7.252770e+01 6.522395e+01 5.084476e+01 4.389426e+01 3.073314e+01 1.300284e+00 3.124970e+00 2.434897e+00 6.353771e+00 5.122394e+00 5.823910e+00 5.183881e+00 5.992458e+00 4.966521e+00 4.831226e+00 4.733305e+00 3.431519e+00 3.046246e+00 3.802702e-01 4.670377e-01 4.932421e-01 8.706626e-01 9.345146e-01 9.337007e-01 1.006885e+00 1.196813e+00 9.469950e-01 9.518257e-01 8.999785e-01 7.689286e-01 4.056341e-01
<GCONST> 1.370791e+02
<STATE> 4
<MEAN> 39
 2.854969e+00 2.592410e+00 -3.238215e+00 -1.251010e+01 -1.471871e+01 4.569755e+00 -1.600327e+01 -8.962877e+00 -9.265685e+00 -3.931758e+00 3.299787e+00 -6.694689e+00 6.302610e+01 -2.739964e-01 -9.228592e-02 3.658347e-01 8.472995e-01 6.559625e-01 -8.280354e-01 4.907806e-01 1.610267e-01 4.484957e-01 3.409770e-01 -8.043761e-01 2.442480e-03 -7.992949e-01 -1.653189e-01 -5.885137e-02 8.835731e-02 2.310483e-01 1.564025e-01 -2.146889e-01 1.568248e-01 4.380058e-02 1.101172e-01 2.284979e-02 -1.908274e-01 4.630590e-02 -1.137031e-01
<VARIANCE> 39
 1.777336e+01 4.441285e+01 4.851847e+01 8.407237e+01 5.663746e+01 7.704024e+01 6.406503e+01 7.527150e+01 5.996899e+01 6.191749e+01 5.282648e+01 4.197234e+01 7.150999e+01 1.140624e+00 2.510360e+00 2.219486e+00 3.740316e+00 3.541422e+00 3.721293e+00 3.614110e+00 4.030971e+00 3.421213e+00 3.583015e+00 3.911394e+00 3.025469e+00 3.143273e+00 1.999837e-01 3.814915e-01 3.366700e-01 5.602234e-01 5.876698e-01 6.182602e-01 6.687095e-01 7.030826e-01 5.850555e-01 6.676968e-01 6.874055e-01 5.378347e-01 3.675816e-01
<GCONST> 1.293217e+02
<TRANSP> 5
 0.000000e+00 1.000000e+00 0.000000e+00 0.000000e+00 0.000000e+00
 0.000000e+00 5.611817e-01 4.388184e-01 0.000000e+00 0.000000e+00
 0.000000e+00 0.000000e+00 5.774554e-01 4.225446e-01 0.000000e+00
 0.000000e+00 0.000000e+00 0.000000e+00 8.040823e-01 1.959177e-01
 0.000000e+00 0.000000e+00 0.000000e+00 0.000000e+00 0.000000e+00
<ENDHMM>
~h "w"
<BEGINHMM>
<NUMSTATES> 5
<STATE> 2
<MEAN> 39
 1.975199e+00 -2.827794e+00 -5.478138e+00 -1.247142e+01 -1.202721e+01 4.467272e+00 -1.206595e+01 -4.235636e+00 -6.584332e+00 -1.737835e+00 2.798231e+00 -7.997569e+00 6.214017e+01 1.086300e+00 5.920267e-01 -2.824656e-01 -1.751508e+00 -9.369421e-01 1.422443e+00 -4.485158e-02 -2.691891e-01 -6.817954e-01 -2.568201e-01 9.435924e-01 2.549872e-01 4.452980e-01 -2.122364e-01 -1.181543e-01 1.563241e-01 3.634951e-02 -1.008237e-01 -1.831752e-01 1.410551e-01 2.449907e-01 1.277826e-01 -1.375744e-01 -1.291054e-01 9.822603e-02 5.429403e-02
<VARIANCE> 39
 3.696452e+01 6.881558e+01 4.766077e+01 6.844227e+01 6.754831e+01 6.748436e+01 7.358102e+01 6.346565e+01 6.833938e+01 5.733249e+01 5.334591e+01 4.463993e+01 1.525113e+02 2.136717e+00 2.788599e+00 2.830418e+00 3.368109e+00 4.281415e+00 3.963444e+00 3.842615e+00 4.017325e+00 3.807601e+00 3.630266e+00 3.403192e+00 3.061507e+00 4.629467e+00 4.606750e-01 4.368193e-01 4.654623e-01 6.330889e-01 8.005331e-01 6.731916e-01 7.093846e-01 6.620662e-01 7.441444e-01 7.004932e-01 6.533156e-01 5.423033e-01 3.526365e-01
<GCONST> 1.347380e+02
<STATE> 3
<MEAN> 39
 5.415717e+00 -2.325056e+00 -6.037453e+00 -1.984762e+01 -1.625731e+01 9.579680e+00 -1.176505e+01 -3.909335e+00 -6.194012e+00 -3.599206e+00 5.119737e+00 -6.435001e+00 6.698109e+01 -1.075785e-01 -5.768269e-01 -2.346079e-01 -4.860496e-01 1.595405e-01 4.755787e-01 6.352539e-02 4.206183e-02 2.763095e-01 1.810260e-01 1.449759e-01 -1.480082e-01 5.294846e-01 -2.412618e-01 -3.713355e-01 -3.492311e-02 4.591222e-01 3.958683e-01 -2.484603e-01 -8.701412e-02 3.013046e-02 2.435964e-01 2.087631e-01 -2.443291e-01 -3.380011e-01 1.657519e-01
<VARIANCE> 39
 1.386507e+01 4.283179e+01 3.496258e+01 5.621847e+01 5.129370e+01 5.201455e+01 4.547096e+01 6.034391e+01 6.794978e+01 5.604435e+01 4.219564e+01 3.642304e+01 3.166900e+01 6.976643e-01 3.788194e+00 1.498227e+00 2.245232e+00 3.473499e+00 2.499742e+00 2.150983e+00 2.060457e+00 2.629880e+00 3.148525e+00 2.595607e+00 3.127799e+00 2.040796e+00 8.406089e-02 2.511918e-01 2.538138e-01 3.147141e-01 4.281959e-01 5.334527e-01 3.746514e-01 4.374427e-01 4.298885e-01 5.170041e-01 5.449920e-01 4.544427e-01 1.869125e-01
<GCONST> 1.170011e+02
<STATE> 4
<MEAN> 39
 2.221242e+00 -7.344328e+00 -7.569081e+00 -1.909583e+01 -1.144731e+01 1.072785e+01 -1.207893e+01 -3.202012e+00 -3.470633e+00 -2.571904e+00 2.125157e+00 -1.085025e+01 7.025492e+01 -3.584967e-01 -5.717650e-01 -5.320723e-02 7.322670e-01 6.582434e-01 -4.893532e-01 -8.983328e-02 2.256010e-01 3.217023e-01 1.175402e-01 -5.885285e-01 -5.200657e-01 1.971921e-01 3.275671e-03 1.066831e-01 1.052155e-01 1.351317e-01 -1.022723e-01 -2.236435e-01 1.641963e-03 9.402470e-02 -2.209385e-02 -7.393239e-02 -8.246042e-02 1.198986e-01 -1.061125e-01
<VARIANCE> 39
 1.943536e+01 8.146056e+01 3.648041e+01 6.100845e+01 7.520539e+01 5.526214e+01 4.142548e+01 5.496658e+01 6.936860e+01 6.262600e+01 5.571211e+01 5.396541e+01 5.327156e+01 4.618672e-01 1.944995e+00 8.984594e-01 1.943392e+00 2.350235e+00 2.144843e+00 1.467897e+00 1.885987e+00 1.818320e+00 1.813684e+00 2.433807e+00 2.288508e+00 1.029363e+00 5.893383e-02 2.095922e-01 1.560854e-01 2.248899e-01 3.476189e-01 3.240042e-01 2.657934e-01 3.070283e-01 2.571444e-01 3.488673e-01 3.619162e-01 3.678893e-01 1.061196e-01
<GCONST> 1.100977e+02
<TRANSP> 5
 0.000000e+00 1.000000e+00 0.000000e+00 0.000000e+00 0.000000e+00
 0.000000e+00 6.810612e-01 3.189388e-01 0.000000e+00 0.000000e+00
 0.000000e+00 0.000000e+00 7.463692e-01 2.536308e-01 0.000000e+00
 0.000000e+00 0.000000e+00 0.000000e+00 8.582033e-01 1.417967e-01
 0.000000e+00 0.000000e+00 0.000000e+00 0.000000e+00 0.000000e+00
<ENDHMM>
~h "y"
<BEGINHMM>
<NUMSTATES> 5
<STATE> 2
<MEAN> 39
 -5.178957e+00 -6.054271e+00 5.357846e+00 -6.411414e+00 -1.574121e+01 -6.134515e+00 -1.024160e+01 3.083902e+00 -6.391826e+00 -5.109419e+00 3.742059e-01 -6.016802e+00 6.403154e+01 -1.728118e-01 6.790261e-01 1.975969e+00 -2.416820e-01 -1.492542e+00 -7.501601e-01 -6.249354e-01 4.984072e-02 -7.515438e-01 -1.030785e-01 1.465729e+00 5.354252e-01 3.594361e-01 2.020424e-02 3.115007e-02 -1.051965e-01 -3.388780e-02 2.108478e-01 2.446185e-01 -1.914666e-01 -2.993801e-01 2.606854e-02 6.866694e-02 -1.117057e-02 -3.086887e-02 1.883528e-02
<VARIANCE> 39
 2.457715e+01 8.558772e+01 8.678649e+01 4.355318e+01 6.585196e+01 5.956517e+01 6.361223e+01 8.466958e+01 6.055999e+01 4.941975e+01 5.710398e+01 3.426360e+01 2.045047e+02 1.251443e+00 2.909296e+00 4.225946e+00 1.775336e+00 3.619144e+00 3.712394e+00 4.465128e+00 4.182165e+00 3.327961e+00 3.452089e+00 3.261019e+00 2.822843e+00 3.371121e+00 2.031212e-01 3.675095e-01 5.660868e-01 3.185168e-01 6.339691e-01 5.841090e-01 7.131205e-01 7.082481e-01 5.089832e-01 5.164512e-01 6.210172e-01 4.224752e-01 3.002007e-01
<GCONST> 1.301825e+02
<STATE> 3
<MEAN> 39
 -5.192204e+00 -3.977095e+00 1.331784e+01 -7.297265e+00 -2.090808e+01 -8.058173e+00 -1.546716e+01 8.811255e-01 -8.938676e+00 -6.758182e+00 6.343386e+00 -4.617211e+00 6.934602e+01 4.690937e-02 -4.858897e-01 -1.677713e-01 -2.150989e-01 -4.098364e-01 -2.187375e-01 2.031634e-02 3.375356e-01 2.725008e-01 1.470262e-01 2.065673e-01 6.333406e-02 6.493281e-01 8.846317e-02 -3.033460e-01 -6.498528e-01 2.934414e-02 3.467367e-01 1.414606e-01 3.236307e-01 2.676063e-01 2.851537e-01 5.057378e-02 -4.895522e-01 -2.264236e-01 -6.473192e-03
<VARIANCE> 39
 1.437616e+01 4.843231e+01 6.630090e+01 3.903190e+01 4.196810e+01 5.630439e+01 6.161654e+01 6.354709e+01 5.489019e+01 6.145650e+01 3.818090e+01 3.257250e+01 5.570998e+01 5.681638e-01 3.171647e+00 4.700945e+00 1.210709e+00 2.243963e+00 2.008689e+00 3.811143e+00 4.163471e+00 3.310183e+00 2.342260e+00 2.812619e+00 1.743669e+00 2.096664e+00 9.209701e-02 2.430306e-01 3.109639e-01 2.174042e-01 5.004280e-01 4.428293e-01 5.824394e-01 5.332410e-01 4.434678e-01 4.853115e-01 4.477393e-01 3.160764e-01 1.709106e-01
<GCONST> 1.179402e+02
<STATE> 4
<MEAN> 39
 -6.181756e+00 -6.177238e+00 4.612751e+00 -5.565392e+00 -1.462825e+01 -5.521012e+00 -9.655048e+00 3.046445e+00 -5.405123e+00 -3.824787e+00 4.237745e-01 -4.244770e+00 6.057900e+01 1.104286e-01 -4.867572e-01 -9.142239e-01 5.781226e-03 5.756299e-01 2.409441e-01 3.946608e-01 4.632905e-01 4.057703e-01 -5.529087e-02 -7.259094e-01 -2.995291e-01 6.968905e-02 2.457206e-02 2.138647e-02 -7.676537e-02 3.648760e-02 1.794045e-01 9.295479e-02 -5.580230e-02 -1.048852e-01 -1.886833e-02 -2.042120e-02 -9.331128e-02 -5.485653e-02 -4.827638e-02
<VARIANCE> 39
 2.379574e+01 6.125030e+01 8.084650e+01 3.938662e+01 1.006485e+02 4.231902e+01 6.202118e+01 7.346804e+01 4.237588e+01 4.233304e+01 5.087716e+01 3.221531e+01 2.734572e+02 3.912118e-01 1.522056e+00 2.477881e+00 8.880782e-01 2.165979e+00 1.536764e+00 2.119714e+00 2.630616e+00 1.891749e+00 1.826082e+00 2.763469e+00 1.366717e+00 8.487579e-01 5.990478e-02 1.707100e-01 2.253224e-01 1.647301e-01 3.413998e-01 2.860229e-01 3.583289e-01 4.785032e-01 3.244180e-01 3.354071e-01 3.514840e-01 2.319946e-01 9.063844e-02
<GCONST> 1.108180e+02
<TRANSP> 5
 0.000000e+00 1.000000e+00 0.000000e+00 0.000000e+00 0.000000e+00
 0.000000e+00 6.570960e-01 3.429039e-01 0.000000e+00 0.000000e+00
 0.000000e+00 0.000000e+00 7.213201e-01 2.786799e-01 0.000000e+00
 0.000000e+00 0.000000e+00 0.000000e+00 8.639866e-01 1.360134e-01
 0.000000e+00 0.000000e+00 0.000000e+00 0.000000e+00 0.000000e+00
<ENDHMM>
~h "z"
<BEGINHMM>
<NUMSTATES> 5
<STATE> 2
<MEAN> 39
 -1.067868e+01 7.005532e+00 2.186360e+00 1.430285e+00 -5.449230e+00 -1.048198e+01 -9.674167e+00 -4.963878e+00 -3.450627e+00 -2.472764e+00 -3.375220e+00 -1.981160e+00 6.433871e+01 -2.141289e+00 1.915918e+00 -2.856747e-01 7.740414e-01 1.259698e+00 -2.330860e-01 9.502698e-01 6.906128e-03 1.919432e-02 -1.788969e-01 -3.673059e-02 7.468334e-01 -5.575082e-01 6.034239e-02 -3.805453e-01 -3.812315e-02 -1.792198e-01 -2.470674e-01 3.175476e-01 -8.851809e-02 1.510803e-01 -1.762891e-02 2.624634e-02 1.319988e-01 -2.273910e-01 6.524410e-02
<VARIANCE> 39
 5.379681e+01 4.483272e+01 4.296156e+01 3.706023e+01 4.530602e+01 4.061646e+01 6.686591e+01 3.841604e+01 4.445967e+01 2.756594e+01 3.258984e+01 2.432689e+01 6.627634e+01 2.693884e+00 3.841929e+00 2.506052e+00 2.324828e+00 3.152294e+00 3.406096e+00 3.312061e+00 3.946718e+00 3.041641e+00 2.523562e+00 2.577256e+00 2.134007e+00 1.993109e+00 4.430036e-01 5.490831e-01 3.844264e-01 3.333042e-01 5.028762e-01 5.516446e-01 6.220025e-01 5.766827e-01 5.059505e-01 4.623730e-01 4.521862e-01 4.111507e-01 2.368278e-01
<GCONST> 1.233120e+02
<STATE> 3
<MEAN> 39
 -1.831705e+01 1.042098e+01 1.290126e+00 3.359502e+00 -3.390784e+00 -9.518643e+00 -7.129478e+00 -4.161910e+00 -3.839399e+00 -2.791087e+00 -2.515933e+00 -7.372562e-01 6.408730e+01 1.179209e-01 -5.142542e-01 -4.798699e-02 -1.329530e-01 -3.053747e-01 -1.536776e-02 -1.367945e-01 -4.981096e-02 5.478001e-02 4.214288e-02 1.784223e-01 1.101041e-01 2.931697e-01 6.266813e-01 -4.449734e-01 7.913581e-02 -2.075409e-01 -3.894905e-01 -7.535015e-02 -2.429622e-01 -5.205560e-02 3.904239e-02 9.927303e-03 1.963762e-02 -1.308272e-01 2.192104e-01
<VARIANCE> 39
 5.339061e+01 4.150807e+01 3.736738e+01 3.444532e+01 3.560965e+01 3.839455e+01 4.763439e+01 3.446437e+01 2.601701e+01 2.024112e+01 2.542331e+01 2.050004e+01 4.286989e+01 4.755880e+00 2.752429e+00 1.554719e+00 1.845061e+00 2.728129e+00 2.386831e+00 2.456945e+00 2.222455e+00 2.136693e+00 1.657419e+00 1.592825e+00 1.511690e+00 1.537118e+00 5.138795e-01 4.165537e-01 2.636667e-01 3.355578e-01 4.317818e-01 4.607044e-01 4.269497e-01 4.808395e-01 4.160974e-01 3.374405e-01 3.176062e-01 3.427648e-01 1.903007e-01
<GCONST> 1.142109e+02
<STATE> 4
<MEAN> 39
 -1.155247e+01 1.290482e+00 1.227904e-02 2.742740e-01 -4.847391e+00 -7.417794e+00 -6.480866e+00 -2.993133e+00 -3.521333e+00 -3.101206e+00 -1.407844e+00 -9.842679e-01 5.135522e+01 3.718538e-01 -3.111554e-01 1.266197e-01 -1.048319e-01 -3.248088e-01 -6.596506e-03 -2.001276e-01 -7.073903e-02 7.922950e-02 1.117205e-02 6.808145e-02 -7.336584e-02 2.222671e-01 7.313225e-02 -7.531548e-02 1.501303e-02 -4.914380e-02 -7.457923e-02 5.312863e-02 -7.103082e-02 9.103389e-03 9.999982e-03 -1.327624e-02 7.202087e-03 -7.478032e-02 4.770460e-02
<VARIANCE> 39
 4.382975e+01 7.174338e+01 4.011511e+01 2.977128e+01 3.497792e+01 3.934306e+01 4.549326e+01 4.023316e+01 2.573210e+01 2.289732e+01 2.723487e+01 2.035245e+01 1.688660e+02 2.716250e+00 2.702401e+00 1.294456e+00 1.571279e+00 2.558566e+00 2.131233e+00 2.303075e+00 2.453897e+00 2.010138e+00 1.814302e+00 1.689914e+00 1.726591e+00 2.160265e+00 2.809792e-01 2.817885e-01 1.921068e-01 2.415627e-01 3.378239e-01 4.276768e-01 4.117343e-01 4.369132e-01 3.451996e-01 3.497804e-01 3.225127e-01 3.639780e-01 2.120266e-01
<GCONST> 1.135834e+02
<TRANSP> 5
 0.000000e+00 1.000000e+00 0.000000e+00 0.000000e+00 0.000000e+00
 0.000000e+00 7.470446e-01 2.529553e-01 0.000000e+00 0.000000e+00
 0.000000e+00 0.000000e+00 8.074167e-01 1.925832e-01 0.000000e+00
 0.000000e+00 0.000000e+00 0.000000e+00 8.827142e-01 1.172858e-01
 0.000000e+00 0.000000e+00 0.000000e+00 0.000000e+00 0.000000e+00
<ENDHMM>
~h "ai"
<BEGINHMM>
<NUMSTATES> 5
<STATE> 2
<MEAN> 39
 -1.094876e+00 -1.509807e+01 -4.811747e+00 -8.699098e+00 -1.183395e+01 -2.153127e+00 -1.228167e+01 5.277461e+00 -1.532992e+00 -4.031164e+00 -2.731870e+00 -1.194006e+01 7.554339e+01 -2.205124e-01 -1.271631e+00 8.235233e-01 -1.202669e-01 -1.185206e+00 -5.210929e-01 4.548379e-01 2.282495e+00 -1.573596e-01 -1.126495e+00 -1.055779e-01 1.800216e-01 1.030308e+00 -2.291135e-01 5.876061e-01 3.693332e-01 2.042926e-01 -7.246596e-02 -1.914955e-01 3.169828e-01 -4.145027e-01 -4.153250e-01 1.185279e-01 1.694771e-01 4.881883e-01 -6.241315e-01
<VARIANCE> 39
 1.450388e+01 3.236885e+01 5.452224e+01 2.908033e+01 5.859058e+01 1.002454e+02 5.262610e+01 7.060056e+01 6.649797e+01 5.444120e+01 6.454788e+01 3.976487e+01 1.951166e+01 1.376361e+00 2.035298e+00 2.552333e+00 2.345483e+00 4.110117e+00 5.274898e+00 2.913804e+00 3.734089e+00 3.279450e+00 2.571556e+00 4.071521e+00 3.387977e+00 1.674141e+00 3.561310e-01 2.785264e-01 3.886196e-01 4.054384e-01 7.514614e-01 7.189206e-01 5.805857e-01 7.369366e-01 6.199917e-01 5.683601e-01 8.701452e-01 5.611372e-01 3.609883e-01
<GCONST> 1.262641e+02
<STATE> 3
<MEAN> 39
 -3.101928e+00 -1.562274e+01 4.151811e-01 -9.403329e+00 -1.766897e+01 -7.170256e+00 -8.484813e+00 8.618340e+00 -3.550625e+00 -7.068112e+00 -1.640046e-01 -9.031877e+00 7.582919e+01 -2.504849e-01 6.544479e-01 1.450118e+00 -1.722581e-01 -1.544904e+00 -8.032892e-01 2.308408e-01 7.842937e-03 -9.324334e-01 4.140395e-01 1.133345e+00 3.808074e-01 -2.558444e-01 3.918821e-03 3.311082e-01 4.496892e-02 4.999078e-02 1.611514e-01 6.909674e-02 -2.529432e-01 -5.428399e-01 -6.475554e-02 2.529011e-01 5.859243e-02 -5.442044e-02 -2.380571e-01
<VARIANCE> 39
 1.328530e+01 3.490740e+01 4.469547e+01 2.941597e+01 5.673812e+01 6.982644e+01 3.676725e+01 6.556375e+01 5.703132e+01 5.378181e+01 5.631568e+01 2.572709e+01 1.271832e+01 2.155572e-01 1.082551e+00 1.556739e+00 8.469632e-01 2.033939e+00 1.979644e+00 1.969350e+00 2.675109e+00 1.830497e+00 1.957743e+00 2.274850e+00 1.733083e+00 3.661807e-01 5.909875e-02 1.239320e-01 1.831506e-01 1.750984e-01 4.023218e-01 3.597156e-01 3.195799e-01 4.648739e-01 3.080473e-01 3.314551e-01 4.299358e-01 2.951348e-01 8.300962e-02
<GCONST> 1.034085e+02
<STATE> 4
<MEAN> 39
 -3.793729e+00 -6.091465e+00 9.820004e+00 -7.555887e+00 -2.203812e+01 -8.749578e+00 -1.208239e+01 3.024193e+00 -1.043388e+01 -2.733463e+00 3.949617e+00 -7.837976e+00 6.813289e+01 3.460141e-02 8.914124e-01 2.021045e-01 5.394375e-01 5.445000e-01 -2.035443e-02 -4.639517e-02 -8.554232e-01 -2.130828e-01 3.646971e-02 -2.096933e-01 7.205859e-02 -1.193154e+00 4.135443e-02 -3.520483e-04 -2.581672e-01 1.037588e-01 3.260525e-01 8.482023e-02 1.120740e-01 1.618092e-02 1.540081e-01 -6.422241e-02 -2.219755e-01 -1.108720e-02 -1.534009e-01
<VARIANCE> 39
 1.567301e+01 4.975903e+01 4.761238e+01 3.956493e+01 3.902419e+01 6.354611e+01 4.968084e+01 7.426743e+01 4.624520e+01 4.952088e+01 4.964394e+01 3.144736e+01 7.731849e+01 6.756409e-01 1.470849e+00 2.110879e+00 1.451586e+00 2.411250e+00 1.909876e+00 2.917317e+00 2.719656e+00 2.520039e+00 2.035527e+00 2.324197e+00 1.438726e+00 1.407192e+00 1.197804e-01 2.138257e-01 2.305727e-01 2.364164e-01 3.794257e-01 3.618325e-01 4.774820e-01 4.573043e-01 4.059301e-01 3.593563e-01 3.699282e-01 2.791244e-01 2.101832e-01
<GCONST> 1.134030e+02
<TRANSP> 5
 0.000000e+00 1.000000e+00 0.000000e+00 0.000000e+00 0.000000e+00
 0.000000e+00 6.511881e-01 3.488119e-01 0.000000e+00 0.000000e+00
 0.000000e+00 0.000000e+00 7.802200e-01 2.197799e-01 0.000000e+00
 0.000000e+00 0.000000e+00 0.000000e+00 8.889866e-01 1.110134e-01
 0.000000e+00 0.000000e+00 0.000000e+00 0.000000e+00 0.000000e+00
<ENDHMM>
~h "au"
<BEGINHMM>
<NUMSTATES> 5
<STATE> 2
<MEAN> 39
 -6.943117e+00 -5.227505e+00 -7.228691e+00 -7.935624e+00 -6.022041e+00 -1.833959e+00 -8.042859e+00 -3.652896e+00 -2.828023e+00 -2.085953e+00 -2.040575e+00 -5.139243e+00 5.088104e+01 -1.003336e-01 8.232526e-02 -7.611281e-02 -1.717220e-01 2.401208e-01 2.916019e-01 1.645396e-02 -8.252508e-02 -1.009162e-01 -1.371856e-02 2.031621e-01 -9.306936e-02 -2.793860e-01 -7.270405e-03 1.266311e-01 1.070572e-01 2.386091e-02 -4.833102e-02 -6.560442e-02 1.888933e-02 -9.594030e-02 -1.037732e-01 1.432187e-02 8.404644e-02 1.275040e-01 -1.037793e-01
<VARIANCE> 39
 3.981618e+01 5.548219e+01 3.464502e+01 5.281732e+01 3.098441e+01 7.073829e+01 3.086726e+01 3.297807e+01 4.189613e+01 3.307773e+01 2.906824e+01 4.671027e+01 3.264078e+02 4.330244e-01 1.216782e+00 9.944463e-01 1.473088e+00 1.617455e+00 2.243123e+00 1.850051e+00 1.902834e+00 2.024191e+00 1.919880e+00 1.993454e+00 1.816916e+00 8.683940e-01 1.299867e-01 2.262560e-01 2.035539e-01 2.545695e-01 2.915534e-01 3.544647e-01 3.656803e-01 3.768545e-01 4.119966e-01 3.901226e-01 3.923379e-01 4.146924e-01 1.865740e-01
<GCONST> 1.104742e+02
<STATE> 3
<MEAN> 39
 -2.624808e+00 -1.051535e+01 -1.147274e+01 -1.354508e+01 -7.432527e+00 6.939199e+00 -1.069384e+01 -4.906707e+00 2.130318e-01 -6.998349e-01 2.778699e-01 -1.282524e+01 7.121081e+01 3.789424e-01 4.019950e-01 -1.478961e-01 -8.704442e-01 -8.595028e-02 7.535161e-01 -7.160556e-03 -4.181616e-01 -6.164048e-01 1.095490e-01 9.639824e-01 1.654822e-01 -2.046744e-02 9.959922e-02 2.395726e-01 1.688337e-01 2.196025e-02 -2.696961e-01 -2.059531e-01 -7.677014e-03 -6.283256e-02 -1.517744e-01 3.529833e-03 7.548828e-03 3.391997e-01 -1.700052e-01
<VARIANCE> 39
 3.167365e+01 3.660691e+01 4.197784e+01 4.968429e+01 4.061801e+01 6.471015e+01 3.888069e+01 5.404181e+01 4.347733e+01 4.150997e+01 4.974480e+01 5.148589e+01 1.600746e+02 5.686477e-01 1.229259e+00 8.867213e-01 1.407025e+00 1.718757e+00 2.002906e+00 1.625986e+00 1.996558e+00 1.730861e+00 2.081300e+00 2.106573e+00 1.923819e+00 3.920387e+00 1.203236e-01 2.456337e-01 1.736673e-01 2.868759e-01 3.410966e-01 3.541679e-01 3.039155e-01 3.925271e-01 3.189799e-01 3.717953e-01 3.549967e-01 3.972560e-01 5.279686e-01
<GCONST> 1.131562e+02
<STATE> 4
<MEAN> 39
 1.382672e+00 -3.919280e+00 -9.652112e+00 -2.054190e+01 -1.170316e+01 8.098938e+00 -1.209381e+01 -5.680423e+00 -4.776489e+00 -1.700557e+00 1.980579e+00 -7.801115e+00 6.657227e+01 1.642945e-01 7.187194e-01 4.074590e-01 2.677020e-01 -1.691690e-01 -5.357072e-01 -4.353351e-02 -3.864581e-02 -4.755193e-01 -8.257464e-02 -4.226964e-02 3.899018e-01 -9.992560e-01 -5.449997e-02 -4.471979e-02 9.367711e-02 2.643727e-01 1.033416e-01 -1.683484e-01 2.410937e-02 1.683815e-02 5.274594e-02 -2.649421e-02 -1.472202e-01 -4.588646e-02 -6.424382e-02
<VARIANCE> 39
 2.287955e+01 6.201865e+01 4.306563e+01 6.805802e+01 5.114956e+01 6.860690e+01 4.284503e+01 5.136632e+01 6.388253e+01 6.412354e+01 4.508290e+01 4.312341e+01 1.107318e+02 7.222444e-01 1.511439e+00 1.294493e+00 3.011378e+00 2.405032e+00 2.765210e+00 1.962764e+00 2.224734e+00 2.545302e+00 2.563043e+00 2.503100e+00 2.382056e+00 1.402632e+00 1.057029e-01 2.041447e-01 2.198866e-01 3.613990e-01 3.785323e-01 4.453146e-01 3.611366e-01 3.880424e-01 3.945141e-01 4.778903e-01 4.352328e-01 4.057781e-01 1.904294e-01
<GCONST> 1.170166e+02
<TRANSP> 5
 0.000000e+00 1.000000e+00 0.000000e+00 0.000000e+00 0.000000e+00
 0.000000e+00 7.711316e-01 2.288684e-01 0.000000e+00 0.000000e+00
 0.000000e+00 0.000000e+00 5.768054e-01 4.231946e-01 0.000000e+00
 0.000000e+00 0.000000e+00 0.000000e+00 9.078013e-01 9.219874e-02
 0.000000e+00 0.000000e+00 0.000000e+00 0.000000e+00 0.000000e+00
<ENDHMM>
~h "kh"
<BEGINHMM>
<NUMSTATES> 5
<STATE> 2
<MEAN> 39
 -9.667021e+00 -2.172621e+00 -3.212217e+00 -1.678161e+00 -1.846421e+00 -2.288695e+00 -4.942488e+00 -1.934596e+00 -2.775679e+00 -2.227873e+00 -1.930691e+00 -2.864528e+00 4.982074e+01 -7.451616e-01 -3.028891e-01 -5.420305e-01 -1.315086e-02 4.386381e-01 -1.266499e-01 -1.511490e-01 2.227504e-01 3.209250e-01 1.482752e-01 2.182320e-01 2.156899e-01 -4.002334e-01 1.055252e-01 -6.955333e-02 -3.027288e-02 -1.140626e-01 -1.546153e-01 1.685186e-02 -8.158875e-02 -1.986756e-02 -3.615654e-02 3.615954e-02 -1.195271e-03 -6.356176e-02 1.153284e-01
<VARIANCE> 39
