~o
<STREAMINFO> 1 39
<VECSIZE> 39<NULLD><MFCC_D_A_0><DIAGC>
~h "@"
<BEGINHMM>
<NUMSTATES> 5
<STATE> 2
<MEAN> 39
 -2.294928e+00 -5.578368e+00 -2.438208e+00 -6.487406e+00 -1.027275e+01 -4.334473e+00 -1.260968e+01 -3.504678e+00 -2.603542e+00 -1.013297e+00 -3.527703e-01 -8.281130e+00 6.556931e+01 1.492697e+00 -1.139308e+00 -1.109229e-01 -9.349659e-01 -1.095188e+00 5.142437e-01 -1.295897e+00 6.669043e-01 7.065681e-01 2.247058e-01 7.040629e-01 -1.324578e+00 1.954829e+00 -3.163273e-01 2.760347e-01 1.514392e-01 3.474482e-01 1.843660e-01 6.967679e-02 3.412166e-01 -8.309829e-02 -2.567810e-01 -4.750863e-02 -1.773565e-01 2.617630e-01 -7.470004e-01
<VARIANCE> 39
 4.418901e+01 4.416598e+01 5.393099e+01 6.319377e+01 6.151628e+01 9.219377e+01 6.017628e+01 7.115181e+01 6.983756e+01 4.774613e+01 5.455384e+01 4.552448e+01 1.411642e+02 5.881459e+00 3.974411e+00 4.401107e+00 4.567134e+00 5.619823e+00 5.921944e+00 5.571744e+00 6.939431e+00 6.945317e+00 4.286142e+00 4.969869e+00 4.353703e+00 6.891212e+00 9.763734e-01 7.297204e-01 8.072794e-01 9.125309e-01 9.385819e-01 9.884574e-01 9.443273e-01 1.038445e+00 1.042942e+00 7.228584e-01 9.745693e-01 8.298578e-01 1.716296e+00
<GCONST> 1.462890e+02
<STATE> 3
<MEAN> 39
 -8.536911e-02 -8.166910e+00 -2.713826e+00 -8.221974e+00 -1.277667e+01 -3.287794e+00 -1.486278e+01 -1.920688e+00 -1.178043e+00 -9.989916e-01 1.115209e+00 -1.062716e+01 7.034864e+01 5.454077e-01 -4.791494e-02 3.357932e-01 2.117430e-01 -3.260995e-01 3.358908e-01 -1.258301e-01 1.457043e-01 -6.407622e-02 6.090234e-02 2.832116e-02 -2.663189e-01 -1.311687e-01 -4.044274e-01 6.296738e-01 2.611361e-01 5.744105e-01 4.088096e-01 -1.607991e-01 5.811778e-01 -4.332277e-01 -4.654374e-01 -7.100125e-02 -4.324161e-01 5.475804e-01 -1.002121e+00
<VARIANCE> 39
 2.295057e+01 4.113464e+01 5.664122e+01 6.022555e+01 5.806075e+01 9.716811e+01 5.974262e+01 8.489532e+01 7.903381e+01 5.723952e+01 5.433680e+01 4.471330e+01 6.113102e+01 2.282687e+00 3.529084e+00 2.949208e+00 3.892228e+00 4.289658e+00 5.009665e+00 3.951163e+00 5.934698e+00 5.537485e+00 3.548790e+00 4.301009e+00 3.220258e+00 5.060027e+00 6.419587e-01 6.191996e-01 7.520187e-01 8.041572e-01 9.051614e-01 9.881955e-01 9.447306e-01 1.218293e+00 1.165708e+00 7.769474e-01 8.894783e-01 7.705163e-01 7.924361e-01
<GCONST> 1.400285e+02
<STATE> 4
<MEAN> 39
 -6.921764e-01 -6.380748e+00 -8.525151e-01 -6.391350e+00 -1.269153e+01 -4.807309e+00 -1.332924e+01 -2.009316e+00 -2.352269e+00 -1.148965e+00 2.547626e-01 -9.569950e+00 6.626272e+01 1.193825e-01 7.536032e-01 4.011141e-01 6.736706e-01 2.376338e-01 -1.462162e-03 4.554501e-01 -4.846336e-01 -4.433528e-01 -2.679631e-02 -4.471893e-01 3.127450e-01 -1.217762e+00 -1.549290e-01 2.050589e-01 6.935145e-02 1.613631e-01 1.499572e-01 -7.693726e-02 1.799984e-01 -1.676286e-01 -1.247979e-01 -3.427236e-02 -1.544465e-01 1.857483e-01 -2.892608e-01
<VARIANCE> 39
 2.919183e+01 4.957414e+01 5.661824e+01 6.263455e+01 6.649577e+01 8.492857e+01 6.274958e+01 8.202734e+01 7.701144e+01 5.693310e+01 5.545742e+01 4.373560e+01 1.153478e+02 1.594987e+00 2.925274e+00 2.302928e+00 3.105833e+00 3.201735e+00 3.505093e+00 3.306823e+00 4.283501e+00 3.980227e+00 2.869568e+00 3.239513e+00 2.516593e+00 4.767698e+00 3.760146e-01 4.989205e-01 4.399935e-01 5.489602e-01 5.960749e-01 6.171462e-01 6.570458e-01 9.330918e-01 7.651578e-01 5.700469e-01 6.471832e-01 5.162646e-01 6.604191e-01
<GCONST> 1.329887e+02
<TRANSP> 5
 0.000000e+00 1.000000e+00 0.000000e+00 0.000000e+00 0.000000e+00
 0.000000e+00 4.342184e-01 5.657816e-01 0.000000e+00 0.000000e+00
 0.000000e+00 0.000000e+00 3.133149e-01 6.866850e-01 0.000000e+00
 0.000000e+00 0.000000e+00 0.000000e+00 5.588122e-01 4.411878e-01
 0.000000e+00 0.000000e+00 0.000000e+00 0.000000e+00 0.000000e+00
<ENDHMM>
~h "a"
<BEGINHMM>
<NUMSTATES> 5
<STATE> 2
<MEAN> 39
 -1.789273e+00 -1.349076e+01 -6.755708e+00 -9.736237e+00 -9.286512e+00 7.295254e-01 -1.142629e+01 2.574623e+00 1.078712e-01 -3.908751e+00 -3.464267e+00 -1.160845e+01 7.236848e+01 1.670888e-01 -1.474319e+00 -8.439218e-01 -2.087291e-01 8.553667e-01 1.212313e+00 5.542467e-02 6.698856e-01 3.041052e-01 -7.586685e-01 -7.447904e-01 -7.552050e-01 1.064225e+00 -2.151630e-01 5.058388e-01 3.274609e-01 3.637413e-01 1.194294e-01 -2.826256e-01 8.257559e-02 -4.705430e-01 -3.405554e-01 1.096193e-01 7.955959e-02 4.356868e-01 -5.920202e-01
<VARIANCE> 39
 2.513099e+01 4.287634e+01 4.415260e+01 3.959870e+01 5.842135e+01 8.023309e+01 4.970459e+01 8.354706e+01 6.475665e+01 5.505979e+01 5.060252e+01 4.311285e+01 8.950853e+01 1.796057e+00 2.727920e+00 2.203632e+00 2.276214e+00 3.436507e+00 3.793366e+00 2.973330e+00 4.285402e+00 3.239342e+00 3.126304e+00 3.562770e+00 2.877643e+00 3.494534e+00 4.198646e-01 4.364325e-01 3.493882e-01 4.327170e-01 6.342098e-01 6.342395e-01 5.857220e-01 7.721946e-01 6.245077e-01 5.725431e-01 6.474761e-01 5.371156e-01 6.405201e-01
<GCONST> 1.296593e+02
<STATE> 3
<MEAN> 39
 -1.699158e+00 -1.622433e+01 -8.299651e+00 -1.018805e+01 -7.153870e+00 3.035264e+00 -1.159465e+01 1.825746e+00 1.844473e-01 -5.991720e+00 -4.267924e+00 -1.286123e+01 7.462974e+01 5.569025e-02 1.759234e-01 5.245405e-02 2.244126e-01 2.454197e-01 -1.162080e-01 -1.626261e-02 -5.006237e-02 -2.910875e-01 5.759334e-02 -1.846364e-01 7.275543e-02 -3.794683e-01 4.672511e-02 4.921240e-01 2.615080e-01 1.164705e-01 -2.013950e-01 -3.499238e-01 -1.813715e-02 -1.862599e-01 -1.301649e-01 2.493618e-01 1.244183e-01 2.023626e-01 -4.337809e-01
<VARIANCE> 39
 1.791281e+01 3.887505e+01 3.620389e+01 3.287051e+01 4.155555e+01 6.552670e+01 4.479623e+01 7.453976e+01 6.589635e+01 5.779847e+01 4.285461e+01 4.229610e+01 4.729044e+01 5.749874e-01 1.493191e+00 1.118052e+00 1.270722e+00 2.072291e+00 2.544377e+00 1.832911e+00 2.544797e+00 1.891326e+00 2.013316e+00 2.138707e+00 1.768649e+00 1.458810e+00 1.365749e-01 2.570590e-01 2.022880e-01 2.492463e-01 3.460062e-01 3.652218e-01 3.734827e-01 5.177315e-01 3.977659e-01 3.774542e-01 4.127152e-01 3.593239e-01 2.460562e-01
<GCONST> 1.121225e+02
<STATE> 4
<MEAN> 39
 -2.572644e+00 -1.085684e+01 -6.446839e+00 -6.735126e+00 -5.537495e+00 -1.226271e-01 -9.783922e+00 1.763856e+00 -2.205306e+00 -3.845770e+00 -5.971717e+00 -9.206009e+00 6.380387e+01 2.037568e-02 9.361308e-01 4.717203e-01 4.706433e-01 -1.505393e-01 -5.488292e-01 1.076856e-01 -3.676288e-01 -2.005294e-01 2.744699e-01 5.290085e-02 3.909053e-01 -1.286464e+00 -7.891783e-03 1.635356e-01 1.381317e-01 7.788679e-02 -4.377318e-02 -5.059979e-02 1.900130e-02 -1.653284e-01 -3.225126e-02 4.304257e-02 5.188911e-02 6.326961e-02 -1.488108e-01
<VARIANCE> 39
 2.804623e+01 5.800547e+01 3.727842e+01 4.078799e+01 4.497090e+01 5.678965e+01 4.730880e+01 6.352365e+01 4.873559e+01 5.251332e+01 4.674569e+01 4.721675e+01 2.112716e+02 8.800327e-01 1.862534e+00 1.473956e+00 1.660370e+00 2.142788e+00 2.359257e+00 2.251427e+00 2.796064e+00 2.260437e+00 2.246909e+00 2.208353e+00 1.915936e+00 2.362596e+00 1.563876e-01 3.028300e-01 2.471021e-01 3.092909e-01 3.546174e-01 3.761097e-01 4.111231e-01 5.234879e-01 4.047446e-01 4.209417e-01 4.054273e-01 3.325351e-01 3.630348e-01
<GCONST> 1.179697e+02
<TRANSP> 5
 0.000000e+00 1.000000e+00 0.000000e+00 0.000000e+00 0.000000e+00
 0.000000e+00 5.704350e-01 4.295650e-01 0.000000e+00 0.000000e+00
 0.000000e+00 0.000000e+00 6.492801e-01 3.507198e-01 0.000000e+00
 0.000000e+00 0.000000e+00 0.000000e+00 7.856060e-01 2.143940e-01
 0.000000e+00 0.000000e+00 0.000000e+00 0.000000e+00 0.000000e+00
<ENDHMM>
~h "b"
<BEGINHMM>
<NUMSTATES> 5
<STATE> 2
<MEAN> 39
 3.342879e+00 4.279510e+00 3.091417e+00 -1.613247e+00 -6.636304e+00 1.371590e+00 -7.715680e+00 -8.689784e+00 -1.001202e+01 -2.197253e+00 -8.868177e-01 -6.879063e+00 5.039496e+01 6.262968e-01 1.244915e+00 5.368901e-01 3.065191e-01 6.546491e-01 3.506684e-01 4.974368e-01 -3.485171e-01 -4.598123e-01 -9.530804e-02 -4.772428e-02 9.976257e-02 -9.050576e-01 -3.120801e-01 -4.526016e-01 -2.585741e-01 -3.010690e-01 -1.977767e-01 -1.916996e-01 -2.399969e-01 1.465700e-01 3.140050e-01 3.415689e-02 1.424643e-01 2.885664e-02 7.431762e-01
<VARIANCE> 39
 5.171317e+01 4.550674e+01 3.157931e+01 4.022171e+01 4.606551e+01 5.465809e+01 4.393789e+01 4.403745e+01 6.608599e+01 3.939584e+01 4.641410e+01 2.954775e+01 9.150031e+01 2.838969e+00 3.079141e+00 2.595001e+00 2.720245e+00 3.022359e+00 2.966673e+00 3.000253e+00 3.595765e+00 4.327750e+00 2.942973e+00 3.305935e+00 2.221977e+00 6.498909e+00 4.679432e-01 6.228619e-01 4.626099e-01 5.384312e-01 5.786151e-01 5.492278e-01 6.031458e-01 6.883410e-01 8.185678e-01 5.797883e-01 6.375218e-01 4.588595e-01 8.239139e-01
<GCONST> 1.298794e+02
<STATE> 3
<MEAN> 39
 3.893491e+00 4.902268e+00 2.702947e+00 -2.686944e+00 -5.622201e+00 1.451624e+00 -7.945642e+00 -9.492308e+00 -9.893476e+00 -2.254638e+00 4.501985e-01 -5.975885e+00 5.384053e+01 -1.021541e+00 -2.102728e+00 -1.415737e+00 -1.523460e+00 -5.239100e-01 -8.049836e-01 -1.322928e+00 5.165867e-01 1.810480e+00 6.340942e-01 9.431354e-01 -6.358267e-02 3.521668e+00 -2.842860e-01 -9.230257e-01 -3.293347e-01 -4.003633e-01 -6.228046e-01 -7.919814e-02 -4.439611e-01 4.397132e-01 4.951165e-01 1.580464e-01 3.803801e-02 -3.450585e-01 1.036567e+00
<VARIANCE> 39
 3.460121e+01 4.294996e+01 3.185069e+01 4.313060e+01 3.898941e+01 5.663449e+01 3.685101e+01 4.267870e+01 6.647204e+01 3.914768e+01 4.745324e+01 2.992353e+01 7.734023e+01 3.331086e+00 5.958889e+00 4.679644e+00 5.914844e+00 4.678224e+00 5.077388e+00 4.911441e+00 5.188817e+00 7.563901e+00 5.227360e+00 4.935266e+00 4.438627e+00 8.944818e+00 5.986586e-01 7.731891e-01 7.005918e-01 8.308498e-01 7.949375e-01 9.337527e-01 7.686235e-01 9.538844e-01 1.175586e+00 9.383277e-01 9.760119e-01 8.818561e-01 1.289060e+00
<GCONST> 1.406896e+02
<STATE> 4
<MEAN> 39
 1.047128e+00 -3.577830e+00 -1.472273e+00 -6.764701e+00 -8.681958e+00 -1.256074e+00 -1.277307e+01 -5.937770e+00 -4.111226e+00 1.294803e+00 2.434089e+00 -8.827010e+00 6.494512e+01 -7.185578e-01 -2.137954e+00 -8.154365e-01 -9.037670e-01 -1.097276e+00 -3.875951e-01 -9.459820e-01 1.320189e+00 1.470083e+00 1.049670e-01 -8.064406e-02 -7.736350e-01 2.684437e+00 1.111710e-01 3.061534e-01 3.597755e-01 3.589334e-01 -4.470396e-02 1.808063e-01 3.124545e-01 4.762049e-02 -4.299694e-01 -4.338312e-01 -3.101122e-01 7.824465e-02 -5.377074e-01
<VARIANCE> 39
 2.689931e+01 5.146886e+01 5.796270e+01 7.996612e+01 4.408594e+01 7.360066e+01 5.579794e+01 6.287309e+01 7.315650e+01 5.555198e+01 5.837853e+01 4.669053e+01 9.658514e+01 2.545689e+00 5.642982e+00 5.128157e+00 5.988120e+00 5.476915e+00 5.972170e+00 5.138733e+00 7.122771e+00 7.943519e+00 6.052858e+00 6.277366e+00 6.332169e+00 8.990282e+00 4.044151e-01 7.406290e-01 6.104623e-01 1.174188e+00 1.097685e+00 9.033684e-01 9.756912e-01 9.420082e-01 1.023006e+00 1.021111e+00 1.146676e+00 8.345059e-01 1.335530e+00
<GCONST> 1.459765e+02
<TRANSP> 5
 0.000000e+00 1.000000e+00 0.000000e+00 0.000000e+00 0.000000e+00
 0.000000e+00 7.420305e-01 2.579695e-01 0.000000e+00 0.000000e+00
 0.000000e+00 0.000000e+00 5.453371e-01 4.546629e-01 0.000000e+00
 0.000000e+00 0.000000e+00 0.000000e+00 5.540949e-01 4.459051e-01
 0.000000e+00 0.000000e+00 0.000000e+00 0.000000e+00 0.000000e+00
<ENDHMM>
~h "c"
<BEGINHMM>
<NUMSTATES> 5
<STATE> 2
<MEAN> 39
 -7.254762e+00 3.243329e+00 1.564743e+00 -9.000958e-01 -7.507333e+00 -7.928673e+00 -7.335846e+00 -3.539047e+00 -4.008158e+00 -2.711121e+00 -3.276813e+00 -3.536052e+00 4.843102e+01 -1.315996e+00 1.311488e-01 -4.618098e-01 -2.180242e-01 7.088811e-01 8.191082e-02 3.735209e-01 -1.359022e-01 1.991885e-01 -4.792123e-03 1.509573e-01 2.867395e-01 -1.200997e+00 -4.235629e-01 -4.192102e-01 -2.282316e-01 -3.369862e-01 -5.401181e-02 1.157392e-01 -2.061640e-02 -5.705591e-03 4.629210e-02 9.843291e-03 1.379150e-01 1.482919e-02 8.833716e-01
<VARIANCE> 39
 4.171081e+01 4.288825e+01 4.950933e+01 2.779391e+01 4.349569e+01 4.431794e+01 4.105558e+01 4.251513e+01 4.012744e+01 2.935851e+01 2.671308e+01 2.488003e+01 1.346848e+02 5.107421e+00 5.053321e+00 3.419854e+00 3.241313e+00 3.919263e+00 3.039206e+00 3.438103e+00 3.483413e+00 3.422166e+00 2.630504e+00 2.532168e+00 2.361686e+00 1.119677e+01 9.012258e-01 8.132216e-01 6.027855e-01 5.861419e-01 7.593200e-01 6.537540e-01 6.835809e-01 6.634690e-01 6.466147e-01 5.541245e-01 5.078691e-01 4.989263e-01 1.888225e+00
<GCONST> 1.323087e+02
<STATE> 3
<MEAN> 39
 -2.031687e+01 4.721048e-01 -2.939631e+00 -5.856958e+00 -4.211144e+00 -6.107170e+00 -5.041977e+00 -4.436025e+00 -2.741683e+00 -2.235623e+00 -1.170555e+00 -1.127422e+00 5.767361e+01 -2.244057e+00 -6.408379e-01 -3.396530e-01 -1.199028e+00 -3.374736e-01 -1.063800e-01 9.935074e-02 1.931625e-01 2.970838e-01 -2.407130e-02 3.211016e-01 4.575563e-01 4.336114e+00 1.478780e+00 -3.698149e-02 5.456620e-01 2.326562e-01 -7.504736e-01 -2.723659e-01 -4.471931e-01 2.282121e-01 -4.065522e-02 -1.745948e-01 -2.036724e-01 -3.464472e-01 1.460351e-01
<VARIANCE> 39
 7.063477e+01 3.217792e+01 4.199995e+01 3.269912e+01 3.096612e+01 3.458130e+01 3.321801e+01 3.058918e+01 2.569611e+01 2.372863e+01 2.106118e+01 1.887669e+01 1.248559e+02 1.251679e+01 4.214924e+00 5.378294e+00 3.763412e+00 5.000805e+00 4.558997e+00 3.890494e+00 3.520208e+00 3.439869e+00 2.682070e+00 2.831403e+00 2.339602e+00 1.114421e+01 2.315573e+00 9.956926e-01 8.939610e-01 7.954263e-01 8.907213e-01 8.922718e-01 7.383045e-01 8.055923e-01 7.501714e-01 5.663384e-01 5.758132e-01 5.701577e-01 2.144195e+00
<GCONST> 1.355354e+02
<STATE> 4
<MEAN> 39
 -1.311055e+01 -2.542449e+00 4.219162e-01 -6.485850e+00 -1.059879e+01 -8.498463e+00 -9.079636e+00 -1.419645e+00 -1.945621e+00 -3.882690e+00 -2.306542e+00 -2.788388e+00 6.900839e+01 3.881311e+00 -1.847851e+00 4.471869e-01 3.922608e-02 -1.787801e+00 -2.867334e-01 -1.579475e+00 9.520773e-01 4.066817e-01 -4.559879e-01 -1.670805e-01 -1.494681e+00 2.213746e+00 4.141893e-01 -2.096192e-01 -3.375282e-01 4.462603e-02 2.947238e-01 5.101097e-01 2.858092e-02 -1.218896e-01 -6.657396e-02 9.773930e-02 1.748856e-01 -3.206356e-01 -6.989317e-01
<VARIANCE> 39
 9.890252e+01 4.740842e+01 4.900578e+01 3.285579e+01 4.898225e+01 4.620938e+01 4.931580e+01 4.872707e+01 4.494818e+01 2.911189e+01 2.583435e+01 2.861156e+01 4.959165e+01 9.121494e+00 6.433815e+00 5.602249e+00 4.260755e+00 5.623418e+00 6.057112e+00 4.401466e+00 7.423480e+00 5.089562e+00 3.525210e+00 3.374445e+00 3.323306e+00 4.627534e+00 2.918444e+00 9.153240e-01 7.808856e-01 7.305548e-01 1.247693e+00 1.095190e+00 9.427084e-01 1.066190e+00 7.286398e-01 5.760611e-01 6.035666e-01 5.944448e-01 7.720277e-01
<GCONST> 1.403920e+02
<TRANSP> 5
 0.000000e+00 1.000000e+00 0.000000e+00 0.000000e+00 0.000000e+00
 0.000000e+00 8.271821e-01 1.728179e-01 0.000000e+00 0.000000e+00
 0.000000e+00 0.000000e+00 6.958570e-01 3.041430e-01 0.000000e+00
 0.000000e+00 0.000000e+00 0.000000e+00 7.012699e-01 2.987301e-01
 0.000000e+00 0.000000e+00 0.000000e+00 0.000000e+00 0.000000e+00
<ENDHMM>
~h "d"
<BEGINHMM>
<NUMSTATES> 5
<STATE> 2
<MEAN> 39
 8.470368e-02 8.526306e-01 4.936338e+00 2.291602e+00 -9.109022e+00 -6.077902e+00 -9.747989e+00 -3.279582e+00 -3.637018e+00 -2.897505e+00 -5.198157e+00 -6.889183e+00 5.183602e+01 6.801873e-01 8.928605e-01 8.461446e-01 7.927216e-01 5.536835e-01 -3.716768e-01 -5.005096e-02 2.403152e-02 1.231503e-01 -1.672797e-01 -4.716347e-01 1.471259e-02 -6.480713e-01 -3.330682e-01 -3.918806e-01 -1.351551e-01 -4.009959e-01 -1.348290e-01 1.112207e-02 -5.938470e-02 4.566180e-02 -5.654979e-02 -5.699174e-02 2.886589e-01 1.360349e-01 7.073852e-01
<VARIANCE> 39
 6.526669e+01 5.833668e+01 4.613296e+01 3.789608e+01 6.536639e+01 4.414013e+01 5.349449e+01 6.890180e+01 5.111671e+01 3.847521e+01 4.367847e+01 3.697155e+01 1.296841e+02 4.128462e+00 4.044166e+00 3.057105e+00 3.587978e+00 4.636716e+00 3.296727e+00 3.813288e+00 5.272800e+00 3.873719e+00 2.988273e+00 3.834598e+00 2.785504e+00 8.324837e+00 7.735035e-01 7.768635e-01 4.811527e-01 6.987997e-01 9.635861e-01 6.573806e-01 7.153071e-01 9.834687e-01 7.746710e-01 6.216139e-01 8.047134e-01 5.639331e-01 1.213052e+00
<GCONST> 1.375438e+02
<STATE> 3
<MEAN> 39
 4.388715e-01 7.518506e-01 7.470084e+00 2.513785e+00 -8.224333e+00 -7.769738e+00 -1.072746e+01 -3.199806e+00 -3.929217e+00 -3.801078e+00 -4.809810e+00 -5.487380e+00 5.626134e+01 -1.586422e+00 -1.956037e+00 -1.618299e-01 -1.694894e+00 -8.621867e-01 -5.025716e-01 -5.940094e-01 5.884332e-01 -4.907493e-02 -2.920090e-01 1.572047e+00 8.633623e-01 3.735910e+00 -2.003703e-01 -5.046284e-01 -3.078263e-01 -4.626310e-01 -8.655474e-01 2.028198e-01 -1.948890e-01 1.176210e-01 5.518956e-03 2.542775e-03 5.204682e-01 -1.784267e-01 8.601779e-01
<VARIANCE> 39
 4.805174e+01 4.564449e+01 3.685650e+01 4.500441e+01 5.629865e+01 4.326200e+01 4.757935e+01 4.995923e+01 4.777177e+01 3.449442e+01 4.066003e+01 3.500613e+01 8.820558e+01 4.763176e+00 4.969601e+00 4.540077e+00 4.976654e+00 7.634996e+00 4.637127e+00 5.199553e+00 8.198611e+00 6.748835e+00 3.992265e+00 5.131000e+00 3.712881e+00 9.238494e+00 1.020123e+00 8.257789e-01 6.748986e-01 9.799824e-01 1.272875e+00 8.992386e-01 9.757307e-01 1.436765e+00 1.180793e+00 7.359283e-01 9.855124e-01 8.077722e-01 1.634711e+00
<GCONST> 1.435799e+02
<STATE> 4
<MEAN> 39
 -2.625287e+00 -5.784175e+00 5.207203e+00 -3.013178e+00 -1.495458e+01 -8.642772e+00 -1.325011e+01 5.130764e-01 -3.766876e+00 -3.810166e+00 1.463377e+00 -5.209438e+00 6.804684e+01 -3.932259e-01 -1.349384e+00 -9.028550e-01 -1.192571e+00 -1.616234e+00 4.959501e-01 -4.225378e-01 9.406670e-01 4.428137e-01 -1.627505e-01 9.612417e-01 -6.094011e-01 2.373035e+00 3.322262e-01 4.047715e-01 -6.623688e-02 3.076001e-01 3.222381e-01 4.071819e-01 2.297071e-01 -2.689618e-01 -1.050937e-01 2.687750e-02 -4.696591e-01 -3.376700e-01 -7.613032e-01
<VARIANCE> 39
 2.569001e+01 4.143426e+01 5.481353e+01 4.314770e+01 7.194782e+01 5.423631e+01 5.750566e+01 9.211658e+01 8.379652e+01 3.836376e+01 4.396100e+01 3.321992e+01 7.674929e+01 3.319570e+00 3.854419e+00 5.098484e+00 4.145098e+00 7.724322e+00 4.630012e+00 5.560933e+00 1.033263e+01 7.116552e+00 3.949545e+00 6.638118e+00 3.866057e+00 7.771427e+00 4.799297e-01 5.366648e-01 4.783808e-01 6.589892e-01 1.547053e+00 7.960085e-01 1.021052e+00 1.242774e+00 9.550939e-01 6.602075e-01 9.875201e-01 6.322156e-01 9.808309e-01
<GCONST> 1.418061e+02
<TRANSP> 5
 0.000000e+00 1.000000e+00 0.000000e+00 0.000000e+00 0.000000e+00
 0.000000e+00 7.321218e-01 2.678783e-01 0.000000e+00 0.000000e+00
 0.000000e+00 0.000000e+00 5.835239e-01 4.164761e-01 0.000000e+00
 0.000000e+00 0.000000e+00 0.000000e+00 5.544106e-01 4.455894e-01
 0.000000e+00 0.000000e+00 0.000000e+00 0.000000e+00 0.000000e+00
<ENDHMM>
~h "e"
<BEGINHMM>
<NUMSTATES> 5
<STATE> 2
<MEAN> 39
 -3.086175e+00 -9.851268e+00 3.084178e+00 -5.555955e+00 -1.775523e+01 -7.897129e+00 -1.024945e+01 3.418492e+00 -4.575684e+00 -3.175548e+00 1.092574e+00 -7.089318e+00 6.683250e+01 1.423665e-01 -1.029380e+00 6.291187e-01 -5.251403e-01 -1.441955e+00 8.513074e-03 2.482804e-01 1.196264e+00 -2.471004e-01 -3.025339e-01 4.983554e-01 -2.384142e-01 1.481994e+00 -9.680063e-02 3.905874e-01 -5.382141e-02 1.108151e-01 3.536165e-01 1.597507e-01 1.768670e-01 -3.731274e-01 -8.952126e-02 1.183646e-01 -1.395431e-01 6.706341e-02 -4.761594e-01
<VARIANCE> 39
 3.390404e+01 6.299494e+01 5.966010e+01 4.559358e+01 8.968291e+01 6.102106e+01 5.823433e+01 9.702680e+01 7.374032e+01 5.063899e+01 5.403062e+01 3.466565e+01 1.553178e+02 2.736995e+00 4.267060e+00 2.969108e+00 3.304377e+00 5.944840e+00 3.716967e+00 4.256210e+00 6.020715e+00 4.439467e+00 3.662155e+00 3.694547e+00 2.718041e+00 8.926823e+00 5.738553e-01 7.981046e-01 4.548820e-01 5.521293e-01 1.038588e+00 6.852703e-01 7.767378e-01 1.072804e+00 8.714568e-01 6.730796e-01 6.634532e-01 5.331097e-01 1.588495e+00
<GCONST> 1.398749e+02
<STATE> 3
<MEAN> 39
 -2.242818e+00 -1.151353e+01 3.787708e+00 -6.710618e+00 -2.014772e+01 -7.895027e+00 -9.492105e+00 4.323679e+00 -4.566984e+00 -4.060063e+00 1.754302e+00 -8.045243e+00 7.091265e+01 -4.026337e-02 2.820477e-01 1.613201e-01 1.357934e-01 -4.856743e-02 -3.854392e-02 2.728417e-01 -1.218636e-01 -2.091425e-01 6.664079e-02 -6.202502e-02 7.471794e-03 -3.604387e-01 -1.405938e-02 3.373041e-01 -1.463204e-01 1.889012e-01 4.456786e-01 -8.272337e-03 -2.367557e-02 -3.480238e-01 8.184742e-03 8.668200e-02 -2.040406e-01 8.135903e-02 -4.811239e-01
<VARIANCE> 39
 2.068058e+01 5.567696e+01 5.835124e+01 4.901296e+01 7.586101e+01 5.915622e+01 5.349072e+01 1.063188e+02 7.338743e+01 5.223587e+01 5.469995e+01 3.045786e+01 8.292200e+01 1.061263e+00 2.054801e+00 1.724563e+00 2.231428e+00 2.977647e+00 2.408472e+00 2.690145e+00 3.070702e+00 2.762378e+00 2.214968e+00 2.382893e+00 1.694707e+00 4.044623e+00 2.415193e-01 3.939725e-01 3.125190e-01 3.969363e-01 6.388838e-01 4.735383e-01 5.614703e-01 6.774139e-01 5.822005e-01 4.693079e-01 4.675761e-01 3.490250e-01 5.558705e-01
<GCONST> 1.243416e+02
<STATE> 4
<MEAN> 39
 -4.370944e+00 -7.279745e+00 5.072536e+00 -5.498207e+00 -1.823895e+01 -7.683464e+00 -8.348815e+00 2.445900e+00 -6.368065e+00 -2.627617e+00 1.742737e+00 -6.747995e+00 6.291163e+01 6.518915e-03 4.251680e-01 -1.642834e-01 2.950245e-01 4.844431e-01 -1.548800e-02 8.504901e-02 -3.371970e-01 3.494672e-02 6.296510e-02 -2.805930e-01 5.510502e-02 -7.462398e-01 8.848604e-03 7.223267e-02 -4.230593e-02 6.590023e-02 1.354920e-01 7.232931e-03 -3.048670e-02 -8.922900e-02 2.107878e-02 1.731275e-02 -4.843766e-02 1.435614e-02 -8.803707e-02
<VARIANCE> 39
 2.475021e+01 5.795698e+01 6.527810e+01 4.298279e+01 9.859125e+01 5.358356e+01 4.756503e+01 8.551068e+01 5.084777e+01 4.513086e+01 5.555738e+01 3.229676e+01 2.188780e+02 7.338851e-01 1.408421e+00 1.186301e+00 1.407562e+00 1.970959e+00 1.601363e+00 1.977623e+00 2.213355e+00 1.904558e+00 1.682336e+00 1.742569e+00 1.299996e+00 2.073404e+00 1.402627e-01 2.322283e-01 1.961460e-01 2.393647e-01 3.408732e-01 3.099450e-01 3.605950e-01 4.176260e-01 3.539758e-01 3.228891e-01 3.073077e-01 2.381404e-01 2.851280e-01
<GCONST> 1.136080e+02
<TRANSP> 5
 0.000000e+00 1.000000e+00 0.000000e+00 0.000000e+00 0.000000e+00
 0.000000e+00 6.210490e-01 3.789510e-01 0.000000e+00 0.000000e+00
 0.000000e+00 0.000000e+00 5.114463e-01 4.885537e-01 0.000000e+00
 0.000000e+00 0.000000e+00 0.000000e+00 8.667049e-01 1.332950e-01
 0.000000e+00 0.000000e+00 0.000000e+00 0.000000e+00 0.000000e+00
<ENDHMM>
~h "f"
<BEGINHMM>
<NUMSTATES> 5
<STATE> 2
<MEAN> 39
 -8.486900e+00 -7.116673e-01 -5.669100e-01 -9.418738e-01 -4.347668e+00 -3.784861e+00 -6.670319e+00 -3.540631e+00 -4.132489e+00 -2.621846e+00 -2.703279e+00 -3.895799e+00 6.145131e+01 -3.219975e+00 2.578283e-01 -2.598439e-01 1.143368e+00 1.390693e+00 -3.409202e-01 4.241143e-01 2.217525e-01 1.206989e+00 -1.204029e-01 -5.450872e-02 6.634042e-01 -9.538715e-01 -1.308625e-01 -5.799897e-01 -1.530538e-01 -3.585455e-01 -5.972610e-01 -6.202828e-03 -3.354090e-01 -1.856386e-02 -1.169586e-01 9.666830e-02 1.418980e-01 -1.377089e-01 2.176233e-01
<VARIANCE> 39
 5.740531e+01 2.376970e+01 3.976082e+01 3.820844e+01 3.587563e+01 5.486630e+01 3.570215e+01 3.976433e+01 3.613258e+01 3.005291e+01 3.299354e+01 2.352862e+01 5.543615e+01 3.694526e+00 4.111156e+00 3.942059e+00 4.118268e+00 5.310432e+00 4.182323e+00 3.439899e+00 4.116609e+00 3.932514e+00 3.514641e+00 3.365206e+00 2.301268e+00 2.045822e+00 8.524671e-01 5.124556e-01 4.815722e-01 6.332579e-01 7.061342e-01 6.229473e-01 6.308406e-01 6.057196e-01 7.360775e-01 5.536548e-01 5.297708e-01 3.641334e-01 2.468233e-01
<GCONST> 1.276311e+02
<STATE> 3
<MEAN> 39
 -1.905842e+01 -4.577242e+00 -3.571980e+00 -6.023670e-01 -4.347540e+00 -4.973488e+00 -7.469127e+00 -3.168975e+00 -1.911626e+00 -2.058705e+00 -1.702769e+00 -2.282809e+00 5.996405e+01 -2.439095e-01 -6.424693e-01 -4.968077e-01 -4.098369e-01 -3.234026e-01 -8.495615e-02 -1.200955e-01 -7.311609e-02 -4.463556e-02 2.658417e-02 1.395814e-01 -1.796221e-02 -2.006752e-02 9.231306e-01 9.924683e-02 1.243106e-01 -2.357618e-01 -2.249568e-01 1.280830e-01 -3.156085e-02 -3.857003e-02 -2.252606e-01 -4.319974e-02 3.697336e-02 -1.968031e-01 2.392443e-01
<VARIANCE> 39
 3.056437e+01 2.017525e+01 2.627936e+01 2.040429e+01 2.211329e+01 2.735261e+01 2.653879e+01 2.536054e+01 2.419471e+01 1.996564e+01 2.174790e+01 1.659159e+01 3.275285e+01 6.068051e+00 1.875352e+00 2.349304e+00 2.426281e+00 2.093921e+00 2.673314e+00 2.275217e+00 2.264832e+00 2.246725e+00 2.019524e+00 1.780216e+00 1.750138e+00 1.909436e+00 6.465162e-01 4.194018e-01 4.581921e-01 5.268053e-01 5.632156e-01 5.578451e-01 4.870452e-01 5.045012e-01 5.545850e-01 4.507660e-01 4.162016e-01 3.804415e-01 2.814227e-01
<GCONST> 1.139051e+02
<STATE> 4
<MEAN> 39
 -1.394951e+01 -4.983577e+00 -4.846618e+00 -3.010353e+00 -5.035196e+00 -4.501687e+00 -6.459989e+00 -3.139374e+00 -2.945690e+00 -1.899261e+00 -1.041710e+00 -2.451046e+00 5.047533e+01 1.349945e+00 4.111466e-02 1.136268e-01 -3.966757e-01 -4.679622e-01 2.475013e-01 -1.261417e-01 -6.120725e-02 -2.761150e-01 -1.283432e-01 1.326868e-01 -3.986046e-01 4.388916e-01 1.702087e-01 2.981353e-03 8.959620e-02 -3.899824e-02 -1.316633e-01 5.768010e-02 -7.402918e-02 6.520500e-03 -3.251683e-02 -3.908941e-02 5.412820e-02 -7.961507e-02 1.560787e-01
<VARIANCE> 39
 6.112099e+01 3.285334e+01 3.289200e+01 2.797054e+01 2.523716e+01 3.294565e+01 2.519147e+01 2.677733e+01 2.711731e+01 2.334530e+01 2.140532e+01 2.018692e+01 1.487998e+02 7.152636e+00 2.477726e+00 2.576601e+00 3.055433e+00 2.857605e+00 3.265104e+00 2.362589e+00 2.713056e+00 2.933764e+00 2.516634e+00 2.198226e+00 2.354946e+00 3.593260e+00 7.789335e-01 3.848094e-01 3.503945e-01 4.337853e-01 4.869351e-01 4.928487e-01 4.497058e-01 4.679548e-01 5.194039e-01 4.366451e-01 4.179517e-01 3.651934e-01 3.511482e-01
<GCONST> 1.203329e+02
<TRANSP> 5
 0.000000e+00 1.000000e+00 0.000000e+00 0.000000e+00 0.000000e+00
 0.000000e+00 6.885781e-01 3.114219e-01 0.000000e+00 0.000000e+00
 0.000000e+00 0.000000e+00 7.843505e-01 2.156495e-01 0.000000e+00
 0.000000e+00 0.000000e+00 0.000000e+00 8.473693e-01 1.526307e-01
 0.000000e+00 0.000000e+00 0.000000e+00 0.000000e+00 0.000000e+00
<ENDHMM>
~h "g"
<BEGINHMM>
<NUMSTATES> 5
<STATE> 2
<MEAN> 39
 1.855019e+00 1.783009e+00 5.291939e+00 5.245638e-02 -1.078507e+01 -6.501650e+00 -1.039980e+01 -3.596277e+00 -7.727977e+00 -7.491425e-01 -1.993065e+00 -8.248020e+00 5.540150e+01 -8.212648e-03 1.018291e+00 5.308952e-01 9.318929e-01 7.522300e-01 -6.477127e-01 3.885259e-01 -2.103361e-01 -2.118728e-01 -9.692937e-02 -3.069922e-01 3.999397e-01 -1.174658e+00 -4.132675e-01 -5.184569e-01 -3.910904e-01 -3.510713e-01 1.026642e-01 7.293670e-02 -7.144150e-02 1.299597e-01 1.750265e-01 -7.950010e-02 9.141853e-02 1.082870e-01 8.023982e-01
<VARIANCE> 39
 3.639865e+01 5.366458e+01 5.188143e+01 4.247418e+01 6.198977e+01 5.602117e+01 5.560752e+01 6.631664e+01 5.769679e+01 4.265512e+01 4.317970e+01 3.532447e+01 9.960999e+01 3.872755e+00 4.137791e+00 3.979532e+00 3.206139e+00 5.100554e+00 4.324996e+00 3.971840e+00 4.268981e+00 4.644263e+00 3.480411e+00 3.459184e+00 3.021733e+00 7.787455e+00 6.458663e-01 6.899699e-01 6.404759e-01 5.317158e-01 1.009623e+00 8.568200e-01 7.998132e-01 7.878925e-01 8.401293e-01 7.166919e-01 7.430737e-01 5.919545e-01 1.264152e+00
<GCONST> 1.378979e+02
<STATE> 3
<MEAN> 39
 -2.927489e+00 -1.815714e-01 3.047230e+00 5.852051e-01 -6.815072e+00 -9.594368e+00 -9.995338e+00 -3.167218e+00 -7.379753e+00 -1.038737e+00 -1.973936e+00 -5.054425e+00 6.006607e+01 -1.137808e+00 -1.562784e+00 -8.032517e-01 -1.056516e+00 -3.360553e-01 -5.267990e-01 -5.375515e-01 7.464370e-01 5.092727e-01 -1.158169e-01 8.728873e-01 2.999146e-01 2.930371e+00 3.050388e-01 -2.043113e-01 5.153520e-02 -4.756716e-01 -7.778418e-01 4.140479e-01 -1.482790e-01 1.824474e-01 1.677559e-01 -8.984383e-02 3.037350e-01 -3.748521e-01 3.395644e-01
<VARIANCE> 39
 4.954195e+01 5.091165e+01 6.632111e+01 3.697956e+01 7.986496e+01 6.114776e+01 5.112531e+01 5.666963e+01 4.598289e+01 3.499138e+01 4.310677e+01 3.214126e+01 9.905960e+01 5.909497e+00 4.908668e+00 6.577263e+00 4.241653e+00 1.246263e+01 5.957763e+00 5.069500e+00 6.681703e+00 5.746223e+00 4.049454e+00 5.711192e+00 4.424506e+00 7.829792e+00 1.080947e+00 8.751261e-01 1.151050e+00 7.092562e-01 2.048202e+00 1.188112e+00 9.338874e-01 1.033732e+00 9.632676e-01 7.669870e-01 1.077033e+00 8.496624e-01 1.552979e+00
<GCONST> 1.465983e+02
<STATE> 4
<MEAN> 39
 -2.609616e+00 -3.968790e+00 2.199744e+00 -4.049283e+00 -1.233837e+01 -7.981572e+00 -1.143366e+01 4.378181e-01 -5.317635e+00 -1.190644e+00 1.345184e+00 -7.130895e+00 6.533357e+01 6.888650e-02 -1.002434e+00 -5.344369e-01 -1.359584e+00 -1.004457e+00 1.046417e+00 -2.254357e-01 8.429070e-01 7.467957e-01 -3.362031e-01 3.565573e-01 -7.850363e-01 1.511413e+00 1.313158e-01 1.210814e-01 -7.700109e-02 1.018221e-01 2.863572e-01 3.580556e-01 1.086561e-01 -2.369170e-01 -9.038813e-02 -6.957312e-02 -3.592573e-01 -8.393706e-02 -3.351667e-01
<VARIANCE> 39
 3.253135e+01 5.154850e+01 6.506374e+01 4.204670e+01 8.420570e+01 6.706968e+01 5.851594e+01 9.148042e+01 6.211673e+01 3.944427e+01 5.300230e+01 3.843223e+01 1.355497e+02 3.150448e+00 3.253517e+00 4.680859e+00 3.836263e+00 7.390219e+00 4.790521e+00 4.024444e+00 6.577200e+00 5.699658e+00 3.538568e+00 5.568077e+00 4.045403e+00 4.615925e+00 5.255749e-01 4.294701e-01 6.772993e-01 5.423129e-01 1.807572e+00 7.915965e-01 8.086256e-01 1.000380e+00 7.862526e-01 5.978675e-01 1.191331e+00 5.723630e-01 7.707992e-01
<GCONST> 1.405374e+02
<TRANSP> 5
 0.000000e+00 1.000000e+00 0.000000e+00 0.000000e+00 0.000000e+00
 0.000000e+00 7.122619e-01 2.877381e-01 0.000000e+00 0.000000e+00
 0.000000e+00 0.000000e+00 6.628137e-01 3.371863e-01 0.000000e+00
 0.000000e+00 0.000000e+00 0.000000e+00 5.164478e-01 4.835521e-01
 0.000000e+00 0.000000e+00 0.000000e+00 0.000000e+00 0.000000e+00
<ENDHMM>
~h "h"
<BEGINHMM>
<NUMSTATES> 5
<STATE> 2
<MEAN> 39
 -5.536356e+00 -5.864787e+00 -1.938083e+00 -3.287372e+00 -2.059560e+00 3.609898e-01 -5.720892e+00 -5.593585e-01 -4.902463e+00 -2.681754e+00 -4.880819e+00 -5.276892e+00 6.343493e+01 -9.174585e-01 -1.680690e-01 1.385957e-01 4.907787e-01 1.029723e+00 1.365882e-01 6.666566e-01 -6.762076e-02 3.865882e-01 -6.892442e-02 6.637946e-02 5.209831e-01 -8.788978e-01 5.523773e-02 -1.635333e-01 -9.466355e-02 -2.584868e-01 -3.663862e-01 -3.446986e-02 -2.268322e-01 -3.934971e-02 2.291750e-02 4.016763e-02 1.255224e-01 -1.125408e-01 4.072227e-02
<VARIANCE> 39
 3.911191e+01 5.005234e+01 5.852211e+01 4.221967e+01 8.510459e+01 6.029599e+01 5.738269e+01 6.686575e+01 5.497015e+01 4.781090e+01 5.409691e+01 3.974884e+01 1.105478e+02 2.090582e+00 3.067262e+00 2.841318e+00 2.792950e+00 3.699147e+00 3.219862e+00 3.180987e+00 3.474753e+00 3.027528e+00 2.826760e+00 2.934232e+00 2.483837e+00 2.204268e+00 2.622881e-01 4.652363e-01 3.671518e-01 4.731809e-01 5.784022e-01 5.514842e-01 5.546165e-01 6.188973e-01 5.446566e-01 5.065652e-01 4.989217e-01 4.260200e-01 2.370742e-01
<GCONST> 1.275093e+02
<STATE> 3
<MEAN> 39
 -7.906396e+00 -7.451772e+00 -3.362769e+00 -3.782441e+00 -5.360401e-01 6.827146e-02 -5.030556e+00 -1.194027e+00 -3.403187e+00 -2.549917e+00 -4.201018e+00 -4.443553e+00 6.108066e+01 -2.615563e-01 -4.584228e-02 -1.757338e-01 -1.906121e-01 -1.647260e-01 -2.789617e-01 -8.493686e-02 -1.901663e-01 8.859988e-02 5.589310e-02 1.360873e-01 1.306939e-01 -9.194817e-01 2.590115e-01 1.131314e-01 -2.122754e-02 -1.252378e-01 -3.396243e-01 -6.103138e-02 -2.030421e-01 -4.482871e-02 -1.142147e-01 -2.242940e-02 1.584143e-02 -1.388769e-01 4.746528e-02
<VARIANCE> 39
 4.559290e+01 5.492527e+01 5.198543e+01 3.831402e+01 6.825343e+01 5.604651e+01 5.618246e+01 5.322722e+01 5.264421e+01 4.295842e+01 4.467105e+01 3.479532e+01 1.162763e+02 1.829332e+00 2.376019e+00 2.053362e+00 2.233750e+00 2.717355e+00 2.748755e+00 2.656395e+00 2.797897e+00 2.663147e+00 2.403234e+00 2.359695e+00 2.115096e+00 2.638737e+00 2.822968e-01 3.792275e-01 3.471331e-01 4.329378e-01 5.071205e-01 5.044413e-01 5.248365e-01 5.340718e-01 4.970527e-01 4.735077e-01 4.610583e-01 4.060574e-01 2.734278e-01
<GCONST> 1.234406e+02
<STATE> 4
<MEAN> 39
 -1.005171e+01 -4.824505e+00 -3.430333e+00 -2.525837e+00 -2.168553e+00 -2.590586e+00 -4.788359e+00 -1.480650e+00 -2.903991e+00 -2.730775e+00 -2.796898e+00 -2.496010e+00 4.632826e+01 6.772022e-02 1.471924e-01 -1.526684e-02 -1.710871e-02 -1.311206e-01 -4.666299e-05 -4.437443e-02 -5.879635e-02 -2.867082e-02 1.640768e-02 3.194013e-02 -5.145538e-02 -2.456157e-01 6.961853e-02 8.877143e-03 2.433462e-02 -5.368414e-03 -3.934982e-02 2.065230e-02 -2.691828e-02 7.468813e-03 -2.196786e-02 -1.500753e-02 2.752282e-04 -3.821850e-02 1.077343e-01
<VARIANCE> 39
 2.637833e+01 6.121732e+01 3.292508e+01 2.845862e+01 3.114646e+01 3.537022e+01 3.184515e+01 3.374920e+01 3.164207e+01 2.799714e+01 2.780408e+01 2.358070e+01 1.598073e+02 1.065806e+00 1.593845e+00 1.303158e+00 1.374431e+00 1.604359e+00 1.753719e+00 1.855588e+00 1.977474e+00 1.969321e+00 1.800984e+00 1.707026e+00 1.594532e+00 1.573998e+00 1.823687e-01 2.536188e-01 2.291889e-01 2.555307e-01 3.021211e-01 3.287958e-01 3.544344e-01 3.814786e-01 3.780625e-01 3.453828e-01 3.336174e-01 3.064522e-01 1.928731e-01
<GCONST> 1.082222e+02
<TRANSP> 5
 0.000000e+00 1.000000e+00 0.000000e+00 0.000000e+00 0.000000e+00
 0.000000e+00 6.202829e-01 3.797171e-01 0.000000e+00 0.000000e+00
 0.000000e+00 0.000000e+00 4.965587e-01 5.034413e-01 0.000000e+00
 0.000000e+00 0.000000e+00 0.000000e+00 8.993388e-01 1.006612e-01
 0.000000e+00 0.000000e+00 0.000000e+00 0.000000e+00 0.000000e+00
<ENDHMM>
~h "i"
<BEGINHMM>
<NUMSTATES> 5
<STATE> 2
<MEAN> 39
 -5.834611e+00 -1.576717e+00 1.169245e+01 -1.794640e+00 -1.794739e+01 -8.545757e+00 -1.213277e+01 -5.486670e+00 -1.089013e+01 -4.877906e+00 3.236327e+00 -5.156062e+00 6.496935e+01 3.028763e-01 -4.672253e-02 2.281415e+00 -3.568581e-01 -2.565416e+00 3.253914e-01 -1.397439e+00 -4.548770e-01 -1.251405e+00 -4.895839e-01 1.544504e+00 -3.930301e-01 1.458163e+00 -3.710386e-02 8.176567e-02 -4.142753e-01 -9.479589e-02 2.763383e-01 3.559420e-01 6.061374e-02 7.481327e-02 3.262880e-01 1.804936e-01 -1.919528e-01 -8.534774e-02 -3.868452e-01
<VARIANCE> 39
 3.696814e+01 4.189686e+01 5.701879e+01 4.085419e+01 7.305289e+01 6.482386e+01 5.796370e+01 7.128699e+01 5.225566e+01 4.112229e+01 3.794112e+01 3.156389e+01 8.511543e+01 5.427125e+00 2.966154e+00 4.923452e+00 3.356360e+00 6.138491e+00 5.098550e+00 6.327638e+00 5.379112e+00 5.025330e+00 3.611419e+00 3.724743e+00 3.073442e+00 5.050163e+00 7.345763e-01 5.349922e-01 7.973878e-01 5.346164e-01 1.266582e+00 8.387349e-01 9.725406e-01 9.527802e-01 8.182198e-01 6.041256e-01 6.840641e-01 4.792002e-01 9.478716e-01
<GCONST> 1.386045e+02
<STATE> 3
<MEAN> 39
 -5.532091e+00 -1.866055e+00 1.569260e+01 -3.369433e+00 -2.350542e+01 -6.659210e+00 -1.554708e+01 -6.439908e+00 -1.284105e+01 -5.671339e+00 6.630364e+00 -6.858533e+00 6.830080e+01 1.663865e-01 3.183711e-01 -1.385891e-01 -6.382950e-03 1.094580e-01 1.067668e-01 9.206821e-02 2.144746e-02 1.469620e-01 1.814066e-01 -9.228982e-02 -9.404895e-02 -4.676307e-01 3.209851e-02 1.135289e-01 -5.648561e-01 1.417609e-01 7.104034e-01 -1.765171e-01 4.304089e-01 1.164877e-01 3.322554e-01 1.240114e-01 -4.912964e-01 1.037993e-01 -4.620896e-01
<VARIANCE> 39
 1.822186e+01 3.040955e+01 4.567079e+01 4.210769e+01 4.859000e+01 7.098859e+01 5.321680e+01 6.961151e+01 4.882845e+01 4.519254e+01 3.196073e+01 3.625888e+01 3.802941e+01 1.446835e+00 2.204839e+00 2.637922e+00 2.211743e+00 3.975571e+00 3.269930e+00 3.715417e+00 3.490684e+00 2.802306e+00 2.221897e+00 2.608303e+00 1.840116e+00 3.180100e+00 3.357646e-01 3.683746e-01 4.363155e-01 4.002385e-01 7.780552e-01 6.559666e-01 7.405311e-01 6.756417e-01 5.889844e-01 4.682715e-01 5.158182e-01 4.055839e-01 4.225095e-01
<GCONST> 1.240037e+02
<STATE> 4
<MEAN> 39
 -6.347179e+00 1.657393e+00 1.260284e+01 -3.396233e+00 -1.846827e+01 -5.253967e+00 -1.238219e+01 -7.166807e+00 -1.072013e+01 -4.196337e+00 2.272617e+00 -6.167456e+00 5.878222e+01 1.063704e-01 1.270812e-01 -7.810845e-01 1.850901e-01 7.604627e-01 -1.454572e-01 5.461344e-01 1.760112e-01 3.816996e-01 1.719821e-01 -5.167950e-01 1.225381e-01 -9.533105e-01 -9.319930e-03 -6.238847e-02 -1.290380e-01 1.918641e-02 1.425503e-01 1.407279e-02 2.699244e-02 2.636163e-02 4.487008e-02 -8.465154e-04 -7.608062e-02 1.028042e-02 2.063933e-03
<VARIANCE> 39
 2.484428e+01 3.607005e+01 7.292744e+01 4.140239e+01 7.799895e+01 7.644809e+01 6.095825e+01 5.852065e+01 4.229797e+01 3.698346e+01 4.236662e+01 3.595248e+01 1.622221e+02 1.250433e+00 1.830424e+00 1.998425e+00 1.680958e+00 2.823786e+00 2.344564e+00 2.748646e+00 2.816657e+00 2.374607e+00 1.959391e+00 2.302658e+00 1.739287e+00 2.644412e+00 1.914833e-01 2.667940e-01 2.715257e-01 2.889034e-01 4.621988e-01 4.436209e-01 4.626365e-01 4.804457e-01 4.018152e-01 3.610141e-01 3.971429e-01 3.068242e-01 3.308138e-01
<GCONST> 1.192581e+02
<TRANSP> 5
 0.000000e+00 1.000000e+00 0.000000e+00 0.000000e+00 0.000000e+00
 0.000000e+00 6.617957e-01 3.382043e-01 0.000000e+00 0.000000e+00
 0.000000e+00 0.000000e+00 6.810379e-01 3.189621e-01 0.000000e+00
 0.000000e+00 0.000000e+00 0.000000e+00 8.603191e-01 1.396809e-01
 0.000000e+00 0.000000e+00 0.000000e+00 0.000000e+00 0.000000e+00
<ENDHMM>
~h "j"
<BEGINHMM>
<NUMSTATES> 5
<STATE> 2
<MEAN> 39
 -2.258175e+00 5.225196e+00 7.442568e+00 1.264071e+00 -9.199546e+00 -7.091578e+00 -8.146308e+00 -1.906714e+00 -4.291445e+00 -5.259474e+00 -3.263141e+00 -4.254979e+00 5.350423e+01 -4.660463e-01 1.073604e+00 4.048173e-01 1.935902e-01 1.089475e+00 1.007291e-01 5.806210e-01 -4.651083e-02 2.138163e-01 -8.005573e-02 -2.499657e-01 2.342651e-01 -6.919760e-01 -5.331910e-01 -3.773270e-01 -2.326678e-01 -2.958996e-01 2.554661e-02 6.050901e-02 -1.341013e-01 -1.704423e-01 -8.680075e-02 6.471259e-02 2.249024e-01 5.992650e-02 7.428776e-01
<VARIANCE> 39
 5.635027e+01 4.578885e+01 4.520059e+01 2.952962e+01 4.903696e+01 4.206393e+01 4.442638e+01 4.240005e+01 4.070084e+01 3.311129e+01 2.779743e+01 2.159796e+01 1.031215e+02 7.449571e+00 4.032798e+00 2.935740e+00 2.954770e+00 3.843439e+00 3.234373e+00 3.645843e+00 4.383149e+00 3.416970e+00 2.744447e+00 2.721167e+00 2.333116e+00 8.137273e+00 1.333719e+00 6.687899e-01 4.962494e-01 5.184793e-01 7.959062e-01 6.782514e-01 6.822957e-01 7.905166e-01 6.708426e-01 5.278336e-01 5.516956e-01 5.121402e-01 1.322304e+00
<GCONST> 1.324508e+02
<STATE> 3
<MEAN> 39
 -1.357748e+01 6.218549e+00 7.103572e+00 -1.547820e+00 -4.381467e+00 -6.404700e+00 -6.860780e+00 -5.570602e+00 -5.277065e+00 -4.960124e+00 -1.754826e+00 -1.498768e+00 6.239334e+01 -1.760188e+00 -1.315728e+00 1.652646e-01 -7.445916e-01 -1.463978e+00 -1.164910e+00 -8.528566e-01 -5.037289e-01 -5.019442e-01 -1.767690e-01 1.194404e+00 9.772993e-01 3.698967e+00 1.424083e+00 -5.891129e-01 1.463553e-01 9.932350e-02 -1.240599e+00 -2.825093e-01 -5.755557e-01 5.077300e-01 1.595387e-01 -8.872138e-02 2.218185e-01 -2.716798e-01 -6.275214e-02
<VARIANCE> 39
 6.297104e+01 3.899897e+01 4.721779e+01 2.554186e+01 4.405949e+01 4.605835e+01 3.266107e+01 3.023672e+01 2.808088e+01 2.265349e+01 2.000645e+01 1.895115e+01 6.863513e+01 1.379574e+01 4.350006e+00 4.757050e+00 4.003499e+00 9.561641e+00 4.910273e+00 4.124414e+00 4.242851e+00 3.596804e+00 2.635045e+00 2.732020e+00 2.293524e+00 4.717997e+00 1.893185e+00 9.005786e-01 8.681349e-01 7.214472e-01 1.309096e+00 1.072384e+00 7.078911e-01 1.028270e+00 8.518870e-01 5.531455e-01 5.361444e-01 6.221563e-01 1.117107e+00
<GCONST> 1.354471e+02
<STATE> 4
<MEAN> 39
 -6.054972e+00 -3.346537e+00 8.294285e+00 -3.458890e+00 -1.750051e+01 -1.170967e+01 -1.394477e+01 -5.460835e-01 -4.465051e+00 -5.690980e+00 3.436100e+00 -1.672738e+00 7.187382e+01 2.285756e+00 -2.889745e+00 -1.326096e+00 -8.251458e-01 -1.945561e+00 3.535069e-01 -1.369519e+00 2.001636e+00 1.277173e+00 1.833935e-01 4.366270e-01 -1.540749e+00 1.423221e+00 -4.216784e-02 2.681850e-01 -6.520093e-01 -7.662727e-02 1.097682e+00 8.840419e-01 4.587925e-01 -7.892733e-02 1.419969e-01 1.782350e-01 -5.826358e-01 -5.575004e-01 -6.635889e-01
<VARIANCE> 39
 2.765690e+01 4.182397e+01 3.953577e+01 3.931092e+01 4.929369e+01 3.427204e+01 4.089352e+01 6.604604e+01 4.978511e+01 3.410874e+01 2.630302e+01 2.641590e+01 3.509520e+01 3.380047e+00 4.017246e+00 4.733141e+00 2.977241e+00 8.291687e+00 5.103036e+00 5.389432e+00 7.278196e+00 4.437533e+00 3.019902e+00 4.716493e+00 2.997544e+00 2.120859e+00 9.940776e-01 6.387593e-01 5.340434e-01 5.698189e-01 1.177136e+00 7.338691e-01 7.673603e-01 1.195419e+00 7.613386e-01 5.572838e-01 7.587391e-01 5.508959e-01 2.627911e-01
<GCONST> 1.326736e+02
<TRANSP> 5
 0.000000e+00 1.000000e+00 0.000000e+00 0.000000e+00 0.000000e+00
 0.000000e+00 8.234123e-01 1.765877e-01 0.000000e+00 0.000000e+00
 0.000000e+00 0.000000e+00 7.001541e-01 2.998459e-01 0.000000e+00
 0.000000e+00 0.000000e+00 0.000000e+00 6.806502e-01 3.193498e-01
 0.000000e+00 0.000000e+00 0.000000e+00 0.000000e+00 0.000000e+00
<ENDHMM>
~h "k"
<BEGINHMM>
<NUMSTATES> 5
<STATE> 2
<MEAN> 39
 -7.261468e+00 4.585900e-01 -1.768252e+00 -2.924369e+00 -6.448745e+00 -5.087180e+00 -7.105248e+00 -3.847141e+00 -4.621686e+00 -1.051429e+00 -2.531875e+00 -4.150467e+00 4.428122e+01 -9.069000e-01 -1.498068e-01 -4.867545e-01 1.914669e-01 7.222188e-01 -3.560489e-01 1.542477e-01 1.151907e-01 2.752393e-01 7.364127e-02 -1.140270e-01 5.451559e-01 -9.630805e-01 -7.785761e-02 -4.413583e-01 -2.621704e-01 -1.952129e-01 1.655795e-02 4.176680e-02 -8.895658e-02 1.395033e-01 8.016239e-03 2.143489e-02 1.939894e-02 -4.513039e-02 9.513175e-01
<VARIANCE> 39
 4.747414e+01 4.100776e+01 5.449060e+01 4.005752e+01 5.348711e+01 5.020613e+01 4.562124e+01 4.962233e+01 4.685017e+01 3.668001e+01 3.675509e+01 3.554491e+01 1.254188e+02 2.779694e+00 4.080692e+00 3.563031e+00 3.154384e+00 4.323160e+00 3.624072e+00 3.667168e+00 3.697472e+00 3.557347e+00 3.145291e+00 2.969040e+00 2.549632e+00 1.019945e+01 4.835477e-01 7.011097e-01 6.475212e-01 6.227425e-01 8.147532e-01 7.225616e-01 7.516177e-01 7.153639e-01 7.158028e-01 6.676350e-01 6.115917e-01 5.039066e-01 1.683742e+00
<GCONST> 1.344493e+02
<STATE> 3
<MEAN> 39
 -1.075969e+01 -4.232471e+00 -6.130045e+00 -3.379980e+00 -2.873600e+00 -6.397326e+00 -8.009894e+00 -2.660841e+00 -3.911585e+00 6.080008e-02 -3.196941e+00 -2.378768e+00 5.107159e+01 -4.831852e-01 -1.590063e+00 -1.470668e+00 -7.717071e-01 5.992561e-01 -3.754654e-01 -4.107408e-01 7.288507e-01 3.473879e-02 3.921826e-01 -2.399755e-01 -5.295340e-02 4.082681e+00 7.086014e-01 1.696484e-01 4.044024e-01 -2.796742e-01 -7.457740e-01 2.239411e-01 -1.112050e-01 2.942364e-02 -1.082282e-01 -2.201529e-01 1.706524e-01 -5.442228e-01 6.941532e-01
<VARIANCE> 39
 4.270497e+01 5.813538e+01 7.422035e+01 4.884151e+01 6.459833e+01 5.987988e+01 5.004412e+01 4.863655e+01 4.622731e+01 3.746910e+01 3.613446e+01 3.100178e+01 1.567819e+02 5.142174e+00 6.089313e+00 7.736248e+00 5.120121e+00 7.797984e+00 6.064162e+00 5.721700e+00 5.713302e+00 5.321812e+00 4.663832e+00 4.039246e+00 4.181239e+00 1.665135e+01 8.257790e-01 1.088112e+00 1.342141e+00 8.692424e-01 1.419322e+00 1.131136e+00 1.025660e+00 9.602267e-01 9.206135e-01 8.939877e-01 7.885361e-01 7.965551e-01 2.325575e+00
<GCONST> 1.472876e+02
<STATE> 4
<MEAN> 39
 -7.643290e+00 -6.574124e+00 -7.085959e+00 -6.560686e+00 -5.767577e+00 -6.579133e+00 -9.407457e+00 -1.787097e-01 -4.164944e+00 -4.659627e-01 -3.024058e+00 -6.055511e+00 6.335793e+01 1.699558e+00 -3.912508e-01 6.812314e-01 -8.944474e-01 -1.716974e+00 6.318698e-01 -3.263474e-01 4.817051e-01 -4.959257e-02 -7.231428e-01 5.588747e-01 -1.582904e+00 2.956237e+00 2.961040e-01 1.409231e-01 3.954532e-01 1.230245e-01 -2.883126e-01 4.112723e-01 6.849600e-02 -2.015992e-01 3.690897e-02 -2.649092e-01 2.007020e-01 -1.418017e-01 -7.011467e-01
<VARIANCE> 39
 4.471466e+01 5.036867e+01 7.581751e+01 4.778244e+01 6.757615e+01 7.865195e+01 4.678777e+01 5.807226e+01 5.602300e+01 4.336890e+01 4.297781e+01 4.810517e+01 1.148728e+02 5.064271e+00 5.080786e+00 5.785378e+00 4.474215e+00 6.443451e+00 6.227534e+00 4.614163e+00 5.831542e+00 5.284164e+00 4.537098e+00 4.396679e+00 5.327904e+00 1.080973e+01 9.478179e-01 7.751409e-01 1.248927e+00 7.254515e-01 1.498707e+00 1.030492e+00 9.051629e-01 9.432663e-01 8.746259e-01 8.149953e-01 8.548453e-01 8.818805e-01 1.456229e+00
<GCONST> 1.460723e+02
<TRANSP> 5
 0.000000e+00 1.000000e+00 0.000000e+00 0.000000e+00 0.000000e+00
 0.000000e+00 7.626327e-01 2.373673e-01 0.000000e+00 0.000000e+00
 0.000000e+00 0.000000e+00 5.788090e-01 4.211910e-01 0.000000e+00
 0.000000e+00 0.000000e+00 0.000000e+00 5.940862e-01 4.059137e-01
 0.000000e+00 0.000000e+00 0.000000e+00 0.000000e+00 0.000000e+00
<ENDHMM>
~h "l"
<BEGINHMM>
<NUMSTATES> 5
<STATE> 2
<MEAN> 39
 1.124002e+00 -9.749015e+00 -2.066287e+00 -7.734485e+00 -1.386629e+01 -2.739385e-01 -1.509609e+01 -7.849414e+00 2.468632e-01 5.086789e-01 8.276325e-02 -8.740768e+00 6.965005e+01 6.225569e-01 -2.940354e-01 5.141231e-01 -4.952813e-01 -1.319552e-01 4.579542e-01 -1.189378e+00 -8.683264e-01 4.501428e-01 1.108670e+00 3.701672e-02 -2.012854e-01 -1.960014e-01 -1.632958e-01 1.635332e-01 9.710599e-03 -1.187712e-01 1.077341e-01 3.992466e-02 8.588319e-02 1.524848e-01 -1.815642e-01 -1.520884e-01 3.781961e-02 4.153090e-02 -4.329406e-02
<VARIANCE> 39
 2.471101e+01 3.592721e+01 6.204372e+01 6.673055e+01 5.775109e+01 1.058695e+02 7.019843e+01 1.274939e+02 8.167170e+01 6.276718e+01 5.488660e+01 4.451283e+01 5.346107e+01 1.278589e+00 2.027885e+00 3.627482e+00 4.152426e+00 4.677862e+00 5.718881e+00 4.182046e+00 5.500381e+00 4.653547e+00 4.096890e+00 4.014186e+00 3.220469e+00 1.833287e+00 2.556981e-01 3.104410e-01 4.774460e-01 6.163024e-01 7.864692e-01 8.537625e-01 7.886100e-01 1.035442e+00 7.846830e-01 7.872549e-01 6.527280e-01 5.113211e-01 2.190362e-01
<GCONST> 1.336796e+02
<STATE> 3
<MEAN> 39
 2.276276e+00 -1.002899e+01 -9.467380e-01 -1.004995e+01 -1.383070e+01 1.780756e+00 -1.810091e+01 -9.961699e+00 6.707736e-01 3.415511e+00 4.522543e-01 -9.158081e+00 6.935795e+01 -7.875185e-02 1.207850e-01 -3.732126e-02 -2.933664e-01 2.127856e-01 8.951535e-02 -1.941079e-01 2.870304e-01 -3.125095e-02 1.767586e-02 -1.269051e-01 -7.084160e-02 -3.165221e-02 -2.502637e-01 7.279035e-02 -2.627415e-01 1.487743e-01 1.215068e-01 -8.908588e-02 4.838897e-01 4.260185e-01 -1.307849e-01 -4.977449e-01 -1.135027e-01 2.771290e-03 1.027778e-01
<VARIANCE> 39
 2.039611e+01 3.092015e+01 5.629855e+01 7.039382e+01 5.213386e+01 8.782226e+01 8.073339e+01 1.185342e+02 8.093918e+01 6.020005e+01 5.095154e+01 4.093805e+01 4.138512e+01 8.621105e-01 1.619700e+00 3.418872e+00 3.258948e+00 2.978018e+00 4.728875e+00 3.970874e+00 6.134952e+00 4.248554e+00 4.063379e+00 3.171785e+00 2.752327e+00 1.354905e+00 1.442683e-01 3.151729e-01 4.194080e-01 5.649074e-01 6.864213e-01 7.415334e-01 8.133795e-01 8.807315e-01 7.914455e-01 7.525859e-01 6.482253e-01 5.251403e-01 1.819943e-01
<GCONST> 1.289239e+02
<STATE> 4
<MEAN> 39
 1.243587e+00 -8.601973e+00 -1.904667e+00 -1.079669e+01 -1.216057e+01 2.300546e+00 -1.701310e+01 -6.152247e+00 -5.676259e-01 1.648647e+00 -1.228765e+00 -9.310191e+00 6.783086e+01 -4.162153e-01 1.981350e-01 -2.810508e-01 3.210633e-01 4.017727e-01 -2.236797e-01 7.848703e-01 5.705273e-01 -2.310475e-01 -7.137412e-01 -3.715014e-01 4.580522e-02 -1.802145e-01 -9.172212e-02 1.352426e-02 -1.382727e-02 1.197164e-01 1.729692e-02 -3.071533e-02 1.913781e-01 3.362169e-02 -7.299297e-02 -1.467733e-01 1.042591e-02 5.052517e-02 -9.535547e-03
<VARIANCE> 39
 2.328882e+01 4.505690e+01 6.465051e+01 7.141908e+01 5.677053e+01 9.190945e+01 8.000089e+01 1.020096e+02 7.917713e+01 6.711113e+01 5.593576e+01 4.258305e+01 8.245740e+01 7.763849e-01 1.936392e+00 2.339333e+00 2.471682e+00 2.749325e+00 3.484710e+00 3.525428e+00 4.200528e+00 3.263519e+00 3.451308e+00 3.089305e+00 2.333472e+00 1.736286e+00 1.275960e-01 2.667468e-01 2.875832e-01 3.783704e-01 5.053201e-01 5.177990e-01 6.036270e-01 6.189009e-01 5.358067e-01 5.636381e-01 5.315129e-01 3.994718e-01 1.807918e-01
<GCONST> 1.250884e+02
<TRANSP> 5
 0.000000e+00 1.000000e+00 0.000000e+00 0.000000e+00 0.000000e+00
 0.000000e+00 5.474073e-01 4.525927e-01 0.000000e+00 0.000000e+00
 0.000000e+00 0.000000e+00 5.626343e-01 4.373657e-01 0.000000e+00
 0.000000e+00 0.000000e+00 0.000000e+00 7.062572e-01 2.937428e-01
 0.000000e+00 0.000000e+00 0.000000e+00 0.000000e+00 0.000000e+00
<ENDHMM>
~h "m"
<BEGINHMM>
<NUMSTATES> 5
<STATE> 2
<MEAN> 39
 2.033876e+00 -4.208673e+00 -9.241029e-01 -5.249022e+00 -9.161152e+00 1.123953e+00 -1.025479e+01 -8.625408e+00 -1.005093e+01 -2.051939e+00 -7.176232e-01 -8.788643e+00 6.153538e+01 5.380383e-01 1.009284e+00 1.310180e+00 1.371073e+00 1.717044e-01 1.484244e-01 7.049517e-01 -2.124335e+00 -2.367070e+00 1.237769e-01 -4.958170e-01 2.340811e-01 -9.349087e-01 -2.062640e-01 -1.484988e-01 9.088753e-02 -3.148710e-02 -5.870294e-02 -6.462067e-03 4.343840e-02 1.160522e-01 5.194779e-02 -1.051127e-01 -9.402632e-02 3.784553e-02 2.334766e-01
<VARIANCE> 39
 3.143553e+01 4.206858e+01 4.331606e+01 7.001921e+01 5.608521e+01 8.304942e+01 5.876334e+01 7.439056e+01 7.662835e+01 5.657548e+01 6.535457e+01 4.209848e+01 1.008847e+02 1.582645e+00 2.819113e+00 3.647559e+00 3.897029e+00 3.514983e+00 3.951803e+00 3.953581e+00 5.441816e+00 5.714612e+00 4.234086e+00 5.535193e+00 3.378996e+00 3.877082e+00 2.564900e-01 3.657398e-01 4.967170e-01 6.743178e-01 5.204729e-01 5.069337e-01 5.994142e-01 9.021554e-01 9.569021e-01 5.924516e-01 8.421502e-01 5.134469e-01 3.367060e-01
<GCONST> 1.340370e+02
<STATE> 3
<MEAN> 39
 3.301230e+00 -2.799665e+00 2.690300e+00 -1.920666e+00 -9.428366e+00 1.737071e+00 -8.631777e+00 -1.396661e+01 -1.633034e+01 -1.938322e+00 -2.048945e+00 -8.058103e+00 6.151122e+01 -8.262590e-03 5.776535e-02 3.062898e-01 5.014350e-02 9.151311e-02 1.893298e-01 2.567589e-01 -2.928699e-01 -4.270518e-01 -1.955539e-01 -2.094938e-01 8.624466e-02 9.358637e-02 -1.328467e-01 -2.541807e-01 -4.573892e-01 -5.382132e-01 -2.595303e-02 -3.565295e-02 -2.339806e-01 7.760386e-01 8.576683e-01 -8.335299e-02 1.750197e-01 -1.252510e-01 2.876702e-01
<VARIANCE> 39
 1.732243e+01 2.560889e+01 2.708927e+01 4.973572e+01 5.677484e+01 9.035349e+01 6.141229e+01 6.175798e+01 7.669718e+01 7.417735e+01 6.979382e+01 4.126799e+01 4.102991e+01 7.794433e-01 1.810144e+00 2.891628e+00 3.836190e+00 1.942651e+00 2.769434e+00 2.644144e+00 4.307063e+00 5.448542e+00 2.948508e+00 4.043358e+00 2.475976e+00 2.510927e+00 1.670988e-01 2.853330e-01 4.291748e-01 5.519398e-01 4.320804e-01 4.942280e-01 5.349813e-01 7.875289e-01 9.385777e-01 6.666145e-01 7.971249e-01 5.235507e-01 2.787937e-01
<GCONST> 1.254429e+02
<STATE> 4
<MEAN> 39
 1.502560e+00 -2.184068e+00 2.082911e+00 -4.200250e+00 -9.093073e+00 2.517697e+00 -7.958980e+00 -1.034504e+01 -1.250470e+01 -3.855229e+00 -2.908571e+00 -7.922537e+00 5.950441e+01 -1.513772e-01 -1.308879e-01 -5.286795e-01 -5.150416e-01 8.423986e-02 -6.854223e-02 -2.303395e-01 7.378443e-01 9.913330e-01 2.174284e-04 2.541191e-01 -4.584555e-02 1.657896e-01 -5.973451e-02 -9.781061e-02 -1.260142e-01 -7.177915e-02 1.131910e-02 -4.180664e-02 -1.382037e-01 1.909478e-01 2.584934e-01 1.345059e-02 7.480949e-02 -2.507362e-02 7.876691e-02
<VARIANCE> 39
 2.945138e+01 3.374083e+01 4.063148e+01 6.068980e+01 7.140855e+01 8.303880e+01 6.250229e+01 6.626630e+01 8.069434e+01 5.898746e+01 6.544681e+01 4.139558e+01 1.031036e+02 6.346971e-01 1.918573e+00 2.618726e+00 3.043893e+00 1.986743e+00 2.488106e+00 2.776700e+00 3.351896e+00 4.703578e+00 2.486660e+00 3.352800e+00 2.118445e+00 2.449760e+00 1.240480e-01 2.199096e-01 3.694208e-01 4.764967e-01 3.549615e-01 3.941811e-01 4.242951e-01 5.007083e-01 6.391940e-01 3.995790e-01 5.979643e-01 3.575709e-01 2.059434e-01
<GCONST> 1.224889e+02
<TRANSP> 5
 0.000000e+00 1.000000e+00 0.000000e+00 0.000000e+00 0.000000e+00
 0.000000e+00 5.677544e-01 4.322456e-01 0.000000e+00 0.000000e+00
 0.000000e+00 0.000000e+00 6.089959e-01 3.910041e-01 0.000000e+00
 0.000000e+00 0.000000e+00 0.000000e+00 7.898937e-01 2.101063e-01
 0.000000e+00 0.000000e+00 0.000000e+00 0.000000e+00 0.000000e+00
<ENDHMM>
~h "n"
<BEGINHMM>
<NUMSTATES> 5
<STATE> 2
<MEAN> 39
 1.589676e+00 -7.179301e+00 9.319165e-01 -2.855574e+00 -1.324469e+01 -5.264204e+00 -1.337146e+01 -3.400238e+00 -4.307573e+00 -1.809814e+00 -5.962183e+00 -9.822820e+00 6.665289e+01 8.150605e-01 1.959704e+00 1.513197e+00 1.463763e+00 -3.527344e-01 -1.086439e+00 6.195619e-01 -2.765280e+00 -8.756229e-01 1.281027e+00 -1.356746e+00 4.764751e-01 -1.997235e+00 -1.391266e-01 3.475688e-02 -5.410058e-02 -2.155920e-01 3.611101e-02 2.457620e-01 2.330248e-01 -1.254051e-01 -8.606312e-02 -4.696068e-02 7.979356e-02 1.176685e-01 8.080733e-02
<VARIANCE> 39
 1.559768e+01 4.495505e+01 4.510518e+01 4.070041e+01 4.746578e+01 6.260989e+01 5.291733e+01 1.213288e+02 6.273852e+01 5.090088e+01 5.182391e+01 4.393333e+01 5.003712e+01 9.769864e-01 2.573165e+00 3.514314e+00 2.637285e+00 3.542402e+00 4.583224e+00 3.996353e+00 6.450850e+00 3.862464e+00 4.171153e+00 3.710975e+00 3.489464e+00 2.005884e+00 1.639807e-01 4.419937e-01 4.183829e-01 4.651909e-01 5.251477e-01 6.549067e-01 6.882997e-01 1.380007e+00 5.711370e-01 6.602079e-01 5.680966e-01 4.454065e-01 3.341017e-01
<GCONST> 1.286176e+02
<STATE> 3
<MEAN> 39
 3.085925e+00 -2.446364e+00 3.963543e+00 -1.585448e-01 -1.438299e+01 -6.957184e+00 -1.041741e+01 -1.108390e+01 -6.680211e+00 1.287035e+00 -8.237570e+00 -8.451693e+00 6.227444e+01 1.418716e-01 8.389634e-01 4.591928e-01 2.521201e-01 -2.229451e-02 6.979689e-03 4.792260e-01 -7.890648e-01 -5.360465e-01 2.869152e-01 -4.081672e-01 4.210432e-01 -7.903539e-01 -2.868847e-01 -4.096444e-01 -3.622001e-01 -3.717256e-01 2.075151e-01 3.065048e-01 -1.880398e-01 8.266168e-01 2.113248e-01 -4.425057e-01 4.466133e-01 -5.205654e-02 3.729875e-01
<VARIANCE> 39
 1.429772e+01 2.513519e+01 2.829347e+01 3.884023e+01 4.815215e+01 7.908750e+01 5.495749e+01 7.074471e+01 6.406842e+01 4.269348e+01 5.330382e+01 5.564005e+01 3.228232e+01 8.896351e-01 2.403889e+00 2.242819e+00 2.221104e+00 2.670393e+00 3.057917e+00 3.186150e+00 5.972050e+00 3.472642e+00 3.193382e+00 2.920717e+00 2.418161e+00 2.230005e+00 1.883514e-01 3.754556e-01 4.659884e-01 4.613295e-01 5.630954e-01 6.450865e-01 6.030921e-01 9.199928e-01 6.434538e-01 6.751305e-01 6.027772e-01 5.239640e-01 3.320750e-01
<GCONST> 1.241555e+02
<STATE> 4
<MEAN> 39
 1.140117e+00 1.477163e-01 4.635728e+00 2.617227e-01 -1.168401e+01 -5.665496e+00 -9.097087e+00 -9.069113e+00 -7.623243e+00 -6.021734e-01 -8.127920e+00 -6.400426e+00 5.629171e+01 -4.081132e-01 2.644221e-01 -1.580459e-01 -3.596987e-02 5.602897e-01 2.177489e-01 9.141771e-02 4.674331e-01 8.254714e-02 -3.504204e-01 3.580068e-01 1.698558e-01 -6.931807e-01 -1.609838e-01 -1.497798e-01 -1.204526e-01 -1.139619e-01 9.201540e-02 4.505714e-02 -7.666504e-02 2.278540e-01 1.236259e-01 -1.090244e-01 1.646109e-01 -4.457873e-02 1.124504e-01
<VARIANCE> 39
 2.976978e+01 3.096358e+01 3.425357e+01 3.725786e+01 6.734113e+01 7.060703e+01 5.850381e+01 5.937198e+01 5.366131e+01 4.953464e+01 5.727897e+01 4.684723e+01 9.376321e+01 1.126765e+00 2.095925e+00 1.729767e+00 1.987900e+00 2.487311e+00 2.443104e+00 2.443256e+00 3.473859e+00 2.758297e+00 2.774302e+00 2.558745e+00 1.979679e+00 2.513853e+00 2.139170e-01 3.190152e-01 3.012057e-01 3.578263e-01 4.731103e-01 4.465552e-01 4.574132e-01 6.153331e-01 5.089816e-01 5.065261e-01 4.773355e-01 3.770550e-01 2.855910e-01
<GCONST> 1.211544e+02
<TRANSP> 5
 0.000000e+00 1.000000e+00 0.000000e+00 0.000000e+00 0.000000e+00
 0.000000e+00 5.764822e-01 4.235178e-01 0.000000e+00 0.000000e+00
 0.000000e+00 0.000000e+00 5.678403e-01 4.321598e-01 0.000000e+00
 0.000000e+00 0.000000e+00 0.000000e+00 8.116078e-01 1.883922e-01
 0.000000e+00 0.000000e+00 0.000000e+00 0.000000e+00 0.000000e+00
<ENDHMM>
~h "o"
<BEGINHMM>
<NUMSTATES> 5
<STATE> 2
<MEAN> 39
 1.237377e-01 -3.981157e+00 -7.077945e+00 -1.254917e+01 -1.121754e+01 2.510065e+00 -1.157965e+01 -5.610049e+00 -3.460308e+00 -1.430473e+00 1.853163e+00 -6.933471e+00 6.549399e+01 1.459320e+00 -5.614933e-01 -9.310566e-01 -2.401251e+00 -1.383580e+00 2.395591e+00 -4.340954e-01 -1.682314e-02 4.433890e-01 -1.906196e-01 1.426115e+00 -8.377583e-01 2.011905e+00 -2.535664e-01 5.392551e-02 2.518984e-01 2.184180e-01 1.006039e-01 3.488398e-02 2.000531e-01 1.140458e-02 -9.334055e-02 -6.485722e-02 -4.677205e-02 1.141683e-01 -4.276425e-01
<VARIANCE> 39
 3.444770e+01 3.930766e+01 5.626730e+01 9.964309e+01 7.015223e+01 8.764724e+01 6.897386e+01 7.125352e+01 7.595730e+01 6.037846e+01 5.273971e+01 4.221375e+01 1.127796e+02 4.251889e+00 2.882909e+00 5.028543e+00 6.505162e+00 7.700516e+00 5.968270e+00 4.383936e+00 5.587490e+00 5.444476e+00 5.337779e+00 4.440871e+00 3.932387e+00 6.496152e+00 7.796217e-01 5.115139e-01 7.371727e-01 1.187432e+00 1.136575e+00 1.079144e+00 8.265415e-01 8.363034e-01 9.921854e-01 7.924440e-01 7.318572e-01 7.014796e-01 1.154120e+00
<GCONST> 1.447475e+02
<STATE> 3
<MEAN> 39
 2.442137e+00 -5.682600e+00 -9.018497e+00 -1.767888e+01 -1.394765e+01 8.434319e+00 -1.181627e+01 -6.448695e+00 -2.146695e+00 -2.793171e+00 5.861069e+00 -8.208413e+00 7.048849e+01 1.746050e-01 -2.053308e-01 -1.665900e-01 -6.079962e-01 -1.199057e-01 9.791903e-01 1.018989e-01 6.893870e-02 -1.185628e-02 -1.380250e-01 4.260800e-01 -1.343948e-01 1.973397e-01 -2.952724e-01 1.856516e-01 2.809174e-01 6.953595e-01 4.111547e-01 -7.238116e-01 1.194221e-01 3.995740e-03 -1.464108e-01 8.274492e-02 -5.409786e-01 2.185091e-01 -5.559371e-01
<VARIANCE> 39
 1.589752e+01 3.369903e+01 3.749158e+01 8.211737e+01 5.800712e+01 6.633852e+01 6.009266e+01 8.378185e+01 7.389732e+01 6.987683e+01 5.234041e+01 4.298051e+01 3.647023e+01 9.078550e-01 2.078351e+00 1.800155e+00 4.596737e+00 3.261478e+00 4.180575e+00 3.309651e+00 3.448220e+00 3.831716e+00 3.561221e+00 2.987524e+00 2.574780e+00 2.495965e+00 3.080151e-01 3.295653e-01 3.941480e-01 6.143552e-01 8.183922e-01 6.791304e-01 5.894137e-01 7.160527e-01 7.027900e-01 7.203147e-01 5.669503e-01 5.453039e-01 3.736834e-01
<GCONST> 1.280059e+02
<STATE> 4
<MEAN> 39
 2.456409e+00 -4.327781e+00 -8.113139e+00 -1.832514e+01 -1.281023e+01 8.635143e+00 -1.174975e+01 -5.205779e+00 -4.029590e+00 -2.488487e+00 3.424613e+00 -7.788273e+00 6.700402e+01 -9.429196e-02 2.047276e-01 3.120407e-01 9.154225e-01 3.831452e-01 -7.406011e-01 8.584481e-02 -1.229996e-01 -4.499263e-02 1.946319e-01 -5.902120e-01 6.863897e-02 -8.566592e-01 -6.280702e-02 6.939699e-02 1.437704e-01 2.926959e-01 7.641287e-02 -2.525885e-01 2.309296e-02 -4.889612e-02 -9.950332e-03 1.597076e-02 -1.532285e-01 5.929583e-02 -1.693262e-01
<VARIANCE> 39
 1.678216e+01 4.391011e+01 3.688131e+01 7.539371e+01 6.350372e+01 6.342599e+01 5.938884e+01 6.766745e+01 6.237986e+01 6.855408e+01 4.837639e+01 4.417932e+01 8.894753e+01 6.819106e-01 1.524734e+00 1.529611e+00 3.310858e+00 2.422661e+00 3.093709e+00 2.518748e+00 2.529186e+00 2.616165e+00 2.660275e+00 2.558171e+00 2.057708e+00 2.199989e+00 1.268614e-01 2.457837e-01 2.426015e-01 3.970204e-01 4.022674e-01 4.584188e-01 4.479049e-01 4.351144e-01 4.539087e-01 4.788608e-01 4.272959e-01 3.883093e-01 2.712899e-01
<GCONST> 1.194815e+02
<TRANSP> 5
 0.000000e+00 1.000000e+00 0.000000e+00 0.000000e+00 0.000000e+00
 0.000000e+00 5.977222e-01 4.022778e-01 0.000000e+00 0.000000e+00
 0.000000e+00 0.000000e+00 5.500888e-01 4.499112e-01 0.000000e+00
 0.000000e+00 0.000000e+00 0.000000e+00 8.576836e-01 1.423164e-01
 0.000000e+00 0.000000e+00 0.000000e+00 0.000000e+00 0.000000e+00
<ENDHMM>
~h "p"
<BEGINHMM>
<NUMSTATES> 5
<STATE> 2
<MEAN> 39
 -4.687131e+00 1.699548e+00 -1.861386e+00 -3.494804e+00 -5.990722e+00 -2.465046e+00 -6.407651e+00 -5.320367e+00 -4.855748e+00 -1.872689e+00 -2.347343e+00 -4.838854e+00 4.182770e+01 -8.914443e-01 3.324724e-01 -8.777735e-02 2.483122e-01 3.550174e-01 -4.113743e-01 2.976938e-01 1.437005e-01 3.191696e-01 5.175507e-02 -1.266677e-01 3.769108e-01 -1.442490e+00 -7.837261e-02 -3.574555e-01 -1.128720e-01 -1.570876e-01 -1.185509e-01 3.207335e-02 -7.916190e-02 6.670660e-02 5.463583e-02 3.489381e-03 9.936897e-02 -3.042007e-02 7.828435e-01
<VARIANCE> 39
 5.063280e+01 3.274012e+01 3.709512e+01 3.812519e+01 3.183191e+01 3.984681e+01 3.322368e+01 3.602585e+01 4.126869e+01 3.003307e+01 3.195253e+01 3.377243e+01 8.464186e+01 1.997502e+00 2.507793e+00 2.013278e+00 2.288648e+00 2.404061e+00 2.471156e+00 2.271221e+00 2.745022e+00 3.072717e+00 2.431998e+00 2.742365e+00 2.094011e+00 6.495514e+00 4.172787e-01 4.881600e-01 4.242730e-01 5.033373e-01 4.789139e-01 5.088089e-01 4.715801e-01 5.475318e-01 5.782977e-01 4.943037e-01 5.559641e-01 4.243835e-01 1.096515e+00
<GCONST> 1.229986e+02
<STATE> 3
<MEAN> 39
 -7.290633e+00 3.433303e-01 -2.512986e+00 -3.628614e+00 -5.507878e+00 -3.557952e+00 -6.126265e+00 -4.758576e+00 -3.655426e+00 -1.913926e+00 -1.996277e+00 -3.652423e+00 4.587471e+01 1.028976e-01 -2.008314e+00 -1.025747e+00 -1.315072e+00 -2.317701e-01 5.200653e-01 -2.312857e-01 2.642337e-01 4.257701e-01 4.196484e-02 8.060496e-01 -3.122657e-01 5.040997e+00 7.526852e-01 -5.832730e-01 -1.868884e-01 -4.992061e-01 -4.776883e-01 4.966970e-01 -3.614554e-01 1.513639e-02 -1.179166e-01 -3.276985e-02 2.353241e-01 -5.397851e-01 1.446878e+00
<VARIANCE> 39
 3.644427e+01 3.425602e+01 3.800291e+01 4.361597e+01 3.126129e+01 4.030223e+01 3.186097e+01 3.234866e+01 3.487315e+01 2.789094e+01 2.992486e+01 2.750268e+01 1.463986e+02 5.779357e+00 5.126618e+00 4.638864e+00 6.443421e+00 4.065951e+00 7.137809e+00 3.920950e+00 4.812635e+00 4.921283e+00 3.713656e+00 4.085178e+00 4.556438e+00 1.726793e+01 7.473229e-01 7.619374e-01 7.783940e-01 1.044744e+00 8.910338e-01 1.082347e+00 7.195638e-01 9.018192e-01 8.670925e-01 7.054226e-01 7.838871e-01 6.946211e-01 2.496686e+00
<GCONST> 1.392232e+02
<STATE> 4
<MEAN> 39
 -6.388098e+00 -4.872604e+00 -5.455539e+00 -6.449618e+00 -5.664523e+00 -1.494711e+00 -6.494146e+00 -3.844051e+00 -2.613377e+00 -1.580046e+00 -2.884047e-01 -5.208647e+00 5.569418e+01 1.435975e+00 -1.520609e+00 -5.504144e-01 -1.141322e+00 -1.033300e+00 9.346176e-01 -8.435044e-01 8.059804e-02 -1.159187e-02 -8.099288e-02 6.354610e-01 -1.053087e+00 4.204826e+00 2.102417e-01 2.008883e-01 2.385581e-01 1.277223e-01 -2.600715e-01 7.311141e-02 -1.611861e-01 4.713866e-02 -5.946643e-02 -5.619650e-02 -9.459976e-02 -1.281111e-01 -5.083514e-01
<VARIANCE> 39
 5.305204e+01 4.180915e+01 3.891444e+01 5.888146e+01 3.338082e+01 6.466307e+01 3.475924e+01 3.739501e+01 3.671517e+01 2.829452e+01 3.248104e+01 4.568897e+01 2.234028e+02 5.156028e+00 5.490275e+00 4.715166e+00 5.925927e+00 5.068533e+00 7.308817e+00 4.103234e+00 5.070975e+00 4.653034e+00 3.668969e+00 4.006813e+00 4.717097e+00 1.803400e+01 9.579502e-01 6.849945e-01 6.355657e-01 1.146872e+00 9.162511e-01 1.052349e+00 6.759098e-01 7.045619e-01 7.165569e-01 5.788099e-01 7.723233e-01 6.979690e-01 2.551254e+00
<GCONST> 1.415353e+02
<TRANSP> 5
 0.000000e+00 1.000000e+00 0.000000e+00 0.000000e+00 0.000000e+00
 0.000000e+00 8.132190e-01 1.867810e-01 0.000000e+00 0.000000e+00
 0.000000e+00 0.000000e+00 5.580886e-01 4.419114e-01 0.000000e+00
 0.000000e+00 0.000000e+00 0.000000e+00 5.840703e-01 4.159296e-01
 0.000000e+00 0.000000e+00 0.000000e+00 0.000000e+00 0.000000e+00
<ENDHMM>
~h "q"
<BEGINHMM>
<NUMSTATES> 5
<STATE> 2
<MEAN> 39
 -9.394620e+00 -4.498957e+00 -6.712213e+00 -5.720242e+00 -9.335752e+00 -4.810003e+00 -1.256931e+01 -1.280196e+00 -1.191918e+01 -1.406380e+00 -4.998052e-01 -1.647820e+00 5.970001e+01 -5.816429e-01 2.906739e-01 -1.598205e+00 -3.546470e-01 4.674622e-01 1.308990e+00 1.006525e+00 7.168317e-01 3.876169e-02 -6.677239e-01 -7.957101e-01 2.232426e-01 3.097055e+00 6.938072e-02 1.045972e+00 8.504578e-01 4.901247e-01 -5.735036e-01 -3.657334e-01 2.856598e-01 -2.427598e-01 2.777445e-01 -3.527281e-01 9.565248e-02 -4.892805e-01 -3.043959e-01
<VARIANCE> 39
 3.136164e+01 6.427492e+01 2.511777e+02 6.021645e+01 9.309300e+01 7.967908e+01 4.537835e+01 8.344450e+01 2.873593e+01 2.873491e+01 3.286909e+01 3.705222e+01 5.690083e+01 8.241915e+00 9.647148e+00 1.462598e+01 3.846340e+00 6.793889e+00 7.107157e+00 3.676487e+00 4.274397e+00 2.445264e+00 3.071793e+00 2.428719e+00 3.502689e+00 8.442642e+00 5.251394e-01 1.191076e+00 2.488004e+00 4.421433e-01 1.422689e+00 1.167421e+00 1.398761e+00 1.619972e+00 3.402412e-01 4.048415e-01 5.738448e-01 1.186188e+00 1.054181e+00
<GCONST> 1.438887e+02
<STATE> 3
<MEAN> 39
 -4.895044e+00 -5.111095e+00 3.072380e+00 -5.624141e+00 -1.596055e+01 -5.600198e+00 -1.162383e+01 5.337162e+00 -1.252213e+01 -3.090642e+00 -4.172661e+00 -6.680722e+00 6.541908e+01 -7.760544e-01 9.542887e-01 -2.349022e-01 1.962025e-01 6.738446e-01 -2.300498e-01 1.671237e+00 -2.746569e-01 7.344916e-01 -4.085307e-01 -4.848573e-02 3.160804e-01 7.059468e-01 -2.641664e-01 2.973952e-01 1.709564e-01 -4.920839e-02 1.732974e-01 3.285271e-02 9.849574e-02 -1.759421e-01 2.572895e-01 -2.107514e-01 -2.670513e-02 -1.468906e-02 -2.039621e-01
<VARIANCE> 39
 3.920701e+01 1.323518e+02 7.441325e+01 3.672483e+01 7.458302e+01 4.673298e+01 7.398945e+01 7.350111e+01 2.171572e+01 4.936115e+01 5.509115e+01 2.394353e+01 6.094841e+01 5.481323e+00 1.916389e+01 5.355344e+00 1.744534e+00 7.064611e+00 4.587265e+00 4.373245e+00 6.509152e+00 2.918420e+00 5.833408e+00 4.676020e+00 2.296454e+00 4.836702e+00 5.887653e-01 3.034200e+00 8.518018e-01 2.302902e-01 1.202868e+00 6.514627e-01 7.948783e-01 7.123647e-01 5.619634e-01 1.078431e+00 8.420890e-01 2.693705e-01 9.568475e-01
<GCONST> 1.397852e+02
<STATE> 4
<MEAN> 39
 -1.168270e+01 7.536178e-01 7.766281e+00 1.187505e-01 -9.727908e+00 -5.645938e+00 -5.269632e+00 -2.104717e+00 -4.032150e+00 -1.510094e+00 -1.534793e+00 -3.353641e+00 5.884995e+01 -1.158017e-01 6.422964e-02 -1.107081e-01 1.611890e-02 3.238181e-01 2.622198e-01 -2.522545e-02 -6.034948e-03 1.686957e-01 1.810624e-02 -1.156151e-02 2.008892e-02 -3.089462e-01 9.687226e-02 -8.789064e-02 -6.751428e-02 -4.204156e-02 -2.437001e-02 7.016117e-02 -4.513414e-02 5.720921e-02 -7.485139e-02 9.510623e-02 2.361707e-03 -9.024411e-03 -6.197481e-02
<VARIANCE> 39
 4.604659e+01 7.224069e+01 4.974892e+01 2.074679e+01 6.076595e+01 3.423616e+01 4.624142e+01 2.426235e+01 2.134033e+01 2.249947e+01 2.058621e+01 1.351969e+01 6.181433e+01 2.797983e+00 5.099264e+00 1.911444e+00 1.677308e+00 4.362273e+00 2.840489e+00 2.332281e+00 2.091780e+00 1.557867e+00 2.085572e+00 1.255653e+00 1.456095e+00 2.699102e+00 4.214870e-01 1.019730e+00 3.543019e-01 3.740080e-01 7.392340e-01 4.772698e-01 4.674466e-01 3.979791e-01 2.580867e-01 4.243233e-01 1.952852e-01 2.578377e-01 5.375817e-01
<GCONST> 1.166057e+02
<TRANSP> 5
 0.000000e+00 1.000000e+00 0.000000e+00 0.000000e+00 0.000000e+00
 0.000000e+00 4.032666e-01 5.967334e-01 0.000000e+00 0.000000e+00
 0.000000e+00 0.000000e+00 7.445465e-01 2.554535e-01 0.000000e+00
 0.000000e+00 0.000000e+00 0.000000e+00 9.419680e-01 5.803198e-02
 0.000000e+00 0.000000e+00 0.000000e+00 0.000000e+00 0.000000e+00
<ENDHMM>
~h "r"
<BEGINHMM>
<NUMSTATES> 5
<STATE> 2
<MEAN> 39
 -8.753793e-01 -8.482015e+00 -5.819063e+00 -2.881096e+00 -1.134154e+01 -5.076128e+00 -1.117007e+01 -3.082407e+00 1.098328e+00 -7.882054e-01 -1.439201e+00 -8.846160e+00 6.719055e+01 4.740332e-01 -1.135227e-01 -1.126717e-02 1.071774e+00 -3.046589e-01 -3.471973e-01 -4.717078e-01 -2.272143e-01 3.276595e-01 1.567433e-01 -1.073613e-01 2.141822e-01 -3.647786e-01 -4.362987e-02 -1.854181e-03 1.258241e-01 -1.884966e-01 -4.651941e-02 2.366327e-01 -4.678186e-02 1.042761e-01 -3.173613e-01 -7.502732e-02 9.992260e-02 -1.848136e-02 -8.733645e-04
<VARIANCE> 39
 3.026330e+01 3.704060e+01 5.933764e+01 4.500185e+01 6.277861e+01 6.065923e+01 5.401793e+01 8.274645e+01 6.321476e+01 4.313191e+01 4.450636e+01 4.481918e+01 9.373573e+01 2.519998e+00 2.703146e+00 3.206386e+00 4.193560e+00 5.044843e+00 4.590488e+00 3.616807e+00 5.540783e+00 4.791952e+00 3.729789e+00 3.675598e+00 3.471550e+00 4.982890e+00 5.191979e-01 4.742161e-01 5.316163e-01 7.388053e-01 8.917175e-01 7.743328e-01 6.853009e-01 1.020029e+00 8.681483e-01 6.760792e-01 6.410367e-01 6.326886e-01 7.676973e-01
<GCONST> 1.362175e+02
<STATE> 3
<MEAN> 39
 5.812950e-01 -8.803528e+00 -5.300701e+00 -7.937284e-01 -1.263237e+01 -5.349300e+00 -1.269094e+01 -3.354428e+00 8.638046e-01 -4.616964e-01 -1.200325e+00 -8.399182e+00 6.695840e+01 1.971405e-01 -5.145632e-02 3.708324e-01 2.684962e-01 -2.107403e-01 1.075503e-01 -3.508318e-01 2.462878e-01 -5.659873e-01 -9.299741e-02 1.130338e-01 1.651702e-01 -3.861804e-01 -1.718450e-01 3.649579e-02 1.511163e-01 -4.112602e-01 6.716950e-02 1.921033e-01 1.598462e-01 1.512508e-01 -3.498726e-01 -1.363445e-01 8.958191e-02 -6.835164e-02 1.139327e-01
<VARIANCE> 39
 2.534766e+01 3.561004e+01 6.806403e+01 4.034866e+01 6.493195e+01 6.062473e+01 5.843718e+01 8.117155e+01 6.722317e+01 4.399522e+01 4.580117e+01 4.182931e+01 6.513850e+01 2.165879e+00 2.914647e+00 3.432236e+00 3.349028e+00 5.137261e+00 4.530145e+00 3.798336e+00 5.965894e+00 4.931464e+00 3.829547e+00 3.684342e+00 3.353674e+00 4.030209e+00 4.335465e-01 5.035648e-01 5.245206e-01 6.538672e-01 1.054108e+00 8.048117e-01 7.457137e-01 1.018829e+00 9.383632e-01 7.313336e-01 7.492520e-01 6.020761e-01 6.712199e-01
<GCONST> 1.356660e+02
<STATE> 4
<MEAN> 39
 -1.603755e-01 -8.612678e+00 -4.282071e+00 -1.968848e+00 -1.222931e+01 -5.451815e+00 -1.270678e+01 -1.499802e+00 -1.632415e+00 -8.426465e-01 -1.461437e+00 -8.581417e+00 6.505485e+01 -1.918198e-01 2.582244e-01 5.296024e-01 -1.828941e-01 1.425297e-01 1.103038e-01 1.907547e-01 1.353635e-01 -7.090630e-01 -2.633899e-01 8.007669e-02 1.733118e-01 -4.580331e-01 -1.225621e-01 8.605662e-02 7.725184e-02 -1.373139e-01 5.681263e-02 6.567328e-02 1.194086e-01 -4.017859e-02 -7.419449e-02 -5.876407e-02 2.227586e-02 -1.546951e-02 2.916612e-02
<VARIANCE> 39
 2.990267e+01 4.632937e+01 7.458005e+01 4.064962e+01 6.785909e+01 6.358849e+01 6.060448e+01 8.801702e+01 6.111700e+01 4.671464e+01 5.407275e+01 4.469627e+01 1.184649e+02 1.643366e+00 2.651157e+00 2.672523e+00 2.414696e+00 4.013732e+00 3.415459e+00 3.152044e+00 4.348951e+00 3.790454e+00 2.974500e+00 3.191845e+00 2.597045e+00 3.231653e+00 2.866050e-01 3.788146e-01 3.625762e-01 4.377369e-01 7.155587e-01 5.889308e-01 6.063288e-01 7.129303e-01 6.353405e-01 5.655413e-01 5.843669e-01 4.804306e-01 4.667274e-01
<GCONST> 1.298644e+02
<TRANSP> 5
 0.000000e+00 1.000000e+00 0.000000e+00 0.000000e+00 0.000000e+00
 0.000000e+00 4.889016e-01 5.110984e-01 0.000000e+00 0.000000e+00
 0.000000e+00 0.000000e+00 4.515397e-01 5.484603e-01 0.000000e+00
 0.000000e+00 0.000000e+00 0.000000e+00 6.247110e-01 3.752890e-01
 0.000000e+00 0.000000e+00 0.000000e+00 0.000000e+00 0.000000e+00
<ENDHMM>
~h "s"
<BEGINHMM>
<NUMSTATES> 5
<STATE> 2
<MEAN> 39
 -1.193519e+01 3.718413e+00 -5.732095e-01 -1.804983e+00 -4.012981e+00 -7.503730e+00 -6.312992e+00 -2.465450e+00 -3.449723e+00 -2.797073e+00 -4.619308e+00 -3.253634e+00 6.386617e+01 -3.948886e+00 1.822165e+00 -4.936353e-01 6.898024e-01 1.712293e+00 -2.580418e-01 1.398263e+00 4.229849e-01 4.675848e-01 -4.814370e-01 4.868052e-01 1.124429e+00 -5.956255e-01 -2.493486e-01 -5.956945e-01 -2.809789e-01 -2.588978e-01 -3.987547e-01 2.936335e-01 -2.462054e-01 4.009561e-02 -9.353462e-02 5.645341e-02 3.275307e-01 -1.379740e-01 5.705417e-02
<VARIANCE> 39
 7.682479e+01 4.695836e+01 4.923090e+01 3.243138e+01 4.851880e+01 4.456612e+01 5.635884e+01 5.152035e+01 4.181666e+01 3.584527e+01 4.181466e+01 3.156539e+01 7.894878e+01 4.459342e+00 5.982871e+00 3.753357e+00 3.205233e+00 4.517148e+00 4.555768e+00 4.108982e+00 5.310550e+00 3.607999e+00 3.225583e+00 3.399612e+00 2.871320e+00 2.665564e+00 1.007592e+00 8.474018e-01 4.472603e-01 4.908309e-01 6.984651e-01 6.234604e-01 7.098159e-01 6.835496e-01 6.221182e-01 5.735470e-01 5.671471e-01 4.821097e-01 2.953723e-01
<GCONST> 1.325789e+02
<STATE> 3
<MEAN> 39
 -2.641131e+01 4.174481e+00 -5.538368e+00 -1.717585e+00 -2.278896e+00 -6.723587e+00 -3.450032e+00 -9.531333e-01 -2.550333e+00 -2.788644e+00 -9.661604e-01 -2.185915e-01 6.261526e+01 -7.767653e-01 -5.469669e-01 -5.809262e-01 -2.542638e-01 -2.620190e-01 4.009881e-02 3.087489e-02 6.213440e-02 1.271708e-01 1.300093e-01 2.052613e-01 1.553431e-01 -1.577159e-01 9.995871e-01 -1.984006e-01 2.552095e-01 -9.610463e-02 -2.616578e-01 -4.754781e-02 -2.736400e-01 -1.321472e-01 -1.975868e-02 4.289063e-02 -2.051971e-01 -2.557527e-01 1.419925e-01
<VARIANCE> 39
 4.230203e+01 2.430359e+01 3.717698e+01 2.600244e+01 3.123129e+01 2.925377e+01 4.097878e+01 2.974431e+01 2.857955e+01 2.316335e+01 2.569043e+01 2.071885e+01 3.167727e+01 5.681263e+00 2.084172e+00 2.422027e+00 1.822603e+00 2.059837e+00 2.308465e+00 2.316575e+00 2.301001e+00 2.277463e+00 1.963934e+00 2.201513e+00 1.838093e+00 1.699863e+00 5.903380e-01 4.577385e-01 4.293278e-01 3.854039e-01 4.681093e-01 5.049737e-01 5.287684e-01 5.235933e-01 4.693920e-01 4.182846e-01 4.196061e-01 4.078080e-01 2.448115e-01
<GCONST> 1.156186e+02
<STATE> 4
<MEAN> 39
 -1.902307e+01 4.859509e-01 -4.657203e+00 -2.623063e+00 -3.959783e+00 -5.983965e+00 -4.847979e+00 -1.253372e+00 -1.685092e+00 -2.028215e+00 -1.735093e+00 -1.226919e+00 5.468950e+01 1.894861e+00 -3.859788e-01 4.240877e-01 -2.090082e-01 -5.770861e-01 4.460955e-02 -7.131748e-01 -3.808324e-01 -3.889932e-02 5.508772e-02 -2.430123e-01 -6.410031e-01 3.280748e-01 2.986871e-01 -6.174555e-02 9.122170e-02 -1.630873e-02 -9.261756e-02 1.014197e-01 -1.491653e-01 -5.447382e-02 -6.998807e-02 -1.856134e-02 7.353353e-02 -1.216933e-01 1.457768e-01
<VARIANCE> 39
 9.562324e+01 3.294926e+01 3.800822e+01 2.798924e+01 3.061685e+01 3.351917e+01 4.014214e+01 3.125812e+01 2.735667e+01 2.308268e+01 2.623002e+01 2.402789e+01 1.486809e+02 9.169178e+00 2.682874e+00 2.870789e+00 2.280457e+00 2.737213e+00 3.120077e+00 3.754596e+00 3.365871e+00 2.718784e+00 2.301907e+00 2.385116e+00 2.844247e+00 3.831562e+00 9.061580e-01 3.978940e-01 3.713365e-01 3.556972e-01 4.267506e-01 5.366193e-01 5.814176e-01 5.499927e-01 4.655598e-01 4.172226e-01 4.623866e-01 4.291019e-01 3.737758e-01
<GCONST> 1.236227e+02
<TRANSP> 5
 0.000000e+00 1.000000e+00 0.000000e+00 0.000000e+00 0.000000e+00
 0.000000e+00 7.003338e-01 2.996661e-01 0.000000e+00 0.000000e+00
 0.000000e+00 0.000000e+00 8.004879e-01 1.995120e-01 0.000000e+00
 0.000000e+00 0.000000e+00 0.000000e+00 8.505235e-01 1.494765e-01
 0.000000e+00 0.000000e+00 0.000000e+00 0.000000e+00 0.000000e+00
<ENDHMM>
~h "t"
<BEGINHMM>
<NUMSTATES> 5
<STATE> 2
<MEAN> 39
 -5.440136e+00 1.753258e+00 -1.386585e+00 -2.285198e+00 -6.759231e+00 -6.105129e+00 -8.663521e+00 -5.127477e+00 -2.912205e+00 -1.162220e+00 -3.551194e+00 -5.220275e+00 4.526684e+01 -8.694526e-01 2.081818e-01 -1.570012e-01 2.089041e-02 4.200906e-01 -1.356692e-01 4.939226e-01 8.665394e-02 4.881024e-02 -1.358073e-01 3.909698e-02 5.331020e-01 -1.700219e+00 -1.867951e-01 -4.757731e-01 -1.561600e-01 -2.619185e-01 -1.155956e-01 8.916663e-02 -2.503987e-02 1.067708e-01 2.841755e-02 -2.115179e-02 1.077508e-01 1.020838e-03 9.201108e-01
<VARIANCE> 39
 4.128253e+01 3.464048e+01 4.686629e+01 3.911597e+01 3.810504e+01 4.044044e+01 4.403574e+01 4.731062e+01 4.264809e+01 3.230462e+01 3.445177e+01 3.627072e+01 1.171781e+02 2.828858e+00 3.555998e+00 2.458389e+00 2.900214e+00 3.286879e+00 2.859739e+00 2.971087e+00 3.333771e+00 3.010594e+00 2.699991e+00 2.866793e+00 2.311279e+00 9.740940e+00 5.152016e-01 6.021149e-01 4.767169e-01 5.920801e-01 6.369169e-01 5.824299e-01 5.865138e-01 6.512494e-01 6.095368e-01 5.436168e-01 5.633659e-01 4.562678e-01 1.648040e+00
<GCONST> 1.292771e+02
<STATE> 3
<MEAN> 39
 -1.039370e+01 -6.638058e-01 -2.627872e+00 -3.366211e+00 -5.530818e+00 -6.141583e+00 -6.897664e+00 -4.134936e+00 -2.733478e+00 -1.928908e+00 -2.894856e+00 -2.954338e+00 4.734000e+01 -1.020869e+00 -1.824921e+00 -8.336441e-01 -1.135092e+00 5.378467e-02 -7.785255e-02 -3.524271e-02 4.515778e-01 3.808725e-01 -1.785924e-01 1.798305e-01 1.163857e-01 4.452078e+00 7.649177e-01 -1.909952e-01 6.515658e-02 -2.027053e-01 -4.772052e-01 1.296314e-01 -4.954847e-01 -3.167547e-02 2.007060e-02 2.971826e-02 4.487589e-03 -5.450122e-01 1.340585e+00
<VARIANCE> 39
 4.425781e+01 4.062061e+01 3.977345e+01 3.532898e+01 3.294535e+01 3.720435e+01 3.655360e+01 3.492176e+01 3.549214e+01 2.841376e+01 2.771278e+01 2.689412e+01 1.497209e+02 5.288833e+00 4.560556e+00 4.713506e+00 4.090792e+00 4.242460e+00 4.493715e+00 4.374620e+00 4.464888e+00 4.853345e+00 3.603368e+00 3.722961e+00 3.892033e+00 1.821265e+01 9.572579e-01 8.034018e-01 8.229222e-01 7.175054e-01 8.489056e-01 9.545484e-01 8.224699e-01 9.473216e-01 8.495635e-01 7.199076e-01 7.026959e-01 7.234085e-01 2.358073e+00
<GCONST> 1.381608e+02
<STATE> 4
<MEAN> 39
 -8.890435e+00 -5.487303e+00 -4.786960e+00 -6.967238e+00 -7.121778e+00 -6.300812e+00 -9.148068e+00 -2.757035e+00 -1.438706e+00 -2.046443e+00 -3.153059e+00 -5.441509e+00 6.336840e+01 1.725959e+00 -1.061219e+00 1.296495e-02 -8.571510e-01 -1.245999e+00 5.523317e-01 -1.430121e+00 1.008292e-01 1.479983e-01 -2.082536e-02 3.121667e-01 -1.526981e+00 4.569163e+00 6.131310e-01 3.615668e-01 3.772914e-01 2.628621e-01 -3.002450e-01 4.125099e-01 -2.149153e-01 -1.505433e-01 -2.564765e-01 7.414537e-03 2.082798e-01 -2.167106e-01 -1.005414e+00
<VARIANCE> 39
 4.713062e+01 3.467949e+01 4.570474e+01 3.363457e+01 3.835879e+01 4.992690e+01 4.777305e+01 4.150000e+01 4.747753e+01 3.307288e+01 3.465228e+01 4.426462e+01 1.236550e+02 5.516360e+00 4.796257e+00 6.159145e+00 4.445364e+00 5.395028e+00 6.835233e+00 5.472312e+00 7.036240e+00 6.530255e+00 4.351928e+00 4.766006e+00 4.990954e+00 1.537145e+01 1.061852e+00 6.861404e-01 8.584015e-01 6.208515e-01 9.426476e-01 9.940373e-01 1.044757e+00 1.000815e+00 8.512373e-01 6.973501e-01 7.333111e-01 8.541484e-01 2.038596e+00
<GCONST> 1.429246e+02
<TRANSP> 5
 0.000000e+00 1.000000e+00 0.000000e+00 0.000000e+00 0.000000e+00
 0.000000e+00 7.851151e-01 2.148849e-01 0.000000e+00 0.000000e+00
 0.000000e+00 0.000000e+00 5.556233e-01 4.443767e-01 0.000000e+00
 0.000000e+00 0.000000e+00 0.000000e+00 5.368357e-01 4.631643e-01
 0.000000e+00 0.000000e+00 0.000000e+00 0.000000e+00 0.000000e+00
<ENDHMM>
~h "u"
<BEGINHMM>
<NUMSTATES> 5
<STATE> 2
<MEAN> 39
 -6.457859e-01 2.270042e-01 -2.660073e+00 -6.978527e+00 -1.109598e+01 -1.509619e+00 -1.387592e+01 -8.271645e+00 -6.779338e+00 -2.670076e+00 1.065849e+00 -5.620277e+00 6.186502e+01 1.675902e+00 4.762308e-01 -4.408179e-01 -1.582582e+00 -1.658982e+00 1.815194e+00 -1.201936e+00 -1.013303e+00 -7.944343e-01 -2.218593e-01 1.556220e+00 -4.375144e-01 1.295879e+00 -2.033198e-01 5.059256e-02 1.366566e-01 -7.002237e-02 -3.460863e-02 2.445551e-01 2.398245e-01 1.782763e-01 -2.323051e-02 -5.567711e-02 -2.498403e-02 3.406810e-02 -3.517794e-01
<VARIANCE> 39
 4.024932e+01 3.840159e+01 6.128065e+01 8.522330e+01 6.331517e+01 7.460796e+01 8.004406e+01 7.925546e+01 5.577297e+01 5.170371e+01 4.950525e+01 4.019770e+01 1.186003e+02 5.272033e+00 3.393389e+00 4.837335e+00 6.186517e+00 6.850237e+00 6.288319e+00 6.107985e+00 7.183670e+00 5.256756e+00 4.879380e+00 4.945453e+00 4.316171e+00 6.244693e+00 8.656841e-01 6.065655e-01 6.930363e-01 1.065774e+00 1.073702e+00 1.030104e+00 1.188791e+00 1.125264e+00 9.105534e-01 8.322122e-01 8.484941e-01 7.684408e-01 1.205568e+00
<GCONST> 1.460262e+02
<STATE> 3
<MEAN> 39
 3.000046e+00 7.971250e-01 -4.197764e+00 -1.146516e+01 -1.598745e+01 4.755471e+00 -1.588986e+01 -1.172927e+01 -8.403828e+00 -4.532670e+00 5.521205e+00 -6.075716e+00 6.631618e+01 3.216307e-01 1.546117e-01 5.328723e-02 -5.403255e-01 -3.939022e-01 8.874954e-01 -2.392712e-01 -1.314007e-01 -3.308748e-01 -9.950809e-02 5.135698e-01 -1.115135e-01 3.261641e-02 -4.103191e-01 -7.593937e-02 2.159432e-01 5.739704e-01 5.900111e-01 -7.001017e-01 3.717759e-01 3.976549e-01 2.718243e-01 1.315712e-01 -6.629140e-01 2.948907e-02 -4.508875e-01
<VARIANCE> 39
 1.691979e+01 3.681613e+01 4.422082e+01 8.852846e+01 5.724398e+01 7.825315e+01 7.436677e+01 1.045398e+02 7.022561e+01 6.585346e+01 4.981635e+01 4.399094e+01 3.458051e+01 1.401222e+00 3.186157e+00 2.480900e+00 6.332131e+00 5.270301e+00 5.860984e+00 5.106471e+00 6.154438e+00 4.896925e+00 4.838184e+00 4.678195e+00 3.392909e+00 3.148856e+00 3.952052e-01 4.799562e-01 5.070690e-01 8.974311e-01 9.542003e-01 9.601074e-01 1.012134e+00 1.216281e+00 9.209707e-01 9.437702e-01 8.900827e-01 7.576970e-01 4.391870e-01
<GCONST> 1.379436e+02
<STATE> 4
<MEAN> 39
 2.795968e+00 2.303659e+00 -2.997509e+00 -1.230670e+01 -1.474985e+01 4.432102e+00 -1.585122e+01 -8.814588e+00 -9.268660e+00 -3.838682e+00 3.212114e+00 -6.767648e+00 6.331991e+01 -2.626808e-01 -9.589735e-02 3.509027e-01 8.231869e-01 6.552219e-01 -8.052849e-01 4.793045e-01 1.785235e-01 4.146604e-01 3.318832e-01 -7.688273e-01 -1.684178e-02 -7.481881e-01 -1.636623e-01 -5.269812e-02 8.447485e-02 2.307429e-01 1.589320e-01 -2.175842e-01 1.585589e-01 4.782362e-02 1.159703e-01 1.977779e-02 -1.949725e-01 4.792532e-02 -1.186660e-01
<VARIANCE> 39
 1.835620e+01 4.566427e+01 5.143065e+01 8.713673e+01 5.636948e+01 7.959794e+01 6.497783e+01 7.818680e+01 6.076225e+01 6.318623e+01 5.246938e+01 4.237901e+01 6.820434e+01 1.184708e+00 2.564482e+00 2.268613e+00 3.826059e+00 3.582099e+00 3.820466e+00 3.665655e+00 4.228417e+00 3.499704e+00 3.673891e+00 3.971345e+00 3.042399e+00 3.215967e+00 2.058709e-01 3.888414e-01 3.446301e-01 5.739490e-01 5.966197e-01 6.371664e-01 6.741787e-01 7.353396e-01 6.049796e-01 6.804433e-01 7.019320e-01 5.431203e-01 3.791602e-01
<GCONST> 1.301478e+02
<TRANSP> 5
 0.000000e+00 1.000000e+00 0.000000e+00 0.000000e+00 0.000000e+00
 0.000000e+00 5.661315e-01 4.338686e-01 0.000000e+00 0.000000e+00
 0.000000e+00 0.000000e+00 5.652241e-01 4.347758e-01 0.000000e+00
 0.000000e+00 0.000000e+00 0.000000e+00 8.046294e-01 1.953706e-01
 0.000000e+00 0.000000e+00 0.000000e+00 0.000000e+00 0.000000e+00
<ENDHMM>
~h "w"
<BEGINHMM>
<NUMSTATES> 5
<STATE> 2
<MEAN> 39
 1.550010e+00 -2.672498e+00 -5.152054e+00 -1.192065e+01 -1.200138e+01 4.013182e+00 -1.158310e+01 -4.445304e+00 -6.406746e+00 -2.018063e+00 2.454601e+00 -7.911490e+00 6.149632e+01 1.086713e+00 5.117370e-01 -3.406639e-01 -1.734397e+00 -8.867697e-01 1.443371e+00 -1.245816e-01 -2.958376e-01 -5.779894e-01 -1.915952e-01 9.352201e-01 1.317589e-01 5.500357e-01 -2.046122e-01 -1.030777e-01 1.451492e-01 3.144488e-03 -1.000923e-01 -1.487298e-01 1.526743e-01 2.375048e-01 1.025204e-01 -1.283621e-01 -1.126687e-01 1.067766e-01 4.571523e-02
<VARIANCE> 39
 4.006862e+01 6.891684e+01 5.131401e+01 7.039442e+01 6.843540e+01 6.955107e+01 7.282787e+01 6.580212e+01 6.703650e+01 5.662359e+01 5.293745e+01 4.399114e+01 1.638624e+02 2.356217e+00 2.886645e+00 3.104488e+00 3.549157e+00 4.582688e+00 4.072660e+00 3.962189e+00 4.196991e+00 3.792348e+00 3.760389e+00 3.635813e+00 3.135600e+00 4.897898e+00 4.919919e-01 4.594169e-01 5.080794e-01 6.732388e-01 8.355318e-01 7.081059e-01 7.287356e-01 6.927060e-01 7.513650e-01 7.292547e-01 6.914570e-01 5.542102e-01 4.004894e-01
<GCONST> 1.363196e+02
<STATE> 3
<MEAN> 39
 5.234092e+00 -2.522913e+00 -6.003871e+00 -1.941017e+01 -1.632415e+01 9.317282e+00 -1.167905e+01 -4.451099e+00 -5.535255e+00 -3.767939e+00 4.829937e+00 -6.412759e+00 6.694294e+01 -1.040303e-01 -5.510487e-01 -2.392451e-01 -5.653458e-01 1.490148e-01 5.129333e-01 8.280022e-02 6.148494e-02 2.680069e-01 1.511872e-01 1.368738e-01 -9.772831e-02 5.128153e-01 -2.415668e-01 -3.523327e-01 -2.310730e-02 4.571429e-01 3.799576e-01 -2.580117e-01 -7.752214e-02 4.977888e-02 2.271101e-01 1.898457e-01 -2.579948e-01 -3.079304e-01 1.479768e-01
<VARIANCE> 39
 1.604231e+01 4.502093e+01 3.692769e+01 6.243874e+01 5.263581e+01 5.607388e+01 4.612786e+01 6.189412e+01 6.439364e+01 5.734550e+01 4.334798e+01 3.853513e+01 3.658308e+01 7.397956e-01 3.925686e+00 1.614696e+00 2.383934e+00 3.526691e+00 2.642428e+00 2.282637e+00 2.222892e+00 2.739834e+00 3.220178e+00 2.763786e+00 3.150172e+00 2.203865e+00 9.241150e-02 2.705889e-01 2.746755e-01 3.412493e-01 4.611278e-01 5.480368e-01 3.984401e-01 4.723523e-01 4.459665e-01 5.497301e-01 5.669517e-01 4.806146e-01 2.067495e-01
<GCONST> 1.192021e+02
<STATE> 4
<MEAN> 39
 2.236029e+00 -7.585772e+00 -7.644871e+00 -1.930831e+01 -1.170539e+01 1.097177e+01 -1.235137e+01 -3.070670e+00 -3.280945e+00 -2.721256e+00 1.890429e+00 -1.072752e+01 7.067815e+01 -3.257567e-01 -5.114280e-01 -4.797604e-02 6.698361e-01 6.095002e-01 -4.449105e-01 -6.905179e-02 2.159790e-01 2.663786e-01 9.718750e-02 -5.510471e-01 -4.516485e-01 1.645438e-01 -1.872078e-03 9.485440e-02 9.770253e-02 1.401897e-01 -8.167645e-02 -2.127931e-01 -2.813474e-03 8.248161e-02 -2.348760e-02 -6.080440e-02 -6.882276e-02 1.015630e-01 -9.845843e-02
<VARIANCE> 39
 1.995996e+01 7.908905e+01 3.740619e+01 6.190865e+01 7.605662e+01 5.511382e+01 4.342146e+01 5.747227e+01 6.809372e+01 6.365440e+01 5.607676e+01 5.412262e+01 4.508173e+01 4.914862e-01 2.025868e+00 9.509259e-01 2.033234e+00 2.454183e+00 2.172509e+00 1.496559e+00 1.920825e+00 1.775760e+00 1.866860e+00 2.411400e+00 2.308434e+00 1.078849e+00 6.178188e-02 2.183691e-01 1.632053e-01 2.296489e-01 3.564989e-01 3.277826e-01 2.700091e-01 3.113154e-01 2.599411e-01 3.595900e-01 3.605959e-01 3.743446e-01 1.124102e-01
<GCONST> 1.107577e+02
<TRANSP> 5
 0.000000e+00 1.000000e+00 0.000000e+00 0.000000e+00 0.000000e+00
 0.000000e+00 6.687456e-01 3.312544e-01 0.000000e+00 0.000000e+00
 0.000000e+00 0.000000e+00 7.223915e-01 2.776085e-01 0.000000e+00
 0.000000e+00 0.000000e+00 0.000000e+00 8.643132e-01 1.356868e-01
 0.000000e+00 0.000000e+00 0.000000e+00 0.000000e+00 0.000000e+00
<ENDHMM>
~h "y"
<BEGINHMM>
<NUMSTATES> 5
<STATE> 2
<MEAN> 39
 -4.935984e+00 -6.295891e+00 4.966574e+00 -6.710428e+00 -1.577273e+01 -5.925240e+00 -1.036455e+01 3.040271e+00 -6.396565e+00 -4.756924e+00 1.371271e-01 -6.253408e+00 6.449448e+01 -1.782864e-01 6.191591e-01 1.857824e+00 -2.407896e-01 -1.436293e+00 -7.701302e-01 -5.542515e-01 5.350283e-02 -7.050365e-01 -1.816042e-04 1.386134e+00 4.567252e-01 2.665819e-01 6.959458e-03 3.473700e-02 -1.052468e-01 -2.375930e-02 2.223751e-01 2.487775e-01 -1.741372e-01 -2.983313e-01 3.297266e-02 5.403391e-02 -1.463760e-02 -3.202533e-02 -1.014592e-03
<VARIANCE> 39
 2.568864e+01 8.366611e+01 8.754561e+01 4.475485e+01 6.922353e+01 6.013540e+01 6.480048e+01 8.624318e+01 6.177577e+01 5.280577e+01 5.987751e+01 3.478012e+01 1.973109e+02 1.126033e+00 3.000050e+00 4.446777e+00 1.770822e+00 3.725350e+00 3.656681e+00 4.420652e+00 4.201843e+00 3.400894e+00 3.380774e+00 3.406740e+00 2.744861e+00 3.351893e+00 1.856398e-01 3.615124e-01 5.571817e-01 3.192685e-01 6.265209e-01 5.760808e-01 7.143524e-01 7.294123e-01 5.263794e-01 5.268793e-01 6.390560e-01 4.203188e-01 3.025202e-01
<GCONST> 1.304121e+02
<STATE> 3
<MEAN> 39
 -5.106591e+00 -4.447639e+00 1.254459e+01 -7.683489e+00 -2.095329e+01 -7.807981e+00 -1.531024e+01 8.404621e-01 -8.700209e+00 -6.084858e+00 5.949439e+00 -5.226652e+00 6.914426e+01 1.982908e-02 -4.577858e-01 -1.840110e-01 -2.029070e-01 -3.428262e-01 -1.644702e-01 5.299430e-02 3.151353e-01 2.937654e-01 1.363781e-01 1.432844e-01 4.113696e-02 5.222527e-01 8.682469e-02 -2.715078e-01 -5.973548e-01 2.618070e-02 3.351982e-01 1.538205e-01 2.827199e-01 2.411335e-01 2.622161e-01 4.188045e-03 -4.620885e-01 -1.883021e-01 6.195673e-03
<VARIANCE> 39
 1.609436e+01 4.893821e+01 7.347749e+01 4.067458e+01 4.965823e+01 5.815128e+01 6.564643e+01 6.698357e+01 5.642716e+01 6.185511e+01 4.230184e+01 3.286196e+01 6.903906e+01 5.315714e-01 3.028269e+00 4.570757e+00 1.172144e+00 2.210197e+00 1.970001e+00 3.647478e+00 4.208590e+00 3.243473e+00 2.202602e+00 2.842168e+00 1.745038e+00 1.929555e+00 8.572042e-02 2.462614e-01 3.150681e-01 2.128250e-01 4.836642e-01 4.235357e-01 5.605332e-01 5.585915e-01 4.397641e-01 4.594871e-01 4.474219e-01 3.120768e-01 1.597086e-01
<GCONST> 1.182078e+02
<STATE> 4
<MEAN> 39
 -6.578660e+00 -5.795669e+00 3.547921e+00 -4.963672e+00 -1.297925e+01 -5.137774e+00 -8.805576e+00 2.306789e+00 -5.168321e+00 -3.398706e+00 -1.238637e-01 -3.941518e+00 5.790329e+01 6.021809e-02 -3.619383e-01 -7.486191e-01 1.799534e-02 5.053471e-01 2.270030e-01 3.232193e-01 3.584836e-01 3.613200e-01 -7.908626e-02 -5.959264e-01 -2.219462e-01 -1.869135e-02 1.884403e-02 1.721417e-02 -6.450665e-02 2.746037e-02 1.440603e-01 7.501625e-02 -4.854500e-02 -7.898210e-02 -7.992288e-03 -1.870663e-02 -7.386644e-02 -4.718611e-02 -2.691192e-02
<VARIANCE> 39
 2.518613e+01 6.113988e+01 7.492017e+01 3.937707e+01 1.031970e+02 4.133649e+01 5.956398e+01 7.176907e+01 4.104720e+01 3.893210e+01 4.712157e+01 3.211267e+01 2.809689e+02 4.079393e-01 1.482386e+00 2.290396e+00 9.189606e-01 2.029072e+00 1.519759e+00 1.989407e+00 2.533289e+00 1.908849e+00 1.759644e+00 2.568451e+00 1.373961e+00 8.421767e-01 6.254625e-02 1.689238e-01 2.153031e-01 1.662335e-01 3.235777e-01 2.758999e-01 3.439043e-01 4.555753e-01 3.301606e-01 3.311565e-01 3.393433e-01 2.397582e-01 8.744379e-02
<GCONST> 1.100387e+02
<TRANSP> 5
 0.000000e+00 1.000000e+00 0.000000e+00 0.000000e+00 0.000000e+00
 0.000000e+00 6.425496e-01 3.574504e-01 0.000000e+00 0.000000e+00
 0.000000e+00 0.000000e+00 7.082795e-01 2.917205e-01 0.000000e+00
 0.000000e+00 0.000000e+00 0.000000e+00 8.715609e-01 1.284391e-01
 0.000000e+00 0.000000e+00 0.000000e+00 0.000000e+00 0.000000e+00
<ENDHMM>
~h "z"
<BEGINHMM>
<NUMSTATES> 5
<STATE> 2
<MEAN> 39
 -1.083241e+01 6.864212e+00 1.692920e+00 1.380091e+00 -5.584735e+00 -1.019400e+01 -9.719378e+00 -5.004894e+00 -3.478284e+00 -2.661852e+00 -3.444819e+00 -2.203904e+00 6.415999e+01 -2.092908e+00 1.848855e+00 -3.565201e-01 8.616556e-01 1.287538e+00 -1.660817e-01 8.721535e-01 1.132205e-01 1.150180e-01 -1.798457e-01 1.895810e-02 7.712404e-01 -5.655699e-01 7.809839e-02 -3.758164e-01 -3.458642e-02 -1.673480e-01 -2.639140e-01 3.155778e-01 -1.052742e-01 1.606961e-01 -3.769567e-02 2.138527e-02 1.460564e-01 -2.218503e-01 5.590858e-02
<VARIANCE> 39
 5.391522e+01 4.740557e+01 4.323988e+01 3.967683e+01 4.769429e+01 4.000447e+01 6.393178e+01 3.843615e+01 4.197058e+01 2.710894e+01 3.502495e+01 2.399676e+01 7.430588e+01 2.763336e+00 3.759633e+00 2.485270e+00 2.358044e+00 3.274191e+00 3.440045e+00 3.377493e+00 3.739316e+00 2.725634e+00 2.294985e+00 2.660979e+00 1.985996e+00 1.957670e+00 4.324909e-01 5.260414e-01 3.872384e-01 3.497802e-01 5.010636e-01 5.788114e-01 6.284866e-01 5.571449e-01 4.601651e-01 4.231409e-01 4.589862e-01 3.711947e-01 2.365258e-01
<GCONST> 1.230325e+02
<STATE> 3
<MEAN> 39
 -1.834557e+01 9.992067e+00 4.385203e-01 3.728205e+00 -3.622508e+00 -8.895288e+00 -7.176062e+00 -3.917363e+00 -3.662956e+00 -2.944118e+00 -2.392795e+00 -6.727419e-01 6.370867e+01 7.881665e-02 -3.820108e-01 -6.943513e-02 -1.232693e-01 -2.489211e-01 -7.590476e-02 -8.669533e-02 -2.859589e-04 4.057816e-02 5.728424e-02 1.563765e-01 1.104457e-01 2.198231e-01 6.242976e-01 -4.423310e-01 8.683698e-02 -2.425378e-01 -3.969187e-01 -9.897550e-02 -2.396291e-01 -5.628407e-02 4.379517e-02 1.107424e-02 3.245659e-03 -1.487291e-01 2.214838e-01
<VARIANCE> 39
 6.541513e+01 4.940635e+01 3.584926e+01 3.355810e+01 3.813722e+01 3.865190e+01 4.463578e+01 3.151931e+01 2.610244e+01 2.085524e+01 2.682203e+01 1.921618e+01 4.915061e+01 4.914862e+00 2.636093e+00 1.669430e+00 1.866256e+00 2.719375e+00 2.455074e+00 2.335538e+00 2.018857e+00 2.138075e+00 1.621793e+00 1.616910e+00 1.467385e+00 1.752108e+00 5.663959e-01 4.312149e-01 2.862781e-01 3.365830e-01 4.441070e-01 4.627140e-01 4.373367e-01 4.539130e-01 4.200352e-01 3.278039e-01 3.228757e-01 3.302083e-01 2.128018e-01
<GCONST> 1.149334e+02
<STATE> 4
<MEAN> 39
 -1.136418e+01 9.427985e-01 -4.769069e-01 3.305263e-01 -4.546213e+00 -7.235669e+00 -6.944831e+00 -2.978430e+00 -3.961470e+00 -2.680871e+00 -1.259174e+00 -1.347525e+00 5.069123e+01 3.447271e-01 -3.225794e-01 8.020939e-02 -1.409063e-01 -2.999957e-01 4.072607e-03 -1.821589e-01 -8.440293e-02 6.595463e-02 2.970940e-02 6.729850e-02 -9.233046e-02 1.804315e-01 8.138183e-02 -8.905937e-02 1.268212e-02 -5.063878e-02 -8.205577e-02 4.779783e-02 -6.599109e-02 -3.117584e-03 1.808140e-02 -1.036091e-02 3.762166e-03 -7.245471e-02 5.707594e-02
<VARIANCE> 39
 4.246126e+01 7.635279e+01 3.871460e+01 3.044316e+01 3.738830e+01 3.739338e+01 4.672508e+01 4.021632e+01 2.512608e+01 2.199024e+01 2.623148e+01 1.965327e+01 1.704637e+02 2.513082e+00 2.503697e+00 1.314689e+00 1.569152e+00 2.402903e+00 1.946135e+00 2.183633e+00 2.332406e+00 2.048422e+00 1.686744e+00 1.666568e+00 1.600765e+00 1.892789e+00 2.632583e-01 2.686798e-01 2.007362e-01 2.454377e-01 3.165338e-01 3.932834e-01 3.964146e-01 4.388205e-01 3.523846e-01 3.302266e-01 3.308483e-01 3.378043e-01 1.896417e-01
<GCONST> 1.124090e+02
<TRANSP> 5
 0.000000e+00 1.000000e+00 0.000000e+00 0.000000e+00 0.000000e+00
 0.000000e+00 7.288756e-01 2.711245e-01 0.000000e+00 0.000000e+00
 0.000000e+00 0.000000e+00 7.887378e-01 2.112622e-01 0.000000e+00
 0.000000e+00 0.000000e+00 0.000000e+00 8.828753e-01 1.171248e-01
 0.000000e+00 0.000000e+00 0.000000e+00 0.000000e+00 0.000000e+00
<ENDHMM>
~h "ai"
<BEGINHMM>
<NUMSTATES> 5
<STATE> 2
<MEAN> 39
 -1.025734e+00 -1.486236e+01 -5.013304e+00 -8.803610e+00 -1.176638e+01 -2.008179e+00 -1.240973e+01 5.024261e+00 -1.610691e+00 -3.632749e+00 -2.512651e+00 -1.208368e+01 7.554185e+01 -2.004076e-01 -1.292890e+00 6.789644e-01 -1.028100e-01 -1.038094e+00 -4.445601e-01 4.443482e-01 2.223912e+00 -6.808007e-02 -1.107403e+00 -1.946769e-01 7.487014e-02 1.002587e+00 -2.435338e-01 5.680683e-01 3.829725e-01 2.241584e-01 -5.072401e-02 -2.112708e-01 3.208970e-01 -3.943563e-01 -3.993882e-01 9.546217e-02 1.306494e-01 5.032201e-01 -6.289624e-01
<VARIANCE> 39
 1.479931e+01 3.283002e+01 5.432207e+01 2.874329e+01 5.719249e+01 1.055068e+02 5.513265e+01 7.270431e+01 6.734541e+01 5.734633e+01 6.669963e+01 4.033073e+01 1.796707e+01 1.441358e+00 2.033257e+00 2.683314e+00 2.370102e+00 3.964527e+00 5.375545e+00 2.944311e+00 3.796385e+00 3.308079e+00 2.711972e+00 3.929027e+00 3.456630e+00 1.441980e+00 3.675292e-01 2.917225e-01 3.998770e-01 4.193646e-01 7.498550e-01 7.336360e-01 5.941714e-01 7.378413e-01 6.246512e-01 5.890738e-01 8.777052e-01 5.632086e-01 3.617490e-01
<GCONST> 1.266679e+02
<STATE> 3
<MEAN> 39
 -3.097030e+00 -1.583830e+01 -1.562794e-01 -9.526003e+00 -1.725313e+01 -6.650619e+00 -8.560279e+00 8.523567e+00 -3.371987e+00 -7.095704e+00 -6.607531e-01 -9.238566e+00 7.600546e+01 -2.475793e-01 6.219313e-01 1.446229e+00 -1.565763e-01 -1.542112e+00 -8.596499e-01 2.718767e-01 7.835408e-02 -9.102602e-01 4.026612e-01 1.094416e+00 3.823030e-01 -2.573571e-01 3.520276e-03 3.383412e-01 6.509681e-02 3.863990e-02 1.254599e-01 5.228361e-02 -2.513099e-01 -5.376698e-01 -7.553358e-02 2.736376e-01 9.334935e-02 -4.907981e-02 -2.349158e-01
<VARIANCE> 39
 1.349774e+01 3.521272e+01 4.423478e+01 2.912417e+01 5.936414e+01 7.071521e+01 3.745287e+01 6.737177e+01 5.724986e+01 5.380669e+01 5.626545e+01 2.593153e+01 1.233472e+01 2.271183e-01 1.108537e+00 1.587694e+00 8.700222e-01 2.105897e+00 2.048136e+00 1.947809e+00 2.645220e+00 1.862101e+00 2.055209e+00 2.384088e+00 1.766214e+00 3.594439e-01 6.184727e-02 1.245682e-01 1.815807e-01 1.791876e-01 4.057844e-01 3.687321e-01 3.170754e-01 4.730412e-01 3.082046e-01 3.381790e-01 4.360379e-01 3.007544e-01 8.232148e-02
<GCONST> 1.039322e+02
<STATE> 4
<MEAN> 39
 -3.894142e+00 -6.184985e+00 9.746841e+00 -7.930513e+00 -2.207649e+01 -8.608109e+00 -1.227867e+01 2.998855e+00 -1.033526e+01 -2.650589e+00 3.837684e+00 -8.007094e+00 6.842873e+01 2.791572e-02 9.019841e-01 2.596462e-01 5.294293e-01 5.130346e-01 -2.518130e-02 -6.236397e-02 -8.776634e-01 -2.527307e-01 4.587437e-02 -1.769297e-01 8.497754e-02 -1.157741e+00 4.241919e-02 4.580762e-03 -2.591567e-01 1.093465e-01 3.299938e-01 8.817340e-02 1.088202e-01 1.092014e-02 1.546091e-01 -7.549936e-02 -2.238726e-01 -7.174401e-03 -1.562801e-01
<VARIANCE> 39
 1.608460e+01 5.148202e+01 4.986728e+01 3.827887e+01 3.969972e+01 6.430412e+01 5.084936e+01 7.508651e+01 4.686159e+01 5.067178e+01 5.047201e+01 3.190032e+01 7.636797e+01 6.450087e-01 1.482862e+00 2.143896e+00 1.456697e+00 2.440714e+00 1.937860e+00 2.912185e+00 2.710776e+00 2.541362e+00 2.043682e+00 2.315784e+00 1.458146e+00 1.333401e+00 1.165937e-01 2.160687e-01 2.297879e-01 2.356936e-01 3.810231e-01 3.675333e-01 4.741724e-01 4.545632e-01 4.082561e-01 3.620672e-01 3.727101e-01 2.792305e-01 2.001026e-01
<GCONST> 1.135208e+02
<TRANSP> 5
 0.000000e+00 1.000000e+00 0.000000e+00 0.000000e+00 0.000000e+00
 0.000000e+00 6.550875e-01 3.449125e-01 0.000000e+00 0.000000e+00
 0.000000e+00 0.000000e+00 7.750268e-01 2.249732e-01 0.000000e+00
 0.000000e+00 0.000000e+00 0.000000e+00 8.860193e-01 1.139807e-01
 0.000000e+00 0.000000e+00 0.000000e+00 0.000000e+00 0.000000e+00
<ENDHMM>
~h "au"
<BEGINHMM>
<NUMSTATES> 5
<STATE> 2
<MEAN> 39
 -6.748711e+00 -5.540430e+00 -7.044034e+00 -7.290842e+00 -6.162769e+00 -1.510961e+00 -8.434449e+00 -3.781769e+00 -2.092758e+00 -2.185254e+00 -2.114888e+00 -5.592543e+00 5.201907e+01 -1.037487e-01 1.224118e-01 -1.016447e-01 -2.125139e-01 2.904171e-01 3.607897e-01 6.523118e-02 -9.125327e-02 -1.238994e-01 2.572518e-04 2.081572e-01 -1.292301e-01 -3.015264e-01 1.545846e-04 1.300878e-01 1.175572e-01 1.150559e-02 -6.474914e-02 -7.161912e-02 3.250030e-02 -1.069094e-01 -1.067768e-01 3.009986e-02 9.617223e-02 1.384292e-01 -1.031567e-01
<VARIANCE> 39
 3.350778e+01 5.642307e+01 4.230435e+01 5.333697e+01 3.441890e+01 7.587190e+01 3.091190e+01 3.551459e+01 3.864228e+01 3.257059e+01 2.826105e+01 4.691208e+01 3.393020e+02 3.939744e-01 1.071414e+00 9.231908e-01 1.362167e+00 1.549011e+00 2.103005e+00 1.707187e+00 1.916247e+00 1.821334e+00 1.871841e+00 1.926036e+00 1.625886e+00 7.787276e-01 1.182453e-01 2.097449e-01 1.851181e-01 2.197495e-01 2.762034e-01 3.361576e-01 3.398002e-01 3.829060e-01 3.906362e-01 3.784024e-01 3.838545e-01 3.746399e-01 1.592941e-01
<GCONST> 1.088142e+02
<STATE> 3
<MEAN> 39
 -2.557764e+00 -1.039199e+01 -1.157883e+01 -1.376534e+01 -7.539929e+00 7.315387e+00 -1.058897e+01 -5.343902e+00 2.837601e-01 -1.019980e+00 6.515276e-02 -1.277648e+01 7.151500e+01 3.254188e-01 5.117592e-01 -1.177166e-01 -8.695865e-01 -1.005248e-01 6.770797e-01 8.926629e-02 -4.137546e-01 -6.190810e-01 2.137930e-01 9.387468e-01 2.509990e-01 -2.710851e-01 1.151205e-01 2.202783e-01 1.527588e-01 -1.420580e-02 -2.899464e-01 -1.931143e-01 -1.854655e-02 -4.739575e-02 -1.538902e-01 3.296106e-02 3.245913e-02 3.323129e-01 -1.266569e-01
<VARIANCE> 39
 2.934533e+01 3.834293e+01 4.963833e+01 5.402347e+01 4.199770e+01 6.322147e+01 3.804382e+01 5.506962e+01 4.431577e+01 4.136070e+01 4.802913e+01 5.189207e+01 1.505976e+02 4.185675e-01 1.009711e+00 7.418091e-01 1.170252e+00 1.570652e+00 1.737187e+00 1.472919e+00 1.809086e+00 1.531625e+00 2.031022e+00 1.954539e+00 1.660047e+00 2.284909e+00 9.247940e-02 2.042966e-01 1.435300e-01 2.409653e-01 2.924821e-01 2.840569e-01 2.582796e-01 3.679173e-01 2.839901e-01 3.603214e-01 3.147251e-01 3.549237e-01 3.602774e-01
<GCONST> 1.089301e+02
<STATE> 4
<MEAN> 39
 1.255401e+00 -3.768652e+00 -9.574956e+00 -2.057842e+01 -1.162109e+01 7.843561e+00 -1.193225e+01 -5.534145e+00 -4.829905e+00 -1.746518e+00 1.711164e+00 -7.607482e+00 6.602973e+01 1.605772e-01 7.001296e-01 4.000335e-01 2.355710e-01 -1.881380e-01 -5.262814e-01 -3.743294e-02 -1.421431e-02 -4.733214e-01 -7.851933e-02 -4.124402e-02 3.739323e-01 -9.823669e-01 -5.233834e-02 -4.817083e-02 8.722165e-02 2.571433e-01 9.999751e-02 -1.590533e-01 2.443230e-02 1.255336e-02 4.860907e-02 -3.328008e-02 -1.354842e-01 -4.870834e-02 -6.058425e-02
<VARIANCE> 39
 2.449846e+01 6.256445e+01 4.412783e+01 7.107791e+01 5.201788e+01 7.259286e+01 4.304673e+01 5.013992e+01 6.466016e+01 6.357064e+01 4.420516e+01 4.304906e+01 1.185705e+02 7.415842e-01 1.544401e+00 1.251967e+00 2.892421e+00 2.435487e+00 2.710581e+00 1.971812e+00 2.180394e+00 2.568595e+00 2.531456e+00 2.479210e+00 2.428622e+00 1.542469e+00 1.077712e-01 2.018327e-01 2.178556e-01 3.562409e-01 3.822213e-01 4.411296e-01 3.645294e-01 3.805229e-01 3.932954e-01 4.767613e-01 4.249632e-01 4.081738e-01 2.010636e-01
<GCONST> 1.173239e+02
<TRANSP> 5
 0.000000e+00 1.000000e+00 0.000000e+00 0.000000e+00 0.000000e+00
 0.000000e+00 7.413640e-01 2.586360e-01 0.000000e+00 0.000000e+00
 0.000000e+00 0.000000e+00 5.921748e-01 4.078253e-01 0.000000e+00
 0.000000e+00 0.000000e+00 0.000000e+00 9.057243e-01 9.427570e-02
 0.000000e+00 0.000000e+00 0.000000e+00 0.000000e+00 0.000000e+00
<ENDHMM>
~h "kh"
<BEGINHMM>
<NUMSTATES> 5
<STATE> 2
<MEAN> 39
 -9.653027e+00 -2.376997e+00 -2.537462e+00 -2.090106e+00 -2.186192e+00 -2.077963e+00 -5.260482e+00 -2.539359e+00 -3.100149e+00 -2.490483e+00 -1.987771e+00 -3.130524e+00 5.290014e+01 -1.025887e+00 -2.469321e-01 -5.833141e-01 1.705428e-02 4.381285e-01 -1.782463e-01 -1.229443e-01 2.751632e-01 3.840314e-01 1.218657e-01 3.409167e-01 3.377397e-01 -5.931916e-01 1.472399e-01 -9.531587e-02 -4.916878e-02 -1.480720e-01 -2.237141e-01 8.769792e-03 -1.093351e-01 -1.871434e-02 -6.423935e-02 3.883593e-02 -2.371384e-02 -1.048674e-01 1.102942e-01
<VARIANCE> 39
