~o
<STREAMINFO> 1 39
<VECSIZE> 39<NULLD><MFCC_D_A_0><DIAGC>
~s "silst"
<MEAN> 39
 -1.068841e+01 2.963163e-01 -1.154398e+00 1.073265e+00 -2.329282e+00 -2.204179e+00 -2.151162e+00 -3.378189e-01 -2.464904e+00 -2.164357e+00 -1.029259e+00 -5.709516e-01 3.773404e+01 4.340607e-03 1.993458e-01 2.177584e-02 6.769196e-02 3.951521e-02 -1.131371e-02 9.824910e-02 1.579405e-02 8.178357e-03 -1.992787e-02 7.848387e-02 6.098249e-02 -2.590570e-01 1.155986e-03 -3.997733e-02 -6.134013e-03 -7.306956e-02 -2.551753e-03 1.203840e-03 -4.417650e-02 -5.964054e-02 2.677458e-03 1.905037e-02 -2.833775e-02 -4.916143e-02 6.084479e-02
<VARIANCE> 39
 9.609723e+00 1.613784e+01 1.662933e+01 2.497581e+01 1.723841e+01 2.252482e+01 2.019927e+01 3.434677e+01 2.388107e+01 2.630498e+01 2.133600e+01 2.226747e+01 3.065354e+01 4.959007e-01 1.075337e+00 1.091193e+00 1.511746e+00 1.449823e+00 1.808359e+00 1.710240e+00 2.421606e+00 2.017069e+00 2.073823e+00 1.699551e+00 1.768209e+00 4.578828e-01 8.775314e-02 1.797233e-01 1.981362e-01 2.848943e-01 2.782781e-01 3.427912e-01 3.290529e-01 4.674346e-01 3.991262e-01 4.087519e-01 3.328588e-01 3.491621e-01 7.592833e-02
<GCONST> 9.750105e+01
~h "@"
<BEGINHMM>
<NUMSTATES> 5
<STATE> 2
<MEAN> 39
 -6.970143e-01 -5.617218e+00 -3.048932e+00 -7.373288e+00 -1.129321e+01 -4.454785e+00 -1.358034e+01 -4.370515e+00 -2.720189e+00 -7.128742e-01 -7.341106e-02 -8.476334e+00 6.858762e+01 2.176797e+00 -1.536735e+00 -3.153010e-01 -1.463824e+00 -1.616672e+00 6.717370e-01 -1.912277e+00 1.056649e+00 1.273258e+00 2.723629e-01 1.142291e+00 -1.954293e+00 2.616480e+00 -4.560857e-01 2.111907e-01 1.574665e-01 3.929815e-01 2.529664e-01 1.922509e-01 3.815940e-01 -1.577764e-02 -1.740315e-01 -3.226895e-02 -2.077953e-01 2.180109e-01 -1.002039e+00
<VARIANCE> 39
 2.748236e+01 3.027086e+01 4.861558e+01 5.935021e+01 5.038783e+01 9.974655e+01 4.576809e+01 6.698135e+01 6.413208e+01 4.627880e+01 5.609117e+01 3.501849e+01 6.547465e+01 6.136690e+00 3.214481e+00 5.504406e+00 4.538884e+00 5.971957e+00 6.329672e+00 5.838515e+00 7.930502e+00 8.003518e+00 5.106210e+00 5.180263e+00 4.454047e+00 4.434894e+00 7.814922e-01 5.647416e-01 7.134427e-01 8.012397e-01 7.809743e-01 9.468387e-01 7.276571e-01 9.319860e-01 8.540559e-01 6.436820e-01 9.582667e-01 6.341404e-01 1.353778e+00
<GCONST> 1.418242e+02
<STATE> 3
<MEAN> 39
 6.070802e-01 -9.521029e+00 -4.183125e+00 -9.761343e+00 -1.272369e+01 -1.734978e+00 -1.660883e+01 -1.593135e+00 -6.903899e-02 -7.291626e-01 1.323040e+00 -1.192405e+01 7.275937e+01 5.697452e-01 -5.026323e-01 2.396843e-01 8.484842e-02 -4.853159e-01 3.813778e-01 -4.538403e-01 5.958374e-01 3.541404e-01 5.206516e-02 1.210428e-01 -5.509963e-01 2.071245e-01 -5.047088e-01 8.405100e-01 4.298721e-01 7.919322e-01 5.027561e-01 -2.860486e-01 8.096873e-01 -6.459179e-01 -7.143767e-01 -8.121793e-02 -5.247922e-01 7.630121e-01 -1.290366e+00
<VARIANCE> 39
 1.720016e+01 2.941201e+01 4.820732e+01 5.729276e+01 5.128712e+01 1.017968e+02 4.977061e+01 8.263333e+01 7.310513e+01 5.990589e+01 5.348844e+01 4.177443e+01 2.058379e+01 2.064695e+00 2.457693e+00 2.589246e+00 3.427302e+00 3.542175e+00 5.336076e+00 3.692752e+00 5.698209e+00 5.444419e+00 3.540073e+00 4.234122e+00 3.246096e+00 2.586869e+00 6.079810e-01 4.478704e-01 7.689227e-01 7.419422e-01 9.326181e-01 1.053532e+00 8.925879e-01 1.223578e+00 1.146957e+00 8.884142e-01 9.535252e-01 7.469878e-01 5.560933e-01
<GCONST> 1.354545e+02
<STATE> 4
<MEAN> 39
 -3.773108e-01 -9.192991e+00 -1.732360e+00 -8.915600e+00 -1.413570e+01 -4.093838e+00 -1.489200e+01 -1.109573e+00 -9.864038e-01 -1.766843e+00 1.132360e+00 -1.086295e+01 7.175789e+01 2.007160e-01 8.214209e-01 4.894135e-01 7.992737e-01 3.361769e-01 -1.238385e-01 4.449133e-01 -6.293952e-01 -5.434482e-01 4.686439e-02 -5.132450e-01 3.030696e-01 -1.257205e+00 -9.205648e-02 3.532061e-01 1.276322e-01 2.826085e-01 1.856781e-01 -6.223837e-02 2.253049e-01 -3.295292e-01 -2.004390e-01 1.723171e-03 -2.280037e-01 2.020341e-01 -5.023978e-01
<VARIANCE> 39
 1.839808e+01 3.688996e+01 5.861715e+01 5.859588e+01 6.721951e+01 9.290067e+01 5.703292e+01 8.773622e+01 7.831592e+01 6.026017e+01 5.713008e+01 4.152234e+01 2.840688e+01 9.556994e-01 2.284245e+00 1.989443e+00 2.738164e+00 2.614132e+00 3.123645e+00 2.844583e+00 3.544227e+00 3.603079e+00 2.472620e+00 2.796451e+00 2.183547e+00 3.180557e+00 2.964477e-01 2.879000e-01 3.560952e-01 3.871073e-01 4.983817e-01 5.077461e-01 5.637302e-01 7.897633e-01 6.397202e-01 4.895023e-01 5.585362e-01 4.205459e-01 2.871605e-01
<GCONST> 1.247306e+02
<TRANSP> 5
 0.000000e+00 1.000000e+00 0.000000e+00 0.000000e+00 0.000000e+00
 0.000000e+00 2.746287e-01 7.253713e-01 0.000000e+00 0.000000e+00
 0.000000e+00 0.000000e+00 3.907179e-01 6.092821e-01 0.000000e+00
 0.000000e+00 0.000000e+00 0.000000e+00 6.388435e-01 3.611565e-01
 0.000000e+00 0.000000e+00 0.000000e+00 0.000000e+00 0.000000e+00
<ENDHMM>
~h "a"
<BEGINHMM>
<NUMSTATES> 5
<STATE> 2
<MEAN> 39
 -9.002288e-01 -1.290814e+01 -6.407400e+00 -9.779100e+00 -1.032130e+01 4.329207e-02 -1.193775e+01 2.390863e+00 -9.659986e-02 -2.798359e+00 -2.863609e+00 -1.168425e+01 7.287649e+01 4.907778e-01 -2.067686e+00 -1.110883e+00 -5.963894e-01 5.119221e-01 1.587106e+00 -6.530844e-02 1.320440e+00 7.243155e-01 -8.724452e-01 -7.921775e-01 -1.306942e+00 1.849265e+00 -3.564846e-01 4.757405e-01 2.991534e-01 4.775396e-01 3.646009e-01 -1.430082e-01 2.185571e-01 -4.991931e-01 -3.756704e-01 -3.897322e-02 -9.156268e-02 4.760947e-01 -7.858887e-01
<VARIANCE> 39
 1.959859e+01 3.401215e+01 4.590564e+01 4.040776e+01 6.475103e+01 8.775876e+01 5.144989e+01 8.587189e+01 6.339206e+01 5.307964e+01 5.517602e+01 3.914735e+01 5.393286e+01 2.690641e+00 2.389942e+00 2.780044e+00 2.899653e+00 4.427857e+00 4.085084e+00 3.800630e+00 5.134746e+00 4.268781e+00 3.774157e+00 4.220873e+00 3.509160e+00 3.690939e+00 4.632232e-01 4.807282e-01 4.401547e-01 5.079963e-01 7.844524e-01 7.800453e-01 6.284862e-01 8.735527e-01 6.934267e-01 6.464815e-01 7.757210e-01 5.672908e-01 8.249850e-01
<GCONST> 1.332194e+02
<STATE> 3
<MEAN> 39
 -1.951127e+00 -1.666081e+01 -8.405746e+00 -1.020518e+01 -7.020533e+00 3.225238e+00 -1.167822e+01 2.645396e+00 -5.206240e-01 -5.860877e+00 -4.980036e+00 -1.258158e+01 7.601872e+01 2.787739e-02 7.749743e-02 1.727425e-02 1.544813e-01 1.865426e-01 -1.110484e-01 -5.258564e-03 5.109626e-02 -2.405271e-01 2.115004e-02 -2.439142e-01 2.303274e-02 -2.206526e-01 7.745341e-02 4.441516e-01 2.520671e-01 8.759847e-02 -2.198476e-01 -3.345822e-01 -5.571019e-02 -1.863155e-01 -9.967778e-02 2.609710e-01 1.544920e-01 1.628436e-01 -3.727544e-01
<VARIANCE> 39
 1.518487e+01 2.775920e+01 3.396612e+01 2.820011e+01 4.117303e+01 6.287615e+01 4.282473e+01 7.175767e+01 6.262334e+01 5.593594e+01 4.237942e+01 4.069006e+01 1.362532e+01 3.465073e-01 8.787393e-01 1.013285e+00 9.978315e-01 2.031375e+00 2.269164e+00 1.592125e+00 2.133718e+00 1.546187e+00 1.727358e+00 1.888747e+00 1.515136e+00 4.318199e-01 8.619767e-02 1.852686e-01 1.629775e-01 1.927745e-01 2.733460e-01 2.871823e-01 3.109410e-01 4.454052e-01 3.365621e-01 2.985623e-01 3.456458e-01 3.045153e-01 1.385337e-01
<GCONST> 1.028233e+02
<STATE> 4
<MEAN> 39
 -1.111762e-01 -1.164707e+01 -5.800461e+00 -7.971687e+00 -8.081160e+00 -7.577901e-01 -1.147384e+01 2.646471e+00 -1.814537e+00 -3.165504e+00 -5.506068e+00 -1.088337e+01 6.832545e+01 2.920586e-01 1.908344e+00 9.603199e-01 1.093053e+00 3.057910e-02 -8.595387e-01 1.384351e-01 -1.082372e+00 -4.372174e-01 4.212551e-01 5.530054e-02 6.774156e-01 -2.538956e+00 -1.117746e-01 2.468753e-01 1.496902e-01 2.227260e-01 1.351002e-01 4.742520e-02 1.580071e-01 -3.612585e-01 -9.448311e-02 -7.941671e-02 -3.112401e-02 1.439875e-01 -4.116702e-01
<VARIANCE> 39
 1.735099e+01 3.592100e+01 4.445161e+01 3.863274e+01 5.492192e+01 6.701717e+01 5.112019e+01 7.997855e+01 6.116946e+01 6.336524e+01 6.198657e+01 4.282777e+01 7.437990e+01 1.328179e+00 2.135645e+00 2.105860e+00 2.433721e+00 3.212940e+00 3.290351e+00 3.212324e+00 3.860254e+00 3.620798e+00 3.288342e+00 3.419091e+00 2.596780e+00 3.158034e+00 2.398766e-01 4.466759e-01 3.645313e-01 4.454164e-01 5.222386e-01 5.711115e-01 5.887462e-01 7.825323e-01 5.913742e-01 6.060075e-01 6.504272e-01 4.604097e-01 5.454764e-01
<GCONST> 1.270324e+02
<TRANSP> 5
 0.000000e+00 1.000000e+00 0.000000e+00 0.000000e+00 0.000000e+00
 0.000000e+00 5.899401e-01 4.100599e-01 0.000000e+00 0.000000e+00
 0.000000e+00 0.000000e+00 7.904581e-01 2.095419e-01 0.000000e+00
 0.000000e+00 0.000000e+00 0.000000e+00 6.584752e-01 3.415248e-01
 0.000000e+00 0.000000e+00 0.000000e+00 0.000000e+00 0.000000e+00
<ENDHMM>
~h "b"
<BEGINHMM>
<NUMSTATES> 5
<STATE> 2
<MEAN> 39
 4.690383e-01 3.713776e+00 1.658192e+00 -1.029346e+00 -5.840653e+00 -1.688084e-01 -6.961829e+00 -6.335434e+00 -7.617031e+00 -2.453631e+00 -1.951951e+00 -6.210923e+00 4.650600e+01 4.238658e-01 1.081181e+00 4.719618e-01 3.214116e-01 4.199846e-01 2.589342e-01 5.679296e-01 -1.378813e-01 -2.171228e-01 -2.690824e-02 -1.237797e-01 -1.984176e-02 -8.870294e-01 -1.806467e-01 -3.048775e-01 -1.518494e-01 -2.263582e-01 -1.340039e-01 -1.421606e-01 -2.033009e-01 3.201457e-02 1.337367e-01 9.414538e-03 1.452590e-01 7.211671e-02 6.060527e-01
<VARIANCE> 39
 6.864079e+01 3.798162e+01 3.542303e+01 2.980987e+01 4.031637e+01 4.591132e+01 3.702766e+01 4.208301e+01 5.642863e+01 3.292561e+01 3.652504e+01 3.167386e+01 8.831928e+01 1.989786e+00 2.190601e+00 1.813788e+00 1.878503e+00 2.211856e+00 2.248313e+00 2.384008e+00 2.615395e+00 2.968153e+00 2.352682e+00 2.466555e+00 1.938310e+00 3.647923e+00 3.719339e-01 4.023311e-01 3.457254e-01 3.960799e-01 4.349507e-01 4.339784e-01 4.507306e-01 5.136706e-01 6.019614e-01 4.534989e-01 4.506330e-01 3.908981e-01 4.760830e-01
<GCONST> 1.205814e+02
<STATE> 3
<MEAN> 39
 5.867510e+00 7.496118e+00 4.403291e+00 -1.014958e+00 -5.330426e+00 2.484378e+00 -6.778620e+00 -9.675683e+00 -1.114922e+01 -2.936200e+00 -4.758000e-01 -6.862427e+00 5.066785e+01 -1.101317e+00 -1.587482e+00 -1.156187e+00 -1.175251e+00 -8.994588e-02 -9.190162e-01 -1.097293e+00 1.564578e-01 1.204071e+00 1.304799e-01 9.381998e-01 6.382568e-01 3.165943e+00 -4.966301e-01 -1.230786e+00 -5.380242e-01 -6.769809e-01 -7.957410e-01 -1.944864e-01 -7.293624e-01 4.172004e-01 6.004725e-01 2.574705e-01 3.273870e-01 -2.008788e-01 1.525589e+00
<VARIANCE> 39
 2.072108e+01 2.645036e+01 1.866910e+01 3.150863e+01 3.814566e+01 4.992882e+01 3.272940e+01 4.090666e+01 6.264080e+01 3.602320e+01 4.325478e+01 2.686376e+01 3.940393e+01 3.658481e+00 4.190570e+00 3.862317e+00 4.894290e+00 4.213478e+00 4.831574e+00 4.004041e+00 4.286650e+00 6.197431e+00 4.189237e+00 3.948661e+00 3.261807e+00 6.289864e+00 5.036466e-01 4.607904e-01 6.333681e-01 6.390708e-01 6.873769e-01 9.219255e-01 6.241581e-01 9.807166e-01 1.229945e+00 8.814853e-01 7.804246e-01 7.725183e-01 5.709767e-01
<GCONST> 1.324447e+02
<STATE> 4
<MEAN> 39
 6.504164e-01 -2.324526e+00 -2.359823e+00 -7.555328e+00 -8.037045e+00 -1.236506e+00 -1.258068e+01 -8.275594e+00 -4.288720e+00 5.452445e-01 3.667022e+00 -5.965635e+00 6.574767e+01 -1.006957e+00 -3.628931e+00 -1.785425e+00 -2.437824e+00 -2.158124e+00 -3.430423e-01 -2.301603e+00 1.416293e+00 2.424106e+00 9.898302e-01 1.067376e+00 -1.224146e+00 5.082956e+00 2.929859e-01 2.160230e-01 4.647114e-01 3.596949e-01 -2.575585e-01 4.020326e-01 2.971454e-01 3.421206e-01 -2.697271e-01 -3.391085e-01 -5.397026e-01 -4.206680e-01 -6.607537e-01
<VARIANCE> 39
 1.937136e+01 2.782477e+01 3.459109e+01 6.883344e+01 3.205309e+01 5.726090e+01 4.019101e+01 4.332058e+01 4.083694e+01 4.929416e+01 4.433101e+01 3.598733e+01 5.012355e+01 2.533246e+00 3.883811e+00 5.994307e+00 5.734692e+00 4.795179e+00 6.641594e+00 4.764762e+00 8.222372e+00 9.651519e+00 7.088886e+00 6.238182e+00 6.384889e+00 4.331563e+00 4.204283e-01 5.984483e-01 4.047573e-01 1.046617e+00 9.871919e-01 8.725972e-01 8.725621e-01 8.182307e-01 8.381059e-01 8.906336e-01 1.052012e+00 7.584066e-01 8.077748e-01
<GCONST> 1.384885e+02
<TRANSP> 5
 0.000000e+00 1.000000e+00 0.000000e+00 0.000000e+00 0.000000e+00
 0.000000e+00 8.064976e-01 1.935024e-01 0.000000e+00 0.000000e+00
 0.000000e+00 0.000000e+00 5.618538e-01 4.381463e-01 0.000000e+00
 0.000000e+00 0.000000e+00 0.000000e+00 3.855965e-01 6.144035e-01
 0.000000e+00 0.000000e+00 0.000000e+00 0.000000e+00 0.000000e+00
<ENDHMM>
~h "c"
<BEGINHMM>
<NUMSTATES> 5
<STATE> 2
<MEAN> 39
 -7.835680e+00 3.144786e+00 1.066440e+00 -1.330032e+00 -7.076789e+00 -7.408647e+00 -7.386362e+00 -3.732130e+00 -4.080035e+00 -2.894632e+00 -3.056137e+00 -3.348732e+00 4.608487e+01 -1.580214e+00 -2.179700e-01 -6.015377e-01 -4.486628e-01 5.959777e-01 2.094883e-01 3.348990e-01 -1.465442e-01 2.537361e-01 -1.120310e-03 1.962227e-01 2.600193e-01 -5.086441e-01 -4.021692e-01 -3.347313e-01 -1.702003e-01 -3.179090e-01 -8.524130e-02 5.952195e-02 -1.319140e-02 1.938540e-02 2.776103e-02 3.112424e-02 1.086558e-01 3.730612e-02 1.027880e+00
<VARIANCE> 39
 3.828241e+01 3.481724e+01 4.707243e+01 2.778322e+01 4.353860e+01 4.631042e+01 4.317445e+01 3.954412e+01 3.673471e+01 2.875937e+01 2.654777e+01 2.355090e+01 1.186353e+02 5.746968e+00 4.414506e+00 3.396122e+00 3.455864e+00 3.889002e+00 3.160976e+00 3.451279e+00 3.159221e+00 3.301889e+00 2.577790e+00 2.619867e+00 2.242276e+00 1.385680e+01 8.371661e-01 7.504992e-01 5.751215e-01 5.805120e-01 7.391262e-01 6.695819e-01 6.695379e-01 6.059272e-01 6.187568e-01 5.233835e-01 4.955982e-01 4.628807e-01 1.752275e+00
<GCONST> 1.312060e+02
<STATE> 3
<MEAN> 39
 -2.452973e+01 -4.842728e-01 -3.002029e+00 -8.022705e+00 -4.728725e+00 -5.670636e+00 -4.963627e+00 -4.482869e+00 -2.539287e+00 -2.122940e+00 -4.584186e-01 -2.868591e-01 6.390897e+01 -8.428525e-01 -1.242825e-01 4.380345e-01 -6.423180e-01 -9.827105e-01 -5.550407e-01 -1.751696e-01 2.729133e-01 1.937193e-01 -1.980461e-01 3.493862e-02 1.876868e-01 4.280877e+00 2.355889e+00 -4.530684e-02 6.691443e-01 5.536914e-01 -8.130876e-01 -3.795002e-01 -6.375353e-01 2.376834e-01 -7.999264e-02 -2.180616e-01 -2.384694e-01 -5.431727e-01 -6.553351e-01
<VARIANCE> 39
 2.698368e+01 2.783095e+01 4.168980e+01 2.540231e+01 2.750794e+01 3.089159e+01 3.174353e+01 2.820275e+01 2.488832e+01 2.118737e+01 1.948602e+01 1.661674e+01 3.243689e+01 1.576273e+01 3.363796e+00 5.294149e+00 4.235343e+00 4.781127e+00 4.699898e+00 4.117376e+00 3.467416e+00 3.406986e+00 2.617625e+00 2.678957e+00 2.435137e+00 8.826345e+00 1.052268e+00 1.094638e+00 8.581643e-01 7.733100e-01 8.913354e-01 9.521803e-01 6.728883e-01 9.673583e-01 8.182682e-01 6.026918e-01 6.436803e-01 5.459089e-01 8.723407e-01
<GCONST> 1.306744e+02
<STATE> 4
<MEAN> 39
 -1.120580e+01 -1.090861e+00 2.249624e+00 -5.228489e+00 -1.182853e+01 -1.097335e+01 -9.861083e+00 -2.197107e+00 -2.325340e+00 -4.651632e+00 -3.236634e+00 -2.853056e+00 7.047248e+01 5.686110e+00 -2.592155e+00 6.740488e-01 2.250127e-01 -2.429461e+00 -5.969518e-01 -2.280324e+00 1.383985e+00 5.949363e-01 -4.875671e-01 -6.475049e-02 -1.941315e+00 2.294379e+00 2.423375e-02 -5.557436e-01 -6.977739e-01 -2.565100e-01 4.776416e-01 8.783457e-01 1.353077e-01 4.955793e-02 3.469266e-02 2.019440e-01 3.301100e-01 -3.849985e-01 -6.749863e-01
<VARIANCE> 39
 5.385789e+01 4.070969e+01 4.431609e+01 2.307350e+01 3.906578e+01 3.248367e+01 4.302415e+01 4.307667e+01 3.885133e+01 2.347781e+01 1.976462e+01 1.985384e+01 2.996300e+01 2.400985e+00 5.091795e+00 5.689629e+00 4.582756e+00 5.077400e+00 5.351041e+00 3.568733e+00 8.440204e+00 5.696311e+00 3.837086e+00 3.948981e+00 2.591108e+00 1.667067e+00 1.762180e+00 6.318739e-01 4.981384e-01 4.852900e-01 9.545282e-01 6.956546e-01 7.438068e-01 8.495887e-01 6.345849e-01 4.780552e-01 5.073438e-01 4.211828e-01 5.811493e-01
<GCONST> 1.300921e+02
<TRANSP> 5
 0.000000e+00 1.000000e+00 0.000000e+00 0.000000e+00 0.000000e+00
 0.000000e+00 8.632119e-01 1.367882e-01 0.000000e+00 0.000000e+00
 0.000000e+00 0.000000e+00 6.916595e-01 3.083405e-01 0.000000e+00
 0.000000e+00 0.000000e+00 0.000000e+00 4.900062e-01 5.099938e-01
 0.000000e+00 0.000000e+00 0.000000e+00 0.000000e+00 0.000000e+00
<ENDHMM>
~h "d"
<BEGINHMM>
<NUMSTATES> 5
<STATE> 2
<MEAN> 39
 -4.959757e+00 6.159886e-01 1.187901e+00 3.863958e-01 -6.282257e+00 -4.971573e+00 -6.918528e+00 -2.905332e+00 -3.860370e+00 -3.160262e+00 -4.030609e+00 -4.267883e+00 4.430355e+01 3.693225e-01 6.333568e-01 3.792171e-01 4.782285e-01 2.939958e-01 -9.209141e-02 1.265134e-01 1.041377e-01 1.515886e-01 -2.615706e-02 -2.790315e-01 -1.160322e-01 -6.092165e-01 -6.439189e-02 -1.391107e-01 6.020746e-03 -1.646483e-01 -7.711714e-02 -3.185657e-02 -6.744153e-02 4.791626e-02 -1.204722e-02 -1.311133e-02 9.784168e-02 2.209727e-02 3.780474e-01
<VARIANCE> 39
 6.092194e+01 4.165744e+01 4.792977e+01 2.948133e+01 4.648050e+01 3.736928e+01 4.335206e+01 4.420057e+01 3.614146e+01 3.095350e+01 3.475626e+01 3.287469e+01 1.023867e+02 2.346966e+00 2.533389e+00 2.047434e+00 1.991484e+00 2.872373e+00 2.386444e+00 2.571620e+00 3.130507e+00 2.675380e+00 2.282841e+00 2.632196e+00 1.991959e+00 3.593088e+00 4.132220e-01 4.213408e-01 3.379553e-01 4.244497e-01 4.890005e-01 4.561999e-01 4.707420e-01 5.706654e-01 5.153872e-01 4.635898e-01 4.728202e-01 3.945863e-01 5.163495e-01
<GCONST> 1.221458e+02
<STATE> 3
<MEAN> 39
 4.763996e+00 3.958892e+00 8.196325e+00 5.380444e+00 -8.735079e+00 -7.525445e+00 -1.069470e+01 -3.213960e+00 -3.078080e+00 -3.234243e+00 -7.073476e+00 -8.313464e+00 5.163917e+01 -1.316783e+00 -1.078645e+00 3.777683e-01 -1.082254e+00 2.466438e-01 -5.003239e-01 -2.099316e-01 2.349303e-01 -1.805021e-01 -2.796598e-01 8.419533e-01 9.454680e-01 2.433338e+00 -8.595331e-01 -9.751840e-01 -2.816763e-01 -8.392705e-01 -8.324839e-01 6.640208e-02 -2.616613e-01 -1.468226e-02 -2.217161e-01 -6.124285e-02 8.825181e-01 3.219681e-01 1.586851e+00
<VARIANCE> 39
 2.068892e+01 3.300182e+01 2.715217e+01 2.743086e+01 5.297200e+01 3.612751e+01 4.372945e+01 5.564431e+01 4.285542e+01 3.753361e+01 3.242428e+01 3.091311e+01 4.369772e+01 5.052494e+00 4.322877e+00 3.491811e+00 3.996984e+00 5.343729e+00 4.096667e+00 4.391191e+00 5.921176e+00 4.969950e+00 3.650539e+00 4.283306e+00 3.361462e+00 8.232560e+00 5.477626e-01 5.116439e-01 5.749684e-01 6.602341e-01 1.085971e+00 7.577211e-01 8.198006e-01 1.459165e+00 1.037580e+00 6.880921e-01 6.648524e-01 6.215362e-01 7.004471e-01
<GCONST> 1.341451e+02
<STATE> 4
<MEAN> 39
 -4.512395e+00 -4.824408e+00 7.230021e+00 -2.633328e+00 -1.045721e+01 -9.340402e+00 -1.145438e+01 -2.558942e+00 -4.542183e+00 -4.192276e+00 -8.126673e-01 -2.379145e+00 6.699046e+01 -1.461329e+00 -2.637406e+00 -6.570682e-01 -2.126415e+00 -3.045198e+00 -3.412530e-01 -1.380859e+00 1.009468e+00 2.642222e-01 -3.242739e-01 2.500120e+00 2.481548e-01 5.018530e+00 7.259626e-01 3.633550e-01 -2.574190e-01 3.488526e-01 -5.365663e-01 5.192963e-01 -8.466014e-02 1.696634e-01 1.834372e-01 2.607230e-02 -2.046289e-01 -7.817622e-01 -6.622429e-01
<VARIANCE> 39
 2.007778e+01 2.615598e+01 3.746383e+01 3.271159e+01 6.336492e+01 4.948522e+01 5.744571e+01 5.151832e+01 5.403136e+01 2.699729e+01 2.700985e+01 2.091763e+01 4.315625e+01 3.491193e+00 3.331347e+00 5.642358e+00 4.176170e+00 5.338157e+00 4.728708e+00 5.006454e+00 1.269120e+01 9.054273e+00 4.020288e+00 4.378601e+00 3.864868e+00 3.955599e+00 3.711557e-01 5.266694e-01 5.485705e-01 7.300826e-01 1.460986e+00 9.650368e-01 1.155456e+00 1.103728e+00 9.481475e-01 7.538317e-01 9.445335e-01 5.704435e-01 7.986015e-01
<GCONST> 1.361344e+02
<TRANSP> 5
 0.000000e+00 1.000000e+00 0.000000e+00 0.000000e+00 0.000000e+00
 0.000000e+00 8.326609e-01 1.673391e-01 0.000000e+00 0.000000e+00
 0.000000e+00 0.000000e+00 6.111813e-01 3.888187e-01 0.000000e+00
 0.000000e+00 0.000000e+00 0.000000e+00 4.570072e-01 5.429927e-01
 0.000000e+00 0.000000e+00 0.000000e+00 0.000000e+00 0.000000e+00
<ENDHMM>
~h "e"
<BEGINHMM>
<NUMSTATES> 5
<STATE> 2
<MEAN> 39
 -3.503988e+00 -8.069512e+00 9.488114e-01 -4.802487e+00 -1.522536e+01 -7.829087e+00 -1.024829e+01 9.303162e-01 -3.747639e+00 -1.979002e+00 3.087061e-01 -7.002609e+00 6.287196e+01 5.391443e-01 -1.613513e+00 6.026589e-01 -6.408019e-01 -1.822269e+00 -2.346220e-01 -2.006479e-01 1.793342e+00 4.229555e-02 -4.676550e-01 4.934328e-01 -4.704263e-01 2.336767e+00 -1.170795e-01 2.218503e-01 9.021608e-02 2.360219e-03 9.652279e-02 2.467754e-01 2.693088e-01 -9.271957e-02 -1.632291e-01 -2.116932e-02 -4.381412e-02 7.064211e-02 -3.129316e-01
<VARIANCE> 39
 4.029273e+01 5.734369e+01 6.070192e+01 4.790125e+01 8.200648e+01 6.517821e+01 6.569569e+01 8.967112e+01 7.315398e+01 5.243537e+01 5.598066e+01 3.911465e+01 1.959963e+02 4.464333e+00 4.937535e+00 3.648819e+00 4.002818e+00 7.306243e+00 4.863517e+00 5.070362e+00 7.471097e+00 5.799729e+00 4.907658e+00 4.652483e+00 3.524385e+00 1.089574e+01 7.344306e-01 9.324309e-01 5.555017e-01 6.678140e-01 1.088670e+00 7.846795e-01 8.915759e-01 1.065476e+00 9.716048e-01 7.835567e-01 7.418711e-01 6.127766e-01 2.162973e+00
<GCONST> 1.455291e+02
<STATE> 3
<MEAN> 39
 -1.435142e+00 -1.403025e+01 3.249337e+00 -7.648046e+00 -2.103481e+01 -7.045930e+00 -1.085228e+01 6.991722e+00 -4.555054e+00 -3.489825e+00 1.578319e+00 -8.565684e+00 7.431241e+01 -1.363387e-01 -6.726170e-02 4.736251e-01 -1.573208e-01 -5.719148e-01 3.595177e-02 4.687761e-01 4.122937e-01 -3.419095e-01 -6.737017e-02 2.690386e-01 -6.043300e-02 2.490773e-01 -1.370154e-01 6.748332e-01 -1.454115e-01 3.293675e-01 7.002223e-01 4.802918e-03 1.575892e-01 -7.258264e-01 -3.410989e-02 1.512144e-01 -2.885678e-01 1.721435e-01 -8.426161e-01
<VARIANCE> 39
 1.381414e+01 3.887422e+01 5.384353e+01 4.270483e+01 6.052972e+01 6.250322e+01 5.360000e+01 9.179036e+01 7.339991e+01 5.301862e+01 5.399865e+01 3.069493e+01 1.922873e+01 9.481282e-01 2.022004e+00 2.087070e+00 2.485752e+00 3.432910e+00 3.091744e+00 3.281312e+00 3.773640e+00 3.305738e+00 2.739660e+00 2.736528e+00 1.902324e+00 2.126923e+00 2.982156e-01 3.289832e-01 3.610051e-01 3.946587e-01 5.749317e-01 5.868636e-01 6.941336e-01 7.433294e-01 7.342491e-01 6.330216e-01 5.634944e-01 4.355338e-01 4.222353e-01
<GCONST> 1.238110e+02
<STATE> 4
<MEAN> 39
 -3.311519e+00 -1.036283e+01 6.164818e+00 -7.561440e+00 -2.225382e+01 -8.566000e+00 -9.402216e+00 4.395412e+00 -6.175914e+00 -3.083514e+00 3.508496e+00 -8.151686e+00 7.098819e+01 7.343347e-02 5.115163e-01 -1.347625e-01 3.782909e-01 5.300266e-01 -7.826727e-02 1.062145e-01 -4.013241e-01 -2.583220e-02 6.534327e-02 -3.663843e-01 1.928094e-02 -8.150688e-01 3.276626e-02 1.374959e-01 -5.354739e-02 1.349883e-01 2.072894e-01 7.793465e-03 -4.474959e-02 -1.535314e-01 1.621168e-02 3.325038e-02 -1.055727e-01 3.109850e-02 -2.338675e-01
<VARIANCE> 39
 1.505678e+01 4.008904e+01 6.303725e+01 3.890464e+01 6.338448e+01 6.119487e+01 4.998172e+01 8.710353e+01 5.920641e+01 5.437728e+01 5.876302e+01 2.892877e+01 6.886510e+01 5.982808e-01 1.236787e+00 1.123047e+00 1.464891e+00 1.766941e+00 1.482543e+00 2.007067e+00 2.048806e+00 1.856762e+00 1.558864e+00 1.637735e+00 1.175815e+00 1.962660e+00 1.168522e-01 1.954450e-01 1.837674e-01 2.155806e-01 3.004682e-01 2.906249e-01 3.631631e-01 3.937087e-01 3.431436e-01 3.027679e-01 2.808590e-01 2.110693e-01 2.162580e-01
<GCONST> 1.092283e+02
<TRANSP> 5
 0.000000e+00 1.000000e+00 0.000000e+00 0.000000e+00 0.000000e+00
 0.000000e+00 6.001037e-01 3.998964e-01 0.000000e+00 0.000000e+00
 0.000000e+00 0.000000e+00 6.063858e-01 3.936142e-01 0.000000e+00
 0.000000e+00 0.000000e+00 0.000000e+00 8.410601e-01 1.589399e-01
 0.000000e+00 0.000000e+00 0.000000e+00 0.000000e+00 0.000000e+00
<ENDHMM>
~h "f"
<BEGINHMM>
<NUMSTATES> 5
<STATE> 2
<MEAN> 39
 -7.690381e+00 -8.680234e-01 -2.788410e-01 -9.783272e-01 -4.044648e+00 -3.160191e+00 -6.296365e+00 -3.404520e+00 -4.079568e+00 -2.503004e+00 -2.488317e+00 -3.769973e+00 6.262013e+01 -3.704041e+00 2.051899e-01 -2.445102e-01 1.383549e+00 1.573419e+00 -4.117342e-01 4.077628e-01 9.353616e-02 1.486351e+00 -2.007282e-01 -1.378875e-01 6.366729e-01 -1.041648e+00 -2.016642e-01 -6.755003e-01 -2.040371e-01 -4.082911e-01 -7.190596e-01 -6.374346e-02 -4.349827e-01 -5.932284e-02 -1.588192e-01 1.049733e-01 1.569355e-01 -1.819025e-01 2.158871e-01
<VARIANCE> 39
 4.999766e+01 2.258303e+01 4.255308e+01 4.437896e+01 3.665333e+01 5.666857e+01 3.326973e+01 4.129339e+01 3.821390e+01 3.069875e+01 3.504624e+01 2.389521e+01 3.373729e+01 2.312250e+00 4.072948e+00 4.031297e+00 4.167233e+00 5.608080e+00 4.519657e+00 3.533659e+00 4.918809e+00 3.957766e+00 3.865865e+00 3.620687e+00 2.461246e+00 1.658836e+00 7.810872e-01 4.112072e-01 4.506140e-01 6.541762e-01 6.525949e-01 6.177946e-01 5.896565e-01 6.477103e-01 8.028437e-01 5.673907e-01 5.125610e-01 3.624769e-01 1.913593e-01
<GCONST> 1.266524e+02
<STATE> 3
<MEAN> 39
 -1.955549e+01 -6.005958e+00 -3.806111e+00 -6.736447e-01 -4.392862e+00 -5.405644e+00 -8.142292e+00 -3.292537e+00 -1.827036e+00 -1.829777e+00 -1.711582e+00 -2.297269e+00 5.963506e+01 -6.344776e-01 -5.949584e-01 -4.654298e-01 -2.047433e-01 -1.552745e-01 -9.817530e-02 -5.956720e-02 -2.251575e-02 4.708314e-02 8.303803e-02 1.043458e-01 7.432528e-02 -2.805290e-01 6.978404e-01 1.513153e-01 1.477457e-01 -9.198499e-02 -4.966339e-02 8.722147e-02 7.753577e-02 2.906493e-02 -1.396962e-01 -3.155641e-02 1.155189e-02 -9.473277e-02 9.861491e-02
<VARIANCE> 39
 2.133365e+01 1.988643e+01 2.545541e+01 1.800989e+01 2.070558e+01 2.678555e+01 2.361939e+01 2.339214e+01 2.179267e+01 2.037144e+01 2.166986e+01 1.646030e+01 3.025656e+01 1.751460e+00 1.158065e+00 1.544825e+00 1.476763e+00 1.595275e+00 1.855460e+00 1.887852e+00 1.791031e+00 1.776010e+00 1.689764e+00 1.578222e+00 1.418274e+00 1.022885e+00 4.457612e-01 2.571194e-01 3.260269e-01 3.428909e-01 3.772044e-01 4.024627e-01 3.754704e-01 4.166769e-01 4.424045e-01 3.866000e-01 3.540890e-01 3.259260e-01 1.732716e-01
<GCONST> 1.038576e+02
<STATE> 4
<MEAN> 39
 -1.418686e+01 -4.769023e+00 -4.755226e+00 -2.715304e+00 -4.492445e+00 -4.302754e+00 -6.318676e+00 -3.403957e+00 -2.726820e+00 -1.998125e+00 -1.332321e+00 -2.655663e+00 5.125814e+01 2.205972e+00 2.962964e-01 1.727482e-01 -6.160799e-01 -6.044068e-01 2.997397e-01 -9.134590e-02 -8.642507e-02 -4.676121e-01 -2.421576e-01 1.216435e-01 -5.176160e-01 5.698981e-01 4.883390e-01 1.293128e-03 7.644547e-02 -1.947627e-01 -3.298800e-01 1.210931e-01 -1.865027e-01 -2.771012e-02 -1.340026e-01 -5.794242e-02 1.181354e-01 -1.723575e-01 3.193859e-01
<VARIANCE> 39
 4.501774e+01 2.998447e+01 3.089733e+01 2.680169e+01 2.465600e+01 3.357901e+01 2.415305e+01 2.711531e+01 2.680821e+01 2.339157e+01 2.191128e+01 1.860598e+01 1.468279e+02 8.693063e+00 3.058677e+00 3.441021e+00 3.926809e+00 3.169772e+00 3.980438e+00 2.594322e+00 3.215767e+00 3.186421e+00 2.755638e+00 2.382871e+00 2.625882e+00 4.578780e+00 1.018956e+00 5.291895e-01 4.589900e-01 5.742278e-01 6.014051e-01 6.171518e-01 5.008944e-01 5.658496e-01 6.380456e-01 4.964663e-01 4.781942e-01 4.393847e-01 4.876279e-01
<GCONST> 1.246857e+02
<TRANSP> 5
 0.000000e+00 1.000000e+00 0.000000e+00 0.000000e+00 0.000000e+00
 0.000000e+00 6.771335e-01 3.228665e-01 0.000000e+00 0.000000e+00
 0.000000e+00 0.000000e+00 8.351084e-01 1.648916e-01 0.000000e+00
 0.000000e+00 0.000000e+00 0.000000e+00 7.923461e-01 2.076540e-01
 0.000000e+00 0.000000e+00 0.000000e+00 0.000000e+00 0.000000e+00
<ENDHMM>
~h "g"
<BEGINHMM>
<NUMSTATES> 5
<STATE> 2
<MEAN> 39
 3.095757e+00 4.615319e+00 6.822772e+00 8.720199e-01 -1.136541e+01 -6.027853e+00 -9.266890e+00 -4.260786e+00 -8.166353e+00 -9.378340e-01 -2.019509e+00 -8.678402e+00 5.200720e+01 -4.233326e-01 5.661934e-01 -2.766836e-02 4.991474e-01 1.039948e+00 -4.146546e-01 4.958390e-01 -7.586408e-02 2.600387e-01 -8.372603e-02 -4.603136e-01 5.110921e-01 -6.096293e-01 -6.488510e-01 -7.047476e-01 -4.808373e-01 -4.411581e-01 1.440538e-01 -2.722721e-02 -2.198582e-01 1.082589e-01 5.660178e-02 -1.367306e-02 1.992344e-01 2.686448e-01 1.173040e+00
<VARIANCE> 39
 2.761010e+01 3.664727e+01 4.940095e+01 3.577576e+01 5.569238e+01 5.399560e+01 4.673138e+01 5.706636e+01 5.377067e+01 3.913110e+01 3.858130e+01 3.283620e+01 6.024638e+01 4.341587e+00 4.048111e+00 4.591016e+00 2.876572e+00 5.512906e+00 4.218646e+00 3.864253e+00 3.996125e+00 3.780248e+00 3.186946e+00 3.275208e+00 3.106545e+00 7.294069e+00 5.069486e-01 5.229930e-01 6.307004e-01 4.813619e-01 8.621804e-01 6.897159e-01 6.544914e-01 7.615085e-01 8.047359e-01 6.161037e-01 6.197397e-01 5.329329e-01 7.948939e-01
<GCONST> 1.332177e+02
<STATE> 3
<MEAN> 39
 -4.910807e+00 -2.317938e-01 5.166616e-01 9.577850e-02 -2.506642e+00 -6.869893e+00 -8.380516e+00 -4.233773e+00 -8.066741e+00 -9.125605e-01 -4.361046e+00 -3.479087e+00 5.994852e+01 -2.143603e+00 -2.085290e+00 -1.600857e+00 -1.420629e+00 3.835818e-01 -7.913141e-01 -7.586633e-01 5.301812e-01 -1.388980e-01 -3.723836e-02 1.047737e+00 1.017162e+00 4.204119e+00 7.358881e-01 2.821168e-02 6.147950e-01 -4.344639e-01 -1.657319e+00 1.167845e-01 -4.737762e-01 2.076567e-01 1.168039e-01 -1.344030e-01 8.573736e-01 -6.198832e-01 2.982811e-01
<VARIANCE> 39
 3.681083e+01 4.742174e+01 8.301761e+01 5.008766e+01 6.140723e+01 6.535014e+01 4.298703e+01 5.175637e+01 4.776302e+01 3.262339e+01 3.207237e+01 2.391254e+01 7.472623e+01 3.539705e+00 4.372080e+00 6.601173e+00 4.100799e+00 7.713170e+00 6.253578e+00 4.509706e+00 6.319427e+00 5.534815e+00 4.125422e+00 4.788331e+00 3.216921e+00 4.639309e+00 5.813687e-01 9.521351e-01 1.031646e+00 8.584682e-01 1.228335e+00 1.126447e+00 8.566638e-01 1.142302e+00 9.314080e-01 7.061015e-01 7.483932e-01 6.525902e-01 1.050169e+00
<GCONST> 1.409517e+02
<STATE> 4
<MEAN> 39
 -4.090460e+00 -3.465612e+00 2.488687e+00 -3.406459e+00 -1.232627e+01 -1.119296e+01 -1.260934e+01 -1.331260e+00 -7.158649e+00 -1.386556e+00 3.356606e+00 -4.992128e+00 6.905049e+01 7.286956e-01 -1.299566e+00 4.042352e-01 -1.882028e+00 -3.526001e+00 2.591675e-01 -1.202052e+00 1.406250e+00 1.154835e+00 -5.035503e-01 2.221898e+00 -1.249300e+00 2.513547e+00 5.969628e-01 1.685963e-01 7.046672e-02 5.770136e-02 -7.193796e-02 7.954344e-01 2.255047e-01 4.064126e-02 3.169273e-01 -6.558356e-02 -5.408797e-01 -5.504273e-01 -8.109601e-01
<VARIANCE> 39
 2.048668e+01 3.112189e+01 6.852402e+01 3.722939e+01 8.533693e+01 7.783378e+01 4.989116e+01 7.442085e+01 5.566264e+01 3.811916e+01 4.337421e+01 2.911072e+01 3.752663e+01 2.268842e+00 3.227821e+00 4.287014e+00 3.558860e+00 6.518536e+00 5.435200e+00 4.694159e+00 8.450272e+00 6.513587e+00 3.538336e+00 4.479668e+00 3.413968e+00 2.625093e+00 5.105243e-01 4.199700e-01 9.572735e-01 5.168012e-01 2.031086e+00 9.830499e-01 8.559927e-01 9.991624e-01 8.327220e-01 7.291416e-01 1.107758e+00 5.850828e-01 3.823347e-01
<GCONST> 1.366177e+02
<TRANSP> 5
 0.000000e+00 1.000000e+00 0.000000e+00 0.000000e+00 0.000000e+00
 0.000000e+00 7.580315e-01 2.419685e-01 0.000000e+00 0.000000e+00
 0.000000e+00 0.000000e+00 4.785878e-01 5.214121e-01 0.000000e+00
 0.000000e+00 0.000000e+00 0.000000e+00 4.591914e-01 5.408086e-01
 0.000000e+00 0.000000e+00 0.000000e+00 0.000000e+00 0.000000e+00
<ENDHMM>
~h "h"
<BEGINHMM>
<NUMSTATES> 5
<STATE> 2
<MEAN> 39
 -4.623188e+00 -5.130156e+00 -1.514007e+00 -2.837271e+00 -9.040329e-01 1.041002e+00 -5.121262e+00 -6.070028e-01 -5.468184e+00 -2.680262e+00 -5.843331e+00 -5.407724e+00 6.543938e+01 -1.210100e+00 -1.677234e-01 3.782806e-01 8.547943e-01 1.588429e+00 2.784630e-01 1.026370e+00 -2.820986e-02 5.775588e-01 -2.077282e-01 1.124266e-01 7.449042e-01 -1.044714e+00 -9.942040e-03 -3.754617e-01 -1.939826e-01 -3.996137e-01 -4.771788e-01 -4.245858e-02 -3.140478e-01 -9.327938e-03 9.596100e-02 5.552270e-02 2.588294e-01 -1.551519e-01 1.095461e-01
<VARIANCE> 39
 2.629115e+01 4.259360e+01 5.625427e+01 3.800667e+01 7.125764e+01 5.796796e+01 5.552742e+01 6.422193e+01 5.202109e+01 4.873732e+01 5.157587e+01 3.718016e+01 5.562328e+01 1.552989e+00 3.050990e+00 2.987844e+00 2.644288e+00 3.667235e+00 3.366060e+00 3.050442e+00 3.546076e+00 3.015390e+00 2.998187e+00 3.009595e+00 2.539915e+00 1.506703e+00 1.875077e-01 3.569860e-01 3.225681e-01 3.970487e-01 5.416878e-01 5.561318e-01 5.340415e-01 5.651268e-01 5.236903e-01 4.975686e-01 4.573559e-01 4.228792e-01 1.448509e-01
<GCONST> 1.233724e+02
<STATE> 3
<MEAN> 39
 -9.946069e+00 -9.536484e+00 -4.294383e+00 -4.383179e+00 2.980927e-01 4.859956e-01 -4.419752e+00 -9.655863e-01 -2.329432e+00 -1.878499e+00 -4.177742e+00 -3.806738e+00 5.981445e+01 7.857868e-03 -1.047283e-01 -3.191433e-01 -3.416457e-01 -3.276076e-01 -2.968962e-01 -2.200775e-01 -1.529679e-01 -8.980789e-03 2.054695e-02 4.413360e-02 -7.127474e-02 -4.356843e-01 3.255706e-01 2.027481e-01 3.334206e-02 -3.766173e-02 -2.730811e-01 -4.236601e-02 -1.644771e-01 -5.081262e-02 -1.562805e-01 -4.121049e-02 -2.956055e-02 -1.423471e-01 7.622177e-02
<VARIANCE> 39
 4.197192e+01 6.050754e+01 5.571749e+01 3.649500e+01 5.879434e+01 4.781617e+01 5.299638e+01 4.957283e+01 4.661015e+01 4.080632e+01 4.207314e+01 3.172420e+01 1.186033e+02 2.440228e+00 3.049187e+00 2.281522e+00 2.353998e+00 2.742018e+00 2.898947e+00 2.886891e+00 2.922114e+00 2.795806e+00 2.505914e+00 2.606523e+00 2.291114e+00 4.210852e+00 3.426849e-01 4.709290e-01 4.009686e-01 4.538305e-01 5.438130e-01 5.274200e-01 5.706903e-01 5.444531e-01 5.227053e-01 4.978015e-01 4.973916e-01 4.344412e-01 3.600857e-01
<GCONST> 1.256919e+02
<STATE> 4
<MEAN> 39
 -9.134636e+00 -4.931219e+00 -3.407056e+00 -3.094991e+00 -2.856239e+00 -2.730903e+00 -5.304301e+00 -1.989701e+00 -3.345291e+00 -3.064339e+00 -2.982959e+00 -2.965153e+00 4.733323e+01 1.302469e-01 2.226410e-01 -2.120374e-02 -1.883839e-04 -1.993862e-01 -7.406861e-03 -5.713515e-02 -7.122111e-02 -5.787496e-02 -6.931103e-04 5.302871e-02 -7.724674e-02 -2.986481e-01 2.884724e-02 -1.662820e-02 2.842188e-02 -8.979521e-03 -3.770965e-02 4.279588e-02 -1.916974e-02 1.312457e-02 -1.178572e-02 -4.872744e-03 1.512331e-02 -3.296713e-02 1.249796e-01
<VARIANCE> 39
 2.643209e+01 5.719946e+01 3.748310e+01 2.946574e+01 3.381263e+01 3.435220e+01 3.309806e+01 3.460670e+01 3.071599e+01 2.835058e+01 2.930293e+01 2.420259e+01 1.497928e+02 1.197721e+00 1.737539e+00 1.392666e+00 1.429897e+00 1.778125e+00 1.747884e+00 1.912662e+00 2.018659e+00 1.965721e+00 1.795638e+00 1.734253e+00 1.681161e+00 2.052133e+00 1.584269e-01 2.536197e-01 2.245487e-01 2.467411e-01 3.011368e-01 3.259396e-01 3.480239e-01 3.751744e-01 3.639324e-01 3.384330e-01 3.366423e-01 3.067327e-01 1.520095e-01
<GCONST> 1.086930e+02
<TRANSP> 5
 0.000000e+00 1.000000e+00 0.000000e+00 0.000000e+00 0.000000e+00
 0.000000e+00 6.229821e-01 3.770179e-01 0.000000e+00 0.000000e+00
 0.000000e+00 0.000000e+00 7.501774e-01 2.498226e-01 0.000000e+00
 0.000000e+00 0.000000e+00 0.000000e+00 8.363608e-01 1.636392e-01
 0.000000e+00 0.000000e+00 0.000000e+00 0.000000e+00 0.000000e+00
<ENDHMM>
~h "i"
<BEGINHMM>
<NUMSTATES> 5
<STATE> 2
<MEAN> 39
 -5.927371e+00 -1.577527e+00 1.280814e+01 -1.715343e+00 -1.914490e+01 -8.838014e+00 -1.279680e+01 -5.765162e+00 -1.166066e+01 -5.246784e+00 3.728211e+00 -5.134542e+00 6.577962e+01 4.751346e-01 -1.107489e-01 2.567839e+00 -3.919492e-01 -3.063867e+00 4.709011e-01 -1.647120e+00 -3.545168e-01 -1.344688e+00 -5.962819e-01 1.739972e+00 -5.247777e-01 1.704500e+00 -7.432953e-02 1.208766e-01 -5.248477e-01 -1.185425e-01 3.957486e-01 4.269677e-01 1.323850e-01 6.063383e-02 4.182305e-01 2.399257e-01 -2.473274e-01 -8.925156e-02 -5.224398e-01
<VARIANCE> 39
 2.808084e+01 4.086932e+01 5.201247e+01 3.980064e+01 5.888079e+01 6.707800e+01 5.539291e+01 6.854125e+01 4.900630e+01 4.021423e+01 3.552876e+01 3.132531e+01 6.978734e+01 5.305801e+00 2.800539e+00 4.439668e+00 3.671328e+00 4.858114e+00 5.400759e+00 6.260582e+00 5.500552e+00 5.138898e+00 3.710059e+00 3.443001e+00 3.097143e+00 3.981162e+00 7.007426e-01 5.352272e-01 7.710061e-01 5.220627e-01 1.155280e+00 8.159999e-01 9.595321e-01 9.610470e-01 8.046458e-01 5.893691e-01 6.597868e-01 4.669802e-01 8.961922e-01
<GCONST> 1.366564e+02
<STATE> 3
<MEAN> 39
 -6.938200e+00 -8.073998e-02 1.769900e+01 -5.158887e+00 -2.438092e+01 -4.336188e+00 -1.686665e+01 -7.984262e+00 -1.306606e+01 -5.794655e+00 5.813737e+00 -7.640069e+00 6.878676e+01 9.106881e-02 1.388790e-01 -1.240317e-01 -6.679819e-02 -6.288709e-02 3.856184e-02 1.165037e-01 3.619564e-02 4.352521e-02 1.932941e-01 -5.622154e-02 -8.887840e-02 -1.885183e-01 9.477054e-02 2.731993e-02 -4.325379e-01 1.864559e-01 5.257832e-01 -2.605600e-01 3.756712e-01 1.363119e-01 1.953872e-01 1.005244e-01 -3.327460e-01 9.980310e-02 -3.222736e-01
<VARIANCE> 39
 1.354924e+01 2.993011e+01 3.923540e+01 4.208818e+01 3.229695e+01 8.095319e+01 4.760215e+01 6.175682e+01 3.942730e+01 4.219650e+01 3.577641e+01 3.811994e+01 1.922083e+01 5.480446e-01 1.309358e+00 1.421823e+00 1.390899e+00 1.603150e+00 2.078853e+00 2.182711e+00 2.253204e+00 1.686019e+00 1.604510e+00 1.603666e+00 1.286116e+00 8.422348e-01 1.682910e-01 2.100683e-01 2.825759e-01 2.598467e-01 5.281493e-01 3.923706e-01 4.898206e-01 4.434724e-01 4.121214e-01 3.406142e-01 3.939349e-01 2.937449e-01 2.105071e-01
<GCONST> 1.084987e+02
<STATE> 4
<MEAN> 39
 -4.780687e+00 1.643826e+00 1.204770e+01 -1.434155e+00 -1.805669e+01 -7.757853e+00 -1.107904e+01 -6.577684e+00 -1.088336e+01 -4.174490e+00 2.283933e+00 -5.511303e+00 5.796376e+01 3.137524e-01 4.497024e-01 -1.348382e+00 4.925947e-01 1.627896e+00 -3.018993e-01 9.087465e-01 2.091554e-01 7.434623e-01 2.471877e-01 -1.013098e+00 2.357788e-01 -2.049360e+00 -1.069762e-01 -2.658472e-02 -1.261515e-01 -9.077245e-02 1.611851e-01 2.094827e-01 -6.437258e-02 -8.532187e-02 8.204578e-02 4.511703e-03 -1.037833e-01 -1.063095e-02 -5.290967e-02
<VARIANCE> 39
 2.303744e+01 4.415065e+01 4.878170e+01 4.069815e+01 5.973185e+01 7.576829e+01 4.661099e+01 6.332556e+01 4.468978e+01 3.786250e+01 4.349576e+01 3.213994e+01 1.272992e+02 2.493713e+00 2.874464e+00 2.518380e+00 2.430092e+00 3.833274e+00 3.556911e+00 4.098533e+00 4.196836e+00 3.540629e+00 2.721539e+00 3.111161e+00 2.498738e+00 4.283659e+00 3.360368e-01 4.699328e-01 4.080343e-01 4.071840e-01 7.516460e-01 6.340345e-01 6.546017e-01 7.168385e-01 5.841618e-01 4.974114e-01 5.850717e-01 4.195509e-01 6.385028e-01
<GCONST> 1.289085e+02
<TRANSP> 5
 0.000000e+00 1.000000e+00 0.000000e+00 0.000000e+00 0.000000e+00
 0.000000e+00 6.318361e-01 3.681639e-01 0.000000e+00 0.000000e+00
 0.000000e+00 0.000000e+00 8.076584e-01 1.923416e-01 0.000000e+00
 0.000000e+00 0.000000e+00 0.000000e+00 7.568529e-01 2.431470e-01
 0.000000e+00 0.000000e+00 0.000000e+00 0.000000e+00 0.000000e+00
<ENDHMM>
~h "j"
<BEGINHMM>
<NUMSTATES> 5
<STATE> 2
<MEAN> 39
 -2.366891e+00 5.910223e+00 7.537123e+00 1.315181e+00 -8.598997e+00 -6.627595e+00 -8.017779e+00 -1.879516e+00 -4.128292e+00 -5.437496e+00 -3.175784e+00 -4.148136e+00 5.123545e+01 -7.762462e-01 7.156110e-01 2.563930e-01 -4.920088e-02 1.052402e+00 1.964791e-01 5.556034e-01 7.278184e-03 2.951922e-01 -1.567427e-02 -2.071226e-01 2.133078e-01 -2.672842e-01 -5.731034e-01 -3.817750e-01 -1.993472e-01 -2.959104e-01 -4.685058e-02 -8.813342e-03 -1.448468e-01 -2.102201e-01 -1.361307e-01 6.842466e-02 2.557627e-01 1.172227e-01 8.336445e-01
<VARIANCE> 39
 5.226424e+01 4.126271e+01 4.912408e+01 2.832920e+01 4.506259e+01 4.114111e+01 4.417916e+01 3.944442e+01 3.643818e+01 3.121878e+01 2.758617e+01 2.139776e+01 9.878019e+01 8.143575e+00 3.915967e+00 3.133912e+00 2.931780e+00 3.963511e+00 3.262437e+00 3.698082e+00 4.126407e+00 3.256304e+00 2.645372e+00 2.717043e+00 2.282593e+00 8.669551e+00 1.182797e+00 6.219691e-01 4.868819e-01 4.996829e-01 7.581094e-01 6.501305e-01 6.445975e-01 7.300956e-01 6.280003e-01 5.090593e-01 4.853919e-01 4.811842e-01 1.153147e+00
<GCONST> 1.310592e+02
<STATE> 3
<MEAN> 39
 -1.574813e+01 6.157845e+00 7.493478e+00 -2.234126e+00 -4.344061e+00 -6.594232e+00 -7.003080e+00 -6.194524e+00 -5.577385e+00 -5.113792e+00 -1.294062e+00 -7.792279e-01 6.530544e+01 -1.155577e+00 -1.394998e+00 5.380948e-01 -5.100884e-01 -2.327765e+00 -1.571064e+00 -1.174251e+00 -4.638703e-01 -6.808201e-01 -3.510840e-01 1.400738e+00 1.096396e+00 3.733466e+00 1.897235e+00 -6.135818e-01 1.439481e-01 2.012044e-01 -1.344162e+00 -2.669090e-01 -6.674405e-01 6.933054e-01 2.355603e-01 -1.082340e-01 2.123479e-01 -4.001058e-01 -4.098596e-01
<VARIANCE> 39
 3.083211e+01 3.246035e+01 4.928135e+01 2.159813e+01 4.234789e+01 4.515326e+01 3.006127e+01 2.524411e+01 2.668895e+01 2.103124e+01 1.779820e+01 1.756406e+01 2.597191e+01 1.330198e+01 3.991334e+00 4.237124e+00 3.942596e+00 7.869598e+00 4.043138e+00 3.883112e+00 4.067238e+00 3.396480e+00 2.512410e+00 2.487437e+00 2.054117e+00 3.592474e+00 8.570220e-01 8.805870e-01 8.894402e-01 6.870671e-01 1.219375e+00 1.083292e+00 6.517208e-01 9.657931e-01 8.445525e-01 5.482807e-01 5.479687e-01 6.020197e-01 5.658004e-01
<GCONST> 1.297303e+02
<STATE> 4
<MEAN> 39
 -5.944973e+00 -3.100684e+00 9.600018e+00 -2.920654e+00 -1.860158e+01 -1.263341e+01 -1.471678e+01 -1.386797e+00 -4.925007e+00 -6.603056e+00 4.176474e+00 -5.767056e-01 7.262840e+01 2.748431e+00 -3.303949e+00 -1.423758e+00 -8.603143e-01 -2.417588e+00 1.691140e-01 -1.729108e+00 2.378253e+00 1.448924e+00 3.043525e-01 7.802961e-01 -1.711499e+00 1.505783e+00 -1.340060e-01 2.769966e-01 -8.571054e-01 -1.977673e-01 1.337606e+00 1.062612e+00 5.958993e-01 5.017274e-02 2.785951e-01 3.027123e-01 -6.950481e-01 -7.381542e-01 -7.309206e-01
<VARIANCE> 39
 1.660373e+01 3.173932e+01 3.159259e+01 3.723435e+01 3.125170e+01 2.887149e+01 3.391077e+01 5.582531e+01 4.714618e+01 3.128310e+01 2.152637e+01 2.179797e+01 1.906101e+01 2.238698e+00 3.061372e+00 4.134279e+00 3.028475e+00 6.857258e+00 4.516936e+00 4.874002e+00 7.092408e+00 4.224320e+00 3.048455e+00 3.693343e+00 2.711637e+00 1.091910e+00 7.535743e-01 5.285071e-01 3.851173e-01 5.485685e-01 7.625371e-01 6.159650e-01 6.148081e-01 9.551643e-01 6.258925e-01 5.636567e-01 6.928848e-01 4.342161e-01 1.449661e-01
<GCONST> 1.241987e+02
<TRANSP> 5
 0.000000e+00 1.000000e+00 0.000000e+00 0.000000e+00 0.000000e+00
 0.000000e+00 8.482974e-01 1.517026e-01 0.000000e+00 0.000000e+00
 0.000000e+00 0.000000e+00 6.786269e-01 3.213731e-01 0.000000e+00
 0.000000e+00 0.000000e+00 0.000000e+00 6.014628e-01 3.985372e-01
 0.000000e+00 0.000000e+00 0.000000e+00 0.000000e+00 0.000000e+00
<ENDHMM>
~h "k"
<BEGINHMM>
<NUMSTATES> 5
<STATE> 2
<MEAN> 39
 -7.423662e+00 -1.554345e-01 -2.930203e+00 -3.020322e+00 -5.672771e+00 -4.622699e+00 -6.450657e+00 -3.059752e+00 -4.103836e+00 -1.621202e+00 -2.494280e+00 -3.875565e+00 4.212199e+01 -5.423809e-01 2.080908e-01 -1.271334e-01 1.661053e-01 1.912517e-01 -1.675076e-01 1.741524e-01 -7.744625e-02 1.901040e-01 -4.150147e-02 -4.040463e-02 3.525474e-01 -1.348411e+00 -7.649456e-02 -2.606865e-01 -1.123351e-01 -1.092664e-01 2.918138e-02 6.666713e-03 -6.762699e-02 6.889920e-02 -2.065489e-02 2.814575e-02 1.674717e-02 -1.220325e-02 5.873492e-01
<VARIANCE> 39
 3.983857e+01 3.523565e+01 3.853200e+01 3.646666e+01 4.452706e+01 4.307918e+01 3.852449e+01 4.072058e+01 3.970083e+01 3.293653e+01 3.223870e+01 3.255935e+01 9.330375e+01 1.370469e+00 1.686747e+00 1.758593e+00 2.005079e+00 2.583886e+00 2.493441e+00 2.494924e+00 2.532819e+00 2.615948e+00 2.401831e+00 2.274326e+00 2.026196e+00 4.408813e+00 2.799235e-01 4.536365e-01 4.196379e-01 4.483606e-01 5.566342e-01 4.974570e-01 5.287706e-01 5.113541e-01 5.495861e-01 5.000180e-01 4.732049e-01 4.058563e-01 8.539369e-01
<GCONST> 1.209854e+02
<STATE> 3
<MEAN> 39
 -8.301956e+00 -2.237947e-01 -2.606196e+00 -2.766523e+00 -5.802377e+00 -5.326321e+00 -7.495493e+00 -3.997833e+00 -4.830036e+00 -1.112627e+00 -2.406012e+00 -3.153502e+00 4.445180e+01 -1.328228e+00 -1.753563e+00 -1.811859e+00 -4.512503e-01 1.371056e+00 -4.865842e-01 -1.666371e-01 6.008350e-01 1.671197e-01 4.718533e-01 -3.172834e-01 5.613388e-01 2.588883e+00 2.329532e-01 -3.415444e-01 -1.863889e-01 -3.421599e-01 -1.818734e-01 2.002190e-02 -1.568440e-01 1.857869e-01 -8.856449e-02 8.599162e-02 1.125344e-02 -2.747870e-01 1.609616e+00
<VARIANCE> 39
 4.363010e+01 4.858848e+01 6.276640e+01 5.041733e+01 6.720701e+01 5.786916e+01 4.700275e+01 5.129353e+01 4.677526e+01 3.679612e+01 3.751402e+01 3.076874e+01 1.018228e+02 4.080739e+00 5.806369e+00 6.994745e+00 5.509779e+00 6.872988e+00 5.957913e+00 5.779558e+00 5.399947e+00 5.166092e+00 4.489827e+00 4.079473e+00 3.522099e+00 1.651785e+01 6.792666e-01 9.289216e-01 9.713759e-01 7.908529e-01 1.174295e+00 9.642586e-01 9.059443e-01 8.936591e-01 8.391275e-01 7.562273e-01 7.152376e-01 6.383899e-01 1.772440e+00
<GCONST> 1.436809e+02
<STATE> 4
<MEAN> 39
 -1.085275e+01 -7.085440e+00 -1.010857e+01 -6.317283e+00 -2.101340e+00 -7.318933e+00 -9.463458e+00 -1.101182e+00 -4.557678e+00 1.119858e+00 -4.305109e+00 -3.083467e+00 6.212379e+01 1.343047e+00 -4.050210e-01 3.331480e-01 -8.804898e-01 -1.299703e+00 1.470202e-02 -4.925532e-01 6.031809e-01 -1.435391e-01 -2.294696e-01 3.202760e-01 -1.287742e+00 4.265692e+00 8.912563e-01 4.200740e-01 9.744557e-01 7.041436e-02 -1.000095e+00 4.820500e-01 2.284228e-02 -1.202060e-01 3.633928e-02 -4.811265e-01 4.316173e-01 -5.805863e-01 -7.132758e-01
<VARIANCE> 39
 3.468230e+01 4.407980e+01 6.854451e+01 5.660334e+01 6.200616e+01 7.434612e+01 4.619194e+01 4.880764e+01 5.470967e+01 3.959662e+01 3.773317e+01 3.402242e+01 6.214455e+01 5.463719e+00 5.216945e+00 7.488188e+00 4.632519e+00 7.411990e+00 6.066047e+00 4.721602e+00 5.751434e+00 5.082303e+00 4.395302e+00 4.284107e+00 4.545122e+00 1.144731e+01 7.615737e-01 9.392371e-01 1.254315e+00 9.196217e-01 1.343254e+00 1.136474e+00 1.116907e+00 1.025522e+00 9.998281e-01 8.905665e-01 8.373013e-01 8.255222e-01 1.144063e+00
<GCONST> 1.449301e+02
<TRANSP> 5
 0.000000e+00 1.000000e+00 0.000000e+00 0.000000e+00 0.000000e+00
 0.000000e+00 8.139169e-01 1.860831e-01 0.000000e+00 0.000000e+00
 0.000000e+00 0.000000e+00 6.253647e-01 3.746354e-01 0.000000e+00
 0.000000e+00 0.000000e+00 0.000000e+00 6.128951e-01 3.871049e-01
 0.000000e+00 0.000000e+00 0.000000e+00 0.000000e+00 0.000000e+00
<ENDHMM>
~h "l"
<BEGINHMM>
<NUMSTATES> 5
<STATE> 2
<MEAN> 39
 1.831628e+00 -9.191740e+00 -2.094706e+00 -6.940056e+00 -1.495343e+01 -5.788310e-01 -1.504543e+01 -1.010600e+01 3.925210e-02 5.931731e-01 3.686889e-01 -7.851825e+00 6.989250e+01 6.938550e-01 -4.008906e-01 8.463253e-01 -1.010863e-02 2.959731e-01 -1.270244e-01 -1.317747e+00 -1.110565e+00 5.443929e-02 1.259798e+00 -1.964934e-02 -2.066198e-01 -4.560741e-01 -1.679047e-01 1.934837e-01 4.066193e-02 -2.617667e-01 1.656285e-01 9.601956e-02 3.072531e-02 3.185140e-01 -2.507142e-01 -2.151336e-01 8.782789e-02 -1.561023e-02 -3.423749e-02
<VARIANCE> 39
 2.103429e+01 3.105107e+01 6.489269e+01 7.145181e+01 5.973793e+01 1.043788e+02 7.656272e+01 1.346176e+02 7.923016e+01 6.318086e+01 5.444606e+01 4.504364e+01 2.693655e+01 1.106384e+00 2.629119e+00 3.581017e+00 5.850325e+00 5.715463e+00 7.796822e+00 4.697481e+00 5.995659e+00 5.320948e+00 4.598038e+00 4.694812e+00 3.739468e+00 1.134029e+00 2.371148e-01 3.213309e-01 4.293455e-01 6.713914e-01 8.860722e-01 9.734871e-01 8.810951e-01 1.085223e+00 8.547068e-01 8.256328e-01 6.945504e-01 5.689434e-01 1.411495e-01
<GCONST> 1.343833e+02
<STATE> 3
<MEAN> 39
 2.985898e+00 -9.958500e+00 2.597602e-02 -1.116568e+01 -1.313806e+01 2.528768e+00 -1.919182e+01 -9.944160e+00 2.074594e-01 3.923112e+00 5.792727e-01 -9.272236e+00 6.932471e+01 -2.226466e-03 2.041477e-01 3.293170e-02 -2.872868e-01 2.973815e-01 4.048171e-02 -1.577630e-01 3.855540e-02 -1.815993e-01 1.189899e-01 -1.039614e-02 -3.057081e-02 -1.514078e-01 -2.454005e-01 -1.336156e-02 -3.283120e-01 1.620249e-01 2.309239e-02 -2.061874e-02 4.603924e-01 4.247921e-01 5.889953e-02 -4.328203e-01 -1.694621e-01 -4.086012e-02 1.706945e-01
<VARIANCE> 39
 1.737874e+01 2.996424e+01 5.877450e+01 7.501097e+01 5.125052e+01 8.506866e+01 7.289094e+01 9.841345e+01 7.817776e+01 6.218729e+01 5.138865e+01 4.007615e+01 2.001055e+01 5.031396e-01 9.444645e-01 1.860043e+00 2.038852e+00 1.753817e+00 2.609430e+00 2.523296e+00 3.382301e+00 2.576566e+00 2.386282e+00 2.113480e+00 1.779375e+00 7.347519e-01 1.087172e-01 2.731910e-01 3.083525e-01 4.385364e-01 5.413975e-01 6.071889e-01 6.221016e-01 6.508404e-01 5.746424e-01 5.926723e-01 5.342206e-01 4.280407e-01 1.165706e-01
<GCONST> 1.175484e+02
<STATE> 4
<MEAN> 39
 6.550853e-01 -6.767919e+00 -1.038741e+00 -8.246196e+00 -1.041147e+01 -6.611485e-01 -1.608485e+01 -8.234458e+00 -1.341656e+00 1.608774e+00 -1.280349e+00 -8.161265e+00 6.439246e+01 -7.379194e-01 3.045892e-01 -4.971056e-01 5.116621e-01 2.999809e-01 -2.772017e-01 1.187718e+00 1.082539e+00 4.433496e-02 -9.346471e-01 -5.532657e-01 1.675341e-01 -1.929615e-01 -1.413562e-01 -5.690976e-02 -1.081301e-01 2.694254e-02 -1.523307e-01 1.195951e-01 3.133438e-01 2.087402e-01 -3.722991e-02 -2.143167e-01 2.927386e-02 2.163704e-02 8.292773e-02
<VARIANCE> 39
 2.731798e+01 3.956856e+01 6.905399e+01 7.189039e+01 5.567210e+01 8.662452e+01 8.518803e+01 9.971426e+01 6.263738e+01 6.069383e+01 5.320210e+01 4.212225e+01 1.024973e+02 1.258108e+00 3.480936e+00 3.246221e+00 3.885477e+00 4.796552e+00 5.512106e+00 4.711058e+00 5.911506e+00 5.216026e+00 4.317257e+00 4.178147e+00 3.287602e+00 3.927021e+00 2.183761e-01 4.014156e-01 3.651492e-01 6.329014e-01 8.424709e-01 7.731920e-01 9.256414e-01 7.674619e-01 7.030120e-01 7.463595e-01 6.906034e-01 5.115912e-01 3.424891e-01
<GCONST> 1.355777e+02
<TRANSP> 5
 0.000000e+00 1.000000e+00 0.000000e+00 0.000000e+00 0.000000e+00
 0.000000e+00 5.153195e-01 4.846805e-01 0.000000e+00 0.000000e+00
 0.000000e+00 0.000000e+00 6.797699e-01 3.202301e-01 0.000000e+00
 0.000000e+00 0.000000e+00 0.000000e+00 5.196164e-01 4.803837e-01
 0.000000e+00 0.000000e+00 0.000000e+00 0.000000e+00 0.000000e+00
<ENDHMM>
~h "m"
<BEGINHMM>
<NUMSTATES> 5
<STATE> 2
<MEAN> 39
 1.867563e+00 -2.341522e+00 6.038085e-01 -3.300502e+00 -8.910725e+00 6.746408e-01 -9.141504e+00 -1.018633e+01 -1.249875e+01 -1.974582e+00 -1.332668e+00 -8.361690e+00 5.874805e+01 7.227848e-01 8.250191e-01 1.484002e+00 1.459870e+00 1.883545e-01 3.677986e-01 7.667428e-01 -2.279545e+00 -2.607486e+00 1.588812e-01 -5.706013e-01 -4.135886e-02 -4.560491e-01 -2.314162e-01 -3.011805e-01 -5.348410e-02 -2.401985e-01 -1.135286e-01 3.625684e-02 -1.301768e-02 2.649723e-01 2.940724e-01 -1.234550e-01 1.128819e-02 9.851560e-03 4.017205e-01
<VARIANCE> 39
 3.415099e+01 3.665236e+01 3.451792e+01 5.300343e+01 5.765766e+01 7.727732e+01 5.991046e+01 6.173003e+01 7.459050e+01 5.794423e+01 6.344337e+01 3.977781e+01 9.511856e+01 2.532570e+00 3.280243e+00 3.550998e+00 4.243467e+00 4.020067e+00 4.471161e+00 4.741739e+00 5.368569e+00 5.855180e+00 4.922177e+00 6.078829e+00 3.822752e+00 6.057786e+00 3.869492e-01 3.895745e-01 4.942238e-01 5.272529e-01 5.882105e-01 5.703248e-01 6.173002e-01 8.524289e-01 1.043830e+00 6.348963e-01 7.996668e-01 5.125943e-01 3.972681e-01
<GCONST> 1.357651e+02
<STATE> 3
<MEAN> 39
 3.556040e+00 -2.927230e+00 4.261105e+00 -2.203628e+00 -1.037349e+01 2.574831e+00 -8.198493e+00 -1.381278e+01 -1.668975e+01 -2.969207e+00 -2.872744e+00 -9.221684e+00 6.239078e+01 -1.769224e-02 1.783262e-01 1.493552e-01 1.016801e-01 3.333826e-02 4.915790e-02 2.505092e-01 -1.053468e-01 -1.224026e-01 -3.247169e-02 -1.906690e-01 1.448774e-01 -7.903147e-02 -5.302262e-02 -1.092921e-01 -4.121102e-01 -4.373004e-01 -2.768976e-02 -7.536880e-02 -1.976897e-01 5.406434e-01 6.423463e-01 -4.571716e-02 2.213163e-01 -4.719002e-03 1.756189e-01
<VARIANCE> 39
 1.177419e+01 2.109596e+01 2.312503e+01 5.012648e+01 6.873705e+01 9.657887e+01 6.752612e+01 5.182489e+01 6.590189e+01 7.846682e+01 7.299808e+01 4.119660e+01 2.193584e+01 2.897341e-01 8.423216e-01 1.139297e+00 1.617937e+00 1.253299e+00 1.819248e+00 1.590353e+00 2.074506e+00 2.455412e+00 1.920432e+00 2.521110e+00 1.531861e+00 1.021643e+00 1.001618e-01 1.954933e-01 3.137486e-01 4.130521e-01 3.157506e-01 3.873493e-01 4.223256e-01 5.830920e-01 7.196680e-01 4.996330e-01 6.196101e-01 4.049372e-01 1.864818e-01
<GCONST> 1.114348e+02
<STATE> 4
<MEAN> 39
 -1.229748e+00 -1.769970e-01 1.069531e+00 -1.390879e+00 -6.273510e+00 6.019717e-01 -6.452508e+00 -8.927120e+00 -1.063828e+01 -2.642045e+00 -3.403275e+00 -5.277538e+00 5.214272e+01 -2.035780e-01 -2.359583e-01 -7.813885e-01 -8.539843e-01 1.032843e-01 -1.071211e-01 -3.278321e-01 9.354977e-01 1.238137e+00 -6.985945e-02 4.705847e-01 -2.780136e-02 3.033711e-01 -8.112077e-02 -2.140887e-01 -1.387452e-01 -1.730144e-01 -9.214830e-03 4.216952e-02 -2.217760e-01 2.661451e-01 2.930008e-01 -4.834858e-02 8.895546e-02 -1.314604e-01 2.000629e-01
<VARIANCE> 39
 4.793129e+01 3.345179e+01 3.723700e+01 4.277680e+01 6.115903e+01 6.265751e+01 4.566053e+01 6.371709e+01 8.114873e+01 4.790753e+01 5.134594e+01 3.620768e+01 1.400540e+02 1.557241e+00 2.649915e+00 3.552516e+00 4.309320e+00 2.839807e+00 3.366330e+00 3.364818e+00 4.293380e+00 6.058847e+00 3.417657e+00 4.170357e+00 2.773292e+00 4.623678e+00 2.617458e-01 3.240504e-01 4.066496e-01 4.885863e-01 4.890894e-01 4.901704e-01 4.811912e-01 6.954485e-01 8.120863e-01 5.141445e-01 6.089851e-01 4.229367e-01 3.082872e-01
<GCONST> 1.294635e+02
<TRANSP> 5
 0.000000e+00 1.000000e+00 0.000000e+00 0.000000e+00 0.000000e+00
 0.000000e+00 5.607948e-01 4.392052e-01 0.000000e+00 0.000000e+00
 0.000000e+00 0.000000e+00 7.687960e-01 2.312040e-01 0.000000e+00
 0.000000e+00 0.000000e+00 0.000000e+00 6.960931e-01 3.039069e-01
 0.000000e+00 0.000000e+00 0.000000e+00 0.000000e+00 0.000000e+00
<ENDHMM>
~h "n"
<BEGINHMM>
<NUMSTATES> 5
<STATE> 2
<MEAN> 39
 2.621686e+00 -5.863746e+00 1.893367e+00 -1.374188e+00 -1.324833e+01 -5.797256e+00 -1.283902e+01 -5.892520e+00 -5.244499e+00 -8.084433e-01 -6.649069e+00 -9.300847e+00 6.570055e+01 9.047809e-01 2.318870e+00 1.626362e+00 1.622196e+00 -3.319877e-01 -9.064732e-01 8.779406e-01 -3.488205e+00 -1.187592e+00 1.466847e+00 -1.449187e+00 6.521850e-01 -2.313591e+00 -2.280267e-01 -1.169265e-01 -1.593813e-01 -3.842535e-01 -1.154515e-02 3.475620e-01 2.062711e-01 1.844752e-01 -2.646861e-02 -1.730936e-01 2.082484e-01 7.387438e-02 2.662990e-01
<VARIANCE> 39
 1.123147e+01 3.733355e+01 4.062072e+01 3.903582e+01 4.504285e+01 5.936219e+01 5.032948e+01 1.014965e+02 6.457060e+01 4.596304e+01 5.073497e+01 4.477478e+01 2.744504e+01 7.830547e-01 1.935929e+00 3.587866e+00 2.712842e+00 3.750547e+00 5.207734e+00 4.095028e+00 5.639883e+00 3.963408e+00 4.079351e+00 4.047708e+00 3.696679e+00 9.911267e-01 1.325483e-01 4.059786e-01 3.714841e-01 3.970478e-01 4.968851e-01 5.591652e-01 6.227335e-01 1.191648e+00 5.714337e-01 6.118392e-01 5.407724e-01 4.381456e-01 2.419855e-01
<GCONST> 1.245085e+02
<STATE> 3
<MEAN> 39
 3.778454e+00 -1.501430e+00 5.492813e+00 2.454703e-01 -1.514073e+01 -6.306324e+00 -1.002597e+01 -1.184174e+01 -7.982257e+00 1.291099e+00 -8.759415e+00 -8.170442e+00 6.176402e+01 8.438263e-02 6.403797e-01 2.129463e-01 2.550100e-01 1.977534e-01 6.967816e-02 3.344134e-01 -3.052960e-01 -3.532147e-01 1.378665e-01 -1.313746e-01 2.604233e-01 -7.353525e-01 -2.101494e-01 -2.091107e-01 -2.118081e-01 -1.890604e-01 2.535440e-01 1.132858e-01 -1.576461e-01 5.738907e-01 1.806026e-01 -2.856531e-01 2.618044e-01 -4.354642e-02 1.511885e-01
<VARIANCE> 39
 1.021028e+01 2.028803e+01 2.671095e+01 4.129026e+01 5.346854e+01 8.903363e+01 5.646653e+01 5.375355e+01 6.031379e+01 4.624120e+01 5.493044e+01 5.177331e+01 2.056420e+01 3.390274e-01 1.000705e+00 9.687948e-01 1.116448e+00 1.647346e+00 1.617454e+00 1.831873e+00 2.444565e+00 1.952611e+00 1.906713e+00 1.933959e+00 1.503425e+00 7.926170e-01 1.242273e-01 2.640699e-01 3.227153e-01 3.355927e-01 3.865259e-01 4.410475e-01 4.267965e-01 6.551681e-01 4.385850e-01 4.776738e-01 4.624621e-01 3.638490e-01 2.254000e-01
<GCONST> 1.095200e+02
<STATE> 4
<MEAN> 39
 -2.666258e+00 8.679074e-01 2.508155e+00 7.348160e-01 -7.107552e+00 -4.752247e+00 -7.249704e+00 -6.721200e+00 -6.644799e+00 -1.740438e+00 -6.361288e+00 -4.656289e+00 4.874215e+01 -7.128897e-01 3.094053e-02 -3.089570e-01 -1.988543e-01 6.290526e-01 1.326667e-01 1.464353e-02 6.613284e-01 3.256294e-01 -4.264002e-01 4.191377e-01 1.419075e-01 -7.034019e-01 -1.238616e-01 -1.979930e-01 -1.008461e-01 -1.590742e-01 -6.048369e-02 4.208817e-02 -7.043889e-02 1.565017e-01 9.983429e-02 -8.554528e-02 1.088648e-01 -4.770960e-02 2.050903e-01
<VARIANCE> 39
 4.594621e+01 3.732719e+01 4.095647e+01 3.346302e+01 5.551262e+01 4.708924e+01 5.113456e+01 5.771379e+01 5.215241e+01 4.519096e+01 4.775528e+01 3.966645e+01 1.115856e+02 1.579962e+00 2.808922e+00 2.181756e+00 2.381990e+00 3.088959e+00 2.984028e+00 2.916813e+00 3.885341e+00 3.311263e+00 3.148968e+00 2.925380e+00 2.334953e+00 3.729207e+00 3.316125e-01 4.610455e-01 3.956035e-01 4.397110e-01 5.474202e-01 5.417597e-01 5.357630e-01 7.680278e-01 6.317123e-01 6.060057e-01 5.578244e-01 4.342493e-01 4.092802e-01
<GCONST> 1.265996e+02
<TRANSP> 5
 0.000000e+00 1.000000e+00 0.000000e+00 0.000000e+00 0.000000e+00
 0.000000e+00 5.445303e-01 4.554697e-01 0.000000e+00 0.000000e+00
 0.000000e+00 0.000000e+00 7.757529e-01 2.242471e-01 0.000000e+00
 0.000000e+00 0.000000e+00 0.000000e+00 7.694864e-01 2.305135e-01
 0.000000e+00 0.000000e+00 0.000000e+00 0.000000e+00 0.000000e+00
<ENDHMM>
~h "o"
<BEGINHMM>
<NUMSTATES> 5
<STATE> 2
<MEAN> 39
 6.537146e-01 -3.669423e+00 -7.034026e+00 -1.376016e+01 -1.176395e+01 3.088818e+00 -1.151822e+01 -5.422074e+00 -3.303294e+00 -1.184274e+00 1.748383e+00 -6.969285e+00 6.534222e+01 1.799838e+00 -7.514816e-01 -8.788983e-01 -2.353549e+00 -1.625433e+00 2.499684e+00 -6.086683e-01 9.676517e-03 5.708023e-01 -1.542907e-01 1.508604e+00 -1.054601e+00 2.191267e+00 -3.756281e-01 -7.826592e-03 1.353423e-01 2.449351e-01 2.219704e-01 7.972275e-02 2.186419e-01 2.028402e-02 -1.190423e-01 -5.553131e-02 -7.443516e-03 1.345294e-01 -4.579409e-01
<VARIANCE> 39
 3.263473e+01 3.792173e+01 4.280760e+01 9.937584e+01 5.885332e+01 8.535950e+01 6.828619e+01 6.863195e+01 7.034925e+01 5.856157e+01 5.128439e+01 3.826460e+01 1.148651e+02 4.501937e+00 2.843230e+00 4.938527e+00 6.156682e+00 7.315466e+00 5.606433e+00 4.166667e+00 5.829344e+00 5.160879e+00 5.612633e+00 4.157940e+00 3.828448e+00 5.586029e+00 7.509151e-01 5.245941e-01 5.689366e-01 1.197662e+00 8.735720e-01 1.028841e+00 8.058965e-01 7.900794e-01 9.195482e-01 7.263313e-01 6.776547e-01 5.885916e-01 1.244577e+00
<GCONST> 1.425219e+02
<STATE> 3
<MEAN> 39
 2.858662e+00 -6.861516e+00 -9.337138e+00 -1.721078e+01 -1.462111e+01 9.460286e+00 -1.366013e+01 -5.804642e+00 -2.219636e+00 -1.806092e+00 6.441302e+00 -9.627898e+00 7.220473e+01 4.322349e-02 -2.854939e-01 -2.474486e-01 -4.735892e-01 5.929302e-02 8.989459e-01 3.379061e-02 6.345001e-02 -4.499686e-03 -1.344685e-02 3.815452e-01 -2.639962e-01 2.296897e-01 -2.500356e-01 2.694916e-01 3.394580e-01 6.656159e-01 3.945717e-01 -8.102474e-01 1.776221e-01 -3.448276e-02 -1.889831e-01 2.642861e-02 -5.920529e-01 3.154716e-01 -5.415458e-01
<VARIANCE> 39
 1.206875e+01 2.849117e+01 3.106613e+01 6.988496e+01 5.370826e+01 5.885311e+01 5.917714e+01 7.766713e+01 6.667601e+01 6.838071e+01 4.738792e+01 3.871579e+01 1.322458e+01 5.527541e-01 1.501778e+00 1.597428e+00 4.484997e+00 2.517854e+00 4.628592e+00 3.334041e+00 3.196678e+00 3.574866e+00 3.574453e+00 2.941303e+00 2.372288e+00 9.186345e-01 2.522348e-01 2.774769e-01 3.300014e-01 4.987414e-01 7.236701e-01 5.355396e-01 5.824302e-01 6.919613e-01 6.610334e-01 7.216454e-01 5.191562e-01 5.294615e-01 2.477955e-01
<GCONST> 1.214769e+02
<STATE> 4
<MEAN> 39
 2.710160e+00 -4.427271e+00 -8.284624e+00 -2.000656e+01 -1.284837e+01 9.294606e+00 -1.189421e+01 -4.950211e+00 -3.976725e+00 -2.922114e+00 3.784167e+00 -7.795514e+00 6.841045e+01 9.493590e-03 3.757555e-01 3.164813e-01 8.890030e-01 4.029282e-01 -7.190152e-01 1.484810e-01 -1.529469e-01 -1.238718e-01 1.240898e-01 -6.484505e-01 1.126733e-01 -9.777216e-01 -4.402430e-02 7.714043e-02 1.420347e-01 3.447291e-01 6.511497e-02 -2.223589e-01 3.056131e-02 -9.232014e-02 -5.402616e-03 4.374138e-02 -1.498599e-01 3.413010e-02 -2.503816e-01
<VARIANCE> 39
 1.401034e+01 4.245345e+01 3.225556e+01 6.535467e+01 6.109606e+01 5.557119e+01 5.887759e+01 7.070174e+01 6.700924e+01 7.499464e+01 4.767612e+01 4.287568e+01 4.969109e+01 5.357248e-01 1.457559e+00 1.329603e+00 2.989184e+00 2.283479e+00 2.642951e+00 2.332942e+00 2.280685e+00 2.487985e+00 2.476486e+00 2.359191e+00 1.854279e+00 2.316365e+00 1.098059e-01 2.272724e-01 2.151319e-01 3.417688e-01 3.664274e-01 3.888578e-01 4.236705e-01 3.971483e-01 4.376446e-01 4.414024e-01 3.683880e-01 3.493775e-01 2.430437e-01
<GCONST> 1.158292e+02
<TRANSP> 5
 0.000000e+00 1.000000e+00 0.000000e+00 0.000000e+00 0.000000e+00
 0.000000e+00 5.453714e-01 4.546287e-01 0.000000e+00 0.000000e+00
 0.000000e+00 0.000000e+00 6.715259e-01 3.284741e-01 0.000000e+00
 0.000000e+00 0.000000e+00 0.000000e+00 8.199543e-01 1.800457e-01
 0.000000e+00 0.000000e+00 0.000000e+00 0.000000e+00 0.000000e+00
<ENDHMM>
~h "p"
<BEGINHMM>
<NUMSTATES> 5
<STATE> 2
<MEAN> 39
 -5.978873e+00 5.498123e-01 -2.981351e+00 -3.326365e+00 -5.643468e+00 -3.365348e+00 -6.517161e+00 -4.179854e+00 -3.779449e+00 -2.004361e+00 -2.459060e+00 -4.458586e+00 4.067160e+01 -6.944014e-01 2.541739e-01 -1.151434e-01 1.596312e-01 1.475994e-01 -3.250435e-01 2.072751e-01 4.855265e-02 1.793510e-01 5.463040e-02 -7.876041e-02 2.887747e-01 -1.132398e+00 -4.261393e-02 -1.910960e-01 -3.163754e-03 -8.173749e-02 -4.000529e-02 3.498163e-02 -3.605969e-02 3.234510e-02 2.212047e-03 -4.928632e-04 8.132520e-02 1.355572e-02 5.796422e-01
<VARIANCE> 39
 4.247717e+01 3.228221e+01 3.152375e+01 3.170775e+01 2.964720e+01 3.493195e+01 3.152499e+01 3.326947e+01 3.233672e+01 2.798475e+01 2.683400e+01 3.187459e+01 6.261038e+01 1.213399e+00 1.413556e+00 1.414920e+00 1.565602e+00 1.735759e+00 2.001824e+00 1.906618e+00 2.080552e+00 2.232963e+00 1.993202e+00 2.040066e+00 1.765911e+00 2.885753e+00 2.193662e-01 3.118482e-01 3.068182e-01 3.540934e-01 3.717116e-01 3.858913e-01 3.915808e-01 4.191359e-01 4.515164e-01 4.052039e-01 4.072396e-01 3.484578e-01 6.444603e-01
<GCONST> 1.124540e+02
<STATE> 3
<MEAN> 39
 -7.285178e+00 2.213982e+00 -1.380932e+00 -2.036631e+00 -5.444242e+00 -3.850894e+00 -6.165341e+00 -4.857989e+00 -3.877548e+00 -1.922405e+00 -2.562026e+00 -3.486223e+00 4.066491e+01 -6.575173e-01 -1.392207e+00 -5.194731e-01 -5.756855e-01 4.793601e-02 -1.483028e-01 -3.127309e-02 2.229753e-01 5.046615e-01 -2.518437e-02 5.240815e-01 3.283441e-01 3.995808e+00 8.349943e-01 -7.350893e-01 -2.722311e-01 -7.218118e-01 -5.452411e-01 5.148660e-01 -3.666664e-01 -1.082441e-03 -1.584880e-01 -9.313107e-03 4.031863e-01 -4.973806e-01 2.185498e+00
<VARIANCE> 39
 3.446365e+01 2.890771e+01 3.168141e+01 3.147458e+01 3.081066e+01 3.597176e+01 3.183320e+01 3.216216e+01 3.494845e+01 2.745053e+01 2.734042e+01 2.550672e+01 6.869801e+01 4.531942e+00 3.577101e+00 3.848724e+00 4.704091e+00 3.692913e+00 4.864460e+00 3.660419e+00 3.984789e+00 4.281318e+00 3.339759e+00 3.357980e+00 3.097570e+00 1.470126e+01 5.860361e-01 6.674039e-01 7.205472e-01 7.877620e-01 7.805293e-01 9.865030e-01 6.765016e-01 9.046474e-01 8.438168e-01 7.046012e-01 6.557633e-01 6.207129e-01 1.097166e+00
<GCONST> 1.324282e+02
<STATE> 4
<MEAN> 39
 -5.432786e+00 -4.537563e+00 -5.492174e+00 -7.029448e+00 -6.714811e+00 -2.808453e+00 -7.349425e+00 -5.408916e+00 -3.118207e+00 -1.997221e+00 1.143563e-01 -4.429066e+00 6.187889e+01 2.584749e+00 -2.512685e+00 -1.297614e+00 -2.610377e+00 -1.729830e+00 2.022536e+00 -1.220876e+00 7.580020e-02 -5.445316e-02 1.597888e-02 1.447358e+00 -1.719731e+00 7.165428e+00 4.288494e-01 8.387588e-02 1.965540e-01 2.413515e-02 -3.938650e-01 3.969937e-01 -2.762154e-01 1.707976e-01 -6.055130e-02 -1.025363e-03 -9.025156e-02 -4.437417e-01 -8.814399e-01
<VARIANCE> 39
 3.932846e+01 2.288640e+01 3.127235e+01 5.528308e+01 2.720882e+01 5.577036e+01 2.985851e+01 3.178825e+01 3.222047e+01 2.625818e+01 2.920278e+01 2.819548e+01 5.794114e+01 4.171353e+00 5.929147e+00 6.337204e+00 7.169878e+00 5.706269e+00 9.150056e+00 4.815931e+00 6.923558e+00 6.513785e+00 4.944609e+00 4.547382e+00 4.713055e+00 1.099848e+01 9.855266e-01 7.644807e-01 6.791279e-01 1.206314e+00 1.075640e+00 1.136074e+00 7.565514e-01 8.156564e-01 8.643684e-01 6.814240e-01 8.384846e-01 6.790777e-01 1.437039e+00
<GCONST> 1.395555e+02
<TRANSP> 5
 0.000000e+00 1.000000e+00 0.000000e+00 0.000000e+00 0.000000e+00
 0.000000e+00 8.481059e-01 1.518941e-01 0.000000e+00 0.000000e+00
 0.000000e+00 0.000000e+00 5.943598e-01 4.056402e-01 0.000000e+00
 0.000000e+00 0.000000e+00 0.000000e+00 4.305195e-01 5.694805e-01
 0.000000e+00 0.000000e+00 0.000000e+00 0.000000e+00 0.000000e+00
<ENDHMM>
~h "q"
<BEGINHMM>
<NUMSTATES> 5
<STATE> 2
<MEAN> 39
 -6.652868e+00 2.603921e+00 4.484523e-01 -3.406823e-01 -1.203749e+01 -1.023637e+01 -9.886969e+00 -8.346546e+00 -9.123418e+00 8.328540e-01 -2.349341e-01 -6.369813e+00 5.139503e+01 -1.411454e+00 -9.649312e-01 -2.114376e+00 -4.097805e-01 1.821746e+00 6.173928e-01 9.058060e-01 3.541836e-01 1.008338e+00 1.231605e-01 -5.577006e-01 5.732179e-01 2.388341e-01 -1.324214e-01 -4.510683e-01 8.886200e-02 -1.812215e-01 7.060463e-03 4.442080e-01 2.559904e-01 7.098445e-01 -6.208332e-02 -1.283834e-01 -3.152099e-02 7.350268e-02 7.448568e-01
<VARIANCE> 39
 3.047273e+01 7.254517e+01 6.925021e+01 5.813111e+01 4.593288e+01 2.513219e+01 3.092124e+01 4.470472e+01 2.039033e+01 3.933211e+01 3.141856e+01 3.450661e+01 5.559859e+01 2.662057e+00 1.220633e+01 6.737195e+00 3.081778e+00 3.414497e+00 3.916862e+00 4.312024e+00 5.811657e+00 1.499512e+00 3.684153e+00 3.080958e+00 2.652869e+00 1.169249e+01 7.721316e-01 1.552708e+00 1.090774e+00 6.044694e-01 6.055130e-01 5.192517e-01 5.804142e-01 5.524860e-01 3.410165e-01 7.515335e-01 5.484101e-01 5.007032e-01 1.769343e+00
<GCONST> 1.336403e+02
<STATE> 3
<MEAN> 39
 -1.261843e+01 -1.941163e+00 -3.035262e+00 -1.174977e+00 -9.305435e+00 -6.756869e+00 -1.954914e+00 -1.488059e+00 -7.523852e+00 -6.911089e-01 -5.245295e-01 -2.990845e+00 6.230390e+01 -8.562914e-01 9.305167e-01 5.019442e-01 -4.737352e-03 6.616098e-01 1.395492e+00 1.751119e+00 1.129892e+00 7.359696e-01 -4.554764e-01 -2.601368e-01 -2.622344e-01 -2.226990e-01 6.148428e-01 6.289563e-01 8.053762e-01 2.109136e-01 -7.464546e-01 -2.599067e-01 -5.307070e-01 -4.094879e-01 -2.501141e-02 -5.016048e-02 2.494353e-01 -2.804224e-01 -1.031412e+00
<VARIANCE> 39
 7.722617e+01 4.690199e+01 1.332777e+02 4.463337e+01 6.562924e+01 4.171162e+01 5.779356e+01 1.170507e+01 3.233785e+01 3.908152e+01 4.191432e+01 1.815956e+01 6.969781e+01 6.203367e+00 7.228271e+00 2.919703e+00 1.935979e+00 2.914447e+00 3.330158e+00 2.779735e+00 2.803956e+00 2.041482e+00 4.125155e+00 1.445465e+00 2.633836e+00 5.939752e+00 3.916806e-01 2.556910e+00 1.399950e+00 4.692592e-01 7.315421e-01 6.746909e-01 9.016179e-01 6.154745e-01 2.266246e-01 5.727013e-01 2.401223e-01 6.322078e-01 7.085646e-01
<GCONST> 1.301409e+02
<STATE> 4
<MEAN> 39
 -9.544895e+00 -3.448818e+00 1.480977e+00 1.339117e+00 -4.358561e+00 -5.714571e+00 -3.470310e+00 1.057992e+00 -3.894402e+00 1.962548e-01 -3.705655e-02 -2.947632e+00 4.936959e+01 -1.309269e-04 -2.817418e-02 -1.033708e-01 4.288460e-02 3.948479e-02 -4.256444e-02 -1.769944e-02 1.011644e-01 5.966205e-02 -1.864605e-01 3.907997e-02 1.449419e-01 -3.703650e-01 -3.074878e-02 -2.305145e-02 -2.157323e-02 -3.335030e-02 -2.827062e-02 -4.600707e-02 -9.376468e-02 -1.467903e-02 -3.792304e-02 1.717554e-02 -5.007180e-02 1.847980e-02 8.257548e-02
<VARIANCE> 39
 8.963847e+00 3.169020e+01 1.967560e+01 1.986173e+01 2.215577e+01 2.353423e+01 2.077376e+01 2.929186e+01 2.263146e+01 1.591364e+01 2.761244e+01 1.530128e+01 4.478068e+01 4.793493e-01 2.211246e+00 1.016894e+00 2.132069e+00 1.802504e+00 1.803528e+00 2.546728e+00 1.671576e+00 2.134064e+00 1.253335e+00 2.367177e+00 1.571333e+00 1.777723e+00 1.004695e-01 3.769980e-01 2.043998e-01 4.749738e-01 4.005709e-01 4.238248e-01 5.163365e-01 3.486202e-01 4.722610e-01 2.522036e-01 4.412444e-01 3.223875e-01 3.367417e-01
<GCONST> 1.037690e+02
<TRANSP> 5
 0.000000e+00 1.000000e+00 0.000000e+00 0.000000e+00 0.000000e+00
 0.000000e+00 6.795357e-01 3.204643e-01 0.000000e+00 0.000000e+00
 0.000000e+00 0.000000e+00 4.753324e-01 5.246676e-01 0.000000e+00
 0.000000e+00 0.000000e+00 0.000000e+00 9.350247e-01 6.497535e-02
 0.000000e+00 0.000000e+00 0.000000e+00 0.000000e+00 0.000000e+00
<ENDHMM>
~h "r"
<BEGINHMM>
<NUMSTATES> 5
<STATE> 2
<MEAN> 39
 6.276814e-01 -9.304103e+00 -6.249494e+00 -3.248860e+00 -1.258042e+01 -6.210914e+00 -1.175643e+01 -3.528872e+00 1.024109e+00 4.006362e-01 -1.280169e+00 -9.261417e+00 6.970077e+01 3.320453e-01 3.916409e-01 2.567024e-01 1.787175e+00 2.923032e-01 -7.232351e-01 -1.095895e-01 -9.685655e-01 3.919126e-01 1.422184e-01 -4.155307e-01 8.129885e-01 -1.414440e+00 -1.710822e-01 3.563390e-02 1.501818e-01 -2.095994e-01 3.722404e-02 3.195244e-01 -6.526683e-02 2.446006e-01 -3.508734e-01 -2.173132e-01 9.128495e-02 3.919247e-03 -7.689570e-02
<VARIANCE> 39
 1.661304e+01 2.916724e+01 5.455458e+01 3.984001e+01 5.397856e+01 6.370842e+01 5.653267e+01 9.416329e+01 5.986355e+01 4.593690e+01 5.118298e+01 4.189041e+01 3.574445e+01 2.279304e+00 2.323414e+00 3.083895e+00 4.446230e+00 5.109117e+00 4.935398e+00 3.914672e+00 5.433574e+00 5.036754e+00 4.133463e+00 4.022027e+00 3.459597e+00 2.626653e+00 3.350942e-01 3.344121e-01 4.229023e-01 5.578814e-01 6.609083e-01 6.430614e-01 6.946443e-01 8.751276e-01 7.994370e-01 6.570079e-01 5.972348e-01 5.466329e-01 5.370608e-01
<GCONST> 1.312666e+02
<STATE> 3
<MEAN> 39
 1.092461e+00 -8.272940e+00 -6.860500e+00 1.174694e+00 -1.290149e+01 -5.999047e+00 -1.269636e+01 -6.388298e+00 1.692407e+00 -9.898327e-01 -1.179833e+00 -7.722603e+00 6.681976e+01 -1.678859e-02 2.200279e-01 4.973842e-01 3.040518e-01 1.426232e-01 1.442913e-02 -2.263603e-01 1.916938e-01 -5.984702e-01 -2.507336e-01 5.302491e-02 3.365448e-01 -7.090669e-01 -1.566283e-01 -2.119316e-03 1.633842e-01 -5.835334e-01 -2.382834e-02 2.325115e-01 1.064701e-01 3.137191e-01 -3.769233e-01 -7.361174e-02 1.382348e-01 -1.675392e-01 1.872578e-01
<VARIANCE> 39
 1.865871e+01 2.323248e+01 7.363501e+01 3.467875e+01 6.832761e+01 5.724981e+01 5.366002e+01 7.571902e+01 4.867913e+01 3.997202e+01 4.552036e+01 3.707621e+01 3.877861e+01 1.861964e+00 2.127388e+00 3.139081e+00 2.655746e+00 4.884913e+00 3.880536e+00 3.620879e+00 4.484505e+00 4.348416e+00 3.282079e+00 3.468626e+00 2.684193e+00 2.771522e+00 3.827815e-01 4.660083e-01 5.086693e-01 6.005697e-01 1.152596e+00 8.098676e-01 7.437060e-01 9.075358e-01 8.471621e-01 7.024372e-01 7.648365e-01 5.849977e-01 6.465604e-01
<GCONST> 1.308426e+02
<STATE> 4
<MEAN> 39
 -4.194598e+00 -4.964025e+00 -3.101576e+00 -1.132279e+00 -6.945426e+00 -5.207328e+00 -9.146375e+00 -2.159263e+00 -1.462173e+00 -1.254711e+00 -2.254676e+00 -5.245512e+00 5.548334e+01 -1.741541e-01 1.494891e-01 2.854199e-01 -1.808327e-01 4.356226e-03 1.483365e-01 5.995545e-02 1.912098e-01 -4.919144e-01 -9.211003e-02 1.424259e-01 2.172128e-02 -3.987703e-01 7.335198e-02 -9.109186e-02 -4.137646e-02 -1.113963e-01 -1.993044e-01 1.251161e-01 -1.965855e-02 3.686439e-02 -4.544007e-02 -9.603436e-04 7.400392e-02 -1.595508e-01 1.989062e-01
<VARIANCE> 39
 4.435629e+01 3.963036e+01 5.310854e+01 3.393299e+01 5.486304e+01 5.451558e+01 5.008500e+01 5.336826e+01 4.167290e+01 3.760144e+01 4.013690e+01 3.726583e+01 1.662112e+02 2.516868e+00 3.109440e+00 2.992759e+00 2.225180e+00 3.857504e+00 3.288320e+00 3.150915e+00 3.651293e+00 3.569548e+00 2.847129e+00 2.852345e+00 2.580714e+00 4.517665e+00 4.786173e-01 4.648347e-01 4.715946e-01 4.974796e-01 7.191194e-01 6.496473e-01 5.981774e-01 6.866593e-01 6.433045e-01 5.635421e-01 5.572520e-01 5.156258e-01 5.473387e-01
<GCONST> 1.296122e+02
<TRANSP> 5
 0.000000e+00 1.000000e+00 0.000000e+00 0.000000e+00 0.000000e+00
 0.000000e+00 3.760920e-01 6.239080e-01 0.000000e+00 0.000000e+00
 0.000000e+00 0.000000e+00 5.163147e-01 4.836854e-01 0.000000e+00
 0.000000e+00 0.000000e+00 0.000000e+00 6.832759e-01 3.167241e-01
 0.000000e+00 0.000000e+00 0.000000e+00 0.000000e+00 0.000000e+00
<ENDHMM>
~h "s"
<BEGINHMM>
<NUMSTATES> 5
<STATE> 2
<MEAN> 39
 -1.248266e+01 3.423187e+00 -3.014516e-01 -2.100122e+00 -3.558433e+00 -7.426603e+00 -6.166562e+00 -2.311048e+00 -3.221835e+00 -2.590696e+00 -4.276802e+00 -2.895005e+00 6.317216e+01 -4.168702e+00 1.721719e+00 -4.590141e-01 5.703448e-01 1.626236e+00 -2.888990e-01 1.288215e+00 4.291135e-01 4.633233e-01 -4.871236e-01 4.489561e-01 1.026060e+00 -3.766261e-01 -2.318220e-01 -5.496681e-01 -3.077366e-01 -2.455079e-01 -4.049923e-01 2.815751e-01 -2.536472e-01 3.017789e-02 -1.200315e-01 5.818468e-02 2.985959e-01 -1.432922e-01 3.111913e-02
<VARIANCE> 39
 7.089265e+01 4.474694e+01 4.810321e+01 3.287978e+01 4.946655e+01 4.488498e+01 6.327386e+01 5.001263e+01 4.005788e+01 3.462612e+01 4.143614e+01 3.160204e+01 8.279575e+01 3.593222e+00 5.635983e+00 3.654815e+00 3.376772e+00 4.560262e+00 4.610585e+00 4.290894e+00 5.234396e+00 3.660336e+00 3.295530e+00 3.599034e+00 2.965914e+00 3.096673e+00 9.895941e-01 9.067940e-01 4.199350e-01 5.070270e-01 6.924925e-01 6.352040e-01 7.437088e-01 6.938774e-01 6.308382e-01 5.832629e-01 5.801971e-01 5.054116e-01 2.889773e-01
<GCONST> 1.327604e+02
<STATE> 3
<MEAN> 39
 -2.795951e+01 3.737320e+00 -5.970004e+00 -2.053288e+00 -2.498465e+00 -6.368906e+00 -3.436362e+00 -8.428630e-01 -2.335916e+00 -2.377065e+00 -5.649677e-01 -1.256089e-01 6.244968e+01 -7.079291e-01 -5.151762e-01 -4.960346e-01 -1.936086e-01 -2.546479e-01 8.680912e-02 8.017730e-02 5.107737e-02 1.177194e-01 1.132230e-01 1.841834e-01 1.742144e-01 -2.522244e-01 8.753157e-01 -1.365519e-01 2.664371e-01 -4.101664e-02 -1.675178e-01 -9.419521e-02 -1.727283e-01 -1.002027e-01 2.942719e-03 5.352360e-03 -1.916468e-01 -1.652420e-01 7.729994e-02
<VARIANCE> 39
 2.327103e+01 2.249209e+01 3.896152e+01 2.588607e+01 2.996452e+01 2.875269e+01 3.998452e+01 2.924284e+01 2.721775e+01 2.230428e+01 2.342202e+01 1.949511e+01 2.368053e+01 2.444206e+00 1.486698e+00 1.810982e+00 1.451232e+00 1.665721e+00 1.833896e+00 1.834735e+00 1.842589e+00 1.871282e+00 1.675840e+00 1.741345e+00 1.499339e+00 8.572984e-01 4.584761e-01 3.077102e-01 3.243527e-01 3.103546e-01 3.736842e-01 4.012453e-01 4.250085e-01 4.236388e-01 3.912214e-01 3.602605e-01 3.623162e-01 3.527004e-01 1.561734e-01
<GCONST> 1.071739e+02
<STATE> 4
<MEAN> 39
 -1.939447e+01 7.032461e-01 -4.213487e+00 -2.826482e+00 -4.062418e+00 -6.865107e+00 -4.759242e+00 -1.575973e+00 -1.518228e+00 -2.389765e+00 -2.385296e+00 -1.185392e+00 5.670097e+01 3.396080e+00 -4.925456e-01 7.227918e-01 -2.290983e-01 -8.347659e-01 -1.100857e-01 -1.189181e+00 -6.223427e-01 -7.138839e-02 6.812562e-02 -5.340012e-01 -1.026185e+00 4.353034e-01 6.075310e-01 -1.081596e-01 1.123690e-01 -4.348673e-02 -1.977538e-01 2.012237e-01 -3.328202e-01 -9.454403e-02 -1.241620e-01 2.304703e-02 1.215657e-01 -2.728274e-01 2.680184e-01
<VARIANCE> 39
 7.446785e+01 3.038626e+01 4.034262e+01 2.759977e+01 3.136183e+01 3.657063e+01 4.376626e+01 3.440650e+01 2.950121e+01 2.494954e+01 2.825047e+01 2.468774e+01 1.373242e+02 9.492700e+00 3.397468e+00 4.155396e+00 3.021783e+00 3.364807e+00 4.030319e+00 4.463375e+00 4.300484e+00 3.511130e+00 2.840973e+00 2.924261e+00 3.206123e+00 5.178326e+00 1.214890e+00 5.662862e-01 5.200048e-01 4.646541e-01 5.562580e-01 6.758191e-01 7.481953e-01 7.436394e-01 5.970464e-01 5.150548e-01 5.702407e-01 5.191709e-01 4.895997e-01
<GCONST> 1.301285e+02
<TRANSP> 5
 0.000000e+00 1.000000e+00 0.000000e+00 0.000000e+00 0.000000e+00
 0.000000e+00 7.396827e-01 2.603174e-01 0.000000e+00 0.000000e+00
 0.000000e+00 0.000000e+00 8.392513e-01 1.607487e-01 0.000000e+00
 0.000000e+00 0.000000e+00 0.000000e+00 7.584998e-01 2.415002e-01
 0.000000e+00 0.000000e+00 0.000000e+00 0.000000e+00 0.000000e+00
<ENDHMM>
~h "t"
<BEGINHMM>
<NUMSTATES> 5
<STATE> 2
<MEAN> 39
 -6.512618e+00 5.675348e-01 -2.581860e+00 -2.551703e+00 -5.921578e+00 -5.294781e+00 -7.448339e+00 -3.718006e+00 -2.429245e+00 -1.759483e+00 -3.564977e+00 -4.644189e+00 4.307195e+01 -4.608171e-01 2.527109e-01 -6.708937e-02 6.068010e-02 1.089543e-01 -3.667619e-02 2.820244e-01 2.431549e-02 -1.602391e-02 -4.867043e-02 3.953062e-02 3.174345e-01 -1.583775e+00 -1.380368e-01 -2.481042e-01 -3.897533e-02 -1.267749e-01 -3.782800e-02 2.286525e-02 -1.166511e-02 5.249548e-02 -1.270853e-02 -1.733834e-03 8.448625e-02 2.626765e-02 5.629835e-01
<VARIANCE> 39
 3.741971e+01 3.088523e+01 3.497849e+01 3.154480e+01 3.425632e+01 3.736255e+01 4.193249e+01 4.081652e+01 3.483973e+01 2.967841e+01 3.259929e+01 3.483650e+01 8.626303e+01 1.389398e+00 1.636418e+00 1.461393e+00 1.751290e+00 2.086178e+00 2.046249e+00 2.258317e+00 2.306865e+00 2.215312e+00 2.172119e+00 2.119725e+00 1.822261e+00 4.567196e+00 3.041076e-01 4.036437e-01 3.318893e-01 4.199680e-01 4.534943e-01 4.268097e-01 4.595186e-01 4.804559e-01 4.634638e-01 4.392379e-01 4.418576e-01 3.638023e-01 7.498661e-01
<GCONST> 1.171450e+02
<STATE> 3
<MEAN> 39
 -7.243772e+00 2.909271e+00 -5.774946e-01 -1.666090e+00 -6.796792e+00 -6.365078e+00 -8.053294e+00 -5.301006e+00 -3.502215e+00 -1.701302e+00 -3.083489e+00 -3.895587e+00 4.160459e+01 -1.947351e+00 -1.720001e+00 -7.176986e-01 -9.264687e-01 4.892226e-01 -8.677474e-02 5.063379e-01 4.451210e-01 1.999867e-01 -2.763384e-01 3.784431e-01 7.683083e-01 2.785198e+00 2.301619e-01 -6.012207e-01 -1.359959e-01 -3.782930e-01 -3.018640e-01 2.232135e-02 -2.943943e-01 5.339859e-02 9.503942e-02 7.722703e-03 3.321772e-02 -2.973963e-01 2.214696e+00
<VARIANCE> 39
 3.735765e+01 3.058931e+01 4.314846e+01 3.829722e+01 4.008575e+01 4.044175e+01 3.929240e+01 4.076173e+01 3.947636e+01 3.001141e+01 3.246721e+01 2.826132e+01 7.179794e+01 3.687795e+00 4.195868e+00 4.278231e+00 3.721831e+00 4.407498e+00 4.259489e+00 3.952281e+00 4.196508e+00 4.220992e+00 3.444003e+00 3.460392e+00 3.033946e+00 1.647300e+01 7.913030e-01 6.626846e-01 7.042374e-01 6.777363e-01 8.269567e-01 8.183880e-01 7.488115e-01 8.422418e-01 8.251491e-01 6.640922e-01 6.684981e-01 6.012369e-01 1.349471e+00
<GCONST> 1.346986e+02
<STATE> 4
<MEAN> 39
 -1.304263e+01 -5.760534e+00 -4.200583e+00 -6.226893e+00 -6.025566e+00 -7.323221e+00 -7.055825e+00 -3.304809e+00 -2.326600e+00 -2.854371e+00 -2.558187e+00 -2.167145e+00 6.140351e+01 1.119540e+00 -1.382273e+00 -2.991852e-01 -1.150973e+00 -1.038133e+00 1.620235e-03 -1.313366e+00 4.604938e-02 3.759587e-01 6.515120e-03 2.696614e-01 -1.303487e+00 6.459322e+00 1.292834e+00 4.629040e-01 3.843452e-01 1.843507e-01 -5.983141e-01 4.802485e-01 -6.201065e-01 -1.216050e-01 -1.113139e-01 1.267029e-01 1.373546e-01 -7.212797e-01 -6.809185e-01
<VARIANCE> 39
 2.546547e+01 2.359477e+01 3.213098e+01 2.645168e+01 3.104897e+01 3.515725e+01 3.611428e+01 2.902118e+01 3.242006e+01 2.611559e+01 2.606361e+01 2.446740e+01 7.642174e+01 5.655523e+00 4.796788e+00 6.749816e+00 4.782861e+00 5.589690e+00 6.022732e+00 5.188701e+00 6.043352e+00 6.585046e+00 4.106071e+00 4.692558e+00 4.580016e+00 1.198614e+01 6.883290e-01 7.854136e-01 1.004493e+00 7.179919e-01 9.183206e-01 1.074947e+00 9.315801e-01 1.146679e+00 8.899891e-01 7.811055e-01 8.228009e-01 7.105495e-01 1.500180e+00
<GCONST> 1.375084e+02
<TRANSP> 5
 0.000000e+00 1.000000e+00 0.000000e+00 0.000000e+00 0.000000e+00
 0.000000e+00 8.400016e-01 1.599984e-01 0.000000e+00 0.000000e+00
 0.000000e+00 0.000000e+00 5.814891e-01 4.185109e-01 0.000000e+00
 0.000000e+00 0.000000e+00 0.000000e+00 5.087258e-01 4.912741e-01
 0.000000e+00 0.000000e+00 0.000000e+00 0.000000e+00 0.000000e+00
<ENDHMM>
~h "u"
<BEGINHMM>
<NUMSTATES> 5
<STATE> 2
<MEAN> 39
 -2.797688e-01 5.301384e-01 -2.996489e+00 -7.344141e+00 -1.128466e+01 -2.388358e+00 -1.484984e+01 -8.095378e+00 -6.510537e+00 -2.581098e+00 7.486095e-01 -5.961419e+00 6.240775e+01 2.101879e+00 5.763621e-01 -4.374870e-01 -1.657022e+00 -1.895802e+00 1.986321e+00 -1.565916e+00 -1.223138e+00 -7.696084e-01 -2.424181e-02 1.805848e+00 -8.209870e-01 1.419432e+00 -2.599557e-01 5.758796e-02 1.197093e-01 -1.043447e-01 -2.216491e-02 4.084029e-01 3.144315e-01 1.252535e-01 -8.938970e-02 -4.408377e-02 4.877004e-02 7.920146e-02 -4.558775e-01
<VARIANCE> 39
 3.429600e+01 3.860679e+01 4.618699e+01 8.274801e+01 5.923220e+01 7.113923e+01 7.639653e+01 7.276049e+01 5.509197e+01 4.685686e+01 4.463582e+01 3.863776e+01 1.162318e+02 5.424381e+00 3.309972e+00 4.887349e+00 5.799092e+00 6.867084e+00 5.760678e+00 5.947615e+00 7.681784e+00 5.493882e+00 5.089518e+00 4.939692e+00 4.265705e+00 5.408601e+00 7.871766e-01 5.853271e-01 5.635930e-01 9.962242e-01 8.704742e-01 8.908542e-01 1.115572e+00 9.582946e-01 8.870989e-01 7.552110e-01 7.049711e-01 7.081866e-01 1.230525e+00
<GCONST> 1.435190e+02
<STATE> 3
<MEAN> 39
 2.951010e+00 2.093542e-02 -4.123136e+00 -1.104633e+01 -1.595233e+01 5.551697e+00 -1.838977e+01 -1.212932e+01 -8.738781e+00 -3.368331e+00 7.344942e+00 -7.241266e+00 6.780176e+01 3.341232e-01 3.205514e-01 -1.922080e-02 -8.142476e-01 -4.533114e-01 1.201483e+00 -1.586054e-01 -8.368718e-02 -4.732025e-01 -1.993747e-01 5.780036e-01 -5.969912e-02 -7.366116e-02 -4.378103e-01 1.533838e-02 2.759837e-01 6.092361e-01 6.393055e-01 -8.400707e-01 5.682387e-01 4.711307e-01 2.804803e-01 2.121501e-02 -9.119058e-01 1.719269e-01 -5.543727e-01
<VARIANCE> 39
 1.296705e+01 3.124328e+01 3.756050e+01 7.364613e+01 5.186101e+01 6.719567e+01 6.942383e+01 9.207852e+01 6.995592e+01 6.194355e+01 4.483008e+01 4.193830e+01 1.990967e+01 1.050696e+00 2.581125e+00 2.111611e+00 5.539470e+00 4.219044e+00 5.546518e+00 4.792070e+00 5.131945e+00 4.933451e+00 4.337241e+00 4.414553e+00 3.127387e+00 1.983260e+00 3.851527e-01 4.433806e-01 4.367279e-01 7.244899e-01 8.240759e-01 7.377648e-01 9.099742e-01 1.094372e+00 9.350045e-01 9.076822e-01 6.929288e-01 7.310134e-01 3.503214e-01
<GCONST> 1.323024e+02
<STATE> 4
<MEAN> 39
 3.610952e+00 3.217505e+00 -4.003128e+00 -1.432085e+01 -1.573458e+01 5.806631e+00 -1.575589e+01 -8.585526e+00 -9.652467e+00 -4.707976e+00 3.181456e+00 -6.778789e+00 6.406342e+01 -1.349045e-01 -5.351645e-02 3.144550e-01 7.459185e-01 6.316274e-01 -6.480289e-01 4.812790e-01 4.312826e-02 3.804902e-01 3.858924e-01 -7.268336e-01 -1.306856e-02 -7.671141e-01 -1.557431e-01 -1.045693e-01 1.175512e-01 3.568010e-01 2.068486e-01 -2.651569e-01 1.239284e-01 -4.011805e-02 1.403336e-01 1.149240e-01 -1.812802e-01 1.971775e-02 -1.670860e-01
<VARIANCE> 39
 1.283796e+01 4.121513e+01 3.827095e+01 7.188564e+01 5.197445e+01 6.439023e+01 5.790910e+01 7.730828e+01 6.085653e+01 6.370657e+01 5.217928e+01 4.129475e+01 4.546869e+01 7.716053e-01 2.336283e+00 1.811063e+00 3.390529e+00 3.139038e+00 3.136166e+00 3.149912e+00 3.896938e+00 3.048170e+00 3.381139e+00 3.709691e+00 2.746106e+00 3.112177e+00 1.561787e-01 3.274130e-01 2.823516e-01 4.450393e-01 4.890860e-01 4.900246e-01 5.554811e-01 6.638002e-01 5.363785e-01 6.170099e-01 5.999796e-01 5.097604e-01 2.673866e-01
<GCONST> 1.240505e+02
<TRANSP> 5
 0.000000e+00 1.000000e+00 0.000000e+00 0.000000e+00 0.000000e+00
 0.000000e+00 4.988586e-01 5.011414e-01 0.000000e+00 0.000000e+00
 0.000000e+00 0.000000e+00 6.005355e-01 3.994645e-01 0.000000e+00
 0.000000e+00 0.000000e+00 0.000000e+00 7.823395e-01 2.176606e-01
 0.000000e+00 0.000000e+00 0.000000e+00 0.000000e+00 0.000000e+00
<ENDHMM>
~h "w"
<BEGINHMM>
<NUMSTATES> 5
<STATE> 2
<MEAN> 39
 -8.582373e-01 -1.444094e+00 -4.038991e+00 -9.331164e+00 -1.065465e+01 3.276262e+00 -1.067846e+01 -4.229172e+00 -5.405602e+00 -2.341424e+00 9.185500e-01 -6.673555e+00 5.713067e+01 9.112373e-01 5.046013e-01 -1.213629e-01 -1.103924e+00 -6.854141e-01 9.065074e-01 -1.650109e-01 -2.134381e-01 -5.440332e-01 -2.131050e-01 6.167912e-01 1.278119e-01 3.748989e-01 -1.229474e-01 -1.072828e-01 9.854286e-02 -5.537133e-02 -9.105902e-02 -5.126603e-02 8.602986e-02 1.639234e-01 5.770739e-02 -8.248597e-02 -4.358843e-02 2.794924e-02 1.056158e-01
<VARIANCE> 39
 5.933215e+01 6.171031e+01 5.152790e+01 8.097696e+01 7.648134e+01 7.168610e+01 7.163118e+01 6.046939e+01 7.145363e+01 4.840343e+01 5.577201e+01 4.464343e+01 1.874568e+02 2.931783e+00 2.799089e+00 3.220200e+00 4.439882e+00 4.703832e+00 4.330063e+00 3.997458e+00 4.039623e+00 3.840536e+00 3.477291e+00 3.694438e+00 2.988642e+00 5.216620e+00 5.036372e-01 4.463912e-01 4.873247e-01 6.666152e-01 7.361221e-01 6.422980e-01 7.239439e-01 6.681517e-01 6.870174e-01 6.468763e-01 6.628808e-01 4.763860e-01 4.677513e-01
<GCONST> 1.367947e+02
<STATE> 3
<MEAN> 39
 6.155322e+00 -1.518248e-01 -4.624283e+00 -2.024685e+01 -1.777036e+01 9.381336e+00 -1.220777e+01 -3.382600e+00 -6.385672e+00 -4.786067e+00 3.970911e+00 -5.798498e+00 6.592522e+01 -1.845269e-02 -2.980805e-01 -1.599022e-01 -5.489308e-01 -6.726034e-02 4.444480e-01 8.535856e-02 1.935300e-02 1.165573e-01 -9.497627e-04 2.307369e-01 7.853840e-02 3.622934e-01 -2.440570e-01 -4.527499e-01 -1.374960e-01 3.383669e-01 4.312486e-01 -6.670792e-02 -6.928758e-02 -6.460053e-02 1.973625e-01 3.195160e-01 -5.224235e-02 -3.315190e-01 2.526850e-01
<VARIANCE> 39
 1.041659e+01 3.648446e+01 3.135276e+01 5.434416e+01 4.984257e+01 4.586334e+01 3.967142e+01 5.830506e+01 6.201204e+01 5.057867e+01 4.128128e+01 3.284507e+01 2.347203e+01 4.693570e-01 2.597735e+00 1.286365e+00 1.772552e+00 2.427164e+00 2.199145e+00 1.807437e+00 1.804431e+00 2.023979e+00 2.491508e+00 2.286373e+00 1.969082e+00 1.625797e+00 7.231344e-02 1.669273e-01 1.845437e-01 2.701013e-01 3.373722e-01 4.235283e-01 3.362205e-01 3.667070e-01 4.035200e-01 3.693512e-01 4.210017e-01 3.812559e-01 1.218923e-01
<GCONST> 1.091536e+02
<STATE> 4
<MEAN> 39
 3.061398e+00 -8.622579e+00 -8.695489e+00 -1.945576e+01 -1.125230e+01 1.201647e+01 -1.218553e+01 -4.339921e+00 -5.046484e+00 2.406912e-01 5.485005e+00 -1.068056e+01 7.166127e+01 -9.638689e-01 -2.085599e+00 -3.376045e-01 1.570922e+00 1.779954e+00 -6.851467e-01 -5.108094e-01 2.351660e-01 1.198568e+00 8.368694e-01 -1.079411e+00 -1.906327e+00 1.236682e+00 -4.750999e-02 2.076468e-01 3.715805e-01 4.447462e-01 -2.580021e-01 -6.855261e-01 -6.456197e-03 3.896495e-01 1.340373e-01 -4.317773e-01 -5.577263e-01 1.358291e-01 -2.331844e-01
<VARIANCE> 39
 1.299490e+01 3.813342e+01 3.253633e+01 5.987471e+01 4.310897e+01 6.150050e+01 4.918068e+01 5.802935e+01 6.964036e+01 5.980006e+01 5.087474e+01 4.110191e+01 2.191435e+01 2.851619e-01 1.309974e+00 1.460302e+00 1.898650e+00 2.299105e+00 3.615957e+00 2.435838e+00 2.996860e+00 2.539603e+00 2.701961e+00 3.330806e+00 1.995616e+00 6.016095e-01 7.999598e-02 1.962991e-01 1.837644e-01 3.139250e-01 4.750112e-01 3.921011e-01 3.879327e-01 4.401957e-01 4.031575e-01 4.727546e-01 4.561480e-01 5.566970e-01 9.459069e-02
<GCONST> 1.119753e+02
<TRANSP> 5
 0.000000e+00 1.000000e+00 0.000000e+00 0.000000e+00 0.000000e+00
 0.000000e+00 7.792339e-01 2.207660e-01 0.000000e+00 0.000000e+00
 0.000000e+00 0.000000e+00 8.033283e-01 1.966718e-01 0.000000e+00
 0.000000e+00 0.000000e+00 0.000000e+00 6.559663e-01 3.440337e-01
 0.000000e+00 0.000000e+00 0.000000e+00 0.000000e+00 0.000000e+00
<ENDHMM>
~h "y"
<BEGINHMM>
<NUMSTATES> 5
<STATE> 2
<MEAN> 39
 -8.758414e+00 -4.118536e-01 4.749802e+00 -3.267194e+00 -9.241550e+00 -4.056481e+00 -7.657728e+00 -8.493421e-01 -6.534399e+00 -3.593151e+00 -3.197507e-01 -3.679067e+00 4.902151e+01 1.106649e-02 2.038762e-01 1.110879e+00 -1.364869e-01 -7.341056e-01 -9.116400e-02 -6.896945e-01 8.675393e-02 -4.335161e-01 -2.824101e-01 6.701719e-01 9.018213e-02 7.258815e-01 6.384005e-02 -1.084972e-01 -7.616472e-02 -3.998649e-02 -3.169640e-02 4.303953e-02 -6.075357e-02 -1.128528e-02 2.772840e-02 -6.183989e-03 8.054171e-03 -1.704226e-02 1.784334e-01
<VARIANCE> 39
 3.007570e+01 5.345169e+01 8.369112e+01 3.417502e+01 7.120024e+01 5.185620e+01 6.219390e+01 4.964828e+01 5.004971e+01 4.110469e+01 3.434986e+01 3.150275e+01 1.908775e+02 2.288321e+00 2.738474e+00 4.382493e+00 2.257634e+00 4.036840e+00 3.314597e+00 4.236070e+00 3.357796e+00 3.514683e+00 3.297431e+00 3.063556e+00 2.349775e+00 5.560535e+00 3.543362e-01 4.370332e-01 6.191422e-01 4.089383e-01 6.756864e-01 6.218982e-01 6.696890e-01 5.819103e-01 6.107669e-01 5.365980e-01 4.964625e-01 4.051971e-01 4.817420e-01
<GCONST> 1.301528e+02
<STATE> 3
<MEAN> 39
 -5.319539e+00 -2.905545e+00 1.569529e+01 -6.450343e+00 -2.188746e+01 -6.689038e+00 -1.710608e+01 -2.489637e-01 -1.000451e+01 -6.583688e+00 6.808490e+00 -4.356164e+00 7.005906e+01 7.173468e-02 -6.193573e-01 -2.992931e-01 -2.342733e-01 -6.053206e-01 -3.576775e-01 8.446860e-02 3.905438e-01 3.143089e-01 3.229356e-01 3.217100e-01 7.109063e-02 7.438639e-01 9.640975e-02 -3.315164e-01 -7.040686e-01 -1.162534e-02 2.974053e-01 4.517903e-02 4.051617e-01 4.116324e-01 3.715428e-01 1.131965e-01 -4.581539e-01 -2.368875e-01 -9.199088e-03
<VARIANCE> 39
 1.385010e+01 4.447365e+01 5.316988e+01 3.809620e+01 3.256961e+01 5.744236e+01 5.570321e+01 6.612012e+01 4.907238e+01 6.532156e+01 3.143446e+01 3.168395e+01 2.310532e+01 5.259203e-01 2.591648e+00 3.576155e+00 1.222538e+00 1.875804e+00 1.849229e+00 3.005071e+00 3.511188e+00 2.899028e+00 2.133809e+00 1.830358e+00 1.515678e+00 1.586820e+00 8.653504e-02 1.778876e-01 2.367737e-01 2.026105e-01 4.671211e-01 3.896746e-01 4.928825e-01 4.101572e-01 3.755455e-01 4.346010e-01 3.875985e-01 2.834380e-01 1.853862e-01
<GCONST> 1.120456e+02
<STATE> 4
<MEAN> 39
 -3.601729e+00 -1.079837e+01 5.556162e+00 -9.104285e+00 -2.192371e+01 -8.551113e+00 -1.078620e+01 8.550653e+00 -4.067873e+00 -4.397102e+00 2.201444e+00 -6.664542e+00 7.482253e+01 4.995812e-01 -1.725289e+00 -2.769155e+00 -1.174181e-01 1.761105e+00 8.552658e-01 1.144664e+00 1.691036e+00 1.168230e+00 -4.253090e-01 -2.408857e+00 -1.007373e+00 6.415584e-01 -3.228294e-03 2.245005e-01 4.797852e-03 1.388587e-01 6.708360e-01 4.850027e-01 -3.756047e-01 -6.400194e-01 -2.908546e-01 -1.650617e-01 -2.688256e-01 -7.471887e-02 -2.960190e-01
<VARIANCE> 39
 1.310044e+01 2.905260e+01 4.198339e+01 3.546443e+01 3.430230e+01 4.378436e+01 4.775305e+01 6.224903e+01 4.853682e+01 5.146288e+01 5.007799e+01 2.780610e+01 1.547817e+01 3.384485e-01 1.308501e+00 1.736367e+00 1.045284e+00 2.256962e+00 2.054329e+00 3.112729e+00 3.531257e+00 2.530415e+00 2.733580e+00 2.501874e+00 1.667769e+00 4.584909e-01 7.188609e-02 1.805584e-01 2.740954e-01 2.214224e-01 3.814008e-01 3.675446e-01 4.748113e-01 6.086923e-01 4.178265e-01 4.842061e-01 5.956323e-01 2.839361e-01 1.016163e-01
<GCONST> 1.083193e+02
<TRANSP> 5
 0.000000e+00 1.000000e+00 0.000000e+00 0.000000e+00 0.000000e+00
 0.000000e+00 8.358647e-01 1.641353e-01 0.000000e+00 0.000000e+00
 0.000000e+00 0.000000e+00 7.956057e-01 2.043943e-01 0.000000e+00
 0.000000e+00 0.000000e+00 0.000000e+00 6.737944e-01 3.262055e-01
 0.000000e+00 0.000000e+00 0.000000e+00 0.000000e+00 0.000000e+00
<ENDHMM>
~h "z"
<BEGINHMM>
<NUMSTATES> 5
<STATE> 2
<MEAN> 39
 -7.913898e+00 5.096657e+00 3.081321e+00 5.058068e-01 -6.067452e+00 -1.063244e+01 -1.180920e+01 -4.772546e+00 -3.485941e+00 -2.408514e+00 -3.528665e+00 -2.620930e+00 6.389389e+01 -2.108267e+00 2.396402e+00 -1.056537e-01 9.177362e-01 1.499063e+00 -6.731287e-01 1.055810e+00 -1.003559e-01 1.861127e-01 -2.410341e-01 -2.932824e-01 9.340680e-01 -1.652162e-01 -2.014323e-01 -1.632147e-01 -1.626283e-01 -1.705282e-01 -1.188126e-01 4.059450e-01 9.992426e-02 1.857282e-01 -3.846977e-02 3.355139e-02 1.758944e-01 -1.682513e-01 -2.955928e-02
<VARIANCE> 39
 3.514909e+01 4.511024e+01 4.990217e+01 3.822155e+01 5.193866e+01 4.411645e+01 7.985749e+01 4.748026e+01 5.008504e+01 2.910687e+01 3.647602e+01 2.844332e+01 8.586751e+01 3.186312e+00 3.426734e+00 3.031687e+00 2.786600e+00 3.698875e+00 4.048618e+00 4.274543e+00 4.736698e+00 3.343179e+00 2.995226e+00 3.075396e+00 2.405368e+00 3.935325e+00 4.191157e-01 6.608041e-01 4.219058e-01 3.785293e-01 5.712228e-01 6.064727e-01 7.806605e-01 6.671995e-01 5.673216e-01 5.080679e-01 5.300024e-01 4.728308e-01 3.661522e-01
<GCONST> 1.287095e+02
<STATE> 3
<MEAN> 39
 -1.862398e+01 1.209183e+01 1.629414e+00 3.778781e+00 -2.757756e+00 -9.418033e+00 -7.413880e+00 -4.146276e+00 -3.750262e+00 -2.895644e+00 -2.498002e+00 -6.838161e-01 6.524030e+01 -8.793074e-01 -1.021926e-01 -6.128711e-02 1.128336e-01 1.329057e-01 2.712490e-01 2.527048e-01 6.908537e-02 -5.029757e-02 3.350287e-02 2.302961e-01 1.696425e-01 1.999386e-02 5.344775e-01 -4.998076e-01 1.089855e-01 -1.900803e-01 -3.909664e-01 -1.073105e-01 -2.460648e-01 -1.104095e-01 -5.062625e-03 -3.448545e-03 9.351761e-03 -6.449753e-02 1.953971e-01
<VARIANCE> 39
 3.781650e+01 2.565265e+01 3.853245e+01 3.731583e+01 3.672689e+01 3.651069e+01 4.969041e+01 3.642982e+01 2.570300e+01 2.002023e+01 2.582053e+01 1.949282e+01 2.200906e+01 1.719026e+00 1.656663e+00 1.510392e+00 1.251577e+00 1.787762e+00 1.770767e+00 1.801418e+00 1.793205e+00 1.680981e+00 1.520119e+00 1.465647e+00 1.299698e+00 7.727257e-01 2.781193e-01 3.087515e-01 2.528603e-01 2.724240e-01 3.751356e-01 3.733604e-01 3.839211e-01 3.694539e-01 3.588828e-01 3.384422e-01 3.030899e-01 2.855931e-01 1.298389e-01
<GCONST> 1.057714e+02
<STATE> 4
<MEAN> 39
 -1.483421e+01 4.788382e+00 8.277225e-01 1.322709e+00 -5.558416e+00 -9.381160e+00 -7.662755e+00 -4.082300e+00 -2.717022e+00 -2.819546e+00 -1.574017e+00 -1.750031e-01 6.206755e+01 2.421403e+00 -1.693465e+00 2.275241e-01 -7.598800e-01 -1.813934e+00 -4.630158e-01 -1.304066e+00 -3.060606e-01 3.504087e-01 -5.809304e-02 1.541660e-01 -4.703004e-01 1.051011e+00 3.923261e-01 -2.322817e-01 -1.506048e-02 -1.579243e-01 -2.322936e-01 3.054357e-01 -1.948918e-01 1.139362e-01 5.331542e-02 -4.371539e-02 1.067085e-01 -3.619391e-01 5.038144e-02
<VARIANCE> 39
 6.327196e+01 4.045473e+01 5.395341e+01 2.766389e+01 3.527108e+01 4.437794e+01 5.196482e+01 3.696396e+01 3.297956e+01 2.030045e+01 2.285318e+01 2.007743e+01 1.301755e+02 5.339141e+00 5.051570e+00 2.306859e+00 3.093574e+00 3.810222e+00 3.773690e+00 3.501827e+00 4.248968e+00 3.571638e+00 2.348769e+00 2.087917e+00 2.394565e+00 2.803941e+00 8.292882e-01 4.776170e-01 2.889319e-01 3.562301e-01 4.980057e-01 7.537982e-01 6.017457e-01 6.747630e-01 4.846191e-01 3.779340e-01 4.226345e-01 4.236678e-01 2.628746e-01
<GCONST> 1.248120e+02
<TRANSP> 5
 0.000000e+00 1.000000e+00 0.000000e+00 0.000000e+00 0.000000e+00
 0.000000e+00 7.360665e-01 2.639335e-01 0.000000e+00 0.000000e+00
 0.000000e+00 0.000000e+00 8.367286e-01 1.632714e-01 0.000000e+00
 0.000000e+00 0.000000e+00 0.000000e+00 7.646797e-01 2.353204e-01
 0.000000e+00 0.000000e+00 0.000000e+00 0.000000e+00 0.000000e+00
<ENDHMM>
~h "ai"
<BEGINHMM>
<NUMSTATES> 5
<STATE> 2
<MEAN> 39
 -4.666329e-01 -1.501107e+01 -5.428644e+00 -9.420273e+00 -1.190876e+01 -6.116237e-02 -1.288618e+01 4.519837e+00 -5.228304e-01 -2.903560e+00 -2.828275e+00 -1.262898e+01 7.568747e+01 -2.249142e-01 -1.419244e+00 4.074554e-01 2.062804e-01 -6.688157e-01 -3.951387e-01 5.620286e-01 2.214073e+00 5.639243e-02 -1.325853e+00 -5.674143e-01 5.846572e-02 9.612422e-01 -2.676361e-01 5.663248e-01 4.558660e-01 2.163594e-01 -6.088534e-02 -3.203353e-01 3.084132e-01 -3.747179e-01 -4.610766e-01 4.143964e-02 1.853987e-01 6.051681e-01 -6.174386e-01
<VARIANCE> 39
 1.486147e+01 2.723725e+01 5.426513e+01 3.145155e+01 5.783853e+01 1.050676e+02 5.171181e+01 7.441707e+01 7.169496e+01 5.549323e+01 5.858951e+01 3.474616e+01 1.533386e+01 1.374002e+00 1.893373e+00 2.805217e+00 2.415950e+00 3.608537e+00 5.409148e+00 3.263511e+00 3.725369e+00 3.359298e+00 2.747386e+00 3.369379e+00 3.393497e+00 1.101917e+00 3.402266e-01 2.619566e-01 3.550845e-01 4.275425e-01 7.153587e-01 6.548112e-01 5.207254e-01 7.640170e-01 5.905254e-01 5.881992e-01 7.884451e-01 4.554879e-01 3.683847e-01
<GCONST> 1.247599e+02
<STATE> 3
<MEAN> 39
 -3.381732e+00 -1.474033e+01 1.956117e+00 -9.944218e+00 -1.873751e+01 -7.510268e+00 -8.986286e+00 8.103947e+00 -4.638915e+00 -6.117978e+00 6.029505e-01 -8.937307e+00 7.567867e+01 -2.193063e-01 8.089963e-01 1.482507e+00 -4.102108e-02 -1.304905e+00 -8.155023e-01 -6.425023e-02 -3.553295e-01 -1.002769e+00 4.238980e-01 1.101683e+00 3.895145e-01 -3.837321e-01 3.771675e-02 2.118720e-01 -6.107988e-03 4.467449e-02 1.698215e-01 9.143528e-02 -2.560329e-01 -3.842650e-01 -2.357707e-02 1.468603e-01 7.357022e-03 -8.325120e-02 -1.563922e-01
<VARIANCE> 39
 1.439980e+01 3.250720e+01 5.741034e+01 2.862881e+01 5.975994e+01 6.940071e+01 3.470409e+01 6.650966e+01 5.933441e+01 5.474736e+01 5.747163e+01 2.526856e+01 1.100168e+01 1.771658e-01 8.482761e-01 1.310085e+00 7.189158e-01 1.840258e+00 1.758413e+00 1.888632e+00 2.947111e+00 1.569282e+00 1.817061e+00 2.090920e+00 1.530294e+00 1.847223e-01 3.637214e-02 1.195986e-01 1.690796e-01 1.500670e-01 3.328188e-01 3.070640e-01 2.750476e-01 4.484238e-01 2.625473e-01 3.487164e-01 3.953556e-01 2.448773e-01 3.668470e-02
<GCONST> 9.901115e+01
<STATE> 4
<MEAN> 39
 -3.634056e+00 -4.011967e+00 1.049507e+01 -5.820694e+00 -2.087154e+01 -8.596373e+00 -1.226921e+01 1.260905e+00 -1.071328e+01 -2.439003e+00 3.846666e+00 -6.752954e+00 6.428636e+01 1.414625e-01 8.794898e-01 -1.106412e-01 7.273521e-01 9.242355e-01 1.732499e-02 1.167071e-01 -7.718553e-01 -6.349982e-02 -8.891675e-02 -4.527671e-01 1.301779e-02 -1.553939e+00 3.887893e-02 1.275182e-05 -2.969731e-01 7.543713e-02 3.105661e-01 9.608832e-02 1.829924e-01 3.500785e-02 1.757793e-01 -2.160624e-02 -2.220770e-01 -3.132997e-02 -1.666400e-01
<VARIANCE> 39
 1.768547e+01 4.819281e+01 5.147099e+01 3.895683e+01 4.747049e+01 5.736877e+01 5.601494e+01 7.598470e+01 4.704922e+01 4.690491e+01 4.419835e+01 3.309024e+01 1.127608e+02 9.549043e-01 1.764475e+00 2.166602e+00 1.588579e+00 2.514434e+00 2.279903e+00 3.202148e+00 2.888527e+00 2.757303e+00 2.103585e+00 2.222702e+00 1.597093e+00 1.976978e+00 1.584604e-01 2.808713e-01 2.812275e-01 2.819804e-01 4.563188e-01 4.232568e-01 5.357592e-01 5.610207e-01 4.874116e-01 4.073074e-01 4.133527e-01 3.142994e-01 2.929498e-01
<GCONST> 1.180633e+02
<TRANSP> 5
 0.000000e+00 1.000000e+00 0.000000e+00 0.000000e+00 0.000000e+00
 0.000000e+00 7.050513e-01 2.949487e-01 0.000000e+00 0.000000e+00
 0.000000e+00 0.000000e+00 8.467779e-01 1.532221e-01 0.000000e+00
 0.000000e+00 0.000000e+00 0.000000e+00 8.604886e-01 1.395114e-01
 0.000000e+00 0.000000e+00 0.000000e+00 0.000000e+00 0.000000e+00
<ENDHMM>
~h "au"
<BEGINHMM>
<NUMSTATES> 5
<STATE> 2
<MEAN> 39
 -6.767396e-01 -1.145692e+01 -1.122930e+01 -1.370723e+01 -1.050275e+01 5.122962e+00 -1.251421e+01 -3.876522e+00 1.783062e+00 -1.343464e-01 -1.480109e+00 -1.319811e+01 7.495448e+01 3.941259e-01 -7.050520e-01 -1.061350e+00 -1.037554e+00 4.814054e-01 2.185493e+00 -1.379058e-01 1.954391e-01 2.247066e-01 -7.789789e-02 3.591219e-01 -1.330123e+00 8.969123e-01 -2.747009e-01 5.509611e-01 4.588636e-01 7.585977e-02 1.753979e-01 -2.986974e-01 1.514667e-01 -3.600340e-01 -4.806370e-01 -4.749869e-02 2.682026e-01 6.639233e-01 -8.306233e-01
<VARIANCE> 39
 1.455991e+01 2.212898e+01 4.119506e+01 4.574421e+01 4.909934e+01 7.883662e+01 4.551606e+01 8.860801e+01 5.248427e+01 5.849332e+01 4.773264e+01 3.494679e+01 1.789370e+01 2.242861e+00 2.398529e+00 2.163943e+00 2.805548e+00 3.772026e+00 3.971218e+00 2.979352e+00 4.121380e+00 3.288782e+00 3.354397e+00 4.493469e+00 3.574265e+00 1.823111e+00 3.864010e-01 2.543343e-01 3.262959e-01 7.148235e-01 5.763621e-01 6.257201e-01 7.212053e-01 7.242946e-01 5.075026e-01 6.239834e-01 6.428812e-01 4.742838e-01 5.168511e-01
<GCONST> 1.259264e+02
<STATE> 3
<MEAN> 39
 -1.203580e-01 -9.538803e+00 -1.219022e+01 -2.031136e+01 -9.229018e+00 1.047185e+01 -1.191694e+01 -5.656180e+00 -1.761129e+00 -1.128989e+00 2.432105e+00 -1.192443e+01 7.421464e+01 4.325288e-01 1.010267e+00 1.891841e-01 -9.676365e-01 -4.986698e-01 2.799660e-01 -2.790992e-02 -1.523091e-01 -8.480268e-01 -3.813052e-02 7.252829e-01 8.635611e-01 -6.340384e-01 5.536676e-02 1.622594e-01 1.475218e-01 1.432642e-01 -1.554328e-01 -2.807426e-01 -5.222115e-02 5.764588e-02 -9.853126e-02 -3.588208e-02 -1.570966e-01 1.564879e-01 -1.707222e-01
<VARIANCE> 39
 1.746026e+01 3.180581e+01 3.501968e+01 5.374202e+01 4.037053e+01 4.737465e+01 3.500008e+01 5.173148e+01 5.610454e+01 6.036036e+01 5.578051e+01 4.628355e+01 1.208759e+01 2.190079e-01 7.711018e-01 5.724491e-01 1.082675e+00 1.294660e+00 1.448331e+00 1.253986e+00 1.652861e+00 1.592507e+00 1.808220e+00 1.908747e+00 1.842043e+00 2.326954e-01 4.333991e-02 1.093499e-01 1.046621e-01 2.228655e-01 2.174593e-01 2.437405e-01 2.188277e-01 2.779306e-01 2.661146e-01 3.172531e-01 3.397778e-01 3.198554e-01 3.974726e-02
<GCONST> 9.626412e+01
<STATE> 4
<MEAN> 39
 3.629957e+00 5.241596e-01 -7.595535e+00 -1.991663e+01 -1.362346e+01 6.708315e+00 -1.313843e+01 -5.025393e+00 -7.410609e+00 -1.517225e+00 2.058531e+00 -6.120911e+00 6.333552e+01 -6.559023e-04 6.881785e-01 7.042008e-01 1.463574e+00 3.493653e-01 -1.151348e+00 2.996252e-02 -9.997816e-02 -3.086168e-01 -9.024557e-02 -6.468010e-01 1.004222e-01 -1.653938e+00 -1.741501e-01 -1.449381e-01 8.242925e-02 3.599364e-01 2.702072e-01 -1.373679e-01 1.260175e-01 -2.220887e-02 1.740700e-01 1.845454e-02 -1.349291e-01 -1.179551e-01 -8.930228e-02
<VARIANCE> 39
 1.503767e+01 4.461784e+01 4.489746e+01 7.801792e+01 4.787905e+01 6.579685e+01 5.957952e+01 5.573951e+01 6.257916e+01 6.367774e+01 5.278692e+01 4.039930e+01 6.826331e+01 9.936065e-01 1.937152e+00 1.711681e+00 3.393774e+00 3.280388e+00 3.343163e+00 2.947887e+00 2.670390e+00 3.172206e+00 3.293138e+00 2.903256e+00 2.426176e+00 2.019831e+00 1.559448e-01 2.963835e-01 2.860565e-01 4.911116e-01 4.920606e-01 5.793970e-01 5.131827e-01 5.042658e-01 5.679527e-01 6.059685e-01 5.558096e-01 4.955211e-01 3.154998e-01
<GCONST> 1.234096e+02
<TRANSP> 5
 0.000000e+00 1.000000e+00 0.000000e+00 0.000000e+00 0.000000e+00
 0.000000e+00 6.619267e-01 3.380733e-01 0.000000e+00 0.000000e+00
