~o
<STREAMINFO> 1 39
<VECSIZE> 39<NULLD><MFCC_D_A_0><DIAGC>
~s "silst"
<MEAN> 39
 -1.024496e+01 -3.219208e-01 -1.140976e+00 1.009591e+00 -2.438897e+00 -2.493444e+00 -2.402315e+00 -3.988601e-01 -2.724141e+00 -2.507174e+00 -1.439206e+00 -8.805528e-01 3.856455e+01 -6.167869e-03 2.094350e-01 5.217102e-03 7.308562e-02 4.434174e-02 -1.421718e-02 9.952046e-02 2.919284e-02 6.662647e-03 -3.159048e-02 8.553372e-02 7.891059e-02 -2.745292e-01 -3.671962e-03 -2.425241e-02 -3.024179e-03 -7.061748e-02 -3.785804e-04 4.902345e-03 -3.831043e-02 -4.903907e-02 1.380250e-02 2.957898e-02 -9.885861e-03 -3.710440e-02 5.154514e-02
<VARIANCE> 39
 9.557944e+00 2.093637e+01 1.924187e+01 2.652350e+01 1.849425e+01 2.510184e+01 2.205369e+01 3.646284e+01 2.588304e+01 2.728250e+01 2.426979e+01 2.399604e+01 3.030436e+01 4.104026e-01 9.567688e-01 9.852148e-01 1.451795e+00 1.377115e+00 1.761592e+00 1.644383e+00 2.420473e+00 1.976230e+00 2.062399e+00 1.693340e+00 1.803329e+00 3.762010e-01 7.049870e-02 1.542152e-01 1.768578e-01 2.684781e-01 2.655020e-01 3.318985e-01 3.184031e-01 4.632913e-01 3.924915e-01 4.040416e-01 3.342948e-01 3.539337e-01 5.628788e-02
<GCONST> 9.684901e+01
~h "@"
<BEGINHMM>
<NUMSTATES> 5
<STATE> 2
<MEAN> 39
 -4.371527e-01 -5.842451e+00 -3.304760e+00 -7.843358e+00 -1.157951e+01 -4.479979e+00 -1.374482e+01 -4.424566e+00 -2.704802e+00 -8.479998e-01 2.268922e-01 -8.590076e+00 6.949360e+01 2.197618e+00 -1.602365e+00 -4.068886e-01 -1.565389e+00 -1.646641e+00 7.309588e-01 -1.975154e+00 1.112316e+00 1.421804e+00 3.187708e-01 1.231979e+00 -2.049187e+00 2.664789e+00 -4.825591e-01 2.320069e-01 1.737312e-01 4.484149e-01 2.812571e-01 1.959689e-01 3.983163e-01 -1.999001e-02 -1.727763e-01 -2.276971e-02 -2.489782e-01 2.187025e-01 -1.087179e+00
<VARIANCE> 39
 2.425626e+01 2.713221e+01 4.661699e+01 5.549908e+01 4.694580e+01 1.010909e+02 4.425654e+01 6.674677e+01 6.282699e+01 4.528721e+01 5.427996e+01 3.362560e+01 4.410138e+01 5.962702e+00 3.090567e+00 5.638382e+00 4.556314e+00 5.951617e+00 6.390874e+00 5.824204e+00 7.937106e+00 7.961195e+00 5.139635e+00 5.245485e+00 4.404077e+00 4.037385e+00 7.356088e-01 5.151470e-01 6.704102e-01 7.081442e-01 7.198691e-01 9.391513e-01 6.996211e-01 8.931668e-01 8.124227e-01 6.191400e-01 9.261821e-01 6.213044e-01 1.182165e+00
<GCONST> 1.399599e+02
<STATE> 3
<MEAN> 39
 6.216191e-01 -9.502943e+00 -4.174228e+00 -9.718855e+00 -1.273744e+01 -1.703191e+00 -1.657455e+01 -1.620664e+00 -1.160010e-01 -7.022893e-01 1.311717e+00 -1.188956e+01 7.273760e+01 6.011357e-01 -6.000940e-01 1.831904e-01 2.844427e-02 -5.406646e-01 4.115747e-01 -5.337967e-01 6.758640e-01 4.502698e-01 7.257643e-02 1.363179e-01 -6.443383e-01 3.303722e-01 -5.175613e-01 8.421821e-01 4.414734e-01 8.052891e-01 5.029011e-01 -2.859361e-01 8.198395e-01 -6.422839e-01 -7.231154e-01 -8.543793e-02 -5.276369e-01 7.696037e-01 -1.309698e+00
<VARIANCE> 39
 1.741927e+01 2.968787e+01 4.853421e+01 5.753451e+01 5.179508e+01 1.021362e+02 5.029031e+01 8.237003e+01 7.298187e+01 5.960074e+01 5.363371e+01 4.221031e+01 2.078430e+01 2.146043e+00 2.360485e+00 2.639263e+00 3.428930e+00 3.535744e+00 5.375404e+00 3.651656e+00 5.723069e+00 5.424545e+00 3.587631e+00 4.261024e+00 3.205021e+00 2.380859e+00 6.082966e-01 4.594939e-01 7.823215e-01 7.539795e-01 9.523796e-01 1.067334e+00 9.035075e-01 1.238987e+00 1.157392e+00 8.964759e-01 9.543002e-01 7.558612e-01 5.816283e-01
<GCONST> 1.356544e+02
<STATE> 4
<MEAN> 39
 -3.020085e-01 -9.167521e+00 -1.859484e+00 -8.982127e+00 -1.398975e+01 -3.921975e+00 -1.513482e+01 -1.142109e+00 -8.802654e-01 -1.739859e+00 1.167086e+00 -1.092060e+01 7.183552e+01 2.240548e-01 8.564802e-01 5.305180e-01 8.264829e-01 3.195338e-01 -1.215586e-01 4.701665e-01 -6.721122e-01 -5.862183e-01 3.836033e-02 -5.130400e-01 3.189478e-01 -1.282435e+00 -9.433199e-02 3.855155e-01 1.437692e-01 3.042910e-01 1.924428e-01 -6.885527e-02 2.556712e-01 -3.613472e-01 -2.215622e-01 5.779677e-03 -2.442629e-01 2.182126e-01 -5.425091e-01
<VARIANCE> 39
 1.824196e+01 3.575141e+01 5.816623e+01 5.907366e+01 6.598405e+01 9.323045e+01 5.637382e+01 8.825332e+01 7.826664e+01 6.075990e+01 5.704591e+01 4.113388e+01 2.707481e+01 9.833984e-01 2.349079e+00 2.046064e+00 2.763763e+00 2.685553e+00 3.243816e+00 2.876194e+00 3.700341e+00 3.721933e+00 2.496596e+00 2.858885e+00 2.215104e+00 3.247811e+00 3.154086e-01 2.992078e-01 3.759830e-01 4.080996e-01 5.282367e-01 5.336239e-01 5.779361e-01 8.261191e-01 6.683086e-01 5.068417e-01 5.838401e-01 4.405027e-01 2.982000e-01
<GCONST> 1.255238e+02
<TRANSP> 5
 0.000000e+00 1.000000e+00 0.000000e+00 0.000000e+00 0.000000e+00
 0.000000e+00 2.440348e-01 7.559652e-01 0.000000e+00 0.000000e+00
 0.000000e+00 0.000000e+00 3.597254e-01 6.402746e-01 0.000000e+00
 0.000000e+00 0.000000e+00 0.000000e+00 6.398711e-01 3.601290e-01
 0.000000e+00 0.000000e+00 0.000000e+00 0.000000e+00 0.000000e+00
<ENDHMM>
~h "a"
<BEGINHMM>
<NUMSTATES> 5
<STATE> 2
<MEAN> 39
 -8.436652e-01 -1.285170e+01 -6.405297e+00 -9.854275e+00 -1.043153e+01 5.860334e-02 -1.193930e+01 2.333479e+00 -8.870777e-02 -2.755702e+00 -2.697977e+00 -1.166686e+01 7.291475e+01 5.015277e-01 -2.083584e+00 -1.126879e+00 -6.195657e-01 4.679169e-01 1.592661e+00 -7.032725e-02 1.341488e+00 7.520593e-01 -8.550444e-01 -7.820658e-01 -1.342260e+00 1.885553e+00 -3.542765e-01 4.735359e-01 2.994974e-01 4.868762e-01 3.760246e-01 -1.355964e-01 2.208430e-01 -4.909880e-01 -3.733577e-01 -4.647642e-02 -1.114907e-01 4.643172e-01 -7.991518e-01
<VARIANCE> 39
 1.961916e+01 3.352131e+01 4.599589e+01 4.090139e+01 6.489272e+01 8.847173e+01 5.166518e+01 8.578178e+01 6.360083e+01 5.318181e+01 5.554410e+01 3.886665e+01 5.190351e+01 2.705834e+00 2.395830e+00 2.807209e+00 2.953747e+00 4.504426e+00 4.106378e+00 3.810372e+00 5.157093e+00 4.355896e+00 3.791969e+00 4.267613e+00 3.549804e+00 3.718654e+00 4.606100e-01 4.772975e-01 4.381089e-01 5.146765e-01 7.796375e-01 7.832848e-01 6.306606e-01 8.676326e-01 6.932693e-01 6.480638e-01 7.861465e-01 5.716832e-01 8.264101e-01
<GCONST> 1.333354e+02
<STATE> 3
<MEAN> 39
 -1.959566e+00 -1.665718e+01 -8.407871e+00 -1.020603e+01 -7.026303e+00 3.214880e+00 -1.165320e+01 2.621976e+00 -5.141228e-01 -5.875418e+00 -4.967893e+00 -1.256897e+01 7.602914e+01 2.373745e-02 6.097868e-02 4.363674e-03 1.548970e-01 2.023561e-01 -9.534278e-02 -5.727806e-03 5.181955e-02 -2.354526e-01 1.041935e-02 -2.533642e-01 1.623512e-02 -2.095882e-01 7.630643e-02 4.422854e-01 2.517481e-01 8.438846e-02 -2.218684e-01 -3.336121e-01 -5.749883e-02 -1.811345e-01 -1.002294e-01 2.612441e-01 1.558989e-01 1.612375e-01 -3.703635e-01
<VARIANCE> 39
 1.515030e+01 2.775865e+01 3.412091e+01 2.819841e+01 4.138524e+01 6.308102e+01 4.274845e+01 7.172703e+01 6.263748e+01 5.600960e+01 4.246578e+01 4.073087e+01 1.339920e+01 3.446995e-01 8.690944e-01 1.010259e+00 9.952843e-01 2.024401e+00 2.249592e+00 1.587026e+00 2.124139e+00 1.540193e+00 1.716379e+00 1.878008e+00 1.505549e+00 4.265132e-01 8.671342e-02 1.855244e-01 1.629516e-01 1.920132e-01 2.728991e-01 2.868951e-01 3.100712e-01 4.423460e-01 3.356273e-01 2.979077e-01 3.451306e-01 3.045638e-01 1.385881e-01
<GCONST> 1.027282e+02
<STATE> 4
<MEAN> 39
 -3.445667e-02 -1.205136e+01 -5.645150e+00 -8.214168e+00 -8.492649e+00 -7.171386e-01 -1.178589e+01 2.974247e+00 -1.848815e+00 -3.152507e+00 -5.362969e+00 -1.101705e+01 6.956608e+01 3.800768e-01 2.016176e+00 1.063220e+00 1.144876e+00 -1.237945e-02 -9.342871e-01 1.224772e-01 -1.200196e+00 -5.028211e-01 5.238374e-01 4.973043e-02 6.883287e-01 -2.527279e+00 -9.952216e-02 2.913098e-01 1.718645e-01 2.588755e-01 1.465356e-01 4.953577e-02 1.819860e-01 -4.181542e-01 -1.069318e-01 -8.199994e-02 -4.328703e-02 1.597426e-01 -4.765890e-01
<VARIANCE> 39
 1.649944e+01 3.468893e+01 4.600911e+01 3.773359e+01 5.439710e+01 6.782156e+01 5.120971e+01 8.195997e+01 6.211146e+01 6.332179e+01 6.222096e+01 4.248943e+01 5.663733e+01 1.273371e+00 2.018176e+00 2.095545e+00 2.415152e+00 3.285823e+00 3.386751e+00 3.242541e+00 4.161636e+00 3.688201e+00 3.379151e+00 3.468737e+00 2.636912e+00 2.932912e+00 2.309339e-01 4.246741e-01 3.560681e-01 4.242051e-01 5.234514e-01 5.829439e-01 5.958179e-01 7.960406e-01 5.937095e-01 6.063768e-01 6.573852e-01 4.594054e-01 4.755222e-01
<GCONST> 1.265174e+02
<TRANSP> 5
 0.000000e+00 1.000000e+00 0.000000e+00 0.000000e+00 0.000000e+00
 0.000000e+00 5.964686e-01 4.035314e-01 0.000000e+00 0.000000e+00
 0.000000e+00 0.000000e+00 7.902591e-01 2.097409e-01 0.000000e+00
 0.000000e+00 0.000000e+00 0.000000e+00 6.466066e-01 3.533934e-01
 0.000000e+00 0.000000e+00 0.000000e+00 0.000000e+00 0.000000e+00
<ENDHMM>
~h "b"
<BEGINHMM>
<NUMSTATES> 5
<STATE> 2
<MEAN> 39
 -8.547937e-01 2.719576e+00 9.045418e-01 -1.110387e+00 -5.615077e+00 -8.511142e-01 -6.935864e+00 -5.736953e+00 -6.874606e+00 -2.443829e+00 -2.230722e+00 -5.777730e+00 4.577242e+01 3.319070e-01 9.920682e-01 4.301378e-01 3.451170e-01 3.820935e-01 2.268567e-01 5.408781e-01 -9.571642e-02 -1.737990e-01 -1.012084e-02 -1.306220e-01 -2.400154e-02 -9.138081e-01 -1.117171e-01 -2.133865e-01 -1.009993e-01 -1.894097e-01 -1.044505e-01 -1.051054e-01 -1.642485e-01 1.351321e-02 8.781542e-02 6.027007e-03 1.208577e-01 4.679684e-02 5.112794e-01
<VARIANCE> 39
 7.125210e+01 4.051417e+01 3.802307e+01 2.869060e+01 3.979095e+01 4.531802e+01 3.656538e+01 4.239128e+01 5.481273e+01 3.294153e+01 3.542760e+01 3.267536e+01 9.329189e+01 1.699690e+00 2.201954e+00 1.794828e+00 1.795730e+00 2.125165e+00 2.163798e+00 2.341067e+00 2.554791e+00 2.830435e+00 2.336842e+00 2.354786e+00 1.887031e+00 3.305459e+00 3.307560e-01 3.607456e-01 3.230022e-01 3.745517e-01 4.113012e-01 4.116565e-01 4.307791e-01 4.920337e-01 5.690099e-01 4.363556e-01 4.303490e-01 3.746389e-01 4.140712e-01
<GCONST> 1.192871e+02
<STATE> 3
<MEAN> 39
 6.227215e+00 7.792801e+00 4.549170e+00 -1.058491e+00 -5.552568e+00 2.718220e+00 -6.689434e+00 -9.706327e+00 -1.139855e+01 -2.890088e+00 -4.528865e-01 -7.160001e+00 5.004185e+01 -7.670952e-01 -1.102079e+00 -8.764205e-01 -9.668251e-01 4.689770e-02 -7.248054e-01 -8.332528e-01 1.023223e-02 9.214344e-01 5.996266e-02 8.100630e-01 5.723317e-01 2.596350e+00 -5.800238e-01 -1.227352e+00 -5.567455e-01 -6.386246e-01 -7.016385e-01 -2.563178e-01 -6.998339e-01 3.832911e-01 6.025656e-01 2.255111e-01 3.246235e-01 -1.032065e-01 1.520130e+00
<VARIANCE> 39
 1.897808e+01 2.635573e+01 1.853913e+01 3.314983e+01 3.917798e+01 5.017025e+01 3.445497e+01 4.120518e+01 6.314365e+01 3.605849e+01 4.449508e+01 2.673581e+01 3.754834e+01 4.395714e+00 4.549361e+00 3.709236e+00 4.405043e+00 3.875029e+00 4.685633e+00 3.870797e+00 3.989178e+00 6.069840e+00 3.763397e+00 3.771782e+00 3.086295e+00 7.042512e+00 4.506090e-01 4.282653e-01 6.051999e-01 6.403928e-01 7.125353e-01 8.557137e-01 6.271796e-01 9.356746e-01 1.170751e+00 8.543025e-01 7.554095e-01 7.485824e-01 5.893106e-01
<GCONST> 1.318333e+02
<STATE> 4
<MEAN> 39
 4.726677e-01 -1.472294e+00 -1.762226e+00 -6.622300e+00 -7.346288e+00 -1.404260e+00 -1.180944e+01 -8.504312e+00 -4.781522e+00 -1.438589e-01 3.146157e+00 -5.352033e+00 6.472072e+01 -1.086119e+00 -3.635029e+00 -1.875585e+00 -2.526493e+00 -2.141680e+00 -4.262950e-01 -2.350656e+00 1.265272e+00 2.382388e+00 1.002299e+00 1.229022e+00 -1.037792e+00 5.232382e+00 3.099562e-01 1.011790e-01 3.854058e-01 2.190670e-01 -3.742926e-01 4.352931e-01 1.795269e-01 3.682105e-01 -1.933355e-01 -2.417008e-01 -4.519564e-01 -5.022638e-01 -5.049144e-01
<VARIANCE> 39
 1.967858e+01 2.723989e+01 3.392310e+01 6.838298e+01 3.210382e+01 5.300993e+01 3.753025e+01 3.982092e+01 3.772056e+01 4.617963e+01 4.424355e+01 3.164110e+01 5.061248e+01 2.556199e+00 3.967857e+00 6.097198e+00 5.781117e+00 4.844018e+00 6.643293e+00 4.760837e+00 8.132844e+00 9.848335e+00 7.214390e+00 5.923827e+00 6.396845e+00 4.157280e+00 4.418047e-01 6.150541e-01 4.364729e-01 1.044433e+00 9.790111e-01 8.596187e-01 8.481467e-01 8.292977e-01 8.191836e-01 8.460970e-01 1.078367e+00 7.032075e-01 8.316830e-01
<GCONST> 1.379803e+02
<TRANSP> 5
 0.000000e+00 1.000000e+00 0.000000e+00 0.000000e+00 0.000000e+00
 0.000000e+00 8.133464e-01 1.866536e-01 0.000000e+00 0.000000e+00
 0.000000e+00 0.000000e+00 6.090420e-01 3.909580e-01 0.000000e+00
 0.000000e+00 0.000000e+00 0.000000e+00 3.787490e-01 6.212510e-01
 0.000000e+00 0.000000e+00 0.000000e+00 0.000000e+00 0.000000e+00
<ENDHMM>
~h "c"
<BEGINHMM>
<NUMSTATES> 5
<STATE> 2
<MEAN> 39
 -8.001671e+00 2.947487e+00 8.382806e-01 -1.337262e+00 -6.932981e+00 -7.386208e+00 -7.186145e+00 -3.563151e+00 -3.893228e+00 -2.902131e+00 -3.001055e+00 -3.253882e+00 4.579804e+01 -1.528809e+00 -2.206630e-01 -5.960694e-01 -4.464147e-01 5.765907e-01 2.268413e-01 3.235367e-01 -1.624192e-01 2.490090e-01 -1.179875e-03 1.967557e-01 2.645898e-01 -4.925676e-01 -3.850606e-01 -3.193133e-01 -1.548299e-01 -3.065106e-01 -8.420850e-02 5.490773e-02 -1.791550e-02 2.336463e-02 1.545785e-02 3.220240e-02 1.024788e-01 3.240412e-02 1.005914e+00
<VARIANCE> 39
 3.759429e+01 3.518850e+01 4.542184e+01 2.725532e+01 4.205628e+01 4.597267e+01 4.274370e+01 3.954639e+01 3.580881e+01 2.926793e+01 2.628200e+01 2.324090e+01 1.160481e+02 5.689074e+00 4.286381e+00 3.313548e+00 3.408337e+00 3.727279e+00 3.092383e+00 3.409836e+00 3.084295e+00 3.239445e+00 2.531367e+00 2.582818e+00 2.203203e+00 1.356933e+01 8.126169e-01 7.371108e-01 5.658693e-01 5.748116e-01 7.146325e-01 6.577185e-01 6.598902e-01 5.977251e-01 6.034229e-01 5.141356e-01 4.907766e-01 4.535575e-01 1.720505e+00
<GCONST> 1.305248e+02
<STATE> 3
<MEAN> 39
 -2.451815e+01 -4.447667e-01 -2.944699e+00 -8.011628e+00 -4.792726e+00 -5.688344e+00 -4.966639e+00 -4.464324e+00 -2.578882e+00 -2.143810e+00 -4.693085e-01 -2.955955e-01 6.395678e+01 -7.260492e-01 -1.361869e-01 4.642105e-01 -6.189752e-01 -1.019317e+00 -5.805694e-01 -2.148930e-01 2.849162e-01 1.860038e-01 -2.072805e-01 2.331751e-02 1.536968e-01 4.247860e+00 2.361182e+00 -6.074395e-02 6.563240e-01 5.505189e-01 -8.028762e-01 -3.681239e-01 -6.403455e-01 2.399319e-01 -7.348445e-02 -2.147248e-01 -2.336004e-01 -5.484104e-01 -6.610244e-01
<VARIANCE> 39
 2.663127e+01 2.788847e+01 4.188595e+01 2.523808e+01 2.755655e+01 3.089689e+01 3.154604e+01 2.845224e+01 2.497177e+01 2.112164e+01 1.951631e+01 1.658196e+01 3.207641e+01 1.611431e+01 3.393449e+00 5.304704e+00 4.278868e+00 4.813838e+00 4.727821e+00 4.187367e+00 3.525641e+00 3.417343e+00 2.628998e+00 2.699365e+00 2.497156e+00 8.835767e+00 1.035238e+00 1.106016e+00 8.661801e-01 7.694294e-01 8.953992e-01 9.587927e-01 6.729753e-01 9.756015e-01 8.176041e-01 6.044241e-01 6.447816e-01 5.449656e-01 8.715321e-01
<GCONST> 1.308046e+02
<STATE> 4
<MEAN> 39
 -1.089799e+01 -1.154985e+00 2.345147e+00 -5.165798e+00 -1.194252e+01 -1.107919e+01 -9.996593e+00 -2.192682e+00 -2.390793e+00 -4.679398e+00 -3.259128e+00 -2.919784e+00 7.052940e+01 5.690706e+00 -2.620187e+00 6.589941e-01 2.122555e-01 -2.418743e+00 -5.649232e-01 -2.286739e+00 1.395307e+00 5.902102e-01 -4.753633e-01 -4.308911e-02 -1.951743e+00 2.296368e+00 -3.132401e-02 -5.452797e-01 -7.123183e-01 -2.699059e-01 4.969005e-01 8.942627e-01 1.545722e-01 4.481696e-02 3.544527e-02 2.050734e-01 3.359997e-01 -3.741244e-01 -6.714692e-01
<VARIANCE> 39
 5.086458e+01 4.102088e+01 4.502175e+01 2.321498e+01 3.906215e+01 3.211183e+01 4.286170e+01 4.410710e+01 3.956301e+01 2.367920e+01 1.992020e+01 2.000294e+01 2.995363e+01 2.415519e+00 5.043475e+00 5.707243e+00 4.540827e+00 5.042015e+00 5.305242e+00 3.562553e+00 8.503740e+00 5.709201e+00 3.869634e+00 4.002597e+00 2.607734e+00 1.737846e+00 1.669705e+00 6.209573e-01 4.902180e-01 4.869765e-01 9.425444e-01 6.815688e-01 7.336501e-01 8.367189e-01 6.357659e-01 4.760157e-01 5.068409e-01 4.156916e-01 5.761635e-01
<GCONST> 1.299960e+02
<TRANSP> 5
 0.000000e+00 1.000000e+00 0.000000e+00 0.000000e+00 0.000000e+00
 0.000000e+00 8.672045e-01 1.327955e-01 0.000000e+00 0.000000e+00
 0.000000e+00 0.000000e+00 6.944982e-01 3.055018e-01 0.000000e+00
 0.000000e+00 0.000000e+00 0.000000e+00 4.782841e-01 5.217159e-01
 0.000000e+00 0.000000e+00 0.000000e+00 0.000000e+00 0.000000e+00
<ENDHMM>
~h "d"
<BEGINHMM>
<NUMSTATES> 5
<STATE> 2
<MEAN> 39
 -6.778557e+00 -3.225240e-01 -1.593784e-01 -3.555756e-01 -5.633232e+00 -4.704111e+00 -6.125618e+00 -2.616191e+00 -3.938343e+00 -3.200445e+00 -3.379612e+00 -3.425712e+00 4.288636e+01 1.814266e-01 5.087653e-01 2.653850e-01 4.103085e-01 3.064188e-01 -2.519104e-02 1.443894e-01 5.006462e-02 1.175698e-01 -1.097051e-03 -1.995148e-01 -6.798951e-02 -6.558182e-01 2.732485e-02 -4.241399e-02 4.376340e-02 -8.894829e-02 -6.105411e-02 -2.223850e-02 -6.638163e-02 3.487159e-02 -2.716277e-03 -1.298338e-02 2.962275e-02 -2.040644e-02 2.793174e-01
<VARIANCE> 39
 4.929899e+01 3.997610e+01 4.040725e+01 2.584600e+01 3.961533e+01 3.551856e+01 3.932341e+01 4.178683e+01 3.490456e+01 3.065977e+01 3.266136e+01 2.973684e+01 1.045174e+02 1.798300e+00 2.310162e+00 1.828465e+00 1.897768e+00 2.457526e+00 2.241267e+00 2.329165e+00 2.959594e+00 2.583102e+00 2.190747e+00 2.510857e+00 1.887739e+00 2.863637e+00 3.090360e-01 3.426534e-01 2.990548e-01 3.621476e-01 4.124998e-01 4.209959e-01 4.380168e-01 5.221123e-01 4.841081e-01 4.369276e-01 4.264412e-01 3.580292e-01 3.856668e-01
<GCONST> 1.179383e+02
<STATE> 3
<MEAN> 39
 4.750968e+00 4.288838e+00 8.126307e+00 5.203617e+00 -9.207685e+00 -7.322515e+00 -1.068283e+01 -3.422040e+00 -3.256742e+00 -3.236786e+00 -7.183137e+00 -8.443054e+00 5.109327e+01 -5.787306e-01 -4.846554e-01 5.120476e-01 -5.667664e-01 2.881938e-01 -4.826721e-01 -1.546507e-01 2.743921e-01 -4.173753e-02 -2.179954e-01 4.139890e-01 5.874258e-01 1.662804e+00 -8.460255e-01 -9.126959e-01 -2.669272e-01 -7.797254e-01 -6.201779e-01 2.961659e-02 -1.938754e-01 3.682317e-05 -1.920324e-01 -5.406265e-02 7.785194e-01 3.416775e-01 1.410455e+00
<VARIANCE> 39
 2.156621e+01 3.363837e+01 2.746770e+01 2.648465e+01 5.617017e+01 3.709278e+01 4.336329e+01 5.608439e+01 4.393966e+01 3.728012e+01 3.363904e+01 3.074070e+01 4.651292e+01 6.093302e+00 4.686336e+00 3.245488e+00 4.036143e+00 5.045639e+00 3.743440e+00 4.130591e+00 5.200354e+00 4.458605e+00 3.355633e+00 4.311083e+00 3.433990e+00 9.018853e+00 4.993835e-01 4.970140e-01 5.240782e-01 6.182337e-01 1.105346e+00 7.174015e-01 7.617415e-01 1.280764e+00 9.369206e-01 6.583066e-01 6.661466e-01 5.666765e-01 8.744119e-01
<GCONST> 1.336351e+02
<STATE> 4
<MEAN> 39
 -4.475423e+00 -4.310291e+00 7.448054e+00 -2.225105e+00 -9.630846e+00 -9.070854e+00 -1.104028e+01 -2.843668e+00 -4.777935e+00 -4.234815e+00 -1.292891e+00 -2.357312e+00 6.600688e+01 -1.599475e+00 -2.677409e+00 -5.765760e-01 -2.173249e+00 -2.943945e+00 -4.283691e-01 -1.377611e+00 9.031969e-01 1.709431e-01 -3.277222e-01 2.527455e+00 4.103616e-01 5.138964e+00 6.990768e-01 2.894762e-01 -2.674931e-01 2.885908e-01 -6.737182e-01 4.831142e-01 -1.508742e-01 2.031543e-01 2.010643e-01 2.250656e-02 -1.050014e-01 -7.733186e-01 -5.190297e-01
<VARIANCE> 39
 2.099701e+01 2.679741e+01 3.709014e+01 3.415789e+01 5.986853e+01 4.943972e+01 5.660736e+01 4.764109e+01 5.019506e+01 2.673592e+01 2.706378e+01 2.053705e+01 4.975214e+01 3.475801e+00 3.329007e+00 5.637875e+00 4.143632e+00 5.459020e+00 4.671541e+00 4.924199e+00 1.260821e+01 8.978206e+00 4.034226e+00 4.239562e+00 3.750365e+00 3.868806e+00 3.947657e-01 5.650643e-01 5.799139e-01 7.803767e-01 1.389135e+00 9.761201e-01 1.150095e+00 1.137755e+00 9.525433e-01 7.560121e-01 9.450725e-01 5.811442e-01 9.075931e-01
<GCONST> 1.364079e+02
<TRANSP> 5
 0.000000e+00 1.000000e+00 0.000000e+00 0.000000e+00 0.000000e+00
 0.000000e+00 8.379623e-01 1.620377e-01 0.000000e+00 0.000000e+00
 0.000000e+00 0.000000e+00 6.956368e-01 3.043632e-01 0.000000e+00
 0.000000e+00 0.000000e+00 0.000000e+00 4.599862e-01 5.400138e-01
 0.000000e+00 0.000000e+00 0.000000e+00 0.000000e+00 0.000000e+00
<ENDHMM>
~h "e"
<BEGINHMM>
<NUMSTATES> 5
<STATE> 2
<MEAN> 39
 -3.500064e+00 -8.010413e+00 5.755212e-01 -5.012666e+00 -1.496694e+01 -7.827418e+00 -1.029245e+01 8.226141e-01 -3.552128e+00 -1.581094e+00 2.453654e-01 -6.927517e+00 6.269978e+01 6.253409e-01 -1.784709e+00 5.826617e-01 -7.046992e-01 -1.964171e+00 -2.680570e-01 -3.131501e-01 1.915440e+00 1.063829e-01 -4.666135e-01 5.195288e-01 -5.448371e-01 2.591618e+00 -1.148728e-01 2.104771e-01 1.245943e-01 1.169648e-02 5.768242e-02 2.596905e-01 2.938308e-01 -4.129964e-02 -1.698580e-01 -5.894309e-02 -3.416892e-02 6.664678e-02 -3.139623e-01
<VARIANCE> 39
 4.079713e+01 5.499098e+01 5.894451e+01 4.821067e+01 7.811108e+01 6.392778e+01 6.765918e+01 9.031036e+01 7.390344e+01 5.257084e+01 5.464945e+01 3.821424e+01 1.971239e+02 4.551408e+00 5.031012e+00 3.726430e+00 4.105143e+00 7.410199e+00 4.985052e+00 5.291307e+00 7.690985e+00 6.223275e+00 5.059206e+00 4.746774e+00 3.666708e+00 1.122372e+01 7.289810e-01 9.084831e-01 5.580018e-01 6.941817e-01 1.062187e+00 7.868127e-01 8.937572e-01 1.048430e+00 9.847399e-01 7.832770e-01 7.385821e-01 6.058218e-01 2.207169e+00
<GCONST> 1.457931e+02
<STATE> 3
<MEAN> 39
 -1.198723e+00 -1.379908e+01 2.995306e+00 -7.062644e+00 -2.087274e+01 -7.206970e+00 -1.123661e+01 6.303984e+00 -3.651357e+00 -3.649930e+00 1.920884e+00 -8.488503e+00 7.406461e+01 -1.869217e-01 -3.051796e-01 6.125973e-01 -3.316565e-01 -9.264250e-01 1.112782e-01 5.781248e-01 7.530689e-01 -3.615606e-01 -1.653481e-01 4.087079e-01 -8.265895e-02 5.416824e-01 -1.938157e-01 7.566157e-01 -1.351365e-01 3.142003e-01 7.713439e-01 4.773332e-02 2.284597e-01 -7.928886e-01 -1.099434e-01 1.993349e-01 -3.044625e-01 1.915271e-01 -9.204684e-01
<VARIANCE> 39
 1.405061e+01 3.870306e+01 5.439452e+01 4.475282e+01 6.284377e+01 6.471144e+01 5.646695e+01 9.415638e+01 7.624062e+01 5.275549e+01 5.419040e+01 3.218732e+01 1.900487e+01 1.030034e+00 2.001723e+00 2.139549e+00 2.538194e+00 3.606568e+00 3.367355e+00 3.441782e+00 3.945400e+00 3.498383e+00 2.960103e+00 2.904792e+00 2.076490e+00 1.846026e+00 3.352732e-01 3.337865e-01 3.835112e-01 4.478134e-01 6.115368e-01 6.407715e-01 7.414647e-01 7.822201e-01 7.977159e-01 6.743712e-01 6.186553e-01 4.852523e-01 4.794683e-01
<GCONST> 1.256476e+02
<STATE> 4
<MEAN> 39
 -3.193138e+00 -1.112525e+01 6.120979e+00 -8.038517e+00 -2.252002e+01 -8.390196e+00 -9.566256e+00 5.058831e+00 -6.266884e+00 -3.127114e+00 3.417696e+00 -8.327493e+00 7.238770e+01 1.017930e-01 5.088828e-01 -1.125078e-01 3.818130e-01 5.149314e-01 -1.023120e-01 7.287848e-02 -4.143899e-01 -6.299437e-02 8.107736e-02 -3.613695e-01 -1.454340e-02 -7.490072e-01 4.412043e-02 1.732550e-01 -5.807988e-02 1.705926e-01 2.371219e-01 -4.434889e-03 -4.451918e-02 -1.960526e-01 2.549463e-02 3.103003e-02 -1.243697e-01 3.767098e-02 -2.930564e-01
<VARIANCE> 39
 1.422416e+01 3.811318e+01 6.258955e+01 3.730788e+01 5.950595e+01 6.239049e+01 4.958006e+01 8.778178e+01 5.963666e+01 5.479028e+01 5.869995e+01 2.844699e+01 4.320253e+01 6.053287e-01 1.254309e+00 1.174999e+00 1.501600e+00 1.771963e+00 1.513869e+00 2.051924e+00 2.108063e+00 1.892717e+00 1.586445e+00 1.670296e+00 1.157626e+00 1.861650e+00 1.141890e-01 1.996349e-01 1.919160e-01 2.123421e-01 3.011073e-01 2.994868e-01 3.793932e-01 4.073888e-01 3.533198e-01 3.138749e-01 2.870727e-01 2.108438e-01 2.160195e-01
<GCONST> 1.089379e+02
<TRANSP> 5
 0.000000e+00 1.000000e+00 0.000000e+00 0.000000e+00 0.000000e+00
 0.000000e+00 5.690638e-01 4.309362e-01 0.000000e+00 0.000000e+00
 0.000000e+00 0.000000e+00 5.466885e-01 4.533115e-01 0.000000e+00
 0.000000e+00 0.000000e+00 0.000000e+00 8.439985e-01 1.560015e-01
 0.000000e+00 0.000000e+00 0.000000e+00 0.000000e+00 0.000000e+00
<ENDHMM>
~h "f"
<BEGINHMM>
<NUMSTATES> 5
<STATE> 2
<MEAN> 39
 -8.063340e+00 -9.981697e-01 -2.940917e-01 -8.094842e-01 -3.927757e+00 -3.192393e+00 -6.231013e+00 -3.275508e+00 -3.817292e+00 -2.579329e+00 -2.443319e+00 -3.718945e+00 6.269933e+01 -3.722991e+00 1.563127e-01 -2.724789e-01 1.347132e+00 1.495552e+00 -4.210174e-01 3.684303e-01 5.872774e-02 1.447064e+00 -1.747455e-01 -1.449120e-01 6.353332e-01 -1.035231e+00 -1.598223e-01 -6.673582e-01 -2.065388e-01 -4.329648e-01 -7.354777e-01 -6.462011e-02 -4.428223e-01 -6.380247e-02 -1.894557e-01 1.033463e-01 1.562018e-01 -1.857463e-01 2.174695e-01
<VARIANCE> 39
 4.987949e+01 2.281312e+01 4.172441e+01 4.324166e+01 3.572412e+01 5.531374e+01 3.274281e+01 3.992512e+01 3.629274e+01 2.997713e+01 3.388565e+01 2.343269e+01 3.200347e+01 2.250516e+00 4.091275e+00 4.023716e+00 4.162500e+00 5.605350e+00 4.440747e+00 3.503502e+00 4.810041e+00 3.896042e+00 3.753675e+00 3.517000e+00 2.471683e+00 1.664485e+00 7.911302e-01 4.154219e-01 4.460942e-01 6.402207e-01 6.385146e-01 6.121811e-01 5.863084e-01 6.388370e-01 7.886454e-01 5.622047e-01 5.102356e-01 3.665410e-01 1.839753e-01
<GCONST> 1.260736e+02
<STATE> 3
<MEAN> 39
 -1.940718e+01 -6.001247e+00 -3.811436e+00 -7.093381e-01 -4.415724e+00 -5.362306e+00 -8.118377e+00 -3.249150e+00 -1.884609e+00 -1.859453e+00 -1.727577e+00 -2.265450e+00 5.938934e+01 -6.072582e-01 -5.672125e-01 -4.559387e-01 -1.960450e-01 -1.433906e-01 -8.629875e-02 -5.539714e-02 -2.488249e-02 4.031203e-02 8.216898e-02 1.020463e-01 7.551139e-02 -2.735175e-01 6.645155e-01 1.466022e-01 1.441509e-01 -8.134831e-02 -3.497917e-02 8.418141e-02 8.142736e-02 3.383114e-02 -1.239959e-01 -2.681227e-02 8.529357e-03 -8.965056e-02 9.407552e-02
<VARIANCE> 39
 2.271957e+01 2.032353e+01 2.536967e+01 1.811382e+01 2.089119e+01 2.686152e+01 2.347359e+01 2.338068e+01 2.156887e+01 2.038638e+01 2.178955e+01 1.650054e+01 3.243501e+01 1.657701e+00 1.156257e+00 1.491565e+00 1.455684e+00 1.575471e+00 1.814679e+00 1.866348e+00 1.779171e+00 1.757646e+00 1.676770e+00 1.558088e+00 1.413458e+00 1.084761e+00 4.325307e-01 2.515787e-01 3.149900e-01 3.309548e-01 3.617554e-01 3.897436e-01 3.671548e-01 4.068782e-01 4.294483e-01 3.817986e-01 3.464344e-01 3.238086e-01 1.731062e-01
<GCONST> 1.035697e+02
<STATE> 4
<MEAN> 39
 -1.434003e+01 -5.016425e+00 -4.716565e+00 -2.730762e+00 -4.691561e+00 -4.475949e+00 -6.490093e+00 -3.541114e+00 -2.768576e+00 -2.169993e+00 -1.374761e+00 -2.838345e+00 5.267925e+01 2.480481e+00 3.090631e-01 2.118030e-01 -7.132721e-01 -7.094842e-01 3.205199e-01 -1.277366e-01 -9.982140e-02 -5.260466e-01 -2.708160e-01 1.604462e-01 -5.825796e-01 6.561214e-01 5.438744e-01 -1.570186e-03 8.680483e-02 -2.183515e-01 -3.716137e-01 1.456648e-01 -2.015931e-01 -3.357845e-02 -1.511749e-01 -6.283247e-02 1.414773e-01 -1.899255e-01 3.444707e-01
<VARIANCE> 39
 4.834404e+01 2.964435e+01 3.279906e+01 2.838168e+01 2.529770e+01 3.501644e+01 2.455384e+01 2.755784e+01 2.710325e+01 2.398651e+01 2.258770e+01 1.839452e+01 1.397898e+02 8.855189e+00 3.211510e+00 3.851495e+00 4.231130e+00 3.456533e+00 4.317769e+00 2.707250e+00 3.362250e+00 3.425982e+00 2.902122e+00 2.525197e+00 2.715850e+00 4.617479e+00 1.114267e+00 5.630319e-01 4.904783e-01 6.098295e-01 6.244343e-01 6.587972e-01 5.277429e-01 5.927203e-01 6.775476e-01 5.182562e-01 4.995344e-01 4.488078e-01 4.985136e-01
<GCONST> 1.263722e+02
<TRANSP> 5
 0.000000e+00 1.000000e+00 0.000000e+00 0.000000e+00 0.000000e+00
 0.000000e+00 6.771814e-01 3.228186e-01 0.000000e+00 0.000000e+00
 0.000000e+00 0.000000e+00 8.367728e-01 1.632272e-01 0.000000e+00
 0.000000e+00 0.000000e+00 0.000000e+00 7.760723e-01 2.239278e-01
 0.000000e+00 0.000000e+00 0.000000e+00 0.000000e+00 0.000000e+00
<ENDHMM>
~h "g"
<BEGINHMM>
<NUMSTATES> 5
<STATE> 2
<MEAN> 39
 2.967098e+00 4.693790e+00 6.822451e+00 8.815181e-01 -1.122384e+01 -6.022434e+00 -9.159619e+00 -4.279583e+00 -8.065307e+00 -9.712546e-01 -2.076823e+00 -8.603661e+00 5.186399e+01 -4.924935e-01 4.593435e-01 -9.331162e-02 4.571570e-01 1.071737e+00 -4.060539e-01 4.602310e-01 -5.544819e-02 2.491982e-01 -7.229892e-02 -4.411932e-01 5.309843e-01 -4.691348e-01 -6.347412e-01 -7.079997e-01 -4.714337e-01 -4.437901e-01 1.161591e-01 -2.797090e-02 -2.274265e-01 1.071558e-01 4.450323e-02 -1.094645e-02 2.143844e-01 2.613425e-01 1.184475e+00
<VARIANCE> 39
 2.867839e+01 3.724548e+01 4.961966e+01 3.545765e+01 5.586020e+01 5.369064e+01 4.579530e+01 5.675053e+01 5.361651e+01 3.901670e+01 3.810136e+01 3.278159e+01 6.049509e+01 4.502150e+00 4.333301e+00 4.775974e+00 2.946118e+00 5.595295e+00 4.308254e+00 3.887100e+00 4.071116e+00 3.844535e+00 3.198422e+00 3.295337e+00 3.155267e+00 7.638515e+00 5.123401e-01 5.276278e-01 6.311883e-01 4.824948e-01 8.753137e-01 6.899769e-01 6.527117e-01 7.640058e-01 7.954022e-01 6.142660e-01 6.167124e-01 5.314867e-01 8.001526e-01
<GCONST> 1.335624e+02
<STATE> 3
<MEAN> 39
 -5.359587e+00 -8.398840e-01 9.186345e-02 -1.411533e-01 -2.196223e+00 -6.926200e+00 -8.534523e+00 -4.153564e+00 -8.089642e+00 -8.162879e-01 -4.378540e+00 -3.326026e+00 6.087286e+01 -2.028224e+00 -1.991048e+00 -1.464545e+00 -1.442976e+00 1.252432e-01 -8.279958e-01 -8.102190e-01 4.901800e-01 -1.309718e-01 -6.088497e-02 1.169121e+00 9.686944e-01 4.218070e+00 8.138642e-01 1.054401e-01 6.899564e-01 -3.974249e-01 -1.712575e+00 1.330049e-01 -4.579871e-01 2.005760e-01 1.317422e-01 -1.555694e-01 8.615560e-01 -6.579202e-01 1.753886e-01
<VARIANCE> 39
 3.374831e+01 4.368872e+01 8.506985e+01 5.096626e+01 6.043981e+01 6.617200e+01 4.384353e+01 5.191616e+01 4.789221e+01 3.310334e+01 3.256293e+01 2.352465e+01 6.607348e+01 3.543477e+00 4.380196e+00 6.660590e+00 4.052145e+00 7.780833e+00 6.099571e+00 4.476223e+00 6.378659e+00 5.518620e+00 4.136547e+00 4.695540e+00 3.162546e+00 4.663803e+00 5.386860e-01 9.255573e-01 1.023908e+00 8.920847e-01 1.211641e+00 1.156335e+00 8.925939e-01 1.171163e+00 9.526163e-01 7.163119e-01 7.572013e-01 6.525836e-01 9.824151e-01
<GCONST> 1.406779e+02
<STATE> 4
<MEAN> 39
 -4.032323e+00 -3.365839e+00 2.847427e+00 -3.393803e+00 -1.277637e+01 -1.124485e+01 -1.259950e+01 -1.421345e+00 -7.227464e+00 -1.561914e+00 3.593146e+00 -5.011083e+00 6.911055e+01 7.679500e-01 -1.271153e+00 4.129831e-01 -1.846211e+00 -3.511215e+00 2.763437e-01 -1.197369e+00 1.413122e+00 1.158053e+00 -5.129535e-01 2.207256e+00 -1.262689e+00 2.427619e+00 5.690838e-01 1.450262e-01 2.720201e-02 5.473413e-02 -1.324592e-02 7.944860e-01 2.322169e-01 5.241527e-02 3.147470e-01 -4.736316e-02 -5.731337e-01 -5.404202e-01 -8.025479e-01
<VARIANCE> 39
 2.030711e+01 3.159343e+01 6.768845e+01 3.723382e+01 8.333916e+01 7.745096e+01 4.943654e+01 7.505527e+01 5.569334e+01 3.826583e+01 4.275193e+01 2.889823e+01 3.753165e+01 2.200633e+00 3.232766e+00 4.361842e+00 3.643405e+00 6.603128e+00 5.317939e+00 4.720594e+00 8.433292e+00 6.501001e+00 3.543914e+00 4.477536e+00 3.382545e+00 2.621179e+00 4.953413e-01 4.055247e-01 9.006907e-01 5.008217e-01 1.940813e+00 9.628610e-01 8.308436e-01 9.768798e-01 8.221856e-01 7.217879e-01 1.061829e+00 5.704701e-01 3.895100e-01
<GCONST> 1.362121e+02
<TRANSP> 5
 0.000000e+00 1.000000e+00 0.000000e+00 0.000000e+00 0.000000e+00
 0.000000e+00 7.648092e-01 2.351909e-01 0.000000e+00 0.000000e+00
 0.000000e+00 0.000000e+00 4.659311e-01 5.340688e-01 0.000000e+00
 0.000000e+00 0.000000e+00 0.000000e+00 4.513133e-01 5.486867e-01
 0.000000e+00 0.000000e+00 0.000000e+00 0.000000e+00 0.000000e+00
<ENDHMM>
~h "h"
<BEGINHMM>
<NUMSTATES> 5
<STATE> 2
<MEAN> 39
 -4.703613e+00 -5.435255e+00 -1.789512e+00 -2.933442e+00 -6.308285e-01 1.052565e+00 -5.024403e+00 -4.230902e-01 -5.306364e+00 -2.771994e+00 -5.970633e+00 -5.546883e+00 6.572485e+01 -1.199845e+00 -1.425681e-01 3.972344e-01 8.685320e-01 1.573427e+00 2.639262e-01 1.033964e+00 -5.436280e-02 5.624085e-01 -2.037029e-01 1.139590e-01 7.481576e-01 -1.064555e+00 -5.120536e-03 -3.683772e-01 -1.881799e-01 -3.952387e-01 -4.825474e-01 -3.992007e-02 -3.137479e-01 -7.364460e-03 9.385993e-02 5.915166e-02 2.588376e-01 -1.513079e-01 1.017456e-01
<VARIANCE> 39
 2.566922e+01 4.224284e+01 5.348811e+01 3.682352e+01 7.012426e+01 5.751772e+01 5.418710e+01 6.219878e+01 5.058907e+01 4.920092e+01 5.126266e+01 3.717233e+01 5.327517e+01 1.485320e+00 3.036041e+00 2.902428e+00 2.582092e+00 3.567374e+00 3.259716e+00 2.956937e+00 3.438371e+00 2.956176e+00 2.937571e+00 2.930102e+00 2.501535e+00 1.463224e+00 1.863763e-01 3.514936e-01 3.183923e-01 3.919113e-01 5.276827e-01 5.455273e-01 5.235277e-01 5.553859e-01 5.185502e-01 4.943429e-01 4.506050e-01 4.167189e-01 1.401000e-01
<GCONST> 1.225649e+02
<STATE> 3
<MEAN> 39
 -9.711416e+00 -8.892847e+00 -3.974743e+00 -4.183587e+00 -1.324362e-01 4.198516e-01 -4.553419e+00 -1.137445e+00 -2.561462e+00 -1.759047e+00 -4.084576e+00 -3.702646e+00 5.914040e+01 5.424402e-03 -1.148428e-01 -3.093078e-01 -3.255567e-01 -3.080436e-01 -2.759008e-01 -2.154635e-01 -1.452241e-01 -8.647877e-03 1.729472e-02 3.428086e-02 -5.640715e-02 -3.859522e-01 3.146895e-01 1.849315e-01 2.953771e-02 -4.528336e-02 -2.670804e-01 -4.148021e-02 -1.626103e-01 -5.384290e-02 -1.537683e-01 -4.859070e-02 -3.049230e-02 -1.451735e-01 9.353648e-02
<VARIANCE> 39
 4.347416e+01 6.266687e+01 5.949609e+01 3.755509e+01 6.268192e+01 4.801793e+01 5.428679e+01 5.241824e+01 4.860978e+01 3.986501e+01 4.247044e+01 3.206185e+01 1.292343e+02 2.553941e+00 3.295807e+00 2.427601e+00 2.479107e+00 2.883732e+00 2.974107e+00 2.982914e+00 3.044162e+00 2.873889e+00 2.540998e+00 2.710160e+00 2.331922e+00 4.567413e+00 3.692474e-01 5.227845e-01 4.188319e-01 4.705757e-01 5.687748e-01 5.401196e-01 5.849169e-01 5.666246e-01 5.320137e-01 5.039881e-01 5.104625e-01 4.424560e-01 4.063537e-01
<GCONST> 1.272824e+02
<STATE> 4
<MEAN> 39
 -9.195639e+00 -5.404448e+00 -3.525914e+00 -3.304714e+00 -2.759681e+00 -2.687209e+00 -5.324186e+00 -1.957213e+00 -3.338185e+00 -3.114192e+00 -3.041756e+00 -3.051387e+00 4.822793e+01 1.473912e-01 2.161762e-01 -3.567673e-02 -1.866277e-02 -2.171875e-01 -1.967736e-02 -6.802052e-02 -7.702673e-02 -6.707671e-02 -8.891425e-03 5.071338e-02 -9.178969e-02 -3.078424e-01 3.861042e-02 -4.700643e-03 2.971594e-02 -2.744815e-03 -4.270011e-02 4.268876e-02 -1.862372e-02 1.384287e-02 -1.253099e-02 -2.464447e-03 1.619364e-02 -3.377642e-02 1.115944e-01
<VARIANCE> 39
 2.723713e+01 5.999775e+01 3.802516e+01 3.009583e+01 3.587766e+01 3.575838e+01 3.381989e+01 3.485700e+01 3.161239e+01 2.893886e+01 2.991155e+01 2.452760e+01 1.544243e+02 1.196311e+00 1.668899e+00 1.365666e+00 1.426068e+00 1.757448e+00 1.739022e+00 1.899112e+00 1.993832e+00 1.959474e+00 1.791292e+00 1.707858e+00 1.684013e+00 2.023141e+00 1.532620e-01 2.415389e-01 2.180326e-01 2.466007e-01 2.972067e-01 3.195155e-01 3.435000e-01 3.668852e-01 3.611183e-01 3.364439e-01 3.310636e-01 3.050118e-01 1.368104e-01
<GCONST> 1.085929e+02
<TRANSP> 5
 0.000000e+00 1.000000e+00 0.000000e+00 0.000000e+00 0.000000e+00
 0.000000e+00 6.280833e-01 3.719167e-01 0.000000e+00 0.000000e+00
 0.000000e+00 0.000000e+00 7.465894e-01 2.534107e-01 0.000000e+00
 0.000000e+00 0.000000e+00 0.000000e+00 8.376001e-01 1.623999e-01
 0.000000e+00 0.000000e+00 0.000000e+00 0.000000e+00 0.000000e+00
<ENDHMM>
~h "i"
<BEGINHMM>
<NUMSTATES> 5
<STATE> 2
<MEAN> 39
 -5.897082e+00 -1.712221e+00 1.319619e+01 -1.760077e+00 -1.953730e+01 -8.827531e+00 -1.301587e+01 -5.759426e+00 -1.183526e+01 -5.381563e+00 4.019117e+00 -5.199966e+00 6.623655e+01 4.524015e-01 -1.110805e-01 2.540640e+00 -3.986123e-01 -3.086274e+00 5.330476e-01 -1.658477e+00 -3.663157e-01 -1.329861e+00 -5.778220e-01 1.752473e+00 -5.466985e-01 1.676387e+00 -7.417446e-02 1.356735e-01 -5.645142e-01 -1.068539e-01 4.481570e-01 4.150372e-01 1.572604e-01 6.428064e-02 4.409356e-01 2.508889e-01 -2.845152e-01 -8.295947e-02 -5.604039e-01
<VARIANCE> 39
 2.578881e+01 4.003712e+01 4.995145e+01 3.941312e+01 5.642200e+01 6.759965e+01 5.470583e+01 6.825372e+01 4.786275e+01 3.979049e+01 3.424300e+01 3.113479e+01 6.299024e+01 5.046031e+00 2.752013e+00 4.315343e+00 3.568968e+00 4.683598e+00 5.301973e+00 6.169131e+00 5.400221e+00 5.048149e+00 3.660825e+00 3.380455e+00 3.018944e+00 3.762261e+00 6.899343e-01 5.195271e-01 7.256376e-01 5.131366e-01 1.099531e+00 8.094549e-01 9.472313e-01 9.478561e-01 7.766771e-01 5.793566e-01 6.362799e-01 4.605589e-01 8.294943e-01
<GCONST> 1.355376e+02
<STATE> 3
<MEAN> 39
 -7.002065e+00 6.799066e-02 1.777209e+01 -5.175689e+00 -2.431473e+01 -4.212638e+00 -1.689058e+01 -8.149333e+00 -1.300069e+01 -5.854792e+00 5.747603e+00 -7.634507e+00 6.868717e+01 8.075694e-02 1.463863e-01 -1.024583e-01 -7.560819e-02 -7.154045e-02 5.707432e-02 1.003936e-01 1.564362e-02 2.994052e-02 1.898460e-01 -5.311933e-02 -8.913685e-02 -1.895012e-01 9.385325e-02 1.664773e-02 -4.230725e-01 1.844654e-01 5.050198e-01 -2.698251e-01 3.755976e-01 1.422480e-01 1.790326e-01 1.033206e-01 -3.144537e-01 9.908811e-02 -3.086114e-01
<VARIANCE> 39
 1.351206e+01 2.983243e+01 3.927816e+01 4.231043e+01 3.262438e+01 8.168719e+01 4.771104e+01 6.069401e+01 3.967789e+01 4.208650e+01 3.609560e+01 3.812107e+01 1.966388e+01 5.103055e-01 1.248752e+00 1.301700e+00 1.330169e+00 1.482034e+00 1.955376e+00 2.037309e+00 2.114185e+00 1.605461e+00 1.550666e+00 1.532001e+00 1.238958e+00 8.020763e-01 1.635336e-01 2.047437e-01 2.798093e-01 2.562427e-01 5.240806e-01 3.824881e-01 4.808490e-01 4.299552e-01 4.028085e-01 3.340777e-01 3.869539e-01 2.876459e-01 2.049407e-01
<GCONST> 1.075307e+02
<STATE> 4
<MEAN> 39
 -4.748787e+00 1.343486e+00 1.226703e+01 -1.602286e+00 -1.857081e+01 -7.756809e+00 -1.135787e+01 -6.479101e+00 -1.107234e+01 -4.176710e+00 2.594153e+00 -5.646515e+00 5.889059e+01 3.502321e-01 4.412393e-01 -1.381005e+00 5.181887e-01 1.645939e+00 -3.506204e-01 9.629815e-01 2.352782e-01 7.489296e-01 2.668886e-01 -1.036227e+00 2.347406e-01 -1.994411e+00 -9.632807e-02 -4.316525e-03 -1.382646e-01 -7.711126e-02 1.936539e-01 2.073374e-01 -4.886569e-02 -8.942451e-02 1.008546e-01 3.616002e-03 -1.332896e-01 -8.939222e-03 -9.491818e-02
<VARIANCE> 39
 2.283134e+01 4.455057e+01 4.818509e+01 4.123121e+01 6.016712e+01 7.591157e+01 4.745285e+01 6.484857e+01 4.539661e+01 3.835034e+01 4.388253e+01 3.288923e+01 1.256332e+02 2.490165e+00 2.945739e+00 2.536840e+00 2.464887e+00 3.822343e+00 3.623157e+00 4.151627e+00 4.364824e+00 3.591610e+00 2.779173e+00 3.130735e+00 2.549705e+00 4.307807e+00 3.389531e-01 4.698941e-01 4.153833e-01 4.117992e-01 7.738999e-01 6.430628e-01 6.670991e-01 7.368245e-01 5.955364e-01 5.051569e-01 5.995923e-01 4.263537e-01 6.313556e-01
<GCONST> 1.293784e+02
<TRANSP> 5
 0.000000e+00 1.000000e+00 0.000000e+00 0.000000e+00 0.000000e+00
 0.000000e+00 6.285610e-01 3.714390e-01 0.000000e+00 0.000000e+00
 0.000000e+00 0.000000e+00 7.997682e-01 2.002318e-01 0.000000e+00
 0.000000e+00 0.000000e+00 0.000000e+00 7.568592e-01 2.431408e-01
 0.000000e+00 0.000000e+00 0.000000e+00 0.000000e+00 0.000000e+00
<ENDHMM>
~h "j"
<BEGINHMM>
<NUMSTATES> 5
<STATE> 2
<MEAN> 39
 -2.714434e+00 5.467162e+00 6.997186e+00 1.130496e+00 -8.377976e+00 -6.452889e+00 -7.849554e+00 -1.839558e+00 -4.030889e+00 -5.352318e+00 -3.128624e+00 -4.114776e+00 5.091365e+01 -7.414386e-01 6.659657e-01 2.347886e-01 -4.289336e-02 9.884778e-01 1.870158e-01 5.161425e-01 4.108768e-03 2.791662e-01 -1.020165e-02 -1.840510e-01 2.098718e-01 -2.605731e-01 -5.375764e-01 -3.604611e-01 -1.833201e-01 -2.760061e-01 -5.040810e-02 -1.327943e-02 -1.393180e-01 -1.972729e-01 -1.330609e-01 6.317800e-02 2.408215e-01 1.094204e-01 7.930248e-01
<VARIANCE> 39
 5.274006e+01 4.573072e+01 5.353637e+01 2.933684e+01 4.642610e+01 4.149617e+01 4.349726e+01 3.960222e+01 3.643827e+01 3.133736e+01 2.811422e+01 2.152716e+01 1.002764e+02 7.852380e+00 3.866117e+00 3.076335e+00 2.919370e+00 3.937660e+00 3.215999e+00 3.632803e+00 4.009328e+00 3.218345e+00 2.602467e+00 2.676308e+00 2.250468e+00 8.424398e+00 1.148801e+00 6.203636e-01 4.850972e-01 5.069858e-01 7.432728e-01 6.384746e-01 6.343553e-01 7.180281e-01 6.181254e-01 5.048156e-01 4.852853e-01 4.735592e-01 1.138343e+00
<GCONST> 1.309924e+02
<STATE> 3
<MEAN> 39
 -1.577833e+01 6.125922e+00 7.464571e+00 -2.245598e+00 -4.337935e+00 -6.573356e+00 -6.989291e+00 -6.189590e+00 -5.582309e+00 -5.110951e+00 -1.304920e+00 -7.784184e-01 6.532188e+01 -1.151137e+00 -1.392974e+00 5.392115e-01 -5.067192e-01 -2.329589e+00 -1.570251e+00 -1.179637e+00 -4.591076e-01 -6.845649e-01 -3.501782e-01 1.400348e+00 1.096137e+00 3.733615e+00 1.901242e+00 -6.103781e-01 1.432928e-01 2.007367e-01 -1.343539e+00 -2.665106e-01 -6.695064e-01 6.928871e-01 2.352693e-01 -1.077228e-01 2.138170e-01 -4.010268e-01 -4.114493e-01
<VARIANCE> 39
 3.098167e+01 3.262513e+01 5.002626e+01 2.174831e+01 4.244870e+01 4.519023e+01 3.013831e+01 2.519361e+01 2.680405e+01 2.096827e+01 1.785647e+01 1.755480e+01 2.534530e+01 1.327403e+01 3.977284e+00 4.235416e+00 3.944000e+00 7.862381e+00 4.041299e+00 3.871412e+00 4.079068e+00 3.392339e+00 2.516023e+00 2.495975e+00 2.060343e+00 3.627052e+00 8.514809e-01 8.789619e-01 8.886228e-01 6.890700e-01 1.222264e+00 1.084089e+00 6.541902e-01 9.670252e-01 8.450612e-01 5.506691e-01 5.505168e-01 6.026325e-01 5.651027e-01
<GCONST> 1.297658e+02
<STATE> 4
<MEAN> 39
 -5.975482e+00 -3.043416e+00 9.630613e+00 -2.897890e+00 -1.854466e+01 -1.262554e+01 -1.472092e+01 -1.411992e+00 -4.998452e+00 -6.605020e+00 4.149209e+00 -5.411088e-01 7.260110e+01 2.760469e+00 -3.304040e+00 -1.412512e+00 -8.595883e-01 -2.431818e+00 1.566595e-01 -1.751524e+00 2.372322e+00 1.440059e+00 3.083205e-01 7.937303e-01 -1.703571e+00 1.513657e+00 -1.257467e-01 2.697330e-01 -8.596861e-01 -2.002304e-01 1.330096e+00 1.064915e+00 5.943839e-01 5.400446e-02 2.856935e-01 3.049529e-01 -6.909741e-01 -7.432878e-01 -7.329437e-01
<VARIANCE> 39
 1.653598e+01 3.185890e+01 3.159028e+01 3.734682e+01 3.151611e+01 2.891693e+01 3.384498e+01 5.519350e+01 4.689867e+01 3.121691e+01 2.159598e+01 2.158689e+01 1.878989e+01 2.244884e+00 3.066844e+00 4.140314e+00 3.035632e+00 6.884776e+00 4.519642e+00 4.863905e+00 7.126887e+00 4.247033e+00 3.054805e+00 3.677896e+00 2.724615e+00 1.107844e+00 7.567298e-01 5.290561e-01 3.839781e-01 5.506812e-01 7.739622e-01 6.182610e-01 6.164500e-01 9.502836e-01 6.242375e-01 5.658557e-01 6.970409e-01 4.326387e-01 1.483063e-01
<GCONST> 1.242567e+02
<TRANSP> 5
 0.000000e+00 1.000000e+00 0.000000e+00 0.000000e+00 0.000000e+00
 0.000000e+00 8.566397e-01 1.433602e-01 0.000000e+00 0.000000e+00
 0.000000e+00 0.000000e+00 6.773406e-01 3.226594e-01 0.000000e+00
 0.000000e+00 0.000000e+00 0.000000e+00 5.985901e-01 4.014098e-01
 0.000000e+00 0.000000e+00 0.000000e+00 0.000000e+00 0.000000e+00
<ENDHMM>
~h "k"
<BEGINHMM>
<NUMSTATES> 5
<STATE> 2
<MEAN> 39
 -7.169027e+00 -4.807347e-01 -2.943801e+00 -2.974268e+00 -5.642875e+00 -4.531137e+00 -6.534339e+00 -2.805776e+00 -4.137180e+00 -1.720031e+00 -2.625227e+00 -4.041131e+00 4.264167e+01 -4.856420e-01 2.713613e-01 -1.013786e-01 1.879839e-01 1.657303e-01 -1.544178e-01 1.827217e-01 -1.120144e-01 1.817596e-01 -5.726518e-02 -5.091923e-02 3.281839e-01 -1.436834e+00 -7.653468e-02 -2.314736e-01 -9.146655e-02 -1.045001e-01 1.416684e-02 5.647955e-03 -6.318405e-02 5.624880e-02 -1.742293e-02 2.006513e-02 2.107637e-02 -8.344692e-03 5.024768e-01
<VARIANCE> 39
 3.956180e+01 3.739441e+01 3.866710e+01 3.586224e+01 4.497571e+01 4.336188e+01 3.838910e+01 4.202398e+01 3.896711e+01 3.338976e+01 3.318679e+01 3.387988e+01 1.002291e+02 1.221993e+00 1.593212e+00 1.616317e+00 1.912440e+00 2.458275e+00 2.362429e+00 2.383785e+00 2.471442e+00 2.512458e+00 2.346251e+00 2.232797e+00 1.975584e+00 4.270623e+00 2.500868e-01 4.081928e-01 3.744917e-01 4.177217e-01 5.171314e-01 4.644533e-01 4.991068e-01 4.850970e-01 5.254761e-01 4.840300e-01 4.544677e-01 3.965651e-01 6.692899e-01
<GCONST> 1.195478e+02
<STATE> 3
<MEAN> 39
 -7.774706e+00 5.493252e-01 -2.007707e+00 -2.889563e+00 -6.681755e+00 -5.254809e+00 -7.436794e+00 -4.238892e+00 -4.927077e+00 -1.282284e+00 -2.285179e+00 -3.511749e+00 4.354004e+01 -1.285128e+00 -1.488035e+00 -1.572063e+00 -3.436506e-01 1.219841e+00 -4.550295e-01 -1.114082e-01 4.812876e-01 1.750110e-01 3.740090e-01 -2.672135e-01 5.930267e-01 1.826695e+00 1.088110e-01 -4.622155e-01 -2.938103e-01 -3.296120e-01 -4.258797e-02 8.974586e-03 -1.513480e-01 2.074198e-01 -7.851680e-02 1.193168e-01 -5.042284e-03 -1.959320e-01 1.687742e+00
<VARIANCE> 39
 4.441667e+01 4.354053e+01 6.044983e+01 4.946512e+01 6.533138e+01 5.729102e+01 4.674483e+01 5.149787e+01 4.851484e+01 3.715361e+01 3.828207e+01 3.191247e+01 9.206719e+01 3.846703e+00 5.639014e+00 6.522450e+00 5.116969e+00 6.478819e+00 5.578930e+00 5.446510e+00 5.119131e+00 4.913140e+00 4.282248e+00 3.918862e+00 3.366973e+00 1.646653e+01 6.487343e-01 8.468011e-01 8.828668e-01 7.775474e-01 1.091484e+00 9.350861e-01 9.004042e-01 8.688381e-01 8.402222e-01 7.454231e-01 7.148213e-01 6.173708e-01 1.714260e+00
<GCONST> 1.423694e+02
<STATE> 4
<MEAN> 39
 -1.101889e+01 -7.170655e+00 -1.000509e+01 -6.045020e+00 -1.858008e+00 -7.245417e+00 -9.376932e+00 -1.210577e+00 -4.491838e+00 1.065453e+00 -4.264498e+00 -2.894994e+00 6.144638e+01 1.090755e+00 -5.462759e-01 9.654281e-02 -8.651711e-01 -1.034900e+00 -5.931212e-02 -4.774378e-01 6.201453e-01 -1.161037e-01 -1.238644e-01 2.429193e-01 -1.122609e+00 4.331151e+00 9.067309e-01 4.432571e-01 9.666783e-01 4.234927e-02 -1.020870e+00 4.507209e-01 1.343440e-02 -1.081921e-01 2.201254e-02 -4.613478e-01 4.159042e-01 -5.963054e-01 -6.086727e-01
<VARIANCE> 39
 3.432331e+01 4.356868e+01 6.869736e+01 5.717047e+01 6.178052e+01 7.318216e+01 4.670247e+01 4.856497e+01 5.347036e+01 3.946626e+01 3.726090e+01 3.310344e+01 6.582576e+01 5.904465e+00 5.504520e+00 8.045624e+00 4.732606e+00 7.979352e+00 6.083672e+00 4.849264e+00 5.752960e+00 5.122446e+00 4.492945e+00 4.304390e+00 4.641872e+00 1.189073e+01 7.407616e-01 9.273896e-01 1.218367e+00 9.244373e-01 1.304010e+00 1.134142e+00 1.100952e+00 1.017156e+00 9.806607e-01 8.851398e-01 8.300186e-01 8.089846e-01 1.239804e+00
<GCONST> 1.452272e+02
<TRANSP> 5
 0.000000e+00 1.000000e+00 0.000000e+00 0.000000e+00 0.000000e+00
 0.000000e+00 8.096095e-01 1.903905e-01 0.000000e+00 0.000000e+00
 0.000000e+00 0.000000e+00 6.527070e-01 3.472929e-01 0.000000e+00
 0.000000e+00 0.000000e+00 0.000000e+00 6.383100e-01 3.616901e-01
 0.000000e+00 0.000000e+00 0.000000e+00 0.000000e+00 0.000000e+00
<ENDHMM>
~h "l"
<BEGINHMM>
<NUMSTATES> 5
<STATE> 2
<MEAN> 39
 1.904989e+00 -9.267062e+00 -2.083840e+00 -6.956141e+00 -1.501527e+01 -4.772246e-01 -1.500918e+01 -1.029741e+01 4.380312e-02 6.825524e-01 3.915813e-01 -7.809246e+00 6.991320e+01 6.926280e-01 -4.175079e-01 8.427937e-01 1.480969e-02 3.023673e-01 -1.310855e-01 -1.299544e+00 -1.111384e+00 5.472808e-02 1.248041e+00 -2.867041e-02 -2.123423e-01 -4.605018e-01 -1.706316e-01 2.007065e-01 3.462644e-02 -2.626800e-01 1.748664e-01 8.550796e-02 2.800534e-02 3.403723e-01 -2.487122e-01 -2.268453e-01 8.330294e-02 -1.838658e-02 -3.518529e-02
<VARIANCE> 39
 2.086266e+01 3.073546e+01 6.373475e+01 7.129331e+01 5.954895e+01 1.038805e+02 7.693188e+01 1.340082e+02 7.920558e+01 6.320416e+01 5.417883e+01 4.485258e+01 2.587363e+01 1.091668e+00 2.636081e+00 3.525478e+00 5.920632e+00 5.673806e+00 7.858379e+00 4.679334e+00 6.029428e+00 5.355986e+00 4.617798e+00 4.675785e+00 3.731725e+00 1.104402e+00 2.370000e-01 3.219267e-01 4.263916e-01 6.708843e-01 8.776509e-01 9.661473e-01 8.795847e-01 1.075907e+00 8.576781e-01 8.231903e-01 6.926671e-01 5.698284e-01 1.432703e-01
<GCONST> 1.342342e+02
<STATE> 3
<MEAN> 39
 2.965038e+00 -9.956965e+00 -3.114011e-02 -1.117470e+01 -1.313100e+01 2.450633e+00 -1.909525e+01 -9.827864e+00 2.794079e-01 3.810827e+00 5.338538e-01 -9.297750e+00 6.931827e+01 -7.158136e-03 2.253599e-01 3.353239e-02 -2.646973e-01 3.160385e-01 2.023632e-02 -1.484999e-01 4.049028e-02 -1.892592e-01 1.029424e-01 -1.694529e-02 -2.831946e-02 -1.735748e-01 -2.424470e-01 -9.768656e-03 -3.166749e-01 1.606033e-01 2.482848e-02 -2.160429e-02 4.513440e-01 4.131514e-01 5.098068e-02 -4.229789e-01 -1.655184e-01 -3.595566e-02 1.627558e-01
<VARIANCE> 39
 1.742156e+01 2.995856e+01 5.903410e+01 7.508040e+01 5.122359e+01 8.653666e+01 7.321924e+01 9.846149e+01 7.790565e+01 6.260257e+01 5.169439e+01 3.995262e+01 1.974006e+01 5.054502e-01 9.574572e-01 1.825058e+00 2.042269e+00 1.769799e+00 2.601652e+00 2.544624e+00 3.337731e+00 2.564473e+00 2.390729e+00 2.112853e+00 1.757609e+00 7.456196e-01 1.087516e-01 2.718401e-01 3.054008e-01 4.348786e-01 5.329400e-01 6.004485e-01 6.126922e-01 6.440891e-01 5.682541e-01 5.876395e-01 5.282047e-01 4.229296e-01 1.179819e-01
<GCONST> 1.174652e+02
<STATE> 4
<MEAN> 39
 1.175303e-01 -6.156304e+00 -1.063244e+00 -7.717831e+00 -9.787486e+00 -8.928908e-01 -1.535137e+01 -7.929250e+00 -1.687493e+00 1.148444e+00 -1.496688e+00 -7.726036e+00 6.290226e+01 -7.056646e-01 3.056365e-01 -4.299772e-01 4.600717e-01 2.675945e-01 -2.650085e-01 1.059446e+00 9.693455e-01 6.079935e-03 -8.179747e-01 -4.497317e-01 1.747335e-01 -2.307452e-01 -1.139901e-01 -7.714505e-02 -1.055064e-01 -5.620232e-03 -1.867461e-01 1.307003e-01 2.712365e-01 1.913248e-01 -1.991493e-02 -1.814842e-01 4.366700e-02 -1.970795e-03 1.167602e-01
<VARIANCE> 39
 3.150890e+01 4.027389e+01 6.969474e+01 7.255768e+01 5.895521e+01 8.796259e+01 8.865036e+01 9.822362e+01 6.093533e+01 6.244191e+01 5.325242e+01 4.247125e+01 1.179447e+02 1.449749e+00 3.394041e+00 3.198654e+00 3.843996e+00 4.766453e+00 5.345766e+00 4.739786e+00 5.714845e+00 5.057550e+00 4.247975e+00 4.072796e+00 3.230924e+00 4.197556e+00 2.485381e-01 4.121519e-01 3.873650e-01 6.489263e-01 8.587032e-01 7.973652e-01 9.476731e-01 7.873370e-01 7.068247e-01 7.456599e-01 6.956961e-01 5.221617e-01 3.759846e-01
<GCONST> 1.364717e+02
<TRANSP> 5
 0.000000e+00 1.000000e+00 0.000000e+00 0.000000e+00 0.000000e+00
 0.000000e+00 5.120733e-01 4.879266e-01 0.000000e+00 0.000000e+00
 0.000000e+00 0.000000e+00 6.843792e-01 3.156208e-01 0.000000e+00
 0.000000e+00 0.000000e+00 0.000000e+00 5.512492e-01 4.487508e-01
 0.000000e+00 0.000000e+00 0.000000e+00 0.000000e+00 0.000000e+00
<ENDHMM>
~h "m"
<BEGINHMM>
<NUMSTATES> 5
<STATE> 2
<MEAN> 39
 2.913512e+00 -2.737283e+00 9.016817e-01 -3.448200e+00 -9.475795e+00 8.086498e-01 -9.603987e+00 -1.075858e+01 -1.340979e+01 -1.996410e+00 -8.444107e-01 -8.793923e+00 6.047852e+01 4.989870e-01 8.613167e-01 1.550698e+00 1.610055e+00 2.682754e-01 2.926402e-01 8.712522e-01 -2.373533e+00 -2.647536e+00 1.578522e-01 -6.720057e-01 3.445445e-02 -7.353851e-01 -2.840245e-01 -3.232143e-01 -9.951391e-02 -2.831558e-01 -9.503125e-02 4.344983e-02 -2.544354e-02 3.684731e-01 4.091557e-01 -1.254688e-01 -7.061276e-03 1.306814e-02 3.952128e-01
<VARIANCE> 39
 2.334946e+01 3.486372e+01 3.350187e+01 5.177016e+01 5.651827e+01 8.089147e+01 5.952148e+01 6.287352e+01 7.303278e+01 5.747221e+01 6.433691e+01 3.943800e+01 6.770845e+01 1.917218e+00 2.974962e+00 3.416186e+00 3.915761e+00 3.720661e+00 4.290442e+00 4.545622e+00 5.014898e+00 5.468678e+00 4.752052e+00 6.140965e+00 3.771967e+00 4.515337e+00 2.711770e-01 3.362506e-01 4.860732e-01 4.937498e-01 5.642780e-01 5.373707e-01 6.028820e-01 8.176814e-01 9.956614e-01 6.120238e-01 8.005292e-01 5.019054e-01 3.080575e-01
<GCONST> 1.327210e+02
<STATE> 3
<MEAN> 39
 3.408811e+00 -2.750907e+00 4.243494e+00 -2.230572e+00 -1.048858e+01 2.590599e+00 -8.145555e+00 -1.353605e+01 -1.631739e+01 -3.168952e+00 -3.097933e+00 -9.229669e+00 6.214889e+01 -2.797031e-02 1.947271e-01 1.257796e-01 9.917348e-02 5.525062e-02 3.558659e-02 2.434215e-01 -5.116776e-02 -6.825263e-02 -2.884110e-02 -1.889956e-01 1.553222e-01 -1.303304e-01 -3.737730e-02 -8.691622e-02 -3.772259e-01 -3.993443e-01 -2.380905e-02 -8.475889e-02 -1.813242e-01 4.839454e-01 5.778350e-01 -2.626408e-02 2.223060e-01 9.269673e-03 1.518892e-01
<VARIANCE> 39
 1.312339e+01 2.178553e+01 2.413814e+01 5.062113e+01 7.177578e+01 9.597126e+01 6.732214e+01 5.302420e+01 6.694468e+01 7.806741e+01 7.207857e+01 4.122390e+01 2.658391e+01 2.619042e-01 7.896538e-01 9.121101e-01 1.330059e+00 1.222072e+00 1.756368e+00 1.473424e+00 1.805540e+00 2.110407e+00 1.840191e+00 2.321927e+00 1.455241e+00 8.822233e-01 9.042972e-02 1.840971e-01 3.022071e-01 4.016578e-01 3.096085e-01 3.757214e-01 4.070276e-01 5.542577e-01 6.880306e-01 4.812365e-01 5.903347e-01 3.901465e-01 1.710360e-01
<GCONST> 1.099218e+02
<STATE> 4
<MEAN> 39
 -2.033646e+00 -3.929548e-01 9.786906e-01 -1.169345e+00 -5.824454e+00 3.027609e-01 -6.369503e+00 -8.626154e+00 -1.043912e+01 -2.441325e+00 -3.458581e+00 -5.167758e+00 5.123311e+01 -5.403939e-02 -2.252271e-01 -6.126923e-01 -7.623526e-01 8.974249e-03 -4.126495e-02 -2.979256e-01 7.460760e-01 9.655861e-01 -3.899527e-02 4.074392e-01 -4.420093e-02 4.697405e-01 -5.261450e-02 -2.069942e-01 -1.617423e-01 -2.170378e-01 -3.696153e-02 3.901032e-02 -2.124660e-01 2.742528e-01 2.956033e-01 -5.748157e-02 1.080719e-01 -1.328524e-01 2.307970e-01
<VARIANCE> 39
 5.082866e+01 3.402004e+01 3.773721e+01 4.141794e+01 5.749917e+01 6.278743e+01 4.642738e+01 6.630512e+01 8.417469e+01 5.040860e+01 5.195618e+01 3.645882e+01 1.417491e+02 2.144863e+00 2.633243e+00 3.550735e+00 4.195641e+00 2.917033e+00 3.376672e+00 3.338082e+00 4.390477e+00 6.225706e+00 3.439472e+00 4.032439e+00 2.700600e+00 5.166323e+00 3.282842e-01 3.588481e-01 4.523149e-01 5.266718e-01 4.998500e-01 5.109710e-01 5.056302e-01 7.572210e-01 9.042224e-01 5.498941e-01 6.324953e-01 4.336975e-01 3.765893e-01
<GCONST> 1.311961e+02
<TRANSP> 5
 0.000000e+00 1.000000e+00 0.000000e+00 0.000000e+00 0.000000e+00
 0.000000e+00 5.502497e-01 4.497503e-01 0.000000e+00 0.000000e+00
 0.000000e+00 0.000000e+00 7.577915e-01 2.422085e-01 0.000000e+00
 0.000000e+00 0.000000e+00 0.000000e+00 7.371557e-01 2.628443e-01
 0.000000e+00 0.000000e+00 0.000000e+00 0.000000e+00 0.000000e+00
<ENDHMM>
~h "n"
<BEGINHMM>
<NUMSTATES> 5
<STATE> 2
<MEAN> 39
 2.991030e+00 -4.594119e+00 2.657304e+00 -5.457131e-01 -1.352114e+01 -6.127323e+00 -1.217602e+01 -7.922194e+00 -5.859555e+00 -3.034528e-02 -7.144779e+00 -8.873542e+00 6.460561e+01 7.910480e-01 2.173407e+00 1.508997e+00 1.400643e+00 -3.593466e-01 -6.897676e-01 9.501569e-01 -3.277209e+00 -1.168335e+00 1.320019e+00 -1.353100e+00 6.435841e-01 -2.102950e+00 -2.707653e-01 -2.659416e-01 -2.493220e-01 -4.747697e-01 9.863250e-03 3.832029e-01 1.098551e-01 4.683945e-01 5.577130e-02 -2.704018e-01 2.996679e-01 2.339833e-02 3.904127e-01
<VARIANCE> 39
 1.102243e+01 3.086394e+01 3.575938e+01 3.759811e+01 4.497381e+01 6.148402e+01 5.046196e+01 8.561647e+01 6.293260e+01 4.360973e+01 4.984201e+01 4.558610e+01 2.456217e+01 7.741271e-01 1.926399e+00 3.515152e+00 2.786472e+00 3.621836e+00 4.971911e+00 4.042947e+00 5.792553e+00 3.902842e+00 3.930204e+00 4.057683e+00 3.569068e+00 1.076676e+00 1.282035e-01 3.748877e-01 3.726848e-01 3.550472e-01 4.918857e-01 5.331427e-01 5.916723e-01 1.017308e+00 5.596251e-01 5.968574e-01 5.167289e-01 4.403182e-01 2.090953e-01
<GCONST> 1.230106e+02
<STATE> 3
<MEAN> 39
 3.684495e+00 -1.346288e+00 5.625210e+00 2.804786e-01 -1.490895e+01 -6.325233e+00 -9.854901e+00 -1.163411e+01 -7.971931e+00 1.113911e+00 -8.830812e+00 -8.041055e+00 6.142702e+01 4.676880e-02 5.842060e-01 1.713584e-01 2.373941e-01 2.445116e-01 8.224843e-02 3.065316e-01 -1.838541e-01 -2.959833e-01 8.287387e-02 -7.929675e-02 2.436547e-01 -7.176179e-01 -1.970541e-01 -1.773129e-01 -1.892379e-01 -1.569156e-01 2.487618e-01 9.477707e-02 -1.521167e-01 5.167984e-01 1.626700e-01 -2.543641e-01 2.392258e-01 -4.286953e-02 1.174541e-01
<VARIANCE> 39
 1.052999e+01 2.069813e+01 2.706549e+01 4.134449e+01 5.597519e+01 8.865160e+01 5.779022e+01 5.410691e+01 5.902929e+01 4.803712e+01 5.547050e+01 5.184564e+01 2.333811e+01 3.289513e-01 9.018108e-01 8.092123e-01 1.030949e+00 1.511106e+00 1.477572e+00 1.687983e+00 2.026124e+00 1.817941e+00 1.792360e+00 1.776609e+00 1.407630e+00 7.407662e-01 1.242122e-01 2.477914e-01 3.044332e-01 3.226113e-01 3.756632e-01 4.215660e-01 4.135830e-01 6.283149e-01 4.246371e-01 4.649593e-01 4.474768e-01 3.478979e-01 2.064566e-01
<GCONST> 1.080856e+02
<STATE> 4
<MEAN> 39
 -2.143868e+00 7.954307e-01 2.717755e+00 5.889875e-01 -7.822563e+00 -4.822141e+00 -7.682678e+00 -7.180295e+00 -6.819841e+00 -1.372122e+00 -6.422601e+00 -5.004173e+00 5.009881e+01 -7.606257e-01 -2.502124e-02 -3.526462e-01 -2.759642e-01 6.962081e-01 1.572237e-01 -3.430289e-02 7.861150e-01 3.485997e-01 -5.009462e-01 4.689948e-01 1.447821e-01 -6.006974e-01 -1.395946e-01 -2.231038e-01 -1.182594e-01 -1.845153e-01 -6.808804e-02 6.023656e-02 -7.857130e-02 1.836818e-01 1.158159e-01 -1.156005e-01 1.296023e-01 -5.042148e-02 2.238130e-01
<VARIANCE> 39
 4.586526e+01 3.857833e+01 4.219389e+01 3.550787e+01 6.081816e+01 5.068922e+01 5.333500e+01 6.055532e+01 5.612830e+01 4.594218e+01 4.836074e+01 4.164220e+01 1.151335e+02 1.884748e+00 3.226046e+00 2.542590e+00 2.705607e+00 3.481161e+00 3.368960e+00 3.226767e+00 4.325630e+00 3.661829e+00 3.396124e+00 3.202426e+00 2.540272e+00 4.632324e+00 3.839762e-01 5.144230e-01 4.450695e-01 4.819442e-01 6.182305e-01 6.008332e-01 5.816059e-01 8.481120e-01 6.871871e-01 6.525357e-01 6.002527e-01 4.686449e-01 4.952132e-01
<GCONST> 1.301402e+02
<TRANSP> 5
 0.000000e+00 1.000000e+00 0.000000e+00 0.000000e+00 0.000000e+00
 0.000000e+00 5.407581e-01 4.592420e-01 0.000000e+00 0.000000e+00
 0.000000e+00 0.000000e+00 7.642498e-01 2.357502e-01 0.000000e+00
 0.000000e+00 0.000000e+00 0.000000e+00 7.500508e-01 2.499491e-01
 0.000000e+00 0.000000e+00 0.000000e+00 0.000000e+00 0.000000e+00
<ENDHMM>
~h "o"
<BEGINHMM>
<NUMSTATES> 5
<STATE> 2
<MEAN> 39
 8.839986e-01 -3.774789e+00 -7.303030e+00 -1.430686e+01 -1.193434e+01 3.359002e+00 -1.160119e+01 -5.339911e+00 -3.399021e+00 -1.279536e+00 1.986241e+00 -7.041275e+00 6.591313e+01 1.797599e+00 -7.731402e-01 -8.657799e-01 -2.380228e+00 -1.677300e+00 2.532173e+00 -6.186390e-01 1.659362e-02 5.842469e-01 -1.507579e-01 1.563181e+00 -1.073097e+00 2.214387e+00 -3.988408e-01 1.939074e-03 1.512230e-01 2.890283e-01 2.487134e-01 5.340301e-02 2.287263e-01 1.467017e-02 -1.154849e-01 -4.303559e-02 -3.131651e-02 1.393047e-01 -5.042116e-01
<VARIANCE> 39
 3.042211e+01 3.735472e+01 4.169849e+01 9.611744e+01 5.839912e+01 8.475223e+01 6.801514e+01 6.821154e+01 7.119326e+01 5.897087e+01 5.024169e+01 3.791784e+01 1.021189e+02 4.352007e+00 2.788293e+00 4.901416e+00 6.109466e+00 7.235147e+00 5.467307e+00 4.143972e+00 5.806882e+00 5.110152e+00 5.597796e+00 4.107896e+00 3.807945e+00 5.484173e+00 7.376785e-01 5.102838e-01 5.540720e-01 1.183644e+00 8.802420e-01 1.021187e+00 8.023323e-01 7.829259e-01 9.217539e-01 7.233443e-01 6.748420e-01 5.878993e-01 1.211847e+00
<GCONST> 1.419303e+02
<STATE> 3
<MEAN> 39
 2.778007e+00 -6.998566e+00 -9.416000e+00 -1.715463e+01 -1.449585e+01 9.364492e+00 -1.373596e+01 -5.778292e+00 -2.157710e+00 -1.734547e+00 6.358103e+00 -9.800319e+00 7.235390e+01 2.371264e-02 -2.739587e-01 -2.251976e-01 -4.012431e-01 8.439099e-02 7.991373e-01 1.657339e-02 6.644238e-02 -6.195187e-03 1.209799e-02 3.037574e-01 -2.548122e-01 1.968987e-01 -2.209177e-01 2.656271e-01 3.449873e-01 6.397917e-01 3.525439e-01 -7.861430e-01 1.636553e-01 -4.201867e-02 -1.892950e-01 1.952360e-02 -5.708282e-01 3.133890e-01 -5.162428e-01
<VARIANCE> 39
 1.215888e+01 2.807611e+01 3.139071e+01 6.940470e+01 5.396729e+01 5.993710e+01 5.894815e+01 7.762666e+01 6.615084e+01 6.835743e+01 4.791308e+01 3.829188e+01 1.245328e+01 5.246921e-01 1.404547e+00 1.578563e+00 4.461454e+00 2.437089e+00 4.686813e+00 3.300425e+00 3.145233e+00 3.487188e+00 3.502805e+00 2.956006e+00 2.322380e+00 8.218163e-01 2.354386e-01 2.701420e-01 3.156833e-01 4.800414e-01 7.047381e-01 5.288137e-01 5.746898e-01 6.722912e-01 6.477269e-01 7.062936e-01 5.168149e-01 5.197973e-01 2.330537e-01
<GCONST> 1.206824e+02
<STATE> 4
<MEAN> 39
 2.740743e+00 -4.331341e+00 -8.178956e+00 -2.003099e+01 -1.282032e+01 9.256236e+00 -1.185932e+01 -4.922350e+00 -4.037371e+00 -2.941161e+00 3.682450e+00 -7.678712e+00 6.830135e+01 1.653098e-02 4.132139e-01 3.432069e-01 9.188058e-01 4.082082e-01 -7.376758e-01 1.733887e-01 -1.710102e-01 -1.433316e-01 1.173159e-01 -6.671944e-01 1.301897e-01 -1.029737e+00 -4.636037e-02 7.874665e-02 1.377632e-01 3.385508e-01 6.785989e-02 -2.092764e-01 3.660200e-02 -9.734968e-02 -6.848820e-03 4.633465e-02 -1.393812e-01 2.650649e-02 -2.539074e-01
<VARIANCE> 39
 1.417956e+01 4.288042e+01 3.204921e+01 6.660184e+01 6.172047e+01 5.559464e+01 5.890272e+01 7.145390e+01 6.758864e+01 7.497446e+01 4.772400e+01 4.292796e+01 4.875425e+01 5.536674e-01 1.484899e+00 1.378666e+00 3.025612e+00 2.327367e+00 2.631862e+00 2.327863e+00 2.307053e+00 2.511486e+00 2.492724e+00 2.385161e+00 1.872946e+00 2.380179e+00 1.130313e-01 2.335038e-01 2.170747e-01 3.497442e-01 3.727544e-01 3.930178e-01 4.279711e-01 4.033167e-01 4.481049e-01 4.423709e-01 3.714122e-01 3.478342e-01 2.494886e-01
<GCONST> 1.162620e+02
<TRANSP> 5
 0.000000e+00 1.000000e+00 0.000000e+00 0.000000e+00 0.000000e+00
 0.000000e+00 5.466371e-01 4.533629e-01 0.000000e+00 0.000000e+00
 0.000000e+00 0.000000e+00 6.888009e-01 3.111991e-01 0.000000e+00
 0.000000e+00 0.000000e+00 0.000000e+00 8.139994e-01 1.860006e-01
 0.000000e+00 0.000000e+00 0.000000e+00 0.000000e+00 0.000000e+00
<ENDHMM>
~h "p"
<BEGINHMM>
<NUMSTATES> 5
<STATE> 2
<MEAN> 39
 -5.341311e+00 2.953105e-01 -2.961457e+00 -3.499319e+00 -5.844598e+00 -3.216658e+00 -6.818014e+00 -4.168312e+00 -3.847893e+00 -2.022431e+00 -2.472250e+00 -4.930250e+00 4.163402e+01 -6.914926e-01 3.030428e-01 -1.283787e-01 1.802488e-01 1.488782e-01 -3.559076e-01 2.124965e-01 1.206194e-02 1.908552e-01 4.400287e-02 -1.186371e-01 2.908803e-01 -1.293144e+00 -6.903724e-02 -1.859508e-01 -1.291650e-02 -8.603026e-02 -3.754506e-02 2.232521e-02 -3.253001e-02 3.416768e-02 8.155734e-03 8.329291e-03 7.962581e-02 2.288691e-02 5.641652e-01
<VARIANCE> 39
 4.473840e+01 3.383149e+01 3.298023e+01 3.329124e+01 3.133743e+01 3.783081e+01 3.285814e+01 3.504680e+01 3.325959e+01 2.878990e+01 2.879236e+01 3.442356e+01 6.848038e+01 1.144452e+00 1.427105e+00 1.416732e+00 1.612028e+00 1.784276e+00 2.010461e+00 1.928733e+00 2.105488e+00 2.220901e+00 2.025092e+00 2.110489e+00 1.776455e+00 3.150490e+00 2.241777e-01 3.061512e-01 3.127905e-01 3.565622e-01 3.777641e-01 3.867015e-01 3.973049e-01 4.189616e-01 4.493763e-01 4.060895e-01 4.102948e-01 3.508657e-01 5.790461e-01
<GCONST> 1.133103e+02
<STATE> 3
<MEAN> 39
 -6.898007e+00 2.540978e+00 -1.323851e+00 -2.080348e+00 -5.534427e+00 -3.701216e+00 -6.203684e+00 -4.937488e+00 -4.014582e+00 -1.865415e+00 -2.582901e+00 -3.662635e+00 3.980777e+01 -8.614212e-01 -1.223450e+00 -4.671122e-01 -4.136204e-01 1.443936e-01 -2.590190e-01 4.897140e-02 2.324681e-01 5.592010e-01 -1.211331e-02 4.299235e-01 4.334919e-01 3.384190e+00 7.462159e-01 -7.534896e-01 -2.625923e-01 -6.831084e-01 -4.998257e-01 4.648761e-01 -3.429266e-01 4.765735e-03 -1.401529e-01 -1.128170e-02 3.972016e-01 -4.387391e-01 2.254431e+00
<VARIANCE> 39
 3.576269e+01 2.863415e+01 3.322160e+01 3.251253e+01 3.199295e+01 3.731641e+01 3.249755e+01 3.277212e+01 3.573056e+01 2.804735e+01 2.792830e+01 2.620835e+01 6.061399e+01 4.195960e+00 3.581278e+00 3.631874e+00 4.323400e+00 3.538126e+00 4.501709e+00 3.569844e+00 3.823375e+00 4.176895e+00 3.233820e+00 3.277989e+00 2.946990e+00 1.511388e+01 6.145883e-01 6.289827e-01 7.012230e-01 7.846294e-01 7.575742e-01 9.511155e-01 6.668644e-01 8.906386e-01 8.180581e-01 6.921121e-01 6.442345e-01 6.030841e-01 1.008538e+00
<GCONST> 1.317892e+02
<STATE> 4
<MEAN> 39
 -6.455092e+00 -4.086178e+00 -4.884487e+00 -5.985902e+00 -6.249596e+00 -3.601785e+00 -7.179491e+00 -5.320413e+00 -2.931331e+00 -2.042239e+00 -3.540751e-01 -3.768575e+00 6.048024e+01 2.472696e+00 -2.448776e+00 -1.236570e+00 -2.548762e+00 -1.684540e+00 1.879147e+00 -1.164777e+00 4.632010e-02 -8.853225e-02 -3.534729e-02 1.457042e+00 -1.563877e+00 7.360059e+00 5.956845e-01 1.816818e-02 1.272884e-01 -1.365660e-01 -4.933356e-01 5.118740e-01 -3.198501e-01 1.570124e-01 -1.018637e-01 2.969377e-03 3.918052e-05 -5.297990e-01 -6.467772e-01
<VARIANCE> 39
 3.617143e+01 2.052263e+01 2.971832e+01 4.888710e+01 2.561898e+01 4.727730e+01 2.936091e+01 2.946667e+01 3.016063e+01 2.501032e+01 2.753423e+01 2.503845e+01 5.978435e+01 4.331535e+00 5.748478e+00 6.550163e+00 7.248527e+00 5.653786e+00 9.030404e+00 4.823830e+00 6.680157e+00 6.320527e+00 4.874001e+00 4.447248e+00 4.567556e+00 1.054317e+01 9.362077e-01 8.064322e-01 7.116644e-01 1.159009e+00 1.075185e+00 1.093170e+00 7.723402e-01 8.438525e-01 8.989170e-01 6.943924e-01 8.243839e-01 6.756219e-01 1.505622e+00
<GCONST> 1.385707e+02
<TRANSP> 5
 0.000000e+00 1.000000e+00 0.000000e+00 0.000000e+00 0.000000e+00
 0.000000e+00 8.474158e-01 1.525842e-01 0.000000e+00 0.000000e+00
 0.000000e+00 0.000000e+00 5.980738e-01 4.019262e-01 0.000000e+00
 0.000000e+00 0.000000e+00 0.000000e+00 4.382984e-01 5.617017e-01
 0.000000e+00 0.000000e+00 0.000000e+00 0.000000e+00 0.000000e+00
<ENDHMM>
~h "q"
<BEGINHMM>
<NUMSTATES> 5
<STATE> 2
<MEAN> 39
 -5.806717e+00 3.877602e+00 2.148504e+00 -5.333796e-01 -1.396294e+01 -1.112361e+01 -9.550812e+00 -8.360682e+00 -9.657533e+00 2.147319e-01 4.309565e-01 -6.482959e+00 5.076976e+01 -1.500279e+00 -4.513927e-01 -2.074012e+00 -2.428893e-01 1.792770e+00 3.638430e-01 7.509384e-01 -1.057161e-01 1.198620e+00 2.674152e-01 -4.240050e-01 6.123146e-01 -1.867957e-01 -2.687038e-01 -6.858811e-01 -1.127935e-01 -1.542524e-01 2.449452e-01 5.479664e-01 2.119011e-01 7.635337e-01 3.357660e-02 -6.624876e-02 -1.092602e-01 9.127822e-02 9.130439e-01
<VARIANCE> 39
 2.718325e+01 7.215535e+01 6.931847e+01 5.651694e+01 3.169811e+01 2.025044e+01 3.460419e+01 4.628482e+01 1.716003e+01 3.964615e+01 3.204179e+01 3.725081e+01 5.655046e+01 2.528749e+00 1.076356e+01 6.357635e+00 2.860120e+00 3.733806e+00 3.385443e+00 5.010487e+00 5.389457e+00 1.409798e+00 3.390594e+00 3.022235e+00 2.491330e+00 1.058622e+01 6.945551e-01 1.307453e+00 9.062218e-01 5.689567e-01 4.591519e-01 5.140085e-01 5.526029e-01 5.542759e-01 3.147552e-01 7.807448e-01 5.449770e-01 5.133171e-01 1.614240e+00
<GCONST> 1.314133e+02
<STATE> 3
<MEAN> 39
 -1.263973e+01 -2.235058e+00 -3.098638e+00 -5.380242e-01 -7.972676e+00 -6.238276e+00 -3.533255e+00 -2.847868e+00 -7.593803e+00 6.449208e-02 -1.440920e+00 -3.033019e+00 6.140911e+01 -7.331069e-01 1.106829e-01 -3.813350e-02 -3.035640e-01 9.196053e-01 1.472312e+00 1.507065e+00 1.295916e+00 5.310287e-01 -2.808337e-01 -5.417530e-01 -1.886144e-01 3.191498e-01 6.229641e-01 7.174117e-01 8.210924e-01 2.605465e-01 -7.185690e-01 -2.306980e-01 -3.937401e-01 -3.090552e-01 -3.722095e-02 -1.220758e-01 2.662567e-01 -2.731829e-01 -9.829952e-01
<VARIANCE> 39
 6.840368e+01 3.915905e+01 1.232954e+02 4.448509e+01 6.531297e+01 3.634142e+01 5.960322e+01 1.838217e+01 3.320501e+01 3.649027e+01 3.700965e+01 1.758645e+01 5.821658e+01 5.596079e+00 1.062864e+01 4.665146e+00 2.269524e+00 3.362886e+00 3.299947e+00 2.484183e+00 3.127400e+00 2.010753e+00 3.891057e+00 1.549160e+00 2.647140e+00 7.275895e+00 3.840485e-01 2.074016e+00 1.333315e+00 5.310075e-01 7.306935e-01 6.121325e-01 9.398721e-01 5.706140e-01 2.622522e-01 5.644383e-01 2.169661e-01 5.666463e-01 5.827812e-01
<GCONST> 1.304018e+02
<STATE> 4
<MEAN> 39
 -9.208068e+00 -3.205204e+00 1.724607e+00 2.010739e+00 -4.249610e+00 -5.113775e+00 -2.875777e+00 1.340505e+00 -3.578415e+00 9.760645e-02 4.537407e-01 -3.068947e+00 4.985899e+01 -8.219494e-03 -2.065021e-02 -1.030005e-01 2.467910e-02 7.136771e-02 -1.051073e-02 -2.778902e-04 9.786757e-02 1.002888e-01 -1.386865e-01 4.746965e-02 1.819556e-01 -3.605077e-01 -3.326745e-02 -4.122671e-02 -4.376154e-02 -3.802698e-02 -1.248340e-02 -5.033559e-02 -9.547833e-02 -1.981065e-02 -4.874478e-02 1.628084e-04 -7.470011e-02 1.724995e-02 9.722717e-02
<VARIANCE> 39
 7.848597e+00 3.332563e+01 1.870763e+01 1.801815e+01 2.298994e+01 2.456475e+01 1.637034e+01 2.919100e+01 2.127273e+01 1.546801e+01 2.568115e+01 1.502482e+01 3.242907e+01 4.600432e-01 1.892310e+00 9.857775e-01 2.064357e+00 1.948507e+00 1.838141e+00 2.044313e+00 1.683490e+00 1.730961e+00 1.204839e+00 1.966896e+00 1.564469e+00 1.205864e+00 1.004362e-01 3.020552e-01 1.903491e-01 4.563436e-01 4.050607e-01 4.534307e-01 4.079559e-01 3.253455e-01 3.965975e-01 2.474083e-01 3.781531e-01 3.245056e-01 2.002432e-01
<GCONST> 1.002499e+02
<TRANSP> 5
 0.000000e+00 1.000000e+00 0.000000e+00 0.000000e+00 0.000000e+00
 0.000000e+00 6.615012e-01 3.384988e-01 0.000000e+00 0.000000e+00
 0.000000e+00 0.000000e+00 5.787445e-01 4.212556e-01 0.000000e+00
 0.000000e+00 0.000000e+00 0.000000e+00 9.335770e-01 6.642302e-02
 0.000000e+00 0.000000e+00 0.000000e+00 0.000000e+00 0.000000e+00
<ENDHMM>
~h "r"
<BEGINHMM>
<NUMSTATES> 5
<STATE> 2
<MEAN> 39
 7.791089e-01 -9.960466e+00 -6.542032e+00 -3.515582e+00 -1.326103e+01 -6.094378e+00 -1.221700e+01 -3.098328e+00 8.338513e-01 3.122069e-01 -1.252845e+00 -9.888588e+00 7.034933e+01 3.619348e-01 3.850872e-01 2.764098e-01 1.735855e+00 2.889269e-01 -6.997437e-01 -1.357480e-01 -9.064308e-01 3.264752e-01 2.014333e-01 -3.977024e-01 7.579579e-01 -1.417287e+00 -2.096991e-01 9.968128e-02 1.864389e-01 -1.998629e-01 1.310378e-01 2.745873e-01 -1.438328e-02 2.065920e-01 -3.518585e-01 -2.151162e-01 5.779915e-02 6.676404e-02 -1.359068e-01
<VARIANCE> 39
 1.579713e+01 2.981478e+01 5.463309e+01 4.113517e+01 5.386198e+01 6.416977e+01 5.784998e+01 9.653803e+01 6.412876e+01 4.756940e+01 5.264320e+01 4.304392e+01 3.234582e+01 2.092211e+00 2.241039e+00 2.955141e+00 4.438897e+00 4.971252e+00 4.876793e+00 3.852689e+00 5.364353e+00 5.000103e+00 4.051910e+00 4.047666e+00 3.427996e+00 2.570422e+00 2.981287e-01 3.217375e-01 3.777062e-01 5.299762e-01 6.123435e-01 6.234681e-01 6.857994e-01 8.639647e-01 7.760890e-01 6.399243e-01 5.921203e-01 5.353516e-01 5.002592e-01
<GCONST> 1.304888e+02
<STATE> 3
<MEAN> 39
 1.125580e+00 -8.051568e+00 -6.397716e+00 8.849744e-01 -1.247186e+01 -6.026498e+00 -1.262501e+01 -6.129086e+00 1.299253e+00 -7.989399e-01 -1.070079e+00 -7.701416e+00 6.650029e+01 -8.869156e-02 3.902703e-01 5.624056e-01 3.106577e-01 3.191369e-01 -7.436433e-02 -9.422320e-02 8.989844e-02 -5.967544e-01 -2.249351e-01 -2.918383e-02 4.281360e-01 -8.658062e-01 -1.541855e-01 3.089450e-03 1.336419e-01 -5.079043e-01 -4.303351e-02 2.174170e-01 1.094542e-01 2.670130e-01 -2.984885e-01 -8.387176e-02 1.091835e-01 -1.530344e-01 1.582842e-01
<VARIANCE> 39
 1.872490e+01 2.239075e+01 7.281002e+01 3.520920e+01 6.522370e+01 5.665620e+01 5.272707e+01 7.618455e+01 4.849485e+01 4.008343e+01 4.717872e+01 3.617318e+01 3.727305e+01 1.934611e+00 2.239993e+00 3.090882e+00 2.754417e+00 4.787848e+00 3.871160e+00 3.658133e+00 4.434903e+00 4.251633e+00 3.298040e+00 3.441399e+00 2.686523e+00 2.804336e+00 3.755640e-01 4.457096e-01 5.109308e-01 6.180847e-01 1.069841e+00 7.775547e-01 7.228933e-01 8.817195e-01 8.469083e-01 6.793867e-01 7.372707e-01 5.532060e-01 6.339043e-01
<GCONST> 1.304411e+02
<STATE> 4
<MEAN> 39
 -4.582355e+00 -4.427512e+00 -2.800302e+00 -9.950070e-01 -6.646508e+00 -5.109385e+00 -8.829363e+00 -2.247592e+00 -1.346928e+00 -1.265656e+00 -2.370184e+00 -5.007844e+00 5.505120e+01 -1.681653e-01 1.140508e-01 2.607506e-01 -1.528975e-01 -4.185699e-02 1.571849e-01 4.486569e-02 1.802654e-01 -4.625789e-01 -1.143800e-01 1.342388e-01 2.939673e-02 -3.513668e-01 1.126659e-01 -1.403951e-01 -6.168697e-02 -1.333667e-01 -2.548856e-01 1.407705e-01 -6.079389e-02 5.776099e-02 -6.375467e-02 4.015713e-03 1.038890e-01 -1.921360e-01 2.482821e-01
<VARIANCE> 39
 4.357121e+01 4.043180e+01 5.314124e+01 3.450077e+01 5.414793e+01 5.662870e+01 4.840180e+01 5.126317e+01 4.133905e+01 3.684465e+01 3.847384e+01 3.646236e+01 1.684654e+02 2.671567e+00 3.203925e+00 3.088486e+00 2.293379e+00 3.927427e+00 3.400885e+00 3.228157e+00 3.659873e+00 3.636235e+00 2.850054e+00 2.893218e+00 2.630875e+00 4.907073e+00 5.065954e-01 4.943238e-01 4.953689e-01 5.326574e-01 7.615067e-01 6.923098e-01 6.161618e-01 7.218001e-01 6.690195e-01 5.764773e-01 5.812417e-01 5.386251e-01 5.990660e-01
<GCONST> 1.305423e+02
<TRANSP> 5
 0.000000e+00 1.000000e+00 0.000000e+00 0.000000e+00 0.000000e+00
 0.000000e+00 4.077857e-01 5.922143e-01 0.000000e+00 0.000000e+00
 0.000000e+00 0.000000e+00 5.520216e-01 4.479784e-01 0.000000e+00
 0.000000e+00 0.000000e+00 0.000000e+00 6.704805e-01 3.295195e-01
 0.000000e+00 0.000000e+00 0.000000e+00 0.000000e+00 0.000000e+00
<ENDHMM>
~h "s"
<BEGINHMM>
<NUMSTATES> 5
<STATE> 2
<MEAN> 39
 -1.271975e+01 3.247539e+00 -4.671967e-01 -2.068437e+00 -3.374720e+00 -7.343913e+00 -6.030900e+00 -2.121050e+00 -3.186285e+00 -2.653235e+00 -4.208673e+00 -2.802140e+00 6.246653e+01 -4.013771e+00 1.603592e+00 -4.592384e-01 5.204228e-01 1.506902e+00 -2.688091e-01 1.209337e+00 3.973038e-01 4.300561e-01 -4.428586e-01 4.495108e-01 9.726451e-01 -3.483130e-01 -1.852896e-01 -5.339400e-01 -2.897176e-01 -2.380396e-01 -3.994904e-01 2.642040e-01 -2.479342e-01 2.086944e-02 -1.185731e-01 6.378773e-02 2.745117e-01 -1.407040e-01 3.503030e-02
<VARIANCE> 39
 7.033788e+01 4.554110e+01 4.699381e+01 3.250489e+01 4.796084e+01 4.394069e+01 6.221046e+01 4.904109e+01 3.923241e+01 3.437021e+01 4.088265e+01 3.125310e+01 9.433040e+01 4.006389e+00 5.583191e+00 3.549544e+00 3.324775e+00 4.527648e+00 4.447096e+00 4.238024e+00 5.048643e+00 3.575113e+00 3.239416e+00 3.491966e+00 2.934187e+00 3.136045e+00 9.792924e-01 8.852762e-01 4.143334e-01 5.032492e-01 6.726304e-01 6.304331e-01 7.317067e-01 6.803815e-01 6.195577e-01 5.721537e-01 5.757170e-01 4.999322e-01 2.909324e-01
<GCONST> 1.324410e+02
<STATE> 3
<MEAN> 39
 -2.807770e+01 3.711688e+00 -6.049198e+00 -2.080467e+00 -2.489499e+00 -6.361981e+00 -3.415731e+00 -8.344375e-01 -2.316164e+00 -2.342615e+00 -5.331880e-01 -9.653296e-02 6.241789e+01 -6.768922e-01 -5.181980e-01 -4.899046e-01 -1.890089e-01 -2.557039e-01 8.838572e-02 8.016887e-02 5.153049e-02 1.207235e-01 1.135533e-01 1.777048e-01 1.727054e-01 -2.431289e-01 8.690725e-01 -1.285719e-01 2.707220e-01 -3.719988e-02 -1.614531e-01 -9.604520e-02 -1.666345e-01 -9.849800e-02 4.867724e-03 1.880410e-03 -1.917215e-01 -1.622204e-01 7.494345e-02
<VARIANCE> 39
 2.240232e+01 2.226638e+01 3.859897e+01 2.589818e+01 2.994883e+01 2.854761e+01 3.970957e+01 2.910701e+01 2.707299e+01 2.223393e+01 2.320928e+01 1.941561e+01 2.328753e+01 2.291849e+00 1.467568e+00 1.781155e+00 1.443483e+00 1.656856e+00 1.819675e+00 1.822880e+00 1.823925e+00 1.853762e+00 1.663371e+00 1.718606e+00 1.486299e+00 8.570497e-01 4.562895e-01 2.991802e-01 3.196528e-01 3.076675e-01 3.684275e-01 3.971322e-01 4.195660e-01 4.177059e-01 3.875589e-01 3.569143e-01 3.598126e-01 3.496567e-01 1.548487e-01
<GCONST> 1.067405e+02
<STATE> 4
<MEAN> 39
 -1.994748e+01 8.923767e-01 -4.232170e+00 -2.940150e+00 -4.286488e+00 -7.061442e+00 -4.894102e+00 -1.753901e+00 -1.506389e+00 -2.423974e+00 -2.446761e+00 -1.204844e+00 5.801737e+01 3.747828e+00 -5.523191e-01 8.148695e-01 -2.443794e-01 -9.345759e-01 -1.265445e-01 -1.311441e+00 -6.918020e-01 -9.370591e-02 6.277496e-02 -5.752190e-01 -1.123886e+00 4.734892e-01 6.610930e-01 -1.234160e-01 1.200404e-01 -4.867923e-02 -2.163331e-01 2.219209e-01 -3.630809e-01 -1.001528e-01 -1.304904e-01 2.671928e-02 1.383474e-01 -2.959113e-01 2.829972e-01
<VARIANCE> 39
 7.229653e+01 2.941896e+01 4.223727e+01 2.768419e+01 3.151985e+01 3.687328e+01 4.527705e+01 3.498923e+01 3.035794e+01 2.519476e+01 2.886479e+01 2.488618e+01 1.225375e+02 8.710779e+00 3.468326e+00 4.366169e+00 3.142928e+00 3.449127e+00 4.213492e+00 4.552094e+00 4.509042e+00 3.692316e+00 2.951480e+00 3.012832e+00 3.226322e+00 5.287838e+00 1.259937e+00 5.843711e-01 5.393419e-01 4.782273e-01 5.715701e-01 6.964611e-01 7.686304e-01 7.759947e-01 6.164248e-01 5.286900e-01 5.937434e-01 5.306260e-01 4.946597e-01
<GCONST> 1.308292e+02
<TRANSP> 5
 0.000000e+00 1.000000e+00 0.000000e+00 0.000000e+00 0.000000e+00
 0.000000e+00 7.548052e-01 2.451948e-01 0.000000e+00 0.000000e+00
 0.000000e+00 0.000000e+00 8.366858e-01 1.633142e-01 0.000000e+00
 0.000000e+00 0.000000e+00 0.000000e+00 7.392453e-01 2.607547e-01
 0.000000e+00 0.000000e+00 0.000000e+00 0.000000e+00 0.000000e+00
<ENDHMM>
~h "t"
<BEGINHMM>
<NUMSTATES> 5
<STATE> 2
<MEAN> 39
 -6.237442e+00 3.919892e-01 -2.572406e+00 -2.523958e+00 -5.947692e+00 -5.215820e+00 -7.505116e+00 -3.568405e+00 -2.416831e+00 -1.904422e+00 -3.755663e+00 -4.822765e+00 4.358245e+01 -4.348657e-01 2.847687e-01 -6.872953e-02 8.567917e-02 1.109104e-01 -3.679040e-02 2.829470e-01 2.390289e-03 -1.115327e-02 -5.552021e-02 2.103033e-02 3.100027e-01 -1.651632e+00 -1.396587e-01 -2.370077e-01 -4.024527e-02 -1.299478e-01 -4.270504e-02 1.710561e-02 -1.561167e-02 4.859952e-02 -1.733489e-02 6.448505e-03 8.543541e-02 2.889920e-02 5.277377e-01
<VARIANCE> 39
 3.808619e+01 3.222624e+01 3.580926e+01 3.112851e+01 3.481034e+01 3.730863e+01 4.206121e+01 4.112830e+01 3.503977e+01 3.057302e+01 3.355611e+01 3.574385e+01 8.948835e+01 1.311619e+00 1.625239e+00 1.415821e+00 1.715165e+00 2.067277e+00 2.021686e+00 2.236273e+00 2.305394e+00 2.190529e+00 2.189536e+00 2.126083e+00 1.810416e+00 4.538855e+00 2.851956e-01 3.912175e-01 3.162447e-01 4.054768e-01 4.411856e-01 4.190870e-01 4.524779e-01 4.744814e-01 4.550156e-01 4.373957e-01 4.325105e-01 3.622689e-01 6.556594e-01
<GCONST> 1.167707e+02
<STATE> 3
<MEAN> 39
 -6.900400e+00 2.932135e+00 -6.338338e-01 -1.833633e+00 -7.127319e+00 -6.513311e+00 -8.322664e+00 -5.434817e+00 -3.476540e+00 -1.622613e+00 -3.143182e+00 -4.083233e+00 4.179420e+01 -1.867714e+00 -1.525599e+00 -6.662580e-01 -8.467642e-01 4.646321e-01 -8.720072e-02 5.158597e-01 4.019833e-01 1.628850e-01 -2.492777e-01 3.635230e-01 7.686830e-01 2.218198e+00 1.451408e-01 -6.130067e-01 -1.387657e-01 -3.628466e-01 -2.482423e-01 2.983322e-02 -2.414329e-01 7.118073e-02 8.991678e-02 -1.442890e-03 4.939191e-02 -2.468225e-01 2.154907e+00
<VARIANCE> 39
 3.719097e+01 3.043922e+01 4.570673e+01 4.016209e+01 4.120136e+01 4.157385e+01 4.005401e+01 4.237531e+01 4.079081e+01 3.100754e+01 3.342696e+01 2.903763e+01 7.026647e+01 3.597184e+00 4.285237e+00 4.117892e+00 3.637482e+00 4.258351e+00 4.110023e+00 3.852574e+00 4.135771e+00 4.084781e+00 3.394848e+00 3.357397e+00 2.926237e+00 1.720818e+01 7.924210e-01 6.459380e-01 6.943386e-01 6.833453e-01 8.277538e-01 7.946457e-01 7.487441e-01 8.331856e-01 8.105714e-01 6.626045e-01 6.709950e-01 5.945554e-01 1.420705e+00
<GCONST> 1.347169e+02
<STATE> 4
<MEAN> 39
 -1.313402e+01 -5.678936e+00 -4.110346e+00 -6.099339e+00 -5.999276e+00 -7.261656e+00 -6.937350e+00 -3.303446e+00 -2.388136e+00 -2.872781e+00 -2.518440e+00 -2.071818e+00 6.099464e+01 1.038635e+00 -1.386880e+00 -2.916752e-01 -1.136977e+00 -1.012607e+00 -2.884836e-02 -1.269440e+00 3.454113e-02 3.451428e-01 -1.191642e-02 2.723223e-01 -1.240680e+00 6.429327e+00 1.296964e+00 4.526312e-01 3.771687e-01 1.711745e-01 -6.051511e-01 4.629453e-01 -6.342716e-01 -1.223649e-01 -1.036422e-01 1.254213e-01 1.291850e-01 -7.298554e-01 -6.218473e-01
<VARIANCE> 39
 2.497939e+01 2.391148e+01 3.256472e+01 2.661944e+01 3.118437e+01 3.501077e+01 3.588672e+01 2.913656e+01 3.239722e+01 2.618013e+01 2.616193e+01 2.370360e+01 8.045099e+01 5.724374e+00 4.784941e+00 6.827384e+00 4.766086e+00 5.618356e+00 5.945037e+00 5.196040e+00 5.982679e+00 6.600932e+00 4.080635e+00 4.654722e+00 4.578454e+00 1.224422e+01 6.818013e-01 7.931601e-01 1.016860e+00 7.253286e-01 9.212473e-01 1.082734e+00 9.263878e-01 1.151163e+00 8.909621e-01 7.858019e-01 8.240853e-01 7.047507e-01 1.564760e+00
<GCONST> 1.376293e+02
<TRANSP> 5
 0.000000e+00 1.000000e+00 0.000000e+00 0.000000e+00 0.000000e+00
 0.000000e+00 8.353300e-01 1.646700e-01 0.000000e+00 0.000000e+00
 0.000000e+00 0.000000e+00 6.195633e-01 3.804367e-01 0.000000e+00
 0.000000e+00 0.000000e+00 0.000000e+00 5.188370e-01 4.811630e-01
 0.000000e+00 0.000000e+00 0.000000e+00 0.000000e+00 0.000000e+00
<ENDHMM>
~h "u"
<BEGINHMM>
<NUMSTATES> 5
<STATE> 2
<MEAN> 39
 -2.346877e-01 5.396999e-01 -3.113150e+00 -7.520839e+00 -1.123888e+01 -2.432375e+00 -1.480793e+01 -8.004222e+00 -6.535806e+00 -2.601044e+00 5.886046e-01 -5.902282e+00 6.251789e+01 2.135832e+00 5.917808e-01 -4.356101e-01 -1.681086e+00 -1.953302e+00 1.989625e+00 -1.617328e+00 -1.247730e+00 -7.772346e-01 -2.954788e-02 1.831771e+00 -8.310098e-01 1.457998e+00 -2.542314e-01 5.418964e-02 1.274587e-01 -9.816797e-02 -3.629399e-02 4.239689e-01 3.017374e-01 1.121068e-01 -8.733334e-02 -3.718093e-02 7.258252e-02 6.459403e-02 -4.639640e-01
<VARIANCE> 39
 3.337723e+01 3.914154e+01 4.493745e+01 8.252018e+01 5.820707e+01 7.111735e+01 7.549049e+01 7.134897e+01 5.503268e+01 4.693727e+01 4.401699e+01 3.824571e+01 1.121935e+02 5.402041e+00 3.324868e+00 4.934209e+00 5.868633e+00 6.851087e+00 5.718671e+00 5.970840e+00 7.720382e+00 5.487453e+00 5.155291e+00 4.932862e+00 4.305570e+00 5.494124e+00 7.869046e-01 5.893527e-01 5.557003e-01 1.003891e+00 8.599550e-01 8.926827e-01 1.111991e+00 9.478291e-01 8.808551e-01 7.553762e-01 6.944636e-01 7.073773e-01 1.242360e+00
<GCONST> 1.433860e+02
<STATE> 3
<MEAN> 39
 2.853690e+00 -2.166454e-01 -3.980588e+00 -1.069336e+01 -1.575576e+01 5.099073e+00 -1.859072e+01 -1.214282e+01 -8.527090e+00 -3.073359e+00 7.303230e+00 -7.397518e+00 6.788284e+01 3.528114e-01 3.469263e-01 -8.909489e-03 -8.610052e-01 -5.020438e-01 1.248707e+00 -1.764807e-01 -7.949051e-02 -4.980960e-01 -2.170233e-01 6.198319e-01 -8.235190e-02 -7.305915e-02 -4.450233e-01 4.373880e-02 2.805698e-01 5.739086e-01 6.262643e-01 -8.011492e-01 5.953352e-01 4.860827e-01 2.556638e-01 -1.955529e-02 -9.136007e-01 1.994429e-01 -5.717517e-01
<VARIANCE> 39
 1.338326e+01 3.129260e+01 3.940143e+01 7.387846e+01 5.210793e+01 6.917290e+01 7.059138e+01 9.287676e+01 7.064449e+01 6.128112e+01 4.483039e+01 4.186013e+01 1.989376e+01 1.102992e+00 2.528089e+00 2.248291e+00 5.535050e+00 4.292226e+00 5.724636e+00 4.859434e+00 5.076896e+00 5.017958e+00 4.308430e+00 4.534766e+00 3.147930e+00 1.959978e+00 3.966277e-01 4.501595e-01 4.481148e-01 7.470289e-01 8.375530e-01 7.738343e-01 9.255038e-01 1.095072e+00 9.552619e-01 9.018896e-01 6.926324e-01 7.310737e-01 3.574662e-01
<GCONST> 1.328329e+02
<STATE> 4
<MEAN> 39
 3.648624e+00 3.266198e+00 -4.061246e+00 -1.442335e+01 -1.590066e+01 5.959236e+00 -1.573607e+01 -8.610650e+00 -9.728654e+00 -4.850115e+00 3.280927e+00 -6.728742e+00 6.417372e+01 -1.268585e-01 -5.772263e-02 3.037507e-01 7.199364e-01 6.123485e-01 -6.117314e-01 4.804902e-01 3.440289e-02 3.654650e-01 3.819475e-01 -7.018504e-01 -7.730078e-03 -7.372342e-01 -1.561686e-01 -1.104461e-01 1.194594e-01 3.747957e-01 2.242710e-01 -2.838688e-01 1.265188e-01 -4.274209e-02 1.500743e-01 1.330761e-01 -1.948121e-01 1.274461e-02 -1.730226e-01
<VARIANCE> 39
 1.269315e+01 4.014323e+01 3.794310e+01 7.111609e+01 5.184059e+01 6.405180e+01 5.755623e+01 7.734714e+01 6.076532e+01 6.332767e+01 5.203327e+01 4.116183e+01 4.328077e+01 7.649314e-01 2.353692e+00 1.798820e+00 3.444372e+00 3.145240e+00 3.151872e+00 3.167066e+00 3.971271e+00 3.053356e+00 3.427189e+00 3.737095e+00 2.744469e+00 3.036690e+00 1.556341e-01 3.265025e-01 2.818154e-01 4.519002e-01 4.984467e-01 5.043452e-01 5.551783e-01 6.689304e-01 5.438954e-01 6.186778e-01 6.028483e-01 5.137265e-01 2.602319e-01
<GCONST> 1.240176e+02
<TRANSP> 5
 0.000000e+00 1.000000e+00 0.000000e+00 0.000000e+00 0.000000e+00
 0.000000e+00 4.850229e-01 5.149772e-01 0.000000e+00 0.000000e+00
 0.000000e+00 0.000000e+00 5.948995e-01 4.051004e-01 0.000000e+00
 0.000000e+00 0.000000e+00 0.000000e+00 7.834382e-01 2.165618e-01
 0.000000e+00 0.000000e+00 0.000000e+00 0.000000e+00 0.000000e+00
<ENDHMM>
~h "w"
<BEGINHMM>
<NUMSTATES> 5
<STATE> 2
<MEAN> 39
 -1.050160e+00 -1.472099e+00 -4.023140e+00 -9.145554e+00 -1.037798e+01 3.120045e+00 -1.059868e+01 -4.175631e+00 -5.392582e+00 -2.312447e+00 7.859063e-01 -6.649636e+00 5.675027e+01 8.826172e-01 5.150198e-01 -1.009086e-01 -1.068115e+00 -6.856384e-01 8.785313e-01 -1.476482e-01 -2.055146e-01 -5.345349e-01 -2.164901e-01 6.064248e-01 1.479596e-01 3.225034e-01 -1.147345e-01 -1.017222e-01 1.020932e-01 -5.688412e-02 -9.642791e-02 -5.502653e-02 8.408985e-02 1.603502e-01 5.469702e-02 -8.585332e-02 -4.428701e-02 2.915807e-02 1.037150e-01
<VARIANCE> 39
 5.914814e+01 6.052977e+01 5.295162e+01 7.953018e+01 7.675063e+01 7.043091e+01 7.132033e+01 5.869936e+01 7.024302e+01 4.726951e+01 5.607284e+01 4.391988e+01 1.908792e+02 2.842317e+00 2.709117e+00 3.193304e+00 4.391071e+00 4.577890e+00 4.233821e+00 3.964344e+00 3.936289e+00 3.781778e+00 3.408053e+00 3.595085e+00 2.936086e+00 5.137272e+00 4.863135e-01 4.335023e-01 4.825945e-01 6.502807e-01 7.096225e-01 6.192614e-01 7.170162e-01 6.505117e-01 6.770033e-01 6.325009e-01 6.463973e-01 4.711649e-01 4.516826e-01
<GCONST> 1.361201e+02
<STATE> 3
<MEAN> 39
 6.192633e+00 -1.373415e-02 -4.526127e+00 -2.017896e+01 -1.781042e+01 9.277069e+00 -1.224289e+01 -3.360116e+00 -6.378334e+00 -4.849539e+00 3.866218e+00 -5.813700e+00 6.579940e+01 2.790035e-03 -2.472893e-01 -1.375241e-01 -5.690911e-01 -1.171044e-01 4.314171e-01 8.086479e-02 3.425596e-02 1.090641e-01 -4.160217e-02 2.216667e-01 1.097186e-01 3.304324e-01 -2.460351e-01 -4.592229e-01 -1.465142e-01 3.252550e-01 4.321148e-01 -4.994796e-02 -6.397953e-02 -6.983136e-02 1.893212e-01 3.278698e-01 -3.427230e-02 -3.202808e-01 2.595565e-01
<VARIANCE> 39
 1.040080e+01 3.676929e+01 3.136003e+01 5.451442e+01 5.004996e+01 4.591870e+01 3.962451e+01 5.815385e+01 6.160141e+01 5.023220e+01 4.116615e+01 3.300001e+01 2.385554e+01 4.533925e-01 2.496307e+00 1.267859e+00 1.761459e+00 2.329182e+00 2.187623e+00 1.785505e+00 1.792618e+00 2.008828e+00 2.414745e+00 2.265310e+00 1.908160e+00 1.606282e+00 7.517707e-02 1.672624e-01 1.827076e-01 2.671013e-01 3.385669e-01 4.167579e-01 3.380101e-01 3.615896e-01 4.027312e-01 3.700866e-01 4.143089e-01 3.792440e-01 1.214854e-01
<GCONST> 1.088911e+02
<STATE> 4
<MEAN> 39
 3.274711e+00 -8.121654e+00 -8.529238e+00 -1.963501e+01 -1.164337e+01 1.197655e+01 -1.217056e+01 -4.422462e+00 -5.296795e+00 7.479657e-02 5.735339e+00 -1.016916e+01 7.133343e+01 -9.677085e-01 -2.148329e+00 -3.889412e-01 1.501718e+00 1.814445e+00 -5.742700e-01 -5.045760e-01 1.586709e-01 1.184020e+00 9.350786e-01 -9.442410e-01 -1.930250e+00 1.298945e+00 -6.823153e-02 1.670005e-01 3.670532e-01 4.835178e-01 -2.124595e-01 -6.948694e-01 -2.058328e-02 3.830168e-01 1.646992e-01 -4.126565e-01 -5.873009e-01 6.638347e-02 -2.159145e-01
<VARIANCE> 39
 1.278170e+01 3.798896e+01 3.266010e+01 6.141820e+01 4.360379e+01 6.134115e+01 4.956781e+01 5.860904e+01 7.026472e+01 6.042171e+01 4.936194e+01 4.038021e+01 2.223622e+01 2.881194e-01 1.314665e+00 1.529179e+00 2.022935e+00 2.317883e+00 3.762940e+00 2.540137e+00 2.978335e+00 2.593013e+00 2.687690e+00 3.473700e+00 1.982560e+00 6.230549e-01 8.149801e-02 2.041038e-01 1.903065e-01 3.144302e-01 5.071370e-01 3.980322e-01 3.933081e-01 4.575723e-01 4.093883e-01 4.836833e-01 4.428176e-01 5.663299e-01 1.003581e-01
<GCONST> 1.126018e+02
<TRANSP> 5
 0.000000e+00 1.000000e+00 0.000000e+00 0.000000e+00 0.000000e+00
 0.000000e+00 7.844028e-01 2.155972e-01 0.000000e+00 0.000000e+00
 0.000000e+00 0.000000e+00 7.986710e-01 2.013290e-01 0.000000e+00
 0.000000e+00 0.000000e+00 0.000000e+00 6.556997e-01 3.443004e-01
 0.000000e+00 0.000000e+00 0.000000e+00 0.000000e+00 0.000000e+00
<ENDHMM>
~h "y"
<BEGINHMM>
<NUMSTATES> 5
<STATE> 2
<MEAN> 39
 -8.897985e+00 -3.572550e-01 4.331756e+00 -2.933437e+00 -8.835454e+00 -3.873887e+00 -7.142661e+00 -9.080708e-01 -6.122246e+00 -3.320457e+00 -4.391302e-01 -3.482092e+00 4.811206e+01 5.241339e-03 2.198106e-01 9.831041e-01 -1.091456e-01 -6.257592e-01 -7.177015e-02 -6.122391e-01 6.363751e-02 -3.903542e-01 -2.436444e-01 5.825922e-01 7.881285e-02 5.850110e-01 6.524592e-02 -9.616328e-02 -4.773508e-02 -4.039655e-02 -3.714946e-02 3.283482e-02 -7.272559e-02 -9.789366e-03 1.307144e-02 -1.531885e-02 1.300226e-02 -1.914680e-02 1.841567e-01
<VARIANCE> 39
 2.890010e+01 5.177354e+01 7.932997e+01 3.334039e+01 7.318502e+01 4.971533e+01 6.000998e+01 4.825749e+01 4.778534e+01 3.886765e+01 3.307378e+01 3.162767e+01 1.935334e+02 2.089969e+00 2.523460e+00 4.199328e+00 2.059243e+00 3.830432e+00 3.040445e+00 4.039183e+00 3.114047e+00 3.317305e+00 3.093119e+00 2.921254e+00 2.251077e+00 5.221664e+00 3.281650e-01 4.059673e-01 5.590000e-01 3.799952e-01 6.268086e-01 5.790107e-01 6.192508e-01 5.346818e-01 5.636837e-01 5.026062e-01 4.687390e-01 3.924703e-01 4.397076e-01
<GCONST> 1.279957e+02
<STATE> 3
<MEAN> 39
 -5.333016e+00 -2.749636e+00 1.582833e+01 -6.407239e+00 -2.175458e+01 -6.685106e+00 -1.719981e+01 -3.182141e-01 -1.014729e+01 -6.660604e+00 6.811201e+00 -4.363741e+00 6.988274e+01 7.785385e-02 -6.351835e-01 -2.637524e-01 -2.388205e-01 -6.446632e-01 -3.624063e-01 4.425520e-02 3.781095e-01 2.985295e-01 3.032689e-01 3.586034e-01 8.269453e-02 7.978217e-01 8.960231e-02 -3.379650e-01 -7.259839e-01 -1.295689e-02 2.940316e-01 3.733481e-02 4.242883e-01 4.154664e-01 3.849457e-01 1.334565e-01 -4.553680e-01 -2.352958e-01 -1.908145e-02
<VARIANCE> 39
 1.385084e+01 4.439067e+01 5.264610e+01 3.815071e+01 3.269286e+01 5.718865e+01 5.544173e+01 6.506678e+01 4.940014e+01 6.533183e+01 3.136011e+01 3.204409e+01 2.425198e+01 5.651777e-01 2.587846e+00 3.557197e+00 1.276520e+00 1.961041e+00 1.910606e+00 3.032862e+00 3.454383e+00 2.889606e+00 2.191746e+00 1.857787e+00 1.525792e+00 1.754755e+00 9.671731e-02 1.815284e-01 2.505476e-01 2.103935e-01 4.727610e-01 3.961318e-01 5.123574e-01 4.142408e-01 3.894085e-01 4.405598e-01 3.883935e-01 2.876839e-01 2.005467e-01
<GCONST> 1.128504e+02
<STATE> 4
<MEAN> 39
 -3.618233e+00 -1.060825e+01 5.787433e+00 -9.049595e+00 -2.204210e+01 -8.634027e+00 -1.093105e+01 8.363159e+00 -4.161990e+00 -4.311666e+00 2.415220e+00 -6.578268e+00 7.472725e+01 5.066580e-01 -1.736364e+00 -2.776253e+00 -1.397980e-01 1.705074e+00 8.128773e-01 1.170781e+00 1.739516e+00 1.204351e+00 -3.896144e-01 -2.375442e+00 -1.011936e+00 6.621484e-01 -4.105641e-03 2.133532e-01 -1.482047e-02 1.373951e-01 6.860965e-01 4.957613e-01 -3.558466e-01 -6.147981e-01 -2.827566e-01 -1.797594e-01 -2.962145e-01 -8.226477e-02 -2.941158e-01
<VARIANCE> 39
 1.313374e+01 2.929350e+01 4.194556e+01 3.576900e+01 3.405633e+01 4.388673e+01 4.844841e+01 6.310894e+01 4.837215e+01 5.137697e+01 4.954641e+01 2.804287e+01 1.630480e+01 3.513844e-01 1.314653e+00 1.743515e+00 1.063635e+00 2.291641e+00 2.088820e+00 3.126759e+00 3.501883e+00 2.563401e+00 2.762566e+00 2.548061e+00 1.659728e+00 4.787750e-01 7.368045e-02 1.813440e-01 2.787565e-01 2.227236e-01 3.815872e-01 3.656989e-01 4.826086e-01 6.196821e-01 4.214221e-01 4.818981e-01 5.910630e-01 2.853159e-01 1.048316e-01
<GCONST> 1.086912e+02
<TRANSP> 5
 0.000000e+00 1.000000e+00 0.000000e+00 0.000000e+00 0.000000e+00
 0.000000e+00 8.473094e-01 1.526906e-01 0.000000e+00 0.000000e+00
 0.000000e+00 0.000000e+00 7.934312e-01 2.065689e-01 0.000000e+00
 0.000000e+00 0.000000e+00 0.000000e+00 6.748574e-01 3.251426e-01
 0.000000e+00 0.000000e+00 0.000000e+00 0.000000e+00 0.000000e+00
<ENDHMM>
~h "z"
<BEGINHMM>
<NUMSTATES> 5
<STATE> 2
<MEAN> 39
 -8.653003e+00 3.013683e+00 1.464000e+00 1.543026e-01 -5.406869e+00 -9.120985e+00 -9.679710e+00 -3.479217e+00 -3.589312e+00 -3.125543e+00 -2.797770e+00 -2.515548e+00 5.654524e+01 -1.438244e+00 1.655835e+00 -6.029243e-04 6.536775e-01 9.437104e-01 -4.490874e-01 6.304052e-01 -7.965889e-02 1.162715e-01 -1.377562e-01 -1.679092e-01 5.890963e-01 -2.475695e-02 -1.459093e-01 -1.030781e-01 -1.138371e-01 -1.103957e-01 -7.735446e-02 2.489380e-01 7.481588e-02 1.033077e-01 -1.460228e-02 2.713249e-02 1.025025e-01 -9.722497e-02 4.306633e-02
<VARIANCE> 39
 3.260174e+01 5.572276e+01 4.763734e+01 3.329025e+01 4.366190e+01 4.197897e+01 7.219199e+01 4.486863e+01 4.264001e+01 2.798788e+01 3.527256e+01 3.025499e+01 1.714148e+02 3.938759e+00 4.046474e+00 2.624006e+00 2.586000e+00 3.512125e+00 3.630313e+00 3.926716e+00 4.056472e+00 2.928464e+00 2.663220e+00 2.700923e+00 2.603875e+00 4.145452e+00 4.477234e-01 5.902688e-01 4.092723e-01 3.826236e-01 5.079885e-01 6.132531e-01 6.823466e-01 6.386483e-01 5.109856e-01 4.554455e-01 4.906370e-01 4.898323e-01 4.249961e-01
<GCONST> 1.278517e+02
<STATE> 3
<MEAN> 39
 -1.872451e+01 1.173154e+01 1.142584e+00 3.692522e+00 -2.841396e+00 -9.347917e+00 -7.222904e+00 -3.972065e+00 -3.589142e+00 -2.884839e+00 -2.442448e+00 -6.386991e-01 6.492041e+01 -9.639421e-01 9.201819e-03 -9.283458e-02 1.573108e-01 2.320636e-01 3.297242e-01 2.940539e-01 1.104029e-01 -2.911327e-02 4.366916e-02 2.300349e-01 1.635261e-01 -4.407234e-02 5.017841e-01 -4.566500e-01 1.257176e-01 -1.730427e-01 -3.529990e-01 -1.046216e-01 -2.362899e-01 -1.140835e-01 -2.299580e-02 -3.816732e-03 5.547712e-03 -5.981904e-02 1.797932e-01
<VARIANCE> 39
 4.120773e+01 2.958542e+01 4.241479e+01 3.750924e+01 3.615748e+01 3.730470e+01 4.973500e+01 3.514030e+01 2.565865e+01 1.995453e+01 2.567112e+01 1.934252e+01 2.403014e+01 1.412193e+00 1.576302e+00 1.425984e+00 1.222925e+00 1.608474e+00 1.695761e+00 1.754197e+00 1.738471e+00 1.679050e+00 1.495553e+00 1.446986e+00 1.319455e+00 7.525803e-01 2.693630e-01 3.032335e-01 2.481482e-01 2.630371e-01 3.569951e-01 3.832580e-01 3.725720e-01 3.571446e-01 3.495112e-01 3.324574e-01 2.989687e-01 2.874276e-01 1.346048e-01
<GCONST> 1.053593e+02
<STATE> 4
<MEAN> 39
 -1.502530e+01 6.503954e+00 2.651156e+00 1.654845e+00 -6.180799e+00 -1.070532e+01 -9.421584e+00 -5.227284e+00 -3.228815e+00 -2.587109e+00 -1.776628e+00 8.559252e-02 6.753699e+01 3.112091e+00 -2.323246e+00 2.843507e-01 -1.035495e+00 -2.426046e+00 -5.980914e-01 -1.671805e+00 -4.402181e-01 3.838769e-01 -1.200024e-01 2.355637e-01 -5.703476e-01 1.426166e+00 5.061192e-01 -3.600583e-01 -5.810709e-02 -2.247824e-01 -3.454640e-01 3.907923e-01 -2.452792e-01 1.796149e-01 1.133590e-01 -5.083074e-02 1.535642e-01 -4.595726e-01 4.662156e-02
<VARIANCE> 39
 6.002310e+01 3.235466e+01 4.963803e+01 2.996425e+01 4.066107e+01 3.806185e+01 5.273069e+01 3.829583e+01 3.714092e+01 2.115518e+01 2.495214e+01 1.918361e+01 3.150847e+01 3.677843e+00 4.233688e+00 2.716406e+00 3.226445e+00 2.897235e+00 4.010833e+00 3.379947e+00 4.881580e+00 4.144773e+00 2.500206e+00 2.275365e+00 2.569890e+00 1.592986e+00 9.404919e-01 5.218398e-01 2.915609e-01 3.809489e-01 5.696670e-01 7.687449e-01 6.622214e-01 7.565690e-01 5.427058e-01 3.922514e-01 4.349186e-01 4.006269e-01 2.219725e-01
<GCONST> 1.233126e+02
<TRANSP> 5
 0.000000e+00 1.000000e+00 0.000000e+00 0.000000e+00 0.000000e+00
 0.000000e+00 8.189618e-01 1.810382e-01 0.000000e+00 0.000000e+00
 0.000000e+00 0.000000e+00 8.364865e-01 1.635134e-01 0.000000e+00
 0.000000e+00 0.000000e+00 0.000000e+00 7.212560e-01 2.787440e-01
 0.000000e+00 0.000000e+00 0.000000e+00 0.000000e+00 0.000000e+00
<ENDHMM>
~h "ai"
<BEGINHMM>
<NUMSTATES> 5
<STATE> 2
<MEAN> 39
 -4.955361e-01 -1.517984e+01 -5.613358e+00 -9.537496e+00 -1.170532e+01 1.951556e-01 -1.282732e+01 4.401159e+00 -4.797269e-01 -2.959536e+00 -2.932382e+00 -1.266991e+01 7.576387e+01 -2.194372e-01 -1.413791e+00 4.068014e-01 2.426900e-01 -6.634458e-01 -4.109966e-01 5.582414e-01 2.184013e+00 4.901673e-02 -1.313435e+00 -5.896829e-01 5.654836e-02 9.508359e-01 -2.616565e-01 5.629724e-01 4.610262e-01 2.117463e-01 -8.113874e-02 -3.358366e-01 3.012849e-01 -3.499975e-01 -4.553114e-01 3.780907e-02 1.944908e-01 5.962176e-01 -6.104995e-01
<VARIANCE> 39
 1.500480e+01 2.687767e+01 5.267835e+01 3.149997e+01 5.739786e+01 1.040149e+02 5.185917e+01 7.386904e+01 7.180792e+01 5.581654e+01 5.748482e+01 3.431899e+01 1.502280e+01 1.368135e+00 1.913015e+00 2.735623e+00 2.340733e+00 3.527928e+00 5.420388e+00 3.239406e+00 3.718450e+00 3.271993e+00 2.744930e+00 3.305727e+00 3.414812e+00 1.127849e+00 3.365084e-01 2.560205e-01 3.441370e-01 4.290177e-01 6.928604e-01 6.430639e-01 5.110325e-01 7.563258e-01 5.791818e-01 5.858495e-01 7.666440e-01 4.555582e-01 3.800561e-01
<GCONST> 1.244032e+02
<STATE> 3
<MEAN> 39
 -3.382093e+00 -1.458957e+01 2.225775e+00 -9.943531e+00 -1.900799e+01 -7.641033e+00 -9.059092e+00 8.164807e+00 -4.802584e+00 -5.998111e+00 7.305049e-01 -8.872603e+00 7.561891e+01 -2.170977e-01 8.364769e-01 1.496259e+00 -4.239506e-02 -1.304345e+00 -8.039090e-01 -9.303955e-02 -3.920414e-01 -1.016056e+00 4.403533e-01 1.122995e+00 3.844220e-01 -3.971428e-01 3.870869e-02 2.049926e-01 -1.647060e-02 4.976738e-02 1.847867e-01 1.001772e-01 -2.546055e-01 -3.859927e-01 -1.784918e-02 1.378698e-01 -3.438904e-03 -8.644185e-02 -1.555003e-01
<VARIANCE> 39
 1.445472e+01 3.271780e+01 5.718468e+01 2.882829e+01 5.779006e+01 6.716021e+01 3.489308e+01 6.629760e+01 5.916697e+01 5.532319e+01 5.699635e+01 2.538770e+01 1.104617e+01 1.785376e-01 8.298895e-01 1.302904e+00 7.185038e-01 1.842858e+00 1.750975e+00 1.920279e+00 2.936658e+00 1.560113e+00 1.796925e+00 2.064188e+00 1.530264e+00 1.824227e-01 3.713704e-02 1.213706e-01 1.702454e-01 1.498771e-01 3.296191e-01 3.042106e-01 2.782638e-01 4.518315e-01 2.634477e-01 3.530812e-01 3.956814e-01 2.448064e-01 3.690939e-02
<GCONST> 9.897977e+01
<STATE> 4
<MEAN> 39
 -3.634041e+00 -3.958383e+00 1.029961e+01 -5.633443e+00 -2.059821e+01 -8.564940e+00 -1.209854e+01 1.184924e+00 -1.053874e+01 -2.483948e+00 3.780535e+00 -6.639493e+00 6.395023e+01 1.529039e-01 8.685185e-01 -1.525581e-01 7.226809e-01 9.506058e-01 1.900916e-02 1.364381e-01 -7.719525e-01 -4.936383e-02 -8.009771e-02 -4.768486e-01 7.767802e-03 -1.549171e+00 3.769021e-02 4.974863e-03 -2.851198e-01 6.664413e-02 2.985246e-01 1.008768e-01 1.796793e-01 2.701914e-02 1.621514e-01 -1.263146e-02 -2.135099e-01 -3.231714e-02 -1.632043e-01
<VARIANCE> 39
 1.832463e+01 4.887711e+01 5.256930e+01 3.918085e+01 5.016409e+01 5.794270e+01 5.736492e+01 7.539095e+01 4.790650e+01 4.619398e+01 4.437531e+01 3.270375e+01 1.178699e+02 9.912860e-01 1.801429e+00 2.166236e+00 1.609600e+00 2.585901e+00 2.353878e+00 3.205201e+00 2.976507e+00 2.780905e+00 2.115577e+00 2.228195e+00 1.625458e+00 1.958609e+00 1.609124e-01 2.853696e-01 2.861561e-01 2.891181e-01 4.667107e-01 4.370386e-01 5.458484e-01 5.816282e-01 4.983162e-01 4.093606e-01 4.172478e-01 3.178820e-01 2.952589e-01
<GCONST> 1.186858e+02
<TRANSP> 5
 0.000000e+00 1.000000e+00 0.000000e+00 0.000000e+00 0.000000e+00
 0.000000e+00 7.150956e-01 2.849044e-01 0.000000e+00 0.000000e+00
 0.000000e+00 0.000000e+00 8.464351e-01 1.535649e-01 0.000000e+00
 0.000000e+00 0.000000e+00 0.000000e+00 8.619019e-01 1.380981e-01
 0.000000e+00 0.000000e+00 0.000000e+00 0.000000e+00 0.000000e+00
<ENDHMM>
~h "au"
<BEGINHMM>
<NUMSTATES> 5
<STATE> 2
<MEAN> 39
 -7.108856e-01 -1.126345e+01 -1.116345e+01 -1.379732e+01 -1.018749e+01 4.795588e+00 -1.257157e+01 -3.636461e+00 1.583866e+00 -1.418340e-01 -1.434623e+00 -1.329401e+01 7.479726e+01 5.585412e-01 -7.695354e-01 -1.048067e+00 -1.132675e+00 3.726825e-01 2.275205e+00 -2.386408e-01 1.529309e-01 2.291703e-01 -2.831993e-02 4.492643e-01 -1.404819e+00 1.040231e+00 -2.844167e-01 5.438985e-01 4.493442e-01 1.218875e-01 1.630696e-01 -2.687903e-01 1.795550e-01 -3.615932e-01 -4.572458e-01 -5.552600e-02 2.471770e-01 6.654895e-01 -8.892883e-01
<VARIANCE> 39
 1.471748e+01 2.331306e+01 4.033434e+01 4.520489e+01 4.868856e+01 7.975742e+01 4.465858e+01 8.463641e+01 5.195271e+01 5.842953e+01 4.763461e+01 3.460836e+01 1.933596e+01 2.658798e+00 2.530173e+00 2.148628e+00 2.948287e+00 3.846845e+00 4.001337e+00 3.182390e+00 4.138550e+00 3.341925e+00 3.430249e+00 4.542148e+00 3.809035e+00 2.400428e+00 3.972488e-01 2.641572e-01 3.342289e-01 7.357005e-01 5.749174e-01 6.584030e-01 7.044972e-01 7.198588e-01 5.201117e-01 6.270983e-01 6.577581e-01 4.660894e-01 5.989153e-01
<GCONST> 1.270200e+02
<STATE> 3
<MEAN> 39
 2.729699e-01 -8.893832e+00 -1.185772e+01 -2.064376e+01 -9.772233e+00 1.063990e+01 -1.198348e+01 -5.589078e+00 -2.206998e+00 -1.226364e+00 2.697130e+00 -1.127965e+01 7.370088e+01 4.284275e-01 1.039923e+00 2.357555e-01 -8.920799e-01 -5.328114e-01 1.965107e-01 -4.458868e-02 -1.086678e-01 -8.450355e-01 -8.933700e-02 6.001712e-01 8.561651e-01 -6.714875e-01 4.028364e-02 1.385561e-01 1.392899e-01 1.737442e-01 -1.180146e-01 -2.831417e-01 -5.424299e-02 5.808471e-02 -7.542716e-02 -2.746722e-02 -1.700014e-01 1.009890e-01 -1.643985e-01
<VARIANCE> 39
 1.820311e+01 3.509571e+01 3.574163e+01 5.453025e+01 4.275491e+01 4.685310e+01 3.601413e+01 5.143665e+01 5.799752e+01 6.063651e+01 5.504047e+01 4.819958e+01 1.430785e+01 2.255924e-01 7.914870e-01 6.056558e-01 1.133047e+00 1.334072e+00 1.491127e+00 1.279984e+00 1.653077e+00 1.600908e+00 1.828739e+00 2.052536e+00 1.833006e+00 2.542529e-01 4.642898e-02 1.141080e-01 1.078241e-01 2.282389e-01 2.249731e-01 2.483594e-01 2.192385e-01 2.783266e-01 2.704194e-01 3.205905e-01 3.453811e-01 3.334274e-01 4.385135e-02
<GCONST> 9.755589e+01
<STATE> 4
<MEAN> 39
 3.398025e+00 9.390308e-01 -7.461095e+00 -1.915351e+01 -1.325829e+01 5.827503e+00 -1.295990e+01 -5.124286e+00 -7.456433e+00 -1.497839e+00 1.634669e+00 -6.163497e+00 6.208051e+01 -1.098470e-01 5.868859e-01 7.323338e-01 1.661243e+00 5.067270e-01 -1.216524e+00 9.100779e-02 -1.125887e-01 -2.104901e-01 -5.744302e-02 -6.555156e-01 4.473554e-02 -1.707349e+00 -1.883377e-01 -1.543993e-01 8.549284e-02 3.156568e-01 2.478433e-01 -9.964700e-02 1.413848e-01 -2.454901e-02 1.681414e-01 8.745574e-03 -1.076559e-01 -7.949395e-02 -5.196891e-02
<VARIANCE> 39
 1.700856e+01 4.522993e+01 4.640326e+01 8.067001e+01 4.975003e+01 6.906290e+01 6.255495e+01 5.622308e+01 6.285627e+01 6.313445e+01 5.327438e+01 4.136894e+01 8.187593e+01 1.181241e+00 2.081031e+00 1.956788e+00 3.314296e+00 3.342950e+00 3.634200e+00 3.173804e+00 2.866061e+00 3.405138e+00 3.529515e+00 3.034554e+00 2.488302e+00 2.367150e+00 1.890716e-01 3.374580e-01 3.336069e-01 5.506811e-01 5.599239e-01 6.361066e-01 5.629801e-01 5.395247e-01 6.194888e-01 6.568663e-01 5.781754e-01 5.318781e-01 4.113425e-01
<GCONST> 1.264540e+02
<TRANSP> 5
 0.000000e+00 1.000000e+00 0.000000e+00 0.000000e+00 0.000000e+00
 0.000000e+00 6.751891e-01 3.248110e-01 0.000000e+00 0.000000e+00
