~o
<STREAMINFO> 1 39
<VECSIZE> 39<NULLD><MFCC_D_A_0><DIAGC>
~s "silst"
<MEAN> 39
 -1.020446e+01 -6.961145e-01 -1.240465e+00 8.102576e-01 -2.530922e+00 -2.673943e+00 -2.591215e+00 -4.435605e-01 -2.793056e+00 -2.604007e+00 -1.558201e+00 -1.001862e+00 3.881073e+01 -6.539337e-03 2.117407e-01 9.004478e-04 6.992242e-02 4.685218e-02 -1.022250e-02 9.746923e-02 2.600773e-02 9.926108e-03 -3.217315e-02 8.242443e-02 7.461466e-02 -2.791829e-01 -4.569971e-03 -1.840341e-02 -8.662452e-04 -6.680968e-02 8.640393e-04 7.885714e-03 -3.423507e-02 -4.627252e-02 1.621378e-02 3.247954e-02 -6.159876e-03 -3.395559e-02 4.854805e-02
<VARIANCE> 39
 9.631320e+00 2.342817e+01 2.037391e+01 2.727425e+01 1.897803e+01 2.607599e+01 2.302927e+01 3.668997e+01 2.642973e+01 2.742060e+01 2.490572e+01 2.432507e+01 3.036587e+01 4.002244e-01 9.395071e-01 9.699009e-01 1.420456e+00 1.357628e+00 1.739350e+00 1.638334e+00 2.380521e+00 1.959122e+00 2.042703e+00 1.685348e+00 1.786696e+00 3.691135e-01 6.853105e-02 1.503781e-01 1.740681e-01 2.637799e-01 2.619734e-01 3.280701e-01 3.178243e-01 4.574985e-01 3.899570e-01 4.004005e-01 3.332465e-01 3.518614e-01 5.404228e-02
<GCONST> 9.686395e+01
~h "@"
<BEGINHMM>
<NUMSTATES> 5
<STATE> 2
<MEAN> 39
 -4.110625e-01 -5.830581e+00 -3.304679e+00 -7.862208e+00 -1.158288e+01 -4.457990e+00 -1.374011e+01 -4.450089e+00 -2.733836e+00 -8.593053e-01 2.441968e-01 -8.585655e+00 6.951205e+01 2.192741e+00 -1.601180e+00 -4.162421e-01 -1.571851e+00 -1.644485e+00 7.338879e-01 -1.972763e+00 1.111158e+00 1.428195e+00 3.195136e-01 1.238011e+00 -2.048799e+00 2.669737e+00 -4.818316e-01 2.315670e-01 1.736190e-01 4.497540e-01 2.803285e-01 1.949714e-01 3.961302e-01 -1.940195e-02 -1.696137e-01 -2.206362e-02 -2.509643e-01 2.158708e-01 -1.088111e+00
<VARIANCE> 39
 2.415862e+01 2.702798e+01 4.655591e+01 5.533117e+01 4.669529e+01 1.011049e+02 4.420041e+01 6.674171e+01 6.285873e+01 4.518106e+01 5.412051e+01 3.349496e+01 4.330433e+01 5.958837e+00 3.086165e+00 5.661126e+00 4.559520e+00 5.954858e+00 6.393950e+00 5.840216e+00 7.925574e+00 7.977007e+00 5.139228e+00 5.255840e+00 4.412352e+00 4.079276e+00 7.331262e-01 5.119914e-01 6.684601e-01 7.035473e-01 7.166809e-01 9.385520e-01 6.997562e-01 8.896043e-01 8.128674e-01 6.171875e-01 9.233697e-01 6.219519e-01 1.179570e+00
<GCONST> 1.399006e+02
<STATE> 3
<MEAN> 39
 6.230790e-01 -9.498195e+00 -4.178780e+00 -9.720000e+00 -1.273299e+01 -1.693990e+00 -1.657317e+01 -1.626845e+00 -1.180827e-01 -6.995132e-01 1.309565e+00 -1.189052e+01 7.273771e+01 6.042303e-01 -6.123415e-01 1.771647e-01 2.249442e-02 -5.489541e-01 4.130221e-01 -5.447016e-01 6.857048e-01 4.630447e-01 7.535526e-02 1.366235e-01 -6.572703e-01 3.459238e-01 -5.187420e-01 8.413125e-01 4.422759e-01 8.060590e-01 5.019527e-01 -2.853707e-01 8.203077e-01 -6.411582e-01 -7.238521e-01 -8.587594e-02 -5.271293e-01 7.700154e-01 -1.311066e+00
<VARIANCE> 39
 1.741964e+01 2.966526e+01 4.854770e+01 5.757847e+01 5.177146e+01 1.021554e+02 5.027407e+01 8.229054e+01 7.294465e+01 5.953025e+01 5.365184e+01 4.227628e+01 2.082281e+01 2.155301e+00 2.348547e+00 2.643478e+00 3.431693e+00 3.535164e+00 5.379117e+00 3.652000e+00 5.724566e+00 5.415347e+00 3.593056e+00 4.264117e+00 3.204363e+00 2.350892e+00 6.087016e-01 4.598581e-01 7.836539e-01 7.552589e-01 9.534562e-01 1.068208e+00 9.031015e-01 1.238794e+00 1.157266e+00 8.963192e-01 9.545531e-01 7.561125e-01 5.846857e-01
<GCONST> 1.356572e+02
<STATE> 4
<MEAN> 39
 -3.139412e-01 -9.169037e+00 -1.849914e+00 -8.985750e+00 -1.401179e+01 -3.922451e+00 -1.515816e+01 -1.125238e+00 -8.757983e-01 -1.747795e+00 1.181451e+00 -1.092593e+01 7.185873e+01 2.260493e-01 8.608195e-01 5.330806e-01 8.241135e-01 3.178751e-01 -1.197711e-01 4.710741e-01 -6.789472e-01 -5.897688e-01 3.964787e-02 -5.101951e-01 3.196524e-01 -1.283257e+00 -9.375211e-02 3.891808e-01 1.440454e-01 3.061412e-01 1.944485e-01 -6.897428e-02 2.586424e-01 -3.655434e-01 -2.236687e-01 6.764126e-03 -2.454980e-01 2.200648e-01 -5.472168e-01
<VARIANCE> 39
 1.819087e+01 3.566956e+01 5.830732e+01 5.897135e+01 6.585489e+01 9.332014e+01 5.635305e+01 8.828728e+01 7.818805e+01 6.070155e+01 5.698662e+01 4.117189e+01 2.690218e+01 9.845089e-01 2.350521e+00 2.051050e+00 2.758083e+00 2.692048e+00 3.255355e+00 2.879741e+00 3.717312e+00 3.724517e+00 2.498440e+00 2.859802e+00 2.215003e+00 3.239901e+00 3.166564e-01 2.996238e-01 3.786298e-01 4.093775e-01 5.306752e-01 5.359860e-01 5.805221e-01 8.288478e-01 6.701863e-01 5.083232e-01 5.859500e-01 4.416867e-01 2.993769e-01
<GCONST> 1.255713e+02
<TRANSP> 5
 0.000000e+00 1.000000e+00 0.000000e+00 0.000000e+00 0.000000e+00
 0.000000e+00 2.434327e-01 7.565673e-01 0.000000e+00 0.000000e+00
 0.000000e+00 0.000000e+00 3.575929e-01 6.424071e-01 0.000000e+00
 0.000000e+00 0.000000e+00 0.000000e+00 6.399098e-01 3.600902e-01
 0.000000e+00 0.000000e+00 0.000000e+00 0.000000e+00 0.000000e+00
<ENDHMM>
~h "a"
<BEGINHMM>
<NUMSTATES> 5
<STATE> 2
<MEAN> 39
 -8.362557e-01 -1.284329e+01 -6.406625e+00 -9.864499e+00 -1.044182e+01 6.088329e-02 -1.194004e+01 2.320562e+00 -9.135450e-02 -2.747895e+00 -2.680091e+00 -1.166688e+01 7.291512e+01 5.018452e-01 -2.086385e+00 -1.129189e+00 -6.224743e-01 4.636473e-01 1.593180e+00 -7.110271e-02 1.344183e+00 7.561626e-01 -8.527128e-01 -7.809269e-01 -1.346276e+00 1.889827e+00 -3.539306e-01 4.732270e-01 2.997304e-01 4.880570e-01 3.771716e-01 -1.346843e-01 2.210574e-01 -4.899558e-01 -3.731331e-01 -4.767659e-02 -1.138022e-01 4.632503e-01 -8.003483e-01
<VARIANCE> 39
 1.961156e+01 3.347573e+01 4.604678e+01 4.097849e+01 6.488713e+01 8.852666e+01 5.167331e+01 8.579899e+01 6.361066e+01 5.319731e+01 5.560664e+01 3.882025e+01 5.174871e+01 2.705593e+00 2.400032e+00 2.810405e+00 2.962212e+00 4.511817e+00 4.110770e+00 3.809849e+00 5.159481e+00 4.366220e+00 3.795259e+00 4.274760e+00 3.554402e+00 3.731170e+00 4.603232e-01 4.774904e-01 4.379928e-01 5.158247e-01 7.791382e-01 7.835810e-01 6.312913e-01 8.672809e-01 6.935853e-01 6.485803e-01 7.870641e-01 5.721031e-01 8.280565e-01
<GCONST> 1.333604e+02
<STATE> 3
<MEAN> 39
 -1.960480e+00 -1.665560e+01 -8.411073e+00 -1.020644e+01 -7.027752e+00 3.215884e+00 -1.165090e+01 2.617366e+00 -5.134954e-01 -5.875630e+00 -4.965537e+00 -1.257035e+01 7.603090e+01 2.287460e-02 5.814445e-02 2.420258e-03 1.549344e-01 2.050546e-01 -9.248687e-02 -5.330444e-03 5.209011e-02 -2.349814e-01 8.314346e-03 -2.549600e-01 1.547455e-02 -2.077646e-01 7.609886e-02 4.420933e-01 2.517257e-01 8.394982e-02 -2.220012e-01 -3.335924e-01 -5.782084e-02 -1.804338e-01 -1.004125e-01 2.614222e-01 1.560576e-01 1.612063e-01 -3.699439e-01
<VARIANCE> 39
 1.515026e+01 2.775788e+01 3.412565e+01 2.821770e+01 4.141864e+01 6.308017e+01 4.275754e+01 7.172298e+01 6.267025e+01 5.600306e+01 4.247308e+01 4.072234e+01 1.338377e+01 3.443515e-01 8.676518e-01 1.009853e+00 9.953744e-01 2.023700e+00 2.247493e+00 1.585803e+00 2.122683e+00 1.539069e+00 1.714355e+00 1.876722e+00 1.504617e+00 4.255956e-01 8.677266e-02 1.855773e-01 1.628895e-01 1.919176e-01 2.729946e-01 2.869115e-01 3.099954e-01 4.418945e-01 3.355377e-01 2.978427e-01 3.451749e-01 3.046783e-01 1.384963e-01
<GCONST> 1.027167e+02
<STATE> 4
<MEAN> 39
 -3.453574e-02 -1.210487e+01 -5.627137e+00 -8.245424e+00 -8.544588e+00 -7.237794e-01 -1.182369e+01 3.021196e+00 -1.854869e+00 -3.144699e+00 -5.349556e+00 -1.103095e+01 6.972959e+01 3.912130e-01 2.026878e+00 1.073977e+00 1.147122e+00 -2.022965e-02 -9.435262e-01 1.178669e-01 -1.213457e+00 -5.091173e-01 5.388456e-01 5.209902e-02 6.896651e-01 -2.519456e+00 -9.693942e-02 2.984878e-01 1.755349e-01 2.645354e-01 1.483676e-01 5.029678e-02 1.847848e-01 -4.261208e-01 -1.087361e-01 -8.256512e-02 -4.390940e-02 1.619740e-01 -4.862125e-01
<VARIANCE> 39
 1.640810e+01 3.447498e+01 4.622282e+01 3.764790e+01 5.432382e+01 6.787778e+01 5.124723e+01 8.210785e+01 6.227628e+01 6.328918e+01 6.224290e+01 4.242475e+01 5.436610e+01 1.264442e+00 2.002661e+00 2.095120e+00 2.413035e+00 3.294408e+00 3.395205e+00 3.245457e+00 4.199501e+00 3.692677e+00 3.382090e+00 3.472723e+00 2.642959e+00 2.893739e+00 2.292590e-01 4.203389e-01 3.545375e-01 4.202127e-01 5.228282e-01 5.841769e-01 5.959668e-01 7.959283e-01 5.938688e-01 6.061744e-01 6.580477e-01 4.591324e-01 4.653004e-01
<GCONST> 1.264097e+02
<TRANSP> 5
 0.000000e+00 1.000000e+00 0.000000e+00 0.000000e+00 0.000000e+00
 0.000000e+00 5.969344e-01 4.030656e-01 0.000000e+00 0.000000e+00
 0.000000e+00 0.000000e+00 7.900767e-01 2.099233e-01 0.000000e+00
 0.000000e+00 0.000000e+00 0.000000e+00 6.444841e-01 3.555159e-01
 0.000000e+00 0.000000e+00 0.000000e+00 0.000000e+00 0.000000e+00
<ENDHMM>
~h "b"
<BEGINHMM>
<NUMSTATES> 5
<STATE> 2
<MEAN> 39
 -9.902931e-01 2.595003e+00 8.201127e-01 -1.125534e+00 -5.605410e+00 -9.283093e-01 -6.942332e+00 -5.681721e+00 -6.800204e+00 -2.453610e+00 -2.272438e+00 -5.749930e+00 4.573560e+01 3.222674e-01 9.874150e-01 4.274859e-01 3.529791e-01 3.819803e-01 2.248918e-01 5.415887e-01 -8.965356e-02 -1.702346e-01 -7.363153e-03 -1.333326e-01 -2.545790e-02 -9.273716e-01 -1.025333e-01 -2.013311e-01 -9.370780e-02 -1.856319e-01 -1.023773e-01 -1.009348e-01 -1.592007e-01 1.218743e-02 8.267377e-02 5.510856e-03 1.180419e-01 4.325299e-02 5.003570e-01
<VARIANCE> 39
 7.111673e+01 4.063192e+01 3.808461e+01 2.863880e+01 3.974671e+01 4.522665e+01 3.647211e+01 4.236981e+01 5.446436e+01 3.312904e+01 3.543307e+01 3.273330e+01 9.385682e+01 1.659632e+00 2.207657e+00 1.795235e+00 1.791988e+00 2.115509e+00 2.158247e+00 2.342370e+00 2.552414e+00 2.820874e+00 2.342192e+00 2.348373e+00 1.883419e+00 3.277761e+00 3.259521e-01 3.549575e-01 3.194581e-01 3.715946e-01 4.076506e-01 4.092060e-01 4.279854e-01 4.901891e-01 5.656058e-01 4.354973e-01 4.287381e-01 3.728707e-01 4.027454e-01
<GCONST> 1.191252e+02
<STATE> 3
<MEAN> 39
 6.263026e+00 7.819134e+00 4.572852e+00 -1.059981e+00 -5.613498e+00 2.741925e+00 -6.676608e+00 -9.686139e+00 -1.143113e+01 -2.870398e+00 -4.619678e-01 -7.206803e+00 4.997096e+01 -7.127202e-01 -1.018512e+00 -8.317459e-01 -9.311548e-01 6.847191e-02 -6.934533e-01 -7.860928e-01 -1.186188e-02 8.773720e-01 4.596087e-02 7.874278e-01 5.632746e-01 2.493803e+00 -5.894542e-01 -1.221446e+00 -5.576346e-01 -6.322039e-01 -6.831238e-01 -2.640264e-01 -6.942579e-01 3.751609e-01 5.997348e-01 2.182783e-01 3.234309e-01 -8.747940e-02 1.513468e+00
<VARIANCE> 39
 1.885693e+01 2.637426e+01 1.861181e+01 3.340005e+01 3.957866e+01 5.032879e+01 3.467191e+01 4.134681e+01 6.325197e+01 3.603723e+01 4.462160e+01 2.672882e+01 3.760851e+01 4.468132e+00 4.583352e+00 3.672775e+00 4.314848e+00 3.818934e+00 4.640300e+00 3.834649e+00 3.933662e+00 6.016415e+00 3.695398e+00 3.744556e+00 3.047330e+00 7.144050e+00 4.414011e-01 4.264521e-01 5.998862e-01 6.391522e-01 7.185005e-01 8.438625e-01 6.260782e-01 9.290370e-01 1.160678e+00 8.479804e-01 7.494364e-01 7.425247e-01 5.983287e-01
<GCONST> 1.317132e+02
<STATE> 4
<MEAN> 39
 4.477716e-01 -1.315178e+00 -1.655819e+00 -6.464429e+00 -7.231011e+00 -1.435573e+00 -1.168608e+01 -8.530098e+00 -4.870135e+00 -2.693993e-01 3.049662e+00 -5.256529e+00 6.452084e+01 -1.098835e+00 -3.632844e+00 -1.882301e+00 -2.533278e+00 -2.138525e+00 -4.394422e-01 -2.357297e+00 1.243840e+00 2.373456e+00 9.999072e-01 1.251364e+00 -1.005108e+00 5.248503e+00 3.120015e-01 8.054552e-02 3.723289e-01 1.963824e-01 -3.956836e-01 4.396892e-01 1.602487e-01 3.711763e-01 -1.808239e-01 -2.247553e-01 -4.359494e-01 -5.144991e-01 -4.755070e-01
<VARIANCE> 39
 1.976878e+01 2.725976e+01 3.388794e+01 6.809624e+01 3.217440e+01 5.227470e+01 3.710401e+01 3.933637e+01 3.741557e+01 4.567808e+01 4.419458e+01 3.091375e+01 5.117445e+01 2.556823e+00 3.979627e+00 6.113042e+00 5.809372e+00 4.846172e+00 6.645706e+00 4.762414e+00 8.116366e+00 9.869245e+00 7.238019e+00 5.874604e+00 6.387022e+00 4.154124e+00 4.445246e-01 6.196492e-01 4.434600e-01 1.041089e+00 9.754202e-01 8.577610e-01 8.417244e-01 8.317067e-01 8.192963e-01 8.409100e-01 1.081066e+00 6.951646e-01 8.378747e-01
<GCONST> 1.379252e+02
<TRANSP> 5
 0.000000e+00 1.000000e+00 0.000000e+00 0.000000e+00 0.000000e+00
 0.000000e+00 8.124434e-01 1.875565e-01 0.000000e+00 0.000000e+00
 0.000000e+00 0.000000e+00 6.173846e-01 3.826155e-01 0.000000e+00
 0.000000e+00 0.000000e+00 0.000000e+00 3.786034e-01 6.213966e-01
 0.000000e+00 0.000000e+00 0.000000e+00 0.000000e+00 0.000000e+00
<ENDHMM>
~h "c"
<BEGINHMM>
<NUMSTATES> 5
<STATE> 2
<MEAN> 39
 -8.004221e+00 2.931383e+00 8.137330e-01 -1.328631e+00 -6.899943e+00 -7.369692e+00 -7.177761e+00 -3.554272e+00 -3.885667e+00 -2.923904e+00 -2.990505e+00 -3.249403e+00 4.575669e+01 -1.518321e+00 -2.212244e-01 -5.934273e-01 -4.445252e-01 5.718022e-01 2.274283e-01 3.215834e-01 -1.622861e-01 2.473535e-01 -9.968517e-04 1.973689e-01 2.646473e-01 -4.918166e-01 -3.831927e-01 -3.173677e-01 -1.529050e-01 -3.047220e-01 -8.393849e-02 5.432684e-02 -1.807037e-02 2.333073e-02 1.424835e-02 3.205415e-02 1.012992e-01 3.207001e-02 1.001405e+00
<VARIANCE> 39
 3.745348e+01 3.538414e+01 4.533703e+01 2.718560e+01 4.188862e+01 4.585397e+01 4.262197e+01 3.951543e+01 3.560311e+01 2.934298e+01 2.633534e+01 2.318386e+01 1.156426e+02 5.673713e+00 4.274253e+00 3.312014e+00 3.397253e+00 3.705358e+00 3.076293e+00 3.397054e+00 3.073484e+00 3.227624e+00 2.525339e+00 2.577998e+00 2.196067e+00 1.351682e+01 8.081369e-01 7.351978e-01 5.660366e-01 5.738991e-01 7.108843e-01 6.546848e-01 6.581039e-01 5.960033e-01 6.009117e-01 5.127451e-01 4.902898e-01 4.519700e-01 1.717534e+00
<GCONST> 1.304242e+02
<STATE> 3
<MEAN> 39
 -2.451149e+01 -4.418720e-01 -2.934786e+00 -8.007526e+00 -4.797343e+00 -5.689857e+00 -4.969097e+00 -4.462492e+00 -2.582107e+00 -2.146623e+00 -4.721566e-01 -2.984047e-01 6.395792e+01 -7.192967e-01 -1.371439e-01 4.648137e-01 -6.168361e-01 -1.019691e+00 -5.818089e-01 -2.172786e-01 2.855805e-01 1.860941e-01 -2.076261e-01 2.266648e-02 1.514619e-01 4.244221e+00 2.359952e+00 -6.151528e-02 6.549274e-01 5.496836e-01 -8.017979e-01 -3.669276e-01 -6.401586e-01 2.397846e-01 -7.309979e-02 -2.141482e-01 -2.329452e-01 -5.483761e-01 -6.605267e-01
<VARIANCE> 39
 2.663751e+01 2.790939e+01 4.192559e+01 2.525622e+01 2.760269e+01 3.090620e+01 3.154294e+01 2.850151e+01 2.500184e+01 2.112554e+01 1.951500e+01 1.658892e+01 3.205893e+01 1.615456e+01 3.395593e+00 5.307681e+00 4.284127e+00 4.823941e+00 4.729605e+00 4.195029e+00 3.533025e+00 3.419243e+00 2.630874e+00 2.701499e+00 2.501183e+00 8.837564e+00 1.035523e+00 1.107230e+00 8.667157e-01 7.691874e-01 8.959042e-01 9.593629e-01 6.732433e-01 9.765313e-01 8.176053e-01 6.046166e-01 6.445081e-01 5.451398e-01 8.718764e-01
<GCONST> 1.308320e+02
<STATE> 4
<MEAN> 39
 -1.087134e+01 -1.158787e+00 2.351351e+00 -5.161668e+00 -1.194944e+01 -1.108689e+01 -1.000848e+01 -2.197090e+00 -2.395317e+00 -4.680346e+00 -3.262410e+00 -2.927872e+00 7.053639e+01 5.690899e+00 -2.621710e+00 6.574879e-01 2.112549e-01 -2.417966e+00 -5.612015e-01 -2.286556e+00 1.393233e+00 5.893935e-01 -4.742028e-01 -4.169163e-02 -1.953137e+00 2.295691e+00 -3.619341e-02 -5.447700e-01 -7.132955e-01 -2.710939e-01 4.976822e-01 8.956336e-01 1.564191e-01 4.466408e-02 3.532394e-02 2.052116e-01 3.368609e-01 -3.728358e-01 -6.710110e-01
<VARIANCE> 39
 5.060859e+01 4.103187e+01 4.515767e+01 2.319693e+01 3.910532e+01 3.207957e+01 4.278335e+01 4.425476e+01 3.966164e+01 2.370862e+01 1.991445e+01 2.004378e+01 2.994319e+01 2.417629e+00 5.041865e+00 5.708671e+00 4.536362e+00 5.039482e+00 5.307428e+00 3.561450e+00 8.514144e+00 5.710762e+00 3.873894e+00 4.003791e+00 2.608310e+00 1.735770e+00 1.661685e+00 6.191677e-01 4.901019e-01 4.871329e-01 9.431587e-01 6.805654e-01 7.322218e-01 8.363249e-01 6.358880e-01 4.760611e-01 5.066184e-01 4.157246e-01 5.758179e-01
<GCONST> 1.299900e+02
<TRANSP> 5
 0.000000e+00 1.000000e+00 0.000000e+00 0.000000e+00 0.000000e+00
 0.000000e+00 8.678507e-01 1.321493e-01 0.000000e+00 0.000000e+00
 0.000000e+00 0.000000e+00 6.950960e-01 3.049041e-01 0.000000e+00
 0.000000e+00 0.000000e+00 0.000000e+00 4.774308e-01 5.225692e-01
 0.000000e+00 0.000000e+00 0.000000e+00 0.000000e+00 0.000000e+00
<ENDHMM>
~h "d"
<BEGINHMM>
<NUMSTATES> 5
<STATE> 2
<MEAN> 39
 -6.870965e+00 -3.858274e-01 -2.423976e-01 -4.040613e-01 -5.605540e+00 -4.687883e+00 -6.080173e+00 -2.580339e+00 -3.931771e+00 -3.198629e+00 -3.354191e+00 -3.381852e+00 4.284274e+01 1.688679e-01 4.992367e-01 2.581448e-01 4.057490e-01 3.075982e-01 -2.141393e-02 1.452069e-01 4.687139e-02 1.163926e-01 1.078420e-03 -1.951891e-01 -6.373104e-02 -6.571387e-01 3.129536e-02 -3.639908e-02 4.548457e-02 -8.421304e-02 -5.807636e-02 -2.035840e-02 -6.553683e-02 3.377099e-02 -2.216424e-03 -1.339894e-02 2.615199e-02 -2.287509e-02 2.718866e-01
<VARIANCE> 39
 4.851820e+01 3.978900e+01 3.993963e+01 2.553859e+01 3.935630e+01 3.539392e+01 3.901431e+01 4.162910e+01 3.480287e+01 3.064350e+01 3.261983e+01 2.950300e+01 1.048134e+02 1.753879e+00 2.288917e+00 1.811106e+00 1.891832e+00 2.437288e+00 2.234260e+00 2.317646e+00 2.949996e+00 2.577020e+00 2.187800e+00 2.507907e+00 1.879842e+00 2.818429e+00 3.049080e-01 3.378092e-01 2.968067e-01 3.581333e-01 4.083163e-01 4.192285e-01 4.359685e-01 5.193396e-01 4.827686e-01 4.363358e-01 4.258890e-01 3.565063e-01 3.762218e-01
<GCONST> 1.176657e+02
<STATE> 3
<MEAN> 39
 4.702795e+00 4.298857e+00 8.094442e+00 5.188353e+00 -9.193396e+00 -7.295309e+00 -1.065904e+01 -3.432107e+00 -3.266097e+00 -3.230020e+00 -7.162008e+00 -8.435382e+00 5.103539e+01 -5.342050e-01 -4.459628e-01 5.206506e-01 -5.357727e-01 2.926761e-01 -4.785093e-01 -1.521793e-01 2.718307e-01 -3.604953e-02 -2.148476e-01 3.862923e-01 5.636010e-01 1.619130e+00 -8.391337e-01 -9.077575e-01 -2.641185e-01 -7.751337e-01 -6.114583e-01 2.509639e-02 -1.924875e-01 8.502031e-04 -1.895857e-01 -5.343947e-02 7.693312e-01 3.412422e-01 1.402077e+00
<VARIANCE> 39
 2.218586e+01 3.367705e+01 2.756847e+01 2.639813e+01 5.635990e+01 3.721709e+01 4.340838e+01 5.626091e+01 4.398961e+01 3.736391e+01 3.364524e+01 3.077549e+01 4.722085e+01 6.144318e+00 4.707504e+00 3.233191e+00 4.031117e+00 5.017934e+00 3.723443e+00 4.111089e+00 5.163752e+00 4.428611e+00 3.347162e+00 4.304954e+00 3.438488e+00 9.040686e+00 5.029702e-01 4.963781e-01 5.207912e-01 6.153062e-01 1.099531e+00 7.144613e-01 7.580089e-01 1.269971e+00 9.307807e-01 6.583158e-01 6.673644e-01 5.629500e-01 8.783642e-01
<GCONST> 1.336391e+02
<STATE> 4
<MEAN> 39
 -4.472323e+00 -4.262790e+00 7.454713e+00 -2.187560e+00 -9.551497e+00 -9.045941e+00 -1.100243e+01 -2.870774e+00 -4.799394e+00 -4.233881e+00 -1.339596e+00 -2.359931e+00 6.591261e+01 -1.608867e+00 -2.680361e+00 -5.697683e-01 -2.176512e+00 -2.932415e+00 -4.358506e-01 -1.378378e+00 8.919325e-01 1.644907e-01 -3.290203e-01 2.526640e+00 4.241444e-01 5.149547e+00 6.961857e-01 2.825669e-01 -2.677017e-01 2.830823e-01 -6.851923e-01 4.798347e-01 -1.563550e-01 2.062961e-01 2.026577e-01 2.185323e-02 -9.595321e-02 -7.712564e-01 -5.061132e-01
<VARIANCE> 39
 2.119263e+01 2.686530e+01 3.715943e+01 3.435301e+01 5.940847e+01 4.947253e+01 5.645145e+01 4.733452e+01 4.985602e+01 2.674687e+01 2.705607e+01 2.053848e+01 5.039917e+01 3.487145e+00 3.332492e+00 5.636101e+00 4.142144e+00 5.468375e+00 4.669547e+00 4.915392e+00 1.258636e+01 8.966308e+00 4.037329e+00 4.234800e+00 3.736462e+00 3.859344e+00 3.989594e-01 5.685197e-01 5.830663e-01 7.861811e-01 1.380611e+00 9.777295e-01 1.149106e+00 1.140474e+00 9.526832e-01 7.561146e-01 9.433748e-01 5.828972e-01 9.168536e-01
<GCONST> 1.364490e+02
<TRANSP> 5
 0.000000e+00 1.000000e+00 0.000000e+00 0.000000e+00 0.000000e+00
 0.000000e+00 8.380259e-01 1.619741e-01 0.000000e+00 0.000000e+00
 0.000000e+00 0.000000e+00 7.001647e-01 2.998352e-01 0.000000e+00
 0.000000e+00 0.000000e+00 0.000000e+00 4.597002e-01 5.402998e-01
 0.000000e+00 0.000000e+00 0.000000e+00 0.000000e+00 0.000000e+00
<ENDHMM>
~h "e"
<BEGINHMM>
<NUMSTATES> 5
<STATE> 2
<MEAN> 39
 -3.530146e+00 -7.948966e+00 5.612668e-01 -5.034647e+00 -1.491493e+01 -7.802488e+00 -1.025909e+01 7.695700e-01 -3.540136e+00 -1.528384e+00 2.341001e-01 -6.892833e+00 6.254504e+01 6.324012e-01 -1.798427e+00 5.722114e-01 -7.102785e-01 -1.970468e+00 -2.724011e-01 -3.282650e-01 1.916703e+00 1.178348e-01 -4.593746e-01 5.215185e-01 -5.528665e-01 2.618002e+00 -1.098257e-01 2.029559e-01 1.281616e-01 1.221389e-02 4.833965e-02 2.580376e-01 2.914713e-01 -3.011447e-02 -1.672547e-01 -6.558331e-02 -3.408281e-02 6.368029e-02 -3.055949e-01
<VARIANCE> 39
 4.098751e+01 5.489909e+01 5.902008e+01 4.819957e+01 7.781799e+01 6.352313e+01 6.767778e+01 9.035046e+01 7.344530e+01 5.248349e+01 5.469752e+01 3.808265e+01 1.980801e+02 4.558385e+00 5.069892e+00 3.728794e+00 4.101408e+00 7.417083e+00 4.994454e+00 5.297989e+00 7.718305e+00 6.254978e+00 5.078393e+00 4.753058e+00 3.667356e+00 1.131241e+01 7.286292e-01 9.055424e-01 5.595288e-01 6.959478e-01 1.054066e+00 7.852814e-01 8.892164e-01 1.041804e+00 9.786025e-01 7.832019e-01 7.384584e-01 5.996589e-01 2.210528e+00
<GCONST> 1.457821e+02
<STATE> 3
<MEAN> 39
 -1.159581e+00 -1.374138e+01 2.971158e+00 -6.957077e+00 -2.086262e+01 -7.256076e+00 -1.131883e+01 6.172895e+00 -3.533819e+00 -3.652122e+00 1.977923e+00 -8.467809e+00 7.401177e+01 -1.854659e-01 -3.515949e-01 6.340380e-01 -3.541171e-01 -9.857084e-01 1.193919e-01 5.840862e-01 8.139099e-01 -3.576491e-01 -1.866142e-01 4.293892e-01 -8.859786e-02 5.903100e-01 -2.037440e-01 7.683691e-01 -1.309948e-01 3.112262e-01 7.803993e-01 5.826334e-02 2.442602e-01 -7.993426e-01 -1.245796e-01 2.043823e-01 -3.055497e-01 1.959990e-01 -9.360240e-01
<VARIANCE> 39
 1.411708e+01 3.858915e+01 5.453500e+01 4.507552e+01 6.301973e+01 6.504917e+01 5.690961e+01 9.469083e+01 7.707343e+01 5.288046e+01 5.410787e+01 3.235077e+01 1.912378e+01 1.061412e+00 2.004542e+00 2.172538e+00 2.575720e+00 3.662810e+00 3.413468e+00 3.481949e+00 4.009687e+00 3.544232e+00 3.006798e+00 2.945392e+00 2.098033e+00 1.842821e+00 3.436033e-01 3.374442e-01 3.886901e-01 4.595420e-01 6.169555e-01 6.508563e-01 7.521202e-01 7.923150e-01 8.137183e-01 6.829651e-01 6.280991e-01 4.924999e-01 4.924220e-01
<GCONST> 1.260884e+02
<STATE> 4
<MEAN> 39
 -3.182230e+00 -1.121146e+01 6.079603e+00 -8.081201e+00 -2.250886e+01 -8.364138e+00 -9.571617e+00 5.132791e+00 -6.259622e+00 -3.142969e+00 3.391978e+00 -8.342527e+00 7.251348e+01 1.032186e-01 5.074307e-01 -1.074902e-01 3.795442e-01 5.106362e-01 -1.030036e-01 7.163268e-02 -4.138696e-01 -6.905197e-02 8.375161e-02 -3.576211e-01 -1.798825e-02 -7.381380e-01 4.471607e-02 1.787037e-01 -5.857702e-02 1.746896e-01 2.410702e-01 -6.083331e-03 -4.396196e-02 -2.024683e-01 2.594103e-02 3.186438e-02 -1.261746e-01 3.842406e-02 -2.999513e-01
<VARIANCE> 39
 1.419175e+01 3.802541e+01 6.253920e+01 3.715851e+01 5.942128e+01 6.253048e+01 4.951402e+01 8.777325e+01 5.965319e+01 5.485123e+01 5.875826e+01 2.843918e+01 4.123730e+01 6.071125e-01 1.259294e+00 1.181384e+00 1.506537e+00 1.781496e+00 1.525627e+00 2.061141e+00 2.121054e+00 1.900738e+00 1.591446e+00 1.678626e+00 1.164437e+00 1.846156e+00 1.141405e-01 2.010702e-01 1.933493e-01 2.125604e-01 3.029904e-01 3.018547e-01 3.825619e-01 4.106010e-01 3.551775e-01 3.157906e-01 2.885245e-01 2.121030e-01 2.158763e-01
<GCONST> 1.089998e+02
<TRANSP> 5
 0.000000e+00 1.000000e+00 0.000000e+00 0.000000e+00 0.000000e+00
 0.000000e+00 5.637650e-01 4.362350e-01 0.000000e+00 0.000000e+00
 0.000000e+00 0.000000e+00 5.387939e-01 4.612061e-01 0.000000e+00
 0.000000e+00 0.000000e+00 0.000000e+00 8.448945e-01 1.551055e-01
 0.000000e+00 0.000000e+00 0.000000e+00 0.000000e+00 0.000000e+00
<ENDHMM>
~h "f"
<BEGINHMM>
<NUMSTATES> 5
<STATE> 2
<MEAN> 39
 -8.109610e+00 -1.015991e+00 -2.947942e-01 -7.863058e-01 -3.909835e+00 -3.199000e+00 -6.220691e+00 -3.253879e+00 -3.784110e+00 -2.579340e+00 -2.439645e+00 -3.714732e+00 6.270319e+01 -3.721802e+00 1.494476e-01 -2.768140e-01 1.340372e+00 1.484986e+00 -4.226461e-01 3.627797e-01 5.390998e-02 1.442816e+00 -1.706078e-01 -1.459213e-01 6.343861e-01 -1.036585e+00 -1.540181e-01 -6.656930e-01 -2.069654e-01 -4.357065e-01 -7.370933e-01 -6.464251e-02 -4.438456e-01 -6.472071e-02 -1.936006e-01 1.025704e-01 1.559236e-01 -1.860475e-01 2.176870e-01
<VARIANCE> 39
 4.994912e+01 2.280176e+01 4.162656e+01 4.305150e+01 3.561000e+01 5.511703e+01 3.270136e+01 3.980536e+01 3.612922e+01 2.991902e+01 3.380978e+01 2.340276e+01 3.184000e+01 2.253422e+00 4.093235e+00 4.022281e+00 4.160158e+00 5.608618e+00 4.428299e+00 3.503571e+00 4.796790e+00 3.891030e+00 3.739897e+00 3.501625e+00 2.471086e+00 1.660027e+00 7.929524e-01 4.151069e-01 4.450896e-01 6.378379e-01 6.372302e-01 6.110059e-01 5.854463e-01 6.377288e-01 7.867107e-01 5.619852e-01 5.098615e-01 3.666890e-01 1.825010e-01
<GCONST> 1.260024e+02
<STATE> 3
<MEAN> 39
 -1.931519e+01 -5.966597e+00 -3.802786e+00 -7.037674e-01 -4.409412e+00 -5.348815e+00 -8.085110e+00 -3.235773e+00 -1.888709e+00 -1.860894e+00 -1.715948e+00 -2.260173e+00 5.926293e+01 -5.942598e-01 -5.581500e-01 -4.515697e-01 -1.938272e-01 -1.407160e-01 -8.272503e-02 -5.165576e-02 -2.424879e-02 3.849184e-02 7.990934e-02 1.017163e-01 7.516871e-02 -2.767709e-01 6.573046e-01 1.455886e-01 1.432925e-01 -7.992359e-02 -3.315643e-02 8.401348e-02 8.135165e-02 3.383773e-02 -1.216436e-01 -2.599720e-02 8.284370e-03 -8.933282e-02 9.391448e-02
<VARIANCE> 39
 2.369497e+01 2.049629e+01 2.523803e+01 1.806697e+01 2.084655e+01 2.679628e+01 2.365886e+01 2.336546e+01 2.150743e+01 2.036131e+01 2.179030e+01 1.646505e+01 3.409383e+01 1.650315e+00 1.163563e+00 1.480317e+00 1.448472e+00 1.567727e+00 1.807040e+00 1.863151e+00 1.777547e+00 1.755701e+00 1.675275e+00 1.553780e+00 1.411703e+00 1.089875e+00 4.333781e-01 2.514932e-01 3.127124e-01 3.283072e-01 3.588685e-01 3.877093e-01 3.662595e-01 4.056896e-01 4.282409e-01 3.808445e-01 3.450940e-01 3.232047e-01 1.724724e-01
<GCONST> 1.035879e+02
<STATE> 4
<MEAN> 39
 -1.442246e+01 -5.046985e+00 -4.736903e+00 -2.758234e+00 -4.725015e+00 -4.500641e+00 -6.540223e+00 -3.564365e+00 -2.749808e+00 -2.182628e+00 -1.381322e+00 -2.841623e+00 5.284192e+01 2.518519e+00 3.073760e-01 2.127352e-01 -7.260028e-01 -7.229728e-01 3.239778e-01 -1.326230e-01 -1.015535e-01 -5.326998e-01 -2.705423e-01 1.645129e-01 -5.918996e-01 6.784210e-01 5.505284e-01 -3.330199e-03 8.709262e-02 -2.223250e-01 -3.778210e-01 1.466095e-01 -2.038152e-01 -3.408979e-02 -1.533968e-01 -6.342323e-02 1.449479e-01 -1.912705e-01 3.479128e-01
<VARIANCE> 39
 4.846491e+01 2.973857e+01 3.313172e+01 2.861436e+01 2.547681e+01 3.527791e+01 2.444559e+01 2.756482e+01 2.696111e+01 2.419421e+01 2.269064e+01 1.842827e+01 1.402837e+02 8.909948e+00 3.239928e+00 3.904140e+00 4.279945e+00 3.503124e+00 4.367186e+00 2.718197e+00 3.388875e+00 3.460970e+00 2.929009e+00 2.551285e+00 2.726705e+00 4.644688e+00 1.127923e+00 5.674427e-01 4.957007e-01 6.153606e-01 6.287338e-01 6.651207e-01 5.300515e-01 5.969952e-01 6.814614e-01 5.220205e-01 5.044658e-01 4.513320e-01 5.029449e-01
<GCONST> 1.266408e+02
<TRANSP> 5
 0.000000e+00 1.000000e+00 0.000000e+00 0.000000e+00 0.000000e+00
 0.000000e+00 6.773784e-01 3.226216e-01 0.000000e+00 0.000000e+00
 0.000000e+00 0.000000e+00 8.379076e-01 1.620924e-01 0.000000e+00
 0.000000e+00 0.000000e+00 0.000000e+00 7.731233e-01 2.268767e-01
 0.000000e+00 0.000000e+00 0.000000e+00 0.000000e+00 0.000000e+00
<ENDHMM>
~h "g"
<BEGINHMM>
<NUMSTATES> 5
<STATE> 2
<MEAN> 39
 2.948225e+00 4.682370e+00 6.806896e+00 8.762302e-01 -1.120275e+01 -6.033039e+00 -9.155077e+00 -4.287220e+00 -8.036448e+00 -9.804989e-01 -2.096695e+00 -8.588625e+00 5.186562e+01 -4.981507e-01 4.491941e-01 -1.001574e-01 4.525466e-01 1.073586e+00 -4.053560e-01 4.571576e-01 -5.149379e-02 2.473552e-01 -7.312696e-02 -4.367914e-01 5.335474e-01 -4.582819e-01 -6.319114e-01 -7.069689e-01 -4.693393e-01 -4.435115e-01 1.115384e-01 -2.753457e-02 -2.272130e-01 1.077171e-01 4.374235e-02 -1.104390e-02 2.160932e-01 2.592552e-01 1.183453e+00
<VARIANCE> 39
 2.873048e+01 3.753341e+01 4.966709e+01 3.536305e+01 5.595536e+01 5.373837e+01 4.575528e+01 5.654339e+01 5.376413e+01 3.902645e+01 3.816592e+01 3.280178e+01 6.065796e+01 4.513850e+00 4.364485e+00 4.790392e+00 2.956067e+00 5.599679e+00 4.321048e+00 3.890403e+00 4.074959e+00 3.849559e+00 3.199141e+00 3.298517e+00 3.158758e+00 7.684808e+00 5.134014e-01 5.287291e-01 6.313767e-01 4.825488e-01 8.787515e-01 6.911110e-01 6.533670e-01 7.630157e-01 7.947834e-01 6.136327e-01 6.162999e-01 5.323110e-01 8.025416e-01
<GCONST> 1.336195e+02
<STATE> 3
<MEAN> 39
 -5.421195e+00 -9.056142e-01 1.912228e-02 -1.815663e-01 -2.164643e+00 -6.957592e+00 -8.559037e+00 -4.134660e+00 -8.087234e+00 -8.074588e-01 -4.353566e+00 -3.294473e+00 6.100591e+01 -2.005605e+00 -1.977102e+00 -1.439511e+00 -1.444584e+00 7.220251e-02 -8.356978e-01 -8.195642e-01 4.870991e-01 -1.243336e-01 -6.863717e-02 1.195141e+00 9.573992e-01 4.215269e+00 8.240945e-01 1.161863e-01 7.010561e-01 -3.910983e-01 -1.718696e+00 1.378592e-01 -4.535960e-01 1.959940e-01 1.359545e-01 -1.575866e-01 8.581616e-01 -6.630254e-01 1.547270e-01
<VARIANCE> 39
 3.344935e+01 4.314494e+01 8.531742e+01 5.109235e+01 6.034241e+01 6.622971e+01 4.409529e+01 5.179488e+01 4.777694e+01 3.310045e+01 3.267286e+01 2.355974e+01 6.501067e+01 3.567547e+00 4.384699e+00 6.686627e+00 4.044292e+00 7.852166e+00 6.069260e+00 4.473729e+00 6.362870e+00 5.502907e+00 4.120465e+00 4.681051e+00 3.158741e+00 4.670951e+00 5.378242e-01 9.227484e-01 1.024815e+00 8.965582e-01 1.212846e+00 1.161768e+00 9.000371e-01 1.175563e+00 9.518501e-01 7.161071e-01 7.603748e-01 6.540617e-01 9.774246e-01
<GCONST> 1.406712e+02
<STATE> 4
<MEAN> 39
 -3.999204e+00 -3.350405e+00 2.918041e+00 -3.412267e+00 -1.289490e+01 -1.124189e+01 -1.261314e+01 -1.417866e+00 -7.222793e+00 -1.585478e+00 3.656304e+00 -5.017131e+00 6.912110e+01 7.764299e-01 -1.270350e+00 4.126793e-01 -1.844212e+00 -3.509442e+00 2.897300e-01 -1.193694e+00 1.417824e+00 1.165062e+00 -5.133010e-01 2.198879e+00 -1.270449e+00 2.407418e+00 5.603369e-01 1.399056e-01 1.542829e-02 5.559394e-02 6.651923e-03 7.951056e-01 2.351984e-01 5.262947e-02 3.132539e-01 -4.380050e-02 -5.852835e-01 -5.369923e-01 -8.008677e-01
<VARIANCE> 39
 2.032732e+01 3.174932e+01 6.735816e+01 3.720160e+01 8.231519e+01 7.740687e+01 4.945414e+01 7.543413e+01 5.578943e+01 3.819394e+01 4.234015e+01 2.894454e+01 3.767705e+01 2.195997e+00 3.228498e+00 4.369686e+00 3.647792e+00 6.612617e+00 5.292997e+00 4.726705e+00 8.450253e+00 6.483068e+00 3.544234e+00 4.490073e+00 3.378978e+00 2.604824e+00 4.937587e-01 4.017356e-01 8.873799e-01 4.966770e-01 1.917143e+00 9.555390e-01 8.253763e-01 9.732036e-01 8.180417e-01 7.184741e-01 1.050172e+00 5.663180e-01 3.876084e-01
<GCONST> 1.360938e+02
<TRANSP> 5
 0.000000e+00 1.000000e+00 0.000000e+00 0.000000e+00 0.000000e+00
 0.000000e+00 7.660846e-01 2.339154e-01 0.000000e+00 0.000000e+00
 0.000000e+00 0.000000e+00 4.672277e-01 5.327722e-01 0.000000e+00
 0.000000e+00 0.000000e+00 0.000000e+00 4.488038e-01 5.511961e-01
 0.000000e+00 0.000000e+00 0.000000e+00 0.000000e+00 0.000000e+00
<ENDHMM>
~h "h"
<BEGINHMM>
<NUMSTATES> 5
<STATE> 2
<MEAN> 39
 -4.713576e+00 -5.476867e+00 -1.809628e+00 -2.940120e+00 -6.032725e-01 1.050180e+00 -5.021685e+00 -4.121979e-01 -5.295676e+00 -2.780646e+00 -5.968086e+00 -5.554962e+00 6.575682e+01 -1.196814e+00 -1.374340e-01 3.988059e-01 8.668125e-01 1.567716e+00 2.599662e-01 1.032062e+00 -5.793143e-02 5.587503e-01 -1.999313e-01 1.139902e-01 7.482658e-01 -1.065800e+00 -3.971632e-03 -3.652919e-01 -1.871735e-01 -3.937030e-01 -4.823070e-01 -3.928585e-02 -3.134890e-01 -7.269380e-03 9.333386e-02 5.933049e-02 2.568414e-01 -1.505544e-01 1.002320e-01
<VARIANCE> 39
 2.560548e+01 4.230934e+01 5.334671e+01 3.678122e+01 7.022083e+01 5.741771e+01 5.421873e+01 6.219727e+01 5.056364e+01 4.932754e+01 5.117831e+01 3.716456e+01 5.295879e+01 1.482928e+00 3.034690e+00 2.888139e+00 2.577261e+00 3.557785e+00 3.247180e+00 2.952641e+00 3.426871e+00 2.949328e+00 2.932399e+00 2.922812e+00 2.498002e+00 1.457911e+00 1.864245e-01 3.518112e-01 3.178387e-01 3.917988e-01 5.259792e-01 5.440285e-01 5.234702e-01 5.541530e-01 5.175706e-01 4.952633e-01 4.503765e-01 4.165286e-01 1.394458e-01
<GCONST> 1.225080e+02
<STATE> 3
<MEAN> 39
 -9.679693e+00 -8.770058e+00 -3.921195e+00 -4.175872e+00 -2.014331e-01 3.913942e-01 -4.584668e+00 -1.160884e+00 -2.594080e+00 -1.746916e+00 -4.065495e+00 -3.685366e+00 5.900311e+01 3.862184e-03 -1.155303e-01 -3.063092e-01 -3.229050e-01 -3.055245e-01 -2.740357e-01 -2.139919e-01 -1.443825e-01 -6.293623e-03 1.726750e-02 3.301436e-02 -5.410330e-02 -3.822299e-01 3.127637e-01 1.813171e-01 2.904629e-02 -4.577721e-02 -2.668914e-01 -4.119246e-02 -1.620302e-01 -5.425090e-02 -1.537939e-01 -5.018181e-02 -2.961073e-02 -1.458467e-01 9.659241e-02
<VARIANCE> 39
 4.359557e+01 6.260397e+01 6.003214e+01 3.770913e+01 6.311879e+01 4.837157e+01 5.437873e+01 5.253400e+01 4.874160e+01 3.982409e+01 4.256982e+01 3.220199e+01 1.309250e+02 2.563115e+00 3.330587e+00 2.450076e+00 2.498847e+00 2.904086e+00 2.995155e+00 2.996662e+00 3.056490e+00 2.885082e+00 2.552441e+00 2.732318e+00 2.336772e+00 4.642238e+00 3.732379e-01 5.310015e-01 4.218667e-01 4.735101e-01 5.725917e-01 5.442417e-01 5.865453e-01 5.689793e-01 5.337676e-01 5.054595e-01 5.147417e-01 4.428828e-01 4.160742e-01
<GCONST> 1.275258e+02
<STATE> 4
<MEAN> 39
 -9.224883e+00 -5.491065e+00 -3.553941e+00 -3.336040e+00 -2.735921e+00 -2.657399e+00 -5.319905e+00 -1.959680e+00 -3.337800e+00 -3.117351e+00 -3.037717e+00 -3.058800e+00 4.839238e+01 1.516285e-01 2.131085e-01 -3.821226e-02 -2.142349e-02 -2.198915e-01 -2.033724e-02 -6.964391e-02 -7.750417e-02 -6.858379e-02 -9.404178e-03 5.161866e-02 -9.493422e-02 -3.041302e-01 4.154786e-02 -2.024743e-03 3.037957e-02 -1.668830e-03 -4.385193e-02 4.256384e-02 -1.906210e-02 1.413928e-02 -1.320035e-02 -2.513692e-03 1.614097e-02 -3.433440e-02 1.102069e-01
<VARIANCE> 39
 2.737049e+01 6.097355e+01 3.806828e+01 3.017335e+01 3.609636e+01 3.570420e+01 3.389758e+01 3.493456e+01 3.167473e+01 2.906717e+01 2.983385e+01 2.454967e+01 1.561402e+02 1.207860e+00 1.672259e+00 1.369390e+00 1.428343e+00 1.759762e+00 1.740246e+00 1.900251e+00 1.993339e+00 1.964355e+00 1.792802e+00 1.704235e+00 1.689272e+00 2.038357e+00 1.543777e-01 2.420028e-01 2.184199e-01 2.471959e-01 2.977125e-01 3.190768e-01 3.435498e-01 3.661486e-01 3.614602e-01 3.367739e-01 3.303174e-01 3.059724e-01 1.363071e-01
<GCONST> 1.086835e+02
<TRANSP> 5
 0.000000e+00 1.000000e+00 0.000000e+00 0.000000e+00 0.000000e+00
 0.000000e+00 6.298266e-01 3.701734e-01 0.000000e+00 0.000000e+00
 0.000000e+00 0.000000e+00 7.448835e-01 2.551165e-01 0.000000e+00
 0.000000e+00 0.000000e+00 0.000000e+00 8.375752e-01 1.624248e-01
 0.000000e+00 0.000000e+00 0.000000e+00 0.000000e+00 0.000000e+00
<ENDHMM>
~h "i"
<BEGINHMM>
<NUMSTATES> 5
<STATE> 2
<MEAN> 39
 -5.882529e+00 -1.725601e+00 1.323655e+01 -1.763218e+00 -1.958560e+01 -8.819295e+00 -1.304552e+01 -5.761426e+00 -1.185652e+01 -5.394073e+00 4.054434e+00 -5.209252e+00 6.627564e+01 4.476384e-01 -1.114098e-01 2.533954e+00 -3.986349e-01 -3.085135e+00 5.398523e-01 -1.657604e+00 -3.650604e-01 -1.326016e+00 -5.746388e-01 1.751889e+00 -5.468295e-01 1.670394e+00 -7.482937e-02 1.373377e-01 -5.689792e-01 -1.057805e-01 4.549187e-01 4.131635e-01 1.607511e-01 6.440645e-02 4.431334e-01 2.520984e-01 -2.891389e-01 -8.197954e-02 -5.642443e-01
<VARIANCE> 39
 2.555492e+01 3.992883e+01 4.979932e+01 3.939790e+01 5.613885e+01 6.769903e+01 5.462502e+01 6.819787e+01 4.779252e+01 3.977387e+01 3.407178e+01 3.116547e+01 6.239837e+01 5.012283e+00 2.746059e+00 4.308029e+00 3.557684e+00 4.673446e+00 5.289667e+00 6.157414e+00 5.387619e+00 5.036945e+00 3.654377e+00 3.374329e+00 3.011573e+00 3.747756e+00 6.896592e-01 5.177110e-01 7.218892e-01 5.124748e-01 1.093798e+00 8.094178e-01 9.465833e-01 9.471039e-01 7.739732e-01 5.784945e-01 6.334363e-01 4.601194e-01 8.230450e-01
<GCONST> 1.354312e+02
<STATE> 3
<MEAN> 39
 -7.006170e+00 7.658906e-02 1.777521e+01 -5.178303e+00 -2.431390e+01 -4.205438e+00 -1.689038e+01 -8.159175e+00 -1.299755e+01 -5.856444e+00 5.740880e+00 -7.632238e+00 6.867963e+01 7.984225e-02 1.475625e-01 -1.014369e-01 -7.607616e-02 -7.040556e-02 5.777614e-02 9.996016e-02 1.385231e-02 2.901193e-02 1.896355e-01 -5.408747e-02 -8.903632e-02 -1.904704e-01 9.388511e-02 1.597428e-02 -4.220656e-01 1.842507e-01 5.033318e-01 -2.704259e-01 3.752665e-01 1.425336e-01 1.776617e-01 1.032953e-01 -3.129472e-01 9.900053e-02 -3.074299e-01
<VARIANCE> 39
 1.351704e+01 2.983167e+01 3.926748e+01 4.232414e+01 3.264371e+01 8.174882e+01 4.775227e+01 6.064868e+01 3.969843e+01 4.208847e+01 3.609904e+01 3.813435e+01 1.970650e+01 5.078161e-01 1.244320e+00 1.292101e+00 1.325821e+00 1.472983e+00 1.945041e+00 2.025522e+00 2.103595e+00 1.599984e+00 1.546717e+00 1.526528e+00 1.235341e+00 7.997192e-01 1.630378e-01 2.043358e-01 2.793713e-01 2.558592e-01 5.235609e-01 3.816737e-01 4.800962e-01 4.289407e-01 4.019936e-01 3.335570e-01 3.862574e-01 2.871023e-01 2.044566e-01
<GCONST> 1.074542e+02
<STATE> 4
<MEAN> 39
 -4.739408e+00 1.316808e+00 1.229485e+01 -1.620106e+00 -1.863037e+01 -7.762696e+00 -1.139638e+01 -6.464055e+00 -1.109492e+01 -4.178055e+00 2.617485e+00 -5.663292e+00 5.900407e+01 3.541026e-01 4.416421e-01 -1.384679e+00 5.209044e-01 1.649626e+00 -3.539056e-01 9.680985e-01 2.374276e-01 7.510955e-01 2.688819e-01 -1.038925e+00 2.337009e-01 -1.989023e+00 -9.537289e-02 -2.426595e-03 -1.391088e-01 -7.583972e-02 1.963616e-01 2.076902e-01 -4.749025e-02 -8.997931e-02 1.023237e-01 3.804007e-03 -1.353789e-01 -9.057397e-03 -9.863381e-02
<VARIANCE> 39
 2.279777e+01 4.458873e+01 4.805994e+01 4.130545e+01 5.990598e+01 7.601427e+01 4.746030e+01 6.511308e+01 4.543430e+01 3.842984e+01 4.397991e+01 3.297545e+01 1.249543e+02 2.491880e+00 2.949819e+00 2.539375e+00 2.468506e+00 3.824221e+00 3.631979e+00 4.158715e+00 4.383945e+00 3.597418e+00 2.785317e+00 3.134974e+00 2.558839e+00 4.307801e+00 3.389011e-01 4.692524e-01 4.166317e-01 4.124083e-01 7.754387e-01 6.442339e-01 6.684715e-01 7.391465e-01 5.965614e-01 5.060126e-01 6.007974e-01 4.276081e-01 6.306838e-01
<GCONST> 1.294221e+02
<TRANSP> 5
 0.000000e+00 1.000000e+00 0.000000e+00 0.000000e+00 0.000000e+00
 0.000000e+00 6.283628e-01 3.716372e-01 0.000000e+00 0.000000e+00
 0.000000e+00 0.000000e+00 7.990189e-01 2.009811e-01 0.000000e+00
 0.000000e+00 0.000000e+00 0.000000e+00 7.565166e-01 2.434834e-01
 0.000000e+00 0.000000e+00 0.000000e+00 0.000000e+00 0.000000e+00
<ENDHMM>
~h "j"
<BEGINHMM>
<NUMSTATES> 5
<STATE> 2
<MEAN> 39
 -2.819637e+00 5.356564e+00 6.886382e+00 1.093666e+00 -8.325184e+00 -6.418734e+00 -7.806444e+00 -1.832178e+00 -4.027715e+00 -5.347581e+00 -3.107816e+00 -4.105268e+00 5.082505e+01 -7.296728e-01 6.561821e-01 2.298807e-01 -4.056895e-02 9.755106e-01 1.863925e-01 5.074114e-01 3.847884e-03 2.764408e-01 -1.052416e-02 -1.806283e-01 2.084639e-01 -2.645239e-01 -5.294003e-01 -3.548778e-01 -1.799546e-01 -2.720163e-01 -5.040000e-02 -1.318952e-02 -1.377774e-01 -1.948163e-01 -1.319404e-01 6.185100e-02 2.369492e-01 1.072225e-01 7.837519e-01
<VARIANCE> 39
 5.325865e+01 4.655639e+01 5.429359e+01 2.938782e+01 4.659909e+01 4.157516e+01 4.342050e+01 3.957936e+01 3.634561e+01 3.137611e+01 2.820323e+01 2.156536e+01 1.008774e+02 7.779834e+00 3.852706e+00 3.059079e+00 2.913511e+00 3.916078e+00 3.201119e+00 3.621529e+00 3.982404e+00 3.202752e+00 2.598991e+00 2.675047e+00 2.248293e+00 8.371459e+00 1.142426e+00 6.193825e-01 4.827091e-01 5.074205e-01 7.376775e-01 6.360849e-01 6.320490e-01 7.146764e-01 6.144360e-01 5.044093e-01 4.869078e-01 4.725995e-01 1.136579e+00
<GCONST> 1.309565e+02
<STATE> 3
<MEAN> 39
 -1.576766e+01 6.128562e+00 7.467959e+00 -2.242256e+00 -4.336530e+00 -6.564636e+00 -6.992826e+00 -6.193003e+00 -5.582375e+00 -5.114027e+00 -1.306485e+00 -7.855845e-01 6.531712e+01 -1.153943e+00 -1.392568e+00 5.386099e-01 -5.063565e-01 -2.328694e+00 -1.570114e+00 -1.177865e+00 -4.618058e-01 -6.855581e-01 -3.506661e-01 1.399613e+00 1.095898e+00 3.736020e+00 1.901341e+00 -6.104871e-01 1.443470e-01 2.009295e-01 -1.344677e+00 -2.676587e-01 -6.698157e-01 6.925492e-01 2.351353e-01 -1.078960e-01 2.142294e-01 -4.000902e-01 -4.108611e-01
<VARIANCE> 39
 3.096974e+01 3.263848e+01 5.000583e+01 2.166970e+01 4.234486e+01 4.520213e+01 3.016265e+01 2.517172e+01 2.684471e+01 2.095699e+01 1.786063e+01 1.758996e+01 2.537743e+01 1.328092e+01 3.975704e+00 4.236947e+00 3.947631e+00 7.864748e+00 4.044071e+00 3.870389e+00 4.077962e+00 3.392332e+00 2.516234e+00 2.497645e+00 2.060085e+00 3.626130e+00 8.533069e-01 8.792727e-01 8.882033e-01 6.893514e-01 1.221626e+00 1.084303e+00 6.542771e-01 9.662299e-01 8.454775e-01 5.508187e-01 5.507013e-01 6.025211e-01 5.659169e-01
<GCONST> 1.297700e+02
<STATE> 4
<MEAN> 39
 -5.978273e+00 -3.036700e+00 9.635998e+00 -2.893109e+00 -1.853806e+01 -1.261943e+01 -1.471675e+01 -1.430346e+00 -5.001579e+00 -6.610562e+00 4.141850e+00 -5.406841e-01 7.259361e+01 2.763665e+00 -3.305984e+00 -1.408408e+00 -8.583704e-01 -2.437522e+00 1.526344e-01 -1.755640e+00 2.370433e+00 1.439205e+00 3.063464e-01 7.955988e-01 -1.702160e+00 1.516082e+00 -1.246420e-01 2.685829e-01 -8.604226e-01 -2.010982e-01 1.329687e+00 1.065585e+00 5.932534e-01 5.610781e-02 2.865227e-01 3.056787e-01 -6.901594e-01 -7.440733e-01 -7.335111e-01
<VARIANCE> 39
 1.652085e+01 3.188782e+01 3.158405e+01 3.734947e+01 3.149685e+01 2.899994e+01 3.381052e+01 5.510794e+01 4.689094e+01 3.121515e+01 2.160867e+01 2.163377e+01 1.883628e+01 2.245984e+00 3.068522e+00 4.149068e+00 3.042039e+00 6.887576e+00 4.530252e+00 4.858076e+00 7.132977e+00 4.253284e+00 3.057612e+00 3.676313e+00 2.727176e+00 1.113200e+00 7.585596e-01 5.299643e-01 3.834418e-01 5.506309e-01 7.745482e-01 6.190692e-01 6.163660e-01 9.504762e-01 6.242895e-01 5.655622e-01 6.977261e-01 4.330586e-01 1.484138e-01
<GCONST> 1.242836e+02
<TRANSP> 5
 0.000000e+00 1.000000e+00 0.000000e+00 0.000000e+00 0.000000e+00
 0.000000e+00 8.584206e-01 1.415795e-01 0.000000e+00 0.000000e+00
 0.000000e+00 0.000000e+00 6.770318e-01 3.229682e-01 0.000000e+00
 0.000000e+00 0.000000e+00 0.000000e+00 5.980261e-01 4.019739e-01
 0.000000e+00 0.000000e+00 0.000000e+00 0.000000e+00 0.000000e+00
<ENDHMM>
~h "k"
<BEGINHMM>
<NUMSTATES> 5
<STATE> 2
<MEAN> 39
 -7.123259e+00 -5.434749e-01 -2.947573e+00 -2.984422e+00 -5.646295e+00 -4.531634e+00 -6.557995e+00 -2.771345e+00 -4.139308e+00 -1.743317e+00 -2.649207e+00 -4.088459e+00 4.275399e+01 -4.800434e-01 2.777919e-01 -9.997032e-02 1.913737e-01 1.642601e-01 -1.546680e-01 1.829034e-01 -1.173295e-01 1.817396e-01 -5.910273e-02 -5.254260e-02 3.266678e-01 -1.450341e+00 -7.736338e-02 -2.286119e-01 -8.969045e-02 -1.044832e-01 1.221510e-02 5.712051e-03 -6.261525e-02 5.456459e-02 -1.707526e-02 1.914175e-02 2.186257e-02 -7.457537e-03 4.925925e-01
<VARIANCE> 39
 3.965969e+01 3.789187e+01 3.879728e+01 3.587470e+01 4.505375e+01 4.347133e+01 3.847289e+01 4.231358e+01 3.904749e+01 3.357305e+01 3.338886e+01 3.419574e+01 1.013599e+02 1.210978e+00 1.592334e+00 1.606404e+00 1.906448e+00 2.450324e+00 2.357699e+00 2.380266e+00 2.470414e+00 2.507408e+00 2.345525e+00 2.230952e+00 1.975735e+00 4.295282e+00 2.475284e-01 4.041882e-01 3.706015e-01 4.147222e-01 5.139215e-01 4.618876e-01 4.975522e-01 4.832566e-01 5.234514e-01 4.829231e-01 4.531415e-01 3.963823e-01 6.525105e-01
<GCONST> 1.194999e+02
<STATE> 3
<MEAN> 39
 -7.735483e+00 6.031603e-01 -1.962708e+00 -2.898045e+00 -6.739233e+00 -5.248343e+00 -7.432682e+00 -4.256142e+00 -4.934867e+00 -1.285774e+00 -2.273554e+00 -3.532097e+00 4.347704e+01 -1.280789e+00 -1.463126e+00 -1.552818e+00 -3.339881e-01 1.208160e+00 -4.519157e-01 -1.048548e-01 4.713250e-01 1.756803e-01 3.656296e-01 -2.627902e-01 5.958032e-01 1.760295e+00 9.921531e-02 -4.710456e-01 -3.012750e-01 -3.284903e-01 -3.335660e-02 7.961560e-03 -1.508705e-01 2.094732e-01 -7.733724e-02 1.209355e-01 -6.421079e-03 -1.907880e-01 1.691742e+00
<VARIANCE> 39
 4.439935e+01 4.322992e+01 6.034826e+01 4.926408e+01 6.508690e+01 5.719444e+01 4.666120e+01 5.143972e+01 4.857689e+01 3.717624e+01 3.833709e+01 3.199658e+01 9.157436e+01 3.818599e+00 5.622643e+00 6.477729e+00 5.081143e+00 6.434805e+00 5.540790e+00 5.408893e+00 5.088570e+00 4.890462e+00 4.258514e+00 3.906358e+00 3.349362e+00 1.645620e+01 6.453124e-01 8.402842e-01 8.769646e-01 7.759306e-01 1.083610e+00 9.328312e-01 8.979290e-01 8.651509e-01 8.400383e-01 7.439933e-01 7.144912e-01 6.151309e-01 1.704830e+00
<GCONST> 1.422281e+02
<STATE> 4
<MEAN> 39
 -1.102303e+01 -7.160576e+00 -9.982028e+00 -6.024180e+00 -1.845567e+00 -7.234692e+00 -9.366906e+00 -1.225347e+00 -4.492014e+00 1.062224e+00 -4.256441e+00 -2.885168e+00 6.137312e+01 1.073583e+00 -5.536587e-01 8.244228e-02 -8.648571e-01 -1.020065e+00 -6.214830e-02 -4.760920e-01 6.192180e-01 -1.145958e-01 -1.181445e-01 2.384594e-01 -1.110401e+00 4.326948e+00 9.060411e-01 4.430882e-01 9.641537e-01 4.014045e-02 -1.021057e+00 4.488357e-01 1.221009e-02 -1.072256e-01 2.124137e-02 -4.596581e-01 4.140697e-01 -5.962624e-01 -5.990719e-01
<VARIANCE> 39
 3.435879e+01 4.360657e+01 6.882819e+01 5.731389e+01 6.182033e+01 7.318516e+01 4.681056e+01 4.865736e+01 5.347952e+01 3.948275e+01 3.726720e+01 3.308046e+01 6.648686e+01 5.932180e+00 5.523644e+00 8.078720e+00 4.744169e+00 8.014353e+00 6.091382e+00 4.863576e+00 5.759315e+00 5.126804e+00 4.499930e+00 4.305302e+00 4.651423e+00 1.193720e+01 7.402923e-01 9.274998e-01 1.217499e+00 9.256151e-01 1.302419e+00 1.134086e+00 1.100438e+00 1.017488e+00 9.799775e-01 8.844218e-01 8.296012e-01 8.085493e-01 1.251215e+00
<GCONST> 1.452867e+02
<TRANSP> 5
 0.000000e+00 1.000000e+00 0.000000e+00 0.000000e+00 0.000000e+00
 0.000000e+00 8.095901e-01 1.904099e-01 0.000000e+00 0.000000e+00
 0.000000e+00 0.000000e+00 6.557996e-01 3.442004e-01 0.000000e+00
 0.000000e+00 0.000000e+00 0.000000e+00 6.404541e-01 3.595459e-01
 0.000000e+00 0.000000e+00 0.000000e+00 0.000000e+00 0.000000e+00
<ENDHMM>
~h "l"
<BEGINHMM>
<NUMSTATES> 5
<STATE> 2
<MEAN> 39
 1.914901e+00 -9.270899e+00 -2.079151e+00 -6.941899e+00 -1.502255e+01 -4.693611e-01 -1.499785e+01 -1.031926e+01 4.873782e-02 6.863384e-01 3.916223e-01 -7.792819e+00 6.990530e+01 6.920012e-01 -4.181072e-01 8.408487e-01 1.741544e-02 3.044935e-01 -1.313983e-01 -1.295360e+00 -1.108815e+00 5.314206e-02 1.247543e+00 -3.031547e-02 -2.134630e-01 -4.607230e-01 -1.715315e-01 2.012122e-01 3.323890e-02 -2.629201e-01 1.762922e-01 8.448393e-02 2.765991e-02 3.439107e-01 -2.478373e-01 -2.279887e-01 8.248509e-02 -1.907569e-02 -3.492884e-02
<VARIANCE> 39
 2.088264e+01 3.072861e+01 6.361186e+01 7.135974e+01 5.944334e+01 1.036497e+02 7.691610e+01 1.342249e+02 7.905904e+01 6.324375e+01 5.409198e+01 4.482071e+01 2.581959e+01 1.091127e+00 2.639159e+00 3.513893e+00 5.927307e+00 5.666497e+00 7.858839e+00 4.680085e+00 6.042325e+00 5.355590e+00 4.615222e+00 4.675963e+00 3.729451e+00 1.110650e+00 2.375003e-01 3.221669e-01 4.260525e-01 6.714298e-01 8.767015e-01 9.647371e-01 8.797887e-01 1.076799e+00 8.578800e-01 8.231481e-01 6.936647e-01 5.698266e-01 1.450530e-01
<GCONST> 1.342451e+02
<STATE> 3
<MEAN> 39
 2.957652e+00 -9.951630e+00 -3.271260e-02 -1.117225e+01 -1.311417e+01 2.441626e+00 -1.909361e+01 -9.800491e+00 2.889703e-01 3.804709e+00 5.122383e-01 -9.305101e+00 6.931734e+01 -8.421835e-03 2.270781e-01 3.151103e-02 -2.618150e-01 3.180073e-01 1.867379e-02 -1.458270e-01 4.299428e-02 -1.885922e-01 9.886575e-02 -1.849149e-02 -2.847426e-02 -1.748364e-01 -2.419162e-01 -9.842868e-03 -3.158235e-01 1.608261e-01 2.409452e-02 -2.184164e-02 4.507828e-01 4.118839e-01 5.088272e-02 -4.223153e-01 -1.645196e-01 -3.529982e-02 1.618939e-01
<VARIANCE> 39
 1.741815e+01 2.998468e+01 5.899468e+01 7.503178e+01 5.115361e+01 8.659406e+01 7.315872e+01 9.877029e+01 7.786816e+01 6.258813e+01 5.187774e+01 3.991423e+01 1.973590e+01 5.064012e-01 9.605464e-01 1.825355e+00 2.046632e+00 1.772854e+00 2.604626e+00 2.551148e+00 3.342430e+00 2.568602e+00 2.393041e+00 2.118229e+00 1.755628e+00 7.511483e-01 1.088390e-01 2.715603e-01 3.050244e-01 4.339987e-01 5.321658e-01 5.992823e-01 6.125712e-01 6.442707e-01 5.669948e-01 5.866458e-01 5.285473e-01 4.223581e-01 1.182475e-01
<GCONST> 1.174842e+02
<STATE> 4
<MEAN> 39
 5.313398e-02 -6.084736e+00 -1.101307e+00 -7.641580e+00 -9.728295e+00 -9.141154e-01 -1.527045e+01 -7.846502e+00 -1.721311e+00 1.099878e+00 -1.539105e+00 -7.669351e+00 6.275054e+01 -7.005793e-01 3.023310e-01 -4.209777e-01 4.488565e-01 2.603467e-01 -2.630638e-01 1.039079e+00 9.562659e-01 7.487335e-04 -8.035265e-01 -4.335677e-01 1.729550e-01 -2.297979e-01 -1.096511e-01 -7.872716e-02 -1.032402e-01 -9.565041e-03 -1.903519e-01 1.318483e-01 2.653801e-01 1.881177e-01 -1.905554e-02 -1.758145e-01 4.558530e-02 -4.651743e-03 1.193380e-01
<VARIANCE> 39
 3.200835e+01 4.033218e+01 6.963464e+01 7.244204e+01 5.950331e+01 8.809505e+01 8.876457e+01 9.821934e+01 6.089557e+01 6.233360e+01 5.338659e+01 4.249108e+01 1.198005e+02 1.476818e+00 3.387938e+00 3.192483e+00 3.854360e+00 4.776754e+00 5.319438e+00 4.777815e+00 5.710110e+00 5.036293e+00 4.246932e+00 4.070367e+00 3.229146e+00 4.245251e+00 2.524453e-01 4.140942e-01 3.894754e-01 6.516607e-01 8.627003e-01 7.993378e-01 9.502965e-01 7.910592e-01 7.076287e-01 7.461695e-01 6.963058e-01 5.242785e-01 3.818097e-01
<GCONST> 1.366089e+02
<TRANSP> 5
 0.000000e+00 1.000000e+00 0.000000e+00 0.000000e+00 0.000000e+00
 0.000000e+00 5.116569e-01 4.883431e-01 0.000000e+00 0.000000e+00
 0.000000e+00 0.000000e+00 6.855071e-01 3.144929e-01 0.000000e+00
 0.000000e+00 0.000000e+00 0.000000e+00 5.555148e-01 4.444852e-01
 0.000000e+00 0.000000e+00 0.000000e+00 0.000000e+00 0.000000e+00
<ENDHMM>
~h "m"
<BEGINHMM>
<NUMSTATES> 5
<STATE> 2
<MEAN> 39
 3.050005e+00 -2.772944e+00 9.141010e-01 -3.478327e+00 -9.564973e+00 8.597528e-01 -9.688773e+00 -1.081417e+01 -1.347767e+01 -1.992231e+00 -7.652633e-01 -8.827772e+00 6.069854e+01 4.620530e-01 8.737042e-01 1.566431e+00 1.641130e+00 2.840450e-01 2.772515e-01 8.927392e-01 -2.389608e+00 -2.654777e+00 1.580313e-01 -6.948566e-01 4.939910e-02 -7.897379e-01 -2.891050e-01 -3.259634e-01 -1.044526e-01 -2.883438e-01 -9.077527e-02 4.465403e-02 -2.680130e-02 3.815134e-01 4.208457e-01 -1.273486e-01 -1.219156e-02 1.165876e-02 3.972515e-01
<VARIANCE> 39
 2.215780e+01 3.419108e+01 3.309132e+01 5.193785e+01 5.608827e+01 8.102444e+01 5.935223e+01 6.304775e+01 7.258192e+01 5.747639e+01 6.456233e+01 3.943370e+01 6.406972e+01 1.803615e+00 2.928448e+00 3.367882e+00 3.870707e+00 3.656795e+00 4.261011e+00 4.511530e+00 4.947463e+00 5.384414e+00 4.726571e+00 6.140590e+00 3.766357e+00 4.222519e+00 2.540915e-01 3.284519e-01 4.804468e-01 4.943212e-01 5.592723e-01 5.313439e-01 6.001503e-01 8.107902e-01 9.826886e-01 6.079692e-01 8.031418e-01 5.003584e-01 2.916023e-01
<GCONST> 1.321319e+02
<STATE> 3
<MEAN> 39
 3.383961e+00 -2.737022e+00 4.242071e+00 -2.238155e+00 -1.048671e+01 2.577490e+00 -8.129139e+00 -1.351456e+01 -1.627103e+01 -3.195063e+00 -3.108757e+00 -9.226979e+00 6.211300e+01 -2.873069e-02 1.935952e-01 1.220729e-01 9.607159e-02 5.720078e-02 3.695732e-02 2.424997e-01 -4.376370e-02 -6.287802e-02 -3.062350e-02 -1.870251e-01 1.545127e-01 -1.333827e-01 -3.537482e-02 -8.512264e-02 -3.739538e-01 -3.954977e-01 -2.449055e-02 -8.534141e-02 -1.799545e-01 4.784151e-01 5.709132e-01 -2.434049e-02 2.218428e-01 1.027184e-02 1.500840e-01
<VARIANCE> 39
 1.328450e+01 2.184431e+01 2.419857e+01 5.084033e+01 7.201747e+01 9.606233e+01 6.729934e+01 5.319559e+01 6.710188e+01 7.810200e+01 7.197672e+01 4.121444e+01 2.725841e+01 2.606212e-01 7.839119e-01 8.886441e-01 1.304844e+00 1.216388e+00 1.746264e+00 1.460595e+00 1.781075e+00 2.080671e+00 1.830595e+00 2.299773e+00 1.445744e+00 8.704385e-01 8.959764e-02 1.828093e-01 2.999442e-01 4.002042e-01 3.084255e-01 3.746095e-01 4.051237e-01 5.510337e-01 6.844283e-01 4.788216e-01 5.869235e-01 3.887294e-01 1.694661e-01
<GCONST> 1.097640e+02
<STATE> 4
<MEAN> 39
 -2.110209e+00 -4.375089e-01 9.580402e-01 -1.178268e+00 -5.793893e+00 2.970032e-01 -6.337951e+00 -8.580444e+00 -1.040404e+01 -2.428203e+00 -3.459500e+00 -5.156240e+00 5.112289e+01 -3.827775e-02 -2.219396e-01 -5.929582e-01 -7.473274e-01 7.946503e-04 -3.566173e-02 -2.901450e-01 7.214217e-01 9.289081e-01 -3.552667e-02 3.975187e-01 -4.470921e-02 4.822967e-01 -5.063581e-02 -2.027501e-01 -1.615770e-01 -2.170526e-01 -3.809365e-02 3.728117e-02 -2.095228e-01 2.722494e-01 2.941760e-01 -5.694474e-02 1.086107e-01 -1.311114e-01 2.297263e-01
<VARIANCE> 39
 5.107661e+01 3.425390e+01 3.781072e+01 4.150621e+01 5.717603e+01 6.271981e+01 4.642812e+01 6.647195e+01 8.468913e+01 5.038394e+01 5.180183e+01 3.655425e+01 1.431014e+02 2.177955e+00 2.617259e+00 3.546411e+00 4.152215e+00 2.914616e+00 3.370759e+00 3.324114e+00 4.384130e+00 6.241956e+00 3.418855e+00 4.006618e+00 2.685458e+00 5.177313e+00 3.329198e-01 3.590259e-01 4.563687e-01 5.238473e-01 4.988823e-01 5.117404e-01 5.075657e-01 7.590681e-01 9.113629e-01 5.497392e-01 6.312240e-01 4.332164e-01 3.800125e-01
<GCONST> 1.312359e+02
<TRANSP> 5
 0.000000e+00 1.000000e+00 0.000000e+00 0.000000e+00 0.000000e+00
 0.000000e+00 5.483779e-01 4.516222e-01 0.000000e+00 0.000000e+00
 0.000000e+00 0.000000e+00 7.558814e-01 2.441186e-01 0.000000e+00
 0.000000e+00 0.000000e+00 0.000000e+00 7.424066e-01 2.575934e-01
 0.000000e+00 0.000000e+00 0.000000e+00 0.000000e+00 0.000000e+00
<ENDHMM>
~h "n"
<BEGINHMM>
<NUMSTATES> 5
<STATE> 2
<MEAN> 39
 3.028221e+00 -4.467513e+00 2.731960e+00 -4.686377e-01 -1.354812e+01 -6.152238e+00 -1.210569e+01 -8.124964e+00 -5.928067e+00 4.037135e-02 -7.195171e+00 -8.833223e+00 6.449449e+01 7.786929e-01 2.153058e+00 1.492183e+00 1.374077e+00 -3.627802e-01 -6.685917e-01 9.548394e-01 -3.245770e+00 -1.163400e+00 1.305540e+00 -1.339240e+00 6.406138e-01 -2.076679e+00 -2.749099e-01 -2.815398e-01 -2.580381e-01 -4.821076e-01 1.315771e-02 3.840778e-01 9.945274e-02 4.972627e-01 6.492969e-02 -2.796240e-01 3.079472e-01 1.870768e-02 4.025838e-01
<VARIANCE> 39
 1.099672e+01 3.027824e+01 3.525788e+01 3.754498e+01 4.498308e+01 6.170967e+01 5.042692e+01 8.378949e+01 6.276759e+01 4.341926e+01 4.972857e+01 4.567452e+01 2.421954e+01 7.715752e-01 1.929563e+00 3.500822e+00 2.783690e+00 3.595927e+00 4.942735e+00 4.027635e+00 5.793156e+00 3.892288e+00 3.910802e+00 4.052559e+00 3.545305e+00 1.087277e+00 1.276127e-01 3.694593e-01 3.724348e-01 3.515887e-01 4.911340e-01 5.315767e-01 5.878819e-01 9.946243e-01 5.575747e-01 5.948266e-01 5.144109e-01 4.404772e-01 2.046137e-01
<GCONST> 1.228085e+02
<STATE> 3
<MEAN> 39
 3.672045e+00 -1.325608e+00 5.634227e+00 2.901716e-01 -1.486813e+01 -6.329389e+00 -9.839291e+00 -1.160737e+01 -7.967819e+00 1.092444e+00 -8.844564e+00 -8.027958e+00 6.137789e+01 4.206362e-02 5.792027e-01 1.680025e-01 2.362674e-01 2.495235e-01 8.313923e-02 3.043810e-01 -1.721706e-01 -2.893420e-01 7.706925e-02 -7.476663e-02 2.423151e-01 -7.174668e-01 -1.955767e-01 -1.738152e-01 -1.866806e-01 -1.537280e-01 2.474464e-01 9.307348e-02 -1.512180e-01 5.103757e-01 1.603454e-01 -2.508991e-01 2.368841e-01 -4.277028e-02 1.140418e-01
<VARIANCE> 39
 1.057069e+01 2.078673e+01 2.709624e+01 4.138274e+01 5.625435e+01 8.853185e+01 5.789318e+01 5.412914e+01 5.890111e+01 4.818390e+01 5.552017e+01 5.182098e+01 2.378667e+01 3.288697e-01 8.940522e-01 7.966987e-01 1.023598e+00 1.496997e+00 1.463708e+00 1.674704e+00 1.993300e+00 1.806073e+00 1.782692e+00 1.762741e+00 1.399765e+00 7.369658e-01 1.242099e-01 2.458857e-01 3.022128e-01 3.212691e-01 3.745478e-01 4.191270e-01 4.122083e-01 6.253366e-01 4.234787e-01 4.635236e-01 4.461705e-01 3.461776e-01 2.042736e-01
<GCONST> 1.079563e+02
<STATE> 4
<MEAN> 39
 -2.082483e+00 7.863789e-01 2.760009e+00 5.666788e-01 -7.926939e+00 -4.835638e+00 -7.732918e+00 -7.269241e+00 -6.866483e+00 -1.329435e+00 -6.441798e+00 -5.043341e+00 5.024804e+01 -7.675035e-01 -2.992469e-02 -3.560582e-01 -2.857087e-01 7.053361e-01 1.617497e-01 -4.040208e-02 8.025844e-01 3.508943e-01 -5.112160e-01 4.785087e-01 1.455329e-01 -5.893759e-01 -1.426218e-01 -2.260872e-01 -1.208725e-01 -1.873167e-01 -6.752500e-02 6.266888e-02 -7.957757e-02 1.880301e-01 1.190199e-01 -1.195856e-01 1.329153e-01 -5.088508e-02 2.255204e-01
<VARIANCE> 39
 4.588416e+01 3.865912e+01 4.220675e+01 3.572459e+01 6.143747e+01 5.122025e+01 5.363463e+01 6.049805e+01 5.664689e+01 4.603154e+01 4.837778e+01 4.199045e+01 1.158320e+02 1.916093e+00 3.275174e+00 2.587314e+00 2.741417e+00 3.529557e+00 3.411983e+00 3.266330e+00 4.372690e+00 3.704725e+00 3.420916e+00 3.236355e+00 2.564004e+00 4.716021e+00 3.890413e-01 5.199854e-01 4.505827e-01 4.866670e-01 6.266934e-01 6.074750e-01 5.871539e-01 8.554088e-01 6.921905e-01 6.566751e-01 6.050846e-01 4.723215e-01 5.024507e-01
<GCONST> 1.305011e+02
<TRANSP> 5
 0.000000e+00 1.000000e+00 0.000000e+00 0.000000e+00 0.000000e+00
 0.000000e+00 5.402139e-01 4.597861e-01 0.000000e+00 0.000000e+00
 0.000000e+00 0.000000e+00 7.629911e-01 2.370089e-01 0.000000e+00
 0.000000e+00 0.000000e+00 0.000000e+00 7.467109e-01 2.532891e-01
 0.000000e+00 0.000000e+00 0.000000e+00 0.000000e+00 0.000000e+00
<ENDHMM>
~h "o"
<BEGINHMM>
<NUMSTATES> 5
<STATE> 2
<MEAN> 39
 9.123895e-01 -3.802775e+00 -7.342044e+00 -1.438875e+01 -1.196212e+01 3.429195e+00 -1.161046e+01 -5.322304e+00 -3.396225e+00 -1.298662e+00 2.034473e+00 -7.058925e+00 6.599756e+01 1.784814e+00 -7.743208e-01 -8.630376e-01 -2.377179e+00 -1.672336e+00 2.532723e+00 -6.144686e-01 1.822746e-02 5.817630e-01 -1.509480e-01 1.566785e+00 -1.069239e+00 2.205980e+00 -4.026768e-01 5.588870e-03 1.542569e-01 2.971703e-01 2.548817e-01 4.478557e-02 2.308148e-01 1.363268e-02 -1.171692e-01 -4.018033e-02 -3.742714e-02 1.417194e-01 -5.119797e-01
<VARIANCE> 39
 3.019413e+01 3.728540e+01 4.157652e+01 9.589014e+01 5.837465e+01 8.442089e+01 6.807420e+01 6.818482e+01 7.131056e+01 5.909785e+01 5.017620e+01 3.789526e+01 1.009151e+02 4.320819e+00 2.782185e+00 4.879049e+00 6.107363e+00 7.202624e+00 5.448777e+00 4.131617e+00 5.789246e+00 5.099961e+00 5.582367e+00 4.101290e+00 3.800703e+00 5.463741e+00 7.346726e-01 5.093914e-01 5.535190e-01 1.182484e+00 8.817690e-01 1.018899e+00 8.018498e-01 7.819691e-01 9.218935e-01 7.237423e-01 6.766405e-01 5.878854e-01 1.204820e+00
<GCONST> 1.418489e+02
<STATE> 3
<MEAN> 39
 2.747405e+00 -7.026104e+00 -9.445263e+00 -1.721879e+01 -1.449806e+01 9.416563e+00 -1.371858e+01 -5.758724e+00 -2.179568e+00 -1.763751e+00 6.354889e+00 -9.841435e+00 7.240170e+01 1.792371e-02 -2.701359e-01 -2.139880e-01 -3.711992e-01 9.455374e-02 7.581270e-01 7.619689e-03 6.313239e-02 -9.531722e-03 2.446532e-02 2.775470e-01 -2.507080e-01 1.855490e-01 -2.110297e-01 2.615573e-01 3.439665e-01 6.330084e-01 3.405400e-01 -7.800552e-01 1.548050e-01 -4.349068e-02 -1.857688e-01 2.216163e-02 -5.644357e-01 3.087870e-01 -5.067171e-01
<VARIANCE> 39
 1.215756e+01 2.788931e+01 3.128055e+01 6.895969e+01 5.413421e+01 5.995558e+01 5.868230e+01 7.722549e+01 6.587690e+01 6.828290e+01 4.776789e+01 3.802637e+01 1.228618e+01 5.142766e-01 1.374466e+00 1.561831e+00 4.419852e+00 2.404480e+00 4.665100e+00 3.281567e+00 3.104407e+00 3.441157e+00 3.476630e+00 2.936614e+00 2.299210e+00 7.949308e-01 2.295970e-01 2.669604e-01 3.104047e-01 4.719062e-01 6.953073e-01 5.228469e-01 5.704694e-01 6.627701e-01 6.395347e-01 6.986124e-01 5.123639e-01 5.149643e-01 2.288122e-01
<GCONST> 1.202839e+02
<STATE> 4
<MEAN> 39
 2.758965e+00 -4.279984e+00 -8.134711e+00 -2.000752e+01 -1.278573e+01 9.210812e+00 -1.185481e+01 -4.924682e+00 -4.044990e+00 -2.933695e+00 3.625881e+00 -7.623116e+00 6.821236e+01 1.878699e-02 4.273870e-01 3.520896e-01 9.324400e-01 4.109716e-01 -7.484024e-01 1.824126e-01 -1.753563e-01 -1.465177e-01 1.133336e-01 -6.754484e-01 1.373269e-01 -1.051169e+00 -4.768371e-02 7.910912e-02 1.360018e-01 3.355457e-01 6.824949e-02 -2.027995e-01 4.008783e-02 -9.827539e-02 -6.624800e-03 4.477068e-02 -1.351079e-01 2.487138e-02 -2.542845e-01
<VARIANCE> 39
 1.423415e+01 4.312426e+01 3.211992e+01 6.723756e+01 6.169091e+01 5.568382e+01 5.908875e+01 7.167742e+01 6.779787e+01 7.504690e+01 4.784433e+01 4.294792e+01 4.892328e+01 5.605085e-01 1.495889e+00 1.393206e+00 3.037915e+00 2.346447e+00 2.636256e+00 2.325182e+00 2.320858e+00 2.523732e+00 2.495982e+00 2.394611e+00 1.879480e+00 2.399050e+00 1.141397e-01 2.358952e-01 2.177817e-01 3.527986e-01 3.746738e-01 3.939479e-01 4.294612e-01 4.054943e-01 4.511074e-01 4.430515e-01 3.727846e-01 3.481209e-01 2.526300e-01
<GCONST> 1.164450e+02
<TRANSP> 5
 0.000000e+00 1.000000e+00 0.000000e+00 0.000000e+00 0.000000e+00
 0.000000e+00 5.489388e-01 4.510612e-01 0.000000e+00 0.000000e+00
 0.000000e+00 0.000000e+00 6.956784e-01 3.043216e-01 0.000000e+00
 0.000000e+00 0.000000e+00 0.000000e+00 8.111008e-01 1.888992e-01
 0.000000e+00 0.000000e+00 0.000000e+00 0.000000e+00 0.000000e+00
<ENDHMM>
~h "p"
<BEGINHMM>
<NUMSTATES> 5
<STATE> 2
<MEAN> 39
 -5.267929e+00 2.626964e-01 -2.927332e+00 -3.502050e+00 -5.862344e+00 -3.187220e+00 -6.853578e+00 -4.160430e+00 -3.859828e+00 -2.044086e+00 -2.476549e+00 -4.979848e+00 4.177234e+01 -6.872000e-01 3.105199e-01 -1.275893e-01 1.852032e-01 1.505070e-01 -3.573316e-01 2.144500e-01 7.898069e-03 1.910423e-01 4.090684e-02 -1.256027e-01 2.887783e-01 -1.313035e+00 -7.305340e-02 -1.852258e-01 -1.505738e-02 -8.697485e-02 -3.785710e-02 1.972161e-02 -3.242960e-02 3.435589e-02 9.045717e-03 9.832664e-03 7.881247e-02 2.353512e-02 5.582126e-01
<VARIANCE> 39
 4.496780e+01 3.424068e+01 3.369031e+01 3.327842e+01 3.163650e+01 3.818397e+01 3.303053e+01 3.532656e+01 3.337490e+01 2.890956e+01 2.912714e+01 3.466611e+01 6.958231e+01 1.135898e+00 1.431267e+00 1.416566e+00 1.618804e+00 1.791321e+00 2.007204e+00 1.930784e+00 2.109103e+00 2.220678e+00 2.028635e+00 2.121683e+00 1.775351e+00 3.195259e+00 2.245519e-01 3.049535e-01 3.132358e-01 3.558577e-01 3.776312e-01 3.862637e-01 3.969712e-01 4.189849e-01 4.494773e-01 4.059531e-01 4.105153e-01 3.503579e-01 5.679659e-01
<GCONST> 1.134221e+02
<STATE> 3
<MEAN> 39
 -6.854485e+00 2.583936e+00 -1.311676e+00 -2.086777e+00 -5.548101e+00 -3.676452e+00 -6.205734e+00 -4.951488e+00 -4.040434e+00 -1.859253e+00 -2.588440e+00 -3.681897e+00 3.970926e+01 -8.858674e-01 -1.202344e+00 -4.618284e-01 -3.917184e-01 1.570080e-01 -2.727928e-01 5.694941e-02 2.343116e-01 5.654564e-01 -1.027986e-02 4.166484e-01 4.449431e-01 3.299433e+00 7.332307e-01 -7.551996e-01 -2.616252e-01 -6.763430e-01 -4.932481e-01 4.576484e-01 -3.394178e-01 5.642037e-03 -1.366666e-01 -1.182598e-02 3.955308e-01 -4.301125e-01 2.259022e+00
<VARIANCE> 39
 3.596850e+01 2.868786e+01 3.338048e+01 3.271270e+01 3.212357e+01 3.745707e+01 3.258563e+01 3.287692e+01 3.588889e+01 2.811212e+01 2.802671e+01 2.627256e+01 5.966433e+01 4.148409e+00 3.582757e+00 3.598130e+00 4.266994e+00 3.518680e+00 4.451951e+00 3.555790e+00 3.807339e+00 4.173438e+00 3.220420e+00 3.277540e+00 2.923886e+00 1.518041e+01 6.184621e-01 6.260976e-01 6.980073e-01 7.838438e-01 7.561632e-01 9.445180e-01 6.662373e-01 8.881781e-01 8.165716e-01 6.909288e-01 6.446908e-01 6.003725e-01 1.003359e+00
<GCONST> 1.317226e+02
<STATE> 4
<MEAN> 39
 -6.578274e+00 -4.035448e+00 -4.829745e+00 -5.850062e+00 -6.183672e+00 -3.668185e+00 -7.172210e+00 -5.321358e+00 -2.905001e+00 -2.067551e+00 -4.148346e-01 -3.706888e+00 6.028468e+01 2.449808e+00 -2.434510e+00 -1.224774e+00 -2.535003e+00 -1.675068e+00 1.856188e+00 -1.153019e+00 4.138729e-02 -9.161469e-02 -4.093706e-02 1.452446e+00 -1.541527e+00 7.359888e+00 6.145148e-01 1.100182e-02 1.190998e-01 -1.571143e-01 -5.047665e-01 5.230674e-01 -3.234095e-01 1.537317e-01 -1.061664e-01 3.944562e-03 1.170348e-02 -5.384784e-01 -6.155723e-01
<VARIANCE> 39
 3.558006e+01 2.043261e+01 2.978997e+01 4.770781e+01 2.552218e+01 4.637212e+01 2.939879e+01 2.929859e+01 2.988156e+01 2.491723e+01 2.733790e+01 2.476009e+01 6.072572e+01 4.367689e+00 5.739816e+00 6.579493e+00 7.255919e+00 5.651040e+00 9.012955e+00 4.823934e+00 6.636590e+00 6.293069e+00 4.862242e+00 4.434050e+00 4.549532e+00 1.062854e+01 9.254801e-01 8.112656e-01 7.148177e-01 1.150414e+00 1.071391e+00 1.089232e+00 7.745231e-01 8.461282e-01 9.017782e-01 6.948538e-01 8.203183e-01 6.756879e-01 1.524062e+00
<GCONST> 1.384833e+02
<TRANSP> 5
 0.000000e+00 1.000000e+00 0.000000e+00 0.000000e+00 0.000000e+00
 0.000000e+00 8.482681e-01 1.517319e-01 0.000000e+00 0.000000e+00
 0.000000e+00 0.000000e+00 5.992848e-01 4.007152e-01 0.000000e+00
 0.000000e+00 0.000000e+00 0.000000e+00 4.409131e-01 5.590869e-01
 0.000000e+00 0.000000e+00 0.000000e+00 0.000000e+00 0.000000e+00
<ENDHMM>
~h "q"
<BEGINHMM>
<NUMSTATES> 5
<STATE> 2
<MEAN> 39
 -5.847475e+00 4.026332e+00 2.214812e+00 -6.240727e-01 -1.413307e+01 -1.128484e+01 -9.227996e+00 -8.209781e+00 -9.608893e+00 2.589048e-01 6.101694e-01 -6.463464e+00 5.114861e+01 -1.497362e+00 -3.186058e-01 -2.034726e+00 -2.245609e-01 1.789783e+00 3.154232e-01 8.297850e-01 -1.724336e-01 1.229167e+00 1.909774e-01 -4.204318e-01 6.112243e-01 -2.661891e-01 -2.463434e-01 -7.294667e-01 -1.069650e-01 -1.587265e-01 2.479655e-01 5.668337e-01 1.679952e-01 7.780817e-01 3.924257e-02 -7.664575e-02 -1.259726e-01 9.803284e-02 8.868102e-01
<VARIANCE> 39
 2.695811e+01 7.103536e+01 6.836749e+01 5.536555e+01 3.146712e+01 2.028308e+01 3.904285e+01 4.642559e+01 1.708795e+01 3.903961e+01 3.219360e+01 3.678794e+01 6.412798e+01 2.475913e+00 1.088606e+01 6.295257e+00 2.823560e+00 3.669824e+00 3.449083e+00 5.428090e+00 5.220235e+00 1.420861e+00 3.672457e+00 2.967809e+00 2.459816e+00 1.036421e+01 7.138613e-01 1.309238e+00 8.901891e-01 5.594347e-01 4.570501e-01 5.070469e-01 5.917112e-01 5.529189e-01 3.037481e-01 7.750014e-01 5.422530e-01 5.056953e-01 1.626724e+00
<GCONST> 1.316103e+02
<STATE> 3
<MEAN> 39
 -1.268666e+01 -2.499403e+00 -3.191364e+00 -4.049819e-01 -7.692135e+00 -5.953734e+00 -3.845887e+00 -2.944069e+00 -7.619913e+00 2.512610e-02 -1.709146e+00 -3.019824e+00 6.109237e+01 -7.101753e-01 -3.820869e-02 -5.087135e-02 -3.265245e-01 9.130281e-01 1.542399e+00 1.400587e+00 1.389422e+00 4.835120e-01 -1.897964e-01 -5.500427e-01 -1.955148e-01 4.130208e-01 6.063223e-01 7.932771e-01 8.204771e-01 2.772948e-01 -7.292573e-01 -2.643322e-01 -3.506923e-01 -3.498086e-01 -4.496842e-02 -1.113134e-01 2.938138e-01 -2.858161e-01 -9.804301e-01
<VARIANCE> 39
 6.969712e+01 3.671716e+01 1.242801e+02 4.538180e+01 6.313001e+01 3.387870e+01 5.837877e+01 1.912406e+01 3.375441e+01 3.698314e+01 3.584688e+01 1.776502e+01 5.629973e+01 5.683728e+00 1.052739e+01 4.786777e+00 2.293289e+00 3.437312e+00 3.043016e+00 2.071622e+00 3.029700e+00 1.948597e+00 3.601445e+00 1.578099e+00 2.674169e+00 7.368838e+00 3.900150e-01 1.871222e+00 1.362342e+00 5.309873e-01 7.318701e-01 5.790306e-01 9.463631e-01 5.026347e-01 2.734609e-01 5.671136e-01 1.950000e-01 5.668022e-01 5.995375e-01
<GCONST> 1.297040e+02
<STATE> 4
<MEAN> 39
 -9.214767e+00 -3.121106e+00 1.751007e+00 2.053159e+00 -4.214684e+00 -5.040345e+00 -2.847308e+00 1.308302e+00 -3.588746e+00 7.857582e-02 4.915219e-01 -3.043926e+00 4.983186e+01 -2.118609e-03 -4.108151e-03 -9.421066e-02 1.309037e-02 7.646856e-02 1.042729e-02 2.551931e-02 8.703361e-02 1.068553e-01 -1.421162e-01 6.966384e-02 1.809386e-01 -3.751655e-01 -3.330279e-02 -4.275406e-02 -4.596720e-02 -3.903989e-02 -1.579488e-02 -4.791939e-02 -9.138367e-02 -2.010953e-02 -4.447725e-02 7.932333e-04 -7.661147e-02 1.446293e-02 9.540263e-02
<VARIANCE> 39
 7.784071e+00 3.368113e+01 1.844023e+01 1.774754e+01 2.315244e+01 2.505485e+01 1.629759e+01 2.916473e+01 2.119878e+01 1.532477e+01 2.535470e+01 1.505110e+01 3.197032e+01 4.572588e-01 1.839139e+00 9.819111e-01 1.994717e+00 1.978855e+00 1.821182e+00 1.920374e+00 1.696961e+00 1.700005e+00 1.212103e+00 1.858924e+00 1.561179e+00 1.127026e+00 1.015367e-01 2.988452e-01 1.898695e-01 4.546153e-01 4.105926e-01 4.580581e-01 4.025564e-01 3.302904e-01 3.932509e-01 2.473949e-01 3.735079e-01 3.232433e-01 1.929508e-01
<GCONST> 9.990412e+01
<TRANSP> 5
 0.000000e+00 1.000000e+00 0.000000e+00 0.000000e+00 0.000000e+00
 0.000000e+00 6.673695e-01 3.326305e-01 0.000000e+00 0.000000e+00
 0.000000e+00 0.000000e+00 5.742917e-01 4.257083e-01 0.000000e+00
 0.000000e+00 0.000000e+00 0.000000e+00 9.339222e-01 6.607781e-02
 0.000000e+00 0.000000e+00 0.000000e+00 0.000000e+00 0.000000e+00
<ENDHMM>
~h "r"
<BEGINHMM>
<NUMSTATES> 5
<STATE> 2
<MEAN> 39
 7.914819e-01 -1.003474e+01 -6.614463e+00 -3.501545e+00 -1.337709e+01 -6.059787e+00 -1.228178e+01 -3.076988e+00 8.532322e-01 2.763287e-01 -1.260641e+00 -9.981300e+00 7.042953e+01 3.673605e-01 3.815467e-01 2.761013e-01 1.716141e+00 2.837969e-01 -6.929256e-01 -1.428527e-01 -8.907326e-01 3.107043e-01 2.071120e-01 -3.891998e-01 7.438065e-01 -1.406911e+00 -2.129062e-01 1.068435e-01 1.897557e-01 -1.997061e-01 1.447563e-01 2.660708e-01 -6.520584e-03 2.013296e-01 -3.519442e-01 -2.124725e-01 5.191461e-02 7.456870e-02 -1.421797e-01
<VARIANCE> 39
 1.568441e+01 2.964142e+01 5.471694e+01 4.110197e+01 5.413008e+01 6.391930e+01 5.825697e+01 9.604131e+01 6.439410e+01 4.757717e+01 5.273616e+01 4.318697e+01 3.185509e+01 2.062653e+00 2.226605e+00 2.934611e+00 4.421145e+00 4.944013e+00 4.857627e+00 3.841032e+00 5.335050e+00 4.988494e+00 4.030056e+00 4.048667e+00 3.430619e+00 2.574657e+00 2.947915e-01 3.206670e-01 3.734394e-01 5.265010e-01 6.109169e-01 6.233097e-01 6.858475e-01 8.624125e-01 7.741131e-01 6.375220e-01 5.934026e-01 5.363815e-01 4.977849e-01
<GCONST> 1.303747e+02
<STATE> 3
<MEAN> 39
 1.125393e+00 -7.989276e+00 -6.302638e+00 8.670669e-01 -1.235565e+01 -6.028615e+00 -1.258627e+01 -6.094384e+00 1.244654e+00 -7.637283e-01 -1.064309e+00 -7.651630e+00 6.641825e+01 -9.861232e-02 4.072225e-01 5.707136e-01 3.175064e-01 3.386678e-01 -8.370420e-02 -7.944805e-02 7.819538e-02 -5.970743e-01 -2.235018e-01 -3.748483e-02 4.422324e-01 -8.841977e-01 -1.525757e-01 -2.708025e-05 1.292996e-01 -5.016643e-01 -5.151898e-02 2.194402e-01 1.069243e-01 2.644046e-01 -2.907702e-01 -8.498275e-02 1.096198e-01 -1.557386e-01 1.596892e-01
<VARIANCE> 39
 1.878846e+01 2.224311e+01 7.254063e+01 3.523405e+01 6.470850e+01 5.669476e+01 5.232639e+01 7.645107e+01 4.828634e+01 4.005351e+01 4.711752e+01 3.589353e+01 3.697347e+01 1.943463e+00 2.249329e+00 3.084419e+00 2.770261e+00 4.777709e+00 3.870660e+00 3.649429e+00 4.441815e+00 4.241177e+00 3.297187e+00 3.429519e+00 2.683878e+00 2.793375e+00 3.763445e-01 4.431146e-01 5.116541e-01 6.200988e-01 1.060647e+00 7.743153e-01 7.193276e-01 8.794309e-01 8.457810e-01 6.774732e-01 7.329329e-01 5.476807e-01 6.309970e-01
<GCONST> 1.303553e+02
<STATE> 4
<MEAN> 39
 -4.603689e+00 -4.411017e+00 -2.778887e+00 -9.947314e-01 -6.637825e+00 -5.111267e+00 -8.821824e+00 -2.251327e+00 -1.356841e+00 -1.259467e+00 -2.364532e+00 -5.006106e+00 5.504720e+01 -1.650972e-01 1.072368e-01 2.592892e-01 -1.519674e-01 -5.024388e-02 1.578550e-01 4.176823e-02 1.806808e-01 -4.618765e-01 -1.167407e-01 1.351450e-01 2.775475e-02 -3.430535e-01 1.154440e-01 -1.443056e-01 -6.310003e-02 -1.363613e-01 -2.598495e-01 1.431535e-01 -6.334468e-02 5.949400e-02 -6.532608e-02 4.334455e-03 1.066246e-01 -1.950585e-01 2.525187e-01
<VARIANCE> 39
 4.345181e+01 4.054816e+01 5.341362e+01 3.464653e+01 5.424848e+01 5.687621e+01 4.837675e+01 5.125266e+01 4.155209e+01 3.681630e+01 3.839895e+01 3.652755e+01 1.686737e+02 2.685019e+00 3.216376e+00 3.105618e+00 2.303862e+00 3.947958e+00 3.411716e+00 3.246315e+00 3.676982e+00 3.657925e+00 2.862354e+00 2.904647e+00 2.638757e+00 4.950978e+00 5.085698e-01 4.976220e-01 4.979987e-01 5.373033e-01 7.663358e-01 6.967399e-01 6.196651e-01 7.276013e-01 6.734601e-01 5.795360e-01 5.846965e-01 5.421479e-01 6.045269e-01
<GCONST> 1.307108e+02
<TRANSP> 5
 0.000000e+00 1.000000e+00 0.000000e+00 0.000000e+00 0.000000e+00
 0.000000e+00 4.162935e-01 5.837065e-01 0.000000e+00 0.000000e+00
 0.000000e+00 0.000000e+00 5.523587e-01 4.476412e-01 0.000000e+00
 0.000000e+00 0.000000e+00 0.000000e+00 6.681995e-01 3.318005e-01
 0.000000e+00 0.000000e+00 0.000000e+00 0.000000e+00 0.000000e+00
<ENDHMM>
~h "s"
<BEGINHMM>
<NUMSTATES> 5
<STATE> 2
<MEAN> 39
 -1.271202e+01 3.153132e+00 -5.275485e-01 -2.066735e+00 -3.372495e+00 -7.302121e+00 -5.987337e+00 -2.085064e+00 -3.179880e+00 -2.667223e+00 -4.177125e+00 -2.771940e+00 6.208003e+01 -3.944642e+00 1.571080e+00 -4.528860e-01 5.072210e-01 1.469931e+00 -2.666539e-01 1.184107e+00 3.864183e-01 4.209197e-01 -4.301454e-01 4.435194e-01 9.537961e-01 -3.353744e-01 -1.800899e-01 -5.227951e-01 -2.830324e-01 -2.332333e-01 -3.916574e-01 2.589390e-01 -2.429915e-01 1.971575e-02 -1.162337e-01 6.336415e-02 2.688895e-01 -1.377639e-01 3.679689e-02
<VARIANCE> 39
 6.980328e+01 4.581128e+01 4.675286e+01 3.232449e+01 4.746879e+01 4.394534e+01 6.171342e+01 4.863575e+01 3.899652e+01 3.417831e+01 4.066498e+01 3.111340e+01 1.016834e+02 4.197400e+00 5.562584e+00 3.504122e+00 3.295203e+00 4.517536e+00 4.402119e+00 4.227892e+00 4.989953e+00 3.546201e+00 3.214956e+00 3.452296e+00 2.916889e+00 3.153283e+00 9.687204e-01 8.820974e-01 4.123084e-01 5.003517e-01 6.689730e-01 6.286171e-01 7.278702e-01 6.750085e-01 6.154433e-01 5.678937e-01 5.721336e-01 4.956285e-01 2.921818e-01
<GCONST> 1.323512e+02
<STATE> 3
<MEAN> 39
 -2.810033e+01 3.701553e+00 -6.069154e+00 -2.080976e+00 -2.492404e+00 -6.356858e+00 -3.405391e+00 -8.298168e-01 -2.304839e+00 -2.337097e+00 -5.215190e-01 -8.721375e-02 6.241057e+01 -6.710436e-01 -5.181858e-01 -4.878992e-01 -1.883449e-01 -2.555899e-01 8.855322e-02 7.898783e-02 5.209860e-02 1.216839e-01 1.134326e-01 1.762020e-01 1.723223e-01 -2.391994e-01 8.692180e-01 -1.277276e-01 2.709918e-01 -3.706719e-02 -1.608952e-01 -9.649408e-02 -1.666495e-01 -9.872918e-02 4.658824e-03 1.414872e-03 -1.920125e-01 -1.625025e-01 7.430834e-02
<VARIANCE> 39
 2.220967e+01 2.227545e+01 3.851485e+01 2.589223e+01 2.992063e+01 2.848476e+01 3.962625e+01 2.905612e+01 2.703140e+01 2.217896e+01 2.314336e+01 1.936306e+01 2.322277e+01 2.284427e+00 1.466306e+00 1.779085e+00 1.444510e+00 1.657035e+00 1.818042e+00 1.820267e+00 1.822083e+00 1.852259e+00 1.662728e+00 1.717121e+00 1.486036e+00 8.626468e-01 4.568665e-01 2.985795e-01 3.191895e-01 3.075027e-01 3.679868e-01 3.964997e-01 4.186653e-01 4.168936e-01 3.872017e-01 3.565874e-01 3.593019e-01 3.495498e-01 1.552394e-01
<GCONST> 1.066964e+02
<STATE> 4
<MEAN> 39
 -2.009808e+01 9.620925e-01 -4.212601e+00 -2.984551e+00 -4.316878e+00 -7.128460e+00 -4.940192e+00 -1.797657e+00 -1.496835e+00 -2.412776e+00 -2.469236e+00 -1.218379e+00 5.844205e+01 3.888165e+00 -5.713417e-01 8.504152e-01 -2.523960e-01 -9.698421e-01 -1.316430e-01 -1.361331e+00 -7.207338e-01 -1.043161e-01 6.245487e-02 -5.931148e-01 -1.165750e+00 4.875353e-01 6.769806e-01 -1.289127e-01 1.221022e-01 -5.047673e-02 -2.236140e-01 2.307151e-01 -3.732853e-01 -1.019106e-01 -1.335608e-01 2.786222e-02 1.451248e-01 -3.036585e-01 2.889905e-01
<VARIANCE> 39
 7.148498e+01 2.901569e+01 4.271222e+01 2.784039e+01 3.172870e+01 3.685791e+01 4.575377e+01 3.531012e+01 3.057272e+01 2.531322e+01 2.899025e+01 2.510579e+01 1.175501e+02 8.350814e+00 3.500077e+00 4.446052e+00 3.197343e+00 3.487850e+00 4.292037e+00 4.575728e+00 4.584646e+00 3.755762e+00 2.994927e+00 3.046301e+00 3.236562e+00 5.345430e+00 1.275744e+00 5.894339e-01 5.475959e-01 4.845548e-01 5.780613e-01 7.046343e-01 7.763488e-01 7.874506e-01 6.233034e-01 5.341623e-01 6.022401e-01 5.363337e-01 4.985968e-01
<GCONST> 1.310916e+02
<TRANSP> 5
 0.000000e+00 1.000000e+00 0.000000e+00 0.000000e+00 0.000000e+00
 0.000000e+00 7.601541e-01 2.398459e-01 0.000000e+00 0.000000e+00
 0.000000e+00 0.000000e+00 8.369422e-01 1.630578e-01 0.000000e+00
 0.000000e+00 0.000000e+00 0.000000e+00 7.310762e-01 2.689238e-01
 0.000000e+00 0.000000e+00 0.000000e+00 0.000000e+00 0.000000e+00
<ENDHMM>
~h "t"
<BEGINHMM>
<NUMSTATES> 5
<STATE> 2
<MEAN> 39
 -6.205292e+00 3.581476e-01 -2.572652e+00 -2.520232e+00 -5.943492e+00 -5.198884e+00 -7.515773e+00 -3.543789e+00 -2.409398e+00 -1.921312e+00 -3.779768e+00 -4.852376e+00 4.366248e+01 -4.305113e-01 2.893588e-01 -6.798146e-02 9.000559e-02 1.111659e-01 -3.646475e-02 2.832511e-01 -3.429176e-04 -1.154581e-02 -5.792251e-02 1.785396e-02 3.088439e-01 -1.660639e+00 -1.399572e-01 -2.361088e-01 -4.068578e-02 -1.307694e-01 -4.391241e-02 1.627362e-02 -1.598053e-02 4.840786e-02 -1.802779e-02 7.577966e-03 8.588783e-02 2.955701e-02 5.224706e-01
<VARIANCE> 39
 3.824553e+01 3.262485e+01 3.593230e+01 3.111156e+01 3.491319e+01 3.734817e+01 4.208442e+01 4.119064e+01 3.508657e+01 3.073816e+01 3.373276e+01 3.595188e+01 9.023087e+01 1.307593e+00 1.636420e+00 1.414464e+00 1.716088e+00 2.065655e+00 2.020586e+00 2.237862e+00 2.307470e+00 2.191467e+00 2.193764e+00 2.130036e+00 1.810441e+00 4.556253e+00 2.839596e-01 3.919306e-01 3.152962e-01 4.044737e-01 4.399716e-01 4.183380e-01 4.523829e-01 4.747871e-01 4.548422e-01 4.376949e-01 4.321821e-01 3.626429e-01 6.466572e-01
<GCONST> 1.168084e+02
<STATE> 3
<MEAN> 39
 -6.881029e+00 2.931903e+00 -6.500866e-01 -1.843876e+00 -7.144346e+00 -6.535731e+00 -8.344393e+00 -5.450704e+00 -3.479736e+00 -1.622944e+00 -3.148840e+00 -4.095808e+00 4.178694e+01 -1.862967e+00 -1.511787e+00 -6.633525e-01 -8.410385e-01 4.623488e-01 -8.770559e-02 5.158313e-01 3.986670e-01 1.593172e-01 -2.456850e-01 3.636395e-01 7.699348e-01 2.173924e+00 1.386122e-01 -6.143038e-01 -1.390813e-01 -3.616991e-01 -2.438820e-01 3.035945e-02 -2.374893e-01 7.268986e-02 8.977100e-02 -1.914375e-03 5.064201e-02 -2.433544e-01 2.152793e+00
<VARIANCE> 39
 3.710249e+01 3.040092e+01 4.565723e+01 4.024131e+01 4.114213e+01 4.150239e+01 4.004380e+01 4.249937e+01 4.091115e+01 3.103543e+01 3.347074e+01 2.906063e+01 6.994620e+01 3.579265e+00 4.281498e+00 4.091183e+00 3.626086e+00 4.236195e+00 4.091578e+00 3.833324e+00 4.134056e+00 4.075637e+00 3.392025e+00 3.347533e+00 2.915756e+00 1.722964e+01 7.900107e-01 6.438400e-01 6.912288e-01 6.830541e-01 8.265189e-01 7.914935e-01 7.453524e-01 8.325694e-01 8.092588e-01 6.619533e-01 6.706502e-01 5.930796e-01 1.417906e+00
<GCONST> 1.346465e+02
<STATE> 4
<MEAN> 39
 -1.314015e+01 -5.664618e+00 -4.095915e+00 -6.082613e+00 -5.998003e+00 -7.257357e+00 -6.930658e+00 -3.306147e+00 -2.394624e+00 -2.869637e+00 -2.512474e+00 -2.066925e+00 6.095659e+01 1.033330e+00 -1.386305e+00 -2.889504e-01 -1.135102e+00 -1.011901e+00 -3.042036e-02 -1.266271e+00 3.285835e-02 3.411319e-01 -1.243127e-02 2.741136e-01 -1.235807e+00 6.426386e+00 1.297269e+00 4.509789e-01 3.768357e-01 1.698108e-01 -6.055537e-01 4.620318e-01 -6.350958e-01 -1.217954e-01 -1.033671e-01 1.245822e-01 1.284155e-01 -7.305478e-01 -6.164677e-01
<VARIANCE> 39
 2.497024e+01 2.397899e+01 3.261713e+01 2.663795e+01 3.122008e+01 3.499580e+01 3.588840e+01 2.917676e+01 3.245695e+01 2.619670e+01 2.617686e+01 2.362028e+01 8.090703e+01 5.730831e+00 4.786783e+00 6.839175e+00 4.768377e+00 5.622540e+00 5.938688e+00 5.195003e+00 5.984920e+00 6.609390e+00 4.082056e+00 4.651838e+00 4.576332e+00 1.225819e+01 6.806740e-01 7.937379e-01 1.017367e+00 7.258089e-01 9.211351e-01 1.082243e+00 9.262213e-01 1.152610e+00 8.918296e-01 7.865121e-01 8.239160e-01 7.042407e-01 1.571150e+00
<GCONST> 1.376524e+02
<TRANSP> 5
 0.000000e+00 1.000000e+00 0.000000e+00 0.000000e+00 0.000000e+00
 0.000000e+00 8.356406e-01 1.643594e-01 0.000000e+00 0.000000e+00
 0.000000e+00 0.000000e+00 6.223546e-01 3.776454e-01 0.000000e+00
 0.000000e+00 0.000000e+00 0.000000e+00 5.199056e-01 4.800943e-01
 0.000000e+00 0.000000e+00 0.000000e+00 0.000000e+00 0.000000e+00
<ENDHMM>
~h "u"
<BEGINHMM>
<NUMSTATES> 5
<STATE> 2
<MEAN> 39
 -2.230296e-01 5.532196e-01 -3.120555e+00 -7.537758e+00 -1.124000e+01 -2.412145e+00 -1.479540e+01 -7.981824e+00 -6.544190e+00 -2.610826e+00 5.643620e-01 -5.894540e+00 6.251078e+01 2.140500e+00 5.930247e-01 -4.359003e-01 -1.685447e+00 -1.962756e+00 1.991243e+00 -1.625513e+00 -1.250865e+00 -7.755135e-01 -3.188676e-02 1.835274e+00 -8.337427e-01 1.466021e+00 -2.535745e-01 5.331955e-02 1.268763e-01 -9.782939e-02 -3.643938e-02 4.252788e-01 3.002764e-01 1.106110e-01 -8.655880e-02 -3.503092e-02 7.570464e-02 6.263049e-02 -4.650212e-01
<VARIANCE> 39
 3.329509e+01 3.919810e+01 4.499050e+01 8.268835e+01 5.817988e+01 7.113193e+01 7.528629e+01 7.118210e+01 5.510293e+01 4.696394e+01 4.391087e+01 3.815018e+01 1.119167e+02 5.393756e+00 3.327512e+00 4.938593e+00 5.871128e+00 6.846561e+00 5.706638e+00 5.968196e+00 7.725006e+00 5.493728e+00 5.164391e+00 4.928133e+00 4.311395e+00 5.516946e+00 7.871479e-01 5.896584e-01 5.550024e-01 1.004915e+00 8.583658e-01 8.935534e-01 1.109717e+00 9.467207e-01 8.807120e-01 7.549188e-01 6.915269e-01 7.063455e-01 1.245224e+00
<GCONST> 1.433750e+02
<STATE> 3
<MEAN> 39
 2.830845e+00 -2.584981e-01 -3.957046e+00 -1.062744e+01 -1.571820e+01 5.001607e+00 -1.862247e+01 -1.215359e+01 -8.485303e+00 -3.023876e+00 7.294729e+00 -7.428502e+00 6.789604e+01 3.564152e-01 3.503183e-01 -7.908437e-03 -8.677731e-01 -5.077001e-01 1.255041e+00 -1.779043e-01 -7.997952e-02 -5.024357e-01 -2.173632e-01 6.264648e-01 -8.528294e-02 -7.293843e-02 -4.466155e-01 4.862389e-02 2.814304e-01 5.671945e-01 6.237625e-01 -7.935377e-01 5.999122e-01 4.891759e-01 2.506094e-01 -2.685520e-02 -9.131612e-01 2.043031e-01 -5.744762e-01
<VARIANCE> 39
 1.348344e+01 3.130706e+01 3.965494e+01 7.391581e+01 5.210833e+01 6.976403e+01 7.073202e+01 9.299371e+01 7.067628e+01 6.113200e+01 4.481949e+01 4.185531e+01 1.994604e+01 1.115327e+00 2.522860e+00 2.275228e+00 5.540420e+00 4.303488e+00 5.763688e+00 4.867251e+00 5.074823e+00 5.034720e+00 4.303027e+00 4.556260e+00 3.151361e+00 1.957604e+00 3.988487e-01 4.515312e-01 4.501542e-01 7.517103e-01 8.402395e-01 7.810629e-01 9.287509e-01 1.095637e+00 9.591242e-01 9.010247e-01 6.938425e-01 7.312493e-01 3.585204e-01
<GCONST> 1.329430e+02
<STATE> 4
<MEAN> 39
 3.652219e+00 3.266832e+00 -4.075842e+00 -1.443706e+01 -1.593127e+01 5.988449e+00 -1.574701e+01 -8.620566e+00 -9.737919e+00 -4.868185e+00 3.312232e+00 -6.720603e+00 6.420287e+01 -1.246284e-01 -5.732732e-02 3.009847e-01 7.140483e-01 6.088505e-01 -6.047125e-01 4.795938e-01 3.384770e-02 3.620905e-01 3.805597e-01 -6.983448e-01 -7.111265e-03 -7.314890e-01 -1.560776e-01 -1.112239e-01 1.202568e-01 3.783730e-01 2.272539e-01 -2.875071e-01 1.275177e-01 -4.305171e-02 1.516913e-01 1.358974e-01 -1.979365e-01 1.145478e-02 -1.742619e-01
<VARIANCE> 39
 1.267198e+01 3.993579e+01 3.788468e+01 7.100636e+01 5.171269e+01 6.397028e+01 5.742525e+01 7.743951e+01 6.077899e+01 6.334818e+01 5.199552e+01 4.115503e+01 4.293450e+01 7.632771e-01 2.354039e+00 1.792538e+00 3.455210e+00 3.144301e+00 3.150692e+00 3.169224e+00 3.981849e+00 3.054471e+00 3.435588e+00 3.739924e+00 2.744679e+00 3.019181e+00 1.554773e-01 3.259392e-01 2.810483e-01 4.525090e-01 4.988687e-01 5.063905e-01 5.546528e-01 6.698325e-01 5.449468e-01 6.194320e-01 6.033837e-01 5.142896e-01 2.589492e-01
<GCONST> 1.239940e+02
<TRANSP> 5
 0.000000e+00 1.000000e+00 0.000000e+00 0.000000e+00 0.000000e+00
 0.000000e+00 4.819173e-01 5.180827e-01 0.000000e+00 0.000000e+00
 0.000000e+00 0.000000e+00 5.937287e-01 4.062713e-01 0.000000e+00
 0.000000e+00 0.000000e+00 0.000000e+00 7.837217e-01 2.162783e-01
 0.000000e+00 0.000000e+00 0.000000e+00 0.000000e+00 0.000000e+00
<ENDHMM>
~h "w"
<BEGINHMM>
<NUMSTATES> 5
<STATE> 2
<MEAN> 39
 -1.083365e+00 -1.469834e+00 -4.021818e+00 -9.111856e+00 -1.034391e+01 3.109170e+00 -1.058225e+01 -4.173880e+00 -5.387932e+00 -2.315316e+00 7.603412e-01 -6.642836e+00 5.669627e+01 8.791462e-01 5.163721e-01 -9.644349e-02 -1.062594e+00 -6.853240e-01 8.746403e-01 -1.471153e-01 -2.044340e-01 -5.342912e-01 -2.164984e-01 6.029245e-01 1.475985e-01 3.195526e-01 -1.132920e-01 -1.006375e-01 1.026430e-01 -5.785185e-02 -9.734879e-02 -5.520729e-02 8.391865e-02 1.599529e-01 5.390216e-02 -8.654566e-02 -4.366865e-02 2.930610e-02 1.039898e-01
<VARIANCE> 39
 5.923542e+01 6.035342e+01 5.309372e+01 7.947067e+01 7.678026e+01 7.028274e+01 7.129914e+01 5.847200e+01 7.013870e+01 4.721255e+01 5.613055e+01 4.383615e+01 1.912628e+02 2.836403e+00 2.702759e+00 3.198637e+00 4.397469e+00 4.571148e+00 4.228211e+00 3.953954e+00 3.923326e+00 3.778357e+00 3.401837e+00 3.594001e+00 2.929428e+00 5.165783e+00 4.854953e-01 4.331155e-01 4.836106e-01 6.499131e-01 7.081733e-01 6.166254e-01 7.162609e-01 6.482334e-01 6.769940e-01 6.310607e-01 6.453979e-01 4.699475e-01 4.542207e-01
<GCONST> 1.360906e+02
<STATE> 3
<MEAN> 39
 6.195236e+00 1.219549e-02 -4.512567e+00 -2.016565e+01 -1.781463e+01 9.263512e+00 -1.225256e+01 -3.356712e+00 -6.379484e+00 -4.856950e+00 3.849349e+00 -5.820057e+00 6.578228e+01 6.508709e-03 -2.376340e-01 -1.336261e-01 -5.730553e-01 -1.255596e-01 4.296317e-01 8.095120e-02 3.673733e-02 1.078333e-01 -4.867772e-02 2.199573e-01 1.152448e-01 3.244054e-01 -2.459605e-01 -4.595919e-01 -1.474191e-01 3.233674e-01 4.315805e-01 -4.813850e-02 -6.287909e-02 -7.030322e-02 1.882452e-01 3.283759e-01 -3.223890e-02 -3.182122e-01 2.598929e-01
<VARIANCE> 39
 1.039630e+01 3.691788e+01 3.143272e+01 5.457851e+01 5.006468e+01 4.591295e+01 3.960046e+01 5.815577e+01 6.155700e+01 5.017695e+01 4.116978e+01 3.301591e+01 2.389038e+01 4.515405e-01 2.480215e+00 1.264248e+00 1.760120e+00 2.313438e+00 2.184654e+00 1.782240e+00 1.790916e+00 2.009068e+00 2.402048e+00 2.262059e+00 1.900683e+00 1.602590e+00 7.561262e-02 1.673916e-01 1.826370e-01 2.667429e-01 3.389174e-01 4.158233e-01 3.382145e-01 3.613751e-01 4.030604e-01 3.704959e-01 4.136217e-01 3.788639e-01 1.218418e-01
<GCONST> 1.088659e+02
<STATE> 4
<MEAN> 39
 3.302159e+00 -8.059142e+00 -8.505787e+00 -1.966192e+01 -1.169927e+01 1.197731e+01 -1.216409e+01 -4.426931e+00 -5.333676e+00 4.351707e-02 5.763795e+00 -1.010855e+01 7.129769e+01 -9.671715e-01 -2.154603e+00 -3.972068e-01 1.490222e+00 1.818821e+00 -5.578636e-01 -5.019567e-01 1.490235e-01 1.178994e+00 9.473009e-01 -9.260629e-01 -1.930189e+00 1.306229e+00 -7.102768e-02 1.613539e-01 3.655723e-01 4.885667e-01 -2.056479e-01 -6.959295e-01 -2.322411e-02 3.815275e-01 1.689794e-01 -4.082758e-01 -5.903689e-01 5.690346e-02 -2.133665e-01
<VARIANCE> 39
 1.274774e+01 3.799954e+01 3.276159e+01 6.146888e+01 4.368190e+01 6.127698e+01 4.952678e+01 5.866008e+01 7.026639e+01 6.053961e+01 4.917620e+01 4.034451e+01 2.209966e+01 2.891768e-01 1.317204e+00 1.534111e+00 2.040413e+00 2.317541e+00 3.772166e+00 2.552564e+00 2.973238e+00 2.603799e+00 2.686481e+00 3.491979e+00 1.986459e+00 6.278706e-01 8.178946e-02 2.053394e-01 1.912603e-01 3.142662e-01 5.108324e-01 3.986590e-01 3.932055e-01 4.596127e-01 4.098372e-01 4.856800e-01 4.411461e-01 5.674349e-01 1.010466e-01
<GCONST> 1.126741e+02
<TRANSP> 5
 0.000000e+00 1.000000e+00 0.000000e+00 0.000000e+00 0.000000e+00
 0.000000e+00 7.847994e-01 2.152006e-01 0.000000e+00 0.000000e+00
 0.000000e+00 0.000000e+00 7.983176e-01 2.016824e-01 0.000000e+00
 0.000000e+00 0.000000e+00 0.000000e+00 6.561801e-01 3.438198e-01
 0.000000e+00 0.000000e+00 0.000000e+00 0.000000e+00 0.000000e+00
<ENDHMM>
~h "y"
<BEGINHMM>
<NUMSTATES> 5
<STATE> 2
<MEAN> 39
 -8.892058e+00 -3.846568e-01 4.229237e+00 -2.930364e+00 -8.783180e+00 -3.868758e+00 -7.090507e+00 -9.344491e-01 -6.076129e+00 -3.288188e+00 -4.882615e-01 -3.468262e+00 4.802058e+01 3.312937e-03 2.246858e-01 9.714894e-01 -1.045681e-01 -6.135858e-01 -6.846853e-02 -6.033962e-01 6.183455e-02 -3.872381e-01 -2.387048e-01 5.741310e-01 7.727874e-02 5.653615e-01 6.655060e-02 -9.448224e-02 -4.116502e-02 -4.068165e-02 -3.943580e-02 3.202330e-02 -7.627880e-02 -9.808695e-03 9.568238e-03 -1.821020e-02 1.484273e-02 -1.916461e-02 1.878823e-01
<VARIANCE> 39
 2.901417e+01 5.171119e+01 7.833439e+01 3.324270e+01 7.318073e+01 4.950122e+01 5.929986e+01 4.821048e+01 4.730531e+01 3.847229e+01 3.294416e+01 3.144986e+01 1.921946e+02 2.070794e+00 2.502336e+00 4.179413e+00 2.042457e+00 3.804032e+00 3.013602e+00 4.021523e+00 3.096106e+00 3.303451e+00 3.073507e+00 2.900500e+00 2.238864e+00 5.183604e+00 3.252474e-01 4.036282e-01 5.497776e-01 3.766925e-01 6.207505e-01 5.748391e-01 6.116717e-01 5.310774e-01 5.585635e-01 4.985795e-01 4.655177e-01 3.899360e-01 4.347776e-01
<GCONST> 1.277239e+02
<STATE> 3
<MEAN> 39
 -5.341106e+00 -2.691198e+00 1.588219e+01 -6.384629e+00 -2.172543e+01 -6.660359e+00 -1.723632e+01 -3.451438e-01 -1.018787e+01 -6.686697e+00 6.812568e+00 -4.365431e+00 6.982917e+01 7.912205e-02 -6.375853e-01 -2.534593e-01 -2.401900e-01 -6.535819e-01 -3.641289e-01 3.380942e-02 3.741052e-01 2.943742e-01 2.968883e-01 3.684580e-01 8.692431e-02 8.132572e-01 8.739781e-02 -3.389433e-01 -7.306720e-01 -1.312545e-02 2.939877e-01 3.534537e-02 4.280848e-01 4.152499e-01 3.875618e-01 1.380973e-01 -4.539445e-01 -2.342972e-01 -2.233562e-02
<VARIANCE> 39
 1.383445e+01 4.445330e+01 5.252662e+01 3.810409e+01 3.276725e+01 5.724786e+01 5.531929e+01 6.482737e+01 4.937955e+01 6.540541e+01 3.129141e+01 3.208706e+01 2.452003e+01 5.753921e-01 2.589502e+00 3.563157e+00 1.288094e+00 1.985051e+00 1.926434e+00 3.042459e+00 3.445971e+00 2.888943e+00 2.207168e+00 1.866322e+00 1.529020e+00 1.811131e+00 9.957156e-02 1.829353e-01 2.546657e-01 2.123982e-01 4.759313e-01 3.976602e-01 5.164906e-01 4.163055e-01 3.929203e-01 4.426666e-01 3.890454e-01 2.895902e-01 2.052180e-01
<GCONST> 1.130821e+02
<STATE> 4
<MEAN> 39
 -3.623895e+00 -1.057799e+01 5.827745e+00 -9.044448e+00 -2.206614e+01 -8.648469e+00 -1.095081e+01 8.327777e+00 -4.177392e+00 -4.299911e+00 2.456049e+00 -6.562413e+00 7.471380e+01 5.066952e-01 -1.736666e+00 -2.773823e+00 -1.423011e-01 1.692576e+00 8.046606e-01 1.176415e+00 1.747270e+00 1.208138e+00 -3.845650e-01 -2.367402e+00 -1.011785e+00 6.652231e-01 -3.747336e-03 2.100856e-01 -1.917966e-02 1.373515e-01 6.883365e-01 4.970733e-01 -3.518581e-01 -6.086341e-01 -2.807468e-01 -1.826705e-01 -3.014542e-01 -8.375952e-02 -2.932160e-01
<VARIANCE> 39
 1.313412e+01 2.927110e+01 4.192729e+01 3.578631e+01 3.398402e+01 4.388368e+01 4.853413e+01 6.317239e+01 4.839282e+01 5.137471e+01 4.942731e+01 2.807958e+01 1.633334e+01 3.529803e-01 1.315665e+00 1.750666e+00 1.064297e+00 2.299543e+00 2.089239e+00 3.121738e+00 3.491626e+00 2.567575e+00 2.763392e+00 2.558095e+00 1.656917e+00 4.818983e-01 7.373310e-02 1.814892e-01 2.792757e-01 2.224113e-01 3.803286e-01 3.654062e-01 4.829550e-01 6.229246e-01 4.216743e-01 4.804452e-01 5.891882e-01 2.852652e-01 1.057888e-01
<GCONST> 1.087191e+02
<TRANSP> 5
 0.000000e+00 1.000000e+00 0.000000e+00 0.000000e+00 0.000000e+00
 0.000000e+00 8.477290e-01 1.522711e-01 0.000000e+00 0.000000e+00
 0.000000e+00 0.000000e+00 7.935118e-01 2.064882e-01 0.000000e+00
 0.000000e+00 0.000000e+00 0.000000e+00 6.755413e-01 3.244587e-01
 0.000000e+00 0.000000e+00 0.000000e+00 0.000000e+00 0.000000e+00
<ENDHMM>
~h "z"
<BEGINHMM>
<NUMSTATES> 5
<STATE> 2
<MEAN> 39
 -8.680195e+00 2.868935e+00 1.294431e+00 2.194715e-01 -5.183600e+00 -8.957415e+00 -9.422574e+00 -3.305578e+00 -3.472166e+00 -3.134885e+00 -2.741305e+00 -2.449666e+00 5.605845e+01 -1.391697e+00 1.598817e+00 4.219697e-04 6.340312e-01 9.024810e-01 -4.273783e-01 6.014585e-01 -7.677976e-02 1.017010e-01 -1.327617e-01 -1.498819e-01 5.641761e-01 -1.895745e-02 -1.381567e-01 -9.933814e-02 -1.094961e-01 -1.060723e-01 -7.608197e-02 2.357701e-01 7.289662e-02 9.809072e-02 -1.538750e-02 2.586040e-02 9.728478e-02 -9.464017e-02 4.643159e-02
<VARIANCE> 39
 3.229750e+01 5.508544e+01 4.709140e+01 3.277634e+01 4.341694e+01 4.200232e+01 7.148814e+01 4.446076e+01 4.206252e+01 2.761921e+01 3.486628e+01 3.002924e+01 1.704418e+02 3.972114e+00 4.043624e+00 2.576274e+00 2.571091e+00 3.454928e+00 3.583663e+00 3.870391e+00 3.976116e+00 2.908953e+00 2.627148e+00 2.680559e+00 2.578028e+00 4.082229e+00 4.510936e-01 5.810287e-01 4.064784e-01 3.832598e-01 5.051237e-01 6.103909e-01 6.695618e-01 6.318764e-01 5.089090e-01 4.485950e-01 4.856535e-01 4.848521e-01 4.222968e-01
<GCONST> 1.274953e+02
<STATE> 3
<MEAN> 39
 -1.874843e+01 1.168605e+01 1.127983e+00 3.675357e+00 -2.848461e+00 -9.338222e+00 -7.203957e+00 -3.950010e+00 -3.577475e+00 -2.885910e+00 -2.429145e+00 -6.410171e-01 6.490730e+01 -9.609280e-01 1.169111e-02 -9.382994e-02 1.596868e-01 2.318544e-01 3.259552e-01 2.922450e-01 1.124485e-01 -2.701713e-02 4.509274e-02 2.261080e-01 1.639147e-01 -4.648904e-02 5.052338e-01 -4.529269e-01 1.260791e-01 -1.729822e-01 -3.518728e-01 -1.060584e-01 -2.383529e-01 -1.152411e-01 -2.371405e-02 -3.281322e-03 4.425065e-03 -6.038995e-02 1.792337e-01
<VARIANCE> 39
 4.147343e+01 2.997226e+01 4.250102e+01 3.754092e+01 3.630724e+01 3.740984e+01 4.995525e+01 3.508994e+01 2.555463e+01 1.996123e+01 2.571807e+01 1.935953e+01 2.403285e+01 1.411179e+00 1.583646e+00 1.426154e+00 1.227704e+00 1.607829e+00 1.703309e+00 1.762594e+00 1.739521e+00 1.679531e+00 1.495105e+00 1.452580e+00 1.322828e+00 7.583050e-01 2.738786e-01 3.049651e-01 2.485116e-01 2.635251e-01 3.581628e-01 3.857459e-01 3.746658e-01 3.588695e-01 3.497674e-01 3.335525e-01 2.996718e-01 2.882099e-01 1.353810e-01
<GCONST> 1.054826e+02
<STATE> 4
<MEAN> 39
 -1.489721e+01 6.527822e+00 2.730903e+00 1.668980e+00 -6.247504e+00 -1.077039e+01 -9.508736e+00 -5.293224e+00 -3.260434e+00 -2.595010e+00 -1.783570e+00 9.320761e-02 6.763774e+01 3.125692e+00 -2.337994e+00 2.892061e-01 -1.046316e+00 -2.445336e+00 -5.874438e-01 -1.677902e+00 -4.460528e-01 3.800568e-01 -1.253663e-01 2.447127e-01 -5.785138e-01 1.440969e+00 4.937249e-01 -3.626796e-01 -6.097688e-02 -2.246186e-01 -3.433557e-01 4.010884e-01 -2.401908e-01 1.849092e-01 1.150993e-01 -5.175451e-02 1.573966e-01 -4.609148e-01 4.463074e-02
<VARIANCE> 39
 5.936784e+01 3.231641e+01 4.961853e+01 2.996462e+01 4.117746e+01 3.769080e+01 5.223034e+01 3.830327e+01 3.747927e+01 2.126594e+01 2.497703e+01 1.907486e+01 3.077457e+01 3.625616e+00 4.214623e+00 2.726994e+00 3.211704e+00 2.866797e+00 4.024171e+00 3.392611e+00 4.898907e+00 4.162196e+00 2.507094e+00 2.295182e+00 2.571426e+00 1.523776e+00 9.394389e-01 5.204977e-01 2.899371e-01 3.801073e-01 5.711789e-01 7.604006e-01 6.606848e-01 7.540956e-01 5.416032e-01 3.908747e-01 4.338938e-01 3.991897e-01 2.189485e-01
<GCONST> 1.231814e+02
<TRANSP> 5
 0.000000e+00 1.000000e+00 0.000000e+00 0.000000e+00 0.000000e+00
 0.000000e+00 8.234944e-01 1.765056e-01 0.000000e+00 0.000000e+00
 0.000000e+00 0.000000e+00 8.371027e-01 1.628974e-01 0.000000e+00
 0.000000e+00 0.000000e+00 0.000000e+00 7.209460e-01 2.790541e-01
 0.000000e+00 0.000000e+00 0.000000e+00 0.000000e+00 0.000000e+00
<ENDHMM>
~h "ai"
<BEGINHMM>
<NUMSTATES> 5
<STATE> 2
<MEAN> 39
 -4.928243e-01 -1.516910e+01 -5.632273e+00 -9.550326e+00 -1.167866e+01 2.046392e-01 -1.282671e+01 4.392935e+00 -4.646592e-01 -2.962123e+00 -2.955007e+00 -1.265577e+01 7.576275e+01 -2.157589e-01 -1.418873e+00 4.065795e-01 2.427758e-01 -6.625376e-01 -4.070412e-01 5.570399e-01 2.181339e+00 5.273875e-02 -1.310198e+00 -5.896230e-01 5.485512e-02 9.556011e-01 -2.624536e-01 5.621258e-01 4.612826e-01 2.133059e-01 -8.100881e-02 -3.375491e-01 3.015058e-01 -3.450708e-01 -4.560243e-01 3.709805e-02 1.946036e-01 5.950927e-01 -6.119286e-01
<VARIANCE> 39
 1.502715e+01 2.700221e+01 5.246275e+01 3.150293e+01 5.717189e+01 1.038338e+02 5.167682e+01 7.360604e+01 7.165345e+01 5.593191e+01 5.749485e+01 3.430923e+01 1.502530e+01 1.374670e+00 1.927148e+00 2.730667e+00 2.335941e+00 3.513708e+00 5.432825e+00 3.243387e+00 3.711080e+00 3.265275e+00 2.743414e+00 3.296780e+00 3.421201e+00 1.145277e+00 3.367937e-01 2.564565e-01 3.436978e-01 4.305717e-01 6.911942e-01 6.448358e-01 5.111686e-01 7.533075e-01 5.773250e-01 5.863901e-01 7.662026e-01 4.546615e-01 3.826645e-01
<GCONST> 1.244136e+02
<STATE> 3
<MEAN> 39
 -3.373788e+00 -1.455831e+01 2.246663e+00 -9.929772e+00 -1.902098e+01 -7.653575e+00 -9.062456e+00 8.170289e+00 -4.806989e+00 -5.975624e+00 7.329133e-01 -8.854635e+00 7.560431e+01 -2.159785e-01 8.392138e-01 1.495074e+00 -3.992419e-02 -1.301275e+00 -8.008694e-01 -9.499992e-02 -3.954464e-01 -1.015644e+00 4.413698e-01 1.121694e+00 3.845877e-01 -3.995069e-01 3.864287e-02 2.042623e-01 -1.777237e-02 4.961744e-02 1.855283e-01 1.014511e-01 -2.544945e-01 -3.841960e-01 -1.746650e-02 1.356865e-01 -5.254287e-03 -8.602329e-02 -1.552739e-01
<VARIANCE> 39
 1.448552e+01 3.282950e+01 5.712834e+01 2.885681e+01 5.757040e+01 6.689848e+01 3.479800e+01 6.629660e+01 5.910820e+01 5.535400e+01 5.711882e+01 2.553554e+01 1.106597e+01 1.788644e-01 8.290109e-01 1.301232e+00 7.235887e-01 1.844914e+00 1.753039e+00 1.924829e+00 2.934639e+00 1.556977e+00 1.794826e+00 2.062586e+00 1.527683e+00 1.826705e-01 3.719514e-02 1.212593e-01 1.701165e-01 1.492994e-01 3.293267e-01 3.041906e-01 2.789766e-01 4.495116e-01 2.626661e-01 3.536448e-01 3.946590e-01 2.450139e-01 3.693217e-02
<GCONST> 9.898037e+01
<STATE> 4
<MEAN> 39
 -3.630629e+00 -3.948686e+00 1.029244e+01 -5.611158e+00 -2.057027e+01 -8.560363e+00 -1.208230e+01 1.171431e+00 -1.052499e+01 -2.489542e+00 3.765522e+00 -6.620767e+00 6.394383e+01 1.553268e-01 8.702601e-01 -1.555062e-01 7.234374e-01 9.552090e-01 2.047414e-02 1.399727e-01 -7.711506e-01 -5.031001e-02 -8.171727e-02 -4.816223e-01 7.103798e-03 -1.549620e+00 3.836038e-02 4.758291e-03 -2.842863e-01 6.590043e-02 2.966067e-01 1.015779e-01 1.798346e-01 2.729983e-02 1.609176e-01 -1.115349e-02 -2.119547e-01 -3.323656e-02 -1.636617e-01
<VARIANCE> 39
 1.834980e+01 4.912429e+01 5.270765e+01 3.937766e+01 5.025909e+01 5.795286e+01 5.728699e+01 7.538436e+01 4.796496e+01 4.617701e+01 4.457002e+01 3.266100e+01 1.174963e+02 9.918002e-01 1.796573e+00 2.160780e+00 1.609678e+00 2.584768e+00 2.360299e+00 3.208866e+00 2.977470e+00 2.776714e+00 2.120015e+00 2.225854e+00 1.626019e+00 1.951856e+00 1.602805e-01 2.848279e-01 2.857578e-01 2.896445e-01 4.665770e-01 4.385333e-01 5.479901e-01 5.830917e-01 4.973015e-01 4.106084e-01 4.174143e-01 3.174549e-01 2.951287e-01
<GCONST> 1.187005e+02
<TRANSP> 5
 0.000000e+00 1.000000e+00 0.000000e+00 0.000000e+00 0.000000e+00
 0.000000e+00 7.168274e-01 2.831726e-01 0.000000e+00 0.000000e+00
 0.000000e+00 0.000000e+00 8.469229e-01 1.530771e-01 0.000000e+00
 0.000000e+00 0.000000e+00 0.000000e+00 8.615894e-01 1.384106e-01
 0.000000e+00 0.000000e+00 0.000000e+00 0.000000e+00 0.000000e+00
<ENDHMM>
~h "au"
<BEGINHMM>
<NUMSTATES> 5
<STATE> 2
<MEAN> 39
 -7.092513e-01 -1.126164e+01 -1.116311e+01 -1.379620e+01 -1.018948e+01 4.790798e+00 -1.257218e+01 -3.635785e+00 1.578353e+00 -1.359939e-01 -1.430604e+00 -1.329160e+01 7.479476e+01 5.596823e-01 -7.707924e-01 -1.048292e+00 -1.135934e+00 3.704740e-01 2.276073e+00 -2.403049e-01 1.544803e-01 2.280639e-01 -2.516635e-02 4.510971e-01 -1.403426e+00 1.042795e+00 -2.836257e-01 5.436296e-01 4.491301e-01 1.223192e-01 1.630362e-01 -2.681416e-01 1.793424e-01 -3.607795e-01 -4.567099e-01 -5.579498e-02 2.461492e-01 6.641754e-01 -8.885885e-01
<VARIANCE> 39
 1.475161e+01 2.331276e+01 4.027792e+01 4.521667e+01 4.866138e+01 7.967038e+01 4.466442e+01 8.453236e+01 5.192762e+01 5.845234e+01 4.762325e+01 3.463192e+01 1.937363e+01 2.662863e+00 2.536372e+00 2.151522e+00 2.956852e+00 3.845265e+00 3.998689e+00 3.187094e+00 4.150718e+00 3.346282e+00 3.433676e+00 4.543504e+00 3.808717e+00 2.409770e+00 3.970420e-01 2.638211e-01 3.339290e-01 7.368960e-01 5.752499e-01 6.578416e-01 7.040846e-01 7.193642e-01 5.200167e-01 6.270132e-01 6.583887e-01 4.667716e-01 5.992306e-01
<GCONST> 1.270386e+02
<STATE> 3
<MEAN> 39
 3.196663e-01 -8.809249e+00 -1.182431e+01 -2.068514e+01 -9.831805e+00 1.065303e+01 -1.199638e+01 -5.564266e+00 -2.269914e+00 -1.239258e+00 2.717811e+00 -1.122363e+01 7.364010e+01 4.274389e-01 1.041973e+00 2.413283e-01 -8.805110e-01 -5.358554e-01 1.851543e-01 -4.804382e-02 -1.027295e-01 -8.430910e-01 -9.202041e-02 5.861177e-01 8.508768e-01 -6.757897e-01 3.877135e-02 1.346299e-01 1.384265e-01 1.775919e-01 -1.135644e-01 -2.826849e-01 -5.353836e-02 5.691386e-02 -7.252074e-02 -2.612294e-02 -1.707463e-01 9.575863e-02 -1.635834e-01
<VARIANCE> 39
 1.829463e+01 3.559309e+01 3.581646e+01 5.463036e+01 4.299445e+01 4.672956e+01 3.611325e+01 5.149394e+01 5.832956e+01 6.061891e+01 5.485633e+01 4.823405e+01 1.456346e+01 2.259200e-01 7.926301e-01 6.110659e-01 1.143140e+00 1.335624e+00 1.499099e+00 1.280863e+00 1.652771e+00 1.604529e+00 1.827425e+00 2.064843e+00 1.834971e+00 2.552011e-01 4.664150e-02 1.153396e-01 1.084440e-01 2.293581e-01 2.262446e-01 2.495969e-01 2.194964e-01 2.781946e-01 2.715985e-01 3.208236e-01 3.452098e-01 3.341917e-01 4.439372e-02
<GCONST> 9.770255e+01
<STATE> 4
<MEAN> 39
 3.349967e+00 9.693088e-01 -7.427166e+00 -1.903609e+01 -1.320024e+01 5.710499e+00 -1.293565e+01 -5.147926e+00 -7.448211e+00 -1.486912e+00 1.594755e+00 -6.152194e+00 6.191570e+01 -1.222647e-01 5.754157e-01 7.361355e-01 1.680396e+00 5.229231e-01 -1.219613e+00 9.958927e-02 -1.153966e-01 -2.004796e-01 -5.757980e-02 -6.539458e-01 4.363863e-02 -1.710774e+00 -1.894821e-01 -1.530339e-01 8.457042e-02 3.092899e-01 2.442905e-01 -9.488636e-02 1.425645e-01 -2.342081e-02 1.669600e-01 6.370821e-03 -1.060086e-01 -7.529477e-02 -4.852864e-02
<VARIANCE> 39
 1.737429e+01 4.538360e+01 4.665410e+01 8.108379e+01 5.008488e+01 6.947828e+01 6.296389e+01 5.618557e+01 6.277293e+01 6.311551e+01 5.336819e+01 4.157395e+01 8.392847e+01 1.200421e+00 2.100729e+00 1.989379e+00 3.306997e+00 3.351182e+00 3.671438e+00 3.206242e+00 2.890554e+00 3.427740e+00 3.563751e+00 3.054431e+00 2.502885e+00 2.404086e+00 1.925360e-01 3.423503e-01 3.383659e-01 5.572248e-01 5.683488e-01 6.424621e-01 5.688064e-01 5.443283e-01 6.243264e-01 6.627361e-01 5.812943e-01 5.357668e-01 4.195025e-01
<GCONST> 1.268045e+02
<TRANSP> 5
 0.000000e+00 1.000000e+00 0.000000e+00 0.000000e+00 0.000000e+00
 0.000000e+00 6.763116e-01 3.236884e-01 0.000000e+00 0.000000e+00
