~o
<STREAMINFO> 1 39
<VECSIZE> 39<NULLD><MFCC_D_A_0><DIAGC>
~h "@"
<BEGINHMM>
<NUMSTATES> 5
<STATE> 2
<MEAN> 39
 -2.243496e+00 -5.148333e+00 -1.895104e+00 -5.296875e+00 -1.030880e+01 -4.500844e+00 -1.169964e+01 -3.561968e+00 -2.755496e+00 -1.321188e+00 -1.067985e+00 -7.851817e+00 6.357755e+01 6.275628e-01 -2.672885e-01 8.829200e-02 -1.315984e-01 -3.835440e-01 1.332689e-01 -3.780982e-01 8.013499e-02 1.738783e-01 1.311403e-01 1.871580e-01 -4.084694e-01 5.767606e-01 -1.495002e-01 1.553184e-01 6.653172e-02 1.246168e-01 7.113616e-02 4.474125e-02 1.607625e-01 -7.148691e-02 -1.416212e-01 -3.232955e-02 -7.067394e-02 1.284351e-01 -3.259711e-01
<VARIANCE> 39
 4.602382e+01 5.318601e+01 5.306710e+01 5.631994e+01 6.527842e+01 7.962450e+01 6.141721e+01 7.682002e+01 7.326513e+01 4.885720e+01 5.065225e+01 4.514848e+01 1.610096e+02 4.167233e+00 4.025379e+00 3.414623e+00 3.920495e+00 4.479268e+00 4.513255e+00 4.745677e+00 5.294636e+00 5.290515e+00 3.354084e+00 4.113413e+00 3.689982e+00 8.802404e+00 7.411470e-01 6.791028e-01 6.099265e-01 6.966538e-01 8.189664e-01 7.707909e-01 8.591756e-01 9.468999e-01 9.077505e-01 6.289316e-01 7.718666e-01 6.904339e-01 1.327311e+00
<GCONST> 1.417973e+02
<STATE> 3
<MEAN> 39
 -1.374073e+00 -5.278258e+00 -1.606242e+00 -5.302901e+00 -1.085136e+01 -4.202155e+00 -1.206390e+01 -3.619728e+00 -2.809489e+00 -1.165708e+00 -8.898966e-01 -8.326817e+00 6.412551e+01 4.013381e-01 2.696352e-02 2.040745e-01 8.777399e-02 -2.321477e-01 1.598791e-01 -6.962959e-02 -8.965202e-02 -1.140749e-01 6.125791e-02 -1.042707e-02 -1.402569e-01 5.332814e-02 -1.414158e-01 1.392234e-01 5.544556e-02 1.020949e-01 8.692677e-02 6.969159e-03 1.562892e-01 -8.051155e-02 -1.272061e-01 -3.837592e-02 -9.975893e-02 1.391980e-01 -2.663493e-01
<VARIANCE> 39
 4.086644e+01 5.456072e+01 5.391365e+01 5.866363e+01 6.511871e+01 8.120364e+01 6.256751e+01 8.073182e+01 7.623907e+01 5.104167e+01 5.184796e+01 4.503123e+01 1.462097e+02 3.175710e+00 3.900315e+00 3.232721e+00 3.884534e+00 4.261895e+00 4.333232e+00 4.418297e+00 5.335583e+00 5.206403e+00 3.309762e+00 4.076737e+00 3.409923e+00 8.173696e+00 5.933659e-01 6.763780e-01 5.893245e-01 7.051570e-01 7.854037e-01 7.407963e-01 8.278950e-01 9.858400e-01 9.179848e-01 6.253199e-01 7.592698e-01 6.623503e-01 1.153843e+00
<GCONST> 1.406214e+02
<STATE> 4
<MEAN> 39
 -1.301807e+00 -4.789073e+00 -1.063956e+00 -4.871395e+00 -1.099517e+01 -4.105338e+00 -1.177898e+01 -3.569003e+00 -3.254906e+00 -1.073412e+00 -1.337218e+00 -8.153859e+00 6.264656e+01 1.525160e-01 2.229540e-01 2.310556e-01 2.125790e-01 -3.924190e-02 1.356349e-01 1.589871e-01 -2.253505e-01 -2.490674e-01 -1.980882e-03 -1.643057e-01 8.843568e-02 -3.332281e-01 -1.065635e-01 3.976712e-02 5.314212e-04 2.146812e-02 6.640480e-02 2.512739e-03 7.406203e-02 -3.223145e-02 -4.305719e-02 -3.553059e-02 -3.707024e-02 7.986990e-02 -6.824663e-02
<VARIANCE> 39
 4.081321e+01 5.561007e+01 5.330177e+01 5.776641e+01 6.594750e+01 7.957524e+01 6.480231e+01 8.039254e+01 7.393282e+01 5.128054e+01 5.177757e+01 4.494515e+01 1.613757e+02 2.394572e+00 3.254584e+00 2.818973e+00 3.359158e+00 3.658929e+00 3.705704e+00 3.812058e+00 4.729306e+00 4.374258e+00 3.032807e+00 3.510956e+00 2.920686e+00 6.065024e+00 4.235099e-01 5.570825e-01 4.935935e-01 6.023282e-01 6.605518e-01 6.330369e-01 6.981423e-01 8.752958e-01 7.741962e-01 5.644186e-01 6.638350e-01 5.555242e-01 9.003724e-01
<GCONST> 1.362011e+02
<TRANSP> 5
 0.000000e+00 1.000000e+00 0.000000e+00 0.000000e+00 0.000000e+00
 0.000000e+00 4.604013e-01 5.395988e-01 0.000000e+00 0.000000e+00
 0.000000e+00 0.000000e+00 4.716187e-01 5.283812e-01 0.000000e+00
 0.000000e+00 0.000000e+00 0.000000e+00 5.586904e-01 4.413096e-01
 0.000000e+00 0.000000e+00 0.000000e+00 0.000000e+00 0.000000e+00
<ENDHMM>
~h "a"
<BEGINHMM>
<NUMSTATES> 5
<STATE> 2
<MEAN> 39
 -2.393772e+00 -1.207422e+01 -6.111933e+00 -8.125475e+00 -7.752368e+00 -4.825216e-02 -1.016064e+01 1.220111e+00 -5.888677e-01 -3.971874e+00 -3.923756e+00 -1.041071e+01 6.924360e+01 1.238486e-01 -5.209800e-01 -3.140653e-01 3.935178e-02 4.055722e-01 3.886124e-01 1.168932e-01 2.296208e-01 1.086532e-01 -2.734836e-01 -3.679647e-01 -3.076943e-01 2.143534e-01 -7.404979e-02 3.144914e-01 1.818844e-01 1.501938e-01 -1.424443e-02 -1.516719e-01 4.764209e-03 -2.077139e-01 -1.715435e-01 8.588400e-02 6.854130e-02 1.949720e-01 -3.498847e-01
<VARIANCE> 39
 3.078082e+01 6.210472e+01 4.877576e+01 4.528855e+01 5.749926e+01 7.438391e+01 4.879933e+01 7.620464e+01 6.310704e+01 5.592118e+01 4.813850e+01 4.856803e+01 1.459374e+02 1.767846e+00 3.371332e+00 2.279227e+00 2.274130e+00 3.175324e+00 3.638307e+00 2.627237e+00 3.907362e+00 3.058122e+00 2.799597e+00 3.047459e+00 2.860297e+00 4.372061e+00 3.434106e-01 4.764777e-01 3.441355e-01 4.078825e-01 5.547863e-01 5.647261e-01 4.994187e-01 6.989834e-01 5.493504e-01 5.090432e-01 5.486487e-01 5.069066e-01 6.078791e-01
<GCONST> 1.293799e+02
<STATE> 3
<MEAN> 39
 -2.238053e+00 -1.231829e+01 -6.333097e+00 -7.704999e+00 -6.964037e+00 3.021823e-01 -9.978392e+00 1.152441e+00 -8.257141e-01 -4.259099e+00 -4.487894e+00 -1.052441e+01 6.872562e+01 7.543449e-02 1.623950e-01 6.949398e-02 2.383314e-01 1.753604e-01 -7.823333e-03 4.663621e-02 -9.627685e-02 -1.682687e-01 -3.124738e-03 -1.697941e-01 4.200974e-02 -4.216711e-01 -2.366012e-02 2.957664e-01 1.719729e-01 8.424334e-02 -9.756255e-02 -1.632423e-01 -1.987021e-02 -1.560138e-01 -1.097931e-01 1.113492e-01 8.460686e-02 1.450836e-01 -2.738582e-01
<VARIANCE> 39
 2.960595e+01 6.332989e+01 4.660836e+01 4.362094e+01 5.363552e+01 6.897923e+01 4.855310e+01 7.254015e+01 6.201203e+01 5.618252e+01 4.630283e+01 4.912685e+01 1.484879e+02 1.364770e+00 3.032902e+00 1.954204e+00 2.018554e+00 2.741497e+00 3.179027e+00 2.404268e+00 3.516024e+00 2.633365e+00 2.528834e+00 2.641980e+00 2.420564e+00 4.268116e+00 2.530422e-01 4.543989e-01 3.095798e-01 3.618574e-01 4.678775e-01 4.909768e-01 4.570786e-01 6.355509e-01 4.924345e-01 4.689429e-01 4.932474e-01 4.443076e-01 5.112883e-01
<GCONST> 1.256814e+02
<STATE> 4
<MEAN> 39
 -2.867988e+00 -1.082630e+01 -5.727010e+00 -6.542069e+00 -5.993894e+00 -9.496202e-02 -9.674198e+00 9.391986e-01 -1.971704e+00 -3.978389e+00 -5.137971e+00 -9.351939e+00 6.411893e+01 1.714216e-02 6.792173e-01 3.584101e-01 3.238094e-01 -9.524689e-02 -3.395317e-01 4.683731e-02 -3.050668e-01 -2.269743e-01 1.972733e-01 -3.872584e-03 2.587283e-01 -8.985357e-01 -1.767520e-02 1.615255e-01 1.091204e-01 4.459667e-02 -6.045036e-02 -8.319450e-02 6.739874e-03 -1.149422e-01 -4.157925e-02 5.421839e-02 5.229167e-02 7.178646e-02 -1.251663e-01
<VARIANCE> 39
 3.316212e+01 6.832417e+01 4.453876e+01 4.491954e+01 5.226812e+01 6.528835e+01 5.074491e+01 6.483339e+01 5.485427e+01 5.394902e+01 4.746210e+01 5.319425e+01 2.128140e+02 1.283224e+00 2.532131e+00 1.831920e+00 1.938879e+00 2.435300e+00 2.764370e+00 2.445806e+00 3.324339e+00 2.534771e+00 2.421762e+00 2.483794e+00 2.203588e+00 3.439070e+00 2.178605e-01 3.960354e-01 2.955358e-01 3.445285e-01 4.102944e-01 4.456319e-01 4.437594e-01 5.857425e-01 4.474635e-01 4.468292e-01 4.538616e-01 3.913375e-01 4.616406e-01
<GCONST> 1.237310e+02
<TRANSP> 5
 0.000000e+00 1.000000e+00 0.000000e+00 0.000000e+00 0.000000e+00
 0.000000e+00 5.525314e-01 4.474686e-01 0.000000e+00 0.000000e+00
 0.000000e+00 0.000000e+00 5.554283e-01 4.445717e-01 0.000000e+00
 0.000000e+00 0.000000e+00 0.000000e+00 7.314752e-01 2.685249e-01
 0.000000e+00 0.000000e+00 0.000000e+00 0.000000e+00 0.000000e+00
<ENDHMM>
~h "b"
<BEGINHMM>
<NUMSTATES> 5
<STATE> 2
<MEAN> 39
 2.267654e+00 8.853408e-01 1.490464e+00 -3.111006e+00 -8.106223e+00 3.792399e-01 -9.341670e+00 -7.416377e+00 -8.719739e+00 -1.906772e+00 -4.012249e-01 -7.466100e+00 5.537297e+01 3.744861e-01 4.317784e-01 7.144597e-02 -5.909009e-02 2.982678e-01 1.614580e-01 3.926730e-02 -1.288799e-01 -4.605862e-02 8.642212e-02 2.103530e-01 1.886280e-02 -1.344480e-01 -1.567998e-01 -2.651877e-01 -1.219136e-01 -1.874417e-01 -1.318709e-01 -7.093803e-02 -1.330145e-01 1.400112e-01 2.382173e-01 1.134911e-02 1.758910e-02 -3.535682e-02 4.366475e-01
<VARIANCE> 39
 4.514250e+01 6.486099e+01 4.802952e+01 5.750619e+01 5.339910e+01 6.636731e+01 5.630183e+01 6.440408e+01 8.000476e+01 4.603763e+01 5.471210e+01 3.885399e+01 1.384945e+02 2.768781e+00 5.346559e+00 3.685660e+00 4.260414e+00 3.868848e+00 3.758926e+00 4.124114e+00 4.499841e+00 6.125479e+00 3.675387e+00 4.088876e+00 3.041245e+00 9.383942e+00 4.317349e-01 8.348848e-01 5.431625e-01 7.044480e-01 6.930408e-01 6.489365e-01 7.577990e-01 7.868235e-01 9.768456e-01 7.071619e-01 7.657168e-01 5.976192e-01 1.196239e+00
<GCONST> 1.394067e+02
<STATE> 3
<MEAN> 39
 2.773838e+00 8.708856e-01 1.110533e+00 -4.046866e+00 -8.019379e+00 6.624951e-01 -9.832702e+00 -7.382046e+00 -7.968311e+00 -1.507880e+00 3.282310e-01 -7.646224e+00 5.703196e+01 -1.169381e-01 -5.270402e-01 -3.420481e-01 -5.308608e-01 -1.843336e-01 -6.972980e-02 -3.748008e-01 3.479984e-01 7.010460e-01 1.729124e-01 2.058156e-01 -2.022901e-01 1.113203e+00 -1.793571e-01 -3.059405e-01 -7.850281e-02 -9.083644e-02 -1.677818e-01 -6.629479e-02 -1.028455e-01 1.717736e-01 1.769464e-01 -3.681419e-02 -5.442381e-02 -5.842374e-02 3.510044e-01
<VARIANCE> 39
 3.784048e+01 6.846870e+01 4.762270e+01 6.275063e+01 5.079754e+01 6.652810e+01 5.414558e+01 6.337016e+01 8.300297e+01 4.815231e+01 5.586060e+01 3.940527e+01 1.360471e+02 2.996282e+00 7.205317e+00 4.299931e+00 5.240324e+00 4.410343e+00 4.291916e+00 4.847371e+00 5.240513e+00 7.437318e+00 4.482243e+00 4.667892e+00 4.002984e+00 1.136302e+01 4.449570e-01 9.468872e-01 6.123910e-01 8.569981e-01 7.935945e-01 7.436561e-01 8.514034e-01 8.550970e-01 1.127132e+00 8.350050e-01 8.766176e-01 7.284110e-01 1.483744e+00
<GCONST> 1.434675e+02
<STATE> 4
<MEAN> 39
 2.062253e+00 -1.187386e+00 2.344251e-01 -5.543572e+00 -9.176362e+00 5.510616e-01 -1.117172e+01 -5.698370e+00 -5.989389e+00 -9.162839e-01 3.340821e-01 -8.558079e+00 6.054305e+01 -4.458379e-01 -8.913482e-01 -3.151504e-01 -3.850534e-01 -3.907033e-01 -2.404895e-01 -3.635443e-01 5.826032e-01 7.643062e-01 -8.105820e-02 -3.416755e-02 -2.003683e-01 1.315329e+00 -8.078510e-02 -3.435936e-02 5.130754e-02 7.015081e-02 -6.372491e-02 -3.138511e-02 3.287545e-02 1.055177e-02 -7.723707e-02 -1.283128e-01 -5.428626e-02 6.859980e-02 5.692406e-03
<VARIANCE> 39
 3.467363e+01 8.162434e+01 5.777858e+01 6.932584e+01 5.419950e+01 7.346361e+01 5.602682e+01 6.893771e+01 8.432648e+01 5.260017e+01 5.976902e+01 4.553965e+01 1.512388e+02 2.315156e+00 5.845039e+00 3.857928e+00 4.775742e+00 4.461369e+00 4.310529e+00 4.513788e+00 5.038947e+00 6.263940e+00 4.384994e+00 4.752153e+00 4.217243e+00 9.062683e+00 3.781503e-01 8.848465e-01 5.821482e-01 8.515051e-01 8.072342e-01 7.406161e-01 8.399723e-01 8.173201e-01 1.021201e+00 8.216618e-01 8.613860e-01 7.321532e-01 1.409853e+00
<GCONST> 1.429291e+02
<TRANSP> 5
 0.000000e+00 1.000000e+00 0.000000e+00 0.000000e+00 0.000000e+00
 0.000000e+00 5.799366e-01 4.200634e-01 0.000000e+00 0.000000e+00
 0.000000e+00 0.000000e+00 5.930149e-01 4.069851e-01 0.000000e+00
 0.000000e+00 0.000000e+00 0.000000e+00 6.630181e-01 3.369819e-01
 0.000000e+00 0.000000e+00 0.000000e+00 0.000000e+00 0.000000e+00
<ENDHMM>
~h "c"
<BEGINHMM>
<NUMSTATES> 5
<STATE> 2
<MEAN> 39
 -7.646847e+00 1.541006e+00 5.653569e-01 -2.265271e+00 -7.670986e+00 -7.384903e+00 -7.856596e+00 -3.475446e+00 -3.944266e+00 -2.991890e+00 -3.268506e+00 -3.830061e+00 5.292736e+01 -1.317401e+00 1.007264e-01 -3.078385e-01 -2.714341e-01 5.380270e-01 -1.289935e-01 2.778859e-01 -1.561519e-02 2.365026e-01 -2.294706e-02 9.739246e-02 3.002413e-01 -2.604232e-01 -1.713889e-01 -2.848306e-01 -1.213676e-01 -2.224128e-01 -9.332144e-02 1.018652e-01 -2.850051e-02 6.012363e-03 5.033477e-02 -1.490348e-02 8.710656e-02 -3.899425e-02 6.092335e-01
<VARIANCE> 39
 6.875455e+01 5.629254e+01 5.551044e+01 3.599371e+01 4.908613e+01 4.863828e+01 4.633307e+01 5.241309e+01 4.546320e+01 3.175198e+01 3.100116e+01 2.955873e+01 1.574802e+02 7.106652e+00 5.999934e+00 4.067493e+00 4.103413e+00 4.833975e+00 3.916924e+00 3.852472e+00 4.269592e+00 3.655542e+00 2.901527e+00 2.995196e+00 2.819396e+00 1.584236e+01 1.564552e+00 9.713959e-01 7.527186e-01 7.480709e-01 9.588303e-01 7.821829e-01 7.664800e-01 8.128757e-01 6.971842e-01 5.934750e-01 5.824770e-01 5.783215e-01 2.214407e+00
<GCONST> 1.397402e+02
<STATE> 3
<MEAN> 39
 -1.273047e+01 2.769616e-01 -8.744632e-01 -4.364686e+00 -7.151510e+00 -7.421775e+00 -7.119761e+00 -3.479802e+00 -2.934324e+00 -3.031017e+00 -2.441246e+00 -2.911761e+00 5.669445e+01 -7.244490e-01 -6.556091e-01 -2.622000e-01 -6.083472e-01 -2.141740e-01 -5.137912e-02 -7.835721e-02 2.226051e-01 3.060917e-01 -5.228388e-02 1.842292e-01 3.350305e-02 1.869328e+00 4.987135e-01 -1.718449e-01 8.304305e-02 1.202593e-02 -2.315181e-01 1.772259e-02 -1.568402e-01 7.643076e-02 -1.367624e-02 -2.551651e-02 -2.724449e-03 -1.620113e-01 3.132139e-01
<VARIANCE> 39
 1.009216e+02 4.977905e+01 5.059927e+01 3.767108e+01 4.587821e+01 4.642626e+01 4.125033e+01 4.574641e+01 3.842426e+01 2.958529e+01 2.743416e+01 2.692967e+01 1.661243e+02 1.513816e+01 5.709358e+00 4.916979e+00 4.251044e+00 5.883637e+00 4.567734e+00 4.480134e+00 4.740191e+00 3.913299e+00 2.959643e+00 3.044912e+00 3.250526e+00 1.614909e+01 2.835709e+00 1.039067e+00 9.253449e-01 8.358312e-01 1.142533e+00 9.603517e-01 8.499420e-01 8.962798e-01 7.471546e-01 5.997879e-01 6.162497e-01 6.444108e-01 2.515516e+00
<GCONST> 1.429227e+02
<STATE> 4
<MEAN> 39
 -1.149409e+01 -2.519119e+00 -5.855492e-01 -5.794418e+00 -9.498722e+00 -7.547202e+00 -8.627026e+00 -2.056647e+00 -2.297321e+00 -3.285161e+00 -2.106594e+00 -3.684202e+00 6.422582e+01 1.347843e+00 -1.057232e+00 -3.965722e-02 -3.022432e-01 -6.958166e-01 1.633445e-01 -6.111220e-01 3.759781e-01 1.462154e-01 -1.845530e-01 1.353952e-01 -6.862189e-01 1.760670e+00 2.207785e-01 -2.123516e-02 -7.699497e-02 3.502517e-02 7.015436e-02 1.946926e-01 2.887399e-03 -7.944301e-02 -7.922361e-02 7.856835e-03 5.137805e-02 -1.189594e-01 -2.796097e-01
<VARIANCE> 39
 1.076963e+02 6.133748e+01 5.441611e+01 3.656904e+01 5.263795e+01 4.878162e+01 5.004190e+01 5.957113e+01 4.466544e+01 3.270800e+01 3.058492e+01 3.205309e+01 1.566942e+02 1.408131e+01 6.037458e+00 5.115904e+00 3.828305e+00 6.003127e+00 5.424549e+00 4.791451e+00 5.901439e+00 4.214769e+00 3.089562e+00 3.345748e+00 3.648991e+00 1.044179e+01 2.767545e+00 9.803059e-01 8.759182e-01 7.127509e-01 1.205258e+00 1.055965e+00 9.390961e-01 1.004449e+00 7.423719e-01 5.821126e-01 6.223706e-01 6.514113e-01 1.645204e+00
<GCONST> 1.442718e+02
<TRANSP> 5
 0.000000e+00 1.000000e+00 0.000000e+00 0.000000e+00 0.000000e+00
 0.000000e+00 7.102572e-01 2.897428e-01 0.000000e+00 0.000000e+00
 0.000000e+00 0.000000e+00 7.582291e-01 2.417709e-01 0.000000e+00
 0.000000e+00 0.000000e+00 0.000000e+00 8.142145e-01 1.857855e-01
 0.000000e+00 0.000000e+00 0.000000e+00 0.000000e+00 0.000000e+00
<ENDHMM>
~h "d"
<BEGINHMM>
<NUMSTATES> 5
<STATE> 2
<MEAN> 39
 -2.757183e-01 -1.824297e+00 4.613723e+00 2.145566e-01 -1.141230e+01 -5.978453e+00 -1.082885e+01 -2.827971e+00 -4.055912e+00 -3.268435e+00 -3.953272e+00 -6.970827e+00 5.748718e+01 2.236305e-01 1.928982e-01 5.525542e-01 3.072714e-01 1.908598e-02 -3.986679e-01 -2.401369e-01 2.727184e-01 1.348544e-01 -1.573837e-01 -3.577599e-03 1.421173e-01 9.799002e-02 -1.426497e-01 -1.915333e-01 -1.015599e-01 -2.178611e-01 -8.815517e-02 5.463869e-02 -4.575669e-02 1.826132e-02 -6.332614e-03 -2.941699e-02 1.622205e-01 2.370027e-02 3.666204e-01
<VARIANCE> 39
 4.917414e+01 6.726959e+01 6.148829e+01 5.100117e+01 7.687708e+01 5.557726e+01 5.709569e+01 8.946276e+01 6.120556e+01 4.102566e+01 5.398330e+01 4.015165e+01 1.590436e+02 3.851736e+00 5.136019e+00 3.688522e+00 4.794176e+00 6.212935e+00 3.678154e+00 4.243335e+00 6.366922e+00 4.721251e+00 3.220139e+00 4.848761e+00 3.114640e+00 1.097524e+01 6.660864e-01 8.165560e-01 5.112785e-01 7.846847e-01 1.206612e+00 6.931656e-01 7.828172e-01 1.138639e+00 8.623401e-01 6.112048e-01 8.995272e-01 6.033514e-01 1.520395e+00
<GCONST> 1.427758e+02
<STATE> 3
<MEAN> 39
 -1.684404e-01 -2.116331e+00 5.726080e+00 1.460135e-01 -1.194794e+01 -6.879120e+00 -1.162996e+01 -2.118775e+00 -3.752899e+00 -3.748295e+00 -3.266462e+00 -6.515594e+00 5.956169e+01 -2.733182e-01 -5.008613e-01 7.790447e-02 -4.429445e-01 -4.680699e-01 -1.650734e-01 -3.065427e-01 4.067772e-01 1.193554e-01 -1.778406e-01 5.329676e-01 1.212229e-01 1.253030e+00 -1.121306e-01 -1.673972e-01 -1.732992e-01 -1.905622e-01 -1.472653e-01 1.412466e-01 9.585212e-03 3.643920e-03 -2.203253e-02 8.397481e-03 1.191392e-01 -6.274407e-02 2.535176e-01
<VARIANCE> 39
 4.302870e+01 6.126109e+01 5.630550e+01 5.255329e+01 7.771512e+01 5.385194e+01 5.503042e+01 8.539433e+01 6.277944e+01 3.969255e+01 5.590782e+01 3.815376e+01 1.419053e+02 4.210060e+00 5.837771e+00 4.305119e+00 5.392721e+00 7.702425e+00 4.206501e+00 4.724943e+00 7.680800e+00 5.534854e+00 3.444178e+00 5.717225e+00 3.551030e+00 1.220989e+01 7.366001e-01 8.597632e-01 5.356289e-01 8.701774e-01 1.486428e+00 7.802411e-01 8.811435e-01 1.272321e+00 9.718685e-01 6.494364e-01 1.062175e+00 6.891870e-01 1.779082e+00
<GCONST> 1.455060e+02
<STATE> 4
<MEAN> 39
 -1.289046e+00 -3.917428e+00 5.724699e+00 -1.936999e+00 -1.439609e+01 -6.498911e+00 -1.268819e+01 -5.760077e-01 -4.088833e+00 -3.950124e+00 -1.285526e+00 -6.730845e+00 6.399887e+01 -3.396764e-01 -5.797107e-01 -3.547013e-01 -5.689528e-01 -4.516471e-01 2.538165e-01 -1.008224e-01 2.348094e-01 4.884685e-02 -1.047056e-01 4.610902e-01 -1.282204e-01 1.118773e+00 2.969064e-02 6.426609e-02 -8.242293e-02 3.551331e-02 1.112900e-01 1.199748e-01 8.084346e-02 -1.336420e-01 -4.614946e-02 2.674019e-02 -9.108528e-02 -5.983426e-02 -1.702223e-01
<VARIANCE> 39
 3.532927e+01 6.268061e+01 7.199976e+01 5.448185e+01 8.171608e+01 5.878468e+01 5.645519e+01 1.027260e+02 7.430798e+01 4.061604e+01 6.507697e+01 3.806819e+01 1.382961e+02 3.014345e+00 4.216217e+00 3.834826e+00 3.955920e+00 7.351705e+00 4.174668e+00 4.689415e+00 7.112025e+00 4.984066e+00 3.168124e+00 5.566704e+00 3.337964e+00 8.707643e+00 5.431873e-01 6.553518e-01 4.748124e-01 6.754880e-01 1.390467e+00 7.252828e-01 8.569258e-01 1.195877e+00 8.596589e-01 5.732205e-01 9.792423e-01 6.080704e-01 1.375155e+00
<GCONST> 1.425477e+02
<TRANSP> 5
 0.000000e+00 1.000000e+00 0.000000e+00 0.000000e+00 0.000000e+00
 0.000000e+00 6.129058e-01 3.870941e-01 0.000000e+00 0.000000e+00
 0.000000e+00 0.000000e+00 6.308559e-01 3.691441e-01 0.000000e+00
 0.000000e+00 0.000000e+00 0.000000e+00 7.093679e-01 2.906320e-01
 0.000000e+00 0.000000e+00 0.000000e+00 0.000000e+00 0.000000e+00
<ENDHMM>
~h "e"
<BEGINHMM>
<NUMSTATES> 5
<STATE> 2
<MEAN> 39
 -2.928322e+00 -8.780857e+00 3.391051e+00 -5.209167e+00 -1.774664e+01 -7.755012e+00 -9.497581e+00 2.066397e+00 -4.627236e+00 -3.391201e+00 1.233362e+00 -7.008757e+00 6.666871e+01 -1.629863e-03 -3.457762e-01 3.242581e-01 -1.537722e-01 -6.786261e-01 -7.942071e-02 2.553047e-01 4.701343e-01 -1.247724e-01 -8.074382e-02 2.194363e-01 -5.162430e-02 4.345292e-01 -5.051674e-02 2.089757e-01 -7.295592e-02 7.080715e-02 2.596524e-01 7.666239e-02 3.594505e-02 -2.085423e-01 -3.055490e-02 6.393157e-02 -1.122131e-01 2.586860e-02 -2.755739e-01
<VARIANCE> 39
 3.157158e+01 6.717258e+01 6.411112e+01 4.815814e+01 9.483396e+01 6.137461e+01 5.404388e+01 1.034112e+02 6.865110e+01 4.955750e+01 5.889987e+01 3.300689e+01 1.532726e+02 1.912006e+00 3.335965e+00 2.217761e+00 2.411440e+00 4.576702e+00 2.752811e+00 3.247085e+00 4.490829e+00 3.412084e+00 2.791673e+00 2.944913e+00 2.061706e+00 6.031209e+00 3.735031e-01 5.510733e-01 3.383763e-01 4.031819e-01 7.564300e-01 5.133076e-01 6.122001e-01 7.760966e-01 6.268451e-01 5.181508e-01 5.223358e-01 3.907286e-01 9.309402e-01
<GCONST> 1.319558e+02
<STATE> 3
<MEAN> 39
 -2.945089e+00 -8.894217e+00 3.870483e+00 -5.273118e+00 -1.833849e+01 -7.810513e+00 -8.891845e+00 2.372543e+00 -4.967836e+00 -3.396177e+00 1.322456e+00 -7.116320e+00 6.690550e+01 5.000228e-03 7.894304e-02 1.159969e-01 4.824145e-02 -8.042753e-02 -2.147923e-02 1.525906e-01 4.820009e-04 -1.318129e-01 3.353675e-02 -3.472553e-02 -2.763256e-02 -7.559508e-02 -8.957520e-03 1.621993e-01 -8.356967e-02 7.418779e-02 2.299939e-01 3.037220e-02 -3.396093e-02 -1.714201e-01 1.688577e-03 4.462520e-02 -9.012358e-02 1.475013e-02 -2.191881e-01
<VARIANCE> 39
 3.012685e+01 6.460020e+01 6.377939e+01 4.927056e+01 9.260311e+01 5.978456e+01 5.307171e+01 1.026872e+02 6.727841e+01 4.853037e+01 5.785797e+01 3.217125e+01 1.425629e+02 1.523667e+00 2.879918e+00 1.870460e+00 2.121829e+00 3.682540e+00 2.361016e+00 2.781981e+00 3.701445e+00 2.916778e+00 2.345586e+00 2.493367e+00 1.768184e+00 5.882344e+00 2.856956e-01 4.672188e-01 2.982610e-01 3.687460e-01 6.452995e-01 4.427392e-01 5.294497e-01 6.662759e-01 5.427793e-01 4.483569e-01 4.457502e-01 3.334466e-01 7.319826e-01
<GCONST> 1.274889e+02
<STATE> 4
<MEAN> 39
 -3.924184e+00 -7.220260e+00 5.017107e+00 -4.933335e+00 -1.829795e+01 -7.647202e+00 -8.527242e+00 1.955518e+00 -6.249027e+00 -2.523585e+00 1.337670e+00 -6.730007e+00 6.300586e+01 4.248130e-03 3.730984e-01 -1.391712e-01 2.384650e-01 4.290074e-01 1.587943e-02 5.489502e-02 -3.128424e-01 -2.190219e-03 7.358465e-02 -2.179577e-01 3.883022e-02 -6.095638e-01 -1.574620e-02 6.196385e-02 -4.779003e-02 3.327333e-02 1.122622e-01 2.210979e-02 -1.644307e-02 -7.806318e-02 1.801972e-02 1.712665e-02 -3.471256e-02 1.282627e-02 -7.100368e-02
<VARIANCE> 39
 3.077253e+01 6.102473e+01 6.429955e+01 4.551829e+01 9.714954e+01 5.547128e+01 5.175735e+01 8.818719e+01 5.431714e+01 4.490794e+01 5.974821e+01 3.284167e+01 1.907422e+02 1.202538e+00 2.129439e+00 1.517960e+00 1.701727e+00 2.840727e+00 1.982749e+00 2.409015e+00 2.935542e+00 2.382503e+00 1.976610e+00 2.124503e+00 1.539227e+00 3.842936e+00 2.097991e-01 3.361006e-01 2.419365e-01 2.915225e-01 4.771106e-01 3.640573e-01 4.333932e-01 5.126704e-01 4.288583e-01 3.651088e-01 3.688969e-01 2.807179e-01 4.907214e-01
<GCONST> 1.211096e+02
<TRANSP> 5
 0.000000e+00 1.000000e+00 0.000000e+00 0.000000e+00 0.000000e+00
 0.000000e+00 6.093301e-01 3.906700e-01 0.000000e+00 0.000000e+00
 0.000000e+00 0.000000e+00 6.061736e-01 3.938264e-01 0.000000e+00
 0.000000e+00 0.000000e+00 0.000000e+00 8.417305e-01 1.582696e-01
 0.000000e+00 0.000000e+00 0.000000e+00 0.000000e+00 0.000000e+00
<ENDHMM>
~h "f"
<BEGINHMM>
<NUMSTATES> 5
<STATE> 2
<MEAN> 39
 -1.157941e+01 -3.502609e+00 -2.119520e+00 -1.596447e+00 -5.174682e+00 -4.299844e+00 -7.365590e+00 -3.716139e+00 -3.391511e+00 -2.265112e+00 -1.776029e+00 -3.527917e+00 6.010987e+01 -1.878647e+00 -1.312313e-01 -3.806754e-01 4.160581e-01 5.703919e-01 -2.053693e-01 1.321782e-01 4.763605e-02 5.074082e-01 -3.904536e-02 4.253931e-03 3.421036e-01 -5.010742e-01 1.629238e-01 -1.981438e-01 -1.496471e-04 -1.967503e-01 -3.032135e-01 2.673517e-02 -1.183411e-01 -1.949102e-02 -1.036176e-01 1.999646e-02 5.934536e-02 -9.811154e-02 1.445612e-01
<VARIANCE> 39
 7.893932e+01 3.269214e+01 4.560611e+01 3.739283e+01 4.172568e+01 4.985108e+01 3.433168e+01 3.697439e+01 3.653755e+01 2.767874e+01 3.114183e+01 2.459619e+01 7.612298e+01 6.063728e+00 3.392894e+00 3.184000e+00 3.578765e+00 4.523019e+00 3.396899e+00 2.962743e+00 3.408287e+00 3.564303e+00 2.823776e+00 2.651256e+00 2.221845e+00 2.468522e+00 1.010337e+00 5.589221e-01 4.740638e-01 5.840048e-01 7.004714e-01 5.711256e-01 5.709506e-01 5.692365e-01 6.711483e-01 5.069805e-01 4.622855e-01 3.825473e-01 2.810825e-01
<GCONST> 1.271657e+02
<STATE> 3
<MEAN> 39
 -1.522902e+01 -4.809119e+00 -3.283561e+00 -1.634758e+00 -5.109719e+00 -4.758884e+00 -7.467593e+00 -3.662226e+00 -2.736599e+00 -2.224827e+00 -1.467060e+00 -3.071881e+00 5.948811e+01 -2.284716e-01 -3.607334e-01 -2.711145e-01 -2.140909e-01 -2.054319e-01 -4.682416e-02 -5.861541e-02 -3.089754e-04 2.412244e-02 -2.014539e-02 1.481220e-01 -3.199755e-02 2.118307e-02 5.603908e-01 -2.032131e-02 6.812546e-02 -1.687831e-01 -2.184436e-01 7.999508e-02 -5.661444e-02 -1.609528e-03 -1.316603e-01 -2.709241e-03 5.782010e-02 -1.252622e-01 1.718217e-01
<VARIANCE> 39
 6.946190e+01 3.068525e+01 3.994076e+01 3.296328e+01 3.466575e+01 4.023368e+01 3.000418e+01 3.169333e+01 3.180401e+01 2.483821e+01 2.627346e+01 2.184601e+01 6.360119e+01 9.528930e+00 2.589962e+00 2.852361e+00 3.199758e+00 3.240206e+00 3.289675e+00 2.557265e+00 2.928379e+00 3.144816e+00 2.504216e+00 2.270160e+00 2.276542e+00 2.696930e+00 1.081198e+00 5.046223e-01 4.649825e-01 5.500429e-01 6.110436e-01 5.737814e-01 5.227894e-01 5.539929e-01 6.170905e-01 4.914221e-01 4.525490e-01 3.991288e-01 3.052748e-01
<GCONST> 1.239473e+02
<STATE> 4
<MEAN> 39
 -1.372571e+01 -5.646596e+00 -3.815931e+00 -2.611469e+00 -5.878054e+00 -4.545717e+00 -7.410366e+00 -3.122619e+00 -2.965744e+00 -2.187852e+00 -1.092360e+00 -3.079186e+00 5.634489e+01 1.082240e+00 -6.856754e-02 7.299537e-02 -3.555761e-01 -4.585294e-01 1.457753e-01 -9.315692e-02 -4.780695e-03 -1.772115e-01 -1.070465e-01 1.976997e-01 -2.935868e-01 3.274683e-01 2.347139e-01 1.796632e-02 7.879766e-02 -6.749489e-02 -1.244017e-01 5.925223e-02 -5.226233e-02 -2.515777e-03 -4.020876e-02 -2.540040e-02 3.807978e-02 -7.763884e-02 1.154824e-01
<VARIANCE> 39
 7.832296e+01 3.409305e+01 4.511250e+01 3.583745e+01 3.870373e+01 4.503041e+01 2.990667e+01 3.302987e+01 3.386037e+01 2.600362e+01 2.521634e+01 2.434570e+01 1.281730e+02 7.246077e+00 2.435860e+00 2.705908e+00 2.877304e+00 3.087788e+00 3.148271e+00 2.392664e+00 2.795893e+00 3.074693e+00 2.499654e+00 2.284145e+00 2.324925e+00 2.999356e+00 1.063837e+00 3.995933e-01 3.891054e-01 4.764391e-01 5.217385e-01 5.209664e-01 4.629856e-01 4.995950e-01 5.644563e-01 4.572554e-01 4.292710e-01 3.970451e-01 3.173272e-01
<GCONST> 1.236941e+02
<TRANSP> 5
 0.000000e+00 1.000000e+00 0.000000e+00 0.000000e+00 0.000000e+00
 0.000000e+00 6.836861e-01 3.163138e-01 0.000000e+00 0.000000e+00
 0.000000e+00 0.000000e+00 6.923993e-01 3.076007e-01 0.000000e+00
 0.000000e+00 0.000000e+00 0.000000e+00 8.391569e-01 1.608431e-01
 0.000000e+00 0.000000e+00 0.000000e+00 0.000000e+00 0.000000e+00
<ENDHMM>
~h "g"
<BEGINHMM>
<NUMSTATES> 5
<STATE> 2
<MEAN> 39
 -3.536475e-01 -1.268127e+00 2.626333e+00 -2.135528e+00 -1.059397e+01 -6.257101e+00 -1.067016e+01 -3.211249e+00 -6.959457e+00 -8.608486e-01 -1.495355e+00 -7.604375e+00 5.976651e+01 -1.549026e-01 2.092820e-01 1.678730e-01 3.176493e-01 1.488096e-01 -6.073790e-01 4.821820e-02 1.346859e-01 -7.434107e-02 -2.825056e-02 1.077901e-01 2.222818e-01 -4.126043e-02 -6.221450e-02 -1.868943e-01 -1.283078e-01 -1.865176e-01 -5.791840e-02 1.491547e-01 -2.566284e-02 6.717728e-02 1.089414e-01 -7.168503e-02 5.357613e-02 -4.275217e-02 2.820305e-01
<VARIANCE> 39
 4.049795e+01 6.108879e+01 6.666917e+01 5.592311e+01 7.702482e+01 7.083811e+01 5.584996e+01 7.993707e+01 6.372880e+01 4.484769e+01 5.093550e+01 3.911286e+01 1.328155e+02 3.330367e+00 4.824389e+00 4.564941e+00 4.016734e+00 6.967189e+00 4.808004e+00 3.944890e+00 4.917702e+00 4.913502e+00 3.494830e+00 4.306751e+00 3.316161e+00 8.753065e+00 6.224234e-01 6.655527e-01 7.109120e-01 6.006029e-01 1.428135e+00 8.909032e-01 7.261124e-01 8.152952e-01 8.070565e-01 6.597522e-01 8.442968e-01 6.382976e-01 1.166583e+00
<GCONST> 1.418908e+02
<STATE> 3
<MEAN> 39
 -9.739980e-01 -1.600396e+00 2.510540e+00 -2.099969e+00 -1.052585e+01 -7.328969e+00 -1.069648e+01 -2.542549e+00 -6.706017e+00 -1.141473e+00 -1.019582e+00 -7.206324e+00 6.103190e+01 -2.373833e-01 -3.207319e-01 -1.519231e-01 -2.881979e-01 -2.065081e-01 -1.125408e-01 -2.990649e-02 3.622425e-01 2.830323e-01 -1.621326e-01 2.562656e-01 -8.422489e-03 6.981716e-01 1.019370e-02 -1.492732e-01 -9.909637e-02 -2.018119e-01 -1.066425e-01 2.564281e-01 -1.477744e-02 4.114731e-02 1.009637e-01 -5.390078e-02 1.456522e-02 -1.031255e-01 1.786334e-01
<VARIANCE> 39
 3.959468e+01 5.903345e+01 6.548730e+01 5.153645e+01 7.992928e+01 7.089628e+01 5.368128e+01 8.189529e+01 6.162752e+01 4.279822e+01 5.106677e+01 3.852401e+01 1.328920e+02 3.547723e+00 4.825285e+00 4.771374e+00 4.398995e+00 8.563979e+00 5.276813e+00 4.062392e+00 5.464228e+00 5.224188e+00 3.529353e+00 4.973320e+00 3.760730e+00 8.804760e+00 6.858866e-01 6.417125e-01 7.911184e-01 6.370620e-01 1.746807e+00 9.480761e-01 7.414671e-01 8.782083e-01 8.317888e-01 6.654987e-01 1.006132e+00 7.001155e-01 1.181162e+00
<GCONST> 1.435484e+02
<STATE> 4
<MEAN> 39
 -1.471887e+00 -2.652941e+00 1.910622e+00 -3.546786e+00 -1.158250e+01 -6.344550e+00 -1.075650e+01 -1.351158e+00 -5.708397e+00 -1.412796e+00 -5.860137e-01 -7.614131e+00 6.239694e+01 -1.347034e-01 -4.318307e-01 -3.146801e-01 -5.276557e-01 -2.023313e-01 5.003567e-01 2.682622e-02 2.788475e-01 3.714668e-01 -2.366034e-01 8.687934e-02 -2.086111e-01 6.559433e-01 -1.046646e-02 -3.618099e-02 -6.537492e-02 -4.950770e-02 7.237324e-02 1.527771e-01 -3.631921e-03 -8.327899e-02 -2.280963e-02 -2.504558e-02 -4.451285e-02 -7.312879e-03 1.646085e-02
<VARIANCE> 39
 3.694647e+01 6.840697e+01 7.020457e+01 5.152411e+01 7.789510e+01 6.879951e+01 5.387263e+01 9.243967e+01 6.750555e+01 4.352094e+01 5.210587e+01 4.109766e+01 1.608308e+02 2.673266e+00 3.583154e+00 4.014414e+00 3.588452e+00 7.071838e+00 4.630755e+00 3.670345e+00 4.775625e+00 4.483794e+00 3.134547e+00 4.822727e+00 3.448462e+00 5.944971e+00 5.086204e-01 5.051136e-01 6.513878e-01 5.759569e-01 1.445503e+00 7.860373e-01 6.720915e-01 8.176520e-01 7.444376e-01 5.787988e-01 9.091607e-01 6.030188e-01 8.973731e-01
<GCONST> 1.396953e+02
<TRANSP> 5
 0.000000e+00 1.000000e+00 0.000000e+00 0.000000e+00 0.000000e+00
 0.000000e+00 5.628118e-01 4.371882e-01 0.000000e+00 0.000000e+00
 0.000000e+00 0.000000e+00 5.680173e-01 4.319828e-01 0.000000e+00
 0.000000e+00 0.000000e+00 0.000000e+00 6.171720e-01 3.828280e-01
 0.000000e+00 0.000000e+00 0.000000e+00 0.000000e+00 0.000000e+00
<ENDHMM>
~h "h"
<BEGINHMM>
<NUMSTATES> 5
<STATE> 2
<MEAN> 39
 -6.399413e+00 -6.872066e+00 -3.204807e+00 -4.326972e+00 -2.810868e+00 -2.490784e-01 -6.224108e+00 -1.286042e+00 -3.944889e+00 -2.979465e+00 -3.790061e+00 -5.261281e+00 6.141754e+01 -3.677956e-01 -4.018535e-02 -5.071942e-02 1.556064e-01 4.724791e-01 9.505427e-03 2.795729e-01 -7.367172e-02 1.053581e-01 5.635250e-03 -2.047128e-02 2.625727e-01 -6.980774e-01 7.995487e-02 -2.907088e-03 -3.955564e-03 -8.663096e-02 -1.968670e-01 -3.135906e-02 -1.245178e-01 -4.727775e-02 -2.088311e-02 6.360628e-03 4.317069e-02 -7.120322e-02 2.048071e-02
<VARIANCE> 39
 4.283958e+01 5.978711e+01 5.445261e+01 4.284828e+01 7.310585e+01 5.768951e+01 5.622300e+01 5.756466e+01 5.126639e+01 4.467814e+01 4.661651e+01 3.925060e+01 1.511417e+02 1.667989e+00 2.778807e+00 2.318579e+00 2.397924e+00 3.335791e+00 2.748743e+00 2.809345e+00 2.971078e+00 2.778046e+00 2.443920e+00 2.579308e+00 2.300490e+00 2.307181e+00 2.427309e-01 4.060782e-01 3.320075e-01 4.113067e-01 5.075396e-01 4.656070e-01 4.882150e-01 5.178619e-01 4.849200e-01 4.517989e-01 4.584844e-01 3.960346e-01 2.560133e-01
<GCONST> 1.243827e+02
<STATE> 3
<MEAN> 39
 -6.978446e+00 -6.966121e+00 -3.398491e+00 -4.285845e+00 -2.377478e+00 -3.685493e-01 -6.024921e+00 -1.571314e+00 -3.737167e+00 -2.906376e+00 -3.724073e+00 -4.878604e+00 5.971640e+01 -1.256309e-01 4.995646e-02 -4.467972e-02 -3.045142e-03 5.065947e-02 -5.881924e-02 3.758965e-02 -1.189541e-01 1.493041e-02 1.176117e-02 2.773719e-02 8.985382e-02 -6.075505e-01 9.906680e-02 3.866626e-02 1.368599e-02 -5.271285e-02 -1.729461e-01 -2.759079e-02 -9.771615e-02 -1.893292e-02 -3.258703e-02 -4.388075e-03 3.150055e-02 -6.521091e-02 5.845567e-02
<VARIANCE> 39
 4.400772e+01 6.103718e+01 5.314329e+01 4.097974e+01 6.841077e+01 5.446241e+01 5.352098e+01 5.239935e+01 4.880260e+01 4.186102e+01 4.354222e+01 3.653690e+01 1.571636e+02 1.597995e+00 2.517881e+00 2.049347e+00 2.201072e+00 2.915563e+00 2.494437e+00 2.580422e+00 2.692576e+00 2.590383e+00 2.299778e+00 2.364949e+00 2.134968e+00 2.552273e+00 2.437027e-01 3.648059e-01 3.140877e-01 3.844815e-01 4.686074e-01 4.362038e-01 4.627145e-01 4.886680e-01 4.626054e-01 4.285284e-01 4.277044e-01 3.771138e-01 2.583157e-01
<GCONST> 1.222298e+02
<STATE> 4
<MEAN> 39
 -8.224890e+00 -5.975998e+00 -3.586150e+00 -3.784134e+00 -2.388613e+00 -1.046430e+00 -5.734457e+00 -1.627689e+00 -3.496186e+00 -2.702679e+00 -3.356087e+00 -3.972609e+00 5.290600e+01 5.377343e-02 1.883510e-01 2.003228e-02 -2.286917e-02 -1.901404e-01 -4.139017e-02 -6.483233e-02 -8.922514e-02 -3.185553e-02 3.211116e-04 4.925247e-02 -4.270283e-02 -3.429724e-01 6.010446e-02 2.172414e-02 2.725963e-02 -8.654873e-03 -7.916074e-02 -9.745329e-03 -4.220486e-02 -2.024413e-03 -1.638218e-02 -1.181473e-02 1.632767e-02 -3.642737e-02 9.309285e-02
<VARIANCE> 39
 3.940089e+01 6.554740e+01 4.624301e+01 3.703374e+01 5.087782e+01 4.729195e+01 4.305914e+01 4.290710e+01 4.158842e+01 3.452299e+01 3.613367e+01 3.247099e+01 2.022434e+02 1.390869e+00 2.033246e+00 1.704885e+00 1.802756e+00 2.244073e+00 2.093910e+00 2.201941e+00 2.329699e+00 2.258065e+00 2.002314e+00 1.999950e+00 1.853383e+00 2.220055e+00 2.220868e-01 3.057594e-01 2.787685e-01 3.206087e-01 3.833612e-01 3.785271e-01 4.027637e-01 4.318858e-01 4.083531e-01 3.739465e-01 3.689669e-01 3.387605e-01 2.505112e-01
<GCONST> 1.167678e+02
<TRANSP> 5
 0.000000e+00 1.000000e+00 0.000000e+00 0.000000e+00 0.000000e+00
 0.000000e+00 5.532175e-01 4.467824e-01 0.000000e+00 0.000000e+00
 0.000000e+00 0.000000e+00 5.569746e-01 4.430254e-01 0.000000e+00
 0.000000e+00 0.000000e+00 0.000000e+00 7.944712e-01 2.055288e-01
 0.000000e+00 0.000000e+00 0.000000e+00 0.000000e+00 0.000000e+00
<ENDHMM>
~h "i"
<BEGINHMM>
<NUMSTATES> 5
<STATE> 2
<MEAN> 39
 -5.779592e+00 -1.183563e+00 1.174002e+01 -2.305661e+00 -1.833854e+01 -7.420267e+00 -1.207525e+01 -5.850985e+00 -1.048798e+01 -4.786372e+00 3.127007e+00 -5.564225e+00 6.410706e+01 8.146858e-02 1.713685e-01 1.197628e+00 -1.147779e-01 -1.104920e+00 8.669023e-02 -5.430564e-01 -2.939633e-01 -6.050021e-01 -2.033121e-01 6.519697e-01 -1.068346e-01 4.365905e-01 -2.618134e-02 2.530391e-02 -3.125795e-01 -2.922488e-02 2.631253e-01 1.159177e-01 9.361695e-02 7.168184e-02 1.926579e-01 1.027944e-01 -1.675899e-01 -2.418875e-02 -2.367006e-01
<VARIANCE> 39
 3.723872e+01 4.287528e+01 7.112320e+01 4.346455e+01 8.025967e+01 6.803747e+01 6.077081e+01 7.261250e+01 5.721418e+01 4.093471e+01 4.459665e+01 3.450378e+01 1.031132e+02 3.506721e+00 2.574563e+00 5.005008e+00 2.605267e+00 6.370541e+00 3.852480e+00 5.031255e+00 4.183771e+00 4.234630e+00 2.881220e+00 3.617571e+00 2.429559e+00 4.916096e+00 5.364006e-01 4.331851e-01 6.756380e-01 4.533263e-01 1.045734e+00 7.180908e-01 8.320735e-01 7.584451e-01 7.082847e-01 5.127208e-01 6.068717e-01 4.230422e-01 7.095380e-01
<GCONST> 1.349980e+02
<STATE> 3
<MEAN> 39
 -5.721425e+00 -5.185925e-01 1.320849e+01 -2.602307e+00 -1.971060e+01 -6.976547e+00 -1.274382e+01 -6.362619e+00 -1.114739e+01 -4.878008e+00 3.836891e+00 -5.816989e+00 6.403402e+01 5.973459e-02 2.174799e-01 9.735189e-02 -3.704941e-02 -9.885705e-02 8.266622e-02 -3.350578e-02 -5.020368e-02 -2.691861e-02 6.096386e-02 1.642355e-02 -5.432313e-02 -2.688725e-01 -1.099996e-02 8.855781e-03 -3.508503e-01 2.830401e-02 3.399785e-01 1.513551e-03 1.555083e-01 6.765417e-02 1.819029e-01 7.346619e-02 -2.120082e-01 1.468607e-02 -2.204640e-01
<VARIANCE> 39
 2.983477e+01 3.986614e+01 6.645679e+01 4.410026e+01 7.420624e+01 7.032966e+01 6.039379e+01 6.915240e+01 5.449650e+01 4.125174e+01 4.293141e+01 3.523872e+01 1.024770e+02 2.293214e+00 2.365259e+00 4.041761e+00 2.312064e+00 5.408076e+00 3.280635e+00 4.267158e+00 3.699137e+00 3.492226e+00 2.469130e+00 3.245679e+00 2.103498e+00 4.743114e+00 3.986658e-01 3.969967e-01 5.552658e-01 4.044484e-01 9.000031e-01 6.274040e-01 7.438840e-01 6.726757e-01 6.225097e-01 4.640562e-01 5.522200e-01 3.906046e-01 5.703337e-01
<GCONST> 1.305625e+02
<STATE> 4
<MEAN> 39
 -6.280621e+00 1.006245e+00 1.167313e+01 -2.910062e+00 -1.734998e+01 -5.399241e+00 -1.165315e+01 -6.362110e+00 -1.030042e+01 -4.081186e+00 2.044303e+00 -5.783124e+00 5.844745e+01 6.415088e-02 4.105942e-02 -6.915737e-01 1.141696e-01 6.031480e-01 -5.153371e-02 3.842025e-01 1.313143e-01 2.988327e-01 1.338852e-01 -3.831855e-01 6.141024e-02 -6.894573e-01 -1.404917e-02 -4.120205e-02 -1.398267e-01 2.230106e-03 1.421976e-01 2.005169e-02 3.560593e-02 2.109454e-02 5.970137e-02 1.017712e-02 -7.833930e-02 4.972351e-03 -1.447688e-02
<VARIANCE> 39
 3.159629e+01 4.226012e+01 7.848985e+01 4.203278e+01 8.824069e+01 7.117304e+01 6.883952e+01 6.164772e+01 4.923263e+01 3.793258e+01 4.578775e+01 3.572600e+01 1.712135e+02 1.708558e+00 2.123874e+00 2.734291e+00 1.930871e+00 3.684960e+00 2.771778e+00 3.302177e+00 3.254659e+00 2.761265e+00 2.218321e+00 2.685886e+00 1.926564e+00 3.368363e+00 2.642508e-01 3.271044e-01 3.896163e-01 3.390386e-01 6.255531e-01 5.113223e-01 5.763829e-01 5.617451e-01 4.892207e-01 4.069822e-01 4.719213e-01 3.448130e-01 4.508751e-01
<GCONST> 1.255045e+02
<TRANSP> 5
 0.000000e+00 1.000000e+00 0.000000e+00 0.000000e+00 0.000000e+00
 0.000000e+00 6.670856e-01 3.329144e-01 0.000000e+00 0.000000e+00
 0.000000e+00 0.000000e+00 6.650066e-01 3.349933e-01 0.000000e+00
 0.000000e+00 0.000000e+00 0.000000e+00 8.540120e-01 1.459880e-01
 0.000000e+00 0.000000e+00 0.000000e+00 0.000000e+00 0.000000e+00
<ENDHMM>
~h "j"
<BEGINHMM>
<NUMSTATES> 5
<STATE> 2
<MEAN> 39
 -4.036121e+00 4.076834e+00 6.472997e+00 -4.010261e-02 -9.210924e+00 -7.130599e+00 -8.564353e+00 -2.648768e+00 -4.453180e+00 -5.359863e+00 -2.672372e+00 -3.932845e+00 5.639799e+01 -6.324974e-01 6.373149e-01 4.276217e-01 3.122109e-02 5.770409e-01 -2.051621e-01 2.957138e-01 -7.012655e-03 8.812996e-02 -8.136128e-02 9.999224e-03 3.522597e-01 -1.569400e-02 -1.570232e-01 -3.216994e-01 -1.392333e-01 -1.837472e-01 -1.243014e-01 2.261435e-02 -1.437675e-01 -5.241995e-02 -1.860689e-02 3.478058e-02 1.564267e-01 -7.850830e-03 4.938029e-01
<VARIANCE> 39
 6.782439e+01 5.611591e+01 5.317251e+01 3.357757e+01 5.830341e+01 4.674472e+01 4.817015e+01 4.832922e+01 4.111185e+01 3.246211e+01 3.110647e+01 2.553671e+01 1.249863e+02 8.423614e+00 5.398950e+00 3.594956e+00 3.448144e+00 5.840076e+00 3.914664e+00 4.053113e+00 4.723938e+00 3.666134e+00 2.771131e+00 3.312840e+00 2.692271e+00 1.025512e+01 1.819454e+00 7.948913e-01 6.073600e-01 6.012127e-01 1.234452e+00 8.010558e-01 7.422955e-01 9.442453e-01 7.204179e-01 5.539850e-01 6.273054e-01 5.691229e-01 1.406892e+00
<GCONST> 1.384126e+02
<STATE> 3
<MEAN> 39
 -7.175130e+00 3.997811e+00 7.244841e+00 -1.117416e+00 -8.808482e+00 -7.878491e+00 -8.689319e+00 -3.091105e+00 -4.435148e+00 -5.477593e+00 -1.436691e+00 -2.662444e+00 6.040778e+01 -5.775405e-01 -8.515050e-01 -9.787173e-03 -4.776933e-01 -6.535397e-01 -3.762001e-01 -4.248174e-01 1.394801e-01 1.087478e-01 -5.465471e-02 5.824897e-01 2.533609e-01 1.769199e+00 3.102865e-01 -3.742784e-01 -1.645798e-01 -7.011981e-02 -3.172946e-01 3.958764e-02 -1.901775e-01 1.412719e-01 6.368316e-02 5.138706e-03 6.006625e-02 -1.668498e-01 2.088304e-01
<VARIANCE> 39
 8.051666e+01 5.609905e+01 4.924991e+01 3.297302e+01 6.746686e+01 4.751413e+01 4.293139e+01 4.619483e+01 3.670771e+01 2.899751e+01 3.124543e+01 2.520300e+01 1.223929e+02 1.248068e+01 6.456853e+00 4.173321e+00 3.517716e+00 9.639333e+00 4.779177e+00 4.510803e+00 5.829481e+00 4.080358e+00 2.776546e+00 3.474393e+00 3.207162e+00 8.666799e+00 2.561465e+00 8.524343e-01 7.818808e-01 6.354456e-01 1.871725e+00 1.031065e+00 8.347274e-01 1.111901e+00 7.950016e-01 5.636163e-01 7.193305e-01 6.819134e-01 1.418836e+00
<GCONST> 1.422690e+02
<STATE> 4
<MEAN> 39
 -6.881278e+00 -6.506982e-01 6.662570e+00 -2.872379e+00 -1.293326e+01 -8.728098e+00 -1.135982e+01 -1.105431e+00 -3.991397e+00 -5.394588e+00 6.008369e-01 -2.855194e+00 6.631836e+01 7.011042e-01 -1.537898e+00 -7.415191e-01 -4.656683e-01 -9.107075e-01 1.500967e-01 -6.857321e-01 6.793784e-01 4.281845e-01 3.178491e-02 2.700482e-01 -6.202614e-01 1.326400e+00 1.727252e-01 4.000150e-02 -2.455063e-01 -7.190974e-03 2.969259e-01 2.984830e-01 8.044658e-02 -5.932552e-02 3.481503e-03 6.952634e-02 -1.757688e-01 -2.401643e-01 -2.972341e-01
<VARIANCE> 39
 5.559812e+01 7.429239e+01 5.659151e+01 3.726414e+01 7.624850e+01 4.807868e+01 5.036085e+01 6.854152e+01 4.579729e+01 3.274377e+01 3.463647e+01 3.087938e+01 1.239856e+02 7.818439e+00 5.289580e+00 4.648099e+00 2.885958e+00 8.644913e+00 5.248594e+00 4.776637e+00 6.633618e+00 4.170118e+00 2.919292e+00 4.226243e+00 3.817588e+00 4.963040e+00 1.609812e+00 7.722573e-01 6.785742e-01 5.333259e-01 1.830088e+00 9.776699e-01 9.175187e-01 1.140996e+00 7.232840e-01 5.453061e-01 7.662053e-01 6.591058e-01 7.336392e-01
<GCONST> 1.414961e+02
<TRANSP> 5
 0.000000e+00 1.000000e+00 0.000000e+00 0.000000e+00 0.000000e+00
 0.000000e+00 7.389435e-01 2.610565e-01 0.000000e+00 0.000000e+00
 0.000000e+00 0.000000e+00 7.423315e-01 2.576685e-01 0.000000e+00
 0.000000e+00 0.000000e+00 0.000000e+00 7.516966e-01 2.483034e-01
 0.000000e+00 0.000000e+00 0.000000e+00 0.000000e+00 0.000000e+00
<ENDHMM>
~h "k"
<BEGINHMM>
<NUMSTATES> 5
<STATE> 2
<MEAN> 39
 -6.250907e+00 -1.961435e+00 -2.897861e+00 -4.007075e+00 -6.809447e+00 -5.200397e+00 -8.372009e+00 -3.390794e+00 -4.961985e+00 -1.191508e+00 -2.710075e+00 -5.299629e+00 4.992876e+01 -5.806475e-01 -2.932881e-01 -5.610979e-01 8.513328e-02 5.889742e-01 -3.965104e-01 7.691692e-03 2.107388e-01 2.030917e-01 1.448767e-01 -1.729894e-01 3.197878e-01 -2.447629e-01 3.147812e-02 -2.531730e-01 -1.039811e-01 -1.510274e-01 -8.069210e-02 7.584961e-02 -5.078330e-02 7.763658e-02 1.334439e-02 -2.562496e-02 3.661105e-02 -8.696311e-02 6.869653e-01
<VARIANCE> 39
 5.182959e+01 6.166045e+01 6.605386e+01 4.766444e+01 6.545157e+01 6.191430e+01 4.896793e+01 5.823247e+01 5.388890e+01 4.230895e+01 4.297108e+01 4.324664e+01 1.726296e+02 3.344105e+00 5.184895e+00 4.666350e+00 3.584316e+00 5.403249e+00 4.311794e+00 4.083055e+00 4.226548e+00 4.005018e+00 3.769754e+00 3.372151e+00 3.265232e+00 1.521642e+01 6.199321e-01 8.486021e-01 8.376507e-01 6.537184e-01 1.061960e+00 8.296207e-01 8.028424e-01 7.834701e-01 7.692432e-01 7.625948e-01 6.636406e-01 6.375626e-01 2.022886e+00
<GCONST> 1.414531e+02
<STATE> 3
<MEAN> 39
 -7.528300e+00 -3.757231e+00 -4.769677e+00 -4.383917e+00 -5.738186e+00 -6.006026e+00 -8.599636e+00 -2.543914e+00 -4.422976e+00 -8.383813e-01 -2.972893e+00 -4.894013e+00 5.234335e+01 -1.827297e-01 -7.485953e-01 -5.917619e-01 -3.464446e-01 1.215065e-01 -1.228526e-01 -1.304557e-01 3.974033e-01 1.536078e-01 1.771866e-02 -2.373911e-02 -1.391866e-01 1.695520e+00 2.383952e-01 -4.167184e-02 1.313982e-01 -1.299385e-01 -2.540443e-01 1.671211e-01 -2.907129e-02 2.302475e-02 -3.305383e-02 -1.068763e-01 9.657910e-02 -2.056747e-01 4.683981e-01
<VARIANCE> 39
 4.923806e+01 6.287968e+01 6.762349e+01 4.719792e+01 6.523950e+01 6.465978e+01 4.819860e+01 5.553671e+01 5.008055e+01 4.220340e+01 4.069645e+01 4.293123e+01 1.935103e+02 4.592341e+00 5.628319e+00 6.198002e+00 4.161577e+00 6.973588e+00 5.256317e+00 4.614887e+00 4.938167e+00 4.592512e+00 4.358485e+00 3.799472e+00 4.437510e+00 1.811749e+01 8.004903e-01 9.520795e-01 1.127797e+00 7.331551e-01 1.339294e+00 9.702950e-01 8.744088e-01 8.629379e-01 8.333905e-01 8.424106e-01 7.457039e-01 7.890034e-01 2.447723e+00
<GCONST> 1.458883e+02
<STATE> 4
<MEAN> 39
 -7.376290e+00 -5.315383e+00 -5.307915e+00 -5.446093e+00 -6.268553e+00 -5.534162e+00 -8.787005e+00 -1.318823e+00 -4.190968e+00 -1.154811e+00 -2.731330e+00 -5.840884e+00 5.627650e+01 4.405134e-01 -5.027496e-01 -3.500190e-02 -4.630296e-01 -4.474323e-01 3.006337e-01 -1.217036e-01 2.729141e-01 2.241179e-02 -3.020943e-01 1.986109e-01 -5.507386e-01 1.931507e+00 1.552797e-01 6.631646e-02 1.631131e-01 -9.654627e-04 -1.352756e-01 1.580884e-01 5.254508e-03 -7.389178e-02 -2.172242e-02 -9.650628e-02 7.821117e-02 -7.267838e-02 -6.529287e-02
<VARIANCE> 39
 4.765197e+01 6.554369e+01 6.811761e+01 4.793555e+01 6.435823e+01 7.064735e+01 4.820684e+01 5.729152e+01 5.098125e+01 4.420276e+01 4.162178e+01 5.029649e+01 2.396431e+02 4.240551e+00 4.655728e+00 5.590417e+00 3.875456e+00 6.267936e+00 5.293308e+00 4.272229e+00 4.701981e+00 4.413084e+00 4.085090e+00 3.880020e+00 4.547790e+00 1.348502e+01 7.437919e-01 7.585939e-01 1.040358e+00 6.772363e-01 1.244811e+00 9.216076e-01 8.008429e-01 8.167195e-01 7.756466e-01 7.551813e-01 7.436228e-01 8.025021e-01 2.005520e+00
<GCONST> 1.443664e+02
<TRANSP> 5
 0.000000e+00 1.000000e+00 0.000000e+00 0.000000e+00 0.000000e+00
 0.000000e+00 6.063542e-01 3.936458e-01 0.000000e+00 0.000000e+00
 0.000000e+00 0.000000e+00 6.208656e-01 3.791344e-01 0.000000e+00
 0.000000e+00 0.000000e+00 0.000000e+00 6.801616e-01 3.198383e-01
 0.000000e+00 0.000000e+00 0.000000e+00 0.000000e+00 0.000000e+00
<ENDHMM>
~h "l"
<BEGINHMM>
<NUMSTATES> 5
<STATE> 2
<MEAN> 39
 3.044037e-01 -8.890052e+00 -2.370433e+00 -8.541764e+00 -1.209641e+01 7.794973e-01 -1.472281e+01 -6.902888e+00 -1.272776e-01 -2.407779e-01 -5.677932e-01 -8.748286e+00 6.818224e+01 2.512850e-01 -9.733693e-02 1.455316e-01 -2.820982e-01 -8.578638e-03 2.140096e-01 -5.264323e-01 -2.455398e-01 2.523137e-01 4.162529e-01 -6.887987e-02 -1.169982e-01 -6.783954e-02 -1.090328e-01 7.676316e-02 -1.262454e-02 1.034409e-02 4.059282e-02 -2.944535e-02 1.323771e-01 1.280644e-01 -1.088367e-01 -1.194726e-01 -8.831934e-03 2.841250e-02 -4.580016e-02
<VARIANCE> 39
 3.284285e+01 5.044892e+01 6.598953e+01 6.839644e+01 6.785797e+01 1.003743e+02 7.664446e+01 1.107730e+02 8.000591e+01 6.824708e+01 5.506707e+01 4.644773e+01 8.474873e+01 1.560041e+00 2.235700e+00 3.107861e+00 3.478041e+00 4.095130e+00 4.927711e+00 4.430836e+00 5.252675e+00 4.129323e+00 4.160796e+00 3.496064e+00 2.789965e+00 2.164474e+00 2.568113e-01 3.426005e-01 4.322649e-01 5.572367e-01 7.127129e-01 7.739691e-01 7.986004e-01 8.887069e-01 7.021948e-01 7.369221e-01 6.279640e-01 4.910347e-01 2.707851e-01
<GCONST> 1.340112e+02
<STATE> 3
<MEAN> 39
 5.453252e-01 -8.892608e+00 -2.152647e+00 -9.132234e+00 -1.196694e+01 1.222932e+00 -1.547171e+01 -7.117332e+00 1.106837e-01 2.784690e-01 -7.540975e-01 -8.907775e+00 6.787032e+01 -5.389926e-02 2.944705e-02 2.466814e-02 -1.059444e-01 1.069144e-01 6.414655e-02 -5.408131e-02 1.673579e-01 -3.333092e-02 -2.619894e-02 -1.327859e-01 -3.852336e-02 -9.158062e-02 -1.228566e-01 5.187055e-02 -4.921587e-02 8.680378e-02 3.339150e-02 -5.706550e-02 2.198886e-01 1.477830e-01 -1.152170e-01 -1.799173e-01 -1.784480e-02 3.865797e-02 -1.029063e-02
<VARIANCE> 39
 3.173200e+01 4.923466e+01 6.571228e+01 6.940567e+01 6.615682e+01 9.667928e+01 8.072594e+01 1.123572e+02 7.993536e+01 6.894590e+01 5.533431e+01 4.557177e+01 8.626067e+01 1.359615e+00 2.218005e+00 3.040844e+00 3.227299e+00 3.743478e+00 4.697943e+00 4.594301e+00 5.289638e+00 3.988904e+00 4.318685e+00 3.394421e+00 2.684363e+00 2.064281e+00 2.162506e-01 3.394856e-01 4.096284e-01 5.281388e-01 6.944953e-01 7.364949e-01 8.155749e-01 8.698393e-01 6.939021e-01 7.466901e-01 6.256064e-01 4.833211e-01 2.466818e-01
<GCONST> 1.330537e+02
<STATE> 4
<MEAN> 39
 -1.956600e-01 -8.528168e+00 -2.220271e+00 -9.488357e+00 -1.114569e+01 2.102650e+00 -1.522125e+01 -5.645234e+00 -6.715385e-01 -4.219930e-01 -1.562754e+00 -8.889219e+00 6.657368e+01 -2.983842e-01 1.265809e-01 -7.346240e-02 2.283004e-01 1.947648e-01 -1.727137e-01 4.697578e-01 3.618892e-01 -2.326596e-01 -3.986028e-01 -1.819066e-01 6.532149e-02 -2.170947e-01 -5.612167e-02 4.988876e-02 2.457536e-03 7.844414e-02 -7.868705e-04 -5.970607e-02 1.311696e-01 3.207983e-02 -6.489685e-02 -7.072835e-02 2.134140e-02 3.493984e-02 -3.550323e-02
<VARIANCE> 39
 3.260760e+01 5.644572e+01 7.039719e+01 6.775533e+01 7.016494e+01 9.778557e+01 8.271712e+01 1.001559e+02 7.774297e+01 7.034191e+01 5.730561e+01 4.634292e+01 1.228407e+02 1.121125e+00 2.166575e+00 2.589475e+00 2.764299e+00 3.367182e+00 3.903456e+00 4.035810e+00 4.394318e+00 3.529546e+00 3.700862e+00 3.221457e+00 2.481835e+00 2.024424e+00 1.797789e-01 3.130287e-01 3.520788e-01 4.411614e-01 5.804448e-01 6.146303e-01 7.208588e-01 7.263652e-01 5.937352e-01 6.486356e-01 5.709276e-01 4.396949e-01 2.371180e-01
<GCONST> 1.302910e+02
<TRANSP> 5
 0.000000e+00 1.000000e+00 0.000000e+00 0.000000e+00 0.000000e+00
 0.000000e+00 5.670958e-01 4.329042e-01 0.000000e+00 0.000000e+00
 0.000000e+00 0.000000e+00 5.733002e-01 4.266997e-01 0.000000e+00
 0.000000e+00 0.000000e+00 0.000000e+00 7.226943e-01 2.773058e-01
 0.000000e+00 0.000000e+00 0.000000e+00 0.000000e+00 0.000000e+00
<ENDHMM>
~h "m"
<BEGINHMM>
<NUMSTATES> 5
<STATE> 2
<MEAN> 39
 1.253642e+00 -4.558170e+00 -3.522031e-01 -4.501260e+00 -8.965544e+00 1.178375e+00 -9.349779e+00 -8.749217e+00 -1.024284e+01 -2.761588e+00 -1.515942e+00 -8.479395e+00 6.137509e+01 2.648854e-01 3.845825e-01 4.892154e-01 4.721678e-01 1.514710e-01 1.878296e-01 2.655861e-01 -8.757503e-01 -1.032751e+00 6.254363e-02 -9.469559e-02 6.042378e-02 -4.141674e-01 -1.014807e-01 -5.792301e-02 -2.558328e-02 -8.899547e-02 -3.321331e-02 -4.803740e-02 -3.733402e-02 1.634234e-01 1.553003e-01 -3.527181e-02 3.861699e-03 1.097673e-02 1.172912e-01
<VARIANCE> 39
 3.684925e+01 4.857551e+01 4.870901e+01 6.631654e+01 6.488540e+01 8.045857e+01 5.982326e+01 8.626003e+01 9.508639e+01 6.065087e+01 6.290197e+01 4.371552e+01 1.125814e+02 1.285614e+00 2.464683e+00 3.179073e+00 3.687854e+00 2.751319e+00 3.130376e+00 3.129979e+00 5.339636e+00 6.168658e+00 3.256121e+00 4.173872e+00 2.583460e+00 2.992023e+00 2.093489e-01 3.411609e-01 4.870389e-01 6.400992e-01 4.580825e-01 4.861314e-01 5.479669e-01 8.693035e-01 1.021374e+00 5.595173e-01 7.136422e-01 4.575680e-01 3.374780e-01
<GCONST> 1.319045e+02
<STATE> 3
<MEAN> 39
 1.651097e+00 -4.027654e+00 5.816555e-01 -3.995232e+00 -8.756361e+00 1.658545e+00 -8.964103e+00 -1.016057e+01 -1.202449e+01 -2.860018e+00 -1.625040e+00 -8.424065e+00 6.115147e+01 3.281731e-02 1.340674e-01 1.802841e-01 6.445796e-02 8.329654e-02 1.045155e-01 7.572395e-02 -1.711337e-01 -2.352964e-01 -3.994374e-02 -6.111705e-02 1.218729e-02 -6.795576e-02 -9.160915e-02 -9.507239e-02 -1.362754e-01 -1.548221e-01 -2.309051e-02 -4.832733e-02 -8.157878e-02 2.954102e-01 3.418684e-01 -4.351332e-02 1.611096e-02 -1.819047e-02 1.177695e-01
<VARIANCE> 39
 3.279462e+01 4.196756e+01 4.520377e+01 6.322747e+01 6.411123e+01 8.126489e+01 6.117897e+01 8.338195e+01 9.901807e+01 6.460235e+01 6.625789e+01 4.269808e+01 9.634331e+01 1.091214e+00 2.388446e+00 3.241647e+00 3.925047e+00 2.391504e+00 2.946740e+00 3.006501e+00 5.260375e+00 6.998746e+00 3.058540e+00 3.932292e+00 2.457089e+00 2.974316e+00 1.770034e-01 3.118621e-01 4.857879e-01 6.458631e-01 4.258930e-01 4.661629e-01 5.230592e-01 8.333794e-01 1.059816e+00 5.512950e-01 7.082075e-01 4.441519e-01 3.058123e-01
<GCONST> 1.304921e+02
<STATE> 4
<MEAN> 39
 6.613038e-01 -3.822451e+00 7.432655e-01 -4.544158e+00 -8.113782e+00 2.169418e+00 -9.172596e+00 -8.600196e+00 -1.103059e+01 -3.167168e+00 -2.214075e+00 -8.261800e+00 6.009626e+01 -1.773469e-01 -3.993515e-02 -1.977109e-01 -1.680049e-01 4.944034e-02 -7.513223e-02 -8.967608e-02 4.342309e-01 5.917757e-01 -6.343063e-02 -1.968920e-02 -1.333125e-03 5.943976e-03 -5.806904e-02 -4.618524e-02 -6.354046e-02 -4.460308e-02 -1.626140e-02 -6.222757e-02 -4.553124e-02 1.404044e-01 1.731862e-01 -1.870080e-02 1.281918e-02 1.910440e-03 4.384402e-02
<VARIANCE> 39
 3.541435e+01 5.092187e+01 5.087063e+01 6.340305e+01 7.055937e+01 8.046124e+01 6.392104e+01 8.410157e+01 9.794006e+01 5.912165e+01 6.472110e+01 4.400776e+01 1.289647e+02 9.625794e-01 2.170168e+00 2.814203e+00 3.247695e+00 2.304969e+00 2.697320e+00 2.889537e+00 4.159431e+00 5.572237e+00 2.732227e+00 3.542469e+00 2.217648e+00 2.715863e+00 1.560355e-01 2.992465e-01 4.506238e-01 5.726151e-01 3.947775e-01 4.456864e-01 4.978726e-01 6.973844e-01 9.039921e-01 4.681985e-01 6.311852e-01 3.974764e-01 2.830588e-01
<GCONST> 1.282928e+02
<TRANSP> 5
 0.000000e+00 1.000000e+00 0.000000e+00 0.000000e+00 0.000000e+00
 0.000000e+00 5.938509e-01 4.061491e-01 0.000000e+00 0.000000e+00
 0.000000e+00 0.000000e+00 6.089340e-01 3.910659e-01 0.000000e+00
 0.000000e+00 0.000000e+00 0.000000e+00 7.731358e-01 2.268642e-01
 0.000000e+00 0.000000e+00 0.000000e+00 0.000000e+00 0.000000e+00
<ENDHMM>
~h "n"
<BEGINHMM>
<NUMSTATES> 5
<STATE> 2
<MEAN> 39
 1.210147e+00 -5.383869e+00 1.673561e+00 -2.319661e+00 -1.249932e+01 -4.754177e+00 -1.137794e+01 -5.716605e+00 -5.626040e+00 -1.276711e+00 -6.168957e+00 -8.793671e+00 6.415552e+01 3.686377e-01 9.436652e-01 7.236244e-01 6.350572e-01 -1.575438e-01 -4.855623e-01 2.132938e-01 -1.131395e+00 -4.379031e-01 5.647750e-01 -5.930487e-01 2.492982e-01 -9.700053e-01 -1.203039e-01 -3.834303e-02 -7.527132e-02 -1.372264e-01 5.900260e-02 1.146167e-01 5.368986e-02 8.786084e-02 2.896562e-02 -8.517980e-02 1.107476e-01 4.134807e-02 5.562984e-02
<VARIANCE> 39
 2.466628e+01 5.776249e+01 5.263305e+01 4.900903e+01 5.877756e+01 7.176547e+01 5.871005e+01 1.129287e+02 6.938744e+01 5.822641e+01 5.629948e+01 4.697389e+01 8.644543e+01 1.412032e+00 3.372531e+00 3.273132e+00 3.040191e+00 3.236616e+00 4.021825e+00 3.526665e+00 7.830911e+00 3.815081e+00 4.120276e+00 3.651281e+00 2.814893e+00 3.466783e+00 2.233454e-01 5.107238e-01 4.711734e-01 5.067769e-01 5.386932e-01 6.517858e-01 6.452236e-01 1.388045e+00 6.425237e-01 7.095543e-01 6.259784e-01 4.658574e-01 4.466617e-01
<GCONST> 1.330720e+02
<STATE> 3
<MEAN> 39
 1.567796e+00 -3.422543e+00 2.987517e+00 -1.369375e+00 -1.259652e+01 -5.364826e+00 -1.065874e+01 -7.740870e+00 -6.513363e+00 -4.084779e-01 -7.110765e+00 -8.043583e+00 6.207685e+01 -2.677534e-02 5.700047e-01 3.031850e-01 1.886751e-01 8.934570e-02 -4.043173e-02 2.118326e-01 -3.706010e-01 -2.460568e-01 8.401448e-02 -1.719396e-01 2.613109e-01 -6.557866e-01 -1.602293e-01 -1.442183e-01 -1.629699e-01 -1.627486e-01 1.015803e-01 1.431840e-01 -2.557909e-02 3.114765e-01 9.073513e-02 -1.855862e-01 1.837504e-01 -1.170729e-02 1.117634e-01
<VARIANCE> 39
 2.412875e+01 4.783757e+01 4.452092e+01 4.721672e+01 6.070720e+01 7.388278e+01 5.938161e+01 9.868468e+01 6.637043e+01 5.434334e+01 5.764009e+01 4.905709e+01 8.087146e+01 1.466769e+00 3.433639e+00 3.045425e+00 3.009525e+00 3.233968e+00 3.763843e+00 3.295597e+00 7.963183e+00 3.829645e+00 4.158577e+00 3.551844e+00 2.603610e+00 3.481951e+00 2.289634e-01 4.725267e-01 4.542875e-01 5.019299e-01 5.605766e-01 6.341252e-01 6.061696e-01 1.245594e+00 6.597874e-01 7.108577e-01 6.251963e-01 4.665957e-01 4.190904e-01
<GCONST> 1.319565e+02
<STATE> 4
<MEAN> 39
 5.594520e-01 -1.997442e+00 3.708766e+00 -1.265071e+00 -1.159586e+01 -4.594131e+00 -1.034264e+01 -7.157762e+00 -7.070854e+00 -1.100241e+00 -7.621171e+00 -7.140438e+00 5.913826e+01 -3.780369e-01 2.423589e-01 -1.269377e-01 -4.968393e-02 3.762870e-01 1.935859e-01 1.216400e-01 3.013639e-01 2.225060e-02 -3.141190e-01 2.802143e-01 1.826457e-01 -6.064353e-01 -1.218427e-01 -9.007905e-02 -1.051273e-01 -8.405888e-02 6.412829e-02 3.222572e-02 -2.586372e-02 1.478259e-01 8.351395e-02 -8.497359e-02 1.312458e-01 -1.761022e-02 6.203212e-02
<VARIANCE> 39
 2.870644e+01 5.247100e+01 4.931652e+01 4.632349e+01 6.938317e+01 7.414458e+01 6.236368e+01 8.684704e+01 5.971437e+01 5.498792e+01 6.115715e+01 4.842971e+01 1.146913e+02 1.451959e+00 2.844021e+00 2.438657e+00 2.537416e+00 3.045745e+00 3.177494e+00 2.907431e+00 5.344461e+00 3.339956e+00 3.446408e+00 3.153543e+00 2.315027e+00 3.182012e+00 2.466340e-01 4.256889e-01 3.903543e-01 4.471919e-01 5.410786e-01 5.514627e-01 5.366969e-01 9.450408e-01 5.975914e-01 6.234467e-01 5.591965e-01 4.208030e-01 3.945610e-01
<GCONST> 1.292947e+02
<TRANSP> 5
 0.000000e+00 1.000000e+00 0.000000e+00 0.000000e+00 0.000000e+00
 0.000000e+00 6.046685e-01 3.953315e-01 0.000000e+00 0.000000e+00
 0.000000e+00 0.000000e+00 6.029028e-01 3.970971e-01 0.000000e+00
 0.000000e+00 0.000000e+00 0.000000e+00 7.423945e-01 2.576055e-01
 0.000000e+00 0.000000e+00 0.000000e+00 0.000000e+00 0.000000e+00
<ENDHMM>
~h "o"
<BEGINHMM>
<NUMSTATES> 5
<STATE> 2
<MEAN> 39
 3.273419e-01 -4.318810e+00 -7.313479e+00 -1.380385e+01 -1.119255e+01 3.969440e+00 -1.122357e+01 -5.934722e+00 -3.840174e+00 -1.750432e+00 2.647627e+00 -7.189692e+00 6.606802e+01 6.692437e-01 -2.016322e-01 -6.109000e-01 -1.469773e+00 -5.390224e-01 1.316955e+00 -4.991708e-02 -1.883003e-02 1.404907e-01 -1.320832e-01 7.516474e-01 -2.838052e-01 9.690568e-01 -1.215874e-01 5.942588e-02 2.059655e-01 2.389710e-01 5.385561e-02 -1.386473e-01 7.584461e-02 1.481463e-03 -3.277329e-02 -2.960965e-02 -1.252877e-01 5.880211e-02 -2.831638e-01
<VARIANCE> 39
 3.656200e+01 4.160478e+01 5.855857e+01 1.005062e+02 7.401402e+01 8.597957e+01 6.311497e+01 7.211147e+01 7.288760e+01 6.528392e+01 5.947810e+01 4.283029e+01 1.062209e+02 3.127420e+00 2.491882e+00 4.049267e+00 6.762482e+00 5.824109e+00 5.815832e+00 3.783203e+00 4.197499e+00 4.488389e+00 4.284610e+00 4.129359e+00 3.299344e+00 6.403474e+00 5.586177e-01 4.094215e-01 6.580607e-01 1.049846e+00 1.008990e+00 9.811625e-01 6.891750e-01 7.248407e-01 8.059292e-01 7.402706e-01 7.123004e-01 6.040409e-01 8.314937e-01
<GCONST> 1.408247e+02
<STATE> 3
<MEAN> 39
 1.553103e+00 -4.558118e+00 -8.035354e+00 -1.638979e+01 -1.214949e+01 6.493906e+00 -1.103590e+01 -5.998498e+00 -3.649215e+00 -2.235823e+00 3.753698e+00 -7.593649e+00 6.735817e+01 2.687420e-01 -5.332017e-02 -2.049898e-02 -2.609523e-01 -1.616424e-01 3.889273e-01 4.913791e-03 -1.339309e-02 2.805724e-02 -4.176234e-02 8.831690e-02 -1.093762e-01 8.606409e-02 -1.319560e-01 5.930515e-02 1.825649e-01 3.863541e-01 1.308009e-01 -3.255549e-01 1.706472e-02 -3.252394e-03 -3.510019e-02 3.032211e-02 -2.253903e-01 6.129105e-02 -2.774144e-01
<VARIANCE> 39
 2.679860e+01 4.003437e+01 4.739513e+01 9.801756e+01 6.766367e+01 7.810557e+01 6.199378e+01 7.281987e+01 7.052769e+01 7.022890e+01 5.677938e+01 4.284542e+01 8.391242e+01 1.928832e+00 2.216993e+00 2.857018e+00 6.130668e+00 4.387270e+00 5.427111e+00 3.325102e+00 3.490721e+00 3.782530e+00 3.689743e+00 3.735859e+00 2.742563e+00 5.034979e+00 3.512253e-01 3.513548e-01 4.779694e-01 8.413932e-01 8.056181e-01 8.196527e-01 5.906696e-01 6.252484e-01 6.839885e-01 6.747721e-01 6.260858e-01 5.136902e-01 5.649368e-01
<GCONST> 1.344451e+02
<STATE> 4
<MEAN> 39
 1.807771e+00 -3.778701e+00 -7.080648e+00 -1.636208e+01 -1.203342e+01 7.188738e+00 -1.138111e+01 -5.404355e+00 -4.474947e+00 -2.272144e+00 2.159460e+00 -7.466428e+00 6.491098e+01 -1.249020e-01 1.024731e-01 3.510254e-01 8.321140e-01 2.601002e-01 -6.009026e-01 1.337814e-02 -8.311054e-02 -2.299459e-02 1.365759e-01 -4.532615e-01 3.072947e-02 -6.704702e-01 -7.612474e-02 3.935447e-02 8.912332e-02 1.663495e-01 5.782255e-02 -1.614363e-01 2.395188e-02 -5.016124e-03 -1.227269e-02 -7.412063e-03 -8.333458e-02 3.818496e-02 -9.254725e-02
<VARIANCE> 39
 2.470760e+01 4.669983e+01 4.897561e+01 9.521890e+01 6.894648e+01 7.830054e+01 6.415282e+01 6.473185e+01 6.185263e+01 6.774490e+01 5.506609e+01 4.379972e+01 1.153161e+02 1.263451e+00 1.913053e+00 2.290682e+00 4.271940e+00 3.181171e+00 3.934104e+00 2.938412e+00 3.025632e+00 3.134972e+00 3.086073e+00 3.040358e+00 2.385572e+00 3.218460e+00 2.048305e-01 2.958888e-01 3.543368e-01 6.127058e-01 5.516657e-01 6.239586e-01 5.095733e-01 5.185183e-01 5.426732e-01 5.489120e-01 5.300942e-01 4.333626e-01 3.954701e-01
<GCONST> 1.279347e+02
<TRANSP> 5
 0.000000e+00 1.000000e+00 0.000000e+00 0.000000e+00 0.000000e+00
 0.000000e+00 6.812197e-01 3.187803e-01 0.000000e+00 0.000000e+00
 0.000000e+00 0.000000e+00 6.833408e-01 3.166592e-01 0.000000e+00
 0.000000e+00 0.000000e+00 0.000000e+00 8.531091e-01 1.468909e-01
 0.000000e+00 0.000000e+00 0.000000e+00 0.000000e+00 0.000000e+00
<ENDHMM>
~h "p"
<BEGINHMM>
<NUMSTATES> 5
<STATE> 2
<MEAN> 39
 -3.456172e+00 -6.332403e-01 -2.326529e+00 -4.445550e+00 -6.929992e+00 -2.201283e+00 -7.694425e+00 -5.010445e+00 -4.777044e+00 -2.040229e+00 -2.172714e+00 -5.959773e+00 4.785732e+01 -4.146352e-01 6.988730e-02 -2.581345e-01 -3.993944e-02 2.847673e-01 -1.597016e-01 1.867261e-01 5.624082e-02 3.090625e-01 3.577254e-02 4.177368e-02 1.802930e-01 -5.763526e-01 2.267619e-02 -3.088227e-01 -9.493119e-02 -1.519582e-01 -1.057777e-01 8.219992e-02 -7.610919e-02 5.538407e-02 3.783518e-02 1.150252e-03 7.380293e-02 -9.579152e-02 7.215914e-01
<VARIANCE> 39
 4.839492e+01 5.710839e+01 4.902644e+01 4.948956e+01 4.127282e+01 5.521900e+01 3.965840e+01 4.610868e+01 4.995444e+01 3.410363e+01 4.013598e+01 4.105180e+01 1.623789e+02 2.976327e+00 4.359963e+00 2.791597e+00 3.710477e+00 3.250750e+00 3.784217e+00 2.838606e+00 3.474852e+00 3.736459e+00 2.793931e+00 3.359928e+00 2.875823e+00 1.575041e+01 5.514798e-01 6.842300e-01 5.050214e-01 7.132343e-01 6.278397e-01 7.200738e-01 5.600106e-01 6.486359e-01 6.551475e-01 5.508677e-01 6.715668e-01 5.564721e-01 2.002644e+00
<GCONST> 1.345350e+02
<STATE> 3
<MEAN> 39
 -4.343602e+00 -1.824949e+00 -3.571264e+00 -5.365940e+00 -6.645199e+00 -2.085434e+00 -7.464455e+00 -4.677745e+00 -3.855031e+00 -1.903595e+00 -1.632159e+00 -5.986543e+00 4.970281e+01 -5.051527e-02 -8.722290e-01 -5.178169e-01 -5.407110e-01 -1.021193e-01 2.309836e-01 -9.491689e-02 1.996664e-01 3.092573e-01 3.405818e-02 3.256002e-01 -2.347772e-01 1.773597e+00 1.659791e-01 -2.429211e-01 -1.532250e-03 -1.067039e-01 -1.705746e-01 1.249906e-01 -1.192750e-01 4.975057e-02 -4.207863e-02 -2.173390e-02 6.525751e-02 -1.422147e-01 6.033196e-01
<VARIANCE> 39
 4.476353e+01 5.683503e+01 4.734588e+01 5.477879e+01 3.816158e+01 5.710016e+01 3.720792e+01 4.285985e+01 4.312117e+01 3.246065e+01 3.774293e+01 4.178079e+01 1.970103e+02 4.211636e+00 5.641140e+00 3.648251e+00 5.338636e+00 3.860563e+00 5.597003e+00 3.384380e+00 4.053667e+00 4.190591e+00 3.111400e+00 3.821481e+00 4.014955e+00 2.278249e+01 7.236994e-01 7.926711e-01 6.287932e-01 9.763733e-01 7.553206e-01 9.442438e-01 6.217169e-01 7.106692e-01 7.316023e-01 5.945087e-01 7.456610e-01 6.919572e-01 2.868523e+00
<GCONST> 1.399459e+02
<STATE> 4
<MEAN> 39
 -5.580405e+00 -3.930806e+00 -4.575662e+00 -5.964519e+00 -6.615300e+00 -1.868216e+00 -7.505919e+00 -3.775344e+00 -3.279647e+00 -1.786787e+00 -1.087643e+00 -5.853436e+00 5.145754e+01 2.952417e-01 -8.351132e-01 -2.052829e-01 -3.902752e-01 -3.797692e-01 2.859918e-01 -2.960665e-01 1.597744e-01 1.049912e-01 -8.096636e-02 2.917111e-01 -3.502038e-01 2.152491e+00 1.120171e-01 2.060959e-02 1.056405e-01 1.601594e-02 -1.373450e-01 2.542031e-02 -7.616276e-02 6.000484e-03 -5.095926e-02 -4.397488e-02 -1.882747e-02 -3.141847e-02 7.735249e-02
<VARIANCE> 39
 4.448182e+01 5.990379e+01 4.359914e+01 5.334376e+01 3.795000e+01 5.993208e+01 3.812313e+01 4.257851e+01 3.983458e+01 3.039566e+01 3.577906e+01 4.595506e+01 2.546340e+02 3.746521e+00 4.309022e+00 3.393403e+00 4.623131e+00 4.065943e+00 5.042747e+00 3.296657e+00 3.761996e+00 3.734541e+00 2.921622e+00 3.537153e+00 3.717632e+00 1.705938e+01 6.575180e-01 6.564203e-01 5.414404e-01 9.038967e-01 7.155638e-01 9.032834e-01 5.963083e-01 6.468701e-01 6.570738e-01 5.392821e-01 6.836363e-01 6.559217e-01 2.629666e+00
<GCONST> 1.375417e+02
<TRANSP> 5
 0.000000e+00 1.000000e+00 0.000000e+00 0.000000e+00 0.000000e+00
 0.000000e+00 6.190788e-01 3.809212e-01 0.000000e+00 0.000000e+00
 0.000000e+00 0.000000e+00 6.352862e-01 3.647138e-01 0.000000e+00
 0.000000e+00 0.000000e+00 0.000000e+00 7.301192e-01 2.698808e-01
 0.000000e+00 0.000000e+00 0.000000e+00 0.000000e+00 0.000000e+00
<ENDHMM>
~h "q"
<BEGINHMM>
<NUMSTATES> 5
<STATE> 2
<MEAN> 39
 -9.777646e+00 3.071202e+00 8.073630e+00 -3.618451e+00 -1.537403e+01 -5.060096e+00 -1.445191e+01 -2.404819e+00 -9.068255e+00 -5.224227e+00 4.393978e-01 -5.727180e+00 6.929910e+01 5.298190e-01 7.027063e-01 2.037802e-01 2.957158e-01 -1.215817e+00 -5.185528e-01 -1.334844e-01 -1.690851e-02 -2.133876e-01 7.226153e-02 1.838541e-01 -1.185984e-01 1.008487e+00 1.639858e-01 1.787895e-01 -9.555480e-02 2.343299e-01 8.377850e-02 -1.831258e-01 2.390287e-01 -9.769534e-02 9.347637e-02 5.603285e-02 -6.251548e-02 -9.417069e-02 -4.645014e-01
<VARIANCE> 39
 5.561765e+01 6.887582e+01 1.552278e+02 4.361633e+01 1.489745e+02 5.733698e+01 4.638835e+01 8.305645e+01 3.088098e+01 2.766130e+01 4.841375e+01 4.612646e+01 3.555601e+01 6.134371e+00 4.932842e+00 6.325313e+00 3.564535e+00 1.105997e+01 6.258867e+00 7.608411e+00 4.855338e+00 3.131825e+00 2.342702e+00 4.013975e+00 3.402451e+00 5.642305e+00 1.169821e+00 1.038329e+00 1.371675e+00 8.620917e-01 2.262030e+00 1.233145e+00 1.266341e+00 1.141522e+00 4.550811e-01 4.172132e-01 8.871741e-01 7.902381e-01 6.958805e-01
<GCONST> 1.441769e+02
<STATE> 3
<MEAN> 39
 -5.146810e+00 -1.830192e+00 6.913983e+00 -3.685637e+00 -1.856719e+01 -5.648910e+00 -1.650519e+01 7.462820e-01 -8.655229e+00 -3.876955e+00 -2.791856e+00 -8.307067e+00 6.873746e+01 9.693621e-02 -6.141821e-02 -1.840649e-01 -1.359055e-02 3.210556e-02 -4.294209e-02 1.225113e-01 1.289382e-01 1.435764e-01 7.560787e-02 -1.158505e-01 -8.441921e-02 3.683933e-02 -5.182899e-02 -1.491925e-02 1.345976e-02 -3.050142e-02 6.419840e-02 3.207615e-02 1.390914e-02 -8.368549e-03 4.249223e-02 3.159763e-03 -4.680853e-03 2.480199e-03 -5.102198e-02
<VARIANCE> 39
 4.072317e+01 9.510191e+01 8.555514e+01 3.165828e+01 8.082961e+01 4.273108e+01 7.435786e+01 8.865157e+01 4.955936e+01 2.818956e+01 5.177528e+01 3.707195e+01 7.563819e+01 4.799896e+00 7.077960e+00 5.477750e+00 2.141305e+00 8.075492e+00 4.906765e+00 6.162851e+00 6.785651e+00 3.306007e+00 3.248564e+00 4.710977e+00 3.880377e+00 7.639608e+00 7.786245e-01 1.195716e+00 9.524870e-01 4.186220e-01 1.625832e+00 9.395331e-01 1.075541e+00 1.109300e+00 4.965164e-01 6.478336e-01 9.336683e-01 6.512231e-01 1.129207e+00
<GCONST> 1.427244e+02
<STATE> 4
<MEAN> 39
 -8.996736e+00 3.819868e+00 9.395662e+00 -6.334574e-01 -1.503737e+01 -6.380423e+00 -1.015854e+01 -2.913248e+00 -5.480858e+00 -2.391834e+00 -2.032002e+00 -4.618325e+00 6.410147e+01 -5.986955e-02 1.558308e-02 -2.625366e-01 8.327766e-02 2.209158e-01 5.649007e-03 6.014566e-02 -1.232085e-01 7.606579e-02 2.106629e-01 2.451296e-02 -5.217918e-02 -2.506944e-01 2.449419e-02 -1.119055e-01 -6.431807e-02 -7.181834e-02 8.180088e-02 1.032605e-01 1.134889e-02 4.559492e-02 -5.363406e-02 8.418752e-02 -6.733783e-02 4.848823e-03 3.086936e-02
<VARIANCE> 39
 6.956356e+01 6.699586e+01 6.620217e+01 3.042938e+01 5.881721e+01 5.116602e+01 7.322113e+01 4.760638e+01 4.020247e+01 2.195418e+01 3.221716e+01 2.191913e+01 7.041730e+01 3.312210e+00 5.121058e+00 2.840296e+00 1.820835e+00 6.192335e+00 4.252480e+00 3.491990e+00 3.188530e+00 2.520921e+00 2.311141e+00 1.958809e+00 2.142496e+00 4.225669e+00 4.775294e-01 1.022869e+00 5.514809e-01 3.277245e-01 1.102961e+00 8.169936e-01 7.290510e-01 5.413816e-01 4.565271e-01 4.713172e-01 3.609660e-01 4.221988e-01 7.012284e-01
<GCONST> 1.290547e+02
<TRANSP> 5
 0.000000e+00 1.000000e+00 0.000000e+00 0.000000e+00 0.000000e+00
 0.000000e+00 7.173133e-01 2.826867e-01 0.000000e+00 0.000000e+00
 0.000000e+00 0.000000e+00 9.425448e-01 5.745516e-02 0.000000e+00
 0.000000e+00 0.000000e+00 0.000000e+00 9.218491e-01 7.815097e-02
 0.000000e+00 0.000000e+00 0.000000e+00 0.000000e+00 0.000000e+00
<ENDHMM>
~h "r"
<BEGINHMM>
<NUMSTATES> 5
<STATE> 2
<MEAN> 39
 -1.076759e+00 -8.706999e+00 -5.261235e+00 -3.430346e+00 -1.097753e+01 -4.189137e+00 -1.123628e+01 -2.055623e+00 -5.080618e-01 -1.558975e+00 -1.460406e+00 -8.982903e+00 6.656564e+01 2.261885e-01 -7.970510e-02 6.953356e-02 3.986493e-01 -1.572842e-01 -1.614501e-01 -2.241041e-01 3.840141e-02 2.603800e-02 6.736607e-02 -4.377791e-02 5.619739e-02 -2.134138e-01 -5.677346e-02 5.562826e-02 1.034787e-01 -8.802646e-02 6.108525e-03 8.216071e-02 3.218406e-02 5.295897e-03 -1.554653e-01 -3.749268e-02 2.916564e-02 2.863782e-02 -7.371628e-02
<VARIANCE> 39
 3.401637e+01 5.135087e+01 6.727211e+01 4.920998e+01 6.718523e+01 6.890177e+01 5.453855e+01 8.352257e+01 6.685065e+01 4.591608e+01 4.974836e+01 4.831736e+01 1.145300e+02 2.420304e+00 2.931303e+00 3.193378e+00 3.541749e+00 4.690980e+00 4.172583e+00 3.423023e+00 4.795339e+00 4.462089e+00 3.358712e+00 3.432878e+00 3.164634e+00 4.992585e+00 4.403525e-01 4.486963e-01 4.878311e-01 6.228009e-01 8.198395e-01 6.927989e-01 6.292908e-01 8.444116e-01 7.842841e-01 6.163139e-01 6.254280e-01 5.808710e-01 7.132456e-01
<GCONST> 1.354363e+02
<STATE> 3
<MEAN> 39
 -7.337085e-01 -8.777005e+00 -4.941399e+00 -2.835531e+00 -1.128075e+01 -4.271347e+00 -1.162136e+01 -1.905422e+00 -8.305933e-01 -1.482895e+00 -1.490483e+00 -8.822139e+00 6.597891e+01 7.726979e-02 3.079437e-02 2.812963e-01 1.380193e-01 -1.036355e-01 -3.203952e-03 -1.059918e-01 7.847319e-02 -3.206109e-01 -5.033968e-02 1.486574e-02 1.033982e-01 -2.887404e-01 -8.328929e-02 6.156212e-02 8.600491e-02 -1.226903e-01 3.116554e-02 6.796899e-02 6.982104e-02 -6.212424e-03 -1.407817e-01 -4.691762e-02 3.185806e-02 1.801306e-02 -2.305871e-02
<VARIANCE> 39
 3.448352e+01 5.259822e+01 7.182134e+01 4.792370e+01 6.881339e+01 7.038351e+01 5.553582e+01 8.445787e+01 6.739958e+01 4.596865e+01 5.050449e+01 4.739101e+01 1.117434e+02 2.317921e+00 3.003703e+00 3.232901e+00 3.328135e+00 4.808479e+00 4.123924e+00 3.454244e+00 4.792112e+00 4.499513e+00 3.384370e+00 3.503859e+00 3.122037e+00 4.719968e+00 4.163627e-01 4.563701e-01 4.783992e-01 5.919411e-01 8.427661e-01 6.895379e-01 6.388823e-01 8.348888e-01 7.899199e-01 6.268644e-01 6.375985e-01 5.677527e-01 6.459246e-01
<GCONST> 1.353258e+02
<STATE> 4
<MEAN> 39
 -9.762980e-01 -8.911679e+00 -4.364312e+00 -3.165695e+00 -1.122291e+01 -3.791286e+00 -1.187328e+01 -1.079937e+00 -2.173913e+00 -1.657323e+00 -1.767273e+00 -8.866488e+00 6.494162e+01 -1.164372e-01 2.067864e-01 4.089648e-01 -8.210371e-02 4.079092e-02 4.892607e-02 9.549715e-02 -1.792339e-02 -4.863306e-01 -1.354923e-01 3.750611e-02 1.680012e-01 -3.929178e-01 -7.950728e-02 7.659467e-02 4.385677e-02 -6.499006e-02 3.474566e-02 2.607382e-02 6.891795e-02 -5.355568e-02 -3.840670e-02 -2.013122e-02 2.074875e-02 2.226112e-02 -1.562261e-02
<VARIANCE> 39
 3.643513e+01 6.098352e+01 7.816764e+01 4.684059e+01 7.357986e+01 7.567617e+01 5.706674e+01 8.676003e+01 6.635270e+01 4.707894e+01 5.397278e+01 4.843363e+01 1.414290e+02 1.941436e+00 2.656210e+00 2.809011e+00 2.720808e+00 4.242140e+00 3.618658e+00 3.200336e+00 4.199955e+00 3.862656e+00 3.039730e+00 3.290907e+00 2.740670e+00 3.761116e+00 3.290428e-01 4.043378e-01 4.018357e-01 4.824285e-01 7.094783e-01 6.075701e-01 5.852958e-01 7.219867e-01 6.661357e-01 5.635184e-01 5.796834e-01 5.009418e-01 5.227891e-01
<GCONST> 1.323537e+02
<TRANSP> 5
 0.000000e+00 1.000000e+00 0.000000e+00 0.000000e+00 0.000000e+00
 0.000000e+00 5.380033e-01 4.619968e-01 0.000000e+00 0.000000e+00
 0.000000e+00 0.000000e+00 5.362315e-01 4.637685e-01 0.000000e+00
 0.000000e+00 0.000000e+00 0.000000e+00 6.468235e-01 3.531765e-01
 0.000000e+00 0.000000e+00 0.000000e+00 0.000000e+00 0.000000e+00
<ENDHMM>
~h "s"
<BEGINHMM>
<NUMSTATES> 5
<STATE> 2
<MEAN> 39
 -1.553467e+01 2.373910e+00 -2.430816e+00 -2.138547e+00 -4.116889e+00 -6.776302e+00 -5.611972e+00 -2.050511e+00 -2.887454e+00 -2.654121e+00 -2.982211e+00 -2.525333e+00 6.240918e+01 -2.643737e+00 8.931199e-01 -4.645233e-01 2.308880e-01 8.307484e-01 -1.856386e-01 7.260952e-01 2.341181e-01 3.016763e-01 -2.042194e-01 2.976774e-01 6.722041e-01 -3.670301e-01 1.131801e-01 -3.258266e-01 -6.072755e-02 -1.465620e-01 -2.551755e-01 1.267665e-01 -1.770988e-01 -2.104159e-02 -5.756551e-02 2.769945e-02 1.069852e-01 -1.340164e-01 6.813166e-02
<VARIANCE> 39
 1.173632e+02 4.724287e+01 5.423225e+01 3.139503e+01 4.544040e+01 4.265840e+01 5.519753e+01 4.657648e+01 3.884829e+01 3.115372e+01 3.886367e+01 3.253435e+01 8.631278e+01 7.423728e+00 5.618197e+00 3.316279e+00 2.850867e+00 4.374587e+00 3.643011e+00 3.845174e+00 4.122100e+00 3.101598e+00 2.812655e+00 3.008567e+00 2.769719e+00 2.722519e+00 1.266728e+00 7.852378e-01 5.072020e-01 4.678110e-01 6.639858e-01 5.834171e-01 6.468938e-01 6.382383e-01 5.604998e-01 5.107312e-01 5.605891e-01 4.694762e-01 3.320686e-01
<GCONST> 1.316901e+02
<STATE> 3
<MEAN> 39
 -2.141481e+01 2.697023e+00 -4.109101e+00 -2.395039e+00 -3.481447e+00 -6.785855e+00 -4.752460e+00 -1.588164e+00 -2.286076e+00 -2.789052e+00 -1.902346e+00 -1.443379e+00 6.175969e+01 -4.873352e-01 -2.104906e-01 -2.720930e-01 -1.556654e-01 -1.189092e-01 1.159586e-02 -4.658149e-02 -4.628713e-03 1.044113e-01 1.932018e-02 1.369977e-01 2.203762e-02 -4.885651e-02 6.821752e-01 -2.449371e-01 1.049371e-01 -7.826938e-02 -2.290692e-01 6.248954e-02 -2.175884e-01 -7.122145e-02 -4.934382e-02 4.769004e-02 -4.304872e-02 -1.910857e-01 1.164498e-01
<VARIANCE> 39
 9.705482e+01 3.743076e+01 4.963476e+01 2.901899e+01 3.801404e+01 3.614316e+01 4.949427e+01 3.752713e+01 3.334174e+01 2.640590e+01 3.116199e+01 2.699895e+01 6.393267e+01 1.267312e+01 3.738668e+00 3.117508e+00 2.407321e+00 3.293351e+00 3.061822e+00 3.620706e+00 3.453505e+00 2.786980e+00 2.438214e+00 2.712906e+00 2.805182e+00 2.921321e+00 1.158853e+00 6.325017e-01 5.064540e-01 4.438550e-01 5.705294e-01 5.727113e-01 6.271946e-01 6.286572e-01 5.359263e-01 4.749790e-01 5.092607e-01 4.627066e-01 3.504672e-01
<GCONST> 1.275871e+02
<STATE> 4
<MEAN> 39
 -1.931618e+01 8.507819e-01 -4.217701e+00 -2.770150e+00 -4.234851e+00 -6.232244e+00 -5.468311e+00 -1.439121e+00 -2.168666e+00 -2.243603e+00 -1.850394e+00 -1.744070e+00 5.851900e+01 1.450659e+00 -4.476547e-01 2.574050e-01 -1.710650e-01 -5.305136e-01 1.191407e-01 -5.363603e-01 -2.622915e-01 -3.804388e-02 5.600466e-02 -4.429174e-02 -4.483537e-01 2.414567e-01 2.657133e-01 -7.362518e-02 8.551123e-02 -2.538341e-02 -9.664545e-02 6.324724e-02 -1.113826e-01 -3.915022e-02 -4.671681e-02 -1.205613e-02 3.967220e-02 -8.613931e-02 8.031074e-02
<VARIANCE> 39
 1.160276e+02 4.293067e+01 4.618543e+01 3.060424e+01 3.885672e+01 3.694736e+01 4.924981e+01 3.690724e+01 3.165892e+01 2.542287e+01 2.870118e+01 2.773595e+01 1.232766e+02 9.126226e+00 2.911023e+00 2.942375e+00 2.246364e+00 2.956774e+00 3.079338e+00 3.783102e+00 3.466046e+00 2.773300e+00 2.314261e+00 2.513242e+00 2.743070e+00 3.311105e+00 1.133233e+00 4.501379e-01 4.067284e-01 3.789485e-01 4.683287e-01 5.295488e-01 6.315137e-01 5.779839e-01 4.877529e-01 4.278814e-01 4.804187e-01 4.518905e-01 3.770324e-01
<GCONST> 1.263266e+02
<TRANSP> 5
 0.000000e+00 1.000000e+00 0.000000e+00 0.000000e+00 0.000000e+00
 0.000000e+00 7.295697e-01 2.704302e-01 0.000000e+00 0.000000e+00
 0.000000e+00 0.000000e+00 7.383699e-01 2.616301e-01 0.000000e+00
 0.000000e+00 0.000000e+00 0.000000e+00 8.616931e-01 1.383069e-01
 0.000000e+00 0.000000e+00 0.000000e+00 0.000000e+00 0.000000e+00
<ENDHMM>
~h "t"
<BEGINHMM>
<NUMSTATES> 5
<STATE> 2
<MEAN> 39
 -4.993380e+00 -3.520744e-01 -1.917528e+00 -3.321586e+00 -7.593524e+00 -5.638832e+00 -9.442466e+00 -4.684165e+00 -2.922533e+00 -1.533468e+00 -3.601461e+00 -6.048618e+00 5.084033e+01 -5.522587e-01 -4.075963e-02 -2.467938e-01 -1.070047e-01 3.945921e-01 -1.852651e-01 2.051385e-01 6.565021e-02 2.115930e-01 -1.045983e-01 -2.378810e-02 3.000838e-01 -5.954039e-01 -3.651087e-02 -3.376960e-01 -9.107472e-02 -2.002079e-01 -1.171233e-01 1.041419e-01 -4.611484e-02 6.771863e-02 1.769803e-02 -2.416803e-02 6.727652e-02 -5.563023e-02 7.301428e-01
<VARIANCE> 39
 4.604803e+01 5.456337e+01 5.706852e+01 4.478092e+01 4.734931e+01 5.122574e+01 4.784211e+01 5.528391e+01 4.994663e+01 3.685026e+01 4.085950e+01 4.174348e+01 1.754385e+02 3.738518e+00 5.289185e+00 3.272317e+00 3.632723e+00 4.036826e+00 3.809286e+00 3.618364e+00 4.019084e+00 3.652235e+00 3.070756e+00 3.267005e+00 3.035106e+00 1.897845e+01 7.284686e-01 7.975855e-01 5.712832e-01 6.496285e-01 7.683606e-01 7.214785e-01 7.117138e-01 7.606317e-01 6.879719e-01 6.071848e-01 6.221547e-01 5.981196e-01 2.543864e+00
<GCONST> 1.380122e+02
<STATE> 3
<MEAN> 39
 -6.679491e+00 -1.854074e+00 -3.016150e+00 -4.413041e+00 -7.141784e+00 -5.738464e+00 -9.005501e+00 -4.156224e+00 -2.235466e+00 -1.800264e+00 -3.446863e+00 -5.444624e+00 5.223106e+01 -3.137670e-01 -8.654097e-01 -3.912108e-01 -5.816275e-01 -6.727927e-02 9.198493e-02 -9.867646e-02 2.583030e-01 2.312243e-01 -1.064112e-01 1.278806e-01 -7.982947e-02 1.837299e+00 2.423772e-01 -1.377237e-01 4.834931e-02 -7.607879e-02 -2.038775e-01 1.296614e-01 -1.568533e-01 1.057360e-02 -4.905441e-02 3.791370e-03 7.935455e-02 -1.834548e-01 5.974736e-01
<VARIANCE> 39
 4.788345e+01 5.442101e+01 5.224601e+01 4.320655e+01 4.247375e+01 4.966638e+01 4.553430e+01 4.832157e+01 4.576379e+01 3.495008e+01 3.675766e+01 4.064687e+01 1.959095e+02 5.320728e+00 5.336859e+00 4.097920e+00 3.988984e+00 4.505692e+00 4.596395e+00 4.451641e+00 4.532528e+00 4.390869e+00 3.412308e+00 3.593276e+00 4.214512e+00 2.419347e+01 1.000614e+00 8.672104e-01 6.980945e-01 7.168925e-01 8.467509e-01 8.440734e-01 8.228948e-01 8.532786e-01 7.762817e-01 6.542068e-01 6.652565e-01 7.506990e-01 3.169135e+00
<GCONST> 1.416236e+02
<STATE> 4
<MEAN> 39
 -6.809249e+00 -3.967344e+00 -3.814919e+00 -5.843547e+00 -7.678924e+00 -5.058686e+00 -9.461426e+00 -3.247786e+00 -1.982083e+00 -1.925913e+00 -3.236209e+00 -6.167776e+00 5.690882e+01 3.880914e-01 -7.255030e-01 -1.018026e-02 -4.360461e-01 -4.720106e-01 3.512749e-01 -4.276277e-01 1.087488e-01 -4.875214e-02 -1.317604e-01 3.154058e-01 -4.583302e-01 2.320817e+00 2.163076e-01 1.077604e-01 1.437446e-01 7.609047e-02 -1.283049e-01 1.244222e-01 -8.431770e-02 -7.878513e-02 -1.244753e-01 -1.133276e-02 1.000659e-01 -7.111336e-02 -1.350050e-01
<VARIANCE> 39
 4.523446e+01 5.481322e+01 5.402293e+01 4.197863e+01 4.551703e+01 5.627520e+01 5.071244e+01 5.085522e+01 4.910841e+01 3.629842e+01 3.917353e+01 4.475022e+01 2.412489e+02 5.032210e+00 4.285139e+00 4.337426e+00 3.605474e+00 4.700686e+00 5.081413e+00 4.677469e+00 4.931028e+00 4.535065e+00 3.430470e+00 3.668776e+00 4.320055e+00 1.813333e+01 9.111992e-01 6.903127e-01 6.684817e-01 6.223530e-01 8.072457e-01 8.568280e-01 8.718732e-01 8.292373e-01 7.515903e-01 6.228037e-01 6.310827e-01 7.734486e-01 2.931767e+00
<GCONST> 1.414673e+02
<TRANSP> 5
 0.000000e+00 1.000000e+00 0.000000e+00 0.000000e+00 0.000000e+00
 0.000000e+00 6.457247e-01 3.542753e-01 0.000000e+00 0.000000e+00
 0.000000e+00 0.000000e+00 6.485978e-01 3.514021e-01 0.000000e+00
 0.000000e+00 0.000000e+00 0.000000e+00 6.790868e-01 3.209133e-01
 0.000000e+00 0.000000e+00 0.000000e+00 0.000000e+00 0.000000e+00
<ENDHMM>
~h "u"
<BEGINHMM>
<NUMSTATES> 5
<STATE> 2
<MEAN> 39
 2.527719e-01 4.685515e-01 -2.712710e+00 -8.014539e+00 -1.174430e+01 4.241988e-01 -1.369845e+01 -8.821717e+00 -7.179450e+00 -3.068590e+00 1.478799e+00 -6.085706e+00 6.211647e+01 7.759415e-01 2.873230e-01 -2.887697e-01 -7.756094e-01 -6.603587e-01 8.013304e-01 -5.479548e-01 -5.240748e-01 -3.965056e-01 -1.264912e-01 7.040465e-01 -8.653421e-02 6.092381e-01 -1.268058e-01 -5.346062e-03 7.943860e-02 5.316460e-02 4.277626e-02 -8.436581e-03 1.220757e-01 1.295560e-01 4.906788e-02 -6.482108e-05 -9.972666e-02 1.429440e-02 -1.921247e-01
<VARIANCE> 39
 4.311102e+01 4.387779e+01 5.747612e+01 9.478110e+01 6.991705e+01 8.244353e+01 7.527547e+01 8.581425e+01 6.289505e+01 5.569922e+01 6.069942e+01 4.200971e+01 1.035563e+02 4.149924e+00 3.201540e+00 3.916335e+00 6.025682e+00 6.012715e+00 6.051108e+00 5.516504e+00 6.119917e+00 4.818794e+00 4.366309e+00 5.193565e+00 3.886752e+00 6.298440e+00 7.091154e-01 5.546871e-01 6.361576e-01 1.031295e+00 1.060903e+00 1.085868e+00 1.018833e+00 1.085425e+00 8.661841e-01 8.062581e-01 9.468603e-01 7.193316e-01 9.613118e-01
<GCONST> 1.447616e+02
<STATE> 3
<MEAN> 39
 1.642454e+00 1.053133e+00 -3.090270e+00 -9.567122e+00 -1.315101e+01 2.117482e+00 -1.456244e+01 -9.623022e+00 -7.884909e+00 -3.407603e+00 2.651263e+00 -6.214973e+00 6.305119e+01 2.473437e-01 8.037540e-02 3.776086e-02 -1.801947e-01 -1.900075e-01 2.429417e-01 -1.727669e-01 -6.946640e-02 -8.523537e-02 2.662940e-02 1.178656e-01 -8.182833e-02 6.571340e-02 -2.006888e-01 -5.802165e-02 1.134220e-01 2.177648e-01 1.725400e-01 -2.191066e-01 1.531758e-01 1.566791e-01 1.127135e-01 3.838024e-02 -2.217640e-01 1.179031e-02 -1.904578e-01
<VARIANCE> 39
 3.227587e+01 4.444121e+01 5.243885e+01 9.840591e+01 6.902834e+01 8.418827e+01 7.438902e+01 9.326945e+01 6.718224e+01 6.038326e+01 6.038314e+01 4.344774e+01 8.400973e+01 2.853651e+00 3.181009e+00 3.455976e+00 6.392995e+00 5.872394e+00 6.169180e+00 5.376197e+00 5.835492e+00 4.779457e+00 4.429329e+00 5.460998e+00 3.656387e+00 5.656052e+00 4.982819e-01 5.208741e-01 5.744329e-01 9.880865e-01 1.027335e+00 1.036050e+00 9.820189e-01 1.072306e+00 8.601280e-01 8.305141e-01 9.718802e-01 7.133130e-01 7.145461e-01
<GCONST> 1.428944e+02
<STATE> 4
<MEAN> 39
 1.618700e+00 1.482695e+00 -2.341757e+00 -9.774172e+00 -1.320445e+01 2.487276e+00 -1.492205e+01 -8.752580e+00 -8.160626e+00 -3.066458e+00 1.703590e+00 -6.542793e+00 6.173595e+01 -3.180234e-01 -1.563201e-01 2.792938e-01 5.179929e-01 3.708196e-01 -4.886797e-01 3.087083e-01 2.047575e-01 2.804433e-01 1.731003e-01 -4.657601e-01 2.066183e-03 -4.431241e-01 -1.421910e-01 -4.477968e-02 3.618183e-02 9.574485e-02 8.346767e-02 -1.184124e-01 1.131727e-01 8.196995e-02 6.351794e-02 -1.522694e-02 -9.806029e-02 2.957677e-02 -5.062654e-02
<VARIANCE> 39
 3.101059e+01 4.978158e+01 5.626075e+01 9.502174e+01 6.922773e+01 8.933650e+01 7.377404e+01 8.309697e+01 6.315588e+01 5.842756e+01 6.085003e+01 4.409490e+01 1.043695e+02 2.122227e+00 2.981325e+00 2.978288e+00 4.742482e+00 4.653866e+00 4.846410e+00 4.571485e+00 4.763402e+00 4.054287e+00 3.913290e+00 4.710470e+00 3.419039e+00 4.351814e+00 3.317895e-01 4.558266e-01 4.760049e-01 7.650957e-01 8.118271e-01 8.261629e-01 8.306708e-01 8.344014e-01 7.094690e-01 7.214270e-01 8.606560e-01 6.159174e-01 5.607040e-01
<GCONST> 1.379656e+02
<TRANSP> 5
 0.000000e+00 1.000000e+00 0.000000e+00 0.000000e+00 0.000000e+00
 0.000000e+00 6.619512e-01 3.380487e-01 0.000000e+00 0.000000e+00
 0.000000e+00 0.000000e+00 6.738110e-01 3.261890e-01 0.000000e+00
 0.000000e+00 0.000000e+00 0.000000e+00 7.899967e-01 2.100033e-01
 0.000000e+00 0.000000e+00 0.000000e+00 0.000000e+00 0.000000e+00
<ENDHMM>
~h "w"
<BEGINHMM>
<NUMSTATES> 5
<STATE> 2
<MEAN> 39
 1.783225e+00 -4.784364e+00 -5.804167e+00 -1.429526e+01 -1.240621e+01 5.558981e+00 -1.194113e+01 -3.747846e+00 -4.950575e+00 -2.404438e+00 2.430949e+00 -8.447655e+00 6.565275e+01 4.844014e-01 1.900978e-01 -2.237218e-01 -1.026038e+00 -3.500000e-01 8.096381e-01 1.058652e-02 -9.153599e-02 -1.587084e-01 -6.226984e-02 4.192651e-01 3.102695e-02 1.851798e-01 -1.260715e-01 -5.645650e-02 8.375239e-02 1.204985e-01 2.468447e-02 -1.572333e-01 6.980116e-02 8.727233e-02 5.737178e-02 -2.375848e-02 -9.009475e-02 2.782188e-02 8.996599e-03
<VARIANCE> 39
 3.613216e+01 7.020348e+01 5.121948e+01 8.251326e+01 7.016492e+01 8.311639e+01 5.769005e+01 6.852691e+01 7.373743e+01 5.690772e+01 5.892186e+01 4.711813e+01 1.197689e+02 1.625697e+00 2.921698e+00 2.260143e+00 3.234148e+00 3.786374e+00 3.898306e+00 2.873702e+00 3.299284e+00 3.213144e+00 3.078984e+00 3.236059e+00 2.854210e+00 3.003898e+00 2.745893e-01 3.787356e-01 3.533576e-01 4.994476e-01 6.320919e-01 6.020296e-01 5.344292e-01 5.731056e-01 5.678369e-01 5.832106e-01 5.792202e-01 5.134825e-01 2.983728e-01
<GCONST> 1.303036e+02
<STATE> 3
<MEAN> 39
 2.705210e+00 -4.941225e+00 -6.324250e+00 -1.685575e+01 -1.316246e+01 7.374226e+00 -1.169322e+01 -3.656558e+00 -4.746238e+00 -2.671474e+00 3.029482e+00 -8.522149e+00 6.711871e+01 3.502059e-02 -2.343873e-01 -1.011719e-01 -3.048171e-01 6.002200e-02 2.541386e-01 6.801386e-02 7.145125e-02 1.119431e-01 -1.142853e-02 3.832248e-04 -1.260337e-01 2.884698e-01 -1.247153e-01 -1.031759e-01 4.774319e-02 2.335658e-01 1.076547e-01 -1.900303e-01 5.339182e-03 5.158433e-02 6.775378e-02 1.346652e-02 -1.352787e-01 -4.766292e-02 1.859078e-02
<VARIANCE> 39
 2.975067e+01 6.604202e+01 4.797955e+01 8.322520e+01 6.929758e+01 8.048893e+01 5.033810e+01 6.299710e+01 7.104015e+01 5.774506e+01 5.808551e+01 4.622994e+01 8.287376e+01 1.296915e+00 3.224801e+00 1.767918e+00 3.133396e+00 3.744339e+00 3.279221e+00 2.354891e+00 2.620408e+00 2.769058e+00 2.802827e+00 3.091998e+00 2.953793e+00 2.541182e+00 1.780946e-01 3.534943e-01 2.906002e-01 4.096578e-01 5.656929e-01 5.256860e-01 4.288716e-01 4.752386e-01 4.598522e-01 5.302967e-01 5.199669e-01 4.998061e-01 2.532752e-01
<GCONST> 1.257085e+02
<STATE> 4
<MEAN> 39
 1.391244e+00 -6.536342e+00 -6.540545e+00 -1.608608e+01 -1.143334e+01 8.353427e+00 -1.150169e+01 -2.772218e+00 -3.812731e+00 -2.417074e+00 1.152924e+00 -9.901886e+00 6.777978e+01 -2.337720e-01 -3.045343e-01 9.346473e-03 4.964733e-01 3.868468e-01 -3.387581e-01 1.837591e-02 1.277205e-01 1.432023e-01 7.491031e-02 -3.210580e-01 -1.920680e-01 1.839340e-02 -2.871649e-02 3.448863e-02 5.959482e-02 1.283934e-01 -6.074462e-03 -1.374877e-01 6.538454e-03 2.612563e-02 4.915085e-03 -4.781793e-03 -4.994307e-02 3.645323e-02 -6.704933e-02
<VARIANCE> 39
 3.007074e+01 7.632470e+01 4.971865e+01 8.593290e+01 8.150290e+01 7.733315e+01 4.759370e+01 5.892427e+01 6.791390e+01 5.608690e+01 6.226875e+01 5.288307e+01 9.935535e+01 8.613683e-01 2.482308e+00 1.487850e+00 2.488822e+00 2.971801e+00 2.793445e+00 1.949766e+00 2.340290e+00 2.232789e+00 2.366433e+00 2.740919e+00 2.534145e+00 2.052265e+00 1.192922e-01 2.936448e-01 2.278826e-01 3.205098e-01 4.381371e-01 4.171395e-01 3.453895e-01 3.974945e-01 3.635224e-01 4.203358e-01 4.414708e-01 4.279140e-01 2.018831e-01
<GCONST> 1.206334e+02
<TRANSP> 5
 0.000000e+00 1.000000e+00 0.000000e+00 0.000000e+00 0.000000e+00
 0.000000e+00 6.973364e-01 3.026636e-01 0.000000e+00 0.000000e+00
 0.000000e+00 0.000000e+00 7.015310e-01 2.984690e-01 0.000000e+00
 0.000000e+00 0.000000e+00 0.000000e+00 8.809552e-01 1.190448e-01
 0.000000e+00 0.000000e+00 0.000000e+00 0.000000e+00 0.000000e+00
<ENDHMM>
~h "y"
<BEGINHMM>
<NUMSTATES> 5
<STATE> 2
<MEAN> 39
 -4.713433e+00 -7.018493e+00 3.938091e+00 -6.452733e+00 -1.492710e+01 -5.492834e+00 -1.013120e+01 2.079868e+00 -5.331470e+00 -5.175024e+00 1.109694e-01 -5.976118e+00 6.556919e+01 -1.434078e-01 1.806185e-01 7.330910e-01 -8.549891e-02 -5.479861e-01 -3.722786e-01 -8.718266e-02 2.356737e-01 -2.439975e-01 -9.945903e-02 4.841273e-01 2.814737e-01 -8.210437e-03 2.390325e-02 1.231161e-02 -1.132450e-01 -3.786081e-03 1.200798e-01 8.586653e-02 -3.709085e-02 -9.500582e-02 2.626596e-02 5.263773e-02 -6.430216e-02 -5.334489e-02 -3.347041e-03
<VARIANCE> 39
 2.794285e+01 7.638264e+01 9.704717e+01 4.578163e+01 8.130177e+01 6.496889e+01 5.935352e+01 8.046356e+01 5.809719e+01 5.547458e+01 6.409530e+01 3.622005e+01 1.853236e+02 9.055570e-01 2.450122e+00 4.085120e+00 1.560584e+00 3.334414e+00 2.969971e+00 3.165536e+00 3.639338e+00 2.808964e+00 2.511348e+00 3.340759e+00 2.107382e+00 1.929017e+00 1.503952e-01 3.054374e-01 4.457294e-01 2.738765e-01 5.052373e-01 4.686397e-01 5.416092e-01 6.250115e-01 4.352413e-01 4.445295e-01 5.380818e-01 3.449673e-01 2.108345e-01
<GCONST> 1.251936e+02
<STATE> 3
<MEAN> 39
 -4.939487e+00 -6.625915e+00 5.600825e+00 -6.701119e+00 -1.603298e+01 -6.240785e+00 -1.065332e+01 2.365957e+00 -5.938782e+00 -5.385037e+00 1.142431e+00 -5.536771e+00 6.591311e+01 -2.572563e-02 1.755936e-02 2.243073e-01 -5.038332e-02 -1.357985e-01 -1.209536e-01 -6.076383e-02 1.395629e-01 -8.251186e-02 -3.409515e-02 1.341706e-01 7.375418e-02 6.223072e-02 4.448415e-02 -6.449079e-02 -2.141869e-01 2.206573e-02 1.722824e-01 9.005627e-02 2.719050e-02 -2.999095e-02 6.321860e-02 3.433891e-02 -1.454002e-01 -8.225559e-02 2.488211e-03
<VARIANCE> 39
 2.566999e+01 6.866782e+01 9.632135e+01 4.497006e+01 8.019793e+01 6.035051e+01 6.158444e+01 7.714983e+01 5.562176e+01 5.787610e+01 6.161744e+01 3.470367e+01 1.710317e+02 7.722937e-01 2.438759e+00 4.173810e+00 1.337823e+00 3.112396e+00 2.499670e+00 3.101102e+00 3.441191e+00 2.652160e+00 2.346292e+00 3.255902e+00 1.855164e+00 1.985160e+00 1.255813e-01 2.961655e-01 4.156214e-01 2.407032e-01 4.592072e-01 4.137550e-01 5.202823e-01 5.946521e-01 4.176417e-01 4.322599e-01 4.869226e-01 3.112355e-01 1.962464e-01
<GCONST> 1.227925e+02
<STATE> 4
<MEAN> 39
 -5.776134e+00 -6.539854e+00 4.582928e+00 -6.076876e+00 -1.369339e+01 -4.839199e+00 -1.037547e+01 2.859268e+00 -5.978343e+00 -4.486698e+00 -1.172830e-01 -5.047700e+00 6.198021e+01 6.857613e-02 -2.123764e-01 -4.753430e-01 2.935066e-02 3.325386e-01 1.045572e-01 1.596382e-01 1.327873e-01 1.913367e-01 1.536806e-02 -3.218204e-01 -1.359856e-01 -2.163520e-02 2.701127e-02 -3.443075e-03 -1.044104e-01 2.067123e-02 1.017910e-01 4.140222e-02 6.556589e-03 -4.216902e-02 3.106336e-02 1.845108e-02 -6.984420e-02 -4.812674e-02 -2.877233e-02
<VARIANCE> 39
 2.729882e+01 7.208797e+01 9.777352e+01 4.031732e+01 9.283197e+01 5.289069e+01 6.523600e+01 7.345192e+01 4.694674e+01 5.301577e+01 6.092400e+01 3.527808e+01 2.442362e+02 6.094065e-01 1.945273e+00 3.098663e+00 1.168577e+00 2.686624e+00 1.993402e+00 2.585006e+00 3.025796e+00 2.230210e+00 2.060021e+00 2.786874e+00 1.585795e+00 1.651896e+00 9.610787e-02 2.395798e-01 3.250011e-01 2.053632e-01 4.022959e-01 3.413871e-01 4.371542e-01 5.207194e-01 3.783457e-01 3.760537e-01 4.171268e-01 2.683681e-01 1.532889e-01
<GCONST> 1.182518e+02
<TRANSP> 5
 0.000000e+00 1.000000e+00 0.000000e+00 0.000000e+00 0.000000e+00
 0.000000e+00 6.252845e-01 3.747155e-01 0.000000e+00 0.000000e+00
 0.000000e+00 0.000000e+00 6.386026e-01 3.613975e-01 0.000000e+00
 0.000000e+00 0.000000e+00 0.000000e+00 8.666732e-01 1.333268e-01
 0.000000e+00 0.000000e+00 0.000000e+00 0.000000e+00 0.000000e+00
<ENDHMM>
~h "z"
<BEGINHMM>
<NUMSTATES> 5
<STATE> 2
<MEAN> 39
 -1.084260e+01 3.989509e+00 1.106736e+00 4.087398e-01 -6.519193e+00 -8.457241e+00 -9.155657e+00 -4.526946e+00 -3.876780e+00 -2.897858e+00 -2.597539e+00 -2.663558e+00 6.157042e+01 -9.164047e-01 7.094085e-01 -4.640650e-02 4.025497e-01 4.297260e-01 -1.455114e-01 4.256569e-01 -1.538684e-02 2.295901e-02 -2.342438e-02 3.594210e-02 3.886559e-01 -3.613983e-01 1.522479e-01 -2.076830e-01 -1.946019e-03 -1.031005e-01 -1.388851e-01 1.014294e-01 -4.562591e-02 4.451426e-02 4.348113e-03 1.859165e-02 3.380924e-02 -1.123364e-01 5.957314e-02
<VARIANCE> 39
 8.276015e+01 7.115762e+01 5.385736e+01 4.416098e+01 5.556522e+01 4.646773e+01 6.035805e+01 4.448093e+01 4.099778e+01 3.242939e+01 3.803023e+01 3.057036e+01 1.124437e+02 3.196482e+00 3.466787e+00 1.944396e+00 2.067045e+00 3.004062e+00 2.724202e+00 2.747381e+00 2.797848e+00 2.322364e+00 2.096628e+00 2.201245e+00 2.012667e+00 1.730117e+00 3.906303e-01 4.491931e-01 2.979628e-01 3.131584e-01 4.499046e-01 4.769153e-01 4.912235e-01 4.895960e-01 4.022962e-01 3.820163e-01 3.866004e-01 3.633646e-01 2.210547e-01
<GCONST> 1.219937e+02
<STATE> 3
<MEAN> 39
 -1.210745e+01 4.680076e+00 1.186487e+00 8.967970e-01 -6.093910e+00 -8.658741e+00 -8.323719e+00 -4.292791e+00 -3.827361e+00 -2.923751e+00 -2.341992e+00 -2.218129e+00 6.065076e+01 -3.134261e-01 1.365033e-01 -1.179968e-04 1.560794e-01 6.772689e-02 -4.640997e-03 2.034797e-01 1.886147e-02 1.857113e-02 5.252031e-04 1.070088e-01 1.200862e-01 -1.660882e-01 1.901980e-01 -1.858292e-01 2.160862e-02 -8.590835e-02 -1.287725e-01 3.304834e-02 -8.072188e-02 -4.001081e-03 -1.191929e-02 6.753813e-03 2.406593e-02 -6.994313e-02 7.342319e-02
<VARIANCE> 39
 8.037067e+01 7.447861e+01 5.187063e+01 4.123939e+01 5.535342e+01 4.564045e+01 5.277624e+01 4.428483e+01 3.690418e+01 2.993456e+01 3.503273e+01 2.969893e+01 1.177054e+02 3.077133e+00 2.978395e+00 1.602203e+00 1.850310e+00 2.705628e+00 2.391361e+00 2.432082e+00 2.461519e+00 2.072318e+00 1.829802e+00 1.992318e+00 1.845886e+00 1.665002e+00 4.017493e-01 3.950062e-01 2.689735e-01 2.971241e-01 4.134570e-01 4.407863e-01 4.258963e-01 4.466124e-01 3.717071e-01 3.454286e-01 3.642920e-01 3.418916e-01 2.016298e-01
<GCONST> 1.189939e+02
<STATE> 4
<MEAN> 39
 -1.045219e+01 2.529890e+00 1.363968e+00 3.721516e-01 -5.960854e+00 -6.786747e+00 -7.587536e+00 -3.637875e+00 -4.192657e+00 -2.925786e+00 -2.101138e+00 -2.284066e+00 5.485284e+01 5.772098e-02 -7.883454e-02 4.667349e-02 -7.184219e-03 -7.390546e-02 9.623842e-02 -2.162732e-02 -8.101688e-02 2.092599e-02 6.011764e-03 7.307424e-02 2.978394e-03 -6.190834e-02 9.371255e-02 -8.221720e-02 7.887564e-03 -4.546148e-02 -6.743235e-02 1.085037e-02 -5.339271e-02 -6.451412e-03 6.882039e-03 3.618481e-03 4.698789e-03 -3.057318e-02 5.134783e-02
<VARIANCE> 39
 5.935282e+01 7.584185e+01 5.088122e+01 3.573236e+01 5.496247e+01 4.835645e+01 5.072214e+01 5.195855e+01 3.348595e+01 2.641029e+01 3.271163e+01 3.102198e+01 1.727130e+02 1.976990e+00 2.173181e+00 1.288437e+00 1.431559e+00 2.244142e+00 2.056381e+00 2.123039e+00 2.190147e+00 1.858636e+00 1.679896e+00 1.775769e+00 1.729762e+00 1.738545e+00 2.937193e-01 3.077425e-01 2.126589e-01 2.485251e-01 3.546066e-01 3.864931e-01 3.749436e-01 3.979251e-01 3.411038e-01 3.171997e-01 3.254992e-01 3.339037e-01 1.905327e-01
<GCONST> 1.148310e+02
<TRANSP> 5
 0.000000e+00 1.000000e+00 0.000000e+00 0.000000e+00 0.000000e+00
 0.000000e+00 6.988088e-01 3.011911e-01 0.000000e+00 0.000000e+00
 0.000000e+00 0.000000e+00 6.951204e-01 3.048796e-01 0.000000e+00
 0.000000e+00 0.000000e+00 0.000000e+00 9.197763e-01 8.022372e-02
 0.000000e+00 0.000000e+00 0.000000e+00 0.000000e+00 0.000000e+00
<ENDHMM>
~h "ai"
<BEGINHMM>
<NUMSTATES> 5
<STATE> 2
<MEAN> 39
 -2.081524e+00 -1.205293e+01 -9.596929e-01 -7.784289e+00 -1.411144e+01 -5.622241e+00 -1.078365e+01 5.054430e+00 -3.704243e+00 -4.158913e+00 -3.426061e-01 -9.512332e+00 7.256210e+01 -1.244155e-01 -4.411393e-01 8.171431e-01 -2.271693e-01 -1.134721e+00 -5.075575e-01 1.689848e-01 1.086444e+00 -3.889401e-01 -3.368829e-01 4.708196e-01 1.173933e-01 6.092581e-01 -7.529048e-02 2.975426e-01 1.281654e-01 8.134482e-02 2.898986e-02 -1.858198e-02 3.842010e-02 -2.675074e-01 -1.185178e-01 8.886349e-02 5.448463e-02 1.354183e-01 -3.368743e-01
<VARIANCE> 39
 2.306889e+01 5.777088e+01 6.743954e+01 3.916985e+01 6.990092e+01 9.220605e+01 5.052038e+01 8.106425e+01 6.801785e+01 5.780581e+01 6.396136e+01 3.828025e+01 6.034588e+01 1.771007e+00 3.010964e+00 2.702995e+00 2.319276e+00 3.983914e+00 4.069340e+00 3.144570e+00 5.142638e+00 3.391781e+00 2.904616e+00 3.855054e+00 3.040520e+00 3.458735e+00 3.397127e-01 3.782072e-01 3.881019e-01 3.875755e-01 6.861857e-01 6.490677e-01 5.807942e-01 8.051736e-01 5.813995e-01 5.265146e-01 6.926204e-01 5.702006e-01 5.188853e-01
<GCONST> 1.308045e+02
<STATE> 3
<MEAN> 39
 -2.720477e+00 -1.158759e+01 2.109892e+00 -8.088058e+00 -1.724638e+01 -7.340912e+00 -1.042698e+01 6.310375e+00 -5.475905e+00 -4.445122e+00 1.415376e+00 -8.690818e+00 7.269471e+01 -1.829272e-01 3.361281e-01 9.141259e-01 -5.067206e-03 -8.278478e-01 -4.451451e-01 7.431088e-02 1.168746e-01 -5.624065e-01 5.589374e-03 4.913892e-01 2.500765e-01 -1.659617e-01 -7.086008e-03 2.310264e-01 -2.380953e-02 7.980549e-02 1.715798e-01 4.924674e-02 -3.324803e-02 -3.059449e-01 -2.176309e-02 8.465556e-02 -4.198419e-02 1.643133e-02 -2.498334e-01
<VARIANCE> 39
 1.961188e+01 6.139812e+01 6.798433e+01 3.740405e+01 6.704263e+01 8.214775e+01 4.865080e+01 8.267422e+01 6.478076e+01 5.877291e+01 6.494216e+01 3.416681e+01 5.574880e+01 1.022468e+00 2.354935e+00 2.526400e+00 1.696634e+00 3.671525e+00 3.158534e+00 2.831360e+00 4.486891e+00 2.903523e+00 2.519754e+00 3.339931e+00 2.207657e+00 2.418108e+00 1.933639e-01 2.928583e-01 3.276009e-01 2.948389e-01 5.684288e-01 5.178521e-01 5.308605e-01 6.806891e-01 5.021700e-01 4.492647e-01 5.956366e-01 4.165322e-01 2.962067e-01
<GCONST> 1.241443e+02
<STATE> 4
<MEAN> 39
 -3.631248e+00 -8.074938e+00 6.685231e+00 -8.051603e+00 -1.964446e+01 -7.900507e+00 -1.147371e+01 4.161552e+00 -9.078401e+00 -3.672288e+00 2.137448e+00 -8.569622e+00 6.921399e+01 -3.252026e-02 6.850311e-01 2.698398e-01 3.487244e-01 1.842994e-01 -1.004709e-01 5.515773e-02 -5.762367e-01 -2.422893e-01 1.024999e-01 -6.283447e-02 1.393063e-01 -8.923207e-01 8.214246e-03 4.334920e-02 -1.358693e-01 5.555035e-02 1.972877e-01 8.191783e-02 3.047624e-02 -8.637846e-02 6.862254e-02 -7.118015e-03 -9.797788e-02 1.424046e-03 -1.123550e-01
<VARIANCE> 39
 2.100022e+01 7.087981e+01 6.650412e+01 4.214546e+01 5.980142e+01 7.373603e+01 5.228396e+01 8.147535e+01 5.395029e+01 5.341245e+01 6.073999e+01 3.214214e+01 8.867197e+01 1.019306e+00 2.139486e+00 2.631428e+00 1.748972e+00 3.624098e+00 2.672167e+00 2.923223e+00 3.574391e+00 2.785907e+00 2.304534e+00 2.985659e+00 1.840217e+00 2.284782e+00 1.701803e-01 2.732314e-01 2.879395e-01 2.897628e-01 4.823663e-01 4.437411e-01 5.061622e-01 5.765176e-01 4.519633e-01 3.993693e-01 4.644689e-01 3.325798e-01 2.678222e-01
<GCONST> 1.217877e+02
<TRANSP> 5
 0.000000e+00 1.000000e+00 0.000000e+00 0.000000e+00 0.000000e+00
 0.000000e+00 6.473521e-01 3.526478e-01 0.000000e+00 0.000000e+00
 0.000000e+00 0.000000e+00 6.725567e-01 3.274433e-01 0.000000e+00
 0.000000e+00 0.000000e+00 0.000000e+00 8.859518e-01 1.140482e-01
 0.000000e+00 0.000000e+00 0.000000e+00 0.000000e+00 0.000000e+00
<ENDHMM>
~h "au"
<BEGINHMM>
<NUMSTATES> 5
<STATE> 2
<MEAN> 39
 -9.512411e+00 -8.594049e+00 -7.287370e+00 -8.638479e+00 -6.514104e+00 -3.408108e+00 -9.306682e+00 -3.336975e+00 -3.130963e+00 -3.933223e+00 -1.770061e+00 -4.152316e+00 4.983594e+01 7.092961e-03 1.628468e-02 -1.492173e-01 -1.886102e-01 1.634074e-01 3.222524e-01 1.970176e-02 -4.342602e-02 -4.788927e-02 2.419791e-02 1.079804e-01 -4.080707e-02 -1.215451e-01 -1.507554e-02 1.021503e-01 7.485919e-02 4.234423e-02 -3.038274e-02 -7.348923e-02 1.007249e-02 -3.621212e-02 -5.321172e-02 3.473691e-03 2.751678e-02 8.575264e-02 -8.811722e-02
<VARIANCE> 39
 5.356488e+01 4.195445e+01 3.287965e+01 4.239933e+01 3.036100e+01 8.247112e+01 2.984305e+01 3.348546e+01 3.719546e+01 4.068187e+01 3.067702e+01 5.050383e+01 2.910822e+02 7.283971e-01 1.330667e+00 1.186539e+00 1.724778e+00 1.874071e+00 2.288131e+00 2.014602e+00 2.028295e+00 2.021150e+00 2.022493e+00 2.166667e+00 1.936379e+00 1.356172e+00 1.618437e-01 2.232572e-01 2.278712e-01 3.164395e-01 3.548391e-01 3.855562e-01 4.163730e-01 3.901603e-01 3.849800e-01 3.974540e-01 3.911233e-01 3.987221e-01 2.698353e-01
<GCONST> 1.136015e+02
<STATE> 3
<MEAN> 39
 -5.785501e+00 -7.666300e+00 -8.797914e+00 -1.147120e+01 -6.725703e+00 2.085837e+00 -9.761422e+00 -4.465275e+00 -2.140978e+00 -1.608314e+00 -9.792564e-01 -7.502233e+00 5.868048e+01 1.788145e-01 2.843638e-01 -3.269136e-02 -3.458288e-01 -7.895672e-02 2.287010e-01 -4.178993e-02 -9.859249e-02 -3.186662e-01 7.687099e-02 2.728471e-01 1.379675e-01 -3.751211e-02 3.620137e-02 7.727432e-02 7.882541e-02 7.859611e-02 -5.951015e-02 -1.357611e-01 -2.925749e-02 6.848252e-03 -4.424829e-02 -3.985946e-03 -3.542738e-02 6.753025e-02 -2.376387e-02
<VARIANCE> 39
 6.835767e+01 5.006815e+01 4.319553e+01 7.658735e+01 4.451702e+01 9.255950e+01 3.578422e+01 4.281214e+01 4.313192e+01 4.660444e+01 4.424455e+01 5.303265e+01 3.637751e+02 8.638750e-01 1.769796e+00 1.333298e+00 1.987157e+00 2.310466e+00 2.423473e+00 2.037265e+00 2.242524e+00 2.139037e+00 2.388157e+00 2.385357e+00 2.227454e+00 4.318808e+00 1.546830e-01 2.715957e-01 2.439011e-01 3.682595e-01 4.319373e-01 4.388392e-01 3.907257e-01 4.183158e-01 3.811790e-01 4.606140e-01 4.182355e-01 4.388731e-01 5.653706e-01
<GCONST> 1.211862e+02
<STATE> 4
<MEAN> 39
 -1.812938e+00 -5.835649e+00 -9.790754e+00 -1.699658e+01 -8.856265e+00 4.749994e+00 -1.104400e+01 -5.298255e+00 -3.650019e+00 -1.532870e+00 -7.031815e-01 -7.835264e+00 6.438317e+01 9.752164e-02 3.796802e-01 1.286640e-01 6.483880e-02 -1.098135e-01 -1.959723e-01 -1.389287e-02 -4.476264e-02 -2.106731e-01 -2.036036e-03 2.215970e-02 1.474386e-01 -3.850346e-01 -2.192842e-02 -5.318135e-03 5.294453e-02 1.140821e-01 3.119555e-02 -7.830711e-02 1.645162e-03 -2.990761e-04 9.410315e-03 -8.583182e-03 -4.739749e-02 -1.032264e-02 -4.665265e-02
<VARIANCE> 39
 3.895106e+01 6.741307e+01 4.767773e+01 9.528610e+01 5.344717e+01 7.703903e+01 3.894698e+01 5.163881e+01 5.626667e+01 5.629079e+01 4.355606e+01 4.595992e+01 2.107813e+02 9.629324e-01 1.898444e+00 1.838244e+00 2.881015e+00 2.531641e+00 2.907032e+00 2.005575e+00 2.577065e+00 2.425394e+00 2.755136e+00 2.576672e+00 2.602392e+00 3.932118e+00 1.455434e-01 2.401135e-01 2.939263e-01 4.310978e-01 4.340191e-01 4.819326e-01 3.600557e-01 4.339868e-01 4.030785e-01 4.993420e-01 4.760058e-01 4.616785e-01 4.084289e-01
<GCONST> 1.231405e+02
<TRANSP> 5
 0.000000e+00 1.000000e+00 0.000000e+00 0.000000e+00 0.000000e+00
 0.000000e+00 8.289233e-01 1.710766e-01 0.000000e+00 0.000000e+00
 0.000000e+00 0.000000e+00 7.084686e-01 2.915314e-01 0.000000e+00
 0.000000e+00 0.000000e+00 0.000000e+00 9.308084e-01 6.919160e-02
 0.000000e+00 0.000000e+00 0.000000e+00 0.000000e+00 0.000000e+00
<ENDHMM>
~h "kh"
<BEGINHMM>
<NUMSTATES> 5
<STATE> 2
<MEAN> 39
 -1.118498e+01 -4.459357e+00 -5.038916e+00 -3.636611e+00 -2.383447e+00 -2.881936e+00 -6.492186e+00 -1.996215e+00 -2.536061e+00 -1.871398e+00 -1.677818e+00 -3.278721e+00 5.397556e+01 -5.395923e-01 -1.741997e-01 -3.097863e-01 1.173135e-02 2.286783e-01 -7.603098e-02 -5.367250e-02 1.341881e-01 1.528305e-01 1.385837e-01 1.354364e-01 1.433486e-01 -3.378908e-01 1.396476e-01 -8.649215e-03 5.870562e-02 -5.105895e-02 -1.260194e-01 3.880732e-03 -2.464146e-02 -2.044945e-02 -5.055181e-02 7.669310e-04 -1.044022e-02 -6.038485e-02 6.787607e-02
<VARIANCE> 39
