~o
<STREAMINFO> 1 39
<VECSIZE> 39<NULLD><MFCC_D_A_0><DIAGC>
~s "silst"
<MEAN> 39
 -1.020988e+01 -1.313321e+00 -1.433180e+00 4.501700e-01 -2.720546e+00 -2.997712e+00 -2.911520e+00 -4.969098e-01 -2.880323e+00 -2.746778e+00 -1.692013e+00 -1.131978e+00 3.915058e+01 -6.046065e-03 2.132569e-01 -4.012857e-03 6.616831e-02 5.153788e-02 -4.843139e-03 9.348489e-02 2.082570e-02 1.357080e-02 -3.302645e-02 7.638492e-02 6.600374e-02 -2.822867e-01 -5.205689e-03 -9.951493e-03 2.402943e-03 -6.042606e-02 3.697173e-03 1.298597e-02 -2.779831e-02 -4.331919e-02 1.872366e-02 3.585371e-02 -2.379337e-03 -3.112877e-02 4.404011e-02
<VARIANCE> 39
 9.813737e+00 2.730808e+01 2.183791e+01 2.862817e+01 1.990761e+01 2.764894e+01 2.446545e+01 3.682713e+01 2.714456e+01 2.762554e+01 2.542956e+01 2.464612e+01 3.050696e+01 3.892977e-01 9.178606e-01 9.498859e-01 1.377067e+00 1.333166e+00 1.710180e+00 1.632771e+00 2.318290e+00 1.937751e+00 2.013980e+00 1.671040e+00 1.761279e+00 3.625725e-01 6.644992e-02 1.458376e-01 1.705411e-01 2.578259e-01 2.576770e-01 3.231100e-01 3.176741e-01 4.485095e-01 3.870823e-01 3.953604e-01 3.311795e-01 3.485046e-01 5.173003e-02
<GCONST> 9.692692e+01
~h "@"
<BEGINHMM>
<NUMSTATES> 5
<STATE> 2
<MEAN> 39
 -4.027706e-01 -5.826299e+00 -3.302708e+00 -7.865371e+00 -1.157969e+01 -4.450027e+00 -1.372384e+01 -4.470747e+00 -2.759026e+00 -8.600686e-01 2.437961e-01 -8.574318e+00 6.951030e+01 2.190068e+00 -1.602694e+00 -4.236218e-01 -1.579991e+00 -1.641647e+00 7.343376e-01 -1.973922e+00 1.114911e+00 1.432382e+00 3.211468e-01 1.242278e+00 -2.050555e+00 2.679703e+00 -4.804671e-01 2.305910e-01 1.730147e-01 4.499452e-01 2.803610e-01 1.946610e-01 3.936861e-01 -1.788470e-02 -1.672740e-01 -2.159405e-02 -2.525042e-01 2.129756e-01 -1.089038e+00
<VARIANCE> 39
 2.404646e+01 2.688906e+01 4.654980e+01 5.520395e+01 4.656888e+01 1.011619e+02 4.414691e+01 6.683270e+01 6.302204e+01 4.505059e+01 5.392643e+01 3.350125e+01 4.300529e+01 5.950828e+00 3.084505e+00 5.675955e+00 4.576260e+00 5.960706e+00 6.404984e+00 5.844871e+00 7.927965e+00 8.010340e+00 5.139097e+00 5.270752e+00 4.422901e+00 4.116618e+00 7.317196e-01 5.096276e-01 6.672347e-01 7.014633e-01 7.136126e-01 9.376686e-01 6.995967e-01 8.886192e-01 8.121129e-01 6.153089e-01 9.214520e-01 6.220091e-01 1.176751e+00
<GCONST> 1.398762e+02
<STATE> 3
<MEAN> 39
 6.249815e-01 -9.496872e+00 -4.182652e+00 -9.720813e+00 -1.272492e+01 -1.690441e+00 -1.657243e+01 -1.634586e+00 -1.182562e-01 -6.955712e-01 1.303282e+00 -1.188902e+01 7.273368e+01 6.075035e-01 -6.226695e-01 1.719805e-01 1.642617e-02 -5.547438e-01 4.148538e-01 -5.531268e-01 6.941676e-01 4.732842e-01 7.743947e-02 1.377275e-01 -6.666350e-01 3.582863e-01 -5.199129e-01 8.405653e-01 4.429369e-01 8.069739e-01 5.011012e-01 -2.846357e-01 8.206338e-01 -6.400902e-01 -7.239399e-01 -8.621683e-02 -5.266626e-01 7.703824e-01 -1.312550e+00
<VARIANCE> 39
 1.742625e+01 2.963607e+01 4.849818e+01 5.760145e+01 5.174049e+01 1.022218e+02 5.030500e+01 8.223249e+01 7.295132e+01 5.949501e+01 5.364597e+01 4.230291e+01 2.095349e+01 2.161169e+00 2.339232e+00 2.644203e+00 3.433313e+00 3.534177e+00 5.383533e+00 3.654332e+00 5.725258e+00 5.412161e+00 3.595926e+00 4.267885e+00 3.204603e+00 2.335866e+00 6.089116e-01 4.604475e-01 7.844762e-01 7.561600e-01 9.548429e-01 1.067984e+00 9.036377e-01 1.237526e+00 1.157449e+00 8.957259e-01 9.556789e-01 7.567752e-01 5.875409e-01
<GCONST> 1.356688e+02
<STATE> 4
<MEAN> 39
 -3.155596e-01 -9.171466e+00 -1.837588e+00 -8.985911e+00 -1.402555e+01 -3.923767e+00 -1.517716e+01 -1.107448e+00 -8.749081e-01 -1.745789e+00 1.183441e+00 -1.093084e+01 7.187058e+01 2.277957e-01 8.633802e-01 5.338916e-01 8.224403e-01 3.173858e-01 -1.170253e-01 4.726708e-01 -6.836399e-01 -5.909318e-01 3.933756e-02 -5.067214e-01 3.188249e-01 -1.283208e+00 -9.348247e-02 3.920062e-01 1.443371e-01 3.075817e-01 1.964211e-01 -6.905876e-02 2.606093e-01 -3.688304e-01 -2.251337e-01 7.403756e-03 -2.464838e-01 2.217113e-01 -5.507039e-01
<VARIANCE> 39
 1.813162e+01 3.557945e+01 5.834214e+01 5.883595e+01 6.564590e+01 9.341129e+01 5.631254e+01 8.852864e+01 7.810738e+01 6.066872e+01 5.697206e+01 4.112225e+01 2.680691e+01 9.862899e-01 2.352772e+00 2.052004e+00 2.755081e+00 2.694317e+00 3.259583e+00 2.882757e+00 3.727901e+00 3.720462e+00 2.496942e+00 2.857306e+00 2.214456e+00 3.236735e+00 3.179436e-01 2.999780e-01 3.802675e-01 4.105386e-01 5.318887e-01 5.376369e-01 5.824928e-01 8.307087e-01 6.709979e-01 5.091819e-01 5.873415e-01 4.423297e-01 3.007909e-01
<GCONST> 1.255963e+02
<TRANSP> 5
 0.000000e+00 1.000000e+00 0.000000e+00 0.000000e+00 0.000000e+00
 0.000000e+00 2.420283e-01 7.579717e-01 0.000000e+00 0.000000e+00
 0.000000e+00 0.000000e+00 3.564592e-01 6.435409e-01 0.000000e+00
 0.000000e+00 0.000000e+00 0.000000e+00 6.396881e-01 3.603119e-01
 0.000000e+00 0.000000e+00 0.000000e+00 0.000000e+00 0.000000e+00
<ENDHMM>
~h "a"
<BEGINHMM>
<NUMSTATES> 5
<STATE> 2
<MEAN> 39
 -8.313691e-01 -1.283576e+01 -6.410604e+00 -9.874352e+00 -1.044563e+01 6.587239e-02 -1.194234e+01 2.310218e+00 -9.457857e-02 -2.740982e+00 -2.666816e+00 -1.166352e+01 7.291370e+01 5.020099e-01 -2.087484e+00 -1.130164e+00 -6.250734e-01 4.594573e-01 1.592765e+00 -7.140465e-02 1.346455e+00 7.589408e-01 -8.506049e-01 -7.796655e-01 -1.349463e+00 1.892713e+00 -3.536982e-01 4.726987e-01 3.000024e-01 4.889724e-01 3.780217e-01 -1.340266e-01 2.215373e-01 -4.889095e-01 -3.731582e-01 -4.883653e-02 -1.156859e-01 4.623452e-01 -8.012190e-01
<VARIANCE> 39
 1.964503e+01 3.346113e+01 4.606815e+01 4.104589e+01 6.487058e+01 8.854919e+01 5.167886e+01 8.582763e+01 6.363714e+01 5.321621e+01 5.565995e+01 3.881934e+01 5.161336e+01 2.707054e+00 2.403528e+00 2.812346e+00 2.969615e+00 4.517799e+00 4.114382e+00 3.809318e+00 5.159243e+00 4.375930e+00 3.798144e+00 4.282243e+00 3.557487e+00 3.738538e+00 4.605126e-01 4.772525e-01 4.375856e-01 5.166353e-01 7.787996e-01 7.837837e-01 6.317664e-01 8.669910e-01 6.938179e-01 6.488423e-01 7.881976e-01 5.724950e-01 8.287102e-01
<GCONST> 1.333826e+02
<STATE> 3
<MEAN> 39
 -1.959907e+00 -1.665374e+01 -8.413687e+00 -1.020940e+01 -7.028507e+00 3.218982e+00 -1.164800e+01 2.613062e+00 -5.100501e-01 -5.874793e+00 -4.961121e+00 -1.257336e+01 7.603124e+01 2.201973e-02 5.566717e-02 1.299450e-03 1.549399e-01 2.066089e-01 -9.057488e-02 -4.661034e-03 5.290981e-02 -2.351122e-01 6.143155e-03 -2.560805e-01 1.483855e-02 -2.060550e-01 7.594148e-02 4.419107e-01 2.516269e-01 8.365545e-02 -2.221348e-01 -3.336905e-01 -5.808653e-02 -1.800480e-01 -1.005347e-01 2.616175e-01 1.561729e-01 1.613009e-01 -3.695777e-01
<VARIANCE> 39
 1.514885e+01 2.776709e+01 3.411873e+01 2.827767e+01 4.144587e+01 6.304641e+01 4.276604e+01 7.174481e+01 6.269043e+01 5.599104e+01 4.250309e+01 4.072240e+01 1.341906e+01 3.440467e-01 8.665602e-01 1.009375e+00 9.953497e-01 2.023425e+00 2.246636e+00 1.584839e+00 2.121777e+00 1.538524e+00 1.712334e+00 1.875978e+00 1.504330e+00 4.249437e-01 8.684079e-02 1.856748e-01 1.628974e-01 1.918334e-01 2.730983e-01 2.868866e-01 3.100223e-01 4.416690e-01 3.355762e-01 2.978691e-01 3.453774e-01 3.048145e-01 1.383959e-01
<GCONST> 1.027163e+02
<STATE> 4
<MEAN> 39
 -3.039154e-02 -1.215760e+01 -5.616491e+00 -8.272923e+00 -8.589331e+00 -7.320623e-01 -1.185357e+01 3.071118e+00 -1.854680e+00 -3.136162e+00 -5.333970e+00 -1.104882e+01 6.987418e+01 3.999861e-01 2.035873e+00 1.082777e+00 1.148763e+00 -2.689515e-02 -9.512185e-01 1.139755e-01 -1.224769e+00 -5.142990e-01 5.502551e-01 5.456318e-02 6.910580e-01 -2.513825e+00 -9.491920e-02 3.048776e-01 1.786276e-01 2.694337e-01 1.499542e-01 5.099883e-02 1.869872e-01 -4.329322e-01 -1.103956e-01 -8.283698e-02 -4.473411e-02 1.639443e-01 -4.944215e-01
<VARIANCE> 39
 1.627651e+01 3.424152e+01 4.626099e+01 3.757992e+01 5.425824e+01 6.800395e+01 5.124036e+01 8.217220e+01 6.237053e+01 6.328601e+01 6.222805e+01 4.236959e+01 5.220649e+01 1.256900e+00 1.989648e+00 2.091017e+00 2.411742e+00 3.302119e+00 3.403237e+00 3.249293e+00 4.226522e+00 3.694714e+00 3.385112e+00 3.473330e+00 2.648789e+00 2.860674e+00 2.279149e-01 4.167005e-01 3.529025e-01 4.171749e-01 5.226448e-01 5.855214e-01 5.962315e-01 7.957995e-01 5.940660e-01 6.062124e-01 6.583467e-01 4.590234e-01 4.571081e-01
<GCONST> 1.263029e+02
<TRANSP> 5
 0.000000e+00 1.000000e+00 0.000000e+00 0.000000e+00 0.000000e+00
 0.000000e+00 5.973822e-01 4.026178e-01 0.000000e+00 0.000000e+00
 0.000000e+00 0.000000e+00 7.898822e-01 2.101178e-01 0.000000e+00
 0.000000e+00 0.000000e+00 0.000000e+00 6.424598e-01 3.575402e-01
 0.000000e+00 0.000000e+00 0.000000e+00 0.000000e+00 0.000000e+00
<ENDHMM>
~h "b"
<BEGINHMM>
<NUMSTATES> 5
<STATE> 2
<MEAN> 39
 -1.101293e+00 2.485437e+00 7.442555e-01 -1.114172e+00 -5.567548e+00 -9.858462e-01 -6.944775e+00 -5.616639e+00 -6.720634e+00 -2.457385e+00 -2.300444e+00 -5.710036e+00 4.571508e+01 3.138553e-01 9.827304e-01 4.255211e-01 3.592739e-01 3.817387e-01 2.240243e-01 5.431163e-01 -8.588643e-02 -1.694192e-01 -5.811702e-03 -1.360175e-01 -2.700281e-02 -9.379771e-01 -9.547126e-02 -1.912231e-01 -8.795075e-02 -1.829235e-01 -1.009692e-01 -9.725638e-02 -1.552455e-01 1.118787e-02 7.859112e-02 5.336198e-03 1.155451e-01 3.988788e-02 4.911607e-01
<VARIANCE> 39
 7.090113e+01 4.080936e+01 3.810178e+01 2.855704e+01 3.972155e+01 4.505386e+01 3.644453e+01 4.242377e+01 5.425637e+01 3.322148e+01 3.543473e+01 3.277583e+01 9.419484e+01 1.631758e+00 2.215159e+00 1.798345e+00 1.789404e+00 2.106014e+00 2.154423e+00 2.343411e+00 2.550149e+00 2.817410e+00 2.344399e+00 2.344943e+00 1.882539e+00 3.251244e+00 3.219867e-01 3.509057e-01 3.167939e-01 3.691310e-01 4.041873e-01 4.067440e-01 4.257095e-01 4.888844e-01 5.633700e-01 4.347940e-01 4.276083e-01 3.719515e-01 3.937788e-01
<GCONST> 1.189992e+02
<STATE> 3
<MEAN> 39
 6.291136e+00 7.835641e+00 4.595654e+00 -1.066836e+00 -5.667820e+00 2.763381e+00 -6.676787e+00 -9.670687e+00 -1.145383e+01 -2.850896e+00 -4.776638e-01 -7.251030e+00 4.991599e+01 -6.705222e-01 -9.525695e-01 -7.962599e-01 -9.038445e-01 8.466435e-02 -6.679293e-01 -7.493576e-01 -2.904293e-02 8.424819e-01 3.572473e-02 7.682583e-01 5.560191e-01 2.411823e+00 -5.957379e-01 -1.215985e+00 -5.585565e-01 -6.262147e-01 -6.682450e-01 -2.703112e-01 -6.884570e-01 3.685285e-01 5.966974e-01 2.118070e-01 3.225420e-01 -7.491096e-02 1.507638e+00
<VARIANCE> 39
 1.880300e+01 2.638953e+01 1.869643e+01 3.359946e+01 3.995355e+01 5.038817e+01 3.478458e+01 4.148070e+01 6.335209e+01 3.598290e+01 4.473058e+01 2.673867e+01 3.758632e+01 4.507077e+00 4.597319e+00 3.639422e+00 4.234721e+00 3.774038e+00 4.595827e+00 3.801358e+00 3.880910e+00 5.960858e+00 3.638840e+00 3.714228e+00 3.013238e+00 7.214285e+00 4.336056e-01 4.249253e-01 5.953107e-01 6.386537e-01 7.229408e-01 8.342991e-01 6.265475e-01 9.234025e-01 1.152466e+00 8.427492e-01 7.436088e-01 7.371051e-01 6.065500e-01
<GCONST> 1.315914e+02
<STATE> 4
<MEAN> 39
 4.284625e-01 -1.184709e+00 -1.573320e+00 -6.333719e+00 -7.129949e+00 -1.452879e+00 -1.157247e+01 -8.549654e+00 -4.943398e+00 -3.764712e-01 2.963029e+00 -5.179441e+00 6.434463e+01 -1.107371e+00 -3.630501e+00 -1.889957e+00 -2.541284e+00 -2.134617e+00 -4.473595e-01 -2.362046e+00 1.225892e+00 2.364183e+00 9.962820e-01 1.270470e+00 -9.792263e-01 5.264468e+00 3.134321e-01 6.341281e-02 3.617063e-01 1.774629e-01 -4.130926e-01 4.426729e-01 1.429341e-01 3.732936e-01 -1.707856e-01 -2.099686e-01 -4.220091e-01 -5.244040e-01 -4.508688e-01
<VARIANCE> 39
 1.984217e+01 2.728058e+01 3.379076e+01 6.775349e+01 3.220592e+01 5.162059e+01 3.673914e+01 3.899535e+01 3.722592e+01 4.525242e+01 4.412690e+01 3.033740e+01 5.173344e+01 2.566171e+00 3.992826e+00 6.127309e+00 5.826252e+00 4.849210e+00 6.646013e+00 4.766150e+00 8.093229e+00 9.897698e+00 7.258106e+00 5.835930e+00 6.379849e+00 4.148841e+00 4.466863e-01 6.242872e-01 4.490660e-01 1.038809e+00 9.717788e-01 8.564849e-01 8.353970e-01 8.330768e-01 8.201147e-01 8.373112e-01 1.082762e+00 6.900426e-01 8.464025e-01
<GCONST> 1.378876e+02
<TRANSP> 5
 0.000000e+00 1.000000e+00 0.000000e+00 0.000000e+00 0.000000e+00
 0.000000e+00 8.120313e-01 1.879688e-01 0.000000e+00 0.000000e+00
 0.000000e+00 0.000000e+00 6.239573e-01 3.760427e-01 0.000000e+00
 0.000000e+00 0.000000e+00 0.000000e+00 3.787341e-01 6.212658e-01
 0.000000e+00 0.000000e+00 0.000000e+00 0.000000e+00 0.000000e+00
<ENDHMM>
~h "c"
<BEGINHMM>
<NUMSTATES> 5
<STATE> 2
<MEAN> 39
 -8.000025e+00 2.929164e+00 8.046435e-01 -1.320945e+00 -6.881754e+00 -7.358944e+00 -7.157100e+00 -3.550858e+00 -3.879087e+00 -2.935629e+00 -2.990871e+00 -3.242553e+00 4.575308e+01 -1.514766e+00 -2.214421e-01 -5.924147e-01 -4.427637e-01 5.695394e-01 2.284755e-01 3.201139e-01 -1.623702e-01 2.463090e-01 -1.772271e-03 1.971412e-01 2.659644e-01 -4.937965e-01 -3.836414e-01 -3.174534e-01 -1.519873e-01 -3.041244e-01 -8.414580e-02 5.458682e-02 -1.818302e-02 2.360756e-02 1.374427e-02 3.158096e-02 1.007563e-01 3.203308e-02 9.997869e-01
<VARIANCE> 39
 3.739518e+01 3.547220e+01 4.538734e+01 2.719465e+01 4.184229e+01 4.579490e+01 4.263304e+01 3.954362e+01 3.548738e+01 2.933724e+01 2.639681e+01 2.317412e+01 1.153386e+02 5.665867e+00 4.273035e+00 3.307231e+00 3.389782e+00 3.694038e+00 3.064437e+00 3.387412e+00 3.065347e+00 3.221961e+00 2.518646e+00 2.573467e+00 2.193519e+00 1.349291e+01 8.039393e-01 7.337253e-01 5.654297e-01 5.718290e-01 7.090359e-01 6.525573e-01 6.563099e-01 5.943235e-01 5.983148e-01 5.110978e-01 4.896821e-01 4.512838e-01 1.714246e+00
<GCONST> 1.303586e+02
<STATE> 3
<MEAN> 39
 -2.450625e+01 -4.431783e-01 -2.920983e+00 -8.006256e+00 -4.798553e+00 -5.686746e+00 -4.976432e+00 -4.454277e+00 -2.583349e+00 -2.158373e+00 -4.749502e-01 -2.962606e-01 6.397150e+01 -7.161245e-01 -1.394612e-01 4.609110e-01 -6.146196e-01 -1.019866e+00 -5.856127e-01 -2.225230e-01 2.856329e-01 1.857495e-01 -2.077755e-01 2.386023e-02 1.487861e-01 4.240788e+00 2.359964e+00 -6.119740e-02 6.535240e-01 5.500510e-01 -8.002532e-01 -3.671965e-01 -6.391271e-01 2.380608e-01 -7.261225e-02 -2.111270e-01 -2.326817e-01 -5.491629e-01 -6.611820e-01
<VARIANCE> 39
 2.659352e+01 2.791294e+01 4.198392e+01 2.525471e+01 2.762127e+01 3.093010e+01 3.154885e+01 2.856264e+01 2.502322e+01 2.119448e+01 1.951784e+01 1.659726e+01 3.163727e+01 1.618969e+01 3.397356e+00 5.323967e+00 4.277699e+00 4.827671e+00 4.726202e+00 4.212911e+00 3.534644e+00 3.418539e+00 2.638036e+00 2.703826e+00 2.506653e+00 8.835290e+00 1.036053e+00 1.107948e+00 8.666621e-01 7.648379e-01 8.956941e-01 9.596011e-01 6.729525e-01 9.785163e-01 8.168835e-01 6.092671e-01 6.437582e-01 5.457408e-01 8.681607e-01
<GCONST> 1.308409e+02
<STATE> 4
<MEAN> 39
 -1.084961e+01 -1.165854e+00 2.348569e+00 -5.162162e+00 -1.195837e+01 -1.110587e+01 -1.003462e+01 -2.201764e+00 -2.398709e+00 -4.678231e+00 -3.266702e+00 -2.936991e+00 7.056249e+01 5.692186e+00 -2.623578e+00 6.547647e-01 2.181562e-01 -2.415210e+00 -5.622558e-01 -2.286846e+00 1.385538e+00 5.930076e-01 -4.668899e-01 -4.171697e-02 -1.957176e+00 2.289180e+00 -4.032269e-02 -5.443746e-01 -7.129217e-01 -2.711850e-01 4.989408e-01 8.981088e-01 1.600158e-01 4.402472e-02 3.605791e-02 2.061477e-01 3.378621e-01 -3.716941e-01 -6.721562e-01
<VARIANCE> 39
 5.043156e+01 4.096321e+01 4.528353e+01 2.312043e+01 3.893570e+01 3.192603e+01 4.286872e+01 4.431647e+01 3.969690e+01 2.374337e+01 1.988442e+01 2.006700e+01 2.913388e+01 2.417174e+00 5.028087e+00 5.713106e+00 4.472953e+00 5.035844e+00 5.299482e+00 3.557015e+00 8.537252e+00 5.681556e+00 3.903271e+00 3.999737e+00 2.614754e+00 1.709573e+00 1.655995e+00 6.173900e-01 4.905123e-01 4.859596e-01 9.408580e-01 6.788155e-01 7.316949e-01 8.358622e-01 6.360648e-01 4.763869e-01 5.062824e-01 4.158632e-01 5.727771e-01
<GCONST> 1.299060e+02
<TRANSP> 5
 0.000000e+00 1.000000e+00 0.000000e+00 0.000000e+00 0.000000e+00
 0.000000e+00 8.681290e-01 1.318710e-01 0.000000e+00 0.000000e+00
 0.000000e+00 0.000000e+00 6.958159e-01 3.041840e-01 0.000000e+00
 0.000000e+00 0.000000e+00 0.000000e+00 4.771076e-01 5.228923e-01
 0.000000e+00 0.000000e+00 0.000000e+00 0.000000e+00 0.000000e+00
<ENDHMM>
~h "d"
<BEGINHMM>
<NUMSTATES> 5
<STATE> 2
<MEAN> 39
 -6.919058e+00 -4.189172e-01 -2.806681e-01 -4.320545e-01 -5.608323e+00 -4.679945e+00 -6.055596e+00 -2.569525e+00 -3.937160e+00 -3.198344e+00 -3.341274e+00 -3.359794e+00 4.281448e+01 1.623995e-01 4.959939e-01 2.553343e-01 4.049083e-01 3.085631e-01 -1.948774e-02 1.464948e-01 4.507605e-02 1.156237e-01 1.111955e-03 -1.929724e-01 -6.103928e-02 -6.612571e-01 3.295297e-02 -3.331438e-02 4.632207e-02 -8.197010e-02 -5.613687e-02 -1.942853e-02 -6.520993e-02 3.288950e-02 -1.899059e-03 -1.377706e-02 2.452033e-02 -2.410973e-02 2.680652e-01
<VARIANCE> 39
 4.821537e+01 3.970424e+01 3.970369e+01 2.543185e+01 3.921815e+01 3.528354e+01 3.892567e+01 4.153497e+01 3.478488e+01 3.072018e+01 3.260727e+01 2.943833e+01 1.051134e+02 1.731898e+00 2.280430e+00 1.803102e+00 1.890401e+00 2.426957e+00 2.229994e+00 2.312641e+00 2.947544e+00 2.574562e+00 2.186828e+00 2.504377e+00 1.875715e+00 2.798137e+00 3.032168e-01 3.354014e-01 2.960774e-01 3.563897e-01 4.059163e-01 4.181322e-01 4.351305e-01 5.183538e-01 4.823432e-01 4.359857e-01 4.254126e-01 3.559064e-01 3.713866e-01
<GCONST> 1.175456e+02
<STATE> 3
<MEAN> 39
 4.671379e+00 4.304731e+00 8.076638e+00 5.178481e+00 -9.185019e+00 -7.280072e+00 -1.064691e+01 -3.438547e+00 -3.274143e+00 -3.234044e+00 -7.150480e+00 -8.427466e+00 5.099928e+01 -5.097309e-01 -4.248254e-01 5.262977e-01 -5.175416e-01 2.955466e-01 -4.771397e-01 -1.508877e-01 2.692474e-01 -3.365647e-02 -2.138882e-01 3.714851e-01 5.502484e-01 1.595398e+00 -8.348076e-01 -9.050023e-01 -2.622834e-01 -7.725586e-01 -6.070089e-01 2.236685e-02 -1.918394e-01 1.852386e-03 -1.882765e-01 -5.262269e-02 7.642195e-01 3.408180e-01 1.397744e+00
<VARIANCE> 39
 2.257769e+01 3.370754e+01 2.764607e+01 2.635057e+01 5.645587e+01 3.729812e+01 4.346914e+01 5.630706e+01 4.400545e+01 3.737051e+01 3.369214e+01 3.080061e+01 4.770452e+01 6.168019e+00 4.717336e+00 3.226818e+00 4.028000e+00 5.001790e+00 3.712112e+00 4.099815e+00 5.143343e+00 4.412986e+00 3.339005e+00 4.301511e+00 3.441973e+00 9.041728e+00 5.052841e-01 4.964013e-01 5.190796e-01 6.139905e-01 1.096062e+00 7.132964e-01 7.560105e-01 1.264255e+00 9.275554e-01 6.576653e-01 6.685801e-01 5.609068e-01 8.803777e-01
<GCONST> 1.336454e+02
<STATE> 4
<MEAN> 39
 -4.470003e+00 -4.230189e+00 7.463869e+00 -2.160765e+00 -9.501422e+00 -9.029111e+00 -1.097897e+01 -2.891191e+00 -4.814106e+00 -4.235010e+00 -1.370937e+00 -2.362683e+00 6.585766e+01 -1.615482e+00 -2.682259e+00 -5.637785e-01 -2.178657e+00 -2.925962e+00 -4.411021e-01 -1.379973e+00 8.848634e-01 1.595716e-01 -3.300489e-01 2.527480e+00 4.339031e-01 5.155609e+00 6.945808e-01 2.780685e-01 -2.680957e-01 2.789469e-01 -6.931788e-01 4.776280e-01 -1.602149e-01 2.090118e-01 2.036078e-01 2.175472e-02 -9.018332e-02 -7.698038e-01 -4.982242e-01
<VARIANCE> 39
 2.133023e+01 2.692979e+01 3.712851e+01 3.449810e+01 5.910853e+01 4.945890e+01 5.635147e+01 4.714198e+01 4.967376e+01 2.673412e+01 2.703399e+01 2.052061e+01 5.062677e+01 3.487383e+00 3.330059e+00 5.628010e+00 4.142933e+00 5.469045e+00 4.668770e+00 4.907054e+00 1.258140e+01 8.963007e+00 4.036241e+00 4.228394e+00 3.721506e+00 3.855003e+00 4.015699e-01 5.706282e-01 5.847065e-01 7.903826e-01 1.374362e+00 9.786943e-01 1.148025e+00 1.142562e+00 9.530420e-01 7.562457e-01 9.421358e-01 5.839456e-01 9.210815e-01
<GCONST> 1.364588e+02
<TRANSP> 5
 0.000000e+00 1.000000e+00 0.000000e+00 0.000000e+00 0.000000e+00
 0.000000e+00 8.378245e-01 1.621755e-01 0.000000e+00 0.000000e+00
 0.000000e+00 0.000000e+00 7.025934e-01 2.974066e-01 0.000000e+00
 0.000000e+00 0.000000e+00 0.000000e+00 4.593445e-01 5.406555e-01
 0.000000e+00 0.000000e+00 0.000000e+00 0.000000e+00 0.000000e+00
<ENDHMM>
~h "e"
<BEGINHMM>
<NUMSTATES> 5
<STATE> 2
<MEAN> 39
 -3.565244e+00 -7.907306e+00 5.457946e-01 -5.055003e+00 -1.487749e+01 -7.798880e+00 -1.022394e+01 7.147486e-01 -3.530706e+00 -1.491022e+00 2.211121e-01 -6.876647e+00 6.243341e+01 6.393890e-01 -1.805448e+00 5.640818e-01 -7.072889e-01 -1.972780e+00 -2.820573e-01 -3.408407e-01 1.909710e+00 1.279652e-01 -4.525877e-01 5.238245e-01 -5.576074e-01 2.631868e+00 -1.047195e-01 1.962139e-01 1.303635e-01 1.279597e-02 4.063563e-02 2.563408e-01 2.886974e-01 -2.000664e-02 -1.653086e-01 -7.108144e-02 -3.354618e-02 6.114004e-02 -2.979964e-01
<VARIANCE> 39
 4.118715e+01 5.455840e+01 5.894695e+01 4.788737e+01 7.779266e+01 6.335519e+01 6.770448e+01 9.014097e+01 7.294221e+01 5.242183e+01 5.481694e+01 3.792845e+01 1.988872e+02 4.572926e+00 5.109352e+00 3.730143e+00 4.073182e+00 7.437480e+00 4.989497e+00 5.313727e+00 7.742119e+00 6.282120e+00 5.099191e+00 4.748253e+00 3.668031e+00 1.139567e+01 7.296019e-01 9.029299e-01 5.616499e-01 6.921557e-01 1.050101e+00 7.833877e-01 8.861637e-01 1.035258e+00 9.723705e-01 7.837256e-01 7.352459e-01 5.953109e-01 2.210716e+00
<GCONST> 1.457530e+02
<STATE> 3
<MEAN> 39
 -1.137211e+00 -1.368485e+01 2.940433e+00 -6.864923e+00 -2.084669e+01 -7.302446e+00 -1.138291e+01 6.049367e+00 -3.450783e+00 -3.656656e+00 2.021187e+00 -8.463238e+00 7.396892e+01 -1.836515e-01 -3.892919e-01 6.528748e-01 -3.731588e-01 -1.037720e+00 1.244236e-01 5.864848e-01 8.673864e-01 -3.565944e-01 -2.027022e-01 4.490985e-01 -9.621499e-02 6.303030e-01 -2.121103e-01 7.768455e-01 -1.271851e-01 3.081931e-01 7.867938e-01 6.807577e-02 2.575210e-01 -8.026400e-01 -1.361074e-01 2.081743e-01 -3.071332e-01 2.000001e-01 -9.493656e-01
<VARIANCE> 39
 1.415356e+01 3.842758e+01 5.481025e+01 4.524059e+01 6.318322e+01 6.526952e+01 5.732565e+01 9.490051e+01 7.772861e+01 5.309934e+01 5.407549e+01 3.254671e+01 1.919812e+01 1.089334e+00 2.002738e+00 2.202194e+00 2.606841e+00 3.712334e+00 3.458630e+00 3.516850e+00 4.067342e+00 3.585180e+00 3.047463e+00 2.977643e+00 2.122329e+00 1.848823e+00 3.511378e-01 3.406709e-01 3.933657e-01 4.689825e-01 6.232912e-01 6.593686e-01 7.614923e-01 8.013903e-01 8.268290e-01 6.908671e-01 6.363793e-01 4.989160e-01 5.051082e-01
<GCONST> 1.264743e+02
<STATE> 4
<MEAN> 39
 -3.177265e+00 -1.126925e+01 6.050019e+00 -8.097197e+00 -2.251112e+01 -8.367809e+00 -9.575041e+00 5.193728e+00 -6.252274e+00 -3.159204e+00 3.382060e+00 -8.348941e+00 7.260714e+01 1.041854e-01 5.056570e-01 -1.045361e-01 3.777896e-01 5.082735e-01 -1.029335e-01 7.112747e-02 -4.120200e-01 -7.242732e-02 8.535393e-02 -3.562929e-01 -1.998125e-02 -7.297201e-01 4.535686e-02 1.833537e-01 -5.893664e-02 1.780933e-01 2.445816e-01 -7.222367e-03 -4.331395e-02 -2.082304e-01 2.620367e-02 3.231751e-02 -1.277469e-01 3.909937e-02 -3.054289e-01
<VARIANCE> 39
 1.419343e+01 3.793285e+01 6.266175e+01 3.687780e+01 5.924492e+01 6.236304e+01 4.947959e+01 8.775050e+01 5.962901e+01 5.496861e+01 5.871650e+01 2.836310e+01 3.974074e+01 6.083164e-01 1.262886e+00 1.188893e+00 1.509562e+00 1.788841e+00 1.532024e+00 2.067504e+00 2.133036e+00 1.907629e+00 1.594883e+00 1.684476e+00 1.168248e+00 1.832615e+00 1.140237e-01 2.022396e-01 1.948002e-01 2.128089e-01 3.044033e-01 3.034965e-01 3.852476e-01 4.137246e-01 3.567026e-01 3.171953e-01 2.897897e-01 2.128097e-01 2.160297e-01
<GCONST> 1.090371e+02
<TRANSP> 5
 0.000000e+00 1.000000e+00 0.000000e+00 0.000000e+00 0.000000e+00
 0.000000e+00 5.592111e-01 4.407888e-01 0.000000e+00 0.000000e+00
 0.000000e+00 0.000000e+00 5.322672e-01 4.677328e-01 0.000000e+00
 0.000000e+00 0.000000e+00 0.000000e+00 8.455406e-01 1.544594e-01
 0.000000e+00 0.000000e+00 0.000000e+00 0.000000e+00 0.000000e+00
<ENDHMM>
~h "f"
<BEGINHMM>
<NUMSTATES> 5
<STATE> 2
<MEAN> 39
 -8.155437e+00 -1.029912e+00 -2.899525e-01 -7.608836e-01 -3.893388e+00 -3.208249e+00 -6.216547e+00 -3.237667e+00 -3.759916e+00 -2.575013e+00 -2.436359e+00 -3.708141e+00 6.270712e+01 -3.720505e+00 1.436461e-01 -2.788512e-01 1.335193e+00 1.477402e+00 -4.234322e-01 3.570072e-01 4.862224e-02 1.438756e+00 -1.668032e-01 -1.453223e-01 6.322341e-01 -1.037647e+00 -1.492632e-01 -6.637163e-01 -2.079075e-01 -4.377651e-01 -7.384484e-01 -6.506131e-02 -4.438460e-01 -6.542373e-02 -1.975218e-01 1.011081e-01 1.559488e-01 -1.861944e-01 2.168895e-01
<VARIANCE> 39
 5.007579e+01 2.281702e+01 4.150139e+01 4.279900e+01 3.548777e+01 5.495765e+01 3.268996e+01 3.969913e+01 3.604019e+01 2.988051e+01 3.375309e+01 2.334263e+01 3.164448e+01 2.259478e+00 4.096194e+00 4.033434e+00 4.160182e+00 5.607569e+00 4.417442e+00 3.503162e+00 4.791567e+00 3.894051e+00 3.725919e+00 3.490919e+00 2.470648e+00 1.648322e+00 7.951161e-01 4.157678e-01 4.443372e-01 6.359793e-01 6.364459e-01 6.094626e-01 5.849391e-01 6.372542e-01 7.859076e-01 5.625045e-01 5.094946e-01 3.665288e-01 1.820738e-01
<GCONST> 1.259530e+02
<STATE> 3
<MEAN> 39
 -1.922816e+01 -5.918966e+00 -3.792682e+00 -7.016881e-01 -4.397274e+00 -5.336077e+00 -8.058546e+00 -3.218134e+00 -1.901324e+00 -1.872512e+00 -1.720213e+00 -2.261664e+00 5.912662e+01 -5.849071e-01 -5.499799e-01 -4.469784e-01 -1.914333e-01 -1.363782e-01 -7.925323e-02 -5.097613e-02 -2.571325e-02 3.919012e-02 7.772283e-02 9.923583e-02 7.243727e-02 -2.789697e-01 6.491745e-01 1.435625e-01 1.419204e-01 -7.826123e-02 -3.185232e-02 8.301838e-02 8.120157e-02 3.355228e-02 -1.194742e-01 -2.535439e-02 7.371530e-03 -8.813395e-02 9.399939e-02
<VARIANCE> 39
 2.452806e+01 2.077040e+01 2.510991e+01 1.798359e+01 2.082885e+01 2.675921e+01 2.377128e+01 2.341005e+01 2.153218e+01 2.032223e+01 2.177750e+01 1.642885e+01 3.593549e+01 1.639540e+00 1.165520e+00 1.471004e+00 1.440606e+00 1.561803e+00 1.800263e+00 1.858364e+00 1.780547e+00 1.758259e+00 1.671532e+00 1.554504e+00 1.409584e+00 1.089925e+00 4.334379e-01 2.506030e-01 3.108636e-01 3.259302e-01 3.564415e-01 3.853697e-01 3.653593e-01 4.053819e-01 4.278730e-01 3.789128e-01 3.445807e-01 3.222799e-01 1.710427e-01
<GCONST> 1.036014e+02
<STATE> 4
<MEAN> 39
 -1.448194e+01 -5.074732e+00 -4.741897e+00 -2.778942e+00 -4.741367e+00 -4.504869e+00 -6.572383e+00 -3.588151e+00 -2.760224e+00 -2.181192e+00 -1.375784e+00 -2.846690e+00 5.293087e+01 2.532888e+00 3.025510e-01 2.149171e-01 -7.320421e-01 -7.321263e-01 3.231563e-01 -1.332171e-01 -1.032606e-01 -5.372509e-01 -2.683811e-01 1.677029e-01 -5.945619e-01 6.961087e-01 5.549271e-01 -2.846424e-03 8.775739e-02 -2.243315e-01 -3.812836e-01 1.474592e-01 -2.048873e-01 -3.368803e-02 -1.549025e-01 -6.357148e-02 1.471541e-01 -1.921567e-01 3.487665e-01
<VARIANCE> 39
 4.862543e+01 2.962244e+01 3.338686e+01 2.880746e+01 2.561982e+01 3.544196e+01 2.428801e+01 2.746568e+01 2.699305e+01 2.434253e+01 2.272482e+01 1.853187e+01 1.407435e+02 8.944844e+00 3.258284e+00 3.941168e+00 4.311407e+00 3.527397e+00 4.396665e+00 2.721561e+00 3.393824e+00 3.474591e+00 2.944726e+00 2.564456e+00 2.739508e+00 4.655920e+00 1.137247e+00 5.699865e-01 4.993849e-01 6.194795e-01 6.309528e-01 6.685107e-01 5.294763e-01 5.973214e-01 6.822459e-01 5.239431e-01 5.076220e-01 4.533452e-01 5.066683e-01
<GCONST> 1.267943e+02
<TRANSP> 5
 0.000000e+00 1.000000e+00 0.000000e+00 0.000000e+00 0.000000e+00
 0.000000e+00 6.776156e-01 3.223845e-01 0.000000e+00 0.000000e+00
 0.000000e+00 0.000000e+00 8.390567e-01 1.609433e-01 0.000000e+00
 0.000000e+00 0.000000e+00 0.000000e+00 7.723979e-01 2.276021e-01
 0.000000e+00 0.000000e+00 0.000000e+00 0.000000e+00 0.000000e+00
<ENDHMM>
~h "g"
<BEGINHMM>
<NUMSTATES> 5
<STATE> 2
<MEAN> 39
 2.929007e+00 4.653586e+00 6.786843e+00 8.752930e-01 -1.117539e+01 -6.039079e+00 -9.151368e+00 -4.264478e+00 -8.020429e+00 -9.948843e-01 -2.117228e+00 -8.580423e+00 5.187785e+01 -5.018356e-01 4.435462e-01 -1.050982e-01 4.498700e-01 1.075728e+00 -4.023481e-01 4.553942e-01 -4.998009e-02 2.463459e-01 -7.358596e-02 -4.337884e-01 5.346552e-01 -4.525869e-01 -6.284323e-01 -7.054579e-01 -4.667502e-01 -4.438813e-01 1.073289e-01 -2.714019e-02 -2.278373e-01 1.070936e-01 4.360636e-02 -1.032501e-02 2.176889e-01 2.571060e-01 1.181996e+00
<VARIANCE> 39
 2.881341e+01 3.785078e+01 4.977129e+01 3.525898e+01 5.600896e+01 5.367726e+01 4.572517e+01 5.660686e+01 5.374836e+01 3.905091e+01 3.822470e+01 3.280234e+01 6.097276e+01 4.517653e+00 4.383136e+00 4.797247e+00 2.964817e+00 5.598804e+00 4.332434e+00 3.889774e+00 4.086280e+00 3.857578e+00 3.204791e+00 3.294283e+00 3.158454e+00 7.715853e+00 5.136344e-01 5.295793e-01 6.318477e-01 4.824606e-01 8.808196e-01 6.919639e-01 6.530579e-01 7.641015e-01 7.945409e-01 6.138696e-01 6.155122e-01 5.326982e-01 8.041326e-01
<GCONST> 1.336670e+02
<STATE> 3
<MEAN> 39
 -5.469356e+00 -9.644886e-01 -4.226262e-02 -2.200716e-01 -2.127811e+00 -6.967334e+00 -8.593672e+00 -4.117070e+00 -8.083442e+00 -7.939346e-01 -4.333096e+00 -3.285768e+00 6.111270e+01 -1.978628e+00 -1.963472e+00 -1.413740e+00 -1.447368e+00 2.857506e-02 -8.354359e-01 -8.317217e-01 4.773704e-01 -1.201424e-01 -7.564387e-02 1.217024e+00 9.418787e-01 4.214227e+00 8.331380e-01 1.239785e-01 7.098472e-01 -3.857768e-01 -1.723017e+00 1.421718e-01 -4.495288e-01 1.932306e-01 1.385967e-01 -1.607995e-01 8.549355e-01 -6.662399e-01 1.386305e-01
<VARIANCE> 39
 3.317307e+01 4.277465e+01 8.551382e+01 5.123880e+01 6.024060e+01 6.639624e+01 4.413181e+01 5.159035e+01 4.789370e+01 3.316008e+01 3.273598e+01 2.353329e+01 6.446105e+01 3.603709e+00 4.406353e+00 6.722852e+00 4.040211e+00 7.925712e+00 6.068298e+00 4.464995e+00 6.409666e+00 5.504441e+00 4.116816e+00 4.678165e+00 3.165981e+00 4.692935e+00 5.327441e-01 9.193407e-01 1.024654e+00 9.005796e-01 1.211161e+00 1.166030e+00 9.052581e-01 1.179932e+00 9.585927e-01 7.180602e-01 7.580324e-01 6.558798e-01 9.770866e-01
<GCONST> 1.407054e+02
<STATE> 4
<MEAN> 39
 -3.958515e+00 -3.343218e+00 2.973651e+00 -3.432155e+00 -1.297980e+01 -1.122672e+01 -1.263372e+01 -1.406872e+00 -7.217826e+00 -1.602404e+00 3.707802e+00 -5.046067e+00 6.913513e+01 7.857397e-01 -1.269099e+00 4.148586e-01 -1.843809e+00 -3.508477e+00 3.052216e-01 -1.190641e+00 1.418029e+00 1.168670e+00 -5.169157e-01 2.190671e+00 -1.278867e+00 2.392068e+00 5.526212e-01 1.360601e-01 5.501942e-03 5.767960e-02 2.243865e-02 7.946125e-01 2.376926e-01 5.333694e-02 3.106219e-01 -4.110456e-02 -5.944008e-01 -5.320629e-01 -8.000905e-01
<VARIANCE> 39
 2.024701e+01 3.198713e+01 6.710798e+01 3.722567e+01 8.133295e+01 7.752708e+01 4.936509e+01 7.592513e+01 5.598703e+01 3.819284e+01 4.199193e+01 2.890215e+01 3.776934e+01 2.175938e+00 3.222305e+00 4.369359e+00 3.652809e+00 6.612806e+00 5.274739e+00 4.733493e+00 8.447565e+00 6.485408e+00 3.550791e+00 4.496501e+00 3.376114e+00 2.616056e+00 4.910447e-01 3.982800e-01 8.751834e-01 4.939141e-01 1.892725e+00 9.526021e-01 8.197652e-01 9.715604e-01 8.141392e-01 7.163534e-01 1.037652e+00 5.633791e-01 3.865385e-01
<GCONST> 1.359940e+02
<TRANSP> 5
 0.000000e+00 1.000000e+00 0.000000e+00 0.000000e+00 0.000000e+00
 0.000000e+00 7.672332e-01 2.327668e-01 0.000000e+00 0.000000e+00
 0.000000e+00 0.000000e+00 4.691224e-01 5.308776e-01 0.000000e+00
 0.000000e+00 0.000000e+00 0.000000e+00 4.459336e-01 5.540664e-01
 0.000000e+00 0.000000e+00 0.000000e+00 0.000000e+00 0.000000e+00
<ENDHMM>
~h "h"
<BEGINHMM>
<NUMSTATES> 5
<STATE> 2
<MEAN> 39
 -4.720126e+00 -5.505751e+00 -1.828312e+00 -2.951161e+00 -5.804589e-01 1.060348e+00 -5.025146e+00 -4.009983e-01 -5.281207e+00 -2.778990e+00 -5.966293e+00 -5.565788e+00 6.577597e+01 -1.193485e+00 -1.338264e-01 3.989253e-01 8.653777e-01 1.562223e+00 2.574041e-01 1.029854e+00 -6.169502e-02 5.576091e-01 -1.973847e-01 1.132139e-01 7.482585e-01 -1.067297e+00 -2.782157e-03 -3.627754e-01 -1.862579e-01 -3.924791e-01 -4.821676e-01 -3.922321e-02 -3.130641e-01 -6.960159e-03 9.219734e-02 5.890476e-02 2.548426e-01 -1.498144e-01 9.918164e-02
<VARIANCE> 39
 2.559337e+01 4.232938e+01 5.324670e+01 3.676393e+01 7.025860e+01 5.742029e+01 5.434277e+01 6.213494e+01 5.055957e+01 4.939875e+01 5.111580e+01 3.717585e+01 5.287275e+01 1.482165e+00 3.035330e+00 2.874278e+00 2.573993e+00 3.552129e+00 3.239911e+00 2.951665e+00 3.415972e+00 2.942672e+00 2.929656e+00 2.916020e+00 2.496514e+00 1.455768e+00 1.860319e-01 3.518033e-01 3.172598e-01 3.921633e-01 5.244220e-01 5.422625e-01 5.232861e-01 5.539312e-01 5.164904e-01 4.955542e-01 4.495006e-01 4.169331e-01 1.384375e-01
<GCONST> 1.224653e+02
<STATE> 3
<MEAN> 39
 -9.630851e+00 -8.648166e+00 -3.869736e+00 -4.187997e+00 -2.632844e-01 3.604183e-01 -4.621864e+00 -1.182723e+00 -2.616166e+00 -1.763338e+00 -4.038624e+00 -3.667327e+00 5.883458e+01 2.998888e-03 -1.176720e-01 -3.040204e-01 -3.200828e-01 -3.029507e-01 -2.713362e-01 -2.122339e-01 -1.465308e-01 -7.123346e-03 1.584124e-02 3.178586e-02 -5.378674e-02 -3.789353e-01 3.104574e-01 1.788007e-01 2.807315e-02 -4.580873e-02 -2.663295e-01 -4.074803e-02 -1.616430e-01 -5.493060e-02 -1.539698e-01 -5.107588e-02 -2.860106e-02 -1.463551e-01 9.897901e-02
<VARIANCE> 39
 4.358021e+01 6.214778e+01 6.042684e+01 3.795499e+01 6.348990e+01 4.912354e+01 5.438397e+01 5.280148e+01 4.891167e+01 3.982920e+01 4.266843e+01 3.233381e+01 1.331144e+02 2.552539e+00 3.362965e+00 2.467763e+00 2.521732e+00 2.929185e+00 3.028825e+00 3.011055e+00 3.075981e+00 2.901185e+00 2.563134e+00 2.749104e+00 2.341847e+00 4.737429e+00 3.759764e-01 5.372437e-01 4.241852e-01 4.770854e-01 5.768252e-01 5.503517e-01 5.894502e-01 5.729163e-01 5.361809e-01 5.069032e-01 5.181678e-01 4.437036e-01 4.270634e-01
<GCONST> 1.277797e+02
<STATE> 4
<MEAN> 39
 -9.248264e+00 -5.561572e+00 -3.591907e+00 -3.349238e+00 -2.699859e+00 -2.584044e+00 -5.300063e+00 -1.967718e+00 -3.321525e+00 -3.106663e+00 -3.028128e+00 -3.076777e+00 4.856534e+01 1.557062e-01 2.107555e-01 -4.048781e-02 -2.298458e-02 -2.209173e-01 -2.168607e-02 -7.180873e-02 -7.747850e-02 -7.055929e-02 -1.041315e-02 5.223887e-02 -9.668641e-02 -3.008399e-01 4.468725e-02 -1.561892e-04 3.116352e-02 -1.131196e-03 -4.478205e-02 4.182250e-02 -1.968951e-02 1.487705e-02 -1.375603e-02 -2.563787e-03 1.594516e-02 -3.464514e-02 1.092765e-01
<VARIANCE> 39
 2.736222e+01 6.202091e+01 3.826954e+01 3.015407e+01 3.626118e+01 3.548877e+01 3.384744e+01 3.497344e+01 3.172629e+01 2.915936e+01 2.978524e+01 2.458884e+01 1.586528e+02 1.221547e+00 1.671319e+00 1.373143e+00 1.429877e+00 1.758669e+00 1.739152e+00 1.898172e+00 1.992891e+00 1.964917e+00 1.794493e+00 1.703409e+00 1.693875e+00 2.042855e+00 1.553416e-01 2.424379e-01 2.187465e-01 2.472874e-01 2.980378e-01 3.183218e-01 3.431150e-01 3.650631e-01 3.611179e-01 3.373363e-01 3.294088e-01 3.065573e-01 1.363674e-01
<GCONST> 1.087460e+02
<TRANSP> 5
 0.000000e+00 1.000000e+00 0.000000e+00 0.000000e+00 0.000000e+00
 0.000000e+00 6.314456e-01 3.685544e-01 0.000000e+00 0.000000e+00
 0.000000e+00 0.000000e+00 7.430124e-01 2.569875e-01 0.000000e+00
 0.000000e+00 0.000000e+00 0.000000e+00 8.378184e-01 1.621816e-01
 0.000000e+00 0.000000e+00 0.000000e+00 0.000000e+00 0.000000e+00
<ENDHMM>
~h "i"
<BEGINHMM>
<NUMSTATES> 5
<STATE> 2
<MEAN> 39
 -5.870447e+00 -1.737125e+00 1.326721e+01 -1.767925e+00 -1.962324e+01 -8.808990e+00 -1.307314e+01 -5.760408e+00 -1.186671e+01 -5.400930e+00 4.080815e+00 -5.219158e+00 6.630240e+01 4.428054e-01 -1.116286e-01 2.528512e+00 -3.999106e-01 -3.083433e+00 5.447919e-01 -1.656961e+00 -3.640425e-01 -1.323451e+00 -5.719794e-01 1.751209e+00 -5.472365e-01 1.666301e+00 -7.533679e-02 1.389583e-01 -5.722275e-01 -1.047566e-01 4.601779e-01 4.114062e-01 1.639273e-01 6.434029e-02 4.447815e-01 2.528236e-01 -2.929531e-01 -8.105764e-02 -5.668905e-01
<VARIANCE> 39
 2.535642e+01 3.983752e+01 4.970647e+01 3.939728e+01 5.595770e+01 6.776917e+01 5.457531e+01 6.812470e+01 4.779886e+01 3.976848e+01 3.395770e+01 3.116729e+01 6.206276e+01 4.979933e+00 2.741816e+00 4.301157e+00 3.549125e+00 4.669833e+00 5.278436e+00 6.151442e+00 5.377491e+00 5.030752e+00 3.648022e+00 3.370631e+00 3.005437e+00 3.738371e+00 6.896520e-01 5.161882e-01 7.193018e-01 5.121660e-01 1.089636e+00 8.094286e-01 9.466355e-01 9.462373e-01 7.728076e-01 5.779094e-01 6.312906e-01 4.596751e-01 8.181984e-01
<GCONST> 1.353554e+02
<STATE> 3
<MEAN> 39
 -7.009858e+00 8.646329e-02 1.778190e+01 -5.179473e+00 -2.431197e+01 -4.200649e+00 -1.689432e+01 -8.165164e+00 -1.299219e+01 -5.857004e+00 5.737736e+00 -7.634227e+00 6.867370e+01 7.939585e-02 1.483008e-01 -1.006686e-01 -7.607050e-02 -6.973264e-02 5.780176e-02 9.997743e-02 1.249218e-02 2.828747e-02 1.894547e-01 -5.447057e-02 -8.854357e-02 -1.913349e-01 9.385486e-02 1.541489e-02 -4.212097e-01 1.841094e-01 5.018800e-01 -2.706280e-01 3.749464e-01 1.426317e-01 1.765927e-01 1.032027e-01 -3.116940e-01 9.908612e-02 -3.065211e-01
<VARIANCE> 39
 1.349961e+01 2.982945e+01 3.926756e+01 4.230799e+01 3.264652e+01 8.173592e+01 4.777526e+01 6.058821e+01 3.970129e+01 4.206242e+01 3.612660e+01 3.811780e+01 1.973952e+01 5.057011e-01 1.240593e+00 1.285446e+00 1.322524e+00 1.466157e+00 1.937042e+00 2.016452e+00 2.095617e+00 1.596360e+00 1.543745e+00 1.522926e+00 1.232236e+00 7.982147e-01 1.625688e-01 2.040073e-01 2.789300e-01 2.555637e-01 5.229862e-01 3.810221e-01 4.793576e-01 4.278730e-01 4.014029e-01 3.330769e-01 3.857504e-01 2.865596e-01 2.040553e-01
<GCONST> 1.073883e+02
<STATE> 4
<MEAN> 39
 -4.736940e+00 1.300459e+00 1.231087e+01 -1.637099e+00 -1.866654e+01 -7.758479e+00 -1.142211e+01 -6.446074e+00 -1.110924e+01 -4.176921e+00 2.631558e+00 -5.672565e+00 5.907878e+01 3.554493e-01 4.412585e-01 -1.387457e+00 5.220175e-01 1.651842e+00 -3.555285e-01 9.715465e-01 2.390922e-01 7.517866e-01 2.696579e-01 -1.040909e+00 2.333946e-01 -1.982806e+00 -9.476981e-02 -1.144117e-03 -1.393625e-01 -7.486883e-02 1.979897e-01 2.081675e-01 -4.658689e-02 -9.050342e-02 1.033223e-01 3.835354e-03 -1.366161e-01 -9.257921e-03 -1.010386e-01
<VARIANCE> 39
 2.275913e+01 4.461829e+01 4.801502e+01 4.138977e+01 5.976653e+01 7.606432e+01 4.750405e+01 6.529244e+01 4.546088e+01 3.844388e+01 4.399109e+01 3.300235e+01 1.245614e+02 2.495305e+00 2.955066e+00 2.544345e+00 2.471486e+00 3.825006e+00 3.634888e+00 4.161630e+00 4.399480e+00 3.598940e+00 2.788524e+00 3.133745e+00 2.564972e+00 4.313006e+00 3.392235e-01 4.689722e-01 4.182627e-01 4.129179e-01 7.759934e-01 6.444267e-01 6.691669e-01 7.411237e-01 5.969014e-01 5.063100e-01 6.009165e-01 4.283617e-01 6.301053e-01
<GCONST> 1.294518e+02
<TRANSP> 5
 0.000000e+00 1.000000e+00 0.000000e+00 0.000000e+00 0.000000e+00
 0.000000e+00 6.281456e-01 3.718545e-01 0.000000e+00 0.000000e+00
 0.000000e+00 0.000000e+00 7.986317e-01 2.013683e-01 0.000000e+00
 0.000000e+00 0.000000e+00 0.000000e+00 7.565937e-01 2.434063e-01
 0.000000e+00 0.000000e+00 0.000000e+00 0.000000e+00 0.000000e+00
<ENDHMM>
~h "j"
<BEGINHMM>
<NUMSTATES> 5
<STATE> 2
<MEAN> 39
 -2.871150e+00 5.313468e+00 6.828035e+00 1.073524e+00 -8.274329e+00 -6.392399e+00 -7.801360e+00 -1.843801e+00 -4.039538e+00 -5.354989e+00 -3.115298e+00 -4.092339e+00 5.071550e+01 -7.263397e-01 6.546247e-01 2.294347e-01 -3.872897e-02 9.722100e-01 1.865886e-01 5.054925e-01 5.881107e-03 2.769170e-01 -8.554192e-03 -1.785463e-01 2.090957e-01 -2.714469e-01 -5.262935e-01 -3.533827e-01 -1.791218e-01 -2.718072e-01 -5.098615e-02 -1.249151e-02 -1.380491e-01 -1.944375e-01 -1.319793e-01 6.134172e-02 2.356582e-01 1.053888e-01 7.827476e-01
<VARIANCE> 39
 5.346222e+01 4.701936e+01 5.511508e+01 2.942118e+01 4.627921e+01 4.155263e+01 4.326817e+01 3.933224e+01 3.621723e+01 3.152031e+01 2.816300e+01 2.148734e+01 1.002861e+02 7.739636e+00 3.835617e+00 3.045769e+00 2.910825e+00 3.887739e+00 3.192925e+00 3.608105e+00 3.969569e+00 3.191186e+00 2.598080e+00 2.665716e+00 2.243906e+00 8.341413e+00 1.139118e+00 6.179196e-01 4.800635e-01 5.073643e-01 7.332942e-01 6.355525e-01 6.301358e-01 7.127111e-01 6.129908e-01 5.044155e-01 4.858768e-01 4.726841e-01 1.132389e+00
<GCONST> 1.308832e+02
<STATE> 3
<MEAN> 39
 -1.574662e+01 6.140364e+00 7.505478e+00 -2.238923e+00 -4.328132e+00 -6.568432e+00 -6.998069e+00 -6.198559e+00 -5.592285e+00 -5.116440e+00 -1.317448e+00 -7.948577e-01 6.531325e+01 -1.159491e+00 -1.392073e+00 5.395890e-01 -5.093085e-01 -2.329973e+00 -1.572268e+00 -1.177539e+00 -4.635042e-01 -6.869498e-01 -3.525463e-01 1.400930e+00 1.097595e+00 3.745362e+00 1.902600e+00 -6.114658e-01 1.450195e-01 2.018222e-01 -1.348776e+00 -2.691525e-01 -6.702738e-01 6.932529e-01 2.352362e-01 -1.083472e-01 2.161755e-01 -3.983498e-01 -4.111975e-01
<VARIANCE> 39
 3.074759e+01 3.263151e+01 4.912553e+01 2.158304e+01 4.228957e+01 4.521275e+01 3.012817e+01 2.515907e+01 2.679384e+01 2.092046e+01 1.781287e+01 1.759891e+01 2.552537e+01 1.329522e+01 3.979720e+00 4.242088e+00 3.953300e+00 7.878932e+00 4.057352e+00 3.875904e+00 4.080854e+00 3.391692e+00 2.515955e+00 2.494034e+00 2.055425e+00 3.606126e+00 8.542109e-01 8.799953e-01 8.895162e-01 6.887996e-01 1.217644e+00 1.086212e+00 6.539173e-01 9.657514e-01 8.460599e-01 5.503106e-01 5.507445e-01 6.020322e-01 5.666631e-01
<GCONST> 1.297409e+02
<STATE> 4
<MEAN> 39
 -5.983258e+00 -3.033180e+00 9.644742e+00 -2.890864e+00 -1.853356e+01 -1.263001e+01 -1.470886e+01 -1.445938e+00 -4.997736e+00 -6.617499e+00 4.142010e+00 -5.375956e-01 7.259090e+01 2.764259e+00 -3.306326e+00 -1.406320e+00 -8.586754e-01 -2.444300e+00 1.499993e-01 -1.757545e+00 2.369000e+00 1.440881e+00 3.028320e-01 7.997761e-01 -1.698836e+00 1.519334e+00 -1.238070e-01 2.679852e-01 -8.613115e-01 -2.011112e-01 1.328708e+00 1.066334e+00 5.926650e-01 5.864040e-02 2.867593e-01 3.058872e-01 -6.900228e-01 -7.447558e-01 -7.339884e-01
<VARIANCE> 39
 1.651386e+01 3.190784e+01 3.146793e+01 3.732172e+01 3.142071e+01 2.906123e+01 3.382193e+01 5.505770e+01 4.689739e+01 3.118597e+01 2.160346e+01 2.163002e+01 1.886138e+01 2.242691e+00 3.073135e+00 4.152179e+00 3.046811e+00 6.879481e+00 4.540117e+00 4.852866e+00 7.134383e+00 4.255236e+00 3.059796e+00 3.674452e+00 2.727224e+00 1.127315e+00 7.597548e-01 5.302782e-01 3.833687e-01 5.504035e-01 7.746624e-01 6.191521e-01 6.164939e-01 9.507056e-01 6.246346e-01 5.643213e-01 6.976597e-01 4.330756e-01 1.478784e-01
<GCONST> 1.242914e+02
<TRANSP> 5
 0.000000e+00 1.000000e+00 0.000000e+00 0.000000e+00 0.000000e+00
 0.000000e+00 8.588424e-01 1.411577e-01 0.000000e+00 0.000000e+00
 0.000000e+00 0.000000e+00 6.766177e-01 3.233823e-01 0.000000e+00
 0.000000e+00 0.000000e+00 0.000000e+00 5.981473e-01 4.018526e-01
 0.000000e+00 0.000000e+00 0.000000e+00 0.000000e+00 0.000000e+00
<ENDHMM>
~h "k"
<BEGINHMM>
<NUMSTATES> 5
<STATE> 2
<MEAN> 39
 -7.103531e+00 -5.837244e-01 -2.945163e+00 -2.975121e+00 -5.641613e+00 -4.530765e+00 -6.564478e+00 -2.742315e+00 -4.137192e+00 -1.751560e+00 -2.665619e+00 -4.102766e+00 4.280372e+01 -4.751166e-01 2.832448e-01 -9.836330e-02 1.934710e-01 1.636779e-01 -1.534231e-01 1.826741e-01 -1.210393e-01 1.813838e-01 -6.035839e-02 -5.335756e-02 3.255146e-01 -1.458787e+00 -7.771317e-02 -2.262022e-01 -8.826634e-02 -1.044966e-01 1.053658e-02 5.819147e-03 -6.201992e-02 5.303921e-02 -1.652480e-02 1.805139e-02 2.246374e-02 -6.782017e-03 4.846961e-01
<VARIANCE> 39
 3.971466e+01 3.811296e+01 3.884633e+01 3.583703e+01 4.513435e+01 4.351427e+01 3.853965e+01 4.243812e+01 3.909488e+01 3.366387e+01 3.354755e+01 3.441408e+01 1.020018e+02 1.202656e+00 1.591375e+00 1.597851e+00 1.903754e+00 2.444448e+00 2.355070e+00 2.376011e+00 2.468144e+00 2.503282e+00 2.344309e+00 2.229301e+00 1.973101e+00 4.308497e+00 2.457115e-01 4.010790e-01 3.672783e-01 4.130490e-01 5.113139e-01 4.601234e-01 4.962385e-01 4.820590e-01 5.220402e-01 4.819834e-01 4.518346e-01 3.957800e-01 6.399539e-01
<GCONST> 1.194438e+02
<STATE> 3
<MEAN> 39
 -7.727188e+00 6.446536e-01 -1.931172e+00 -2.909513e+00 -6.771763e+00 -5.245322e+00 -7.420241e+00 -4.257524e+00 -4.941391e+00 -1.286928e+00 -2.267005e+00 -3.537112e+00 4.343460e+01 -1.277916e+00 -1.446379e+00 -1.539382e+00 -3.278047e-01 1.200016e+00 -4.492847e-01 -1.003669e-01 4.648570e-01 1.777424e-01 3.591602e-01 -2.599939e-01 5.975964e-01 1.717450e+00 9.333593e-02 -4.775323e-01 -3.060083e-01 -3.273481e-01 -2.711171e-02 7.567901e-03 -1.508055e-01 2.106227e-01 -7.644726e-02 1.221505e-01 -7.333700e-03 -1.879433e-01 1.693989e+00
<VARIANCE> 39
 4.462850e+01 4.300655e+01 6.023707e+01 4.904979e+01 6.488950e+01 5.708323e+01 4.658696e+01 5.135612e+01 4.848811e+01 3.717986e+01 3.837210e+01 3.200080e+01 9.125479e+01 3.808749e+00 5.606209e+00 6.442025e+00 5.051026e+00 6.399088e+00 5.510701e+00 5.379918e+00 5.063287e+00 4.872829e+00 4.240279e+00 3.897650e+00 3.337678e+00 1.642033e+01 6.426606e-01 8.347763e-01 8.718718e-01 7.740477e-01 1.076646e+00 9.297509e-01 8.952203e-01 8.620452e-01 8.387392e-01 7.422000e-01 7.139959e-01 6.132898e-01 1.694112e+00
<GCONST> 1.421061e+02
<STATE> 4
<MEAN> 39
 -1.102839e+01 -7.150272e+00 -9.961892e+00 -6.008349e+00 -1.836439e+00 -7.229514e+00 -9.357707e+00 -1.232330e+00 -4.492782e+00 1.057638e+00 -4.252323e+00 -2.878508e+00 6.132480e+01 1.063382e+00 -5.588786e-01 7.404245e-02 -8.632204e-01 -1.009802e+00 -6.394344e-02 -4.758666e-01 6.176167e-01 -1.134472e-01 -1.138729e-01 2.360441e-01 -1.102878e+00 4.322903e+00 9.053555e-01 4.429635e-01 9.619420e-01 3.874037e-02 -1.021342e+00 4.470544e-01 1.118824e-02 -1.069936e-01 2.043078e-02 -4.581000e-01 4.132030e-01 -5.960041e-01 -5.925736e-01
<VARIANCE> 39
 3.444917e+01 4.365058e+01 6.890212e+01 5.739478e+01 6.183475e+01 7.317716e+01 4.690655e+01 4.874995e+01 5.350051e+01 3.948615e+01 3.726880e+01 3.305507e+01 6.693581e+01 5.954320e+00 5.535837e+00 8.096031e+00 4.749924e+00 8.037398e+00 6.089931e+00 4.873036e+00 5.765461e+00 5.130135e+00 4.503779e+00 4.305504e+00 4.655804e+00 1.195711e+01 7.408511e-01 9.275825e-01 1.217112e+00 9.268910e-01 1.301811e+00 1.134459e+00 1.100292e+00 1.017625e+00 9.797069e-01 8.842714e-01 8.292128e-01 8.082290e-01 1.258911e+00
<GCONST> 1.453291e+02
<TRANSP> 5
 0.000000e+00 1.000000e+00 0.000000e+00 0.000000e+00 0.000000e+00
 0.000000e+00 8.100056e-01 1.899944e-01 0.000000e+00 0.000000e+00
 0.000000e+00 0.000000e+00 6.580083e-01 3.419918e-01 0.000000e+00
 0.000000e+00 0.000000e+00 0.000000e+00 6.419410e-01 3.580591e-01
 0.000000e+00 0.000000e+00 0.000000e+00 0.000000e+00 0.000000e+00
<ENDHMM>
~h "l"
<BEGINHMM>
<NUMSTATES> 5
<STATE> 2
<MEAN> 39
 1.923437e+00 -9.272184e+00 -2.082474e+00 -6.933895e+00 -1.502449e+01 -4.602524e-01 -1.499017e+01 -1.033975e+01 4.496520e-02 6.912783e-01 3.980527e-01 -7.778686e+00 6.989752e+01 6.916708e-01 -4.192410e-01 8.383724e-01 2.055685e-02 3.046868e-01 -1.272246e-01 -1.289791e+00 -1.106566e+00 5.009251e-02 1.245858e+00 -2.968304e-02 -2.161582e-01 -4.601370e-01 -1.730961e-01 2.023596e-01 3.206434e-02 -2.629656e-01 1.779341e-01 8.383094e-02 2.793197e-02 3.448245e-01 -2.472353e-01 -2.283992e-01 8.168683e-02 -1.950386e-02 -3.524817e-02
<VARIANCE> 39
 2.091443e+01 3.069673e+01 6.369249e+01 7.120094e+01 5.946068e+01 1.034916e+02 7.685957e+01 1.345001e+02 7.912913e+01 6.321875e+01 5.408745e+01 4.491637e+01 2.575989e+01 1.093568e+00 2.644101e+00 3.510983e+00 5.924055e+00 5.663289e+00 7.857258e+00 4.682260e+00 6.035225e+00 5.367654e+00 4.618764e+00 4.676128e+00 3.726998e+00 1.112974e+00 2.383472e-01 3.227425e-01 4.259265e-01 6.714129e-01 8.792471e-01 9.635707e-01 8.806505e-01 1.075752e+00 8.597394e-01 8.238667e-01 6.940521e-01 5.701598e-01 1.460472e-01
<GCONST> 1.342683e+02
<STATE> 3
<MEAN> 39
 2.946934e+00 -9.944421e+00 -3.361327e-02 -1.117758e+01 -1.309672e+01 2.434829e+00 -1.908448e+01 -9.798347e+00 2.873101e-01 3.793864e+00 5.077665e-01 -9.319942e+00 6.931097e+01 -9.178358e-03 2.298259e-01 3.013879e-02 -2.586292e-01 3.194311e-01 1.754416e-02 -1.432108e-01 4.115393e-02 -1.883045e-01 9.785591e-02 -2.038264e-02 -2.765386e-02 -1.768067e-01 -2.412422e-01 -1.019501e-02 -3.151176e-01 1.612713e-01 2.404690e-02 -2.200496e-02 4.495415e-01 4.112465e-01 5.146073e-02 -4.214575e-01 -1.650470e-01 -3.470293e-02 1.609573e-01
<VARIANCE> 39
 1.743349e+01 3.011991e+01 5.908657e+01 7.511672e+01 5.112535e+01 8.660854e+01 7.311837e+01 9.873002e+01 7.800259e+01 6.263499e+01 5.187906e+01 3.990528e+01 1.972346e+01 5.065807e-01 9.620848e-01 1.822329e+00 2.046070e+00 1.772945e+00 2.596668e+00 2.555076e+00 3.341785e+00 2.571263e+00 2.394455e+00 2.118486e+00 1.756281e+00 7.541283e-01 1.086217e-01 2.712728e-01 3.045688e-01 4.327722e-01 5.300030e-01 5.980467e-01 6.124758e-01 6.419567e-01 5.658453e-01 5.857109e-01 5.279504e-01 4.218769e-01 1.181572e-01
<GCONST> 1.174730e+02
<STATE> 4
<MEAN> 39
 -1.110276e-01 -5.988100e+00 -1.152174e+00 -7.526607e+00 -9.627621e+00 -9.314955e-01 -1.508227e+01 -7.775785e+00 -1.719286e+00 1.062138e+00 -1.610193e+00 -7.581312e+00 6.236174e+01 -6.925643e-01 2.978481e-01 -4.115140e-01 4.381951e-01 2.558285e-01 -2.603309e-01 1.012661e+00 9.405290e-01 -1.521667e-04 -7.822258e-01 -4.227535e-01 1.728663e-01 -2.331206e-01 -1.053722e-01 -8.003294e-02 -9.987368e-02 -1.329130e-02 -1.905439e-01 1.302422e-01 2.568140e-01 1.825718e-01 -1.826981e-02 -1.707021e-01 4.706543e-02 -6.406486e-03 1.220111e-01
<VARIANCE> 39
 3.325768e+01 4.113874e+01 6.996496e+01 7.249745e+01 5.997382e+01 8.747749e+01 8.929391e+01 9.736148e+01 6.072780e+01 6.176153e+01 5.330385e+01 4.258439e+01 1.271838e+02 1.500798e+00 3.388967e+00 3.188322e+00 3.839916e+00 4.747141e+00 5.276170e+00 4.784480e+00 5.663424e+00 5.000245e+00 4.223149e+00 4.050155e+00 3.223121e+00 4.315236e+00 2.551992e-01 4.168521e-01 3.926513e-01 6.498490e-01 8.573942e-01 7.985289e-01 9.455380e-01 7.891872e-01 7.096748e-01 7.403944e-01 6.935074e-01 5.257803e-01 3.931409e-01
<GCONST> 1.367373e+02
<TRANSP> 5
 0.000000e+00 1.000000e+00 0.000000e+00 0.000000e+00 0.000000e+00
 0.000000e+00 5.119377e-01 4.880624e-01 0.000000e+00 0.000000e+00
 0.000000e+00 0.000000e+00 6.867519e-01 3.132481e-01 0.000000e+00
 0.000000e+00 0.000000e+00 0.000000e+00 5.636011e-01 4.363989e-01
 0.000000e+00 0.000000e+00 0.000000e+00 0.000000e+00 0.000000e+00
<ENDHMM>
~h "m"
<BEGINHMM>
<NUMSTATES> 5
<STATE> 2
<MEAN> 39
 3.140815e+00 -2.831176e+00 9.025578e-01 -3.520309e+00 -9.619811e+00 9.088874e-01 -9.755013e+00 -1.083362e+01 -1.349811e+01 -1.990526e+00 -7.362887e-01 -8.849469e+00 6.088376e+01 4.298911e-01 8.858646e-01 1.573184e+00 1.663570e+00 2.932519e-01 2.618447e-01 9.062159e-01 -2.394784e+00 -2.652601e+00 1.630066e-01 -7.157411e-01 6.307834e-02 -8.353017e-01 -2.914861e-01 -3.266311e-01 -1.082213e-01 -2.909847e-01 -8.678685e-02 4.534914e-02 -2.797742e-02 3.908032e-01 4.285258e-01 -1.280057e-01 -1.683764e-02 1.008144e-02 3.977894e-01
<VARIANCE> 39
 2.132920e+01 3.374157e+01 3.283121e+01 5.216110e+01 5.601540e+01 8.125330e+01 5.918194e+01 6.330386e+01 7.246393e+01 5.743671e+01 6.491387e+01 3.952818e+01 6.177790e+01 1.705533e+00 2.884191e+00 3.337862e+00 3.840060e+00 3.616623e+00 4.218032e+00 4.463587e+00 4.909759e+00 5.347811e+00 4.689313e+00 6.128467e+00 3.763108e+00 3.987835e+00 2.400728e-01 3.224646e-01 4.755524e-01 4.966398e-01 5.574059e-01 5.239878e-01 5.958790e-01 8.042011e-01 9.735814e-01 6.014487e-01 8.043512e-01 4.993303e-01 2.808972e-01
<GCONST> 1.316751e+02
<STATE> 3
<MEAN> 39
 3.365313e+00 -2.725859e+00 4.238728e+00 -2.238446e+00 -1.048922e+01 2.566389e+00 -8.127040e+00 -1.349811e+01 -1.623484e+01 -3.215805e+00 -3.126206e+00 -9.220071e+00 6.208253e+01 -2.872702e-02 1.927003e-01 1.186269e-01 9.310633e-02 5.922282e-02 3.718388e-02 2.414240e-01 -3.659070e-02 -5.719803e-02 -3.122087e-02 -1.867803e-01 1.537178e-01 -1.357221e-01 -3.397293e-02 -8.398503e-02 -3.713532e-01 -3.927450e-01 -2.468523e-02 -8.496246e-02 -1.782955e-01 4.745867e-01 5.655244e-01 -2.322604e-02 2.221794e-01 1.061765e-02 1.488197e-01
<VARIANCE> 39
 1.343717e+01 2.187748e+01 2.421127e+01 5.088438e+01 7.222592e+01 9.613039e+01 6.730661e+01 5.320578e+01 6.728131e+01 7.811385e+01 7.189568e+01 4.127133e+01 2.786041e+01 2.598144e-01 7.800518e-01 8.707385e-01 1.287675e+00 1.212860e+00 1.738463e+00 1.452380e+00 1.763439e+00 2.059102e+00 1.823290e+00 2.283414e+00 1.438634e+00 8.622168e-01 8.860800e-02 1.817624e-01 2.983907e-01 3.988349e-01 3.075781e-01 3.733353e-01 4.038542e-01 5.483664e-01 6.816522e-01 4.772735e-01 5.845076e-01 3.877901e-01 1.681500e-01
<GCONST> 1.096453e+02
<STATE> 4
<MEAN> 39
 -2.223979e+00 -4.411542e-01 9.270459e-01 -1.186168e+00 -5.749142e+00 2.821557e-01 -6.304018e+00 -8.514622e+00 -1.032962e+01 -2.423163e+00 -3.434790e+00 -5.117061e+00 5.092479e+01 -2.570230e-02 -2.186455e-01 -5.719298e-01 -7.291265e-01 -5.366960e-03 -2.955404e-02 -2.819285e-01 6.937171e-01 8.918087e-01 -3.315020e-02 3.903594e-01 -4.696570e-02 4.892822e-01 -4.853979e-02 -1.983662e-01 -1.605795e-01 -2.153272e-01 -3.930530e-02 3.538823e-02 -2.064387e-01 2.681013e-01 2.907612e-01 -5.567569e-02 1.079557e-01 -1.287550e-01 2.275546e-01
<VARIANCE> 39
 5.181676e+01 3.430018e+01 3.785368e+01 4.147561e+01 5.666158e+01 6.246910e+01 4.648912e+01 6.643436e+01 8.527043e+01 5.015844e+01 5.152195e+01 3.658329e+01 1.447973e+02 2.210050e+00 2.598409e+00 3.535660e+00 4.114277e+00 2.900398e+00 3.353193e+00 3.318292e+00 4.385613e+00 6.240920e+00 3.393076e+00 3.980767e+00 2.665279e+00 5.176311e+00 3.379414e-01 3.594196e-01 4.587447e-01 5.220180e-01 4.967439e-01 5.107910e-01 5.091832e-01 7.612216e-01 9.154156e-01 5.489838e-01 6.300384e-01 4.326988e-01 3.843502e-01
<GCONST> 1.312400e+02
<TRANSP> 5
 0.000000e+00 1.000000e+00 0.000000e+00 0.000000e+00 0.000000e+00
 0.000000e+00 5.478944e-01 4.521056e-01 0.000000e+00 0.000000e+00
 0.000000e+00 0.000000e+00 7.544144e-01 2.455856e-01 0.000000e+00
 0.000000e+00 0.000000e+00 0.000000e+00 7.479137e-01 2.520863e-01
 0.000000e+00 0.000000e+00 0.000000e+00 0.000000e+00 0.000000e+00
<ENDHMM>
~h "n"
<BEGINHMM>
<NUMSTATES> 5
<STATE> 2
<MEAN> 39
 3.052509e+00 -4.376586e+00 2.786252e+00 -4.160812e-01 -1.356443e+01 -6.170586e+00 -1.205546e+01 -8.263376e+00 -5.978866e+00 8.754319e-02 -7.231901e+00 -8.806121e+00 6.441667e+01 7.705584e-01 2.138888e+00 1.479388e+00 1.354255e+00 -3.660727e-01 -6.519042e-01 9.585895e-01 -3.223104e+00 -1.161635e+00 1.295680e+00 -1.329754e+00 6.390508e-01 -2.058129e+00 -2.776000e-01 -2.925646e-01 -2.641945e-01 -4.869906e-01 1.516439e-02 3.845724e-01 9.204094e-02 5.170684e-01 7.167678e-02 -2.861183e-01 3.138874e-01 1.550420e-02 4.110221e-01
<VARIANCE> 39
 1.099581e+01 2.989415e+01 3.487531e+01 3.748734e+01 4.499654e+01 6.185453e+01 5.042208e+01 8.242653e+01 6.268463e+01 4.327174e+01 4.960895e+01 4.575268e+01 2.403150e+01 7.696664e-01 1.931673e+00 3.491747e+00 2.780196e+00 3.575207e+00 4.926648e+00 4.018215e+00 5.794714e+00 3.889459e+00 3.897312e+00 4.048652e+00 3.528754e+00 1.095196e+00 1.272477e-01 3.650929e-01 3.720331e-01 3.492431e-01 4.901260e-01 5.314722e-01 5.855018e-01 9.788399e-01 5.566579e-01 5.933883e-01 5.128324e-01 4.406631e-01 2.013319e-01
<GCONST> 1.226695e+02
<STATE> 3
<MEAN> 39
 3.664527e+00 -1.308728e+00 5.639845e+00 2.969598e-01 -1.483930e+01 -6.329734e+00 -9.828672e+00 -1.159012e+01 -7.966250e+00 1.075772e+00 -8.855662e+00 -8.018125e+00 6.134297e+01 3.888826e-02 5.758493e-01 1.657681e-01 2.353769e-01 2.526844e-01 8.358053e-02 3.027376e-01 -1.638710e-01 -2.847939e-01 7.278268e-02 -7.153188e-02 2.408555e-01 -7.175294e-01 -1.946102e-01 -1.715311e-01 -1.847719e-01 -1.516699e-01 2.467255e-01 9.161612e-02 -1.506407e-01 5.059363e-01 1.587714e-01 -2.485921e-01 2.353592e-01 -4.283400e-02 1.117182e-01
<VARIANCE> 39
 1.059481e+01 2.084433e+01 2.709512e+01 4.140990e+01 5.644273e+01 8.850773e+01 5.800175e+01 5.410109e+01 5.883384e+01 4.826984e+01 5.552192e+01 5.180161e+01 2.413256e+01 3.287343e-01 8.887603e-01 7.884852e-01 1.019000e+00 1.487754e+00 1.455241e+00 1.665406e+00 1.970762e+00 1.799759e+00 1.776324e+00 1.753969e+00 1.394740e+00 7.350903e-01 1.241943e-01 2.444498e-01 3.006746e-01 3.202990e-01 3.738072e-01 4.176412e-01 4.112877e-01 6.233785e-01 4.230714e-01 4.624630e-01 4.452065e-01 3.450217e-01 2.027987e-01
<GCONST> 1.078717e+02
<STATE> 4
<MEAN> 39
 -1.964877e+00 7.962410e-01 2.835723e+00 5.564142e-01 -8.042582e+00 -4.858976e+00 -7.814731e+00 -7.372998e+00 -6.952751e+00 -1.296787e+00 -6.482679e+00 -5.107274e+00 5.050275e+01 -7.747277e-01 -3.556389e-02 -3.608578e-01 -2.948210e-01 7.166190e-01 1.663820e-01 -4.608694e-02 8.218012e-01 3.565020e-01 -5.229295e-01 4.883211e-01 1.465761e-01 -5.818171e-01 -1.465123e-01 -2.293883e-01 -1.239217e-01 -1.906151e-01 -6.722679e-02 6.461053e-02 -8.033521e-02 1.932134e-01 1.233141e-01 -1.233382e-01 1.367679e-01 -5.128636e-02 2.275030e-01
<VARIANCE> 39
 4.562643e+01 3.850264e+01 4.198903e+01 3.605589e+01 6.207198e+01 5.188078e+01 5.398007e+01 6.073895e+01 5.687716e+01 4.636640e+01 4.849939e+01 4.220502e+01 1.148363e+02 1.946021e+00 3.320113e+00 2.626351e+00 2.779034e+00 3.586315e+00 3.464560e+00 3.307648e+00 4.418240e+00 3.745497e+00 3.460691e+00 3.273411e+00 2.588912e+00 4.804318e+00 3.940610e-01 5.254884e-01 4.559746e-01 4.919277e-01 6.372111e-01 6.158221e-01 5.931448e-01 8.631021e-01 6.970012e-01 6.644031e-01 6.109421e-01 4.761680e-01 5.097625e-01
<GCONST> 1.308594e+02
<TRANSP> 5
 0.000000e+00 1.000000e+00 0.000000e+00 0.000000e+00 0.000000e+00
 0.000000e+00 5.398740e-01 4.601260e-01 0.000000e+00 0.000000e+00
 0.000000e+00 0.000000e+00 7.621087e-01 2.378913e-01 0.000000e+00
 0.000000e+00 0.000000e+00 0.000000e+00 7.422829e-01 2.577172e-01
 0.000000e+00 0.000000e+00 0.000000e+00 0.000000e+00 0.000000e+00
<ENDHMM>
~h "o"
<BEGINHMM>
<NUMSTATES> 5
<STATE> 2
<MEAN> 39
 9.888526e-01 -3.859792e+00 -7.428912e+00 -1.447020e+01 -1.203496e+01 3.465751e+00 -1.164095e+01 -5.296432e+00 -3.362819e+00 -1.311339e+00 2.090308e+00 -7.107216e+00 6.611502e+01 1.780027e+00 -7.811028e-01 -8.686816e-01 -2.388449e+00 -1.673984e+00 2.550395e+00 -6.098260e-01 2.188699e-02 5.833942e-01 -1.538153e-01 1.577514e+00 -1.072186e+00 2.208786e+00 -4.088018e-01 9.663639e-03 1.588852e-01 3.070823e-01 2.628538e-01 3.627533e-02 2.345088e-01 1.170125e-02 -1.198882e-01 -3.876460e-02 -4.406124e-02 1.457205e-01 -5.213573e-01
<VARIANCE> 39
 2.860263e+01 3.705384e+01 4.083469e+01 9.510125e+01 5.795972e+01 8.366906e+01 6.797149e+01 6.824021e+01 7.093271e+01 5.933472e+01 5.009340e+01 3.784283e+01 9.977222e+01 4.242855e+00 2.774131e+00 4.847089e+00 6.043162e+00 7.174245e+00 5.393160e+00 4.107523e+00 5.760713e+00 5.077798e+00 5.584746e+00 4.075464e+00 3.793130e+00 5.423123e+00 7.294517e-01 5.102056e-01 5.517414e-01 1.178451e+00 8.855428e-01 1.021401e+00 8.015760e-01 7.784134e-01 9.233579e-01 7.267708e-01 6.786226e-01 5.901378e-01 1.200375e+00
<GCONST> 1.416453e+02
<STATE> 3
<MEAN> 39
 2.713480e+00 -7.052962e+00 -9.481315e+00 -1.732755e+01 -1.449935e+01 9.492922e+00 -1.368687e+01 -5.729166e+00 -2.222910e+00 -1.813358e+00 6.353147e+00 -9.886065e+00 7.245562e+01 1.214775e-02 -2.653997e-01 -1.995746e-01 -3.371579e-01 1.049196e-01 7.104865e-01 -1.581052e-03 5.699772e-02 -1.316812e-02 3.874882e-02 2.489532e-01 -2.452688e-01 1.723031e-01 -1.994656e-01 2.559328e-01 3.413533e-01 6.254791e-01 3.259408e-01 -7.726204e-01 1.438260e-01 -4.477326e-02 -1.807715e-01 2.664683e-02 -5.566104e-01 3.024610e-01 -4.951685e-01
<VARIANCE> 39
 1.213163e+01 2.765851e+01 3.101122e+01 6.837218e+01 5.428227e+01 5.982262e+01 5.826329e+01 7.673170e+01 6.562000e+01 6.831618e+01 4.744997e+01 3.776194e+01 1.209025e+01 5.014111e-01 1.338960e+00 1.533314e+00 4.358383e+00 2.358942e+00 4.614803e+00 3.244803e+00 3.048923e+00 3.378083e+00 3.439018e+00 2.901949e+00 2.268547e+00 7.646940e-01 2.226878e-01 2.627660e-01 3.041060e-01 4.617029e-01 6.827176e-01 5.147157e-01 5.630775e-01 6.501392e-01 6.279591e-01 6.879541e-01 5.055389e-01 5.080513e-01 2.237586e-01
<GCONST> 1.197355e+02
<STATE> 4
<MEAN> 39
 2.782364e+00 -4.210235e+00 -8.080010e+00 -1.997509e+01 -1.273985e+01 9.149766e+00 -1.184252e+01 -4.929300e+00 -4.052408e+00 -2.921204e+00 3.556561e+00 -7.550216e+00 6.808215e+01 2.113174e-02 4.460401e-01 3.629209e-01 9.508480e-01 4.145103e-01 -7.632396e-01 1.923644e-01 -1.794348e-01 -1.508327e-01 1.085095e-01 -6.862530e-01 1.470381e-01 -1.080364e+00 -4.971970e-02 7.941300e-02 1.336436e-01 3.315372e-01 6.920239e-02 -1.944465e-01 4.441666e-02 -9.918457e-02 -6.661184e-03 4.201492e-02 -1.296389e-01 2.303442e-02 -2.546695e-01
<VARIANCE> 39
 1.428124e+01 4.342330e+01 3.223946e+01 6.797893e+01 6.170984e+01 5.585063e+01 5.936128e+01 7.191397e+01 6.796102e+01 7.520734e+01 4.795303e+01 4.294317e+01 4.931487e+01 5.699862e-01 1.508824e+00 1.411223e+00 3.053182e+00 2.373465e+00 2.644244e+00 2.330570e+00 2.341828e+00 2.543476e+00 2.500999e+00 2.407952e+00 1.887669e+00 2.427184e+00 1.157040e-01 2.390590e-01 2.187749e-01 3.565400e-01 3.774146e-01 3.952106e-01 4.324118e-01 4.086661e-01 4.553164e-01 4.443907e-01 3.748441e-01 3.491345e-01 2.574572e-01
<GCONST> 1.167029e+02
<TRANSP> 5
 0.000000e+00 1.000000e+00 0.000000e+00 0.000000e+00 0.000000e+00
 0.000000e+00 5.495179e-01 4.504821e-01 0.000000e+00 0.000000e+00
 0.000000e+00 0.000000e+00 7.041917e-01 2.958083e-01 0.000000e+00
 0.000000e+00 0.000000e+00 0.000000e+00 8.074088e-01 1.925912e-01
 0.000000e+00 0.000000e+00 0.000000e+00 0.000000e+00 0.000000e+00
<ENDHMM>
~h "p"
<BEGINHMM>
<NUMSTATES> 5
<STATE> 2
<MEAN> 39
 -5.203573e+00 1.962076e-01 -2.837014e+00 -3.528686e+00 -6.007892e+00 -3.134990e+00 -6.940867e+00 -4.123107e+00 -3.925867e+00 -2.044019e+00 -2.441848e+00 -5.064087e+00 4.203249e+01 -6.795753e-01 3.153576e-01 -1.250386e-01 1.882873e-01 1.506168e-01 -3.576302e-01 2.134436e-01 3.339664e-03 1.901761e-01 3.728766e-02 -1.295370e-01 2.851543e-01 -1.322294e+00 -7.599988e-02 -1.836198e-01 -1.643058e-02 -8.715177e-02 -3.799262e-02 1.742755e-02 -3.229119e-02 3.438227e-02 1.003418e-02 1.112996e-02 7.811949e-02 2.402130e-02 5.504142e-01
<VARIANCE> 39
 4.520385e+01 3.493382e+01 3.505449e+01 3.328650e+01 3.422958e+01 3.882554e+01 3.375080e+01 3.571632e+01 3.392513e+01 2.907688e+01 2.984912e+01 3.510418e+01 7.500735e+01 1.138013e+00 1.448898e+00 1.424300e+00 1.625885e+00 1.819559e+00 2.011984e+00 1.940629e+00 2.122119e+00 2.222460e+00 2.036747e+00 2.137624e+00 1.782691e+00 3.274745e+00 2.256195e-01 3.049219e-01 3.141252e-01 3.551320e-01 3.799306e-01 3.865740e-01 3.981436e-01 4.201300e-01 4.492579e-01 4.066431e-01 4.113235e-01 3.514225e-01 5.634498e-01
<GCONST> 1.138599e+02
<STATE> 3
<MEAN> 39
 -6.803504e+00 2.616682e+00 -1.303898e+00 -2.092429e+00 -5.558359e+00 -3.656127e+00 -6.211843e+00 -4.967118e+00 -4.060318e+00 -1.854841e+00 -2.592294e+00 -3.704283e+00 3.963607e+01 -9.070023e-01 -1.183749e+00 -4.566477e-01 -3.744577e-01 1.665578e-01 -2.849468e-01 6.452224e-02 2.367972e-01 5.729169e-01 -8.487874e-03 4.078832e-01 4.553297e-01 3.227749e+00 7.219035e-01 -7.574529e-01 -2.607441e-01 -6.715395e-01 -4.885764e-01 4.525498e-01 -3.357628e-01 7.281036e-03 -1.347028e-01 -1.194144e-02 3.940656e-01 -4.229141e-01 2.264195e+00
<VARIANCE> 39
 3.601173e+01 2.876632e+01 3.353039e+01 3.287737e+01 3.220504e+01 3.757833e+01 3.259938e+01 3.293830e+01 3.598689e+01 2.815515e+01 2.806957e+01 2.635101e+01 5.892617e+01 4.108427e+00 3.583601e+00 3.571419e+00 4.224945e+00 3.501654e+00 4.413299e+00 3.543117e+00 3.791364e+00 4.164587e+00 3.211013e+00 3.270694e+00 2.905139e+00 1.526121e+01 6.217256e-01 6.238440e-01 6.949852e-01 7.830197e-01 7.547101e-01 9.394113e-01 6.647260e-01 8.859836e-01 8.128818e-01 6.900060e-01 6.433456e-01 5.985463e-01 9.957191e-01
<GCONST> 1.316496e+02
<STATE> 4
<MEAN> 39
 -6.659228e+00 -4.001317e+00 -4.770010e+00 -5.752192e+00 -6.146495e+00 -3.728808e+00 -7.162720e+00 -5.309462e+00 -2.887641e+00 -2.079065e+00 -4.587528e-01 -3.651413e+00 6.013552e+01 2.432879e+00 -2.429149e+00 -1.218706e+00 -2.529029e+00 -1.669029e+00 1.842666e+00 -1.143755e+00 4.192925e-02 -9.515863e-02 -4.512663e-02 1.452685e+00 -1.523792e+00 7.373852e+00 6.297423e-01 5.297341e-03 1.133344e-01 -1.723420e-01 -5.137239e-01 5.331130e-01 -3.275384e-01 1.513524e-01 -1.107336e-01 4.471811e-03 1.942267e-02 -5.464572e-01 -5.916632e-01
<VARIANCE> 39
 3.504753e+01 2.023208e+01 2.969035e+01 4.701516e+01 2.539369e+01 4.568169e+01 2.940253e+01 2.916458e+01 2.970593e+01 2.482933e+01 2.719855e+01 2.446188e+01 6.124152e+01 4.384595e+00 5.734636e+00 6.606277e+00 7.265182e+00 5.648822e+00 9.003135e+00 4.820884e+00 6.617906e+00 6.275671e+00 4.861405e+00 4.422895e+00 4.537854e+00 1.057760e+01 9.159298e-01 8.154579e-01 7.182078e-01 1.145140e+00 1.069004e+00 1.087282e+00 7.746887e-01 8.496249e-01 9.042099e-01 6.962385e-01 8.180965e-01 6.750280e-01 1.534794e+00
<GCONST> 1.383914e+02
<TRANSP> 5
 0.000000e+00 1.000000e+00 0.000000e+00 0.000000e+00 0.000000e+00
 0.000000e+00 8.494260e-01 1.505740e-01 0.000000e+00 0.000000e+00
 0.000000e+00 0.000000e+00 6.006976e-01 3.993024e-01 0.000000e+00
 0.000000e+00 0.000000e+00 0.000000e+00 4.420349e-01 5.579651e-01
 0.000000e+00 0.000000e+00 0.000000e+00 0.000000e+00 0.000000e+00
<ENDHMM>
~h "q"
<BEGINHMM>
<NUMSTATES> 5
<STATE> 2
<MEAN> 39
 -5.839834e+00 4.112439e+00 2.258437e+00 -6.552433e-01 -1.418822e+01 -1.131638e+01 -9.101421e+00 -8.132257e+00 -9.626391e+00 3.506348e-01 6.482241e-01 -6.524926e+00 5.131512e+01 -1.472184e+00 -2.597679e-01 -1.995343e+00 -2.230784e-01 1.783906e+00 2.876043e-01 8.641834e-01 -2.066233e-01 1.247922e+00 1.531448e-01 -4.195562e-01 6.120396e-01 -3.339602e-01 -2.322363e-01 -7.523992e-01 -1.077399e-01 -1.677464e-01 2.466914e-01 5.719303e-01 1.466045e-01 7.880692e-01 4.163719e-02 -8.615481e-02 -1.300761e-01 1.089826e-01 8.706617e-01
<VARIANCE> 39
 2.688592e+01 6.994995e+01 6.731772e+01 5.543807e+01 3.161734e+01 1.999580e+01 4.101664e+01 4.677139e+01 1.712030e+01 3.887465e+01 3.280497e+01 3.638414e+01 6.722581e+01 2.401820e+00 1.095661e+01 6.214025e+00 2.817759e+00 3.641933e+00 3.490303e+00 5.622369e+00 5.133441e+00 1.433753e+00 3.809946e+00 2.958075e+00 2.454516e+00 1.014051e+01 7.204457e-01 1.293817e+00 8.828788e-01 5.521677e-01 4.579435e-01 5.048795e-01 6.009650e-01 5.492625e-01 2.994956e-01 7.711021e-01 5.461742e-01 4.943285e-01 1.640288e+00
<GCONST> 1.316363e+02
<STATE> 3
<MEAN> 39
 -1.271889e+01 -2.660753e+00 -3.291219e+00 -3.677742e-01 -7.605525e+00 -5.925920e+00 -3.994634e+00 -3.006283e+00 -7.615813e+00 -3.486148e-02 -1.781052e+00 -2.998227e+00 6.094123e+01 -7.274257e-01 -1.064988e-01 -9.048682e-02 -3.321066e-01 9.089494e-01 1.573881e+00 1.357955e+00 1.435869e+00 4.638002e-01 -1.543969e-01 -5.519959e-01 -1.946831e-01 4.827046e-01 5.926063e-01 8.274794e-01 8.232912e-01 2.874624e-01 -7.341405e-01 -2.684218e-01 -3.256004e-01 -3.671023e-01 -5.077574e-02 -1.080898e-01 3.053007e-01 -2.963037e-01 -9.683065e-01
<VARIANCE> 39
 6.999509e+01 3.598444e+01 1.245046e+02 4.540878e+01 6.203285e+01 3.387449e+01 5.781881e+01 1.953111e+01 3.382372e+01 3.724453e+01 3.514591e+01 1.779766e+01 5.562960e+01 5.834075e+00 1.047398e+01 5.062508e+00 2.291896e+00 3.443329e+00 2.922177e+00 1.891058e+00 2.993839e+00 1.913787e+00 3.469646e+00 1.583273e+00 2.683207e+00 7.627743e+00 4.034032e-01 1.789410e+00 1.369174e+00 5.299379e-01 7.290632e-01 5.774415e-01 9.613766e-01 4.725745e-01 2.772149e-01 5.662403e-01 1.847917e-01 5.701588e-01 6.312311e-01
<GCONST> 1.295391e+02
<STATE> 4
<MEAN> 39
 -9.214247e+00 -3.117125e+00 1.763976e+00 2.062885e+00 -4.207885e+00 -5.037092e+00 -2.845296e+00 1.310931e+00 -3.595226e+00 6.888843e-02 5.012571e-01 -3.051279e+00 4.985230e+01 1.212205e-04 1.791268e-03 -9.246540e-02 1.064067e-02 7.634379e-02 1.625056e-02 3.582549e-02 8.386971e-02 1.093961e-01 -1.433872e-01 7.816004e-02 1.810802e-01 -3.809456e-01 -3.332519e-02 -4.261370e-02 -4.649326e-02 -3.936092e-02 -1.768867e-02 -4.614281e-02 -8.898101e-02 -2.087861e-02 -4.303237e-02 2.207312e-03 -7.600938e-02 1.417781e-02 9.382863e-02
<VARIANCE> 39
 7.777388e+00 3.373668e+01 1.840270e+01 1.766249e+01 2.321101e+01 2.511256e+01 1.632019e+01 2.907930e+01 2.120798e+01 1.527618e+01 2.533912e+01 1.500879e+01 3.168551e+01 4.557762e-01 1.827154e+00 9.819642e-01 1.977175e+00 1.983642e+00 1.810863e+00 1.881264e+00 1.696469e+00 1.695547e+00 1.215717e+00 1.826982e+00 1.563169e+00 1.113147e+00 1.016737e-01 2.985115e-01 1.897315e-01 4.551247e-01 4.115101e-01 4.574507e-01 3.996849e-01 3.308921e-01 3.928007e-01 2.475289e-01 3.718527e-01 3.235281e-01 1.898199e-01
<GCONST> 9.979111e+01
<TRANSP> 5
 0.000000e+00 1.000000e+00 0.000000e+00 0.000000e+00 0.000000e+00
 0.000000e+00 6.683578e-01 3.316422e-01 0.000000e+00 0.000000e+00
 0.000000e+00 0.000000e+00 5.735509e-01 4.264491e-01 0.000000e+00
 0.000000e+00 0.000000e+00 0.000000e+00 9.338053e-01 6.619466e-02
 0.000000e+00 0.000000e+00 0.000000e+00 0.000000e+00 0.000000e+00
<ENDHMM>
~h "r"
<BEGINHMM>
<NUMSTATES> 5
<STATE> 2
<MEAN> 39
 7.984598e-01 -1.009145e+01 -6.686745e+00 -3.461216e+00 -1.349560e+01 -6.038334e+00 -1.234204e+01 -3.072908e+00 8.848116e-01 2.381943e-01 -1.272130e+00 -1.005629e+01 7.048743e+01 3.691697e-01 3.771012e-01 2.763960e-01 1.692164e+00 2.772967e-01 -6.832200e-01 -1.487192e-01 -8.726109e-01 2.940609e-01 2.102231e-01 -3.807601e-01 7.292147e-01 -1.393121e+00 -2.152790e-01 1.126285e-01 1.920729e-01 -2.012960e-01 1.571222e-01 2.580644e-01 9.499865e-04 1.972052e-01 -3.519293e-01 -2.097453e-01 4.692299e-02 8.022061e-02 -1.461799e-01
<VARIANCE> 39
 1.556536e+01 2.946819e+01 5.488345e+01 4.106091e+01 5.451443e+01 6.369751e+01 5.866711e+01 9.548411e+01 6.452232e+01 4.745536e+01 5.280437e+01 4.323370e+01 3.152896e+01 2.033696e+00 2.215036e+00 2.915968e+00 4.403441e+00 4.922072e+00 4.833759e+00 3.835296e+00 5.310326e+00 4.970659e+00 4.006607e+00 4.046627e+00 3.427365e+00 2.583431e+00 2.920330e-01 3.201967e-01 3.710513e-01 5.241090e-01 6.115696e-01 6.237427e-01 6.868891e-01 8.603567e-01 7.716033e-01 6.346208e-01 5.940782e-01 5.369731e-01 4.961181e-01
<GCONST> 1.302770e+02
<STATE> 3
<MEAN> 39
 1.124750e+00 -7.924200e+00 -6.206003e+00 8.577799e-01 -1.223110e+01 -6.032729e+00 -1.254722e+01 -6.068256e+00 1.198094e+00 -7.347839e-01 -1.053994e+00 -7.588646e+00 6.632417e+01 -1.088048e-01 4.206789e-01 5.792930e-01 3.226239e-01 3.556641e-01 -9.085210e-02 -6.721317e-02 7.005627e-02 -5.984573e-01 -2.245177e-01 -4.460659e-02 4.556012e-01 -8.989922e-01 -1.508297e-01 -4.047374e-03 1.254101e-01 -4.980677e-01 -6.148839e-02 2.223149e-01 1.037334e-01 2.632139e-01 -2.856086e-01 -8.539867e-02 1.115354e-01 -1.597093e-01 1.630444e-01
<VARIANCE> 39
 1.888419e+01 2.212937e+01 7.228280e+01 3.530297e+01 6.419279e+01 5.678487e+01 5.192986e+01 7.675833e+01 4.807701e+01 4.008301e+01 4.698264e+01 3.557072e+01 3.678631e+01 1.957824e+00 2.260407e+00 3.084856e+00 2.786417e+00 4.773775e+00 3.874130e+00 3.645846e+00 4.452933e+00 4.237934e+00 3.297740e+00 3.420599e+00 2.680832e+00 2.784530e+00 3.781994e-01 4.422396e-01 5.128294e-01 6.226568e-01 1.054564e+00 7.731106e-01 7.169527e-01 8.793235e-01 8.457325e-01 6.776279e-01 7.303690e-01 5.428939e-01 6.293604e-01
<GCONST> 1.303193e+02
<STATE> 4
<MEAN> 39
 -4.609245e+00 -4.391675e+00 -2.751833e+00 -9.900272e-01 -6.635300e+00 -5.113480e+00 -8.814772e+00 -2.257489e+00 -1.365522e+00 -1.232462e+00 -2.352945e+00 -5.003169e+00 5.505695e+01 -1.628116e-01 1.023247e-01 2.590707e-01 -1.518884e-01 -5.846605e-02 1.587853e-01 3.845851e-02 1.805502e-01 -4.637838e-01 -1.179769e-01 1.378237e-01 2.559201e-02 -3.339291e-01 1.179527e-01 -1.472681e-01 -6.399151e-02 -1.387125e-01 -2.639766e-01 1.451377e-01 -6.503977e-02 6.077071e-02 -6.646598e-02 4.621695e-03 1.087104e-01 -1.977555e-01 2.557896e-01
<VARIANCE> 39
 4.340903e+01 4.056216e+01 5.350799e+01 3.465994e+01 5.432257e+01 5.716106e+01 4.853445e+01 5.129149e+01 4.181180e+01 3.648954e+01 3.838233e+01 3.667478e+01 1.687340e+02 2.700728e+00 3.226143e+00 3.119668e+00 2.311952e+00 3.970502e+00 3.424734e+00 3.265165e+00 3.692110e+00 3.676680e+00 2.873270e+00 2.915672e+00 2.648427e+00 4.987864e+00 5.106944e-01 5.001750e-01 5.003827e-01 5.408241e-01 7.708149e-01 7.008929e-01 6.234392e-01 7.317773e-01 6.770779e-01 5.820855e-01 5.878900e-01 5.455404e-01 6.084628e-01
<GCONST> 1.308561e+02
<TRANSP> 5
 0.000000e+00 1.000000e+00 0.000000e+00 0.000000e+00 0.000000e+00
 0.000000e+00 4.258169e-01 5.741830e-01 0.000000e+00 0.000000e+00
 0.000000e+00 0.000000e+00 5.503207e-01 4.496793e-01 0.000000e+00
 0.000000e+00 0.000000e+00 0.000000e+00 6.651345e-01 3.348655e-01
 0.000000e+00 0.000000e+00 0.000000e+00 0.000000e+00 0.000000e+00
<ENDHMM>
~h "s"
<BEGINHMM>
<NUMSTATES> 5
<STATE> 2
<MEAN> 39
 -1.267313e+01 3.041850e+00 -6.007743e-01 -2.050539e+00 -3.352300e+00 -7.224507e+00 -5.927174e+00 -2.054597e+00 -3.156470e+00 -2.695202e+00 -4.132939e+00 -2.730572e+00 6.163145e+01 -3.860188e+00 1.533347e+00 -4.439364e-01 4.897489e-01 1.427025e+00 -2.618767e-01 1.154985e+00 3.741906e-01 4.119854e-01 -4.156741e-01 4.359404e-01 9.312840e-01 -3.218631e-01 -1.749781e-01 -5.097117e-01 -2.752032e-01 -2.273158e-01 -3.820859e-01 2.522679e-01 -2.375421e-01 1.854085e-02 -1.132863e-01 6.274138e-02 2.621255e-01 -1.348200e-01 3.907306e-02
<VARIANCE> 39
 6.904482e+01 4.619451e+01 4.643513e+01 3.200704e+01 4.691166e+01 4.382850e+01 6.111851e+01 4.827698e+01 3.862744e+01 3.392134e+01 4.034272e+01 3.090427e+01 1.092114e+02 4.408798e+00 5.530972e+00 3.458250e+00 3.253622e+00 4.499464e+00 4.337936e+00 4.200199e+00 4.924170e+00 3.501314e+00 3.185349e+00 3.407010e+00 2.896361e+00 3.162462e+00 9.519880e-01 8.776855e-01 4.117229e-01 4.950383e-01 6.640373e-01 6.236534e-01 7.205108e-01 6.700994e-01 6.085851e-01 5.626405e-01 5.685367e-01 4.901681e-01 2.929301e-01
<GCONST> 1.321771e+02
<STATE> 3
<MEAN> 39
 -2.812281e+01 3.696374e+00 -6.084300e+00 -2.083073e+00 -2.494653e+00 -6.349626e+00 -3.394104e+00 -8.291287e-01 -2.290274e+00 -2.331622e+00 -5.123583e-01 -8.265767e-02 6.240617e+01 -6.655571e-01 -5.193397e-01 -4.855449e-01 -1.876179e-01 -2.562296e-01 8.757364e-02 7.798446e-02 5.234678e-02 1.223643e-01 1.135884e-01 1.746633e-01 1.726385e-01 -2.359421e-01 8.707594e-01 -1.268817e-01 2.715218e-01 -3.686079e-02 -1.604884e-01 -9.700999e-02 -1.669744e-01 -9.910357e-02 4.237840e-03 1.206417e-03 -1.923911e-01 -1.627283e-01 7.400951e-02
<VARIANCE> 39
 2.194707e+01 2.222745e+01 3.842050e+01 2.586920e+01 2.987337e+01 2.844375e+01 3.953755e+01 2.900044e+01 2.702488e+01 2.214459e+01 2.310036e+01 1.932206e+01 2.312386e+01 2.284363e+00 1.465909e+00 1.780618e+00 1.446266e+00 1.656507e+00 1.818086e+00 1.819257e+00 1.822932e+00 1.852258e+00 1.663204e+00 1.718385e+00 1.484978e+00 8.695722e-01 4.572039e-01 2.984453e-01 3.193841e-01 3.076914e-01 3.676061e-01 3.964304e-01 4.186232e-01 4.167670e-01 3.871868e-01 3.563970e-01 3.593496e-01 3.495370e-01 1.557343e-01
<GCONST> 1.066741e+02
<STATE> 4
<MEAN> 39
 -2.030556e+01 1.026045e+00 -4.205404e+00 -3.037300e+00 -4.388545e+00 -7.233337e+00 -4.981417e+00 -1.842309e+00 -1.502922e+00 -2.409453e+00 -2.498689e+00 -1.236157e+00 5.899656e+01 4.045361e+00 -5.948325e-01 8.883845e-01 -2.596890e-01 -1.007790e+00 -1.355048e-01 -1.417943e+00 -7.493545e-01 -1.149220e-01 6.372839e-02 -6.123809e-01 -1.212322e+00 5.037405e-01 6.938592e-01 -1.349909e-01 1.240591e-01 -5.251728e-02 -2.314666e-01 2.409905e-01 -3.843724e-01 -1.032095e-01 -1.375008e-01 2.873783e-02 1.531518e-01 -3.126419e-01 2.943541e-01
<VARIANCE> 39
 7.020908e+01 2.846815e+01 4.345919e+01 2.801455e+01 3.198379e+01 3.669254e+01 4.606969e+01 3.554993e+01 3.094342e+01 2.535971e+01 2.917298e+01 2.534000e+01 1.093064e+02 7.919022e+00 3.537906e+00 4.526320e+00 3.263163e+00 3.527055e+00 4.379784e+00 4.602489e+00 4.667623e+00 3.832623e+00 3.036089e+00 3.079673e+00 3.242159e+00 5.366113e+00 1.294314e+00 5.958271e-01 5.547385e-01 4.920200e-01 5.841257e-01 7.135203e-01 7.857602e-01 7.989408e-01 6.327079e-01 5.390824e-01 6.100131e-01 5.407353e-01 4.987643e-01
<GCONST> 1.313020e+02
<TRANSP> 5
 0.000000e+00 1.000000e+00 0.000000e+00 0.000000e+00 0.000000e+00
 0.000000e+00 7.663772e-01 2.336228e-01 0.000000e+00 0.000000e+00
 0.000000e+00 0.000000e+00 8.371695e-01 1.628305e-01 0.000000e+00
 0.000000e+00 0.000000e+00 0.000000e+00 7.217468e-01 2.782532e-01
 0.000000e+00 0.000000e+00 0.000000e+00 0.000000e+00 0.000000e+00
<ENDHMM>
~h "t"
<BEGINHMM>
<NUMSTATES> 5
<STATE> 2
<MEAN> 39
 -6.179318e+00 3.412293e-01 -2.572128e+00 -2.515746e+00 -5.941762e+00 -5.187803e+00 -7.526821e+00 -3.528987e+00 -2.398538e+00 -1.936195e+00 -3.801286e+00 -4.877495e+00 4.372770e+01 -4.277067e-01 2.930869e-01 -6.721774e-02 9.319441e-02 1.115673e-01 -3.676126e-02 2.834776e-01 -2.866536e-03 -1.179267e-02 -5.930432e-02 1.570901e-02 3.084686e-01 -1.669823e+00 -1.400165e-01 -2.358159e-01 -4.093122e-02 -1.314092e-01 -4.481003e-02 1.580905e-02 -1.633221e-02 4.881108e-02 -1.862356e-02 8.224342e-03 8.597834e-02 3.007594e-02 5.190545e-01
<VARIANCE> 39
 3.837769e+01 3.288602e+01 3.606356e+01 3.110922e+01 3.497136e+01 3.740077e+01 4.208575e+01 4.127182e+01 3.506707e+01 3.087899e+01 3.387673e+01 3.609295e+01 9.072942e+01 1.307834e+00 1.643913e+00 1.416326e+00 1.717913e+00 2.066552e+00 2.022102e+00 2.241011e+00 2.309613e+00 2.191726e+00 2.196941e+00 2.134133e+00 1.809218e+00 4.570305e+00 2.834536e-01 3.920574e-01 3.150664e-01 4.038089e-01 4.391086e-01 4.179604e-01 4.525791e-01 4.748213e-01 4.541416e-01 4.379185e-01 4.321237e-01 3.625387e-01 6.399908e-01
<GCONST> 1.168448e+02
<STATE> 3
<MEAN> 39
 -6.859812e+00 2.933386e+00 -6.547109e-01 -1.842381e+00 -7.156840e+00 -6.541373e+00 -8.358389e+00 -5.463626e+00 -3.473401e+00 -1.618254e+00 -3.151687e+00 -4.105991e+00 4.177665e+01 -1.857260e+00 -1.501970e+00 -6.609758e-01 -8.369632e-01 4.600448e-01 -8.732215e-02 5.151999e-01 3.983972e-01 1.557614e-01 -2.435484e-01 3.624247e-01 7.709810e-01 2.141614e+00 1.337842e-01 -6.147382e-01 -1.394408e-01 -3.609047e-01 -2.404641e-01 3.023564e-02 -2.343829e-01 7.417347e-02 8.974504e-02 -2.436467e-03 5.117368e-02 -2.405126e-01 2.150348e+00
<VARIANCE> 39
 3.700740e+01 3.042654e+01 4.576962e+01 4.031848e+01 4.119728e+01 4.151321e+01 4.003881e+01 4.257603e+01 4.091949e+01 3.105584e+01 3.348986e+01 2.908502e+01 6.966916e+01 3.574342e+00 4.272144e+00 4.078495e+00 3.615617e+00 4.223897e+00 4.079050e+00 3.822649e+00 4.127004e+00 4.055771e+00 3.388335e+00 3.340606e+00 2.904573e+00 1.723967e+01 7.896436e-01 6.408412e-01 6.898117e-01 6.831866e-01 8.262519e-01 7.892537e-01 7.440801e-01 8.316822e-01 8.073770e-01 6.618593e-01 6.706097e-01 5.918068e-01 1.419564e+00
<GCONST> 1.346030e+02
<STATE> 4
<MEAN> 39
 -1.313788e+01 -5.655736e+00 -4.088263e+00 -6.070323e+00 -5.999295e+00 -7.260781e+00 -6.927346e+00 -3.307660e+00 -2.401940e+00 -2.870157e+00 -2.512645e+00 -2.062309e+00 6.091594e+01 1.028802e+00 -1.385874e+00 -2.894205e-01 -1.134011e+00 -1.010329e+00 -3.249943e-02 -1.263750e+00 3.207382e-02 3.415150e-01 -1.312781e-02 2.741989e-01 -1.232748e+00 6.425670e+00 1.297577e+00 4.499648e-01 3.761133e-01 1.686109e-01 -6.060765e-01 4.619757e-01 -6.360949e-01 -1.218789e-01 -1.019556e-01 1.243085e-01 1.280048e-01 -7.320697e-01 -6.127219e-01
<VARIANCE> 39
 2.486430e+01 2.406696e+01 3.256090e+01 2.667599e+01 3.120497e+01 3.499017e+01 3.585503e+01 2.916005e+01 3.243847e+01 2.618194e+01 2.612677e+01 2.358617e+01 8.134689e+01 5.723549e+00 4.777228e+00 6.845098e+00 4.772916e+00 5.629763e+00 5.936792e+00 5.192346e+00 5.983469e+00 6.618248e+00 4.083532e+00 4.647306e+00 4.579722e+00 1.227989e+01 6.785372e-01 7.947046e-01 1.018005e+00 7.265971e-01 9.216962e-01 1.082639e+00 9.255891e-01 1.152223e+00 8.917469e-01 7.865226e-01 8.239664e-01 7.033613e-01 1.577485e+00
<GCONST> 1.376548e+02
<TRANSP> 5
 0.000000e+00 1.000000e+00 0.000000e+00 0.000000e+00 0.000000e+00
 0.000000e+00 8.357216e-01 1.642784e-01 0.000000e+00 0.000000e+00
 0.000000e+00 0.000000e+00 6.243641e-01 3.756358e-01 0.000000e+00
 0.000000e+00 0.000000e+00 0.000000e+00 5.204303e-01 4.795698e-01
 0.000000e+00 0.000000e+00 0.000000e+00 0.000000e+00 0.000000e+00
<ENDHMM>
~h "u"
<BEGINHMM>
<NUMSTATES> 5
<STATE> 2
<MEAN> 39
 -2.241241e-01 5.607671e-01 -3.116559e+00 -7.551810e+00 -1.125336e+01 -2.425225e+00 -1.477048e+01 -7.972551e+00 -6.544510e+00 -2.627149e+00 5.567878e-01 -5.892344e+00 6.251308e+01 2.143751e+00 5.938786e-01 -4.372717e-01 -1.689113e+00 -1.968438e+00 1.990946e+00 -1.630656e+00 -1.248786e+00 -7.704613e-01 -3.479896e-02 1.837623e+00 -8.330801e-01 1.473127e+00 -2.530202e-01 5.264100e-02 1.261742e-01 -9.734650e-02 -3.688937e-02 4.266887e-01 2.981093e-01 1.089347e-01 -8.664794e-02 -3.378517e-02 7.821854e-02 6.148314e-02 -4.645268e-01
<VARIANCE> 39
 3.328601e+01 3.917487e+01 4.507272e+01 8.271686e+01 5.819730e+01 7.121351e+01 7.503542e+01 7.106062e+01 5.497018e+01 4.702000e+01 4.387597e+01 3.810182e+01 1.117091e+02 5.384416e+00 3.315594e+00 4.940040e+00 5.866397e+00 6.842854e+00 5.688413e+00 5.953568e+00 7.730281e+00 5.489073e+00 5.163304e+00 4.930343e+00 4.317006e+00 5.524320e+00 7.864991e-01 5.874699e-01 5.540596e-01 1.004741e+00 8.555793e-01 8.916214e-01 1.106480e+00 9.443536e-01 8.771251e-01 7.526869e-01 6.899470e-01 7.047825e-01 1.248876e+00
<GCONST> 1.433324e+02
<STATE> 3
<MEAN> 39
 2.815975e+00 -2.920348e-01 -3.939702e+00 -1.057055e+01 -1.568748e+01 4.923200e+00 -1.865687e+01 -1.215214e+01 -8.446165e+00 -2.982824e+00 7.288782e+00 -7.460165e+00 6.790830e+01 3.600785e-01 3.535534e-01 -8.422141e-03 -8.710683e-01 -5.114107e-01 1.260299e+00 -1.800414e-01 -8.338306e-02 -5.067654e-01 -2.171467e-01 6.328799e-01 -8.584747e-02 -7.382821e-02 -4.483853e-01 5.297447e-02 2.824834e-01 5.608488e-01 6.218379e-01 -7.869526e-01 6.049396e-01 4.919899e-01 2.458661e-01 -3.332926e-02 -9.127582e-01 2.088838e-01 -5.770783e-01
<VARIANCE> 39
 1.353081e+01 3.130752e+01 3.982499e+01 7.398120e+01 5.209679e+01 7.011009e+01 7.089211e+01 9.305746e+01 7.062608e+01 6.101311e+01 4.480944e+01 4.182454e+01 1.994820e+01 1.126973e+00 2.514326e+00 2.304571e+00 5.548307e+00 4.315543e+00 5.807322e+00 4.879004e+00 5.071806e+00 5.043877e+00 4.303396e+00 4.575957e+00 3.151572e+00 1.951712e+00 4.007551e-01 4.521748e-01 4.527019e-01 7.553447e-01 8.425278e-01 7.876185e-01 9.318708e-01 1.096461e+00 9.618357e-01 9.009432e-01 6.942996e-01 7.314151e-01 3.591406e-01
<GCONST> 1.330297e+02
<STATE> 4
<MEAN> 39
 3.660964e+00 3.266440e+00 -4.092881e+00 -1.445186e+01 -1.594222e+01 6.017361e+00 -1.574747e+01 -8.632621e+00 -9.749403e+00 -4.887477e+00 3.342492e+00 -6.708990e+00 6.422372e+01 -1.230840e-01 -5.663727e-02 2.976390e-01 7.081779e-01 6.063033e-01 -5.986921e-01 4.795357e-01 3.309397e-02 3.596202e-01 3.794283e-01 -6.956993e-01 -6.914087e-03 -7.267718e-01 -1.560382e-01 -1.121776e-01 1.207883e-01 3.813453e-01 2.292483e-01 -2.905192e-01 1.280094e-01 -4.282676e-02 1.534632e-01 1.383339e-01 -2.005800e-01 9.830218e-03 -1.749457e-01
<VARIANCE> 39
 1.260783e+01 3.983025e+01 3.770047e+01 7.096066e+01 5.165321e+01 6.389603e+01 5.732539e+01 7.748122e+01 6.076844e+01 6.332995e+01 5.197879e+01 4.111906e+01 4.268868e+01 7.618362e-01 2.355222e+00 1.790809e+00 3.465582e+00 3.145396e+00 3.153444e+00 3.172532e+00 3.989666e+00 3.055135e+00 3.445462e+00 3.740969e+00 2.743565e+00 3.005862e+00 1.553307e-01 3.251562e-01 2.808745e-01 4.528769e-01 4.998642e-01 5.081967e-01 5.543029e-01 6.707687e-01 5.458310e-01 6.206752e-01 6.038963e-01 5.145804e-01 2.576659e-01
<GCONST> 1.239766e+02
<TRANSP> 5
 0.000000e+00 1.000000e+00 0.000000e+00 0.000000e+00 0.000000e+00
 0.000000e+00 4.793943e-01 5.206057e-01 0.000000e+00 0.000000e+00
 0.000000e+00 0.000000e+00 5.928588e-01 4.071412e-01 0.000000e+00
 0.000000e+00 0.000000e+00 0.000000e+00 7.840470e-01 2.159530e-01
 0.000000e+00 0.000000e+00 0.000000e+00 0.000000e+00 0.000000e+00
<ENDHMM>
~h "w"
<BEGINHMM>
<NUMSTATES> 5
<STATE> 2
<MEAN> 39
 -1.154000e+00 -1.477652e+00 -4.030386e+00 -9.073821e+00 -1.028427e+01 3.096809e+00 -1.054562e+01 -4.159920e+00 -5.369361e+00 -2.322955e+00 7.202289e-01 -6.646297e+00 5.657438e+01 8.732185e-01 5.122136e-01 -9.308719e-02 -1.056826e+00 -6.819922e-01 8.704089e-01 -1.460760e-01 -2.046822e-01 -5.316274e-01 -2.172578e-01 6.005441e-01 1.470265e-01 3.237932e-01 -1.118581e-01 -1.002912e-01 1.026478e-01 -5.892073e-02 -9.728015e-02 -5.492225e-02 8.310255e-02 1.588484e-01 5.372859e-02 -8.722672e-02 -4.250645e-02 2.895485e-02 1.055765e-01
<VARIANCE> 39
 5.963345e+01 6.036929e+01 5.298277e+01 7.919348e+01 7.685753e+01 7.000352e+01 7.128023e+01 5.813937e+01 6.989152e+01 4.706980e+01 5.609818e+01 4.374573e+01 1.929481e+02 2.833709e+00 2.735411e+00 3.192403e+00 4.406334e+00 4.553541e+00 4.219121e+00 3.941802e+00 3.905691e+00 3.769742e+00 3.391830e+00 3.584582e+00 2.924150e+00 5.255944e+00 4.841482e-01 4.361077e-01 4.833986e-01 6.498181e-01 7.053227e-01 6.135198e-01 7.145858e-01 6.452395e-01 6.754107e-01 6.287445e-01 6.433964e-01 4.689328e-01 4.649121e-01
<GCONST> 1.360872e+02
<STATE> 3
<MEAN> 39
 6.200303e+00 3.412084e-02 -4.511178e+00 -2.013860e+01 -1.781483e+01 9.257118e+00 -1.226912e+01 -3.333313e+00 -6.397958e+00 -4.853775e+00 3.828359e+00 -5.837202e+00 6.577293e+01 9.438967e-03 -2.303312e-01 -1.304816e-01 -5.764437e-01 -1.318177e-01 4.290415e-01 8.232573e-02 3.861119e-02 1.078508e-01 -5.449710e-02 2.188175e-01 1.192668e-01 3.205436e-01 -2.458466e-01 -4.594739e-01 -1.476370e-01 3.222162e-01 4.309753e-01 -4.704882e-02 -6.220564e-02 -7.073162e-02 1.872392e-01 3.287139e-01 -3.095885e-02 -3.160885e-01 2.594573e-01
<VARIANCE> 39
 1.041890e+01 3.716510e+01 3.147900e+01 5.455186e+01 5.025904e+01 4.596168e+01 3.959168e+01 5.794213e+01 6.139317e+01 5.013842e+01 4.118486e+01 3.301556e+01 2.395325e+01 4.494767e-01 2.466874e+00 1.259377e+00 1.760756e+00 2.303608e+00 2.184616e+00 1.780256e+00 1.791405e+00 2.011012e+00 2.392802e+00 2.259414e+00 1.894114e+00 1.598161e+00 7.608806e-02 1.680768e-01 1.826473e-01 2.667263e-01 3.396907e-01 4.155907e-01 3.386797e-01 3.616599e-01 4.037444e-01 3.711753e-01 4.131859e-01 3.788191e-01 1.231386e-01
<GCONST> 1.088746e+02
<STATE> 4
<MEAN> 39
 3.327044e+00 -8.011169e+00 -8.489011e+00 -1.967290e+01 -1.173628e+01 1.198432e+01 -1.216440e+01 -4.418739e+00 -5.375873e+00 2.365908e-02 5.778945e+00 -1.006455e+01 7.127140e+01 -9.658849e-01 -2.158608e+00 -4.025735e-01 1.479916e+00 1.820665e+00 -5.452602e-01 -5.007238e-01 1.409783e-01 1.174654e+00 9.572430e-01 -9.110444e-01 -1.927392e+00 1.311298e+00 -7.329961e-02 1.569115e-01 3.643811e-01 4.926453e-01 -2.009140e-01 -6.973410e-01 -2.542024e-02 3.814543e-01 1.723436e-01 -4.042056e-01 -5.924491e-01 4.928436e-02 -2.115002e-01
<VARIANCE> 39
 1.274440e+01 3.810643e+01 3.284892e+01 6.145103e+01 4.388309e+01 6.124291e+01 4.948962e+01 5.861071e+01 7.014218e+01 6.067475e+01 4.903895e+01 4.031493e+01 2.199797e+01 2.903571e-01 1.321879e+00 1.536708e+00 2.056473e+00 2.317783e+00 3.779566e+00 2.562993e+00 2.969703e+00 2.613682e+00 2.687187e+00 3.509277e+00 1.987472e+00 6.313416e-01 8.206131e-02 2.065436e-01 1.922277e-01 3.142259e-01 5.135276e-01 3.990962e-01 3.933107e-01 4.604588e-01 4.105202e-01 4.880586e-01 4.402084e-01 5.680143e-01 1.018901e-01
<GCONST> 1.127472e+02
<TRANSP> 5
 0.000000e+00 1.000000e+00 0.000000e+00 0.000000e+00 0.000000e+00
 0.000000e+00 7.858915e-01 2.141086e-01 0.000000e+00 0.000000e+00
 0.000000e+00 0.000000e+00 7.977384e-01 2.022616e-01 0.000000e+00
 0.000000e+00 0.000000e+00 0.000000e+00 6.562410e-01 3.437590e-01
 0.000000e+00 0.000000e+00 0.000000e+00 0.000000e+00 0.000000e+00
<ENDHMM>
~h "y"
<BEGINHMM>
<NUMSTATES> 5
<STATE> 2
<MEAN> 39
 -8.886879e+00 -4.263939e-01 4.036856e+00 -2.926116e+00 -8.669534e+00 -3.862221e+00 -7.002268e+00 -9.438158e-01 -5.991021e+00 -3.279768e+00 -5.601354e-01 -3.447474e+00 4.784987e+01 -3.391949e-03 2.266509e-01 9.557686e-01 -1.032106e-01 -5.996161e-01 -6.587145e-02 -5.906960e-01 6.180816e-02 -3.822489e-01 -2.329737e-01 5.617948e-01 7.686552e-02 5.465764e-01 6.769075e-02 -9.266724e-02 -3.431389e-02 -4.011612e-02 -4.163758e-02 3.131094e-02 -7.813836e-02 -1.012516e-02 6.332048e-03 -2.089432e-02 1.649885e-02 -1.894040e-02 1.904093e-01
<VARIANCE> 39
 2.898951e+01 5.197821e+01 7.742465e+01 3.297404e+01 7.227894e+01 4.887560e+01 5.831764e+01 4.782669e+01 4.655098e+01 3.803341e+01 3.284910e+01 3.122316e+01 1.902526e+02 2.042031e+00 2.465343e+00 4.123465e+00 2.001161e+00 3.738257e+00 2.975876e+00 3.981856e+00 3.060177e+00 3.272050e+00 3.049545e+00 2.868855e+00 2.236427e+00 5.089938e+00 3.202471e-01 3.998289e-01 5.357342e-01 3.687486e-01 6.106939e-01 5.694067e-01 6.044002e-01 5.240799e-01 5.500798e-01 4.945723e-01 4.601802e-01 3.902161e-01 4.256716e-01
<GCONST> 1.272701e+02
<STATE> 3
<MEAN> 39
 -5.340805e+00 -2.663256e+00 1.590256e+01 -6.368132e+00 -2.169179e+01 -6.687780e+00 -1.724768e+01 -3.601839e-01 -1.021891e+01 -6.722513e+00 6.822512e+00 -4.353233e+00 6.978572e+01 8.108214e-02 -6.421147e-01 -2.423729e-01 -2.418659e-01 -6.652162e-01 -3.654460e-01 2.297219e-02 3.700215e-01 2.894629e-01 2.887208e-01 3.803480e-01 9.009876e-02 8.307719e-01 8.556265e-02 -3.398721e-01 -7.353552e-01 -1.408632e-02 2.938696e-01 3.506514e-02 4.308500e-01 4.161761e-01 3.906372e-01 1.431161e-01 -4.528194e-01 -2.348359e-01 -2.554951e-02
<VARIANCE> 39
 1.382210e+01 4.426401e+01 5.231787e+01 3.812713e+01 3.295679e+01 5.652378e+01 5.512956e+01 6.467867e+01 4.941245e+01 6.553098e+01 3.126086e+01 3.213700e+01 2.497815e+01 5.866548e-01 2.598705e+00 3.575186e+00 1.299626e+00 2.018444e+00 1.937801e+00 3.058681e+00 3.443538e+00 2.892403e+00 2.222510e+00 1.880447e+00 1.533532e+00 1.874882e+00 1.019702e-01 1.844143e-01 2.575967e-01 2.133506e-01 4.788389e-01 3.985907e-01 5.197998e-01 4.182908e-01 3.941149e-01 4.443212e-01 3.902011e-01 2.913772e-01 2.099996e-01
<GCONST> 1.133043e+02
<STATE> 4
<MEAN> 39
 -3.631024e+00 -1.055851e+01 5.861252e+00 -9.045981e+00 -2.209508e+01 -8.668513e+00 -1.096506e+01 8.291055e+00 -4.194413e+00 -4.297488e+00 2.496912e+00 -6.552613e+00 7.470013e+01 5.061708e-01 -1.736755e+00 -2.767386e+00 -1.462244e-01 1.676663e+00 7.972798e-01 1.179654e+00 1.753997e+00 1.208628e+00 -3.762761e-01 -2.357742e+00 -1.013824e+00 6.681566e-01 -3.545152e-03 2.074881e-01 -2.326859e-02 1.373908e-01 6.908228e-01 4.967228e-01 -3.489960e-01 -6.024496e-01 -2.788334e-01 -1.844369e-01 -3.063884e-01 -8.458672e-02 -2.922755e-01
<VARIANCE> 39
 1.315698e+01 2.918055e+01 4.191066e+01 3.579518e+01 3.394951e+01 4.392473e+01 4.863641e+01 6.313091e+01 4.841404e+01 5.127826e+01 4.925346e+01 2.812521e+01 1.673412e+01 3.540933e-01 1.317053e+00 1.757701e+00 1.061937e+00 2.301789e+00 2.083152e+00 3.114681e+00 3.477093e+00 2.564179e+00 2.764555e+00 2.558472e+00 1.651551e+00 4.839431e-01 7.357940e-02 1.817714e-01 2.795823e-01 2.221359e-01 3.779187e-01 3.644446e-01 4.835292e-01 6.243942e-01 4.208493e-01 4.785470e-01 5.870138e-01 2.853310e-01 1.064008e-01
<GCONST> 1.087279e+02
<TRANSP> 5
 0.000000e+00 1.000000e+00 0.000000e+00 0.000000e+00 0.000000e+00
 0.000000e+00 8.489275e-01 1.510725e-01 0.000000e+00 0.000000e+00
 0.000000e+00 0.000000e+00 7.932078e-01 2.067922e-01 0.000000e+00
 0.000000e+00 0.000000e+00 0.000000e+00 6.762472e-01 3.237528e-01
 0.000000e+00 0.000000e+00 0.000000e+00 0.000000e+00 0.000000e+00
<ENDHMM>
~h "z"
<BEGINHMM>
<NUMSTATES> 5
<STATE> 2
<MEAN> 39
 -8.676486e+00 2.832054e+00 1.231082e+00 2.309232e-01 -5.127395e+00 -8.865202e+00 -9.303686e+00 -3.222883e+00 -3.461556e+00 -3.147992e+00 -2.730824e+00 -2.452100e+00 5.576482e+01 -1.371069e+00 1.578780e+00 3.567387e-03 6.268901e-01 8.832875e-01 -4.130051e-01 5.866912e-01 -7.046201e-02 9.311049e-02 -1.278193e-01 -1.386428e-01 5.490585e-01 -1.887494e-02 -1.340070e-01 -9.752505e-02 -1.052542e-01 -1.047613e-01 -7.589091e-02 2.291470e-01 7.056340e-02 9.413201e-02 -1.661533e-02 2.408865e-02 9.425557e-02 -9.337758e-02 5.010920e-02
<VARIANCE> 39
 3.196866e+01 5.471553e+01 4.668971e+01 3.239182e+01 4.275965e+01 4.195590e+01 7.082246e+01 4.426565e+01 4.174249e+01 2.736563e+01 3.467095e+01 2.985244e+01 1.714401e+02 3.961735e+00 4.022726e+00 2.555236e+00 2.551944e+00 3.414553e+00 3.547807e+00 3.838930e+00 3.934980e+00 2.902238e+00 2.604822e+00 2.690512e+00 2.563850e+00 4.064200e+00 4.487123e-01 5.766472e-01 4.052727e-01 3.829669e-01 5.018256e-01 6.072791e-01 6.618457e-01 6.289734e-01 5.082180e-01 4.454324e-01 4.878691e-01 4.818705e-01 4.208553e-01
<GCONST> 1.272664e+02
<STATE> 3
<MEAN> 39
 -1.876520e+01 1.166300e+01 1.125402e+00 3.664069e+00 -2.850648e+00 -9.333051e+00 -7.192574e+00 -3.942648e+00 -3.574843e+00 -2.885575e+00 -2.422371e+00 -6.448339e-01 6.489892e+01 -9.563216e-01 1.062250e-02 -9.367853e-02 1.599490e-01 2.297641e-01 3.228271e-01 2.900004e-01 1.119826e-01 -2.620300e-02 4.565036e-02 2.242046e-01 1.640913e-01 -4.656723e-02 5.082358e-01 -4.515910e-01 1.259434e-01 -1.731346e-01 -3.519890e-01 -1.072418e-01 -2.400343e-01 -1.155009e-01 -2.350725e-02 -2.787920e-03 3.872410e-03 -6.036257e-02 1.795169e-01
<VARIANCE> 39
 4.155698e+01 3.019850e+01 4.250752e+01 3.755932e+01 3.633099e+01 3.746715e+01 5.008057e+01 3.511201e+01 2.551089e+01 1.996558e+01 2.574504e+01 1.939131e+01 2.404397e+01 1.417696e+00 1.588956e+00 1.428384e+00 1.230613e+00 1.610623e+00 1.708716e+00 1.768396e+00 1.741588e+00 1.680471e+00 1.496241e+00 1.454060e+00 1.326022e+00 7.626182e-01 2.771720e-01 3.068322e-01 2.487981e-01 2.639595e-01 3.595595e-01 3.872855e-01 3.760709e-01 3.606687e-01 3.502906e-01 3.343326e-01 2.999936e-01 2.889870e-01 1.357327e-01
<GCONST> 1.055791e+02
<STATE> 4
<MEAN> 39
 -1.481909e+01 6.530713e+00 2.764141e+00 1.670152e+00 -6.290668e+00 -1.080678e+01 -9.557546e+00 -5.330564e+00 -3.274426e+00 -2.601475e+00 -1.792493e+00 1.001699e-01 6.769139e+01 3.136880e+00 -2.349046e+00 2.920959e-01 -1.054073e+00 -2.457654e+00 -5.816839e-01 -1.683674e+00 -4.480828e-01 3.795222e-01 -1.287543e-01 2.507462e-01 -5.849658e-01 1.448887e+00 4.847807e-01 -3.636556e-01 -6.265033e-02 -2.241546e-01 -3.411760e-01 4.083981e-01 -2.363173e-01 1.885295e-01 1.159993e-01 -5.223215e-02 1.600882e-01 -4.627155e-01 4.234306e-02
<VARIANCE> 39
 5.909222e+01 3.224714e+01 4.963706e+01 2.991329e+01 4.134084e+01 3.753592e+01 5.193758e+01 3.831790e+01 3.769168e+01 2.134100e+01 2.497172e+01 1.900330e+01 3.050988e+01 3.598554e+00 4.204775e+00 2.731350e+00 3.204743e+00 2.853910e+00 4.037336e+00 3.399241e+00 4.914404e+00 4.174642e+00 2.512567e+00 2.304703e+00 2.572678e+00 1.495468e+00 9.391652e-01 5.192450e-01 2.890859e-01 3.793914e-01 5.711154e-01 7.550625e-01 6.602381e-01 7.525815e-01 5.410650e-01 3.900670e-01 4.334387e-01 3.976748e-01 2.176902e-01
<GCONST> 1.231178e+02
<TRANSP> 5
 0.000000e+00 1.000000e+00 0.000000e+00 0.000000e+00 0.000000e+00
 0.000000e+00 8.254611e-01 1.745388e-01 0.000000e+00 0.000000e+00
 0.000000e+00 0.000000e+00 8.375978e-01 1.624021e-01 0.000000e+00
 0.000000e+00 0.000000e+00 0.000000e+00 7.202540e-01 2.797460e-01
 0.000000e+00 0.000000e+00 0.000000e+00 0.000000e+00 0.000000e+00
<ENDHMM>
~h "ai"
<BEGINHMM>
<NUMSTATES> 5
<STATE> 2
<MEAN> 39
 -4.912571e-01 -1.517044e+01 -5.644516e+00 -9.558379e+00 -1.166805e+01 2.150621e-01 -1.282439e+01 4.382481e+00 -4.677365e-01 -2.959937e+00 -2.955482e+00 -1.265716e+01 7.576315e+01 -2.139030e-01 -1.421444e+00 4.052387e-01 2.416003e-01 -6.636974e-01 -4.054673e-01 5.543826e-01 2.182023e+00 5.285525e-02 -1.308426e+00 -5.897340e-01 5.137681e-02 9.589070e-01 -2.626126e-01 5.616000e-01 4.617948e-01 2.140077e-01 -8.142008e-02 -3.380880e-01 3.012631e-01 -3.436147e-01 -4.559700e-01 3.624905e-02 1.938521e-01 5.946408e-01 -6.127250e-01
<VARIANCE> 39
 1.504707e+01 2.701457e+01 5.238843e+01 3.156624e+01 5.713372e+01 1.038502e+02 5.165065e+01 7.356704e+01 7.163593e+01 5.596764e+01 5.744459e+01 3.428767e+01 1.502819e+01 1.379807e+00 1.937339e+00 2.731332e+00 2.338621e+00 3.513920e+00 5.441301e+00 3.250927e+00 3.717392e+00 3.267049e+00 2.746058e+00 3.295196e+00 3.434394e+00 1.158360e+00 3.371281e-01 2.566497e-01 3.434592e-01 4.323664e-01 6.908827e-01 6.459898e-01 5.109531e-01 7.532749e-01 5.770971e-01 5.872784e-01 7.670364e-01 4.549727e-01 3.853813e-01
<GCONST> 1.244618e+02
<STATE> 3
<MEAN> 39
 -3.373222e+00 -1.454562e+01 2.264050e+00 -9.927242e+00 -1.903780e+01 -7.658731e+00 -9.067533e+00 8.167112e+00 -4.818413e+00 -5.966154e+00 7.444769e-01 -8.851971e+00 7.559821e+01 -2.158393e-01 8.402497e-01 1.494906e+00 -3.980473e-02 -1.299314e+00 -7.992157e-01 -9.710392e-02 -3.980640e-01 -1.015713e+00 4.412851e-01 1.121186e+00 3.842525e-01 -4.004035e-01 3.869409e-02 2.037131e-01 -1.845125e-02 4.991940e-02 1.864955e-01 1.016500e-01 -2.539797e-01 -3.836190e-01 -1.702783e-02 1.347985e-01 -6.292438e-03 -8.594357e-02 -1.552664e-01
<VARIANCE> 39
 1.448787e+01 3.287299e+01 5.713622e+01 2.887347e+01 5.747028e+01 6.681319e+01 3.481966e+01 6.631770e+01 5.912376e+01 5.537163e+01 5.710044e+01 2.557026e+01 1.107353e+01 1.790208e-01 8.291483e-01 1.301274e+00 7.243422e-01 1.846524e+00 1.753293e+00 1.926780e+00 2.934163e+00 1.556503e+00 1.794111e+00 2.062119e+00 1.526801e+00 1.828045e-01 3.723907e-02 1.213746e-01 1.702127e-01 1.492750e-01 3.291559e-01 3.040639e-01 2.793408e-01 4.496141e-01 2.627468e-01 3.538515e-01 3.946059e-01 2.451486e-01 3.696289e-02
<GCONST> 9.899127e+01
<STATE> 4
<MEAN> 39
 -3.636399e+00 -3.952473e+00 1.028228e+01 -5.603474e+00 -2.055495e+01 -8.560363e+00 -1.207209e+01 1.165869e+00 -1.052176e+01 -2.494812e+00 3.751234e+00 -6.618415e+00 6.392450e+01 1.561944e-01 8.690703e-01 -1.585569e-01 7.237548e-01 9.580477e-01 2.174432e-02 1.424053e-01 -7.700886e-01 -4.873648e-02 -8.034629e-02 -4.829942e-01 6.497597e-03 -1.548407e+00 3.886507e-02 5.356492e-03 -2.839891e-01 6.537278e-02 2.958551e-01 1.020340e-01 1.795386e-01 2.681612e-02 1.604540e-01 -1.026362e-02 -2.112603e-01 -3.325166e-02 -1.638918e-01
<VARIANCE> 39
 1.836823e+01 4.922109e+01 5.284449e+01 3.943569e+01 5.035613e+01 5.791370e+01 5.740377e+01 7.534634e+01 4.799427e+01 4.617002e+01 4.468132e+01 3.263564e+01 1.176144e+02 9.933250e-01 1.797432e+00 2.158324e+00 1.610015e+00 2.584009e+00 2.363312e+00 3.210982e+00 2.983342e+00 2.778995e+00 2.123307e+00 2.229190e+00 1.627101e+00 1.945903e+00 1.600106e-01 2.850377e-01 2.858091e-01 2.899960e-01 4.660736e-01 4.393559e-01 5.487604e-01 5.843999e-01 4.981514e-01 4.115146e-01 4.182381e-01 3.176038e-01 2.946991e-01
<GCONST> 1.187294e+02
<TRANSP> 5
 0.000000e+00 1.000000e+00 0.000000e+00 0.000000e+00 0.000000e+00
 0.000000e+00 7.175612e-01 2.824388e-01 0.000000e+00 0.000000e+00
 0.000000e+00 0.000000e+00 8.471087e-01 1.528912e-01 0.000000e+00
 0.000000e+00 0.000000e+00 0.000000e+00 8.615293e-01 1.384707e-01
 0.000000e+00 0.000000e+00 0.000000e+00 0.000000e+00 0.000000e+00
<ENDHMM>
~h "au"
<BEGINHMM>
<NUMSTATES> 5
<STATE> 2
<MEAN> 39
 -7.068016e-01 -1.126194e+01 -1.116343e+01 -1.379749e+01 -1.019273e+01 4.791156e+00 -1.257326e+01 -3.635656e+00 1.574658e+00 -1.325511e-01 -1.425472e+00 -1.329073e+01 7.479532e+01 5.593173e-01 -7.711388e-01 -1.048254e+00 -1.138405e+00 3.694587e-01 2.276063e+00 -2.407984e-01 1.556171e-01 2.267746e-01 -2.301797e-02 4.525132e-01 -1.401777e+00 1.043821e+00 -2.828064e-01 5.434253e-01 4.491098e-01 1.227367e-01 1.629454e-01 -2.679011e-01 1.789941e-01 -3.602631e-01 -4.564595e-01 -5.593523e-02 2.451919e-01 6.631569e-01 -8.879582e-01
<VARIANCE> 39
 1.477974e+01 2.330884e+01 4.023378e+01 4.525891e+01 4.864711e+01 7.960333e+01 4.467659e+01 8.445013e+01 5.191259e+01 5.847298e+01 4.761302e+01 3.465305e+01 1.937182e+01 2.660981e+00 2.539946e+00 2.153021e+00 2.964357e+00 3.841822e+00 3.996754e+00 3.188340e+00 4.158434e+00 3.349280e+00 3.435377e+00 4.543149e+00 3.807419e+00 2.415181e+00 3.966310e-01 2.634601e-01 3.335518e-01 7.377921e-01 5.754274e-01 6.570744e-01 7.035809e-01 7.185524e-01 5.196924e-01 6.269166e-01 6.588109e-01 4.673674e-01 5.992407e-01
<GCONST> 1.270429e+02
<STATE> 3
<MEAN> 39
 3.577180e-01 -8.737722e+00 -1.179983e+01 -2.072405e+01 -9.884633e+00 1.066084e+01 -1.201055e+01 -5.541552e+00 -2.321207e+00 -1.255076e+00 2.728504e+00 -1.118216e+01 7.358950e+01 4.265515e-01 1.043140e+00 2.457637e-01 -8.710288e-01 -5.386898e-01 1.756510e-01 -5.086863e-02 -9.811030e-02 -8.408607e-01 -9.367349e-02 5.749661e-01 8.458037e-01 -6.790928e-01 3.764046e-02 1.314270e-01 1.378266e-01 1.802238e-01 -1.098235e-01 -2.820814e-01 -5.286803e-02 5.611298e-02 -7.038565e-02 -2.470694e-02 -1.714033e-01 9.201209e-02 -1.627591e-01
<VARIANCE> 39
 1.837063e+01 3.603553e+01 3.586725e+01 5.478108e+01 4.325618e+01 4.660566e+01 3.620531e+01 5.151735e+01 5.855857e+01 6.063414e+01 5.469849e+01 4.820787e+01 1.478275e+01 2.261267e-01 7.931554e-01 6.146381e-01 1.151435e+00 1.336101e+00 1.506437e+00 1.280515e+00 1.651733e+00 1.609440e+00 1.826561e+00 2.076110e+00 1.837089e+00 2.557937e-01 4.678043e-02 1.163048e-01 1.088295e-01 2.301862e-01 2.273076e-01 2.507394e-01 2.196406e-01 2.780490e-01 2.728913e-01 3.209535e-01 3.453516e-01 3.345912e-01 4.476940e-02
<GCONST> 9.781881e+01
<STATE> 4
<MEAN> 39
 3.304674e+00 9.815940e-01 -7.411419e+00 -1.893943e+01 -1.313712e+01 5.631173e+00 -1.290035e+01 -5.173503e+00 -7.433830e+00 -1.472912e+00 1.571919e+00 -6.124530e+00 6.176948e+01 -1.317557e-01 5.661134e-01 7.381372e-01 1.694230e+00 5.353234e-01 -1.223345e+00 1.046110e-01 -1.189292e-01 -1.936031e-01 -5.832385e-02 -6.541871e-01 4.297307e-02 -1.712517e+00 -1.901831e-01 -1.509675e-01 8.418796e-02 3.048959e-01 2.410292e-01 -9.164970e-02 1.432623e-01 -2.283923e-02 1.658472e-01 3.903473e-03 -1.047376e-01 -7.249618e-02 -4.643782e-02
<VARIANCE> 39
 1.765073e+01 4.554426e+01 4.690908e+01 8.111697e+01 5.040092e+01 6.972933e+01 6.345379e+01 5.613868e+01 6.272426e+01 6.298840e+01 5.340691e+01 4.192723e+01 8.583057e+01 1.215461e+00 2.126280e+00 2.027089e+00 3.307961e+00 3.357052e+00 3.705591e+00 3.230739e+00 2.907687e+00 3.440376e+00 3.591732e+00 3.062601e+00 2.512852e+00 2.434694e+00 1.953124e-01 3.471202e-01 3.432160e-01 5.624217e-01 5.750415e-01 6.486472e-01 5.732117e-01 5.480601e-01 6.271480e-01 6.666614e-01 5.825432e-01 5.379189e-01 4.248109e-01
<GCONST> 1.270909e+02
<TRANSP> 5
 0.000000e+00 1.000000e+00 0.000000e+00 0.000000e+00 0.000000e+00
 0.000000e+00 6.772090e-01 3.227910e-01 0.000000e+00 0.000000e+00
